0.0396006,0.0993169,-0.191686,-0.0261081,-0.103336,0.0113792,0.0852327,0.0524382,0.0327319,0.0983586,-0.00902594,0.0349038,-0.148228,0.00770109,-0.109079,-0.0793627,-0.0209678,0.0579857,0.113677,-0.0520906,0.0562138,-0.146104,0.125031,-0.0270384,-0.010538,0.0162998,-0.0702516,-0.114506,-0.0624929,-0.0771504,0.0633259,-0.0342603,0.13123,-0.0767201,0.0599767,0.0332761,-0.015525,0.0782077,-0.132175,0.0684592,-0.0725106,0.0839766,-0.0139128,0.0948309,0.0443551,0.0809549,-0.00641469,-0.0730094,-0.0979493,0.181768,-0.155525,0.11805,0.0912715,-0.0582959,0.0463878,-0.0237821,0.0867717,0.00924428,-0.179492,-0.0441863,-0.152274,-0.00646013,0.16789,0.121413,0.0186355,-0.0249726,-0.142224,0.0123055,-0.182457,-0.12363,0.0956196,0.00303436,0.0927201,-0.156689,0.169033,-0.125321,-0.111838,-0.163882,0.0360053,-0.00818714,0.00697246,0.0333785,0.0220949,-0.113376,-0.0884103,-0.0767645,0.0454005,0.12284,0.0934989,0.00350275,-0.0883989,-0.0357178,-0.0469217,-0.102121,-0.144567,-0.0960562,0.0521638,0.00941902,-0.0403261,-0.111405,-0.0877504,-0.132599,0.131956,-0.160225,0.00663399,0.0503621,0.0269498,0.15572,0.0598599,-0.167001,-0.0792366,0.0548419,0.0761189,-0.141371,0.0121368,0.033919,-0.0340642,0.197048,0.0317936,0.0346458,-0.0664228,0.0320526,0.0916125,-0.0304864,0.0779239,-0.0465463,0.0645609,0.0176957,-0.110262,0.00231563,-0.114357,0.00902558,0.0619736,0.0951541,-0.0865553,-0.0735446,0.046095,-0.0786351,0.0299108,0.0937332,0.084487,0.049032,-0.14058,0.0322841,0.0264677,0.021256,-0.0261128,0.036614,-0.0294104,-0.0941937,-0.109844,-0.172931,-0.0626185,-0.0990859,0.1083,-0.0937453,0.111146,0.0647307,0.0560449,-0.0256183,-0.0189872,-0.0105884,-0.166909,0.0304239,0.0185043,0.0358771,-0.00659364,0.0439948,0.0197618,-0.148327,-0.101609,0.119841,-0.0442745,-0.146344,-0.0760292,0.0232268,-0.111144,-0.0456255,-0.0930442,0.148768,-0.0608794,0.0211589,0.10712,-0.0244185,0.124079,0.0301273,0.0578113,-0.142067,0.070326,-0.053073,-0.00749961,0.00246968,-0.0891454,0.0309694,0.00574942,-0.0841141,-0.0252567,0.137742,-0.163502,-0.0432451,0.0775054,0.0713456,0.174311,-0.0479184,-0.126363,0.0453509,0.0238892,0.0612226,-0.0234583,-0.0204567,0.0842338,-0.159044,-0.0260182,0.116222,0.0605226,0.105035,-0.110171,-0.0823622,-0.0103993,-0.129506,0.0871035,-0.00234223,0.0422557,0.0607506,-0.0863091,0.0240587,-0.041043,-0.0261973,0.0870684,-0.0906428,0.0508705,-0.0467695,0.0278603,0.105639,0.19134,-0.115518,0.10021,-0.0506388,-0.0343528,0.0597605,0.0635008,-0.00838038,0.0540988,0.0338362,-0.0700602,0.0826694,0.110835,-0.0478124,0.0173219,0.044992,-0.147873,-0.00565488,-0.105027,-0.0425939,0.0944263,0.0669967,-0.141151,0.143751,0.00674195,0.132932,0.130986,0.0451269,-0.0355971,-0.0109454,0.109448,0.104971,0.100497,0.0265457,0.0288708,0.0109784,-0.0813902,-0.0520112,-0.0235068,-0.0873674,0.0771819,0.0238765,-0.0647681,-0.0892636,-0.0194328,0.0724142,-0.00440451,-0.0463559,-0.122475,-0.0133242,0.0617561,0.126725,0.0241234,-0.0162268,-0.0553785,0.0965444,-0.0332625,0.0473842,-0.187858,-0.00879389,0.0677443,-0.00247866,0.0484206,0.0643387,0.0869722,0.0646788,-0.120095,0.00458226,0.0636065,-0.141771,-0.114862,-0.108204,0.11501,0.0325726,-0.0369725,-0.0230837,0.0023729,-0.0875626,0.0921399,-0.0350838,-0.147679,0.00541434,0.00170518,-0.0680158,0.094393,-0.023895,0.0690978,0.0885419,0.131866,0.0501258,-0.136311,0.0585688,0.164063,0.0565645,-0.00894515,0.155222,-0.0211422,-0.0543752,0.0168468,0.0980735,0.175895,0.0228361,0.0721417,-0.0011311,-0.00869027,0.027629,-0.0149107,-0.0172971,0.0596859,-0.027414,-0.187803,-0.149132,-0.0166988,0.00399261,-0.0795316,0.00225247,0.0180314,-0.0955937,0.0839703,0.0103882,0.0558619,-0.00252781,0.0191285,-0.0719639,-0.0363022,-0.169453,0.0205966,-0.0103675,0.05676,0.004574,0.157648,-0.140248,-0.139894,-0.0145775,0.0332983,-0.0843529,-0.0898397,-0.124963,0.149522,0.123827,0.0107675,0.0652923,-0.18094,0.194457,0.0676755,0.133367,0.0284924,-0.0798504,-0.0371123,0.0201592,0.0134155,0.133887,-0.0753131,0.159895,0.0727462,0.090836,0.0575116,0.0545876,0.155403,-0.0966743,-0.0497206,0.109299,-0.0189559,-0.0737428,-0.134395,0.00722277,0.0157626,0.0570341,0.0836358,0.128131,0.0531733,0.0811215,-0.140378,-0.0299934,-0.136503,-0.109471,-0.0678276,0.108766,0.060833,-0.0691531,-0.0281667,-0.0536248,-0.0767093,0.0438138,0.0573129,0.0142494,0.129387,-0.104883,0.0239993,-0.0252765,0.0248905,-0.0582878,0.0408226,0.0797656,0.118559,-0.102167,-0.0914551,0.158157,0.0461531,0.0421011,-0.0998574,-0.154587,0.0989737,-0.11163,0.150436,0.162612,0.12661,0.00562386,0.0457725,-0.0305383,0.041154,-0.0186001,0.0646082,-0.0285339,-0.0676173,-0.143982,-0.0153068,-0.0443036,-0.00822494,-0.13307,0.102806,-0.0141449,0.0396362,0.107381,-0.130002,0.0728785,0.0938552,-0.020491,-0.0105812,0.0285111,-0.0305677,0.0281406,0.0702571,-0.0365498,-0.125056,-0.0216605,0.0335305,0.035791,0.0168566,-0.0518508,0.13227,0.0996854,-0.0701984,-0.0706771,0.112319,0.0640262,-0.0891047,-0.156486,-0.175863,-0.0831773,-0.190479,0.0276249,0.0764516,0.111595,0.0184812,-0.00380335,-0.134073,-0.0763932,0.0496297,-0.0721057,-0.00694729,0.00723865,0.0256499,-0.0980636,0.124398,-0.112901,-0.00327454,-0.0149992,-0.0141507,0.0236183,0.11132,0.10762,-0.119884,0.180146,0.144203,-0.0180013,0.0586397,0.112712,0.00477993,-0.186045,0.0263242,-0.0964186,0.182239,-0.029929,0.0387089,0.0655956,-0.124462,-0.0572505,-0.0334136,-0.0372862,0.0602593,-0.139656,0.0390693,-0.0436693,-0.104049,-0.025525,-0.00794656,0.0526347,0.135622,0.00407082,-0.0515027,-0.118961,0.171224,0.165696,-0.115584,-0.051928,-0.0514274,-0.0916201,-0.140283,-0.0987069,0.0114643,0.0493469,-0.0286011,0.0588632,-0.0901642,0.00223613,0.147557,0.0851679,0.0178462,-0.19163,-0.166694,-0.120648,-0.0609585,0.0165786,-0.0151796,0.155301,-0.0264348,-0.0745821,-0.127695,0.0811016,-0.00980081,-0.140143,0.125221,-0.0126653,0.132937,0.0525903,0.0282315,0.0364551,-0.120401,0.00656371,-0.0175241,-0.130481,-0.130471,-0.0592013,-0.0666901,-0.0174689,-0.064853,-0.00982074,0.0807557,-0.106282,-0.166132,0.0721742,0.0286007,0.0985709,0.033541,0.057527,0.00428361,-0.192031,-0.0124305,-0.15553,0.0689098,0.018626,-0.0801591,-0.0140717,0.0365207,-0.17348,-0.0136738,0.062643,-0.035464,0.0820047,-0.00986673,-0.0362852,0.0841696,0.00552497,-0.0152923,0.145166,0.0479278,0.0820158,0.130036,-0.0844018,0.0590332,-0.0425608,-0.0840394,0.0271394,-0.0933489,-0.0967617,0.00650049,6.90593e-05,-0.0881582,0.0566292,0.135211,-0.0564966,0.0240991,-0.0330236,-0.126727,0.0827349,-0.0198178,0.0682169,-0.0546723,-0.0304366,-0.0315614,0.0814539,-0.100112,0.0658101,-0.0383003,0.0927179,-0.187066,-0.173157,-0.167781,-0.106913,-0.0189368,0.085468,-0.0521146,0.178258,-0.0580594,-0.000106116,-0.0673853,-0.00470504,0.0576723,0.0249504,0.0923968,0.149107,-0.0461873,-0.0252645,0.175954,0.101306,0.0965296,-0.00693801,0.0701367,0.143688,-0.115529,0.00387292,-0.0529818,0.00785234,-0.00325333,0.0195302,-0.0843003,0.192711,-0.130337,0.137544,0.142438,0.0232394,0.0319044,0.0893783,-0.0261995,-0.0435453,-0.0353826,-0.15262,-0.0285344,-0.10875,0.0891229,-0.034812,0.065631,-0.0572396,-0.137127,0.0241928,0.0755312,0.00720755,0.0242301,0.0199012,-0.0467432,-0.0478649,-0.0105014,-0.0683883,0.108499,-0.150114,0.0357134,-0.102782,0.0628158,-0.0500251,0.0591701,-0.159858,-0.0398008,-0.0140042,0.00101984,-0.00627815,0.12406,0.118063,-0.0342932,0.0506242,0.126807,0.045881,0.00604831,0.0325689,0.0127604,0.0527147,-0.135704,-0.0567925,-0.135958,-0.0829552,0.0865962,0.00894177,0.00544641,0.0332698,0.103742,0.153032,0.0424436,0.00418101,-0.0792646,0.0833648,0.10996,-0.0690322,-0.147795,0.173411,-0.0205934,-0.000212408,0.110442,0.0241972,0.160839,0.0590567,-0.0900687,-0.0200902,-0.000325518,-0.0408864,-0.0315828,-0.0921615,-0.0295504,0.0316932,0.000742579,0.0601151,-0.0806747,0.136265,0.0927446,-0.129332,-0.0257916,-0.0705471,-0.124494,0.0106307,0.0347829,0.0428511,-0.0515313,0.0674762,0.0322628,-0.0488225,-0.173626,-0.0852643,-0.00581398,-0.0195012,0.0159811,0.11081,0.110001,-0.182048,0.0265096,0.0215935,-0.0125856,-0.0709533,-0.0538197,-0.0160189,0.0861283,-0.127625,0.0146784,0.0371754,-0.109741,-0.0762929,0.0943649,-0.0354741,0.00633348,-0.0197692,-0.00711168,0.0511395,0.0453331,0.128232,0.12905,0.0980691,0.0590811,-0.0985717,-0.132301,0.181051,0.116491,-0.0338223,0.043965,0.0230064,-0.0843582,-0.0183772,-0.0322067,-0.0487966,-0.0861069,-0.145382,0.112899,-0.0494968,-0.00608644,0.104334,-0.0414952,-0.0687992,0.115209,-0.0389911,-0.0759095,0.0403127,-0.057483,-0.031072,-0.0145321,0.0122525,-0.132787,0.0018782,0.00797224,0.133462,0.0529265,-0.0306595,-0.0382518,0.076198,-0.0307343,0.0295479,-0.195592,0.0294084,-0.101503,0.115639,-0.112237,0.162524,-0.0575217,-0.0878865,-0.141748,0.0413435,-0.108834,-0.0442215,0.0109798,0.0746024,0.0632117,0.0234667,-0.0189711,-0.109451,-0.127732,-0.151177,0.0558589,-0.0470814,-0.0185753,0.045191,0.0524725,-0.00722695,0.0357649,-0.058654,0.119558,0.140448,-0.0276231,0.0635382,0.107931,-0.00079299,-0.0165378,0.0201309,-0.00542089,-0.0735561,-0.0818496,-0.0608727,0.0118388,-0.00869015,0.00189117,-0.00865297,0.0659847,-0.0450191,-0.0599426,-0.0233181,0.0767194,0.119488,0.0835567,-0.131065,0.051034,0.129535,-0.0371184,-0.0772445,0.148094,0.055284,-0.0212888,-0.024343,-0.067184,-0.0282282,0.00518105,-0.120289,-0.010021,0.0808604,0.0290567,0.0108128,-0.173929,-0.189238,0.159797,-0.085612,-0.0567227,0.164708,-0.00621231,-0.0401165,-0.0246553,-0.0842547,0.0126956,-0.0181586,-0.00855229,-0.00213137,0.0442154,-0.0459241,0.0653604,-0.00979775,-0.0487091,-0.0669351,0.0958429,-0.0624385,0.143938,-0.0229309,0.0805781,0.0243154,-0.133751,0.0423304,0.0230859,0.142384,-0.0657373,0.0314045,0.0217879,-0.0701778,0.119877,0.0566602,0.0102147,0.134262,0.0289527,0.0894079,0.150824,0.0395351,-0.120269,0.0927575,-0.0274172,0.161566,0.101314,-0.151625,-0.0183447,-0.0196959,0.157421,-0.0875171,-0.047683,-0.0334282,0.0329111,0.0870682,-0.0358747,-0.0679552,0.0233065,0.0974583,-0.0250004,0.0363402,0.0850357,0.0647769,0.137919,0.0478613,0.143296,0.0629017,-0.0854914,-0.00886438,-0.0419177,0.167328,0.035665,0.0766038,0.07374,-0.0183448,-0.0417434,0.0344743,0.0704548,-0.0779284,-0.0285832,0.0964705,-0.0279254,0.0457728,0.18498,0.0858989,-0.0939227,0.0656064,0.00764904,-0.0457978,0.105756,0.060965,-0.0292602,0.0583511,-0.0824444,0.014669,0.0351645,-0.0400327,-0.031071,-0.0315097,-0.187175,0.0610544,-0.0198266,0.111948,0.112899,-0.119008,-0.0490884,-0.0577309,-0.0562703,-0.0626955,-0.000827784,-0.0912732,0.00105934,-0.0481257,-0.034617,0.155175,-0.00812823,0.168169,0.169299,0.175035,-0.186,-0.105616,-0.062611,-0.0804775,0.00134484,-0.0866147,-0.0290377,0.100869,0.0306086,-0.0992995,0.127998,0.179123,0.0586052,0.0442823,-0.0344413,-0.0470645,0.158331,0.0117183,-0.0915496,-0.0993731,-0.0819376,0.0647749,-0.00508301,0.0336116,-0.0134014,0.082437,-0.125135,0.0182921,0.169885,0.0765511,-0.0970421,0.057261,-0.0775095,0.187672,0.00370839,-0.0875565,-0.138223,-0.00939682,0.0235847,-0.077896,-0.095302,0.0656613,0.0727131,0.0488054,-0.0192002,-0.0302805,0.000666863,-0.0838881,-0.0268076,-0.0998243,-0.0624323,-0.019033,-0.0476058,-0.0452462,0.0360755,0.0794015,0.0766341,-0.0795368,0.0969207,0.0189127,-0.0489072,-0.028036,-0.083103,-0.129901,0.113821,-0.0372361,-0.0642315,-0.0449747,0.177273,-0.0604655,-0.128024,-0.0269275,-0.0095653,-0.149835,-0.135732,0.0465944,0.00552821,-0.0997107,-0.0466953,-0.0686642,0.0514367,-0.00964559,-0.0412383,0.0315901,0.0349739,-0.0877313,0.131882,-0.0471543,0.178862,0.0766557,-0.0608738,0.0109663,-0.188704,0.0293693,0.040428,-0.0634856,0.0242673,-0.0809093,-0.0773789,0.0114674,-0.0472668,0.0335399,0.0678818,0.114756,-0.0225686,0.119966,0.0329899,0.0918682,0.173294,0.130041,0.0163665,0.0191636,0.0502218,-0.0670988,-0.176187,-0.0828952,0.116927,0.132524,0.104003,-0.0648284,-0.175404,-0.0800219,-0.108783,0.096251,0.059654,0.0871434,-0.161915,0.0187634,-0.024685,-0.0815877,0.0691623,0.0567207,-0.026608,0.0723568,0.151239,-0.145857,0.025264,-0.10054,-0.191118,0.00836013,0.100342,0.0924247,-0.0235352,0.0295868,0.101462,-0.0190156,0.109043,0.0596429,0.0862494,0.097748,3.43129e-05,-0.012168,0.0771605,-0.121545,0.19476,-0.0148862,0.0412224,-0.129061,-0.0864196,-0.078868,-0.0558055,-0.0497651,-0.00221636,-0.093889,0.103049,-0.174456,0.0590771,-0.0948517,-0.134597,-0.0683961,-0.0835695,0.0796276,0.0928095,0.108899,-0.124625,0.160896,-0.042053,0.0163266,0.0592102,0.0479003,0.0674538,-0.0179967,-0.0754756,-0.0782353,0.0422085,0.0126785,-0.0802856,0.0566533,0.0461044,0.0543702,-0.00786814,-0.159006,0.0382608,-0.131246,-0.0771082,0.0586645,-0.0212321,-0.0367195,0.0836246,-0.099773,-0.0660175,0.0290838,0.0341626,0.0246912,0.171778,0.0106411,-0.109882,0.0988059,-0.102005,0.0787164,0.152547,-0.0353362,-0.0599555,0.0851999,-0.12536,0.125884,0.0903391,-0.0263834,-0.00893948,0.0418467,0.0905297,-0.153725,0.119886,-0.0469777,-0.0503234,0.170007,-0.137693,-0.0395194,0.0413546,-0.0201783,0.0401149,-0.0344554,-0.0550315,0.113853,0.0743316,-0.0215535,0.113364,0.0651712,0.161535,0.0106726,0.13695,0.0558711,-0.149232,0.168508,0.0980117,-0.031957,0.187455,0.0194672,0.108297,-0.0474167,0.143619,0.0689021,0.0412878,0.0311039,0.0968967,0.142487,-0.0752754,0.043528,-0.149952,0.129143,-0.0842142,-0.131723,-0.0442567,0.056608,0.0621622,-0.119067,0.0236448,-0.0106063,-0.000499756,-0.00805244,0.077176,-0.049104,0.0407211,-0.148472,-0.0743646,0.0520245,-0.0604583,0.113705,0.0266005,0.0388384,-0.114459,0.0036091,0.153469,0.0767602,0.126736,-0.0098038,0.11653,-0.132421,0.0369799,0.0697117,-0.174998,-0.0835793,-0.0397016,-0.18805,0.0713592,0.107204,0.120321,0.0701662,0.0895401,-0.0348148,-0.1338,0.0168602,-0.0459649,0.105462,0.0903305,0.104005,-0.0346668,-0.189936,-0.0677799,0.0757118,0.0231733,-0.176332,-0.00980387,0.0779635,0.030602,0.00657914,0.0352085,0.0863867,0.070814,0.109547,0.0137641,0.0247892,-0.0627548,0.0623068,0.0470985,0.146011,-0.112368,-0.0734395,0.0527723,-0.011955,0.0148594,-0.0179541,0.0206398,0.0157412,-0.0987146,-0.0663761,-0.0940661,-0.0924991,-0.0412478,0.0251099,-0.00507834,-0.0546259,2.09545e-06,0.0378055,-0.105417,-0.109588,-0.011055,0.120364,-0.0683534,0.0633755,-0.161307,0.0753731,0.00349933,0.0595947,-0.0410359,-0.131828,0.1373,0.0457056,0.108481,0.079082,-0.00161822,-0.197874,-0.110567,-0.036197,-0.146292,-0.076593,-0.0656328,0.132708,0.0851093,-0.120669,0.087102,0.103702,-0.0635729,-0.10411,0.103307,0.0974771,0.0774481,0.0439645,0.195533,0.174144,0.0276264,-0.0288367,-0.117073,0.0776351,-0.0202239,0.0112481,-0.129468,-0.0341677,0.0839949,0.0129067,0.0200367,-0.161414,-0.085759,0.037727,0.0992306,0.0632613,0.0251808,0.0464483,-0.0628009,-0.0461355,-0.00606415,0.036883,-0.0607176,-0.13166,-0.0270948,0.0795878,0.12447,-0.0504861,-0.0266806,-0.0207637,-0.0359843,-0.0890545,0.0896444,0.000291342,0.0810022,0.0805486,0.0152529,0.0560967,-0.0411524,0.0564117,0.0811232,0.126496,-0.02984,-0.0484056,0.0296771,-0.0967358,0.0759146,0.10614,-0.0319547,0.0332276,0.113589,0.180711,0.0646955,0.0744607,0.00124212,-0.000118647,0.105573,-0.0920237,-0.0688472,0.00150249,-0.139372,0.0258503,0.0866793,-0.00432799,-0.0597439,-0.0729198,0.118576,-0.111153,0.020064,0.085846,0.130081,-0.0546861,0.00615674,0.178745,0.0553027,-0.0196622,-0.011871,-0.194966,0.125681,-0.0913097,-0.121853,-0.061447,-0.0511867,-0.00458802,-0.0755826,-0.14747,0.0258506,-0.0281316,0.0402906,0.0804232,-0.0418966,-0.131394,-0.0798546,-0.0515512,0.019951,-0.155443,-0.0677816,-0.117657,0.0802153,0.0627352,-0.0709216,0.0273165,0.0809214,-0.121049,0.0541418,0.0521805,0.0973313,-0.112135,-0.00319748,0.158505,-0.0964313,0.0430281,0.0311808,0.175056,-0.000760567,0.0704065,-0.180938,0.0384285,0.0324428,-0.0618895,0.0011613,0.0345087,0.126944,0.0759368,-0.0603677,0.0156013,-0.0104296,0.0408952,-0.0696338,-0.135023,0.116672,0.0181179,0.0774694,0.127677,0.00363923,-0.0872311,-0.0411809,-0.101742,0.050543,-0.0670495,-0.0213848,-0.0631285,0.0137653,0.0981602,0.153114,-0.0220571,-0.0160539,-0.0251153,-0.121897,-0.0983722,-0.0468882,0.0753853,0.00721513,0.0403785,0.13538,-0.161982,0.115704,0.00383576,0.0702089,0.0226837,-0.0890259,0.0604214,0.0158542,0.0707933,-0.0361709,-0.016125,-0.0198427,-0.17593,0.141601,-0.100112,-0.0324734,0.14417,0.186738,-0.0205441,0.0632873,0.0235731,0.0938926,-0.0393516,0.0594998,-0.0437712,0.041746,-0.138737,-0.0569903,-0.0397217,0.0968816,0.0850092,-0.109294,-0.138517,-0.0507218,0.108039,-0.0308178,0.000733558,0.0524972,0.0865648,0.0682591,-0.0562287,0.019594,-0.073686,0.135769,0.0182458,-0.0826674,0.0276304,-0.128284,-0.0259231,0.110736,0.0994124,0.0396024,-0.155107,-0.0165086,0.185298,-0.00403833,0.0363396,0.0755093,-0.0488223,-0.107678,-0.153763,-0.145176,-0.0724942,0.0718634,-0.193,-0.123442,-0.00788961,-0.0316545,0.0229779,0.141379,-0.0742368,-0.0221215,0.0901935,0.0328612,-0.0535779,0.151492,0.101723,0.0979737,0.0876802,0.0374278,0.0382249,0.0704295,-0.056181,-0.00508493,-0.0344245,0.0375761,0.0222528,-0.129015,-0.0100622,0.0762929,-0.127699,-0.00569897,0.0119589,0.0335391,-0.0918853,0.0985479,-0.0180185,0.16553,0.0717767,0.0436255,0.0557633,-0.0336736,-0.0439238,0.0913046,0.0505869,-0.0491308,-0.0833621,-0.0375221,0.0912979,0.016452,-0.0573487,-0.0695014,-0.0373149,-0.173204,-0.00262979,-0.0831953,-0.0493871,0.0681087,-0.0186116,-0.0236956,-0.0625773,0.178251,-0.0641322,0.0256068,-0.0466957,-0.019745,0.0811132,0.116622,0.0592271,0.0476427,0.0662106,0.0557337,-0.00831515,0.162853,0.0228581,-0.0851335,0.117373,-0.0262337,0.0249401,-0.00587082,0.158993,-0.057647,0.162758,0.105447,0.0631828,0.0634125,-0.0402732,-0.0643943,0.0192755,0.0369437,0.116499,-0.00552948,-0.146886,-0.0177012,-0.126162,-0.0923804,-0.103685,-0.0474606,-0.00107638,0.0159291,0.195168,0.0290664,-0.0174631,-0.0161176,-0.0977199,-0.08913,0.0706337,-0.128497,0.0806183,-0.0306251,0.0533491,-0.0895902,-0.092834,0.0891692,-0.0816548,0.0497382,-0.126734,-0.0274417,0.165242,0.063733,0.0605622,-0.12865,-0.00183803,-0.100229,0.0717864,-0.040335,0.0117751,0.127718,0.0452157,-0.0127926,-0.11945,0.0478862,0.0778407,0.18265,0.0252293,-0.0165093,-0.122959,0.0509233,-0.0672298,-0.0615483,-0.11271,-0.0130903,-0.0969931,-0.0431607,0.17324,-0.0899155,0.0750169,-0.0793682,0.100194,-0.0836661,-0.00840375,-0.0609686,-0.0584385,0.0837606,-0.0501994,0.155725,0.0175679,0.0477496,-0.118645,0.109488,-0.121843,-0.107609,0.0609553,-0.00184045,-0.156163,-0.112839,-0.098265,-0.0610248,-0.0320038,-0.0389179,0.117917,-0.0158932,-0.166462,-0.154445,-0.17841,-0.018942,-0.113321,-0.0105873,0.0571836,0.145577,-0.0330671,-0.0322912,0.1105,-0.0691742,0.110897,-0.114164,-0.0622668,-0.0455799,0.0201693,0.0184269,-0.04549,0.133026,-0.141352,-0.0472904,0.0168731,-0.0560734,0.0277626,0.057809,0.0527594,0.000732548,-0.0556388,-0.128418,-0.0654382,-0.112709,0.00890039,-0.0251143,-0.149318,-0.0208828,0.121568,0.0377498,-0.039441,-0.030529,0.0899053,-0.0770449,0.0556962,-0.141038,-0.122433,0.00183552,-0.0187841,-0.0889141,-0.0375463,0.0876765,-0.0437267,0.0465248,0.0514563,-0.158562,-0.110497,0.169037,0.0572801,0.0261061,-0.0486323,0.0985851,-0.124923,-0.102093,-0.148618,0.0519157,0.0908944,0.0512518,-0.0424239,-0.0813652,0.127259,-0.0110759,0.0999956,-0.0399262,-0.0085502,-0.0353291,-0.0542322,-0.0468669,-0.0242676,0.176661,0.00304158,-0.0420751,0.160386,-0.0530546,-0.00336923,-0.057375,0.0507883,0.0614972,-0.0924028,0.149034,-0.0993538,-0.0953278,0.0607362,-0.0601074,0.105049,-0.068693,0.161519,-0.0280506,0.0130236,0.0363827,-0.179546,-0.192577,-0.0316336,-0.11233,0.134312,0.0739369,0.0490183,-0.109001,0.0101297,-0.137805,0.00113459,-0.0963615,0.0245169,0.040176,-0.108464,0.0759812,-0.0149128,0.096108,0.0544867,0.0737358,-0.0773648,0.176546,0.0717704,0.00707021,-0.0827195,-0.0373518,0.139913,-0.0025373,0.0068027,-0.0166588,0.076938,0.0241395,0.101656,0.180926,0.144862,-0.000784808,-0.0517158,-0.068412,0.148901,-0.0638925,0.17875,-0.161657,0.0329492,-0.0437156,-0.0535604,-0.099476,0.0221853,0.00540707,-0.144792,-0.0435309,-0.0939666,0.0216996,0.120153,0.169235,0.0252536,-0.0298333,0.00921819,0.174241,-0.0653695,-0.102799,0.0428915,0.160385,0.00648373,0.0342854,0.049227,-0.0724862,-0.0278448,-0.0267225,-0.0177851,-0.000941075,-0.18252,0.0170842,-0.00542793,0.116041,-0.0938894,-0.0823847,0.121004,0.079295,-0.00551252,0.0355599,-0.0475053,0.0725226,-0.00787235,0.0565761,-0.146882,0.0488462,-0.157159,-0.0839367,-0.00407212,0.094277,0.106553,-0.0774302,0.0774247,0.150293,-0.156632,0.0325934,0.108628,0.141716,0.014295,0.0796849,0.0867073,-0.111457,0.0424152,-0.116115,-0.106167,-0.0249467,-0.0712192,-0.0380471,-0.0024264,-0.079911,-0.132781,0.0811759,0.030883,0.112207,-0.17016,0.0633506,0.0368203,-0.13255,-0.168369,0.0994704,-0.11319,0.0829389,0.164711,0.0141891,-0.0607663,-0.140353,-0.0419365,0.000793082,0.0155425,0.0711539,0.151923,0.0670443,0.0286157,0.0941533,0.113878,-0.00795413,0.0313207,0.0918565,0.0557893,0.0338079,-0.00273513,-0.0346216,0.0356987,-0.0672979,0.0146073,0.0135307,-0.171724,-0.0820917,0.0550695,-0.107955,-0.100147,0.00297674,-0.194665,-0.0467247,-0.11558,0.168961,0.0285901,-0.0574948,0.000539145,0.0887557,-0.0275048,-0.196006,0.0522939,0.0409358,0.0360205,-0.0101706,-0.0189703,-0.0384128,0.0383327,0.0711573,0.09307,0.143382,-0.0586786,0.192565,0.133656,-0.0761838,-0.024591,-0.0892078,0.0868597,0.0431832,-0.0748378,0.0982247,-0.00372442,0.00302486,-0.151614,-0.0803984,-0.0627741,-0.034692,-0.0259192,0.181406,-0.0591252,0.152699,-0.0449491,0.0166463,0.054287,-0.0281404,0.103597,0.099004,0.134004,-0.0254411,0.056169,0.178264,-0.176898,-0.0539682,-0.104779,-0.10685,-0.0644858,-0.11793,0.105438,-0.0590185,-0.196445,0.00388727,-0.0848852,0.0575672,-0.0238265,-0.0454669,0.171014,0.0909023,-0.0536135,0.0514522,-0.0168032,0.0691158,-0.00374763,-0.0409821,-0.0132278,-0.0761394,-0.0315067,-0.0944563,0.0197048,0.0552061,0.0194687,-0.0860908,-0.0110495,-0.0150505,0.0772984,-0.0455791,-0.186968,-0.0304725,-0.0264684,0.0943539,-0.0819136,0.115013,-0.0754932,-0.0982927,0.144546,0.128749,-0.0904793,-0.130801,-0.0101063,0.106002,-0.0439251,0.160223,-0.0403887,0.0152777,0.118527,0.0426102,0.016984,0.0305078,-0.0927967,0.00433043,0.117474,-0.053258,-0.0776998,0.118376,-0.168664,-0.0848351,0.163307,-0.0145865,-0.0154615,0.0394578,0.163424,-0.0645057,0.0606485,0.0612776,-0.136807,-0.0219562,0.0233651,0.0329622,-0.00830396,0.0602945,0.169062,-0.178563,-0.074347,-0.00812646,-0.0390489,0.0911485,0.0176873,0.103849,-0.0212926,0.154507,-0.0350361,-0.105809,0.0835414,-0.0147953,0.160586,-0.0770726,-0.112456,0.13135,-0.0451834,-0.0886125,-0.0449144,-0.00554002,0.181514,-0.0266009,-0.0133444,0.0449163,-0.0900251,-0.164383,-0.0979737,-0.0251637,-0.0418784,-0.0165365,0.0872867,-0.0408914,-0.0538597,0.0210421,-0.133222,0.0696929,-0.0227989,-0.00689803,-0.0299715,-0.085067,-0.0588663,-0.0828176,-0.0646635,0.190512,-0.0937644,-0.0624052,0.0914228,0.0358389,-0.00365165,-0.0178999,-0.0798877,-0.111374,0.123417,-0.0348014,0.0194739,-0.139337,0.00550772,0.064164,-0.135166,-0.124755,0.189969,-0.127058,-0.0302465,-0.023712,0.0489603,0.00238908,-0.112691,-0.0295587,-0.0545083,0.0432486,0.0557738,-0.027621,0.00569011,0.112501,0.0222802,0.0415812,-0.102317,-0.0403327,-0.0241792,-0.171815,-0.0897545,0.0630956,-0.00354715,-0.138127,0.150536,0.0659251,0.0742108,0.150802,0.0491447,0.158585,-0.0631772,-0.0362057,0.0546529,0.124453,-0.114936,0.145329,-0.0651941,0.0219215,0.0553597,0.0405596,0.129264,0.138933,-0.0151365,-0.0300442,0.10357,0.159502,-0.0610946,0.00843782,0.0573519,-0.00204297,-0.0183453,-0.0141511,0.0216849,0.111553,-0.0289419,-0.0516375,-0.0479369,0.151339,-0.0286888,-0.0344455,0.0725386,-0.118561,0.0466663,0.0719977,-0.0760039,-0.0233431,-0.0301189,0.0266995,0.175363,-0.113337,0.0109693,0.0041665,0.0357565,-0.143439,-0.0401313,0.0320581,-0.0506939,0.184849,0.1321,-0.0612556,-0.0318704,-0.0120872,-0.00888508,0.162064,-0.0176424,-0.0804093,0.100332,0.146797,-0.134225,0.0420272,-0.16623,-0.0626858,0.018922,0.00612155,0.00951863,0.142367,-0.023878,0.082207,-0.0966668,-0.197454,-0.0608068,-0.189081,-0.0810831,-0.0191329,-0.00124194,-0.0364397,0.0774615,-0.0550342,-0.197773,0.0944269,-0.0100429,0.000398786,-0.062629,-0.0123005,-0.00278015,-0.106566,-0.0312849,0.0967432,0.0852049,-0.179467,-0.0561775,0.0895034,-0.0431951,-0.124484,0.0729267,-0.0824961,0.0547551,-0.0285615,-0.0364825,0.177062,0.0875692,0.0979804,-0.0839197,-0.0722181,0.0864132,-0.144573,0.0163383,0.0134528,0.0483321,-0.0801384,-0.0181981,0.077682,0.0586574,0.0539694,-0.0637907,-0.0805824,0.0262692,-0.103777,0.0264731,-0.0913395,0.183278,0.00501236,0.000947333,-0.0733819,0.177881,-0.0618581,-0.0922333,0.0360268,-0.10256,-0.0339796,-0.0639619,-0.05629,-0.11609,0.036972,0.0228163,0.0805314,0.0551543,-0.0202935,0.0463575,-0.0579727,-0.0110813,0.0921135,0.0606368,-0.0803535,-0.0368864,0.133836,-0.165198,0.0615859,0.168625,-0.0381259,-0.0874622,0.00809498,0.132666,-0.0288454,0.0597103,-0.0252428,0.0692724,-0.0506779,-0.106162,-0.0610199,0.0536639,-0.0500539,-0.0909048,0.00904505,-0.105083,-0.0421549,-0.00808956,0.0197206,-0.0777811,0.0361531,-0.0785299,-0.11402,0.0125057,0.0224211,0.141237,0.080134,0.00377105,-0.18726,-0.163652,0.00460289,0.0168829,0.0467525,0.109805,0.0349638,0.0926267,-0.0201114,-0.021225,-0.172709,-0.0131517,-0.0731556,-0.129457,-0.026772,0.0660147,0.17124,0.155824,-0.102673,-0.0192319,0.18709,0.00733258,-0.0850426,0.0702913,-0.0758796,0.10856,-0.0392119,0.0328217,-0.00509821,-0.106843,0.0179055,-0.0308371,0.0274739,0.0533661,0.092258,-0.0884189,-0.0956378,0.0886925,0.0337113,-0.0376807,0.0454881,0.0260066,0.0185884,-0.0833637,-0.12512,0.0219456,0.0494506,0.107649,-0.0041047,-0.0165996,-0.0769006,-0.0464839,-0.152755,0.0777844,-0.0601752,-0.122514,-0.187558,0.126573,-0.0577194,-0.0934111,-0.0179091,-0.00148369,0.088152,0.159649,0.0359383,0.026898,0.0903913,0.0725828,0.0767438,-0.00591122,-0.0346526,-0.000205127,-0.0337393,-0.042646,-0.0535536,0.0411503,0.112458,0.0185442,0.0102297,-0.0365328,0.0837274,-0.0119642,0.151055,0.0535444,0.163697,-0.108407,-0.0429628,0.0123157,-0.0696178,0.148477,0.19652,-0.0735918,-0.033099,-0.0970823,0.0233798,0.108935,0.027734,-0.0915888,0.0319684,0.123131,0.0681543,-0.0128201,-0.0123099,0.101057,0.115631,0.131853,-0.0730023,0.0222534,0.0801255,-0.100017,0.01739,0.114983,-0.0964838,0.00498543,-0.0355728,-0.089397,0.128191,0.0628088,0.128311,-0.0245802,-0.0137681,0.0235355,0.170473,-0.0301899,-0.187203,-0.0676804,-0.0568344,0.0710022,0.119043,0.0891134,0.0340401,0.0482112,-0.013204,-0.0320527,0.019888,-0.141538,0.0553818,0.147148,0.058923,-0.188972,0.021328,-0.0255497,-0.0751184,0.0812889,-0.0211476,0.099324,-0.00989986,0.162061,0.0781004,-0.11337,0.0747506,-0.0139667,-0.180784,0.0438185,-0.11932,0.0463861,0.0972175,-0.0392262,0.0228946,-0.0224374,-0.0142204,0.0548971,-0.0757987,0.131614,0.00113115,0.0855726,-0.0365495,0.00362143,0.13144,0.016777,0.193173,0.0493274,0.0626515,-0.0319275,0.121931,0.0708916,0.0515378,-0.00461361,-0.0706563,-0.0674146,0.177447,-0.00541365,0.155034,0.0541646,-0.0225719,-0.0482371,0.00176815,-0.0433804,0.190278,-0.0906271,-0.0980083,0.0335968,-0.0608668,0.0418374,0.0246191,-0.00414733,0.083063,0.054396,0.0112639,0.0846011,-0.0480112,0.00863857,0.0310101,0.141179,0.0366035,0.0963415,-0.0202816,0.0705951,-0.0615299,0.000228236,-0.0295263,0.0632138,-0.111831,0.0653327,-0.0346767,-0.0614199,0.0287545,-0.034573,-0.0339617,0.032102,0.129815,0.0195244,-0.0705496,0.097531,-0.011997,0.00928579,-0.0598124,0.0200267,0.135047,-0.0362153,-0.103639,-0.0354064,-0.175297,-0.103973,-0.0211886,0.108645,0.0707639,0.092382,0.09346,0.0216839,0.0377647,-0.0754884,-0.0816878,-0.121844,0.0946199,0.0935901,-0.0838335,0.138509,-0.0147218,0.0324505,0.0349433,0.0502559,-0.000520313,0.0816576,0.117017,-0.0909376,0.126031,-0.0383163,-0.0438002,0.0977391,0.00763934,-0.161078,0.0223442,0.190077,0.00150604,-0.0257791,0.100341,0.0409968,0.0252041,0.118111,-0.175841,-0.00749027,0.186039,0.133662,-0.0767351,-0.0251025,0.0958629,0.0495179,0.0151562,0.067979,-0.0622601,-0.141627,-0.0759425,0.0280404,-0.0881428,-0.0957346,-0.0635683,0.0692472,-0.0235799,0.0344696,0.0226895,-0.0246581,0.162105,-0.0103249,0.0475462,-0.0640967,-0.155662,-0.0751908,0.147394,0.0311837,-0.0894064,0.0615303,0.0790858,-0.0343192,0.172128,-0.00830827,0.0862616,0.188571,0.0495095,-0.195657,0.0849199,-0.0558838,0.0482024,-0.130146,-0.0293015,-0.0055495,0.032764,-0.0388842,0.0558188,0.0821782,0.0865406,-0.0128674,-0.0458941,0.161522,-0.117054,0.0580917,0.0566758,0.0404387,0.0501079,0.115052,-0.099796,0.0135883,-0.147445,0.0982348,-0.0162,0.0545396,0.169262,-0.0567038,-0.090776,-0.0747643,0.064362,-0.0507299,-0.0934189,-0.0140837,0.107232,0.140316,-0.0205715,0.0955513,-0.115117,0.0635467,0.00573067,-0.0669722,0.0476489,-0.0489995,0.0517635,0.0290645,-0.108664,-0.00984578,0.00605365,-0.0293611,-0.1309,-0.0481055,0.0725524,-0.0741199,0.0493557,-0.106437,-0.0616554,0.177572,0.00627254,0.150749,0.0721673,0.0338484,0.0635689,0.0484654,-0.0997553,-0.114392,-0.0162698,-0.111103,-0.0703355,0.0363345,0.00230623,-0.00584052,-0.127406,-0.039929,0.0609433,-0.072156,-0.0765092,0.0463925,-0.11793,0.0280431,0.0803096,0.0216201,-0.0111793,0.039078,0.0405826,0.0424238,0.0184083,-0.0150396,-0.0344208,0.0274566,-0.013935,-0.0508415,0.0525185,-0.0889959,0.0672984,0.0434144,0.140394,-0.0703387,0.0769042,-0.0344656,0.105123,0.105331,-0.0182415,0.112722,0.0898414,-0.00778156,0.0386838,0.0939,0.171019,-0.0999787,-0.0931851,-0.107782,0.0126928,0.0178177,-0.012864,-0.0667993,0.0184196,0.0577005,0.0393542,-0.171172,-0.11097,-0.0166897,-0.118896,0.0967221,-0.00117927,-0.0225393,-0.149444,-0.0318287,-0.0752109,-0.0507904,-0.185235,0.169622,0.134896,-0.138575,0.184448,0.0378279,-0.0899549,-0.0721744,0.164666,0.14383,-0.0124301,0.0346032,0.0996245,0.0203806,0.00405664,0.0910335,-0.0666916,0.0234214,-0.116377,-0.007951,-0.0694887,-0.0819565,0.0501573,-0.062555,-0.0863026,-0.0584807,0.0865529,-0.153731,0.130105,-0.0919094,0.0858748,0.0789066,0.0276361,0.0647905,0.0210213,-0.0070123,0.0989631,-0.0126116,-0.105278,-0.0612275,-0.0267996,0.0082061,0.0757494,0.156578,0.0324307,-0.195531,-0.0532595,-0.00155013,0.126645,0.0343306,-0.00459162,-0.0312377,0.0618049,-0.104209,0.00948088,-0.0667027,-0.00260891,-0.00773882,-0.0376543,-0.0534751,0.127999,0.0605699,-0.0534997,0.103241,0.169119,-0.072303,-0.168784,-0.168125,0.00148261,-0.100927,-0.00623824,0.0819838,-0.0450366,-0.0882263,0.0447748,0.13607,-0.0900826,-0.0257005,0.0197553,0.0173576,0.00684928,-0.0978554,0.112544,-0.0353847,-0.1442,-0.0815074,0.0176787,0.125536,0.0425431,-0.101197,-0.0274915,0.0914652,0.0888681,-0.0532363,-0.0464022,-0.153232,0.0518228,-0.0739263,0.138758,0.0547515,0.030958,0.0382151,0.0237077,-0.0609296,0.084635,-0.0448392,0.0450126,0.0812156,-0.122443,0.0142162,-0.140826,-0.056396,0.00384631,-0.153028,-0.137583,-0.0445767,-0.0410541,0.0497937,-0.0773787,-0.131891,0.108683,0.0554608,-0.048051,0.0442577,0.110124,0.13918,-0.0107379,0.00648007,0.0699177,-0.0812371,0.0469188,-0.0473591,-0.0157507,0.0570614,-0.0025227,0.0395923,0.031601,-0.0856329,-0.133599,0.118867,0.037981,-0.0532414,-0.0652607,0.188857,0.0905084,-0.194812,0.0415089,0.0418391,-0.0340393,0.132822,0.0365851,0.0540376,0.0813005,-0.134071,0.0264033,0.0201886,0.0186843,-0.117547,0.0493822,-0.0113365,0.0404339,0.0190141,0.0026354,0.173817,-0.055218,0.128634,0.117294,0.106406,0.083637,0.113294,0.0354459,0.10608,-0.0642002,0.0524768,0.0166999,0.0116201,-0.0761498,0.0837312,-0.00828228,0.0415047,0.00749409,0.0303759,0.0193767,-0.00034357,-0.0268122,-0.0378809,-0.018505,0.0835976,0.00546598,-0.0307269,0.0688979,-0.0195747,0.0530987,-0.102958,-0.145963,0.0922688,0.0602475,-0.0500369,-0.091419,0.0355762,0.108647,-0.0196813,0.172643,0.122491,0.0790804,0.0764175,-0.150928,0.00636021,-0.0378837,0.102908,0.164675,-0.0933514,0.0460753,0.0508254,0.0381172,0.0140603,-0.0671476,0.0747707,0.0178842,-0.0332267,-0.0415491,0.0686901,-0.0236921,-0.00780207,0.127323,-0.0544976,-0.0556614,0.0755019,-0.179631,0.138149,-0.0534642,0.0104891,0.103577,0.0819189,-0.000501042,0.0325998,-0.0779113,0.070655,-0.0785655,0.0574861,-0.0198695,0.115531,-0.0847652,0.146904,0.129961,-0.107964,0.0351996,0.0318757,-0.100314,0.0150697,0.110759,-0.0153916,0.0391351,0.149484,-0.119007,0.0630525,0.0128566,-0.185834,0.0683897,0.0246508,0.0754479,0.145982,-0.0140343,-0.0365339,0.119996,0.0718873,0.17542,0.103752,0.00175232,0.0979094,0.0219998,0.0259799,0.0503082,0.101682,0.0467581,-0.151209,-0.0169979,-0.108189,0.00284192,-0.0140815,-0.0402305,-0.0975377,0.10945,0.189602,0.01525,-0.144277,0.0466081,-0.0308147,0.144134,-0.00864505,0.0695864,-0.0365395,0.143821,0.024802,-0.0930302,0.04892,-0.00300497,0.0859873,0.0654214,-0.0289158,-0.145823,-0.179842,0.043231,-0.110669,0.0241619,-0.0532811,-0.00884264,-0.0209361,-0.00717862,-0.13532,0.0628552,-0.0317938,-0.141902,0.0184328,0.0320695,-0.0362948,-0.100688,0.0673612,-0.0704079,0.0657077,-0.0600912,-0.053298,0.0103231,-0.0424258,0.0393289,0.019074,-0.00249063,-0.0266089,0.00867887,0.0261012,0.00575592,-0.164975,-0.0401712,-0.141759,-0.0691049,0.134368,-0.0813096,0.14086,0.0308995,0.0686432,-0.118489,0.0967351,-0.0941034,-0.0129937,0.0797712,-0.104689,0.121916,-0.00328428,-0.0175223,0.10697,0.0889943,0.0165241,-0.0762757,-0.098218,-0.0102316,-0.0127584,0.0587425,-0.191082,-0.0848791,-0.0705484,0.13732,0.0725765,0.0117059,-0.173347,0.0105837,-0.0502688,-0.160541,0.113841,0.0306836,0.112816,0.0964277,0.0351452,-0.0458413,0.00214006,0.0364147,0.00579472,-0.126408,-0.042309,0.106508,-0.0591178,0.0587582,-0.0738444,-0.104705,-0.037935,-0.160766,0.120028,-0.0687261,0.00699132,-0.0853655,0.0695087,0.0673592,-0.135295,-0.0106321,0.0840397,0.0439351,0.158446,-0.0442641,-0.09816,0.144187,0.0219591,0.02336,0.0219127,-0.0324634,0.0696903,0.020967,0.0872942,0.0671582,-0.0350359,0.0550859,0.0965769,-0.00240635,-9.3014e-05,-0.0770943,0.0271332,0.0601299,0.017186,0.0616771,0.134153,-0.0153541,0.0227967,-0.0226876,0.0345431,0.0589119,0.0134825,-0.159578,-0.0558812,0.0755887,-0.0565546,-0.0756714,-0.0601507,0.0241968,-0.00183911,-0.0824434,-0.148931,-0.103181,0.158943,-0.0210556,-0.0662109,-0.0683226,-0.00799076,-0.0579153,-0.0913823,0.0720957,-0.096337,-0.0486966,0.0509569,-0.00166391,0.086468,-0.0750563,0.0826777,-0.0235444,-0.0639485,-0.0116508,-0.125645,0.0770827,-0.106987,-0.0672973,-0.0669686,0.126737,0.0835503,-0.0768473,0.114251,0.16615,0.0270474,-0.0578688,-0.0183956,0.0189843,-0.145975,-0.0497427,-0.0232889,0.0206459,0.0717123,-0.0738482,0.0469509,-0.129871,-0.0655523,0.135194,0.113497,-0.0184952,0.0366997,0.011474,-0.10154,0.101297,0.0364831,0.0731517,0.0609438,-0.036586,0.0533949,-0.0583799,0.105618,-0.0786485,0.073654,-0.0906134,-0.0446204,-0.0609414,-0.0280142,-0.0479855,-0.0607313,0.0635857,-0.0862699,-0.128092,-0.0085427,0.0432619,0.00896452,0.0267786,0.192444,0.0114755,0.0278921,-0.111541,0.172252,-0.125884,-0.0294393,-0.0217871,-0.116938,0.0721841,0.0242156,-0.0853171,-0.139598,-0.116465,-0.130195,0.049871,-0.0191155,0.0823738,-0.0877497,0.0224469,0.0106859,-0.0424861,-0.0472164,-0.0409176,-0.0407293,-0.0154322,-0.156608,-0.0717689,-0.0235223,-0.0976978,-0.0795829,-0.00366058,-0.130192,0.0767877,0.0777591,0.0377137,-0.050985,0.0206324,0.00398814,-0.055696,-0.06527,-0.0526338,-0.0635654,0.0642013,-0.0655651,-0.0399385,-0.00498884,0.0395887,-0.0244705,-0.152649,0.165539,-0.0594459,-0.172553,-0.116777,0.00364456,0.0207995,0.081854,-0.0377287,-0.0590443,-0.00440276,0.180772,0.0068243,0.0332762,0.176712,-0.0338586,-0.0751822,0.114618,0.00158086,-0.115933,-0.181113,0.1224,-0.0654432,-0.0408032,-0.0423193,0.00952129,0.020906,-0.163389,-0.0503167,0.0258952,-0.0681723,-0.0289058,0.0917466,-0.180314,-0.115617,0.12909,-0.0308685,-0.0449644,0.0515303,0.130017,-0.169456,-0.000851263,0.000470173,-0.0038353,0.0499155,-0.070614,-0.00607958,-0.108891,-0.10997,0.0923813,0.18027,-0.0392632,-0.0684388,-0.056741,-0.144172,-0.143377,-0.143675,0.0360884,-0.00493883,0.0298069,-0.000887806,-0.132745,-0.144396,-0.000116912,0.00204996,-0.0339311,0.0934984,-0.0700933,0.14302,0.131744,0.101627,0.131595,0.1315,-0.143746,-0.125438,-0.195484,-0.0274411,0.00734029,-0.0656897,0.0856631,0.103358,0.0243479,-0.0613948,-0.0324747,0.0620528,-0.11725,-0.113445,0.0247232,0.0251045,-0.0475901,0.140277,-0.00773357,-0.0619225,-0.0827525,-0.127677,-0.0805192,-0.138776,-0.0735922,-0.0240547,0.0148115,-0.199985,-0.0990253,-0.0619006,0.0261932,-0.0872061,0.0340314,0.12152,-0.0646866,0.091274,0.0780129,0.0284397,0.0755224,-0.011875,0.055213,0.048632,-0.0151803,-0.0680087,-0.0315568,-0.0924025,0.0156447,-0.0869617,-0.0407142,-0.0394507,0.132916,-0.0216883,0.0771893,-0.0124886,0.0183688,-0.0512755,-0.0060026,-0.0155325,-0.0156579,0.119632,-0.131718,0.070531,-0.0815565,-0.0987051,-0.161496,0.0567249,0.0245488,-0.00935697,0.125726,0.103982,-0.174597,-0.0371455,0.0830432,0.177209,-0.0404176,0.0919191,-0.0123239,0.15792,0.000970069,0.0972781,-0.00736074,0.0395343,0.0973911,-0.0306485,0.0462675,0.0691502,-0.0938204,0.0258718,-0.0133949,0.047113,-0.0381268,-0.0196682,0.034567,-0.0668487,-0.0342991,-0.0352721,-0.0551901,-0.055759,-0.0744648,-0.0219146,0.0146168,0.0688597,0.141606,0.146339,0.132761,0.0114248,0.0160623,0.0557112,-0.0228619,-0.0751738,0.0598691,0.0179884,0.14161,0.0205019,0.0824556,-0.163019,0.0692593,0.00582313,0.00074697,0.0893326,-0.101219,-0.104101,-0.0480013,-0.0615878,0.00359553,-0.0977931,-0.083202,-0.0208538,-0.17526,0.0685014,0.110499,0.0715254,0.0129526,-0.0725228,-0.111276,-0.096022,-0.0342785,-0.0252474,0.0909389,-0.00627997,-0.102534,0.156135,0.0495295,0.192755,-0.096051,0.138021,-0.010259,0.0151573,-0.0348619,-0.0146148,0.0199694,-0.0249841,0.0654749,-0.00255801,0.136241,-0.0451311,0.0196855,0.110373,0.0617682,-0.0616138,-0.0528254,-0.00550331,-0.0945326,0.183545,-0.137545,-0.0952595,-0.148903,0.0132813,-0.138965,-0.140191,-0.0041011,-0.0217931,-0.0510694,0.0426214,0.0500116,0.188556,-0.126922,-0.120326,0.0904081,0.119633,0.0658393,-0.0949994,0.0887096,0.0467309,0.0312065,0.0660121,-0.0412119,0.10172,0.0106537,0.0460799,-0.097935,-0.139599,-0.0565167,0.0604239,0.0274697,-0.177194,0.114586,-0.0565921,0.0574853,-0.151139,-0.0310645,0.195423,-0.125889,0.090945,-0.0291993,0.12124,-0.0481343,0.173418,-0.0146413,-0.0590343,-0.0895637,-0.0277734,-0.028693,-0.114924,0.077374,-0.0723465,0.0535887,-0.00534655,0.152309,-0.00645969,-0.0483021,-0.0167222,-0.134731,-0.0434642,-0.0181038,-0.0722061,0.0748538,0.112331,-0.0392668,0.176268,0.0421634,-0.0565171,0.118985,0.0372418,0.161083,0.0168436,0.155345,-0.0376527,0.0506617,-0.0437421,-0.00690103,0.108578,0.112499,0.170925,0.0188128,0.0246777,0.0120741,0.0460739,-0.111855,-0.0493544,0.0631228,-0.0498085,-0.155661,-0.0700568,0.0811546,0.073406,-0.0228987,-0.0105961,0.188298,-0.0674606,0.0904193,0.0719535,-0.168735,-0.00424613,-0.0618188,-0.165199,-0.107668,0.140354,-0.082292,-0.00568462,0.0509694,0.149212,-0.0183105,0.0620366,0.144886,-0.0232982,0.0636842,-0.160545,0.0833449,0.165184,-0.0822573,-0.151557,-0.0254825,0.0103506,-0.00121155,-0.0171701,0.0542427,0.106138,-0.0536449,0.00437619,-0.0182249,-0.0853038,0.0817245,-0.0234378,0.0967744,-0.196275,-0.0846333,0.132458,0.037705,-0.0965417,-0.0140851,-0.0253433,0.0567175,-0.0747474,0.101077,-0.0518732,-0.0923377,-0.0817935,-0.0549742,-0.020028,-0.021301,0.0127266,0.119598,-0.135954,0.0459165,-0.0932009,0.190958,0.0937735,-0.0381667,-0.0857572,0.0652411,-0.149695,-0.149256,-0.117534,0.0759376,0.0702417,0.0472423,0.0238206,0.0373806,-0.101455,0.0948919,0.073397,-0.0781403,-0.00169352,-0.086435,0.075004,0.164775,-0.168186,-0.114184,-0.138985,-0.120269,0.030971,-0.0693201,-0.053867,0.083072,-0.0752605,0.0439134,-0.034817,-0.102648,-0.0392479,0.0567335,-0.0782312,-0.0411724,-0.12034,-0.0587307,-0.039375,0.116221,0.141258,-0.040993,0.0510027,0.111929,-0.0485773,0.0134928,-0.0594214,0.111931,0.0064771,0.115154,0.0522667,0.0503963,0.0106935,-0.123936,-0.0883339,-0.0333303,0.0172113,-0.163027,-0.0425668,-0.187085,0.103952,0.0853261,0.00590181,0.122317,0.0215837,-0.131844,0.0245616,-0.0230178,0.126168,0.0963347,-0.0277322,-0.00287845,-0.0573553,0.0492934,-0.0195918,0.0291141,0.0299028,-0.00211296,-0.051668,-0.0855835,-0.0391129,-0.132922,-0.010494,-0.0426083,-0.0160215,-0.0386312,0.105128,0.148371,-0.00614592,0.102173,-0.120103,-0.195461,-0.0867202,-0.0366494,0.00166755,0.132378,0.0704352,-0.053708,0.0225558,-0.0322628,0.105126,-0.0335162,-0.0262558,-0.0541015,0.1417,0.0358461,-0.0553689,-0.013495,0.0621656,-0.0649137,0.0895446,0.108623,0.13088,-0.119662,-0.16476,-0.00129578,0.0591295,0.152596,0.0336285,0.139662,0.139411,-0.0136847,0.11832,-0.00147593,-0.0674638,0.0669176,0.0321891,0.00992571,0.0281075,-0.00252449,0.0623541,0.18537,0.145711,0.00690454,0.124647,-0.04646,-0.0179147,0.0747442,-0.123614,-0.0817482,0.0649306,-0.0399811,0.0118816,-0.02142,0.0668852,-0.0586256,0.0573016,-0.0280965,-0.0996142,0.0185751,0.0518696,-0.0714205,0.0868474,0.0846303,-0.0750897,0.0257385,0.180525,0.0370199,0.0903032,-0.140053,0.035274,-0.00541731,0.0245961,-0.0897636,0.0471068,0.015533,0.00754473,0.00536748,0.161818,0.129511,-0.0339179,-0.0451705,0.139869,0.0120539,-0.0263476,-0.0968517,-0.0360042,0.0533784,-0.0781475,-0.0774178,0.0311593,0.0653528,-0.0982138,0.169487,0.000585768,0.0709457,0.032945,0.0111849,-0.0561996,0.0947146,-0.0942159,-0.00277069,-0.0477943,-0.124461,0.0363542,-0.0519668,0.0547877,0.095686,0.115407,0.0116008,-0.0713132,-0.0333342,0.0317721,-0.137242,0.123458,-0.076869,0.0466684,-0.0281262,0.0973497,-0.0214058,0.00644005,0.0825994,-0.0985896,0.123166,0.0607869,-0.00441745,0.142787,-0.183304,0.0937883,0.0108011,-0.0944687,0.0539683,-0.14574,0.011401,0.0563324,0.0425374,0.0808551,0.173215,0.0732809,-0.0202308,0.174757,-0.054197,0.109338,-0.160823,-0.0679032,0.0993312,-0.00524674,0.0434213,-0.0498961,-0.0474333,-0.0696764,-0.124852,0.0549063,-0.175663,-0.170234,0.0357062,-0.118765,-0.0853431,0.0929091,-0.0565234,-0.0266872,0.0539068,0.0710694,-0.175055,0.00638894,-0.00666871,-0.076689,0.0397328,0.0582842,0.131295,0.0421468,0.0293008,0.144999,0.0167041,-0.169736,-0.0272255,-0.00557323,-0.0074212,0.0836529,0.15187,-0.0528111,0.0258278,0.129754,-0.12871,0.0952257,-0.0626194,-0.122545,-0.0301491,0.0682832,-0.00986221,-0.125579,-0.189871,-0.0155144,0.0233914,0.0227376,-0.145076,-0.137518,0.0182303,-0.0123171,-0.0297646,-0.0748342,-0.0384689,-0.0473795,-0.00981228,0.12713,0.0827072,0.0078602,0.0513414,0.0960992,-0.10124,-0.0111105,-0.134129,-0.0345153,0.0299543,0.00680578,-0.0379444,0.0652379,0.152018,0.014391,0.0298214,0.104017,0.0571311,0.0509716,-0.0759422,-0.0435873,-0.0958262,-0.0452493,0.109505,0.046899,0.046296,-0.0383301,-0.0411421,0.0465015,-0.0477124,-0.0679166,0.100107,-0.168051,-0.0464959,0.0506704,-0.0903113,0.0359749,-0.172247,-0.0723131,0.11246,-0.0649263,0.0656519,0.114253,-0.0302572,0.0111012,0.0296559,-0.0314685,0.12464,-0.093055,0.198633,-0.182886,-0.147356,0.034816,0.0210234,0.116037,0.124903,0.0626115,0.0252638,0.0572011,-0.0715524,0.0521528,0.0569047,0.0748328,-0.0688578,-0.142808,0.0212019,0.0189479,-0.00429641,-0.0294612,-0.0358876,0.0669524,0.102755,0.176297,-0.00897796,0.0190911,0.0138891,0.0305432,0.0411993,-0.0398356,0.0527268,0.0813481,0.0803253,-0.05003,0.0865127,-0.0643054,0.0389783,-0.0451327,0.12611,-0.197469,0.0908873,-0.131117,0.0916222,0.0927646,0.0531939,0.110848,-0.00309937,-0.0605242,0.0079606,-0.00620727,-0.0190659,0.0721927,0.157592,-0.0110598,-0.160788,-0.0311039,-0.11607,-0.0669239,0.113684,0.11224,-0.00966379,0.0374642,-0.0132613,-0.0804909,0.037783,-0.0151019,-0.0685347,-0.196826,0.0536453,0.0157667,0.123493,0.0162529,-0.0287294,0.143928,-0.0632712,0.0706059,0.101042,-0.0494826,0.0457078,0.0148554,-0.00631929,-0.0874064,0.016812,-0.0303907,0.0744615,-0.0224625,0.0507157,0.0606673,-0.0930662,-0.147057,0.0225394,-0.077837,-0.0167966,0.147797,0.056851,0.0654153,0.0473103,-0.0542126,-0.0797996,0.00427449,0.0403392,0.173557,-0.0748616,-0.00864596,0.0655491,0.116261,0.0896113,-0.103632,0.0772214,-0.126225,0.124732,0.00721606,0.0489229,-0.116206,-0.0977209,-0.121447,0.0103058,-0.149976,-0.144703,-0.00582689,0.0187427,0.0648196,-0.00167353,0.131802,-0.144563,-0.111852,-0.0549756,0.068384,0.0381402,-0.196533,-0.14229,-0.0827934,0.0310452,0.0461469,0.116362,-0.154467,-0.108347,-0.148105,-0.154828,0.00400655,0.00164778,-0.0422912,0.0165406,-0.160551,0.170884,0.128963,-0.032227,0.0770427,-0.0731987,-0.111287,0.0175752,0.0663915,0.0174206,-0.0485066,-0.138576,0.131733,0.0512229,0.0814724,-0.152609,0.118101,0.125456,-0.105806,-0.0598438,0.0101207,-0.171213,-0.155888,-0.0286835,0.127767,0.0176741,-0.0320029,0.0385956,-0.000907739,0.0573836,-0.154833,-0.12933,0.091784,-0.0503852,-0.00404481,-0.0652393,0.0496882,-0.0588053,-0.029825,-0.0330748,0.00701492,-0.096606,-0.018738,0.0120472,0.0449721,0.0180979,0.0024165,0.149391,0.116353,-0.137747,-0.0296359,0.112894,0.128848,0.110477,-0.136911,0.114535,-0.0352108,-0.0155905,0.00890467,0.17286,0.130992,0.0310014,0.0405404,-0.104009,-0.129608,-0.0713061,0.15782,-0.0936354,0.101848,-0.0637614,0.118896,0.0469569,0.0336522,0.0633477,0.145982,-0.182297,-0.0732322,-0.00847897,-0.0546724,-0.0348244,0.0230927,0.126565,0.0783807,-0.042791,-0.0993116,-0.0682248,0.162757,-0.121394,-0.0811395,-0.0504917,0.0043082,-0.0752271,-0.0293043,-0.037274,0.025414,0.0189894,0.0148058,-0.175038,-0.0208615,-0.167751,0.127983,-0.0814972,0.113932,-0.0167399,0.0179063,-0.0898361,0.121647,-0.00726607,0.00922303,-0.0805488,0.0859635,-0.0305149,0.0167872,0.10774,-0.0769469,-0.00928133,-0.0833622,-0.0132889,-0.116271,-0.144546,-0.117952,-0.112151,-0.090525,-0.0477336,0.0148991,-0.141188,-0.0318569,-0.0307795,-0.0190452,0.150756,0.0705374,-0.0431864,0.0179882,0.00548748,0.066324,-0.0337491,-0.0422239,-0.119495,-0.137498,0.104962,0.0543839,-0.124256,-0.102485,0.0174999,0.107603,0.100841,0.184442,-0.0348696,-0.107587,0.041424,0.0318518,0.143866,-0.0808391,-0.0676139,-0.168962,0.0664424,0.151743,0.0727667,0.0426745,-0.056578,-0.0991671,0.0124732,-0.0312166,0.0931653,-0.0667201,-0.00606452,0.128257,-0.105526,-0.0190048,-0.0112345,0.0287607,0.112795,-0.112645,-0.048499,-0.0727074,0.0381589,-0.0679629,-0.0478245,0.157169,0.00978496,0.092426,-0.0818837,-0.00508665,-0.14819,0.0112879,0.0796856,-0.00419354,0.0312118,-0.151762,0.0888035,-0.196838,0.0245249,0.0203186,0.0368258,0.0718873,-0.0571385,0.152421,0.141561,0.138895,-0.0952962,0.0406504,-0.0490803,-0.0698172,0.047688,-0.167249,-0.0853045,0.0428406,0.110167,0.0590653,-0.102807,-0.0357643,-0.104881,-0.113867,-0.113092,-0.124005,-0.0957248,0.0393437,0.0140138,0.00825781,-0.00961447,-0.0728908,0.0704568,-0.130175,-0.0507797,0.157229,-0.0857952,0.122055,-0.026546,0.0424526,0.103736,-0.0492028,-0.0352089,-0.0109711,0.0379862,-0.116052,-0.115216,0.0645945,-0.00291662,-0.082493,-0.0247292,-0.163727,-0.116511,-0.0464234,-0.0955671,-0.0316211,0.176201,-0.0326838,0.175359,0.0231579,0.0564476,0.00867333,0.0384912,0.0656804,0.0426212,0.00115137,-0.172305,-0.0122698,0.0533999,0.0407929,-0.027573,0.0353395,-0.0189906,-0.0384328,-0.152657,0.0760802,0.0817674,-0.133025,0.0887423,0.17978,0.0335066,-0.00584695,-0.0654289,-0.0471048,0.0760112,-0.0571485,-0.0799288,-0.0254525,-0.11303,-0.0880271,-0.0157438,0.0480875,-0.0812249,0.101857,-0.0529522,0.0961126,-0.160245,-0.0983701,0.0184276,0.137928,0.0149777,0.0580218,0.0176395,0.131632,0.0192895,-0.170894,-0.0541343,0.199323,0.0821331,-0.159737,-0.150928,-0.0136378,0.0688075,-0.126488,0.0698252,-0.0846999,-0.0231472,-0.145123,-0.186685,0.00990641,-0.180863,-0.00251582,-0.14314,0.0779585,-0.0571828,-0.158747,-0.06976,0.0836753,0.0557918,0.00684863,0.129874,0.154311,-0.0780365,0.0730511,0.0714944,0.102007,-0.100865,0.000941898,-0.0291098,0.145333,0.0705906,0.107735,-0.0615542,0.0774705,0.0630019,-0.079264,-0.0610314,-0.00864215,-0.124713,-0.0235091,-0.0979911,0.115794,0.0509806,0.0855716,0.0100502,0.0881354,0.0212023,0.0493693,0.138267,-0.085592,-0.0491023,0.116403,0.0139033,0.143961,-0.0723988,-0.184535,0.16522,-0.0121758,-0.0541597,0.0196692,0.086426,0.150044,-0.0220212,-0.0565279,0.000280064,-0.0639115,-0.0823229,-0.0372731,0.107028,0.163594,0.0227063,-0.167782,-0.0762171,-0.150879,0.160281,0.0631385,0.00993941,-0.12063,-0.129523,0.0136678,-0.0688631,-0.0951165,0.0441934,0.0514252,0.157433,0.0371738,-0.0583187,-0.0154424,-0.0365997,-0.162995,0.0716269,0.118322,0.00601449,0.130601,-0.00567301,-0.0540792,0.106083,0.16982,0.0784914,0.0751119,-0.104036,-0.00233335,-0.0355068,-0.00165748,0.0683782,0.0468398,0.0651398,-0.094011,0.0431315,0.0643317,-0.192755,-0.154489,-0.0558707,-0.00216199,0.117236,-0.118282,-0.0379988,-0.000783816,-0.119431,0.00349927,0.0537303,-0.085589,-0.0795908,-0.0711305,-0.0410678,0.0315267,0.184836,0.0230324,-0.0577417,-0.133831,-0.107847,0.0322106,-0.0315027,-0.184979,0.0798634,-0.0121441,-0.111119,0.035885,-0.0196374,-0.0109358,-0.0187904,0.0615035,-0.15511,-0.190273,0.00721608,0.0760181,-0.00621882,-0.0451937,-0.136236,0.114998,-0.0459743,-0.0185113,0.103125,-0.0442726,0.0453405,-0.0586894,0.0306199,-0.0277181,0.126843,-0.132522,-0.105383,0.0842191,-0.0659183,-0.0384704,-0.0735658,-0.0427869,0.0326843,0.0451274,-0.0203776,-0.0901286,0.0311269,-0.0833726,0.0977824,-0.0200826,-0.162624,-0.0644619,0.0816058,-0.0778566,0.0574585,-0.00231589,-0.110209,-0.0340679,0.173899,-0.152458,0.177271,0.0135759,-0.00487119,-0.0588618,0.137217,0.00991647,-0.104438,0.0564212,0.01007,0.0645702,-0.0659088,0.0847698,-0.0379068,0.0294461,0.0219893,0.144781,-0.0411166,0.0168833,0.107188,0.0946353,-0.0809933,-0.0800365,-0.0221998,-0.0567392,0.0737287,-0.0359916,-0.12706,-0.107626,-0.0323171,-0.0457677,-0.05426,-0.0138049,-0.0400712,-0.0464335,-0.108359,-0.172515,-0.158912,-0.0301279,0.170178,0.0506296,0.0136867,0.0899816,0.155382,-0.160991,0.128811,0.153357,0.161359,0.0944521,-0.0619255,0.0670293,-0.0260865,0.114027,-0.133262,-0.0153032,0.133036,-0.0157327,-0.0561232,-0.0938528,-0.0472338,0.121688,0.00604815,-0.0454903,0.0105277,-0.146728,0.0773801,0.0598723,0.0942965,-0.166947,-0.115101,0.0472274,-0.120555,-0.0657284,0.123911,-0.0339131,0.0738544,-0.0288395,0.07195,-0.0909782,-0.0729832,-0.0694017,-0.172899,0.136883,0.0267738,0.145979,0.146947,-0.0657551,-0.145469,0.0336437,0.111774,-0.11465,0.124701,-0.190542,0.0446925,-0.0239861,-0.164051,-0.00298543,0.0431102,0.0677052,0.0856603,-0.0296645,0.0493529,0.0534081,-0.0146193,0.0653727,0.0320691,0.00975402,-0.060269,0.0248851,0.000141922,-0.0761089,0.0703796,-0.0614273,0.03122,0.10745,0.110535,0.0100501,-0.0135132,-0.149385,0.0194809,-0.184003,-0.0980682,0.168192,-0.0953159,0.0745683,-0.0337324,0.0566555,-0.0414527,-0.177062,0.0275952,-0.0544112,0.0436649,-0.0970866,0.0133989,-0.00303689,0.000730332,0.123142,0.121888,-0.0272332,-0.0524727,0.149186,-0.00979786,0.135766,0.0493889,-0.181644,-0.0465847,0.121399,-0.0510527,0.108541,0.0792388,-0.0720056,0.0134565,0.0245632,0.0301924,-0.0759197,0.129054,0.112788,0.139245,-0.144885,0.0842015,-0.0101963,0.0333493,0.0389003,0.0926447,-0.0996899,0.00760423,-0.0501738,0.104741,-0.0904515,-0.0847301,0.124373,-0.171684,-0.044685,0.104075,0.0671324,-0.00765473,0.0472812,-0.175285,0.0991398,0.105434,-0.0101579,0.115035,0.135322,0.0345639,-0.0392384,-0.0220874,0.115198,-0.128586,0.0981109,0.100717,0.0937355,-0.00489726,-0.0535129,-0.0623804,0.0587405,-0.0807829,0.0386886,-0.0742102,-0.0270215,0.0398869,-0.0648244,-0.00633033,0.108216,0.0544916,-0.01184,0.0388637,-0.0406085,0.0251416,-0.039855,0.0489755,
0.0396006,0.0993169,-0.191686,-0.0261081,-0.103336,0.0113792,0.0852327,0.0524382,0.0327319,0.0983586,-0.00902594,0.0349038,-0.148228,0.00770109,-0.109079,-0.0793627,-0.0209678,0.0579857,0.113677,-0.0520906,0.0562138,-0.146104,0.125031,-0.0270384,-0.010538,0.0162998,-0.0702516,-0.114506,-0.0624929,-0.0771504,0.0633259,-0.0342603,0.13123,-0.0767201,0.0599767,0.0332761,-0.015525,0.0782077,-0.132175,0.0684592,-0.0725106,0.0839766,-0.0139128,0.0948309,0.0443551,0.0809549,-0.00641469,-0.0730094,-0.0979493,0.181768,-0.155525,0.11805,0.0912715,-0.0582959,0.0463878,-0.0237821,0.0867717,0.00924428,-0.179492,-0.0441863,-0.152274,-0.00646013,0.16789,0.121413,0.0186355,-0.0249726,-0.142224,0.0123055,-0.182457,-0.12363,0.0956196,0.00303436,0.0927201,-0.156689,0.169033,-0.125321,-0.111838,-0.163882,0.0360053,-0.00818714,0.00697246,0.0333785,0.0220949,-0.113376,-0.0884103,-0.0767645,0.0454005,0.12284,0.0934989,0.00350275,-0.0883989,-0.0357178,-0.0469217,-0.102121,-0.144567,-0.0960562,0.0521638,0.00941902,-0.0403261,-0.111405,-0.0877504,-0.132599,0.131956,-0.160225,0.00663399,0.0503621,0.0269498,0.15572,0.0598599,-0.167001,-0.0792366,0.0548419,0.0761189,-0.141371,0.0121368,0.033919,-0.0340642,0.197048,0.0317936,0.0346458,-0.0664228,0.0320526,0.0916125,-0.0304864,0.0779239,-0.0465463,0.0645609,0.0176957,-0.110262,0.00231563,-0.114357,0.00902558,0.0619736,0.0951541,-0.0865553,-0.0735446,0.046095,-0.0786351,0.0299108,0.0937332,0.084487,0.049032,-0.14058,0.0322841,0.0264677,0.021256,-0.0261128,0.036614,-0.0294104,-0.0941937,-0.109844,-0.172931,-0.0626185,-0.0990859,0.1083,-0.0937453,0.111146,0.0647307,0.0560449,-0.0256183,-0.0189872,-0.0105884,-0.166909,0.0304239,0.0185043,0.0358771,-0.00659364,0.0439948,0.0197618,-0.148327,-0.101609,0.119841,-0.0442745,-0.146344,-0.0760292,0.0232268,-0.111144,-0.0456255,-0.0930442,0.148768,-0.0608794,0.0211589,0.10712,-0.0244185,0.124079,0.0301273,0.0578113,-0.142067,0.070326,-0.053073,-0.00749961,0.00246968,-0.0891454,0.0309694,0.00574942,-0.0841141,-0.0252567,0.137742,-0.163502,-0.0432451,0.0775054,0.0713456,0.174311,-0.0479184,-0.126363,0.0453509,0.0238892,0.0612226,-0.0234583,-0.0204567,0.0842338,-0.159044,-0.0260182,0.116222,0.0605226,0.105035,-0.110171,-0.0823622,-0.0103993,-0.129506,0.0871035,-0.00234223,0.0422557,0.0607506,-0.0863091,0.0240587,-0.041043,-0.0261973,0.0870684,-0.0906428,0.0508705,-0.0467695,0.0278603,0.105639,0.19134,-0.115518,0.10021,-0.0506388,-0.0343528,0.0597605,0.0635008,-0.00838038,0.0540988,0.0338362,-0.0700602,0.0826694,0.110835,-0.0478124,0.0173219,0.044992,-0.147873,-0.00565488,-0.105027,-0.0425939,0.0944263,0.0669967,-0.141151,0.143751,0.00674195,0.132932,0.130986,0.0451269,-0.0355971,-0.0109454,0.109448,0.104971,0.100497,0.0265457,0.0288708,0.0109784,-0.0813902,-0.0520112,-0.0235068,-0.0873674,0.0771819,0.0238765,-0.0647681,-0.0892636,-0.0194328,0.0724142,-0.00440451,-0.0463559,-0.122475,-0.0133242,0.0617561,0.126725,0.0241234,-0.0162268,-0.0553785,0.0965444,-0.0332625,0.0473842,-0.187858,-0.00879389,0.0677443,-0.00247866,0.0484206,0.0643387,0.0869722,0.0646788,-0.120095,0.00458226,0.0636065,-0.141771,-0.114862,-0.108204,0.11501,0.0325726,-0.0369725,-0.0230837,0.0023729,-0.0875626,0.0921399,-0.0350838,-0.147679,0.00541434,0.00170518,-0.0680158,0.094393,-0.023895,0.0690978,0.0885419,0.131866,0.0501258,-0.136311,0.0585688,0.164063,0.0565645,-0.00894515,0.155222,-0.0211422,-0.0543752,0.0168468,0.0980735,0.175895,0.0228361,0.0721417,-0.0011311,-0.00869027,0.027629,-0.0149107,-0.0172971,0.0596859,-0.027414,-0.187803,-0.149132,-0.0166988,0.00399261,-0.0795316,0.00225247,0.0180314,-0.0955937,0.0839703,0.0103882,0.0558619,-0.00252781,0.0191285,-0.0719639,-0.0363022,-0.169453,0.0205966,-0.0103675,0.05676,0.004574,0.157648,-0.140248,-0.139894,-0.0145775,0.0332983,-0.0843529,-0.0898397,-0.124963,0.149522,0.123827,0.0107675,0.0652923,-0.18094,0.194457,0.0676755,0.133367,0.0284924,-0.0798504,-0.0371123,0.0201592,0.0134155,0.133887,-0.0753131,0.159895,0.0727462,0.090836,0.0575116,0.0545876,0.155403,-0.0966743,-0.0497206,0.109299,-0.0189559,-0.0737428,-0.134395,0.00722277,0.0157626,0.0570341,0.0836358,0.128131,0.0531733,0.0811215,-0.140378,-0.0299934,-0.136503,-0.109471,-0.0678276,0.108766,0.060833,-0.0691531,-0.0281667,-0.0536248,-0.0767093,0.0438138,0.0573129,0.0142494,0.129387,-0.104883,0.0239993,-0.0252765,0.0248905,-0.0582878,0.0408226,0.0797656,0.118559,-0.102167,-0.0914551,0.158157,0.0461531,0.0421011,-0.0998574,-0.154587,0.0989737,-0.11163,0.150436,0.162612,0.12661,0.00562386,0.0457725,-0.0305383,0.041154,-0.0186001,0.0646082,-0.0285339,-0.0676173,-0.143982,-0.0153068,-0.0443036,-0.00822494,-0.13307,0.102806,-0.0141449,0.0396362,0.107381,-0.130002,0.0728785,0.0938552,-0.020491,-0.0105812,0.0285111,-0.0305677,0.0281406,0.0702571,-0.0365498,-0.125056,-0.0216605,0.0335305,0.035791,0.0168566,-0.0518508,0.13227,0.0996854,-0.0701984,-0.0706771,0.112319,0.0640262,-0.0891047,-0.156486,-0.175863,-0.0831773,-0.190479,0.0276249,0.0764516,0.111595,0.0184812,-0.00380335,-0.134073,-0.0763932,0.0496297,-0.0721057,-0.00694729,0.00723865,0.0256499,-0.0980636,0.124398,-0.112901,-0.00327454,-0.0149992,-0.0141507,0.0236183,0.11132,0.10762,-0.119884,0.180146,0.144203,-0.0180013,0.0586397,0.112712,0.00477993,-0.186045,0.0263242,-0.0964186,0.182239,-0.029929,0.0387089,0.0655956,-0.124462,-0.0572505,-0.0334136,-0.0372862,0.0602593,-0.139656,0.0390693,-0.0436693,-0.104049,-0.025525,-0.00794656,0.0526347,0.135622,0.00407082,-0.0515027,-0.118961,0.171224,0.165696,-0.115584,-0.051928,-0.0514274,-0.0916201,-0.140283,-0.0987069,0.0114643,0.0493469,-0.0286011,0.0588632,-0.0901642,0.00223613,0.147557,0.0851679,0.0178462,-0.19163,-0.166694,-0.120648,-0.0609585,0.0165786,-0.0151796,0.155301,-0.0264348,-0.0745821,-0.127695,0.0811016,-0.00980081,-0.140143,0.125221,-0.0126653,0.132937,0.0525903,0.0282315,0.0364551,-0.120401,0.00656371,-0.0175241,-0.130481,-0.130471,-0.0592013,-0.0666901,-0.0174689,-0.064853,-0.00982074,0.0807557,-0.106282,-0.166132,0.0721742,0.0286007,0.0985709,0.033541,0.057527,0.00428361,-0.192031,-0.0124305,-0.15553,0.0689098,0.018626,-0.0801591,-0.0140717,0.0365207,-0.17348,-0.0136738,0.062643,-0.035464,0.0820047,-0.00986673,-0.0362852,0.0841696,0.00552497,-0.0152923,0.145166,0.0479278,0.0820158,0.130036,-0.0844018,0.0590332,-0.0425608,-0.0840394,0.0271394,-0.0933489,-0.0967617,0.00650049,6.90593e-05,-0.0881582,0.0566292,0.135211,-0.0564966,0.0240991,-0.0330236,-0.126727,0.0827349,-0.0198178,0.0682169,-0.0546723,-0.0304366,-0.0315614,0.0814539,-0.100112,0.0658101,-0.0383003,0.0927179,-0.187066,-0.173157,-0.167781,-0.106913,-0.0189368,0.085468,-0.0521146,0.178258,-0.0580594,-0.000106116,-0.0673853,-0.00470504,0.0576723,0.0249504,0.0923968,0.149107,-0.0461873,-0.0252645,0.175954,0.101306,0.0965296,-0.00693801,0.0701367,0.143688,-0.115529,0.00387292,-0.0529818,0.00785234,-0.00325333,0.0195302,-0.0843003,0.192711,-0.130337,0.137544,0.142438,0.0232394,0.0319044,0.0893783,-0.0261995,-0.0435453,-0.0353826,-0.15262,-0.0285344,-0.10875,0.0891229,-0.034812,0.065631,-0.0572396,-0.137127,0.0241928,0.0755312,0.00720755,0.0242301,0.0199012,-0.0467432,-0.0478649,-0.0105014,-0.0683883,0.108499,-0.150114,0.0357134,-0.102782,0.0628158,-0.0500251,0.0591701,-0.159858,-0.0398008,-0.0140042,0.00101984,-0.00627815,0.12406,0.118063,-0.0342932,0.0506242,0.126807,0.045881,0.00604831,0.0325689,0.0127604,0.0527147,-0.135704,-0.0567925,-0.135958,-0.0829552,0.0865962,0.00894177,0.00544641,0.0332698,0.103742,0.153032,0.0424436,0.00418101,-0.0792646,0.0833648,0.10996,-0.0690322,-0.147795,0.173411,-0.0205934,-0.000212408,0.110442,0.0241972,0.160839,0.0590567,-0.0900687,-0.0200902,-0.000325518,-0.0408864,-0.0315828,-0.0921615,-0.0295504,0.0316932,0.000742579,0.0601151,-0.0806747,0.136265,0.0927446,-0.129332,-0.0257916,-0.0705471,-0.124494,0.0106307,0.0347829,0.0428511,-0.0515313,0.0674762,0.0322628,-0.0488225,-0.173626,-0.0852643,-0.00581398,-0.0195012,0.0159811,0.11081,0.110001,-0.182048,0.0265096,0.0215935,-0.0125856,-0.0709533,-0.0538197,-0.0160189,0.0861283,-0.127625,0.0146784,0.0371754,-0.109741,-0.0762929,0.0943649,-0.0354741,0.00633348,-0.0197692,-0.00711168,0.0511395,0.0453331,0.128232,0.12905,0.0980691,0.0590811,-0.0985717,-0.132301,0.181051,0.116491,-0.0338223,0.043965,0.0230064,-0.0843582,-0.0183772,-0.0322067,-0.0487966,-0.0861069,-0.145382,0.112899,-0.0494968,-0.00608644,0.104334,-0.0414952,-0.0687992,0.115209,-0.0389911,-0.0759095,0.0403127,-0.057483,-0.031072,-0.0145321,0.0122525,-0.132787,0.0018782,0.00797224,0.133462,0.0529265,-0.0306595,-0.0382518,0.076198,-0.0307343,0.0295479,-0.195592,0.0294084,-0.101503,0.115639,-0.112237,0.162524,-0.0575217,-0.0878865,-0.141748,0.0413435,-0.108834,-0.0442215,0.0109798,0.0746024,0.0632117,0.0234667,-0.0189711,-0.109451,-0.127732,-0.151177,0.0558589,-0.0470814,-0.0185753,0.045191,0.0524725,-0.00722695,0.0357649,-0.058654,0.119558,0.140448,-0.0276231,0.0635382,0.107931,-0.00079299,-0.0165378,0.0201309,-0.00542089,-0.0735561,-0.0818496,-0.0608727,0.0118388,-0.00869015,0.00189117,-0.00865297,0.0659847,-0.0450191,-0.0599426,-0.0233181,0.0767194,0.119488,0.0835567,-0.131065,0.051034,0.129535,-0.0371184,-0.0772445,0.148094,0.055284,-0.0212888,-0.024343,-0.067184,-0.0282282,0.00518105,-0.120289,-0.010021,0.0808604,0.0290567,0.0108128,-0.173929,-0.189238,0.159797,-0.085612,-0.0567227,0.164708,-0.00621231,-0.0401165,-0.0246553,-0.0842547,0.0126956,-0.0181586,-0.00855229,-0.00213137,0.0442154,-0.0459241,0.0653604,-0.00979775,-0.0487091,-0.0669351,0.0958429,-0.0624385,0.143938,-0.0229309,0.0805781,0.0243154,-0.133751,0.0423304,0.0230859,0.142384,-0.0657373,0.0314045,0.0217879,-0.0701778,0.119877,0.0566602,0.0102147,0.134262,0.0289527,0.0894079,0.150824,0.0395351,-0.120269,0.0927575,-0.0274172,0.161566,0.101314,-0.151625,-0.0183447,-0.0196959,0.157421,-0.0875171,-0.047683,-0.0334282,0.0329111,0.0870682,-0.0358747,-0.0679552,0.0233065,0.0974583,-0.0250004,0.0363402,0.0850357,0.0647769,0.137919,0.0478613,0.143296,0.0629017,-0.0854914,-0.00886438,-0.0419177,0.167328,0.035665,0.0766038,0.07374,-0.0183448,-0.0417434,0.0344743,0.0704548,-0.0779284,-0.0285832,0.0964705,-0.0279254,0.0457728,0.18498,0.0858989,-0.0939227,0.0656064,0.00764904,-0.0457978,0.105756,0.060965,-0.0292602,0.0583511,-0.0824444,0.014669,0.0351645,-0.0400327,-0.031071,-0.0315097,-0.187175,0.0610544,-0.0198266,0.111948,0.112899,-0.119008,-0.0490884,-0.0577309,-0.0562703,-0.0626955,-0.000827784,-0.0912732,0.00105934,-0.0481257,-0.034617,0.155175,-0.00812823,0.168169,0.169299,0.175035,-0.186,-0.105616,-0.062611,-0.0804775,0.00134484,-0.0866147,-0.0290377,0.100869,0.0306086,-0.0992995,0.127998,0.179123,0.0586052,0.0442823,-0.0344413,-0.0470645,0.158331,0.0117183,-0.0915496,-0.0993731,-0.0819376,0.0647749,-0.00508301,0.0336116,-0.0134014,0.082437,-0.125135,0.0182921,0.169885,0.0765511,-0.0970421,0.057261,-0.0775095,0.187672,0.00370839,-0.0875565,-0.138223,-0.00939682,0.0235847,-0.077896,-0.095302,0.0656613,0.0727131,0.0488054,-0.0192002,-0.0302805,0.000666863,-0.0838881,-0.0268076,-0.0998243,-0.0624323,-0.019033,-0.0476058,-0.0452462,0.0360755,0.0794015,0.0766341,-0.0795368,0.0969207,0.0189127,-0.0489072,-0.028036,-0.083103,-0.129901,0.113821,-0.0372361,-0.0642315,-0.0449747,0.177273,-0.0604655,-0.128024,-0.0269275,-0.0095653,-0.149835,-0.135732,0.0465944,0.00552821,-0.0997107,-0.0466953,-0.0686642,0.0514367,-0.00964559,-0.0412383,0.0315901,0.0349739,-0.0877313,0.131882,-0.0471543,0.178862,0.0766557,-0.0608738,0.0109663,-0.188704,0.0293693,0.040428,-0.0634856,0.0242673,-0.0809093,-0.0773789,0.0114674,-0.0472668,0.0335399,0.0678818,0.114756,-0.0225686,0.119966,0.0329899,0.0918682,0.173294,0.130041,0.0163665,0.0191636,0.0502218,-0.0670988,-0.176187,-0.0828952,0.116927,0.132524,0.104003,-0.0648284,-0.175404,-0.0800219,-0.108783,0.096251,0.059654,0.0871434,-0.161915,0.0187634,-0.024685,-0.0815877,0.0691623,0.0567207,-0.026608,0.0723568,0.151239,-0.145857,0.025264,-0.10054,-0.191118,0.00836013,0.100342,0.0924247,-0.0235352,0.0295868,0.101462,-0.0190156,0.109043,0.0596429,0.0862494,0.097748,3.43129e-05,-0.012168,0.0771605,-0.121545,0.19476,-0.0148862,0.0412224,-0.129061,-0.0864196,-0.078868,-0.0558055,-0.0497651,-0.00221636,-0.093889,0.103049,-0.174456,0.0590771,-0.0948517,-0.134597,-0.0683961,-0.0835695,0.0796276,0.0928095,0.108899,-0.124625,0.160896,-0.042053,0.0163266,0.0592102,0.0479003,0.0674538,-0.0179967,-0.0754756,-0.0782353,0.0422085,0.0126785,-0.0802856,0.0566533,0.0461044,0.0543702,-0.00786814,-0.159006,0.0382608,-0.131246,-0.0771082,0.0586645,-0.0212321,-0.0367195,0.0836246,-0.099773,-0.0660175,0.0290838,0.0341626,0.0246912,0.171778,0.0106411,-0.109882,0.0988059,-0.102005,0.0787164,0.152547,-0.0353362,-0.0599555,0.0851999,-0.12536,0.125884,0.0903391,-0.0263834,-0.00893948,0.0418467,0.0905297,-0.153725,0.119886,-0.0469777,-0.0503234,0.170007,-0.137693,-0.0395194,0.0413546,-0.0201783,0.0401149,-0.0344554,-0.0550315,0.113853,0.0743316,-0.0215535,0.113364,0.0651712,0.161535,0.0106726,0.13695,0.0558711,-0.149232,0.168508,0.0980117,-0.031957,0.187455,0.0194672,0.108297,-0.0474167,0.143619,0.0689021,0.0412878,0.0311039,0.0968967,0.142487,-0.0752754,0.043528,-0.149952,0.129143,-0.0842142,-0.131723,-0.0442567,0.056608,0.0621622,-0.119067,0.0236448,-0.0106063,-0.000499756,-0.00805244,0.077176,-0.049104,0.0407211,-0.148472,-0.0743646,0.0520245,-0.0604583,0.113705,0.0266005,0.0388384,-0.114459,0.0036091,0.153469,0.0767602,0.126736,-0.0098038,0.11653,-0.132421,0.0369799,0.0697117,-0.174998,-0.0835793,-0.0397016,-0.18805,0.0713592,0.107204,0.120321,0.0701662,0.0895401,-0.0348148,-0.1338,0.0168602,-0.0459649,0.105462,0.0903305,0.104005,-0.0346668,-0.189936,-0.0677799,0.0757118,0.0231733,-0.176332,-0.00980387,0.0779635,0.030602,0.00657914,0.0352085,0.0863867,0.070814,0.109547,0.0137641,0.0247892,-0.0627548,0.0623068,0.0470985,0.146011,-0.112368,-0.0734395,0.0527723,-0.011955,0.0148594,-0.0179541,0.0206398,0.0157412,-0.0987146,-0.0663761,-0.0940661,-0.0924991,-0.0412478,0.0251099,-0.00507834,-0.0546259,2.09545e-06,0.0378055,-0.105417,-0.109588,-0.011055,0.120364,-0.0683534,0.0633755,-0.161307,0.0753731,0.00349933,0.0595947,-0.0410359,-0.131828,0.1373,0.0457056,0.108481,0.079082,-0.00161822,-0.197874,-0.110567,-0.036197,-0.146292,-0.076593,-0.0656328,0.132708,0.0851093,-0.120669,0.087102,0.103702,-0.0635729,-0.10411,0.103307,0.0974771,0.0774481,0.0439645,0.195533,0.174144,0.0276264,-0.0288367,-0.117073,0.0776351,-0.0202239,0.0112481,-0.129468,-0.0341677,0.0839949,0.0129067,0.0200367,-0.161414,-0.085759,0.037727,0.0992306,0.0632613,0.0251808,0.0464483,-0.0628009,-0.0461355,-0.00606415,0.036883,-0.0607176,-0.13166,-0.0270948,0.0795878,0.12447,-0.0504861,-0.0266806,-0.0207637,-0.0359843,-0.0890545,0.0896444,0.000291342,0.0810022,0.0805486,0.0152529,0.0560967,-0.0411524,0.0564117,0.0811232,0.126496,-0.02984,-0.0484056,0.0296771,-0.0967358,0.0759146,0.10614,-0.0319547,0.0332276,0.113589,0.180711,0.0646955,0.0744607,0.00124212,-0.000118647,0.105573,-0.0920237,-0.0688472,0.00150249,-0.139372,0.0258503,0.0866793,-0.00432799,-0.0597439,-0.0729198,0.118576,-0.111153,0.020064,0.085846,0.130081,-0.0546861,0.00615674,0.178745,0.0553027,-0.0196622,-0.011871,-0.194966,0.125681,-0.0913097,-0.121853,-0.061447,-0.0511867,-0.00458802,-0.0755826,-0.14747,0.0258506,-0.0281316,0.0402906,0.0804232,-0.0418966,-0.131394,-0.0798546,-0.0515512,0.019951,-0.155443,-0.0677816,-0.117657,0.0802153,0.0627352,-0.0709216,0.0273165,0.0809214,-0.121049,0.0541418,0.0521805,0.0973313,-0.112135,-0.00319748,0.158505,-0.0964313,0.0430281,0.0311808,0.175056,-0.000760567,0.0704065,-0.180938,0.0384285,0.0324428,-0.0618895,0.0011613,0.0345087,0.126944,0.0759368,-0.0603677,0.0156013,-0.0104296,0.0408952,-0.0696338,-0.135023,0.116672,0.0181179,0.0774694,0.127677,0.00363923,-0.0872311,-0.0411809,-0.101742,0.050543,-0.0670495,-0.0213848,-0.0631285,0.0137653,0.0981602,0.153114,-0.0220571,-0.0160539,-0.0251153,-0.121897,-0.0983722,-0.0468882,0.0753853,0.00721513,0.0403785,0.13538,-0.161982,0.115704,0.00383576,0.0702089,0.0226837,-0.0890259,0.0604214,0.0158542,0.0707933,-0.0361709,-0.016125,-0.0198427,-0.17593,0.141601,-0.100112,-0.0324734,0.14417,0.186738,-0.0205441,0.0632873,0.0235731,0.0938926,-0.0393516,0.0594998,-0.0437712,0.041746,-0.138737,-0.0569903,-0.0397217,0.0968816,0.0850092,-0.109294,-0.138517,-0.0507218,0.108039,-0.0308178,0.000733558,0.0524972,0.0865648,0.0682591,-0.0562287,0.019594,-0.073686,0.135769,0.0182458,-0.0826674,0.0276304,-0.128284,-0.0259231,0.110736,0.0994124,0.0396024,-0.155107,-0.0165086,0.185298,-0.00403833,0.0363396,0.0755093,-0.0488223,-0.107678,-0.153763,-0.145176,-0.0724942,0.0718634,-0.193,-0.123442,-0.00788961,-0.0316545,0.0229779,0.141379,-0.0742368,-0.0221215,0.0901935,0.0328612,-0.0535779,0.151492,0.101723,0.0979737,0.0876802,0.0374278,0.0382249,0.0704295,-0.056181,-0.00508493,-0.0344245,0.0375761,0.0222528,-0.129015,-0.0100622,0.0762929,-0.127699,-0.00569897,0.0119589,0.0335391,-0.0918853,0.0985479,-0.0180185,0.16553,0.0717767,0.0436255,0.0557633,-0.0336736,-0.0439238,0.0913046,0.0505869,-0.0491308,-0.0833621,-0.0375221,0.0912979,0.016452,-0.0573487,-0.0695014,-0.0373149,-0.173204,-0.00262979,-0.0831953,-0.0493871,0.0681087,-0.0186116,-0.0236956,-0.0625773,0.178251,-0.0641322,0.0256068,-0.0466957,-0.019745,0.0811132,0.116622,0.0592271,0.0476427,0.0662106,0.0557337,-0.00831515,0.162853,0.0228581,-0.0851335,0.117373,-0.0262337,0.0249401,-0.00587082,0.158993,-0.057647,0.162758,0.105447,0.0631828,0.0634125,-0.0402732,-0.0643943,0.0192755,0.0369437,0.116499,-0.00552948,-0.146886,-0.0177012,-0.126162,-0.0923804,-0.103685,-0.0474606,-0.00107638,0.0159291,0.195168,0.0290664,-0.0174631,-0.0161176,-0.0977199,-0.08913,0.0706337,-0.128497,0.0806183,-0.0306251,0.0533491,-0.0895902,-0.092834,0.0891692,-0.0816548,0.0497382,-0.126734,-0.0274417,0.165242,0.063733,0.0605622,-0.12865,-0.00183803,-0.100229,0.0717864,-0.040335,0.0117751,0.127718,0.0452157,-0.0127926,-0.11945,0.0478862,0.0778407,0.18265,0.0252293,-0.0165093,-0.122959,0.0509233,-0.0672298,-0.0615483,-0.11271,-0.0130903,-0.0969931,-0.0431607,0.17324,-0.0899155,0.0750169,-0.0793682,0.100194,-0.0836661,-0.00840375,-0.0609686,-0.0584385,0.0837606,-0.0501994,0.155725,0.0175679,0.0477496,-0.118645,0.109488,-0.121843,-0.107609,0.0609553,-0.00184045,-0.156163,-0.112839,-0.098265,-0.0610248,-0.0320038,-0.0389179,0.117917,-0.0158932,-0.166462,-0.154445,-0.17841,-0.018942,-0.113321,-0.0105873,0.0571836,0.145577,-0.0330671,-0.0322912,0.1105,-0.0691742,0.110897,-0.114164,-0.0622668,-0.0455799,0.0201693,0.0184269,-0.04549,0.133026,-0.141352,-0.0472904,0.0168731,-0.0560734,0.0277626,0.057809,0.0527594,0.000732548,-0.0556388,-0.128418,-0.0654382,-0.112709,0.00890039,-0.0251143,-0.149318,-0.0208828,0.121568,0.0377498,-0.039441,-0.030529,0.0899053,-0.0770449,0.0556962,-0.141038,-0.122433,0.00183552,-0.0187841,-0.0889141,-0.0375463,0.0876765,-0.0437267,0.0465248,0.0514563,-0.158562,-0.110497,0.169037,0.0572801,0.0261061,-0.0486323,0.0985851,-0.124923,-0.102093,-0.148618,0.0519157,0.0908944,0.0512518,-0.0424239,-0.0813652,0.127259,-0.0110759,0.0999956,-0.0399262,-0.0085502,-0.0353291,-0.0542322,-0.0468669,-0.0242676,0.176661,0.00304158,-0.0420751,0.160386,-0.0530546,-0.00336923,-0.057375,0.0507883,0.0614972,-0.0924028,0.149034,-0.0993538,-0.0953278,0.0607362,-0.0601074,0.105049,-0.068693,0.161519,-0.0280506,0.0130236,0.0363827,-0.179546,-0.192577,-0.0316336,-0.11233,0.134312,0.0739369,0.0490183,-0.109001,0.0101297,-0.137805,0.00113459,-0.0963615,0.0245169,0.040176,-0.108464,0.0759812,-0.0149128,0.096108,0.0544867,0.0737358,-0.0773648,0.176546,0.0717704,0.00707021,-0.0827195,-0.0373518,0.139913,-0.0025373,0.0068027,-0.0166588,0.076938,0.0241395,0.101656,0.180926,0.144862,-0.000784808,-0.0517158,-0.068412,0.148901,-0.0638925,0.17875,-0.161657,0.0329492,-0.0437156,-0.0535604,-0.099476,0.0221853,0.00540707,-0.144792,-0.0435309,-0.0939666,0.0216996,0.120153,0.169235,0.0252536,-0.0298333,0.00921819,0.174241,-0.0653695,-0.102799,0.0428915,0.160385,0.00648373,0.0342854,0.049227,-0.0724862,-0.0278448,-0.0267225,-0.0177851,-0.000941075,-0.18252,0.0170842,-0.00542793,0.116041,-0.0938894,-0.0823847,0.121004,0.079295,-0.00551252,0.0355599,-0.0475053,0.0725226,-0.00787235,0.0565761,-0.146882,0.0488462,-0.157159,-0.0839367,-0.00407212,0.094277,0.106553,-0.0774302,0.0774247,0.150293,-0.156632,0.0325934,0.108628,0.141716,0.014295,0.0796849,0.0867073,-0.111457,0.0424152,-0.116115,-0.106167,-0.0249467,-0.0712192,-0.0380471,-0.0024264,-0.079911,-0.132781,0.0811759,0.030883,0.112207,-0.17016,0.0633506,0.0368203,-0.13255,-0.168369,0.0994704,-0.11319,0.0829389,0.164711,0.0141891,-0.0607663,-0.140353,-0.0419365,0.000793082,0.0155425,0.0711539,0.151923,0.0670443,0.0286157,0.0941533,0.113878,-0.00795413,0.0313207,0.0918565,0.0557893,0.0338079,-0.00273513,-0.0346216,0.0356987,-0.0672979,0.0146073,0.0135307,-0.171724,-0.0820917,0.0550695,-0.107955,-0.100147,0.00297674,-0.194665,-0.0467247,-0.11558,0.168961,0.0285901,-0.0574948,0.000539145,0.0887557,-0.0275048,-0.196006,0.0522939,0.0409358,0.0360205,-0.0101706,-0.0189703,-0.0384128,0.0383327,0.0711573,0.09307,0.143382,-0.0586786,0.192565,0.133656,-0.0761838,-0.024591,-0.0892078,0.0868597,0.0431832,-0.0748378,0.0982247,-0.00372442,0.00302486,-0.151614,-0.0803984,-0.0627741,-0.034692,-0.0259192,0.181406,-0.0591252,0.152699,-0.0449491,0.0166463,0.054287,-0.0281404,0.103597,0.099004,0.134004,-0.0254411,0.056169,0.178264,-0.176898,-0.0539682,-0.104779,-0.10685,-0.0644858,-0.11793,0.105438,-0.0590185,-0.196445,0.00388727,-0.0848852,0.0575672,-0.0238265,-0.0454669,0.171014,0.0909023,-0.0536135,0.0514522,-0.0168032,0.0691158,-0.00374763,-0.0409821,-0.0132278,-0.0761394,-0.0315067,-0.0944563,0.0197048,0.0552061,0.0194687,-0.0860908,-0.0110495,-0.0150505,0.0772984,-0.0455791,-0.186968,-0.0304725,-0.0264684,0.0943539,-0.0819136,0.115013,-0.0754932,-0.0982927,0.144546,0.128749,-0.0904793,-0.130801,-0.0101063,0.106002,-0.0439251,0.160223,-0.0403887,0.0152777,0.118527,0.0426102,0.016984,0.0305078,-0.0927967,0.00433043,0.117474,-0.053258,-0.0776998,0.118376,-0.168664,-0.0848351,0.163307,-0.0145865,-0.0154615,0.0394578,0.163424,-0.0645057,0.0606485,0.0612776,-0.136807,-0.0219562,0.0233651,0.0329622,-0.00830396,0.0602945,0.169062,-0.178563,-0.074347,-0.00812646,-0.0390489,0.0911485,0.0176873,0.103849,-0.0212926,0.154507,-0.0350361,-0.105809,0.0835414,-0.0147953,0.160586,-0.0770726,-0.112456,0.13135,-0.0451834,-0.0886125,-0.0449144,-0.00554002,0.181514,-0.0266009,-0.0133444,0.0449163,-0.0900251,-0.164383,-0.0979737,-0.0251637,-0.0418784,-0.0165365,0.0872867,-0.0408914,-0.0538597,0.0210421,-0.133222,0.0696929,-0.0227989,-0.00689803,-0.0299715,-0.085067,-0.0588663,-0.0828176,-0.0646635,0.190512,-0.0937644,-0.0624052,0.0914228,0.0358389,-0.00365165,-0.0178999,-0.0798877,-0.111374,0.123417,-0.0348014,0.0194739,-0.139337,0.00550772,0.064164,-0.135166,-0.124755,0.189969,-0.127058,-0.0302465,-0.023712,0.0489603,0.00238908,-0.112691,-0.0295587,-0.0545083,0.0432486,0.0557738,-0.027621,0.00569011,0.112501,0.0222802,0.0415812,-0.102317,-0.0403327,-0.0241792,-0.171815,-0.0897545,0.0630956,-0.00354715,-0.138127,0.150536,0.0659251,0.0742108,0.150802,0.0491447,0.158585,-0.0631772,-0.0362057,0.0546529,0.124453,-0.114936,0.145329,-0.0651941,0.0219215,0.0553597,0.0405596,0.129264,0.138933,-0.0151365,-0.0300442,0.10357,0.159502,-0.0610946,0.00843782,0.0573519,-0.00204297,-0.0183453,-0.0141511,0.0216849,0.111553,-0.0289419,-0.0516375,-0.0479369,0.151339,-0.0286888,-0.0344455,0.0725386,-0.118561,0.0466663,0.0719977,-0.0760039,-0.0233431,-0.0301189,0.0266995,0.175363,-0.113337,0.0109693,0.0041665,0.0357565,-0.143439,-0.0401313,0.0320581,-0.0506939,0.184849,0.1321,-0.0612556,-0.0318704,-0.0120872,-0.00888508,0.162064,-0.0176424,-0.0804093,0.100332,0.146797,-0.134225,0.0420272,-0.16623,-0.0626858,0.018922,0.00612155,0.00951863,0.142367,-0.023878,0.082207,-0.0966668,-0.197454,-0.0608068,-0.189081,-0.0810831,-0.0191329,-0.00124194,-0.0364397,0.0774615,-0.0550342,-0.197773,0.0944269,-0.0100429,0.000398786,-0.062629,-0.0123005,-0.00278015,-0.106566,-0.0312849,0.0967432,0.0852049,-0.179467,-0.0561775,0.0895034,-0.0431951,-0.124484,0.0729267,-0.0824961,0.0547551,-0.0285615,-0.0364825,0.177062,0.0875692,0.0979804,-0.0839197,-0.0722181,0.0864132,-0.144573,0.0163383,0.0134528,0.0483321,-0.0801384,-0.0181981,0.077682,0.0586574,0.0539694,-0.0637907,-0.0805824,0.0262692,-0.103777,0.0264731,-0.0913395,0.183278,0.00501236,0.000947333,-0.0733819,0.177881,-0.0618581,-0.0922333,0.0360268,-0.10256,-0.0339796,-0.0639619,-0.05629,-0.11609,0.036972,0.0228163,0.0805314,0.0551543,-0.0202935,0.0463575,-0.0579727,-0.0110813,0.0921135,0.0606368,-0.0803535,-0.0368864,0.133836,-0.165198,0.0615859,0.168625,-0.0381259,-0.0874622,0.00809498,0.132666,-0.0288454,0.0597103,-0.0252428,0.0692724,-0.0506779,-0.106162,-0.0610199,0.0536639,-0.0500539,-0.0909048,0.00904505,-0.105083,-0.0421549,-0.00808956,0.0197206,-0.0777811,0.0361531,-0.0785299,-0.11402,0.0125057,0.0224211,0.141237,0.080134,0.00377105,-0.18726,-0.163652,0.00460289,0.0168829,0.0467525,0.109805,0.0349638,0.0926267,-0.0201114,-0.021225,-0.172709,-0.0131517,-0.0731556,-0.129457,-0.026772,0.0660147,0.17124,0.155824,-0.102673,-0.0192319,0.18709,0.00733258,-0.0850426,0.0702913,-0.0758796,0.10856,-0.0392119,0.0328217,-0.00509821,-0.106843,0.0179055,-0.0308371,0.0274739,0.0533661,0.092258,-0.0884189,-0.0956378,0.0886925,0.0337113,-0.0376807,0.0454881,0.0260066,0.0185884,-0.0833637,-0.12512,0.0219456,0.0494506,0.107649,-0.0041047,-0.0165996,-0.0769006,-0.0464839,-0.152755,0.0777844,-0.0601752,-0.122514,-0.187558,0.126573,-0.0577194,-0.0934111,-0.0179091,-0.00148369,0.088152,0.159649,0.0359383,0.026898,0.0903913,0.0725828,0.0767438,-0.00591122,-0.0346526,-0.000205127,-0.0337393,-0.042646,-0.0535536,0.0411503,0.112458,0.0185442,0.0102297,-0.0365328,0.0837274,-0.0119642,0.151055,0.0535444,0.163697,-0.108407,-0.0429628,0.0123157,-0.0696178,0.148477,0.19652,-0.0735918,-0.033099,-0.0970823,0.0233798,0.108935,0.027734,-0.0915888,0.0319684,0.123131,0.0681543,-0.0128201,-0.0123099,0.101057,0.115631,0.131853,-0.0730023,0.0222534,0.0801255,-0.100017,0.01739,0.114983,-0.0964838,0.00498543,-0.0355728,-0.089397,0.128191,0.0628088,0.128311,-0.0245802,-0.0137681,0.0235355,0.170473,-0.0301899,-0.187203,-0.0676804,-0.0568344,0.0710022,0.119043,0.0891134,0.0340401,0.0482112,-0.013204,-0.0320527,0.019888,-0.141538,0.0553818,0.147148,0.058923,-0.188972,0.021328,-0.0255497,-0.0751184,0.0812889,-0.0211476,0.099324,-0.00989986,0.162061,0.0781004,-0.11337,0.0747506,-0.0139667,-0.180784,0.0438185,-0.11932,0.0463861,0.0972175,-0.0392262,0.0228946,-0.0224374,-0.0142204,0.0548971,-0.0757987,0.131614,0.00113115,0.0855726,-0.0365495,0.00362143,0.13144,0.016777,0.193173,0.0493274,0.0626515,-0.0319275,0.121931,0.0708916,0.0515378,-0.00461361,-0.0706563,-0.0674146,0.177447,-0.00541365,0.155034,0.0541646,-0.0225719,-0.0482371,0.00176815,-0.0433804,0.190278,-0.0906271,-0.0980083,0.0335968,-0.0608668,0.0418374,0.0246191,-0.00414733,0.083063,0.054396,0.0112639,0.0846011,-0.0480112,0.00863857,0.0310101,0.141179,0.0366035,0.0963415,-0.0202816,0.0705951,-0.0615299,0.000228236,-0.0295263,0.0632138,-0.111831,0.0653327,-0.0346767,-0.0614199,0.0287545,-0.034573,-0.0339617,0.032102,0.129815,0.0195244,-0.0705496,0.097531,-0.011997,0.00928579,-0.0598124,0.0200267,0.135047,-0.0362153,-0.103639,-0.0354064,-0.175297,-0.103973,-0.0211886,0.108645,0.0707639,0.092382,0.09346,0.0216839,0.0377647,-0.0754884,-0.0816878,-0.121844,0.0946199,0.0935901,-0.0838335,0.138509,-0.0147218,0.0324505,0.0349433,0.0502559,-0.000520313,0.0816576,0.117017,-0.0909376,0.126031,-0.0383163,-0.0438002,0.0977391,0.00763934,-0.161078,0.0223442,0.190077,0.00150604,-0.0257791,0.100341,0.0409968,0.0252041,0.118111,-0.175841,-0.00749027,0.186039,0.133662,-0.0767351,-0.0251025,0.0958629,0.0495179,0.0151562,0.067979,-0.0622601,-0.141627,-0.0759425,0.0280404,-0.0881428,-0.0957346,-0.0635683,0.0692472,-0.0235799,0.0344696,0.0226895,-0.0246581,0.162105,-0.0103249,0.0475462,-0.0640967,-0.155662,-0.0751908,0.147394,0.0311837,-0.0894064,0.0615303,0.0790858,-0.0343192,0.172128,-0.00830827,0.0862616,0.188571,0.0495095,-0.195657,0.0849199,-0.0558838,0.0482024,-0.130146,-0.0293015,-0.0055495,0.032764,-0.0388842,0.0558188,0.0821782,0.0865406,-0.0128674,-0.0458941,0.161522,-0.117054,0.0580917,0.0566758,0.0404387,0.0501079,0.115052,-0.099796,0.0135883,-0.147445,0.0982348,-0.0162,0.0545396,0.169262,-0.0567038,-0.090776,-0.0747643,0.064362,-0.0507299,-0.0934189,-0.0140837,0.107232,0.140316,-0.0205715,0.0955513,-0.115117,0.0635467,0.00573067,-0.0669722,0.0476489,-0.0489995,0.0517635,0.0290645,-0.108664,-0.00984578,0.00605365,-0.0293611,-0.1309,-0.0481055,0.0725524,-0.0741199,0.0493557,-0.106437,-0.0616554,0.177572,0.00627254,0.150749,0.0721673,0.0338484,0.0635689,0.0484654,-0.0997553,-0.114392,-0.0162698,-0.111103,-0.0703355,0.0363345,0.00230623,-0.00584052,-0.127406,-0.039929,0.0609433,-0.072156,-0.0765092,0.0463925,-0.11793,0.0280431,0.0803096,0.0216201,-0.0111793,0.039078,0.0405826,0.0424238,0.0184083,-0.0150396,-0.0344208,0.0274566,-0.013935,-0.0508415,0.0525185,-0.0889959,0.0672984,0.0434144,0.140394,-0.0703387,0.0769042,-0.0344656,0.105123,0.105331,-0.0182415,0.112722,0.0898414,-0.00778156,0.0386838,0.0939,0.171019,-0.0999787,-0.0931851,-0.107782,0.0126928,0.0178177,-0.012864,-0.0667993,0.0184196,0.0577005,0.0393542,-0.171172,-0.11097,-0.0166897,-0.118896,0.0967221,-0.00117927,-0.0225393,-0.149444,-0.0318287,-0.0752109,-0.0507904,-0.185235,0.169622,0.134896,-0.138575,0.184448,0.0378279,-0.0899549,-0.0721744,0.164666,0.14383,-0.0124301,0.0346032,0.0996245,0.0203806,0.00405664,0.0910335,-0.0666916,0.0234214,-0.116377,-0.007951,-0.0694887,-0.0819565,0.0501573,-0.062555,-0.0863026,-0.0584807,0.0865529,-0.153731,0.130105,-0.0919094,0.0858748,0.0789066,0.0276361,0.0647905,0.0210213,-0.0070123,0.0989631,-0.0126116,-0.105278,-0.0612275,-0.0267996,0.0082061,0.0757494,0.156578,0.0324307,-0.195531,-0.0532595,-0.00155013,0.126645,0.0343306,-0.00459162,-0.0312377,0.0618049,-0.104209,0.00948088,-0.0667027,-0.00260891,-0.00773882,-0.0376543,-0.0534751,0.127999,0.0605699,-0.0534997,0.103241,0.169119,-0.072303,-0.168784,-0.168125,0.00148261,-0.100927,-0.00623824,0.0819838,-0.0450366,-0.0882263,0.0447748,0.13607,-0.0900826,-0.0257005,0.0197553,0.0173576,0.00684928,-0.0978554,0.112544,-0.0353847,-0.1442,-0.0815074,0.0176787,0.125536,0.0425431,-0.101197,-0.0274915,0.0914652,0.0888681,-0.0532363,-0.0464022,-0.153232,0.0518228,-0.0739263,0.138758,0.0547515,0.030958,0.0382151,0.0237077,-0.0609296,0.084635,-0.0448392,0.0450126,0.0812156,-0.122443,0.0142162,-0.140826,-0.056396,0.00384631,-0.153028,-0.137583,-0.0445767,-0.0410541,0.0497937,-0.0773787,-0.131891,0.108683,0.0554608,-0.048051,0.0442577,0.110124,0.13918,-0.0107379,0.00648007,0.0699177,-0.0812371,0.0469188,-0.0473591,-0.0157507,0.0570614,-0.0025227,0.0395923,0.031601,-0.0856329,-0.133599,0.118867,0.037981,-0.0532414,-0.0652607,0.188857,0.0905084,-0.194812,0.0415089,0.0418391,-0.0340393,0.132822,0.0365851,0.0540376,0.0813005,-0.134071,0.0264033,0.0201886,0.0186843,-0.117547,0.0493822,-0.0113365,0.0404339,0.0190141,0.0026354,0.173817,-0.055218,0.128634,0.117294,0.106406,0.083637,0.113294,0.0354459,0.10608,-0.0642002,0.0524768,0.0166999,0.0116201,-0.0761498,0.0837312,-0.00828228,0.0415047,0.00749409,0.0303759,0.0193767,-0.00034357,-0.0268122,-0.0378809,-0.018505,0.0835976,0.00546598,-0.0307269,0.0688979,-0.0195747,0.0530987,-0.102958,-0.145963,0.0922688,0.0602475,-0.0500369,-0.091419,0.0355762,0.108647,-0.0196813,0.172643,0.122491,0.0790804,0.0764175,-0.150928,0.00636021,-0.0378837,0.102908,0.164675,-0.0933514,0.0460753,0.0508254,0.0381172,0.0140603,-0.0671476,0.0747707,0.0178842,-0.0332267,-0.0415491,0.0686901,-0.0236921,-0.00780207,0.127323,-0.0544976,-0.0556614,0.0755019,-0.179631,0.138149,-0.0534642,0.0104891,0.103577,0.0819189,-0.000501042,0.0325998,-0.0779113,0.070655,-0.0785655,0.0574861,-0.0198695,0.115531,-0.0847652,0.146904,0.129961,-0.107964,0.0351996,0.0318757,-0.100314,0.0150697,0.110759,-0.0153916,0.0391351,0.149484,-0.119007,0.0630525,0.0128566,-0.185834,0.0683897,0.0246508,0.0754479,0.145982,-0.0140343,-0.0365339,0.119996,0.0718873,0.17542,0.103752,0.00175232,0.0979094,0.0219998,0.0259799,0.0503082,0.101682,0.0467581,-0.151209,-0.0169979,-0.108189,0.00284192,-0.0140815,-0.0402305,-0.0975377,0.10945,0.189602,0.01525,-0.144277,0.0466081,-0.0308147,0.144134,-0.00864505,0.0695864,-0.0365395,0.143821,0.024802,-0.0930302,0.04892,-0.00300497,0.0859873,0.0654214,-0.0289158,-0.145823,-0.179842,0.043231,-0.110669,0.0241619,-0.0532811,-0.00884264,-0.0209361,-0.00717862,-0.13532,0.0628552,-0.0317938,-0.141902,0.0184328,0.0320695,-0.0362948,-0.100688,0.0673612,-0.0704079,0.0657077,-0.0600912,-0.053298,0.0103231,-0.0424258,0.0393289,0.019074,-0.00249063,-0.0266089,0.00867887,0.0261012,0.00575592,-0.164975,-0.0401712,-0.141759,-0.0691049,0.134368,-0.0813096,0.14086,0.0308995,0.0686432,-0.118489,0.0967351,-0.0941034,-0.0129937,0.0797712,-0.104689,0.121916,-0.00328428,-0.0175223,0.10697,0.0889943,0.0165241,-0.0762757,-0.098218,-0.0102316,-0.0127584,0.0587425,-0.191082,-0.0848791,-0.0705484,0.13732,0.0725765,0.0117059,-0.173347,0.0105837,-0.0502688,-0.160541,0.113841,0.0306836,0.112816,0.0964277,0.0351452,-0.0458413,0.00214006,0.0364147,0.00579472,-0.126408,-0.042309,0.106508,-0.0591178,0.0587582,-0.0738444,-0.104705,-0.037935,-0.160766,0.120028,-0.0687261,0.00699132,-0.0853655,0.0695087,0.0673592,-0.135295,-0.0106321,0.0840397,0.0439351,0.158446,-0.0442641,-0.09816,0.144187,0.0219591,0.02336,0.0219127,-0.0324634,0.0696903,0.020967,0.0872942,0.0671582,-0.0350359,0.0550859,0.0965769,-0.00240635,-9.3014e-05,-0.0770943,0.0271332,0.0601299,0.017186,0.0616771,0.134153,-0.0153541,0.0227967,-0.0226876,0.0345431,0.0589119,0.0134825,-0.159578,-0.0558812,0.0755887,-0.0565546,-0.0756714,-0.0601507,0.0241968,-0.00183911,-0.0824434,-0.148931,-0.103181,0.158943,-0.0210556,-0.0662109,-0.0683226,-0.00799076,-0.0579153,-0.0913823,0.0720957,-0.096337,-0.0486966,0.0509569,-0.00166391,0.086468,-0.0750563,0.0826777,-0.0235444,-0.0639485,-0.0116508,-0.125645,0.0770827,-0.106987,-0.0672973,-0.0669686,0.126737,0.0835503,-0.0768473,0.114251,0.16615,0.0270474,-0.0578688,-0.0183956,0.0189843,-0.145975,-0.0497427,-0.0232889,0.0206459,0.0717123,-0.0738482,0.0469509,-0.129871,-0.0655523,0.135194,0.113497,-0.0184952,0.0366997,0.011474,-0.10154,0.101297,0.0364831,0.0731517,0.0609438,-0.036586,0.0533949,-0.0583799,0.105618,-0.0786485,0.073654,-0.0906134,-0.0446204,-0.0609414,-0.0280142,-0.0479855,-0.0607313,0.0635857,-0.0862699,-0.128092,-0.0085427,0.0432619,0.00896452,0.0267786,0.192444,0.0114755,0.0278921,-0.111541,0.172252,-0.125884,-0.0294393,-0.0217871,-0.116938,0.0721841,0.0242156,-0.0853171,-0.139598,-0.116465,-0.130195,0.049871,-0.0191155,0.0823738,-0.0877497,0.0224469,0.0106859,-0.0424861,-0.0472164,-0.0409176,-0.0407293,-0.0154322,-0.156608,-0.0717689,-0.0235223,-0.0976978,-0.0795829,-0.00366058,-0.130192,0.0767877,0.0777591,0.0377137,-0.050985,0.0206324,0.00398814,-0.055696,-0.06527,-0.0526338,-0.0635654,0.0642013,-0.0655651,-0.0399385,-0.00498884,0.0395887,-0.0244705,-0.152649,0.165539,-0.0594459,-0.172553,-0.116777,0.00364456,0.0207995,0.081854,-0.0377287,-0.0590443,-0.00440276,0.180772,0.0068243,0.0332762,0.176712,-0.0338586,-0.0751822,0.114618,0.00158086,-0.115933,-0.181113,0.1224,-0.0654432,-0.0408032,-0.0423193,0.00952129,0.020906,-0.163389,-0.0503167,0.0258952,-0.0681723,-0.0289058,0.0917466,-0.180314,-0.115617,0.12909,-0.0308685,-0.0449644,0.0515303,0.130017,-0.169456,-0.000851263,0.000470173,-0.0038353,0.0499155,-0.070614,-0.00607958,-0.108891,-0.10997,0.0923813,0.18027,-0.0392632,-0.0684388,-0.056741,-0.144172,-0.143377,-0.143675,0.0360884,-0.00493883,0.0298069,-0.000887806,-0.132745,-0.144396,-0.000116912,0.00204996,-0.0339311,0.0934984,-0.0700933,0.14302,0.131744,0.101627,0.131595,0.1315,-0.143746,-0.125438,-0.195484,-0.0274411,0.00734029,-0.0656897,0.0856631,0.103358,0.0243479,-0.0613948,-0.0324747,0.0620528,-0.11725,-0.113445,0.0247232,0.0251045,-0.0475901,0.140277,-0.00773357,-0.0619225,-0.0827525,-0.127677,-0.0805192,-0.138776,-0.0735922,-0.0240547,0.0148115,-0.199985,-0.0990253,-0.0619006,0.0261932,-0.0872061,0.0340314,0.12152,-0.0646866,0.091274,0.0780129,0.0284397,0.0755224,-0.011875,0.055213,0.048632,-0.0151803,-0.0680087,-0.0315568,-0.0924025,0.0156447,-0.0869617,-0.0407142,-0.0394507,0.132916,-0.0216883,0.0771893,-0.0124886,0.0183688,-0.0512755,-0.0060026,-0.0155325,-0.0156579,0.119632,-0.131718,0.070531,-0.0815565,-0.0987051,-0.161496,0.0567249,0.0245488,-0.00935697,0.125726,0.103982,-0.174597,-0.0371455,0.0830432,0.177209,-0.0404176,0.0919191,-0.0123239,0.15792,0.000970069,0.0972781,-0.00736074,0.0395343,0.0973911,-0.0306485,0.0462675,0.0691502,-0.0938204,0.0258718,-0.0133949,0.047113,-0.0381268,-0.0196682,0.034567,-0.0668487,-0.0342991,-0.0352721,-0.0551901,-0.055759,-0.0744648,-0.0219146,0.0146168,0.0688597,0.141606,0.146339,0.132761,0.0114248,0.0160623,0.0557112,-0.0228619,-0.0751738,0.0598691,0.0179884,0.14161,0.0205019,0.0824556,-0.163019,0.0692593,0.00582313,0.00074697,0.0893326,-0.101219,-0.104101,-0.0480013,-0.0615878,0.00359553,-0.0977931,-0.083202,-0.0208538,-0.17526,0.0685014,0.110499,0.0715254,0.0129526,-0.0725228,-0.111276,-0.096022,-0.0342785,-0.0252474,0.0909389,-0.00627997,-0.102534,0.156135,0.0495295,0.192755,-0.096051,0.138021,-0.010259,0.0151573,-0.0348619,-0.0146148,0.0199694,-0.0249841,0.0654749,-0.00255801,0.136241,-0.0451311,0.0196855,0.110373,0.0617682,-0.0616138,-0.0528254,-0.00550331,-0.0945326,0.183545,-0.137545,-0.0952595,-0.148903,0.0132813,-0.138965,-0.140191,-0.0041011,-0.0217931,-0.0510694,0.0426214,0.0500116,0.188556,-0.126922,-0.120326,0.0904081,0.119633,0.0658393,-0.0949994,0.0887096,0.0467309,0.0312065,0.0660121,-0.0412119,0.10172,0.0106537,0.0460799,-0.097935,-0.139599,-0.0565167,0.0604239,0.0274697,-0.177194,0.114586,-0.0565921,0.0574853,-0.151139,-0.0310645,0.195423,-0.125889,0.090945,-0.0291993,0.12124,-0.0481343,0.173418,-0.0146413,-0.0590343,-0.0895637,-0.0277734,-0.028693,-0.114924,0.077374,-0.0723465,0.0535887,-0.00534655,0.152309,-0.00645969,-0.0483021,-0.0167222,-0.134731,-0.0434642,-0.0181038,-0.0722061,0.0748538,0.112331,-0.0392668,0.176268,0.0421634,-0.0565171,0.118985,0.0372418,0.161083,0.0168436,0.155345,-0.0376527,0.0506617,-0.0437421,-0.00690103,0.108578,0.112499,0.170925,0.0188128,0.0246777,0.0120741,0.0460739,-0.111855,-0.0493544,0.0631228,-0.0498085,-0.155661,-0.0700568,0.0811546,0.073406,-0.0228987,-0.0105961,0.188298,-0.0674606,0.0904193,0.0719535,-0.168735,-0.00424613,-0.0618188,-0.165199,-0.107668,0.140354,-0.082292,-0.00568462,0.0509694,0.149212,-0.0183105,0.0620366,0.144886,-0.0232982,0.0636842,-0.160545,0.0833449,0.165184,-0.0822573,-0.151557,-0.0254825,0.0103506,-0.00121155,-0.0171701,0.0542427,0.106138,-0.0536449,0.00437619,-0.0182249,-0.0853038,0.0817245,-0.0234378,0.0967744,-0.196275,-0.0846333,0.132458,0.037705,-0.0965417,-0.0140851,-0.0253433,0.0567175,-0.0747474,0.101077,-0.0518732,-0.0923377,-0.0817935,-0.0549742,-0.020028,-0.021301,0.0127266,0.119598,-0.135954,0.0459165,-0.0932009,0.190958,0.0937735,-0.0381667,-0.0857572,0.0652411,-0.149695,-0.149256,-0.117534,0.0759376,0.0702417,0.0472423,0.0238206,0.0373806,-0.101455,0.0948919,0.073397,-0.0781403,-0.00169352,-0.086435,0.075004,0.164775,-0.168186,-0.114184,-0.138985,-0.120269,0.030971,-0.0693201,-0.053867,0.083072,-0.0752605,0.0439134,-0.034817,-0.102648,-0.0392479,0.0567335,-0.0782312,-0.0411724,-0.12034,-0.0587307,-0.039375,0.116221,0.141258,-0.040993,0.0510027,0.111929,-0.0485773,0.0134928,-0.0594214,0.111931,0.0064771,0.115154,0.0522667,0.0503963,0.0106935,-0.123936,-0.0883339,-0.0333303,0.0172113,-0.163027,-0.0425668,-0.187085,0.103952,0.0853261,0.00590181,0.122317,0.0215837,-0.131844,0.0245616,-0.0230178,0.126168,0.0963347,-0.0277322,-0.00287845,-0.0573553,0.0492934,-0.0195918,0.0291141,0.0299028,-0.00211296,-0.051668,-0.0855835,-0.0391129,-0.132922,-0.010494,-0.0426083,-0.0160215,-0.0386312,0.105128,0.148371,-0.00614592,0.102173,-0.120103,-0.195461,-0.0867202,-0.0366494,0.00166755,0.132378,0.0704352,-0.053708,0.0225558,-0.0322628,0.105126,-0.0335162,-0.0262558,-0.0541015,0.1417,0.0358461,-0.0553689,-0.013495,0.0621656,-0.0649137,0.0895446,0.108623,0.13088,-0.119662,-0.16476,-0.00129578,0.0591295,0.152596,0.0336285,0.139662,0.139411,-0.0136847,0.11832,-0.00147593,-0.0674638,0.0669176,0.0321891,0.00992571,0.0281075,-0.00252449,0.0623541,0.18537,0.145711,0.00690454,0.124647,-0.04646,-0.0179147,0.0747442,-0.123614,-0.0817482,0.0649306,-0.0399811,0.0118816,-0.02142,0.0668852,-0.0586256,0.0573016,-0.0280965,-0.0996142,0.0185751,0.0518696,-0.0714205,0.0868474,0.0846303,-0.0750897,0.0257385,0.180525,0.0370199,0.0903032,-0.140053,0.035274,-0.00541731,0.0245961,-0.0897636,0.0471068,0.015533,0.00754473,0.00536748,0.161818,0.129511,-0.0339179,-0.0451705,0.139869,0.0120539,-0.0263476,-0.0968517,-0.0360042,0.0533784,-0.0781475,-0.0774178,0.0311593,0.0653528,-0.0982138,0.169487,0.000585768,0.0709457,0.032945,0.0111849,-0.0561996,0.0947146,-0.0942159,-0.00277069,-0.0477943,-0.124461,0.0363542,-0.0519668,0.0547877,0.095686,0.115407,0.0116008,-0.0713132,-0.0333342,0.0317721,-0.137242,0.123458,-0.076869,0.0466684,-0.0281262,0.0973497,-0.0214058,0.00644005,0.0825994,-0.0985896,0.123166,0.0607869,-0.00441745,0.142787,-0.183304,0.0937883,0.0108011,-0.0944687,0.0539683,-0.14574,0.011401,0.0563324,0.0425374,0.0808551,0.173215,0.0732809,-0.0202308,0.174757,-0.054197,0.109338,-0.160823,-0.0679032,0.0993312,-0.00524674,0.0434213,-0.0498961,-0.0474333,-0.0696764,-0.124852,0.0549063,-0.175663,-0.170234,0.0357062,-0.118765,-0.0853431,0.0929091,-0.0565234,-0.0266872,0.0539068,0.0710694,-0.175055,0.00638894,-0.00666871,-0.076689,0.0397328,0.0582842,0.131295,0.0421468,0.0293008,0.144999,0.0167041,-0.169736,-0.0272255,-0.00557323,-0.0074212,0.0836529,0.15187,-0.0528111,0.0258278,0.129754,-0.12871,0.0952257,-0.0626194,-0.122545,-0.0301491,0.0682832,-0.00986221,-0.125579,-0.189871,-0.0155144,0.0233914,0.0227376,-0.145076,-0.137518,0.0182303,-0.0123171,-0.0297646,-0.0748342,-0.0384689,-0.0473795,-0.00981228,0.12713,0.0827072,0.0078602,0.0513414,0.0960992,-0.10124,-0.0111105,-0.134129,-0.0345153,0.0299543,0.00680578,-0.0379444,0.0652379,0.152018,0.014391,0.0298214,0.104017,0.0571311,0.0509716,-0.0759422,-0.0435873,-0.0958262,-0.0452493,0.109505,0.046899,0.046296,-0.0383301,-0.0411421,0.0465015,-0.0477124,-0.0679166,0.100107,-0.168051,-0.0464959,0.0506704,-0.0903113,0.0359749,-0.172247,-0.0723131,0.11246,-0.0649263,0.0656519,0.114253,-0.0302572,0.0111012,0.0296559,-0.0314685,0.12464,-0.093055,0.198633,-0.182886,-0.147356,0.034816,0.0210234,0.116037,0.124903,0.0626115,0.0252638,0.0572011,-0.0715524,0.0521528,0.0569047,0.0748328,-0.0688578,-0.142808,0.0212019,0.0189479,-0.00429641,-0.0294612,-0.0358876,0.0669524,0.102755,0.176297,-0.00897796,0.0190911,0.0138891,0.0305432,0.0411993,-0.0398356,0.0527268,0.0813481,0.0803253,-0.05003,0.0865127,-0.0643054,0.0389783,-0.0451327,0.12611,-0.197469,0.0908873,-0.131117,0.0916222,0.0927646,0.0531939,0.110848,-0.00309937,-0.0605242,0.0079606,-0.00620727,-0.0190659,0.0721927,0.157592,-0.0110598,-0.160788,-0.0311039,-0.11607,-0.0669239,0.113684,0.11224,-0.00966379,0.0374642,-0.0132613,-0.0804909,0.037783,-0.0151019,-0.0685347,-0.196826,0.0536453,0.0157667,0.123493,0.0162529,-0.0287294,0.143928,-0.0632712,0.0706059,0.101042,-0.0494826,0.0457078,0.0148554,-0.00631929,-0.0874064,0.016812,-0.0303907,0.0744615,-0.0224625,0.0507157,0.0606673,-0.0930662,-0.147057,0.0225394,-0.077837,-0.0167966,0.147797,0.056851,0.0654153,0.0473103,-0.0542126,-0.0797996,0.00427449,0.0403392,0.173557,-0.0748616,-0.00864596,0.0655491,0.116261,0.0896113,-0.103632,0.0772214,-0.126225,0.124732,0.00721606,0.0489229,-0.116206,-0.0977209,-0.121447,0.0103058,-0.149976,-0.144703,-0.00582689,0.0187427,0.0648196,-0.00167353,0.131802,-0.144563,-0.111852,-0.0549756,0.068384,0.0381402,-0.196533,-0.14229,-0.0827934,0.0310452,0.0461469,0.116362,-0.154467,-0.108347,-0.148105,-0.154828,0.00400655,0.00164778,-0.0422912,0.0165406,-0.160551,0.170884,0.128963,-0.032227,0.0770427,-0.0731987,-0.111287,0.0175752,0.0663915,0.0174206,-0.0485066,-0.138576,0.131733,0.0512229,0.0814724,-0.152609,0.118101,0.125456,-0.105806,-0.0598438,0.0101207,-0.171213,-0.155888,-0.0286835,0.127767,0.0176741,-0.0320029,0.0385956,-0.000907739,0.0573836,-0.154833,-0.12933,0.091784,-0.0503852,-0.00404481,-0.0652393,0.0496882,-0.0588053,-0.029825,-0.0330748,0.00701492,-0.096606,-0.018738,0.0120472,0.0449721,0.0180979,0.0024165,0.149391,0.116353,-0.137747,-0.0296359,0.112894,0.128848,0.110477,-0.136911,0.114535,-0.0352108,-0.0155905,0.00890467,0.17286,0.130992,0.0310014,0.0405404,-0.104009,-0.129608,-0.0713061,0.15782,-0.0936354,0.101848,-0.0637614,0.118896,0.0469569,0.0336522,0.0633477,0.145982,-0.182297,-0.0732322,-0.00847897,-0.0546724,-0.0348244,0.0230927,0.126565,0.0783807,-0.042791,-0.0993116,-0.0682248,0.162757,-0.121394,-0.0811395,-0.0504917,0.0043082,-0.0752271,-0.0293043,-0.037274,0.025414,0.0189894,0.0148058,-0.175038,-0.0208615,-0.167751,0.127983,-0.0814972,0.113932,-0.0167399,0.0179063,-0.0898361,0.121647,-0.00726607,0.00922303,-0.0805488,0.0859635,-0.0305149,0.0167872,0.10774,-0.0769469,-0.00928133,-0.0833622,-0.0132889,-0.116271,-0.144546,-0.117952,-0.112151,-0.090525,-0.0477336,0.0148991,-0.141188,-0.0318569,-0.0307795,-0.0190452,0.150756,0.0705374,-0.0431864,0.0179882,0.00548748,0.066324,-0.0337491,-0.0422239,-0.119495,-0.137498,0.104962,0.0543839,-0.124256,-0.102485,0.0174999,0.107603,0.100841,0.184442,-0.0348696,-0.107587,0.041424,0.0318518,0.143866,-0.0808391,-0.0676139,-0.168962,0.0664424,0.151743,0.0727667,0.0426745,-0.056578,-0.0991671,0.0124732,-0.0312166,0.0931653,-0.0667201,-0.00606452,0.128257,-0.105526,-0.0190048,-0.0112345,0.0287607,0.112795,-0.112645,-0.048499,-0.0727074,0.0381589,-0.0679629,-0.0478245,0.157169,0.00978496,0.092426,-0.0818837,-0.00508665,-0.14819,0.0112879,0.0796856,-0.00419354,0.0312118,-0.151762,0.0888035,-0.196838,0.0245249,0.0203186,0.0368258,0.0718873,-0.0571385,0.152421,0.141561,0.138895,-0.0952962,0.0406504,-0.0490803,-0.0698172,0.047688,-0.167249,-0.0853045,0.0428406,0.110167,0.0590653,-0.102807,-0.0357643,-0.104881,-0.113867,-0.113092,-0.124005,-0.0957248,0.0393437,0.0140138,0.00825781,-0.00961447,-0.0728908,0.0704568,-0.130175,-0.0507797,0.157229,-0.0857952,0.122055,-0.026546,0.0424526,0.103736,-0.0492028,-0.0352089,-0.0109711,0.0379862,-0.116052,-0.115216,0.0645945,-0.00291662,-0.082493,-0.0247292,-0.163727,-0.116511,-0.0464234,-0.0955671,-0.0316211,0.176201,-0.0326838,0.175359,0.0231579,0.0564476,0.00867333,0.0384912,0.0656804,0.0426212,0.00115137,-0.172305,-0.0122698,0.0533999,0.0407929,-0.027573,0.0353395,-0.0189906,-0.0384328,-0.152657,0.0760802,0.0817674,-0.133025,0.0887423,0.17978,0.0335066,-0.00584695,-0.0654289,-0.0471048,0.0760112,-0.0571485,-0.0799288,-0.0254525,-0.11303,-0.0880271,-0.0157438,0.0480875,-0.0812249,0.101857,-0.0529522,0.0961126,-0.160245,-0.0983701,0.0184276,0.137928,0.0149777,0.0580218,0.0176395,0.131632,0.0192895,-0.170894,-0.0541343,0.199323,0.0821331,-0.159737,-0.150928,-0.0136378,0.0688075,-0.126488,0.0698252,-0.0846999,-0.0231472,-0.145123,-0.186685,0.00990641,-0.180863,-0.00251582,-0.14314,0.0779585,-0.0571828,-0.158747,-0.06976,0.0836753,0.0557918,0.00684863,0.129874,0.154311,-0.0780365,0.0730511,0.0714944,0.102007,-0.100865,0.000941898,-0.0291098,0.145333,0.0705906,0.107735,-0.0615542,0.0774705,0.0630019,-0.079264,-0.0610314,-0.00864215,-0.124713,-0.0235091,-0.0979911,0.115794,0.0509806,0.0855716,0.0100502,0.0881354,0.0212023,0.0493693,0.138267,-0.085592,-0.0491023,0.116403,0.0139033,0.143961,-0.0723988,-0.184535,0.16522,-0.0121758,-0.0541597,0.0196692,0.086426,0.150044,-0.0220212,-0.0565279,0.000280064,-0.0639115,-0.0823229,-0.0372731,0.107028,0.163594,0.0227063,-0.167782,-0.0762171,-0.150879,0.160281,0.0631385,0.00993941,-0.12063,-0.129523,0.0136678,-0.0688631,-0.0951165,0.0441934,0.0514252,0.157433,0.0371738,-0.0583187,-0.0154424,-0.0365997,-0.162995,0.0716269,0.118322,0.00601449,0.130601,-0.00567301,-0.0540792,0.106083,0.16982,0.0784914,0.0751119,-0.104036,-0.00233335,-0.0355068,-0.00165748,0.0683782,0.0468398,0.0651398,-0.094011,0.0431315,0.0643317,-0.192755,-0.154489,-0.0558707,-0.00216199,0.117236,-0.118282,-0.0379988,-0.000783816,-0.119431,0.00349927,0.0537303,-0.085589,-0.0795908,-0.0711305,-0.0410678,0.0315267,0.184836,0.0230324,-0.0577417,-0.133831,-0.107847,0.0322106,-0.0315027,-0.184979,0.0798634,-0.0121441,-0.111119,0.035885,-0.0196374,-0.0109358,-0.0187904,0.0615035,-0.15511,-0.190273,0.00721608,0.0760181,-0.00621882,-0.0451937,-0.136236,0.114998,-0.0459743,-0.0185113,0.103125,-0.0442726,0.0453405,-0.0586894,0.0306199,-0.0277181,0.126843,-0.132522,-0.105383,0.0842191,-0.0659183,-0.0384704,-0.0735658,-0.0427869,0.0326843,0.0451274,-0.0203776,-0.0901286,0.0311269,-0.0833726,0.0977824,-0.0200826,-0.162624,-0.0644619,0.0816058,-0.0778566,0.0574585,-0.00231589,-0.110209,-0.0340679,0.173899,-0.152458,0.177271,