[[[-0.010080656693484841, -0.002698498545349104], [-0.003757749132901578, -0.019618983535275736], [0.0014916175805500368, -0.016537577290795972], [-0.007945629762775502, 0.0007474712366024979], [-0.0035627399471513787, 0.005381768961350618], [0.009527604692453564, -0.014486498271309474], [0.002416989566412338, 0.0013034576486156176], [-0.020682396167109783, 0.009534012784361962], [0.007648814557473161, 0.01589545604405132], [0.016764696300657966, 0.009186686890779346], [-6.793926169665278e-05, -0.008164628796775228], [0.010562397302545878, -0.011359419592498202], [0.009649672420598407, -0.002214458960299629], [-0.014510721659302065, -0.003737959728788858], [-0.013580081398330446, 0.01640795235734214], [-0.00847801681591968, 0.01582327190663989], [-0.007823093862545268, 0.005618795512914721], [-0.01066897640062657, 0.014166915571179113], [-0.00871346908495701, 0.005524544797930473], [0.01248531636784808, 0.010962643362148316], [0.001485232124508796, -0.021572404247984428], [-0.004106142843177328, 0.010554939065733984], [0.0019147643031180177, -0.009223083203577157], [-0.005346170804378761, 0.010911750456145881], [-0.011495408921477039, -0.0023936037904835664], [0.005806073527623924, -0.0014471453856892227], [0.011355388940776609, 0.0069846973504694475], [0.012296515165537057, -0.0009488101480105383], [-0.015749796882848437, 0.01050634156717688], [-0.0032509207456850858, -0.01008949486693853], [0.0068283826293522336, 0.0008614650166811642], [0.0032611962622334455, 0.002904892117966751], [-0.003623788498893749, -0.0070779045022227455], [-0.005068915362019419, -0.011628343236231008], [-0.00034890837543643215, -0.019186353180260733], [-0.0018995192443882918, 0.01079666540627421], [0.005255184635824455, 0.0038016966892798925], [0.009399074029775795, -0.01175011289018874], [0.01536110126502672, -0.005256516644892834], [-0.003224265116717431, 0.009919373813801553], [-0.01935797082534678, 0.009858179906776694], [0.026500725291335504, 0.0031599563245458613], [-0.00529453590891578, 0.0021610366514439555], [-0.00511136522965056, -0.004532166894525555], [0.011204988819245903, 0.0023552646399537798], [-0.007939671208110349, 0.007010859622606144], [0.008057561070569992, -0.010042638407575544], [-0.014479699366784336, -0.002374718471046332], [0.003754683180445851, 0.009466339786242653], [-0.011312204497208905, 0.006356324566740712], [-0.007142326136836068, 0.010079046391835657], [0.01802337950533203, -0.010785247254890268], [-0.005835773034564182, -0.014307950212579093], [-0.008185315501709185, -0.015035877875555423], [-0.006306777835779651, -0.010298452344229901], [0.0019854865229360042, 0.01468803373180285], [0.003999529280534899, -0.005912418089369121], [0.007103662178804924, -0.003004600758811533], [0.003608867623660164, 0.010748732404304661], [-0.011446148271845105, -4.8616754188265466e-05], [-0.008837292796658408, 0.0027328988433892], [0.0004119932519322608, 0.0018601436378411608], [-0.016943607726728708, -0.008019483270235463], [-0.01041193000973586, 0.000830525650672524], [-0.0028697469896201574, -0.0010943927814252225], [0.004680887231142246, 0.009076122025369003], [-0.0010864665346935758, 0.0025010505394912914], [-0.006353450916731981, 0.0016329125151568118], [-0.006206137737835701, -0.007449808793083925], [0.01293430247275734, -0.009838109940138864], [0.015415306182479023, -0.025235129709653505], [-0.012604111750145504, 0.008868638610365553], [-0.002012743077764404, 0.002330950711806289], [-0.00410829023694484, -0.006972212686580744], [0.00861029793963491, -0.00269014306789113], [-0.0009473319730152629, -0.0007104037373939063], [0.002582426534709802, 0.00011072442897569587], [-0.0011653582439152843, 0.006190226952474404], [-0.004913663273610679, 0.00042543785915895565], [0.015662741429097852, -0.0074520131048117725], [0.005385730167365794, 0.004386121848423197], [0.00654334920019841, 0.014653595591682743], [0.03081470693459393, 0.010856024207732014], [-0.02211259389992511, 0.0033391442249695855], [0.004030668796093049, 0.015006062655529182], [0.030729761149718697, -0.004208058574284305], [0.003343894448763569, 0.018369842141045704], [0.0032771947153012993, -0.004585952160873739], [0.008359464156684222, -0.005453861433452259], [-0.0007827624355653224, 0.005377194506733938], [0.0009776264144451274, -0.005776871893665046], [0.012445618923709698, 0.001686598967790883], [-0.002712965733258178, 0.014601699952364268], [-0.015792246158085308, -0.0050249528069093346], [-0.025876066807872307, -0.0013513335898617885], [-0.014334782934151198, 0.01601963838372701], [-0.01238336291405816, 0.011434926344940278], [-0.002283881388418986, 0.005939750335478628], [-0.014715043789340165, -0.0007699695585866509], [0.0035473792176561525, 0.00576592669867073]], [[-0.009120899014014331, -0.0024415802928296347], [-0.003399981906272697, -0.017751102237070635], [0.0013496038733784236, -0.014963070064998219], [-0.007189143413232241, 0.0006763061050713136], [-0.3985898865088313, 0.40023572967625076], [0.07139504625333182, -0.07588181422185321], [0.0364787078042466, -0.03311247638033823], [-0.38607587453461606, 0.375988904796893], [-0.4741831563544112, 0.49548582750419096], [0.015168565561581571, 0.008312042156769615], [-0.001935528716932081, -0.005513234212952431], [0.039693991178261306, -0.04041513068728478], [0.044602702808530285, -0.0378753800575378], [-0.2153880927117848, 0.19887682909665994], [-0.012287151006374347, 0.014845786443139037], [-0.0825509146729195, 0.08919684379755016], [-0.36337992360553995, 0.36138549176889834], [-0.5018182889215685, 0.5049831968141658], [-0.007883878402187183, 0.004998564749545387], [0.011296616203859192, 0.009918913625680021], [0.001343826362896569, -0.019518541957938736], [-0.0037152057994340043, 0.009550025979939826], [0.001380974936769213, -0.007993484486507343], [-0.20989807796849988, 0.2149337707315545], [-0.46347696199186844, 0.4509102923589238], [0.007652089350879442, -0.003708165398223967], [0.025744653844703567, -0.009150687790996342], [0.051350940584785655, -0.04108362619716484], [-0.3464111955979255, 0.3416669584045643], [0.008058848713151958, -0.02012915199868692], [0.006178266980525563, 0.0007794467821062976], [0.002950704768265402, 0.002628323576548826], [0.02376629453980075, -0.03344910232803269], [-0.005039267716416277, -0.010068280741607571], [0.042190464000593925, -0.05986581524800105], [-0.32746557099571005, 0.33551563897470754], [0.004754849790126585, 0.003439745310168632], [0.008504208372281543, -0.010631409870742339], [0.0704254029206843, -0.061282854106541204], [-0.0029172897578186013, 0.008974971531013006], [-0.7482048162567172, 0.7396094800343732], [0.07595591481061076, -0.049119163006521346], [-0.004790454512998539, 0.001955288991851396], [-0.100688602573272, 0.09196321043687875], [0.040459591664288405, -0.028190380821533023], [-0.006798112697416804, 0.005957731268704363], [0.00729041798154086, -0.009086500367476878], [-0.4181862669068298, 0.4029365220029873], [-0.3387528157781385, 0.3507150935352085], [-0.3886966940198916, 0.38421265277676564], [-0.006462320600734271, 0.009119442025727667], [0.01630741224087458, -0.0097584070209044], [-0.0052801616140116135, -0.012945720993635492], [0.004644255683664041, -0.025654609098021922], [-0.01793864970761326, 0.0029143678397250683], [0.0017964526141526, 0.01328961757707649], [0.04591283977603359, -0.0476436065485685], [0.02398350853466282, -0.02027470995131603], [-0.119362249283129, 0.13235289303983117], [-0.010356385071064607, -4.398805740770011e-05], [-0.1469675088932951, 0.1414443011814888], [-0.06334426572791575, 0.06540007734295009], [-0.015330443214919293, -0.007255965486818812], [-0.3421676198618228, 0.3334984404394213], [-0.02066955661903577, 0.017082834084132775], [-0.1712755144785386, 0.18372274842160075], [-0.000983026388692592, 0.002262930887666228], [-0.005748552496531492, 0.001477446420637579], [-0.02326558785753157, 0.0109097946749508], [0.01170285530574427, -0.008901444616278967], [0.13755292270902797, -0.1464378219224578], [-0.38700574788345143, 0.38362592112082405], [-0.028392718290462783, 0.028680630058895522], [-0.10441680128646862, 0.09439124925519222], [0.05029669960041305, -0.04494018996276232], [0.0027983933801831126, -0.004298299632951296], [0.035511346436200616, -0.03307460459326628], [-0.15585792885927993, 0.16040439060706152], [-0.20496634269983455, 0.20090543159036245], [0.01409418396985094, -0.00666518145995279], [0.004872966361905971, 0.003968528604737176], [-0.03631739660740541, 0.055496225797902296], [0.05225671425192614, -0.014553363949862959], [-0.020007301312966755, 0.0030212314728325727], [-0.3155870381635612, 0.3328113232877016], [0.02780404657094541, -0.003807418352606946], [-0.4043879576917809, 0.424034376042736], [0.002167922356353134, -0.0033520758155836743], [0.02013523961755621, -0.01750627309094371], [-0.0007082373047551042, 0.004865243363195846], [0.0008845487026008833, -0.005226868324270039], [0.013177312225082923, -0.00039059245555334075], [-0.4419653663907046, 0.45272219975127365], [-0.014288700309122226, -0.004546537839308556], [-0.3864452911597452, 0.3618101530935549], [-0.3978894640634191, 0.3994139080432171], [-0.25790858323864363, 0.2570504452788704], [-0.48497440989584106, 0.48828221141001765], [-0.2483899172629717, 0.23437919878781657], [0.003209640858969662, 0.005216965197790551]], [[-0.008252517802497335, -0.0022091226754998427], [-0.0030762769291242343, -0.016061057906714103], [0.001221110986347043, -0.013538468291522616], [-0.006504680504766782, 0.000611916452913584], [-0.5726718182639772, 0.5741609642372388], [0.39662046770513715, -0.40068006012897645], [0.14085978508953942, -0.13781404533181976], [-0.5520645085961717, 0.5429378975893066], [-0.686781473837943, 0.7060559634068095], [0.01372439900309845, 0.007520670469923242], [-0.0017512511835932193, -0.004988331021077988], [0.30529168225652126, -0.30594416362125915], [0.15639810650455385, -0.15031127770835642], [-0.3046586205873208, 0.28971935892943107], [-0.011117317740967816, 0.013432350991479365], [-0.9454908459288898, 0.9515040304111295], [-0.5198145593254533, 0.5180100130617067], [-0.7211776250578492, 0.7240412088654097], [-0.0071332712670983366, 0.00452266213222807], [0.01022108963020927, 0.008974555156414451], [0.001215883540233192, -0.0176602234866524], [-0.003361489032239199, 0.00864078851138146], [0.001249495278149635, -0.0072324419914671055], [-0.302932747176297, 0.3074890024435864], [-0.6619325977066586, 0.6505623737073972], [0.021650649133709256, -0.018082217712532923], [0.07257009274004106, -0.057556002565175284], [0.2050660843537907, -0.19577629892392392], [-0.4967132449028522, 0.4924206963462543], [0.07257829223025469, -0.08349940785628754], [0.005590047446751455, 0.0007052373275428283], [0.0026697745027775117, 0.002378086532135196], [0.1070008217740123, -0.11576175022281598], [-0.0045594898570170805, -0.00910970134994272], [0.20229900963128963, -0.2182915286374202], [-0.47324615950491156, 0.4805297977960401], [0.0043021507508118, 0.0031122545447117866], [0.007694540952659004, -0.009619216163794847], [0.29059954253085174, -0.28232743615921124], [-0.002639540863729523, 0.008120483761829684], [-1.0715490414673827, 1.063772048751604], [0.2961816084095762, -0.2718999261231964], [-0.004334365624466506, 0.0017691301251650247], [-0.14201645541087016, 0.1341217891253739], [0.19720020899916307, -0.18609912337735565], [-0.106456236333617, 0.10569586581633783], [0.006596312938874745, -0.008221394177238904], [-0.5963076176165849, 0.5825097681821005], [-0.4908480704326292, 0.5016714454088191], [-0.5567919164977713, 0.5527347911936569], [-0.005847056931675515, 0.008251199530937135], [0.014754818535289297, -0.008829330040853591], [-0.004777448763848956, -0.011713186693766479], [0.07880892274307046, -0.09781892552046524], [-0.13170647315428283, 0.11811262090419475], [0.0016254162179471664, 0.012024341621883127], [0.1762633135763231, -0.17782929776059814], [0.08980997322715785, -0.08645428139371915], [-0.17517268823148413, 0.18692652068849983], [-0.009370375884784905, -3.980004890927408e-05], [-0.20927466322349242, 0.20427730825897228], [-0.09179096215040565, 0.0936510443556339], [-0.01387086463263162, -0.00656514059220176], [-0.48891030916279604, 0.481066503699487], [-0.21401787547625212, 0.21077263709279614], [-0.24999417774889762, 0.2612563372738677], [-0.0008894345568946064, 0.002047482096621457], [-0.005201245156132597, 0.001336781919174139], [-0.12101223943392762, 0.10983281479096745], [0.010588651579445423, -0.008053957186776815], [0.6240060566811644, -0.632045043717372], [-0.5562670163637456, 0.5532089756503157], [-0.3228217792717565, 0.32308227957889596], [-0.14726740587423667, 0.13819636512585795], [0.2746619067561166, -0.26981537890003154], [0.015353821540962043, -0.016710924939873455], [0.13869114906226754, -0.13648640417823713], [-0.22497658896335074, 0.22909019184989618], [-0.2941716893450926, 0.2904974088631155], [0.012752306975897047, -0.00603060384405317], [0.004409021697401783, 0.0035906935171623206], [-0.5011218235052385, 0.5184746775476354], [0.14988698692445462, -0.11577329165127052], [-0.018102449112910122, 0.002733586511231697], [-0.45917262119991187, 0.47475701911988166], [0.025156882995375253, -0.0034449222262153798], [-0.5855773777157062, 0.6033533027585604], [0.001961519123580563, -0.0030329318744698897], [0.0795689315396639, -0.07719026327136017], [-0.0006408075516353968, 0.0044020339888166905], [0.000800332719852899, -0.004729229413796923], [0.018286180199941618, -0.0067168565651276385], [-0.6383600605298537, 0.6480927588823077], [-0.01292830383215501, -0.004113671733561711], [-0.5480968813848595, 0.525807201919509], [-0.5720311042041046, 0.5734104091457404], [-0.37053428386779075, 0.3697578473806478], [-0.697433325678701, 0.7004261985129391], [-0.3520174994946037, 0.3393407114428622], [0.0029040578442510504, 0.0047202691427264045]], [[-0.007466813301615666, -0.001998796848803083], [-0.0027833912078186855, -0.014531919068333466], [0.0011048516312010803, -0.012249499794117607], [-0.005885383840196624, 0.0005536572012858867], [-0.6928138117681788, 0.6941611793506915], [0.6346288109423568, -0.6383018982879285], [0.09506638380148615, -0.0923106223865495], [-0.6661085614963839, 0.6578508755276108], [-0.8338873342815291, 0.8513267410830639], [0.012417728441858693, 0.006804643582216518], [-0.0015845183185387336, -0.004513402735075077], [1.0085852726087343, -1.0091756326236876], [0.23744752649715345, -0.2319402116015285], [-0.36587140164735, 0.35235447501561434], [-0.010058861788995597, 0.01215348569436557], [-1.131487143898293, 1.1369278259969704], [-0.6276433012299921, 0.6260105619414517], [-0.8729365405213518, 0.8755274886630349], [-0.006454127825702427, 0.004092069181288502], [0.009247961632358715, 0.00812010702936265], [0.0011001218790078083, -0.015978831526996185], [-0.003041448878978889, 0.007818117589968303], [0.0011305335155254493, -0.00654385671833487], [-0.3669566130249963, 0.3710790770110853], [-0.7987479099429518, 0.788460220557496], [0.014919867149035468, -0.011691178421641307], [0.05042008569711224, -0.036835454810836554], [0.31863556350677597, -0.31023023860146137], [-0.600055262580454, 0.5961713983553395], [0.11870653587401264, -0.12858787553016796], [0.005057831031813756, 0.0006380931958122098], [0.002415591004677501, 0.002151674019432799], [0.16628028626485836, -0.1742071055267609], [-0.004125390617473662, -0.00824238624397933], [0.13391410979322746, -0.1483840154025411], [-0.5740545154498918, 0.5806446941781217], [0.0038925522150338606, 0.0028159434718741773], [0.0069619602296107095, -0.008703391246390834], [0.4635325980837318, -0.456048061198582], [-0.0023882358454882066, 0.007347349938467883], [-1.294615139893558, 1.2875785779561595], [0.4565910023190611, -0.4346211268676348], [-0.003921699979736904, 0.0016006950444716088], [-0.17045552054272864, 0.16331248848352836], [0.3121462072649049, -0.30210203216985687], [-0.127773285570525, 0.1270853082975941], [0.0059682921469984196, -0.007438652889892129], [-0.7194346637869243, 0.7069504779715444], [-0.5957687379032451, 0.6055616425869689], [-0.6727492644609366, 0.669078409345918], [-0.00529037119550679, 0.007465620539860243], [0.013350043942817554, -0.007988708485239492], [-0.004322598124768635, -0.010597999338196707], [0.12847460832544946, -0.14567470955504602], [-0.15635299013531762, 0.14405337937041396], [0.0014706638297898621, 0.010879529873692373], [0.2736773325274987, -0.275094222719935], [0.1374689205284452, -0.13443271690941624], [-0.21374621102322874, 0.22438098632882675], [-0.008478242516057062, -3.601077170785272e-05], [-0.25224914669218346, 0.247727579163946], [-0.11127511259660185, 0.11295810036887832], [-0.012550249393282371, -0.005940087652521602], [-0.5900880455034714, 0.5829910319167813], [-0.25650631673539254, 0.2535700505305295], [-0.3039813995643387, 0.31417131306207347], [-0.0008047534024498012, 0.0018525457223790068], [-0.004706045772481988, 0.001209509782872353], [-0.14364391205669433, 0.13352885643049445], [0.00958052879760539, -0.007287157215785677], [0.9666006330171787, -0.9738742453582885], [-0.6718755908428264, 0.669108699619761], [-0.38539811962561055, 0.385633818257831], [-0.17685748542248408, 0.1686500789872024], [0.42747283497087146, -0.4230877346259177], [0.023674326423131213, -0.02490222292128758], [0.21145930242741112, -0.2094644665699514], [-0.2727889789188219, 0.2765109345069125], [-0.3551538708997352, 0.35182941077334945], [0.011538187209375017, -0.0054564430004530535], [0.00398924820826309, 0.0032488312970205707], [-0.6017174571558594, 0.6174181832234305], [0.22036941013690328, -0.18950360654469622], [-0.0163789538008866, 0.0024733276088183998], [-0.5575870522832098, 0.5716876931386937], [0.022761750180073925, -0.003116938577697155], [-0.7107974184379895, 0.726880935824446], [0.001774767099429058, -0.0027441729427512165], [0.05375471093343756, -0.05160251056368792], [-0.0005797976405308693, 0.0039829257844089805], [0.0007241347600010592, -0.004278969635502627], [0.013116437919077541, -0.0026486047468808243], [-0.7736220188392007, 0.7824280878787274], [-0.01169742778283393, -0.0037220178803302716], [-0.6591435741823716, 0.6389760472404413], [-0.6916999963015875, 0.6929479805812546], [-0.44836659227345477, 0.44766407863715496], [-0.844443987797177, 0.8471519156349063], [-0.42337367578237567, 0.411903817502535], [0.002627568732242317, 0.00427086245260201]], [[-0.0067559140392660436, -0.0018084956924726571], [-0.0025183905071796877, -0.013148366255520086], [0.000999661079636509, -0.011083251219788605], [-0.005325049081359832, 0.0005009446879164247], [-0.7462241419005599, 0.7474432295084923], [0.7637069259684811, -0.7670303065544167], [0.06161491214733256, -0.059121520859778905], [-0.7167091931649416, 0.7092377037470646], [-0.8996739663353186, 0.9154530046596687], [0.011235463179184292, 0.006156788077097204], [-0.0014336597315716664, -0.004083691351457465], [1.5917681441543152, -1.5923022972598138], [0.2882037525325409, -0.28322077726329736], [-0.39274051329290277, 0.3805105042233959], [-0.00910117915558537, 0.010996378416320776], [-1.1583395420470648, 1.1632622284848901], [-0.6756657884689757, 0.6741884987824207], [-0.9404107135917285, 0.9427549831239015], [-0.005839644173163638, 0.0037024720606758607], [0.00836748306176704, 0.007347009073890154], [0.0009953816369942439, -0.014457521285679096], [-0.002751879061547891, 0.007073771400614879], [0.0010228978468962819, -0.005920830170586677], [-0.3955752423221025, 0.3993052153634746], [-0.8592786922763881, 0.8499704717084825], [0.010073450014147648, -0.007152157808126858], [0.03438435408276816, -0.02209308673542757], [0.38552996230025804, -0.3779248903319901], [-0.6459805984157534, 0.6424665085644135], [0.14415530695676082, -0.15309586548061324], [0.004576285799013112, 0.0005773417126975778], [0.0021856077716707173, 0.0019468177559313858], [0.20145547337435638, -0.20862759719411544], [-0.003732621034466742, -0.007457646347030561], [0.08466123874036066, -0.09775349570514438], [-0.6190088909988591, 0.6249716329602372], [0.003521950676392712, 0.0025478435400678695], [0.006299126944269723, -0.007874760052992622], [0.5536819513588593, -0.5469100011603928], [-0.0021608570384531994, 0.00664782452642214], [-1.3935499194970016, 1.3871832935133648], [0.5511137616695273, -0.5312355908880103], [-0.003548323345001941, 0.0014482963061617415], [-0.18295834327609994, 0.17649538396235392], [0.3736676861744757, -0.36457979542424085], [-0.1310995049435502, 0.1304770285096096], [0.005400063866284589, -0.006730434719879099], [-0.7740068219915092, 0.7627112287026452], [-0.6427248846785405, 0.6515854279338068], [-0.7241822806926955, 0.7208609198114346], [-0.004786686313011107, 0.006754834837796362], [0.012079014923084266, -0.007228120703025344], [-0.003911052838419106, -0.009588986576316662], [0.15812071474379918, -0.17368323126589896], [-0.15989451861999363, 0.1487659273873535], [0.0013306450842380396, 0.009843713194005866], [0.3317067933525513, -0.3329887844719905], [0.16521317458249365, -0.16246604139095808], [-0.2311794388804536, 0.24080170006327742], [-0.007671047249854004, -3.258226345276968e-05], [-0.2712926084001499, 0.2672015296079563], [-0.11999438055763229, 0.12151713467767644], [-0.011355367095360485, -0.005374544661168653], [-0.6348709043598944, 0.6284495821986978], [-0.26294136925219536, 0.2602846586481996], [-0.328274843597675, 0.33749459731019305], [-0.0007281345588996184, 0.0016761688217776182], [-0.004257993258899373, 0.0010943549534001122], [-0.14750953253566576, 0.13835750963746174], [0.0086683872212701, -0.006593362623625879], [1.180143250416209, -1.1867243577435949], [-0.7233000293828288, 0.7207965679322815], [-0.39528758281229687, 0.39550084108381545], [-0.18984165077039103, 0.18241565387957784], [0.5126636248589825, -0.5086960205025625], [0.028165998812747745, -0.029276989921748077], [0.2590804361736145, -0.2572755243550038], [-0.29412112123885176, 0.29748871742686234], [-0.3822358948358262, 0.37922794942007954], [0.010439661178970357, -0.004936946777983489], [0.00360944045172388, 0.002939517044841459], [-0.6167102017399941, 0.6309160953899158], [0.2610476350820092, -0.23312049837742635], [-0.014819548776980444, 0.0022378473976984153], [-0.601763520631954, 0.6145216697472663], [0.020594652817494948, -0.0028201815481361586], [-0.7668183588088971, 0.7813705990381304], [0.001605795334519187, -0.0024829061289232215], [0.034978713145369274, -0.033031419151804575], [-0.0005245963520673877, 0.0036037199722699542], [0.0006551914443010289, -0.003871578123940784], [0.009941554331433072, -0.00047034107993309675], [-0.8340750905543338, 0.8420427526682395], [-0.010583740799337861, -0.0033676525495396426], [-0.7081465504694099, 0.689899130465647], [-0.7450252774407653, 0.7461544438167301], [-0.4829370714592795, 0.482301442637915], [-0.9098229011263118, 0.9122730129688399], [-0.45490224559141706, 0.44452440789131004], [0.0023774035549343738, 0.003864242808517096]], [[-0.00611269796930317, -0.0016363127006382289], [-0.00227861995426189, -0.011896538535369455], [0.0009044854946303253, -0.01002803866815317], [-0.004818062591809446, 0.0004532508197651089], [-0.772950762744575, 0.7740537836388748], [0.8636422056965926, -0.8666491743526176], [0.0406361477026531, -0.03838014684599282], [-0.7418619207523802, 0.7351017757998423], [-0.9329133108569128, 0.9471900608217908], [0.01016575885371117, 0.005570613503600864], [-0.0012971640667591923, -0.0036948918660348845], [1.9124413284596493, -1.912924625994861], [0.3259882914978029, -0.32147973460492935], [-0.40590163254197026, 0.39483601637675086], [-0.008234675429448625, 0.009949436837777716], [-1.1427138500259122, 1.1471678580575602], [-0.6996487379623787, 0.6983120978549717], [-0.974198075153475, 0.9763191518169032], [-0.005283664189816791, 0.003349967645407432], [0.007570832965393793, 0.006647516114828977], [0.0009006134885335802, -0.013081051726011735], [-0.002489878564695174, 0.006400292813753887], [0.0009255099391712772, -0.005357120642740749], [-0.4099700277321354, 0.41334487804891445], [-0.8893365228854337, 0.8809145180119902], [0.0069806511966058445, -0.004337488949173751], [0.024086570960864893, -0.012965528786915948], [0.43554033134878684, -0.4286593219536632], [-0.6688779909551211, 0.6656984700533765], [0.1639435050532918, -0.17203285219648395], [0.0041405874538950485, 0.0005223742478499479], [0.0019775207484783587, 0.001761465417428251], [0.22854826622382735, -0.23503754753407252], [-0.003377246200136956, -0.006747619850744488], [0.0537736464769778, -0.06561941776670889], [-0.6416342059807639, 0.6470292480826846], [0.003186633314521941, 0.0023052688271278012], [0.005699400592847622, -0.007125021056352462], [0.6245612488106213, -0.6184340414504034], [-0.0019551264794278387, 0.006014899426896662], [-1.442868347786785, 1.4371078745931802], [0.6216795031519508, -0.603693890329849], [-0.0032104950979780045, 0.0013104071245089361], [-0.18907650732006956, 0.18322887248587688], [0.4213139272049954, -0.4130912750203553], [-0.12960037274484124, 0.12903716095564852], [0.00488593538012679, -0.006089644481208063], [-0.8010984983911901, 0.7908783342864355], [-0.6664191595505237, 0.6744361095070502], [-0.7498243609980996, 0.7468192197550039], [-0.004330956186709127, 0.00611172151628825], [0.01092899784727595, -0.006539946850487355], [-0.0035386898951483875, -0.008676039753030086], [0.18058192948552887, -0.19466277222405204], [-0.1581186431702557, 0.14804958121452436], [0.0012039572228140381, 0.008906514396376108], [0.37567237020705474, -0.3768323057045927], [0.18646287818709778, -0.183977293648321], [-0.24010810185491596, 0.2488142482106121], [-0.006940703311806116, -2.948017610725601e-05], [-0.2807355573367494, 0.27703398137234897], [-0.12438835115924002, 0.12576612712904095], [-0.010274246975475573, -0.004862845803737307], [-0.6571225954212259, 0.6513126335556884], [-0.25947410154849676, 0.25707033065684765], [-0.3406224785409734, 0.34896443929838217], [-0.000658810430934479, 0.0015165843871812275], [-0.0038525988631152594, 0.0009901637679914103], [-0.1464952823741145, 0.13821460392561458], [0.007843088685946013, -0.005965622724929735], [1.338638739496782, -1.3445932737259139], [-0.7489581545209275, 0.746693042259871], [-0.39006405949124945, 0.3902570139006264], [-0.19618612165797633, 0.1894671379866777], [0.5788345170852047, -0.5752446598206619], [0.03194330533651341, -0.03294852136745006], [0.29357063601856737, -0.29193756597885584], [-0.3048596492622015, 0.30790662384776357], [-0.3957190183192811, 0.3929974529281669], [0.00944572345326023, -0.0044669106754377874], [0.003265793376194325, 0.0026596519384794507], [-0.6088000233141146, 0.6216534043312966], [0.29186475907896364, -0.26659650509728633], [-0.013408611357180475, 0.0020247867518763765], [-0.6241328057397524, 0.6356762788709927], [0.01863388014180265, -0.0025516781181885778], [-0.7951292568372866, 0.8082960095196091], [0.0014529110085447928, -0.002246513967470229], [0.023026473899493898, -0.021264577585994874], [-0.00047465065975507123, 0.0032606175313066883], [0.00059281207365966, -0.0035029734834788493], [0.007964828540474929, 0.0006046508331215518], [-0.8644915007743871, 0.8717005788859045], [-0.009576085562327863, -0.0030470255810309287], [-0.7322775997861081, 0.7157674774616178], [-0.7717138634471383, 0.7727355243168957], [-0.500221960278645, 0.4996468483125952], [-0.9425768351899723, 0.944793677144642], [-0.47045044253800294, 0.46106065648292544], [0.002151056067024837, 0.003496336547686892]], [[-0.0055307211203034215, -0.0014805228817598949], [-0.0020616774408727576, -0.010763894644637905], [0.0008183713727197774, -0.00907329063789761], [-0.00435934519737151, 0.0004100977823963216], [-0.7926748924121003, 0.7936728970553655], [0.9376499707917058, -0.940370652418294], [0.025887879278018378, -0.02384666741903039], [-0.7603530456586804, 0.7542365195922742], [-0.9575636615840987, 0.970481152838626], [0.009197898780289529, 0.005040247352663646], [-0.0011736638611217992, -0.0033431091448226833], [2.1043211714709917, -2.1047584552855687], [0.35343764686683415, -0.34935833999534677], [-0.4155049436438255, 0.40549286103456067], [-0.007450669662595326, 0.009002172319025132], [-1.1198701434744662, 1.1239000949646816], [-0.7173096977576127, 0.7161003162849143], [-0.9991490454505231, 1.0010681789590188], [-0.004780617866932152, 0.0030310244186496473], [0.006850030214197896, 0.00601462037850909], [0.0008148680120098663, -0.011835632877683645], [-0.002252822572602947, 0.005790934677112825], [0.0008373941250378582, -0.004847080688692578], [-0.4206159571438991, 0.4236694952082051], [-0.9114339213804834, 0.9038137575080387], [0.0047943673672757835, -0.00240285492225181], [0.01678301193298462, -0.006720780306275261], [0.4722434090206953, -0.4660175257557716], [-0.6857413376448809, 0.6828645321013982], [0.17866004091304646, -0.1859792186834836], [0.0037463710127217825, 0.00047264011730906353], [0.0017892452439776428, 0.0015937600771014524], [0.24861673617246957, -0.2544881869423912], [-0.003055705840753531, -0.006105193452662192], [0.03235721212374804, -0.04307517296320182], [-0.6583781114402796, 0.6632595031674445], [0.0028832407987103813, 0.0020857891317712656], [0.005156772899663745, -0.006446663099807529], [0.6770833576648859, -0.6715395085616233], [-0.001768983085200381, 0.00544223376713485], [-1.4791954004486378, 1.4739833695394065], [0.673372662293345, -0.6570994210508797], [-0.0029048307529975547, 0.001185646075777542], [-0.19353513013162313, 0.1882442360544568], [0.4565264270574563, -0.44908663593234643], [-0.12721469657131448, 0.1267051069672911], [0.004420755963243756, -0.005509862505311393], [-0.8209937986973322, 0.8117466744731365], [-0.683977080077739, 0.6912307534422079], [-0.7687119953764787, 0.765992967178758], [-0.003918615147227952, 0.0055298376332834995], [0.009888471428037908, -0.005917292552861992], [-0.0032017788282008943, -0.007850012636587989], [0.19732993654109324, -0.2100701724756523], [-0.1553174395281381, 0.14620703134179083], [0.0010893310406629706, 0.008058544283996303], [0.4077739431503804, -0.4088234436797113], [0.20214877219312097, -0.19989983482144855], [-0.2467732322534297, 0.25465048510768623], [-0.006279893851968288, -2.6673431837374433e-05], [-0.2876649507798246, 0.2843157939152899], [-0.12764207612759784, 0.12888867700555587], [-0.009296057980917075, -0.004399864695846367], [-0.6734848686297479, 0.6682280607587793], [-0.2542613857748904, 0.25208647274866547], [-0.3498048753915336, 0.357352615976368], [-0.0005960865043461154, 0.0013721936439568317], [-0.003485801197325892, 0.000895892401635148], [-0.1444002013267191, 0.13690790849374262], [0.007096365052160332, -0.005397648594159511], [1.4545036645729967, -1.4598912803832351], [-0.7678635101909173, 0.765814054404782], [-0.38217768000851665, 0.3823522636428718], [-0.2008086441271384, 0.19472936046476216], [0.6279071068763441, -0.6246590322141268], [0.03482284494603295, -0.03573235651697722], [0.3187121290711642, -0.31723454012354685], [-0.31280942315378807, 0.3155663018312598], [-0.4056421541204946, 0.403179703126758], [0.008546416404317641, -0.004041625700994504], [0.0029548642008765938, 0.002406432187991961], [-0.5969700147157256, 0.6085996529239326], [0.3144554685732537, -0.29159295079935743], [-0.012132006259676588, 0.0018320111526776196], [-0.6407368522723857, 0.6511812961119499], [0.01685978842256111, -0.0023087383232989114], [-0.8161269882069123, 0.8280401626368655], [0.0013145824709863876, -0.002032628196148324], [0.014667752182713002, -0.013073602234230531], [-0.00042946018956872947, 0.0029501811370675804], [0.0005363717089614537, -0.0031694628993992158], [0.0065115481316514795, 0.001242049510431518], [-0.8869940104413359, 0.8935167277045654], [-0.008664367016883215, -0.002756924817771368], [-0.7499174512877156, 0.7349792222606296], [-0.7914049284937518, 0.7923293192257223], [-0.512971385212374, 0.5124510284217813], [-0.9667678050512727, 0.9687735862432497], [-0.4818261614475292, 0.47333035676181745], [0.001946258637445372, 0.003163457852013756]], [[-0.005004153037526475, -0.0013395654770385112], [-0.0018653895583831605, -0.009739087346827689], [0.0007404559914595209, -0.0082094421176501], [-0.003944301301139608, 0.0003710532530609386], [-0.7828801245179537, 0.7837831112819631], [1.1215816551487545, -1.1240433065192894], [0.029112557267838166, -0.027265684807230465], [-0.7505465172025456, 0.7450123324500448], [-0.9461852883280047, 0.9578729329755111], [0.008322186586352726, 0.004560376224200729], [-0.0010619218448941594, -0.0030248189011795935], [2.1558673550988754, -2.156263006060362], [0.4221506525596074, -0.4184597277366185], [-0.4099437958298707, 0.40088494210875397], [-0.0067413074014546, 0.008145094821218342], [-1.1794563518185062, 1.183102620280101], [-0.7080962678193261, 0.7070020289599638], [-0.9868663837503151, 0.988602800678065], [-0.004325465504351698, 0.0027424470917040956], [0.006197853545297893, 0.0054419812863451085], [0.0007372861782006867, -0.01070878768384899], [-0.00203833617253165, 0.005239592220300145], [0.0007576676283734094, -0.004385600543555554], [-0.4154576093322089, 0.41822042659370584], [-0.8998283198655306, 0.8929336554340227], [0.005171199327689634, -0.0030073776477072362], [0.017887948353707387, -0.008783720195421556], [0.5642759416135593, -0.5586428113266095], [-0.6770720347578488, 0.6744691236933321], [0.2146922096631775, -0.22131454423319796], [0.003389687072485105, 0.00042764106655214306], [0.001618895046011524, 0.001442021602144734], [0.29811447393282464, -0.30342691648161446], [-0.0027647786486032894, -0.0055239310925787825], [0.03783403899177104, -0.04753156579238106], [-0.6503930219867693, 0.6548096668884936], [0.0026087336329110094, 0.0018872056269617636], [0.004665807624064546, -0.005832890147793572], [0.8087195828451998, -0.8037035517117845], [-0.0016005620038662856, 0.004924090375260672], [-1.4606223247080858, 1.4559065200708994], [0.8028727459944733, -0.7881488451102031], [-0.00262826805400659, 0.001072763258619705], [-0.19084527678923358, 0.18605811737700312], [0.5447985667768466, -0.5380671021906804], [-0.134137001258093, 0.1336759285861219], [0.003999865279849046, -0.004985280326482014], [-0.8101297510639591, 0.8017630256825211], [-0.675754686254807, 0.6823177529527061], [-0.7590464724202088, 0.7565863170591299], [-0.0035455322127726833, 0.00500335366540877], [0.00894701129504698, -0.005353919834003964], [-0.002896944340551104, -0.007102629788328193], [0.23792368558717045, -0.24945095101313536], [-0.16365986015521697, 0.15541683437120962], [0.00098561817119906, 0.007291307585327918], [0.48785694928910883, -0.4888065291264389], [0.24148592452801615, -0.23945110365477654], [-0.24402504448360807, 0.25115232100696844], [-0.005681998641968568, -2.4133911663029195e-05], [-0.2838584377112934, 0.28082814688081037], [-0.12608883935634219, 0.12721675404130361], [-0.008411000260247492, -0.00398096302516464], [-0.6648991536084956, 0.660142835127958], [-0.2675741954497437, 0.26560635122296], [-0.34571751275935886, 0.3525466491689684], [-0.000539334388132827, 0.0012415500333714865], [-0.0031539255497400327, 0.000810596409658323], [-0.1526539137259645, 0.14587494600681114], [0.006420735372246834, -0.004883750060874872], [1.7418022830614577, -1.7466769555382273], [-0.7581424515993685, 0.7562881200982169], [-0.40220126949626966, 0.4023592313976487], [-0.19802270476748435, 0.1925222166496897], [0.7503170013356611, -0.7473781688880475], [0.041805082653998654, -0.0426280015810981], [0.3812667176676063, -0.37992980679114025], [-0.30904128763520844, 0.31153568981313007], [-0.4004419599652143, 0.39821395364342893], [0.007732730448590379, -0.003656831195832769], [0.0026735379247405672, 0.002177320946256787], [-0.6293848196070257, 0.6399072249315841], [0.3727890489376314, -0.35210322239256253], [-0.010976943992489739, 0.0016575893043674435], [-0.6331126069467111, 0.642562657713719], [0.015254604166731932, -0.002088928304661327], [-0.8065013179303198, 0.8172802646017372], [0.0011894238964818198, -0.0018391060298769066], [0.016394138596510646, -0.014951764241801977], [-0.0003885722070197515, 0.0026693007253817394], [0.00048530491020228376, -0.0028677051419446573], [0.006664878012559833, 0.00035051624587623034], [-0.8761691687850562, 0.8820708721426698], [-0.007839451236586963, -0.002494443925302427], [-0.7397614201294926, 0.7262454278139997], [-0.7815556882023138, 0.7823920696774649], [-0.5065581437016863, 0.5060873289638608], [-0.9548497025505589, 0.9566645176218876], [-0.47531617077171656, 0.46762923340867263], [0.0017609595314128014, 0.002862271822227248]], [[-0.004527718371309166, -0.0012120283241690742], [-0.0016877898237329934, -0.00881184975146418], [0.0006699587663558702, -0.007427838760234349], [-0.0035687728431215006, 0.0003357260695305332], [-0.7655174229074845, 0.7663344382405077], [1.1104334652304992, -1.1126607480594923], [0.002653746607530545, -0.0009827109084521112], [-0.7338349096147376, 0.7288276227099988], [-0.9256267772912029, 0.9362016663865226], [0.007529849070146984, 0.004126192595540887], [-0.0009608185461087373, -0.0027368323882284136], [2.130768838995653, -2.131126820878602], [0.4170789216780988, -0.4137394018826712], [-0.4005115827662057, 0.39231520305748774], [-0.006099481998115649, 0.007369617831734895], [-1.2974790244190293, 1.3007781394893487], [-0.6926475496567565, 0.6916574909297382], [-0.964927633487937, 0.9664987298882805], [-0.003913647220948655, 0.002481344592448697], [0.005607769216746396, 0.004923861932624815], [0.0006670907442114599, -0.009689227001454567], [-0.0018442705620844507, 0.004740741895005655], [0.0006855317202745285, -0.00396805693218668], [-0.4064198266987007, 0.4089196020608131], [-0.879552288028071, 0.8733140497934585], [0.0013140094856442656, 0.0006437993781582013], [0.005142496131248605, 0.0030949380118999196], [0.5576863449819863, -0.5525895329346855], [-0.6620116898972288, 0.6596565964064187], [0.21278222696266033, -0.21877406327717455], [0.0030669622443573793, 0.00038692627879970994], [0.001464763524632514, 0.001304729821588885], [0.29509505371862477, -0.2999017100187627], [-0.0025015500097639084, -0.0049980094737625365], [-0.0014147664270777495, -0.007359479668538915], [-0.6361796671541391, 0.6401758127778089], [0.0023603617049693, 0.001707528831263809], [0.004221586098196874, -0.0052775532007005455], [0.8000105166938367, -0.7954720511146449], [-0.0014481759320667971, 0.00445527830321405], [-1.427979479875884, 1.4237126568728347], [0.7936370224894127, -0.7803149525944445], [-0.0023780362957749935, 0.000970627772111222], [-0.18651851784011908, 0.18218713359695146], [0.5390348940717633, -0.532944317775626], [-0.14752324314545437, 0.14710606821260605], [0.0036190466947201966, -0.00451064249056139], [-0.7922211968967858, 0.7846510494746031], [-0.6610769013457541, 0.6670151125549965], [-0.7421041103910119, 0.7398781811396272], [-0.0032079697034554156, 0.004526995105694446], [0.008095185559896164, -0.004844184622083124], [-0.002621132489956142, -0.006426403656335254], [0.23598319678322552, -0.24641297601833378], [-0.1793429078835422, 0.17188468288571668], [0.000891779581353485, 0.006597117845395316], [0.48220638360137785, -0.4830655559812516], [0.23828517232888435, -0.2364440823819941], [-0.23889221457922477, 0.24534091840786904], [-0.0051410277511639195, -2.1836173751844766e-05], [-0.2775722440591287, 0.2748304607122369], [-0.12334767894935343, 0.1243682072989208], [-0.007610206984843289, -0.003601944083119001], [-0.6499628494617107, 0.6456593698513481], [-0.29409062752567333, 0.29231013752253593], [-0.33833774358714236, 0.3445166925821254], [-0.00048798551905095936, 0.001123344720443285], [-0.00285364706998607, 0.0007334212659374178], [-0.16745762976749412, 0.16132407300966695], [0.005809430943504156, -0.004418778703545678], [1.7225237733830376, -1.7269343387597706], [-0.7413054362468531, 0.7396276516664653], [-0.4423147211319258, 0.4424576438198366], [-0.19348918616010385, 0.18851238770583092], [0.742877270927728, -0.7402182384074447], [0.041740456203903674, -0.0424850267868545], [0.3768164282948656, -0.37560680183244827], [-0.3022618298920927, 0.3045187453944194], [-0.3915242925797347, 0.3895084099560636], [0.006996513785631648, -0.0033086721493099207], [0.0024189961193159474, 0.00197002289391933], [-0.6931904282609552, 0.7027110179673624], [0.36776275368650607, -0.34904638027197155], [-0.009931852723711726, 0.0014997737857313385], [-0.6194875140657793, 0.6280378457895941], [0.013802246057387113, -0.001890045925941122], [-0.7889542177917743, 0.7987069240942295], [0.0010761814011261395, -0.0016640086935420953], [0.001493930672535657, -0.00018888168319704688], [-0.00035157708149811376, 0.0024151623346103253], [0.00043910007170675045, -0.0025946770926691303], [0.004117937133897965, 0.002229536500041588], [-0.8570672102545186, 0.8624070251070821], [-0.0070930739165447395, -0.0022569532750291313], [-0.723197627937056, 0.7109684642295485], [-0.7643258359975812, 0.7650825873882898], [-0.4953429546554112, 0.4949169651778817], [-0.933694933667499, 0.9353369640925012], [-0.4646956552488792, 0.457740574687442], [0.0015933023554073398, 0.00258976106765606]], [[-0.004096644026703005, -0.0010966337097875673], [-0.0015270989784920445, -0.007972892456670677], [0.0006061734306887796, -0.006720650180286862], [-0.0032289976432889993, 0.0003037623112925778], [-0.7581725608674426, 0.7589117899248332], [1.1562550240466458, -1.158270252059721], [-0.0071271997977169245, 0.008639139775789772], [-0.7265642397051708, 0.722033685835417], [-0.9171833482049551, 0.9267514248149987], [0.006812948307620456, 0.0037333466579241247], [-0.0008693410753203967, -0.0024762644528355257], [2.173457214184371, -2.1737811133808695], [0.43427542126032415, -0.4312538499742908], [-0.3962780961023906, 0.3888620761071806], [-0.005518763413356472, 0.00666797234138289], [-1.2836268297654934, 1.2866118431735434], [-0.6859165760733305, 0.6850207787119428], [-0.9557106410311687, 0.957132156716558], [-0.0035410372720877325, 0.0022451011015306474], [0.005073865550138136, 0.004455071610111067], [0.0006035784667747689, -0.008766736502518212], [-0.001668681521726998, 0.0042893860380940774], [0.0006202637171017451, -0.0035902667515426245], [-0.40261802613388536, 0.4048798032510731], [-0.8708004403851628, 0.865156131418661], [-0.00019283426814749782, 0.0019642443536655855], [0.00013048881669651651, 0.00732267690839062], [0.5800881860851173, -0.5754766305694052], [-0.6555490675930048, 0.6534181974968017], [0.2219108938642825, -0.22733226030844567], [0.0027749633541887925, 0.000350087858569907], [0.0013253065344660958, 0.0011805092966786937], [0.3074929969593391, -0.31184202183357873], [-0.0022633828044466057, -0.0045221597230602605], [-0.015751095357346537, 0.007812226393189484], [-0.6302603501845208, 0.6338760313635402], [0.002135636735004149, 0.0015449586774977434], [0.003819657950012935, -0.0047750886919686744], [0.8324517577507805, -0.8283453897347816], [-0.0013102982109731154, 0.004031100821954165], [-1.4140223195299964, 1.4101617315837134], [0.8252348040084723, -0.8131810997842052], [-0.0021516285659685893, 0.0008782163859767087], [-0.18453891349085597, 0.18061991104150588], [0.5607859930419982, -0.5552752874378564], [-0.1458236298188093, 0.14544617321559553], [0.003274485029420657, -0.004081193903897366], [-0.7843287234107319, 0.7774793134706481], [-0.6550119042356547, 0.6603847511056802], [-0.7348550661475656, 0.7328410628408825], [-0.002902545795865153, 0.0040959896216545295], [0.007324460324022337, -0.004382980205229803], [-0.00237158009345692, -0.005814559562434961], [0.24640294430743404, -0.25583972665548965], [-0.17680423675656812, 0.17005609334712862], [0.0008068751621649844, 0.0059690204200973955], [0.5018948644527917, -0.5026722368751185], [0.24805291419091527, -0.24638711046483883], [-0.2368795901852125, 0.24271432676843213], [-0.0046515615373467645, -1.975719853367964e-05], [-0.27478826053045446, 0.27230751648909973], [-0.1222059699500422, 0.12312933598663767], [-0.006885655517796106, -0.0032590107207487594], [-0.6435136599450026, 0.6396199053882825], [-0.2908095867234697, 0.2891986133506163], [-0.33534941071352836, 0.34094007524160524], [-0.0004415254655425153, 0.001016393481558729], [-0.00258195745955744, 0.0006635938019463704], [-0.16493808010383548, 0.15938848611547723], [0.005256327496881946, -0.003998076270801425], [1.7931578703213642, -1.797148515238565], [-0.7340887626254542, 0.732570716312571], [-0.43756137534619755, 0.43769069067186384], [-0.19142856991141335, 0.18692560175221964], [0.7731648618222919, -0.7707589900790199], [0.03559959730953807, -0.036273278925963826], [0.392121790162555, -0.39102732963841885], [-0.2994497970703667, 0.30149183649357075], [-0.3876756940637272, 0.3858517392963264], [0.006330390730412329, -0.002993660578069455], [0.002188688692655605, 0.001782461244052434], [-0.6861392141964546, 0.6947533689987033], [0.3814829828166079, -0.364548555128689], [-0.008986262350704266, 0.0013569835437767124], [-0.6138995694747403, 0.6216358424736653], [0.012488163845255012, -0.0017100987114757854], [-0.781757832312551, 0.7905820043881188], [0.0009737204806087587, -0.00150558199864583], [-0.0039811571921451435, 0.00516195526929741], [-0.00031810418244464987, 0.0021852199143602346], [0.00039729429667733447, -0.0023476434577428575], [0.0034635883849549066, 0.002279555913044915], [-0.8490709434852314, 0.8539023660308721], [-0.006417757578586759, -0.0020420735996489257], [-0.7157173189480271, 0.704652467659707], [-0.7569940110620078, 0.7576787137776387], [-0.4905765529505014, 0.4901911210164798], [-0.9247996823411094, 0.9262853785749728], [-0.45991586116648187, 0.45362295889195037], [0.0014416074591503379, 0.0023431954769160186]], [[-0.0037066113448811647, -0.0009922255688759648], [-0.0013817071636049692, -0.007213810484577759], [0.0005484609598761839, -0.0060807915066218845], [-0.0029215717106965606, 0.00027484175384663443], [-0.7310308933386993, 0.7316997419847452], [0.9122676149668244, -0.9140909774476988], [-0.01600923834119777, 0.017377229760265355], [-0.7002922219978336, 0.6961930124344047], [-0.8843982778513014, 0.8930553984310509], [0.006164302127426625, 0.0033779027385429593], [-0.0007865729781132826, -0.00224050463110241], [2.184247648749195, -2.1845407101986436], [0.3719634665794283, -0.36922957260788114], [-0.38210028364918847, 0.37539032699468416], [-0.004993333798183386, 0.006033129011654649], [-1.343308848717914, 1.346009665408547], [-0.6613413798178309, 0.6605308693998416], [-0.9213193123439724, 0.9226054885731113], [-0.0032039027164219307, 0.0020313498461412673], [0.004590793705275764, 0.00403091380765772], [0.0005461130569047439, -0.007932074343293584], [-0.001509809936892341, 0.003881002803206705], [0.000561209740373218, -0.0032484451628392134], [-0.38820273823213036, 0.39024917640628365], [-0.8394689545477976, 0.8343620281190238], [-0.0014332458515565142, 0.0030360037862513056], [-0.004284040495737507, 0.011027606314933398], [0.5014744457008814, -0.49730194648428583], [-0.6318911836187364, 0.6299631890891727], [0.1752266411496031, -0.1801318509349077], [0.0025107650513983386, 0.00031675674523390677], [0.0011991269449034081, 0.0010681155412296099], [0.29717387239035414, -0.3011088359441689], [-0.0020478909873754914, -0.0040916146054188335], [-0.028565702951189233, 0.021382676655455186], [-0.6075981009282533, 0.6108695408654964], [0.0019323073469193154, 0.00139786647901514], [0.0034559965178321507, -0.004320462750264732], [0.7197393818757678, -0.7160239723417334], [-0.0011855475316656153, 0.003647308367927747], [-1.3632640731363983, 1.3597710434793597], [0.7136709586466331, -0.7027648617208851], [-0.0019467766299939133, 0.0007946032894983081], [-0.17778534625172768, 0.17423946361103648], [0.44281542861071743, -0.4378293854550348], [-0.15260508610294093, 0.15226356633247679], [0.0029627283404612104, -0.0036926321950946817], [-0.7556006294924452, 0.749403337166295], [-0.6314534608118204, 0.6363147704674643], [-0.7085720558243455, 0.7067498014481979], [-0.0026262006427367015, 0.0037060192443322698], [0.006627114183021346, -0.003965686070646762], [-0.0021457870448110157, -0.00526096783101607], [0.1938597438473051, -0.20239807040984717], [-0.18475056446819424, 0.1786448973037364], [0.0007300543104279783, 0.005400722802065494], [0.552384681692804, -0.5530880421559082], [0.2125821689195996, -0.21107496278961269], [-0.22849476174227135, 0.23377398558324558], [-0.0042086963508075215, -1.787615808223982e-05], [-0.2648210686034943, 0.26257651087587763], [-0.1178172522893732, 0.11865270662819621], [-0.006230087040232094, -0.002948727307492868], [-0.620433505600994, 0.616910467055285], [-0.3041290213710932, 0.30267142531412655], [-0.32340019857680247, 0.3284585879389541], [-0.00039948877397359223, 0.000919624840491901], [-0.0023361348335892334, 0.0006004144608744063], [-0.17249236006223057, 0.16747113100189462], [0.004755883841836645, -0.003617428013382792], [1.5498154094481655, -1.5534261136311678], [-0.7075997133872362, 0.7062261970043845], [-0.45768313580376374, 0.4578001392949278], [-0.1843379480015784, 0.1802636977724368], [0.6101219076826973, -0.6079450938224219], [0.03853277746913631, -0.03914231930533322], [0.3379040187388514, -0.33691375945128704], [-0.2887308052641135, 0.290578426498325], [-0.37361463445732174, 0.37196433450708694], [0.00572768782103849, -0.0027086405821611296], [0.0019803083415913625, 0.0016127569361531731], [-0.7185263504184651, 0.7263203700375614], [0.4178385688365462, -0.40251643164865253], [-0.008130699606820809, 0.0012277880541717006], [-0.5919471780591871, 0.5989468971165419], [0.011299192579056075, -0.0015472838849325621], [-0.754039225179729, 0.7620232667784834], [0.0008810146443385913, -0.00136223876921051], [-0.009029450175188318, 0.010097827002722656], [-0.00028781816623994576, 0.001977169818229633], [0.0003594687597267162, -0.002124129364788611], [0.002860753173565304, 0.0023355986870058115], [-0.8186035719102727, 0.8229750050889567], [-0.005806736659184794, -0.001847652156790572], [-0.689751464599058, 0.6797400740444051], [-0.7298691953748164, 0.7304887090150267], [-0.47284766914920257, 0.47249893336205256], [-0.8914390901614272, 0.8927833364468226], [-0.44323870013565286, 0.43754493157510327], [0.0013043551082597726, 0.002120104866665977]], [[-0.0033537128372510628, -0.0008977579028844057], [-0.0012501577912405334, -0.006526999077212498], [0.0004962431694944179, -0.005501852403427222], [-0.0026434151410678133, 0.00024867466057939365], [-0.7326282079648898, 0.7332333769674396], [0.8264347111385495, -0.8280844751925865], [-0.024933916315590176, 0.02617166420888148], [-0.7015891860059889, 0.6978802533836244], [-0.8866824584445958, 0.8945153531617694], [0.00557741215733194, 0.00305629987154756], [-0.000711685053728741, -0.0020271909957933574], [2.2673635675521324, -2.267628727250213], [0.4220332267668551, -0.4195596209703575], [-0.38268605011034146, 0.37661493402187246], [-0.004517929208513797, 0.005458727752269023], [-1.4090800264678358, 1.4115237042003146], [-0.6627256985323188, 0.6619923550709682], [-0.9233151585366101, 0.9244788806885398], [-0.002898866017934845, 0.0018379493888292617], [0.004153714093552562, 0.003647139158860924], [0.0004941188053236739, -0.007176878576134165], [-0.0013660641745344352, 0.003511500859267717], [0.0005077781659734108, -0.002939167673666433], [-0.3891288103210718, 0.3909804115105995], [-0.8410218307355255, 0.8364011238068836], [-0.0028007819977414108, 0.004250944790777444], [-0.008763484533091944, 0.014865009929844818], [0.5678567418380118, -0.5640814973129976], [-0.633134021287567, 0.6313895869775392], [0.18749390085744516, -0.19193209615113396], [0.002271720501752766, 0.00028659901563293685], [0.001084960643141057, 0.0009664225539146592], [0.26915285366896247, -0.27271317779163295], [-0.0018529156835222832, -0.003702060763998716], [-0.041602115338341204, 0.03510296955344981], [-0.6090535660376941, 0.6120135392026655], [0.001748336513302722, 0.0012647786129263902], [0.0031269585097868507, -0.0039091207683368285], [0.8152694432417897, -0.811907769872085], [-0.0010726740966810909, 0.003300055969403146], [-1.3660065456965216, 1.3628460798931963], [0.8077204325981403, -0.7978526817440628], [-0.001761428207002983, 0.0007189508164087901], [-0.17800046855816948, 0.17479218179028527], [0.4011462528050772, -0.39663492011264534], [-0.16005439044399752, 0.15974538603759741], [0.0026806533364805356, -0.003341064612300926], [-0.7569900769300008, 0.7513828154999322], [-0.6330498754011228, 0.6374483502022373], [-0.7101490820445817, 0.7085003205950002], [-0.0023761657182931415, 0.003353177109324121], [0.005996160870823599, -0.003588121614639412], [-0.0019414912675233369, -0.004760082379721186], [0.17562201286747042, -0.18334742369075102], [-0.19340789236578682, 0.1878835326624954], [0.0006605474070417488, 0.004886531580046807], [0.6310743205953383, -0.6317107156189451], [0.24130805131247088, -0.23994434304197707], [-0.2292403258270418, 0.2340169261012107], [-0.003807995407796771, -1.6174207453373864e-05], [-0.26529075520666495, 0.26325989700097413], [-0.11810964683795937, 0.11886555936299854], [-0.005636933829836888, -0.0026679853117992976], [-0.6217204572809013, 0.6185328396707646], [-0.3188783253669617, 0.31755950390095455], [-0.3243367482681227, 0.32891353924004063], [-0.0003614543055513899, 0.0008320693339677693], [-0.00211371645203033, 0.0005432502892126742], [-0.18066954691385329, 0.17612637829120217], [0.004303086352678777, -0.003273020459257895], [1.756886204911695, -1.7601531417020257], [-0.709023712567826, 0.7077809657306902], [-0.4800250045048278, 0.48013086834481805], [-0.18454783207196426, 0.1808614824592608], [0.552718033536976, -0.5507484694504702], [0.044791779493980936, -0.04534328816070915], [0.3060910501385418, -0.30519507131154755], [-0.2894288893981373, 0.2911006025816921], [-0.3743326144515968, 0.3728394360162423], [0.0051823669615944585, -0.002450756728092897], [0.0017917674363356368, 0.0014592098110345552], [-0.7541587628424158, 0.7612107305882247], [0.47550267279880903, -0.4616393233942038], [-0.00735659315479199, 0.0011108929897345752], [-0.5935523768195441, 0.5998856676546422], [0.01022342071425543, -0.0013999703084425746], [-0.7560351963992749, 0.7632590945400575], [0.0007971351316897343, -0.001232542940875513], [-0.01405127095947759, 0.01501792992318892], [-0.000260415616610571, 0.0017889277250444115], [0.00032524451093343746, -0.0019218955687143665], [0.0016963948791857534, 0.003005223477898706], [-0.8205667953595182, 0.8245220337712238], [-0.0052538897295877, -0.0016717411620618176], [-0.6907616886050574, 0.6817034610495195], [-0.7314456414635123, 0.7320061725402042], [-0.4738372715506785, 0.47352173814904763], [-0.8933813438937634, 0.8945976073765766], [-0.4439194441564792, 0.43876776707541076], [0.0011801702590010935, 0.001918254234416933]], [[-0.0030344130388191967, -0.0008122843005390826], [-0.0011311329521674547, -0.0059055775092803], [0.0004489969228173665, -0.004978032849199637], [-0.0023917412611996346, 0.0002249988800784023], [-0.7412010270978924, 0.7417485792590759], [0.7479374111616455, -0.749430104722328], [-0.03136932912174297, 0.032489233695699456], [-0.7095700393490241, 0.7062142262381337], [-0.8974444585257871, 0.904531600155054], [0.00504639872117047, 0.0027653161230008698], [-0.0006439270478319631, -0.00183418649369345], [2.3561337091409054, -2.3563736235534605], [0.46724574918419204, -0.46500765008446615], [-0.3868468086777365, 0.381353710516674], [-0.004087786869078939, 0.00493901400348468], [-1.3624265938284132, 1.3646376142508359], [-0.6703793430555753, 0.6697158196506078], [-0.9341471476938601, 0.9352000743583483], [-0.0026228712085622366, 0.0016629621738051576], [0.003758247893201899, 0.003299902870368261], [0.000447074814798068, -0.00649358337647481], [-0.001236004137572128, 0.003177178402048473], [0.0004594336970485436, -0.0026593358301838553], [-0.3937613519014834, 0.39543666611735484], [-0.8505792537722761, 0.8463984744291266], [-0.0037954629375226683, 0.005107558844698156], [-0.012053126850991022, 0.017573739115387888], [0.6276679373445344, -0.6242521257448673], [-0.6404209190418785, 0.6388425685770102], [0.2154904800296079, -0.2195061242786946], [0.00205543487042312, 0.00025931253871520037], [0.0009816638698414673, 0.0008744115375755584], [0.24358018296564657, -0.24680153627301799], [-0.0016765035597147925, -0.003349595507403818], [-0.05093212226315879, 0.04505174619404184], [-0.6163378512863789, 0.6190160117617124], [0.0015818811477484652, 0.0011443617568131675], [0.002829247504005529, -0.003536941773310268], [0.9011502593239454, -0.898108643657875], [-0.0009705470990893426, 0.002985864726151683], [-1.3817538953025004, 1.3788943306624284], [0.8922701565984751, -0.8833418931160311], [-0.0015937264094008795, 0.0006505010528476634], [-0.17990539848627843, 0.17700256581300788], [0.3630453968985426, -0.35896357850541266], [-0.1548633010754481, 0.15458371631511367], [0.0024254340879817523, -0.003022969024209385], [-0.765581941726381, 0.7605085356176411], [-0.6407099023523144, 0.6446896078116408], [-0.7184199672212717, 0.7169281808092268], [-0.00214993608215244, 0.00303392831639791], [0.005425279268751692, -0.0032465042598147026], [-0.0017566460525449555, -0.004306885156786065], [0.1589405725946524, -0.16593046364078404], [-0.18724698931625716, 0.18224859203888766], [0.0005976581066876972, 0.004421295400249497], [0.6561136762031086, -0.6566894814229303], [0.26719669103421245, -0.26596281850011566], [-0.23217810895312624, 0.2364999393710954], [-0.0034454443412195836, -1.4634295889600686e-05], [-0.26828038990892494, 0.26644288535251437], [-0.11953055085823548, 0.12021449457479585], [-0.005100253463036023, -0.0024139721587307247], [-0.6288685196679797, 0.6259843882863266], [-0.30828920301197815, 0.30709594370608984], [-0.32837097883375194, 0.3325120233641242], [-0.0003270410172033367, 0.0007528497992281719], [-0.0019124740470220928, 0.0004915285955968786], [-0.17517723422375053, 0.1710666109309624], [0.003893398740255929, -0.0029614032088790486], [1.9434549262857892, -1.9464108250387993], [-0.7172148392378495, 0.7160904116587582], [-0.46403580198058436, 0.464131586751671], [-0.1865175526771354, 0.18318217249604557], [0.5002209706030372, -0.4984389244843297], [0.04698441287876636, -0.047483413589487176], [0.27701523542174666, -0.2762045608151022], [-0.29289278130220203, 0.2944053342629089], [-0.37862797274889154, 0.3772769566263433], [0.004688964930312196, -0.0022174254420645394], [0.0016211771058505463, 0.0013202815780153443], [-0.7293381240678046, 0.7357186891059118], [0.4934105013213043, -0.4808670516473238], [-0.006656187715966259, 0.0010051272533955137], [-0.6008277503168397, 0.6065580621298241], [0.009250070778897938, -0.0012666821412711986], [-0.7652251618605592, 0.771761288169888], [0.0007212416073413234, -0.0011151951738846008], [-0.01767198224420893, 0.01854660768351203], [-0.00023562200489501904, 0.0016186077573741773], [0.00029427867938441323, -0.0017389160181453935], [0.0008115409801347221, 0.0034424463880809546], [-0.8303631535104281, 0.8339418221653015], [-0.00475367816913232, -0.001512578275440278], [-0.6983142277138779, 0.6901184145548578], [-0.7399832300341239, 0.7404903941505278], [-0.4793603357765813, 0.4790748436326338], [-0.9038819028302056, 0.9049823684782748], [-0.4488051890113221, 0.4441439920439055], [0.0010678087826013422, 0.001735621367468061]], [[-0.0027455130886230553, -0.0007349484563515134], [-0.00102344021246266, -0.00534332015456815], [0.00040624888984337314, -0.004504085030029912], [-0.0021640287110612664, 0.0002035772198043175], [-0.738719046236601, 0.7392144671321749], [0.6767239764280285, -0.6780745538397807], [-0.03544761829128277, 0.03646089915531531], [-0.7070138270578298, 0.7039775137079145], [-0.8947437237791382, 0.9011561138707818], [0.0045659419341197065, 0.0025020363123781156], [-0.0005826201361924737, -0.001659557535835863], [2.3577043268836104, -2.3579213995600687], [0.5443896501045424, -0.5423646356146479], [-0.3852914081157042, 0.3803212960362504], [-0.0036985974582171587, 0.004468781084837582], [-1.429196280480363, 1.431196794395678], [-0.6680490048932651, 0.667448654127025], [-0.9310474757533233, 0.9320001555308393], [-0.0023731532723977543, 0.0015046351158060495], [0.00340043318067572, 0.00298572620334719], [0.0004045097816016078, -0.00587534324566253], [-0.001118326837475314, 0.002874686068152742], [0.0004156920012089411, -0.0024061461756884686], [-0.39250365063155934, 0.39401946177802744], [-0.847510096568559, 0.8437273602500621], [-0.004440001895594645, 0.005627175968667067], [-0.014210919967305037, 0.01920592659139095], [0.7314328520232999, -0.7283422525119012], [-0.6381836518705121, 0.6367555727645058], [0.2544790119086378, -0.2581123352908136], [0.0018597413296625245, 0.00023462394867763292], [0.0008882017605378132, 0.000791160692543989], [0.22038919468971271, -0.22330384986530144], [-0.0015168872554381235, -0.003030687711106335], [-0.05673932453107962, 0.05141880644166719], [-0.6143964327317405, 0.6168196112985328], [0.0014312736401500329, 0.0010354095310218013], [0.002559880923865264, -0.0032001971412895657], [1.0504773029481322, -1.0477252729789337], [-0.0008781433936600277, 0.002701586956565867], [-1.376943675172371, 1.3743563635418699], [1.0392903555275363, -1.0312121328412585], [-0.001441991139873644, 0.0005885682443057653], [-0.17916175782569668, 0.17653529761853645], [0.3284805854308482, -0.3247873882028002], [-0.16247694335424895, 0.16222397725864565], [0.002194513716147791, -0.0027351586340726426], [-0.7627953243360607, 0.7582049463297544], [-0.6387576663418075, 0.6423584725892308], [-0.7159611876671458, 0.7146114310363564], [-0.0019452452839279443, 0.0027450745155827455], [0.004908750078265338, -0.002937411559851548], [-0.0015893995536009722, -0.0038968358683806295], [0.14380740177759524, -0.15013180030531575], [-0.19626829394443643, 0.191745783339718], [0.0005407563615898759, 0.004000353358215705], [0.7494032015595405, -0.7499241856007022], [0.3113647947611596, -0.31024839658176906], [-0.23159876587722372, 0.23550912410055932], [-0.0031174109832528456, -1.3240995999449129e-05], [-0.26728844601069546, 0.26562588631776934], [-0.11915988612922734, 0.11977871303303901], [-0.00461466928164449, -0.0021841430525706856], [-0.6266440296360523, 0.6240344902106885], [-0.3232739214857945, 0.32219426983635613], [-0.32745562766009606, 0.33120241223202523], [-0.0002959041441496583, 0.0006811725862977826], [-0.0017303914993043639, 0.00044473121337788586], [-0.18377546265436875, 0.1800562029793114], [0.0035227166057659725, -0.002679454367831101], [2.2668738413446543, -2.2695483153240423], [-0.7147320626345014, 0.7137146893909412], [-0.48665645741295854, 0.4867431227216507], [-0.18574304657990756, 0.18272522078441875], [0.45259271987297583, -0.45098033853897473], [0.05405245569786046, -0.054503947622324855], [0.25064177366225715, -0.2499082816443007], [-0.2919735133364514, 0.2933420593773925], [-0.377292252144865, 0.3760698633665592], [0.004242538647038055, -0.0020063091267901395], [0.0014668283144541041, 0.0011945804037671798], [-0.765441422289221, 0.7712145074298475], [0.5620976703644294, -0.5507484556016959], [-0.006022466375121001, 0.000909431245722232], [-0.5990693250325791, 0.6042540661614805], [0.00836939140099285, -0.0011460840543113594], [-0.76293105383372, 0.7688448895909434], [0.0006525737424940983, -0.0010090198358298946], [-0.019968086923777443, 0.02075944115292476], [-0.0002131889397162011, 0.0014645035881294868], [0.00026626103817001, -0.0015733575577081917], [0.00016675546729825634, 0.0036822188973842027], [-0.8277317952453594, 0.8309697465414113], [-0.004301090677336797, -0.0013685689455131616], [-0.695555600233985, 0.688140092848492], [-0.7374904109906191, 0.7379492891004389], [-0.47773843238387365, 0.47748012133396733], [-0.9008957294385455, 0.9018914221150864], [-0.4470567865061526, 0.44283937209388385], [0.000966145001116744, 0.0015703765836478588]], [[-0.0024841186823840447, -0.0006649755918401917], [-0.0009260006672766012, -0.004834594115367674], [0.0003675708053039464, -0.0040752607651034795], [-0.0019579961838968357, 0.00018419506981018802], [-0.7322650128981717, 0.7327132658340034], [0.6203453129910099, -0.6215673048272323], [-0.024474655766184596, 0.025391464334781844], [-0.7006503401432876, 0.6979031076681077], [-0.8869896191057733, 0.8927914993049219], [0.004131228406168688, 0.002263822807233064], [-0.0005271501239772702, -0.0015015546261076668], [2.407786883405212, -2.4079832890582247], [0.4379205037367874, -0.43608828652853926], [-0.3818646025597197, 0.3773676841799548], [-0.003346461935529608, 0.0040433180327313295], [-1.9145493891912604, 1.9163594384720293], [-0.6624065058547122, 0.6618633131959046], [-0.9227312032212657, 0.9235931804026767], [-0.0021472104447626886, 0.00136138203705284], [0.0030766852386602834, 0.0027014616222201674], [0.00036599727382381644, -0.005315964430273031], [-0.0010118533404541732, 0.002600993379881785], [0.000376114858311832, -0.0021770621645706106], [-0.3891154089968583, 0.3904869030186901], [-0.8399399835834169, 0.8365173934678389], [-0.0022243681576049903, 0.0032985139361779168], [-0.008898838652128102, 0.013418281420381994], [0.5849968516653965, -0.5822005014976095], [-0.6324568246562321, 0.6311647098956612], [0.2048366358800615, -0.20812403834417884], [0.0016826793507414596, 0.00021228590628833208], [0.0008036379779871846, 0.0007158359817188447], [0.20139423801899828, -0.20403139513341526], [-0.001372467676777281, -0.0027421424413630333], [-0.039283723028281314, 0.03446976004240459], [-0.6088900354949739, 0.6110825084332611], [0.001295005149978602, 0.0009368304127152146], [0.002316160157459477, -0.002895513242654538], [0.8405682485247514, -0.8380782334199993], [-0.0007945372466233753, 0.002444374663045623], [-1.364800828003238, 1.3624598487578243], [0.8316389934305859, -0.8243298809814057], [-0.00130470225956522, 0.0005325319254883592], [-0.17749187578531764, 0.17511547521517232], [0.30109169477539915, -0.2977501189257195], [-0.21774437158659782, 0.21751548984980978], [0.0019855787771038457, -0.002474750053219185], [-0.7555095491901674, 0.7513562112177774], [-0.633027037315221, 0.636285018531168], [-0.7095045068395283, 0.7082832576394754], [-0.001760042657107981, 0.002483721864941238], [0.004441398522958282, -0.0026577469121947107], [-0.0014380762347241938, -0.0035258264923018244], [0.1318570025617085, -0.1375792686848076], [-0.26255107446228687, 0.2584591423818992], [0.000489272109468301, 0.003619488304193525], [0.5962986129931845, -0.5967699952623994], [0.25061776246854356, -0.24960765416277908], [-0.22965187994303818, 0.2331899413559136], [-0.0028206089769732003, -1.1980349200265604e-05], [-0.2648694450724321, 0.26336517411816474], [-0.11811601029409032, 0.11867592001708188], [-0.004175316527558793, -0.0019761954821389195], [-0.6209291697570678, 0.6185680789774156], [-0.43274995060421684, 0.4317730902701868], [-0.3246806298354472, 0.32807069109305537], [-0.00026773174592501376, 0.0006163196069113694], [-0.001565644640002905, 0.00040238930944066207], [-0.24632472445219433, 0.24295956750512615], [0.0031873263214041124, -0.0024243492705631068], [1.8109957919276607, -1.8134156349818693], [-0.7083545127803635, 0.7074340014589058], [-0.6516435483241081, 0.6517219624148402], [-0.18388582862047356, 0.18115532353935807], [0.41430734439578304, -0.4128484744266264], [0.04356516214253697, -0.04397366849027762], [0.22958220379316138, -0.2289185459753438], [-0.28942646328365845, 0.29066471299446556], [-0.3738490900126062, 0.3727430822452754], [0.0038386156516664474, -0.0018152927426022807], [0.001327174740082111, 0.001080846968424469], [-1.0263604795726915, 1.0315839216725493], [0.44801738750125286, -0.43774870710802455], [-0.005449080282465849, 0.0008228462494693131], [-0.5939112504767807, 0.5986023635350284], [0.00757255961573933, -0.0010369678522731591], [-0.7565611073646038, 0.7619118995170597], [0.000590443597621264, -0.0009129532237408525], [-0.014086303747294703, 0.014802314839412412], [-0.00019289167850671682, 0.00132507134595941], [0.0002409108964185683, -0.001423561562816376], [0.0022420501226335676, 0.001240471656973099], [-0.8204385848214475, 0.8233682577268523], [-0.0038915930688783137, -0.0012382704346839985], [-0.6893086253707436, 0.6825991325214857], [-0.7311300928174982, 0.7315452821277448], [-0.47338357873408765, 0.4731498609246199], [-0.8927384589405248, 0.8936393538551975], [-0.443112169838815, 0.43929628639747015], [0.0008741604099835956, 0.001420864400895837]], [[-0.002247611076319538, -0.0006016646935192965], [-0.0008378381319739237, -0.004374302790066824], [0.00033257517814727286, -0.0036872639377062344], [-0.0017715795712684658, 0.00016665825270131956], [-0.7071938838950578, 0.7075994596313194], [0.5819205782117236, -0.5830262268289748], [-0.024411803898997345, 0.0252413250922707], [-0.6765841284079178, 0.6740984540380797], [-0.8567595595426766, 0.8620090551853599], [0.003737903019834512, 0.0020482890984413883], [-0.0004769612925246526, -0.0013585948341644787], [2.351245197656604, -2.351422903949101], [0.40502635997014247, -0.40336858422831307], [-0.3687023582681786, 0.36463358183195604], [-0.0030278524798821316, 0.003658362404298558], [-1.6981251374623905, 1.699762855837522], [-0.6397889387766861, 0.6392974623246275], [-0.8911379436687428, 0.891917853853474], [-0.0019427791486218155, 0.001231767776347074], [0.002783760643080494, 0.0024442612615138692], [0.00033115145922081536, -0.0048098428708468425], [-0.0009155169564737095, 0.002353358384811783], [0.0003403057702133309, -0.0019697887502818606], [-0.37583082077913965, 0.377071737799907], [-0.8110678483314104, 0.8079711156720466], [-0.0023171845624349054, 0.003289063227743028], [-0.00907865882446932, 0.013167815150515272], [0.541295358927007, -0.5387652432546132], [-0.6107315244534796, 0.6095624291649453], [0.18986987558219678, -0.19284429151613222], [0.0015224750626612671, 0.0001920746209525996], [0.000727125331605144, 0.0006476827748806435], [0.18779001340878015, -0.19017609245660963], [-0.00124179797611548, -0.002481068947212487], [-0.038911958146526864, 0.03455632224040953], [-0.5880564363023028, 0.5900401685996237], [0.0011717104901724507, 0.0008476368006020217], [0.002095643521926989, -0.0026198376438175785], [0.778017847834091, -0.7757649017211173], [-0.0007188910613341783, 0.0022116509997274], [-1.318063425619233, 1.3159453259814287], [0.7695680836067478, -0.7629548560603584], [-0.001180484358776123, 0.0004818307042692099], [-0.1713434501253212, 0.16919330155105716], [0.28237313601222214, -0.279349704424447], [-0.19192448629174594, 0.1917173958936823], [0.0017965360849992017, -0.0022391344142219517], [-0.7293897717592849, 0.7256318641775574], [-0.6113530598933495, 0.6143008557129818], [-0.6851411358867506, 0.6840361592008739], [-0.001592472774736447, 0.0022472520390134504], [0.004018542505775081, -0.0024047085351694857], [-0.0013011600841293014, -0.0031901401223201633], [0.12376540649011791, -0.12894286794199267], [-0.23026322254138473, 0.22656087452852694], [0.0004426895624486779, 0.003274884594204214], [0.5494615945296083, -0.5498880975050832], [0.231813695054693, -0.23089975699190285], [-0.22187864090147305, 0.2250798510838487], [-0.002552064852443785, -1.083972587608033e-05], [-0.25575115042130175, 0.2543900978747497], [-0.11407815518921866, 0.11458475710967395], [-0.0037777936058492755, -0.0017880461534008837], [-0.5995674582022622, 0.5974311618062107], [-0.38340153002801125, 0.3825176744689539], [-0.3136375667080015, 0.31670486751212], [-0.00024224158124599505, 0.0005576411404456151], [-0.0014165829754452983, 0.0003640786872644193], [-0.2212160471605614, 0.218171279581049], [0.0028838678258952663, -0.002193532181866348], [1.6759338034961058, -1.6781232584888013], [-0.6840844644167575, 0.6832515930017732], [-0.5784418178099539, 0.5785127662634708], [-0.1774768541445699, 0.17500631458952257], [0.3879373927576252, -0.38661741866587224], [0.04037575431767335, -0.040745367653155194], [0.21482668137964428, -0.2142262089977124], [-0.2795522867349448, 0.2806726453494491], [-0.36097824301125725, 0.35997753586872966], [0.0034731492974155753, -0.0016424626182190514], [0.0012008172826739718, 0.0009779418492621178], [-0.9106301753861078, 0.9153563047789625], [0.4128423236397051, -0.40355130225869174], [-0.004930285048567245, 0.000744504824801803], [-0.5736609009782818, 0.5779053832346072], [0.006851592473871356, -0.0009382403695461231], [-0.7308565688226168, 0.7356979235429971], [0.0005342287304412864, -0.000826032907522869], [-0.014046713894010045, 0.01469455510740446], [-0.0001745268759564594, 0.0011989141481894671], [0.00021797428723364465, -0.001288027322969175], [0.002962689047241431, 0.00018826931109914067], [-0.7924065300922739, 0.7950572751306966], [-0.0035210828484832386, -0.0011203773653051608], [-0.6655663531452538, 0.6594956567041302], [-0.7061497111797751, 0.7065253712072515], [-0.45713538156030364, 0.4569239155216568], [-0.8621134031466814, 0.8629285257908522], [-0.4278548980961758, 0.42440231672414586], [0.0007909334742708575, 0.0012855869520439777]], [[-0.0020336208516197074, -0.0005443814898918363], [-0.0007580693623624257, -0.003957834813550049], [0.0003009114095125953, -0.003336207455172173], [-0.0016029112840707793, 0.0001507910782958459], [-0.692936979237703, 0.6933039409789323], [0.5759942736989024, -0.5769946558852586], [-0.026233572372923324, 0.02698411663446144], [-0.6628321596751205, 0.6605831410250086], [-0.8396451781676976, 0.8443948806015045], [0.003382025299018885, 0.001853275891288386], [-0.00043155083195351015, -0.0012292459370612724], [2.1273881907785173, -2.1275489780364607], [0.3894016197688405, -0.38790167729595765], [-0.36108858788497544, 0.3574071909171201], [-0.0027395771464161214, 0.003310057574705363], [-1.7455280937086919, 1.747009888433694], [-0.626824685727847, 0.6263800016935328], [-0.8731754676665261, 0.8738811242771247], [-0.001757811317249276, 0.001114493811106549], [0.0025187247693034395, 0.0022115483949119966], [0.0002996232398082397, -0.004351908058393079], [-0.0008283525527668561, 0.002129300185921902], [0.00030790598850650416, -0.0017822493927279546], [-0.36827978875888484, 0.36940256073449496], [-0.7945820761036471, 0.7917801767117437], [-0.002666734717447384, 0.0035460829017655284], [-0.010138216769547426, 0.013838053301674152], [0.5211087471049187, -0.5188195183132477], [-0.5983657090370289, 0.5973079208007355], [0.18341897447747743, -0.18611020265675216], [0.0013775234808723663, 0.0001737876086977544], [0.0006578972900037857, 0.0005860182885328229], [0.2089595766347051, -0.21111848221957374], [-0.0011235690570909835, -0.0022448516998855366], [-0.0414371732249932, 0.03749622806145175], [-0.5762596180076138, 0.5780544834122056], [0.0010601544501987884, 0.000766935120789298], [0.001896121801789256, -0.002370408526839028], [0.7493714653659626, -0.7473330174150735], [-0.0006504469869254039, 0.0020010844567095354], [-1.291349345635886, 1.2894329057167948], [0.7409137745102374, -0.7349301781591887], [-0.0010680929776111991, 0.0004359566374610489], [-0.16779724132337334, 0.1658518037782516], [0.27933999000061227, -0.27660441284265735], [-0.1872961261680032, 0.1871087524020927], [0.0016254917417136848, -0.0020259512343200775], [-0.7145052430827616, 0.7111051178132357], [-0.599131635846021, 0.6017987783549184], [-0.6712540221033256, 0.6702542478752008], [-0.0014408568610739165, 0.0020332959974846423], [0.003635945702067938, -0.0021757613987186597], [-0.0011772794262580048, -0.002886413730867653], [0.12268559665855974, -0.12737012312219986], [-0.2234512793717928, 0.220101423963877], [0.00040054203971276784, 0.0029630898635396377], [0.5247414031214955, -0.525127299664425], [0.22291267428271225, -0.22208575030055144], [-0.2175242181766524, 0.2204206480109262], [-0.002309088237416044, -9.807698849542754e-06], [-0.25052886193432783, 0.24929739227839834], [-0.11179359498343952, 0.11225196442278022], [-0.0034181179879888075, -0.0016178101182739938], [-0.5873712372063457, 0.5854383330032912], [-0.39405596197709836, 0.3932562564080805], [-0.30741931022865854, 0.3101945799090605], [-0.00021917828041578388, 0.0005045493247827255], [-0.0012817131519178772, 0.00032941553716831444], [-0.20966825717290893, 0.2069133753771797], [0.0026093009621839212, -0.0019846906925938723], [1.6140999030878178, -1.6160809047716667], [-0.6702385989190045, 0.6694850234031714], [-0.594483172807547, 0.594547366411139], [-0.17380099050524653, 0.1715656657167059], [0.38384857197034117, -0.3826542697777295], [0.03898097462144687, -0.039315397864859346], [0.2298048776937473, -0.22926157499801664], [-0.27394892606403065, 0.27496261774038505], [-0.3536534802409191, 0.35274804827679956], [0.0031424782100551068, -0.0014860872788924194], [0.0010864900474818323, 0.0008848341055462228], [-0.9362559788937821, 0.9405321436546806], [0.39416847134425426, -0.38576202816004757], [-0.004460883194975775, 0.000673622118968939], [-0.5622390879078931, 0.5660794621219797], [0.006199267065582191, -0.0008489125184703965], [-0.7162685957850295, 0.7206490155174213], [0.0004833659600658022, -0.0007473880879841965], [-0.015056028993818117, 0.015642190636274], [-0.00015791054682569273, 0.0010847681063453512], [0.0001972214233617096, -0.0011653970070904028], [0.0034611140622374864, -0.0006101516837286341], [-0.7765109431548343, 0.7789093164495989], [-0.0031858481106444036, -0.0010137086419320573], [-0.6518698185363575, 0.6463771000689181], [-0.691899085454903, 0.6922389796977482], [-0.44790460461234105, 0.4477132718011922], [-0.844740086794351, 0.8454776033617315], [-0.41906595412131437, 0.4159420856086305], [0.0007156303964096346, 0.0011631889786412391]], [[-0.001840004176752205, -0.0004925520970881944], [-0.0006858952060330194, -0.0035810178588733376], [0.00027226228030391376, -0.003018574306581993], [-0.001450301542347193, 0.00013643458349688997], [-0.6990715464298758, 0.6994035705316314], [0.7373397286644793, -0.7382448666108067], [-0.02935396483163041, 0.030033051385531348], [-0.6685736554925105, 0.6665387610791774], [-0.8473725335491438, 0.8516700270123791], [0.00306002993189218, 0.0016768294728728922], [-0.0003904638038319236, -0.0011122120707244719], [1.9248441288788434, -1.924989607927188], [0.36904971048583035, -0.3676925743152438], [-0.3640498360137345, 0.3607189369468109], [-0.0024787478884894915, 0.0029949141000876617], [-1.6296935406750082, 1.6310342569058256], [-0.6324140086163554, 0.6320116619941617], [-0.8810335866742929, 0.8816720592341216], [-0.0015904538759547492, 0.0010083852482960353], [0.002278922392006542, 0.0020009916206783027], [0.00027109675447126283, -0.003937572236194928], [-0.000749486884785046, 0.0019265740870698983], [0.00027859092044996874, -0.001612565254738431], [-0.3716209600010126, 0.372636835267544], [-0.8014465046694497, 0.7989113681026527], [-0.003181950888208742, 0.003977578219958497], [-0.011781266793707931, 0.015128849833580614], [0.4995316783203852, -0.4974604020867347], [-0.6035991576481072, 0.6026420791586001], [0.1787192666112538, -0.18115426873395266], [0.0012463724279580578, 0.00015724166361539833], [0.0005952603016028161, 0.0005302247455295135], [0.24132308524715315, -0.243276446066702], [-0.0010165964595958764, -0.0020311241894912955], [-0.04593634817368202, 0.04237061193750396], [-0.5815623070506734, 0.5831862871738734], [0.0009592194212675165, 0.0006939168746358606], [0.0017155961162300141, -0.0021447270205353277], [0.7104317813788151, -0.708587409680551], [-0.0005885193258838786, 0.001810565502142091], [-1.302770354850037, 1.3010363750608291], [0.7022013682028532, -0.6967874572129265], [-0.0009664021385299117, 0.0003944501420568552], [-0.1691664589072569, 0.16740624229373055], [0.35699066011538977, -0.35451553138504865], [-0.16765187022650999, 0.16748233591453907], [0.0014707321631007267, -0.0018330647672481337], [-0.7206229017050995, 0.7175464950620292], [-0.6045788335687802, 0.6069920431660633], [-0.6771159910113743, 0.6762114031408809], [-0.0013036759730145873, 0.001839710251281841], [0.0032897751185629103, -0.0019686118275537823], [-0.0010651931798367753, -0.0026116044770102356], [0.15696520100660039, -0.16120372376384837], [-0.19931111592132753, 0.19628019305427882], [0.00036240729212101995, 0.002680980439722895], [0.4953577956996663, -0.49570695186130753], [0.2117508499446332, -0.21100265561931397], [-0.2196068684895675, 0.22222753545828441], [-0.0020892449042066753, -8.873928900322451e-06], [-0.2526630091437144, 0.2515487850696204], [-0.11280378118311551, 0.11321851025230792], [-0.0030926863134403833, -0.0014637818905354103], [-0.5924460457373981, 0.590697169193351], [-0.3679092839870588, 0.36718571666820843], [-0.3102755357261616, 0.31278657793911213], [-0.0001983107869380877, 0.00045651226689493433], [-0.0011596839947076566, 0.0002980525911671353], [-0.1845925708672163, 0.1820999754522139], [0.0023608750200402573, -0.0017957325531086045], [1.5301877706597116, -1.5319801654266783], [-0.676251180442911, 0.6755693512339279], [-0.5550161209017797, 0.5550742027702046], [-0.1752239708636002, 0.17320146654867993], [0.49615830773582675, -0.4950777124906711], [0.04175174051073995, -0.04205432403519186], [0.2775515791995037, -0.2770600031869009], [-0.27645294274629717, 0.277370123014657], [-0.35673494029996416, 0.35591571256908294], [0.002843289606933805, -0.0013446000998674408], [0.0009830476628787626, 0.0008005909501966049], [-0.8741748879462689, 0.8780439282416942], [0.372044167122016, -0.36443808334378797], [-0.004036172084005593, 0.000609488003365193], [-0.5674122452852198, 0.5708869857161025], [0.005609048158799415, -0.000768089380298536], [-0.722884739231627, 0.7268481086065569], [0.0004373457248496168, -0.0006762308728544307], [-0.016802113359683745, 0.017332467810717105], [-0.00014287622271431837, 0.0009814896640606822], [0.00017844439510026296, -0.001054442060285217], [0.0033965909467572834, -0.0008170625749658526], [-0.7836605565008669, 0.7858305858238176], [-0.002882530352408103, -0.000917195618681428], [-0.6574138353494472, 0.6524440668138017], [-0.6981027067768323, 0.6984102404186084], [-0.45195498326001604, 0.4517818668350036], [-0.85235154791741, 0.8530188471159413], [-0.42256591122400144, 0.4197394595251092], [0.000647496762907308, 0.0010524442534838095]], [[-0.001664821329781821, -0.0004456572694897874], [-0.0006205925961616154, -0.0032400768373825424], [0.0002463407731742527, -0.0027311823280745987], [-0.0013122214464626409, 0.00012344493974271578], [-0.7167098034706229, 0.7170102162705437], [0.768462581407595, -0.7692815431134867], [-0.033156531213693705, 0.033770963394873774], [-0.6853049965166902, 0.6834638400313002], [-0.8690534833532935, 0.8729418216911006], [0.0027686910523089417, 0.0015171821391042131], [-0.0003532885834392721, -0.0010063207475165803], [1.7415838522275051, -1.7417154805280168], [0.3566583232039259, -0.3554303970542153], [-0.3729798647085987, 0.3699660933900178], [-0.0022427516241799775, 0.0027097747590394384], [-1.4934510661851694, 1.4946641357023214], [-0.6483569925877806, 0.6479929525236026], [-0.9033784544846618, 0.9039561394429422], [-0.001439030177310418, 0.0009123790539235603], [0.0020619510841691094, 0.0018104815048300613], [0.00024528621455361185, -0.0035626844380021376], [-0.0006781298477182267, 0.001743149104813607], [0.0002520668770803115, -0.0014590363791957507], [-0.3810700144231343, 0.38198917038673874], [-0.8214891422765767, 0.8191953706190779], [-0.0037798074101065937, 0.004499684771902807], [-0.013724768948398986, 0.016753635794686833], [0.4861918491866817, -0.48431777471597137], [-0.6187649880018455, 0.6178990309003686], [0.1705993877695616, -0.17280255856838483], [0.0011277079851954972, 0.00014227102243830793], [0.0005385868463787664, 0.000479743185960469], [0.24179907172797585, -0.24356645725798345], [-0.0009198084934259467, -0.0018377452164644217], [-0.05148282167163152, 0.04825657152645875], [-0.5964224408100924, 0.5978918052726327], [0.0008678941997218053, 0.000627850538920215], [0.001552257893583694, -0.0019405321658829482], [0.6987405949437532, -0.6970718219148051], [-0.0005324876644843866, 0.001638185448173153], [-1.3355831952280017, 1.3340143039314716], [0.6417782659581419, -0.6368798018092829], [-0.0008743930658957587, 0.0003568953909609297], [-0.17331239279180893, 0.17171976262267138], [0.3718621520887323, -0.3696226750504241], [-0.1497018272660381, 0.14954843395190034], [0.001330706911681096, -0.0016585426065569315], [-0.7386066497435434, 0.7358231411715639], [-0.6199989039129035, 0.622182357005864], [-0.694114853867929, 0.6932963898663321], [-0.0011795557827644226, 0.0016645553883243985], [0.002976562693045793, -0.0017811845222858288], [-0.0009637784242753954, -0.0023629592221658664], [0.16395666257989014, -0.1677916446860109], [-0.17762262900608883, 0.1748802737974758], [0.0003279032719678426, 0.002425730048426735], [0.47099546882372023, -0.4713113825768893], [0.20282969540821255, -0.20215273505814876], [-0.22531409740245278, 0.22768525629594807], [-0.0018903323827235343, -8.02906118305715e-06], [-0.2589503080312774, 0.2579421668389125], [-0.11567317325135187, 0.11604841685633695], [-0.0027982382898869068, -0.0013244183596436978], [-0.60726216496881, 0.6056797952054849], [-0.3370839214569696, 0.336429243428966], [-0.3182496921807228, 0.3205216634560715], [-0.00017943004270952172, 0.0004130487141476144], [-0.0010492729715449426, 0.0002696756439149169], [-0.16322871024751984, 0.16097342949009397], [0.002136101178449347, -0.001624764712369117], [1.3990743875832898, -1.4006961322929692], [-0.6933538346247318, 0.6927369209107704], [-0.5086103657730309, 0.5086629177914712], [-0.1795277882120816, 0.17769784219043805], [0.5165413776510978, -0.515563663559073], [0.041571013671225406, -0.041844788867995475], [0.28296926137687367, -0.28252448726096135], [-0.28350364197294425, 0.2843334994772439], [-0.36568684733016005, 0.36494561651256047], [0.002572586108323731, -0.001216583611368368], [0.0008894538056111893, 0.0007243684047881907], [-0.8011148092416999, 0.804615486517867], [0.3434676417130065, -0.3365857168401767], [-0.003651896806007833, 0.0005514599592048401], [-0.581938022082113, 0.5850819399372343], [0.005075022726864318, -0.0006949612395755506], [-0.7413857778378481, 0.7449718033243963], [0.00039570697741768613, -0.0006118483833945379], [-0.01893476761001401, 0.01941462815249579], [-0.00012927328432118463, 0.0008880441405153775], [0.00016145508738317404, -0.0009540508957324648], [0.0031280798866098847, -0.0007941428725559856], [-0.8036756910150055, 0.8056391165054186], [-0.0026080908266757643, -0.0008298713931500562], [-0.6737136139093891, 0.6692170063653647], [-0.7157646072889872, 0.7160428613130403], [-0.46342387773388066, 0.46326724335199276], [-0.8739832740295252, 0.8745870411041315], [-0.4330022193008591, 0.4304448679995048], [0.0005858499863600795, 0.0009522432958271004]], [[-0.0015063172655339948, -0.0004032271977384977], [-0.0005615073075639388, -0.002931596078508745], [0.0002228871970819833, -0.0024711523227776365], [-0.00118728766003359, 0.0001116920120801342], [-0.7376118533509319, 0.7378836644931929], [0.7990018446264887, -0.7997428347467659], [-0.036752891616452274, 0.03730882502891792], [-0.705164896724845, 0.7034990327952572], [-0.8946830972909143, 0.8982012352842832], [0.0025050899219131216, 0.0013727344852026717], [-0.0003196527359607796, -0.0009105111098305999], [1.5757713930354889, -1.5758904892881305], [0.3630113240941818, -0.36190030615668867], [-0.38361820926890317, 0.38089137264665474], [-0.0020292240574845606, 0.002451782922425826], [-1.4541983062740007, 1.4552958820470219], [-0.667255142711984, 0.6669257621206812], [-0.9298366906277434, 0.9303593754415012], [-0.0013020232038901142, 0.0008255134031810725], [0.00186563714868881, 0.0016381094480648496], [0.00022193304072335644, -0.003223488902148552], [-0.0006135665609388668, 0.0015771876212836427], [0.0002280681309297423, -0.0013201246582495347], [-0.39225269690041537, 0.3930843419982573], [-0.8452796596541717, 0.8432042730711954], [-0.004336151974224863, 0.004987491358063011], [-0.015553257374105036, 0.018293752311279343], [0.4648262392620145, -0.4631305913978097], [-0.6367520928848, 0.6359685816996463], [0.17155967400278152, -0.17355308564030708], [0.0010203413292423093, 0.00012872570386401926], [0.00048730914914224516, 0.0004340678672883442], [0.24722978345966382, -0.2488289000081371], [-0.0008322355017002887, -0.0016627774402527909], [-0.056732292023316845, 0.05381320622734007], [-0.6139960378038664, 0.6153255072308208], [0.0007852638564338261, 0.00056807423717612], [0.001404470752409793, -0.00175577826491245], [0.6572158852199662, -0.6557059924880589], [-0.0004817906572603923, 0.0014822173290230207], [-1.3744833021606573, 1.3730637816358822], [0.6438129988953437, -0.6393809070005383], [-0.0007911439795131623, 0.00032291614708252625], [-0.1782532606791661, 0.17681226140887413], [0.3864623026739782, -0.38443604143607546], [-0.14470504937054046, 0.14456626030448896], [0.0012040131637989923, -0.001500636326066214], [-0.7599696251023491, 0.7574511284049992], [-0.6382404214367099, 0.6402159926488116], [-0.7142819573920122, 0.7135414175906722], [-0.0010672528093278134, 0.0015060766437917268], [0.002693170550059466, -0.001611601768324701], [-0.0008720191498420019, -0.002137986948165595], [0.17040246311750096, -0.17387232481144063], [-0.17148619168864931, 0.16900493023129984], [0.00029668430548939476, 0.002194781498834266], [0.4399082723647794, -0.4401941086478119], [0.1939363710002475, -0.19332386259160242], [-0.23204193964405845, 0.23418734559045185], [-0.001710357895323, -7.264631507125619e-06], [-0.26642163720524475, 0.265509478971211], [-0.11906911249104753, 0.11940862995809261], [-0.0025318240304425684, -0.0011983233312988374], [-0.6248524509258646, 0.6234207351901782], [-0.3281228901808053, 0.3275305426421798], [-0.32766904118743384, 0.3297247029558375], [-0.00016234689359985276, 0.0003737232329361769], [-0.0009493739448325311, 0.00024400040488204995], [-0.15713884552827606, 0.1550982852094204], [0.0019327275717013082, -0.0014700743526590405], [1.404388308128717, -1.4058556500066586], [-0.7136172020853876, 0.7130590234015486], [-0.4952182926034927, 0.49526584125709244], [-0.18465570546310767, 0.1829999846730826], [0.5370091900707923, -0.5361245620382055], [0.042315465555520154, -0.04256317520363224], [0.2919897673240005, -0.2915873391966835], [-0.2918434636881606, 0.29259431224127436], [-0.3763084740776573, 0.3756378142546945], [0.0023276557085851286, -0.001100755297873336], [0.0008047708185374079, 0.0006554028442696393], [-0.7801542237598492, 0.7833216090689044], [0.33162599784957303, -0.32539928626760994], [-0.003304207552145521, 0.0004989566405361852], [-0.5991091432788396, 0.6019537354653238], [0.00459184070969044, -0.0006287954721163673], [-0.7632532983497342, 0.7664979060493124], [0.00035803256572562454, -0.000553595612519596], [-0.020954592054160403, 0.02138876610470766], [-0.00011696545248540558, 0.0008034953646286565], [0.00014608329517585352, -0.0008632177584055342], [0.0030149370321586404, -0.0009032091499846535], [-0.827347336011647, 0.8291238279768158], [-0.002359780098935534, -0.000750861119636485], [-0.6930955760523431, 0.689027080857858], [-0.7366856331340124, 0.7369373951898782], [-0.4770047166889266, 0.4768629951302262], [-0.8995949937444244, 0.9001412774522142], [-0.4454202133392608, 0.4431063419643843], [0.000530072467045273, 0.0008615822562060376]], [[-0.0013629040329169546, -0.00036483680201645943], [-0.0005080474024308137, -0.0026524851103440572], [0.0002016665856119642, -0.002235879215971009], [-0.001074248551163403, 0.00010105805542543496], [-0.7546814164398453, 0.7549273490268614], [0.8563245174854013, -0.8569949595273172], [-0.03965766575073989, 0.04016066993665693], [-0.7213746832530055, 0.719867422651354], [-0.9156296497658071, 0.9188128333946687], [0.0022665856891606884, 0.0012420393822835576], [-0.0002892192853007252, -0.0008238233020345147], [1.42574558206494, -1.4258533394190809], [0.38739276386870697, -0.3863875235635609], [-0.39229050097705903, 0.38982328061478666], [-0.001836025991946247, 0.0022183539346383864], [-1.4608015753369192, 1.4617946532772117], [-0.68267890164558, 0.6823808806731575], [-0.9514453008851883, 0.9519182220000915], [-0.0011780603702396064, 0.0007469180445353477], [0.0016880138414972455, 0.0014821485647218472], [0.00020080327243155986, -0.002916587444972202], [-0.0005551502060690516, 0.0014270269742623915], [0.000206354253872132, -0.001194438423995348], [-0.40138739127404993, 0.4021398572277628], [-0.8646967228468596, 0.8628189293643577], [-0.00478712264100425, 0.005376449400606888], [-0.017043104812839535, 0.01952268311119973], [0.48571226501135517, -0.4841780561395524], [-0.6514374413787892, 0.6507285266112857], [0.18257602701660777, -0.1843796502122059], [0.0009231968220740046, 0.00011647000598784934], [0.00044091349136056673, 0.00039274119763688965], [0.26360722133704195, -0.2650540894324201], [-0.0007530001464876589, -0.0015044679703385606], [-0.06095368140631334, 0.058312515501362405], [-0.6283529723359559, 0.6295558658332915], [0.0007105005707135531, 0.0005139891087745638], [0.0012707541076312633, -0.001588614386165718], [0.6713922464288838, -0.67002610734207], [-0.00043592040324195514, 0.0013410985996158858], [-1.4062382184460116, 1.4049538474225287], [0.6836420247304968, -0.6796319027887907], [-0.0007158208598997987, 0.0002921719940564851], [-0.1822812123189898, 0.1809774074952329], [0.4139889236512784, -0.4121555783952231], [-0.14467391543822988, 0.14454834018116128], [0.0010893816556268603, -0.0013577639634982778], [-0.7774083021568344, 0.7751295861225407], [-0.6531500285415617, 0.6549375098603344], [-0.730747823193681, 0.7300777885968033], [-0.0009656419608648496, 0.0013626863202541248], [0.0024367595645317106, -0.001458164624254757], [-0.0007889960789098157, -0.0019344338013318344], [0.1828069176460399, -0.18594642125828714], [-0.17124307845930953, 0.1689980525777638], [0.0002684376297786892, 0.0019858210647756996], [0.4538185410383651, -0.4540771634626127], [0.20263513249535198, -0.20208093969716875], [-0.2375468033321441, 0.23948794978481197], [-0.001547518392442183, -6.57298153932209e-06], [-0.2725186412049783, 0.2716933275978998], [-0.12184431610429863, 0.12215150884228895], [-0.0022907745006182176, -0.0010842335398623289], [-0.6392108005307269, 0.6379153953761789], [-0.32950751825884655, 0.32897156685753604], [-0.33537169452808324, 0.3372316411532568], [-0.00014689019443745181, 0.00033814184635460047], [-0.0008589860899588377, 0.00022076965022984425], [-0.15676985936561527, 0.15492357641340293], [0.0017487167293854912, -0.0013301117299591696], [1.4922248357603236, -1.4935524751686151], [-0.7301587361730426, 0.7296537004832181], [-0.4974486462693453, 0.49749166791772836], [-0.18883675600211303, 0.1873386728334853], [0.5753995528613434, -0.5745991483643428], [0.04507667140998051, -0.045300797154356635], [0.31209704499224156, -0.3117329311828673], [-0.29865708897092885, 0.2993364508454575], [-0.38498032477200483, 0.38437351703080336], [0.002106044606312221, -0.0009959547494096063], [0.0007281503168389185, 0.0005930033466911585], [-0.7838264756190181, 0.786692300973534], [0.34773116477486116, -0.3420972850331589], [-0.0029896210456150773, 0.0004514520501073783], [-0.6131463986924565, 0.615720163364529], [0.004154661414924948, -0.0005689292053115463], [-0.7811226171744089, 0.7840583127414522], [0.0003239450538795182, -0.0005008889628843343], [-0.022586498401321504, 0.022979335672737227], [-0.00010582942289239664, 0.0007269962961582745], [0.0001321750182996063, -0.0007810326490544265], [0.0030338505123425814, -0.0011231757077104934], [-0.8466836227322252, 0.8482909787117197], [-0.002135110502432081, -0.0006793732446200986], [-0.7088983418523872, 0.7052171993498476], [-0.7537674013640444, 0.7539951936951329], [-0.48809363470859074, 0.4879654061552018], [-0.9205136552163325, 0.9210079284252369], [-0.45554860057549384, 0.45345502792607434], [0.000479605405583753, 0.0007795528595077344]], [[-0.0012331448662528648, -0.00033010147344257173], [-0.0004596773000809187, -0.0023999476981753417], [0.00018246634299693982, -0.002023005956505328], [-0.0009719716531409262, 9.143653495151544e-05], [-0.7683265483331742, 0.768549066206626], [0.9264325897036139, -0.9270392003982348], [-0.041967669050805824, 0.04242278328818887], [-0.7343256795295973, 0.7329619219735691], [-0.9323980224211582, 0.9352781419713737], [0.0020507889323129066, 0.0011237874794961253], [-0.0002616833381339357, -0.0007453888542901143], [1.2900034064344217, -1.2901009044422416], [0.4190610945616593, -0.4181515610276011], [-0.39920674070250023, 0.396974419093517], [-0.0016612218994096215, 0.0020071492195796103], [-1.536111431760648, 1.537009960882497], [-0.695018278010852, 0.6947486309753294], [-0.968732482488089, 0.9691603777990578], [-0.0010658997718186647, 0.00067580558123311], [0.0015273016680059537, 0.0013410363822161822], [0.00018168522401081002, -0.0026389054165812855], [-0.0005022955469198356, 0.001291162800032049], [0.00018670770842701373, -0.0010807185062418657], [-0.40869727432508285, 0.4093780996109723], [-0.880206012803317, 0.8785070000064474], [-0.0051478306315607325, 0.005681048855733167], [-0.018241097463397495, 0.020484600435907375], [0.5223839380981699, -0.52099579795893], [-0.6631724692045118, 0.6625310486899019], [0.19747295492411227, -0.19910485902784156], [0.0008353012348528917, 0.0001053811467920928], [0.0003989350645395292, 0.0003553491514698911], [0.28464989052866585, -0.28595900541927355], [-0.0006813086193175062, -0.001361230805146432], [-0.06429159963467408, 0.06190189346464995], [-0.6398496859087464, 0.6409380544989496], [0.0006428553369014311, 0.00046505330932119913], [0.0011497683374972563, -0.001437365821394607], [0.7169895461804922, -0.715753474262878], [-0.00039441735761996255, 0.0012134154814376472], [-1.431627689377922, 1.4304656005618936], [0.7383997787734949, -0.7347714519316707], [-0.000647669092777521, 0.000264354925828861], [-0.1854934773925894, 0.1843138050266852], [0.4476911903712727, -0.4460323939806456], [-0.15111102032924112, 0.15099740082277366], [0.000985663967220914, -0.0012284941718072268], [-0.7913381375278574, 0.7892763731545273], [-0.6650810585470938, 0.6666983576074321], [-0.7439079775396062, 0.7433017354980572], [-0.0008737052631139995, 0.001232947881545209], [0.0022047609183925136, -0.0013193359012247156], [-0.0007138774563011096, -0.001750260512556365], [0.1980083764164339, -0.20084897463063037], [-0.17861927209743197, 0.17658799030974237], [0.00024288025941357523, 0.001796755304982038], [0.48609048153927825, -0.486324481077805], [0.2179790005984862, -0.21747757130670295], [-0.24195937842642043, 0.24371571249319188], [-0.0014001824889957183, -5.947182079902005e-06], [-0.2773875987453428, 0.2766408614747523], [-0.12406467489093397, 0.12434262046791796], [-0.0020726747789676894, -0.000981005992504735], [-0.6506826369495746, 0.649510564538409], [-0.34644656007240504, 0.3459616354532645], [-0.3415398324835402, 0.3432226975840477], [-0.00013290509441501213, 0.0003059480871921728], [-0.000777203868674666, 0.00019975064584900327], [-0.1633214857733794, 0.16165098345686782], [0.0015822251642743615, -0.0012034746480508866], [1.6126590865740769, -1.613860324284898], [-0.7433950781057036, 0.7429381257795394], [-0.5230701345996407, 0.5231090602492529], [-0.19217178357492956, 0.19081632968823198], [0.6224166712764, -0.6216924715729997], [0.048689251696476504, -0.048892038909954076], [0.3372782596908715, -0.3369488123754941], [-0.3041108315872935, 0.3047255128764154], [-0.3919106098910269, 0.3913615750119799], [0.0019055326212624806, -0.0009011320361464132], [0.000658824688594213, 0.0005365447712983081], [-0.8243943223726574, 0.8269872986484228], [0.3737968931953094, -0.3686994030472343], [-0.002704985644918396, 0.0004084702697355408], [-0.6243842271879163, 0.6267129492517262], [0.0037591050221404214, -0.0005147626772295305], [-0.795429652693292, 0.7980858469886696], [0.00029310294084651555, -0.00045320040019367557], [-0.023884780673786906, 0.02424021675205743], [-9.575363076661628e-05, 0.000657780539744759], [0.00011959091860209452, -0.0007066722075038627], [0.003090582210956836, -0.0013618186520377026], [-0.8621695498895289, 0.8636238729573921], [-0.0019318312158205545, -0.0006146915766914262], [-0.7215209035087349, 0.7181902346800311], [-0.7674319445004171, 0.7676380492127572], [-0.49696931392330923, 0.49685329373516735], [-0.9372498970099153, 