[[[-0.08821553076794399, 0.09342801936143295], [0.017067284973649885, -0.007156146876042567]], [[-0.14796613704929962, 0.1531734131541951], [0.04847155433097897, -0.03857032737146924]], [[-0.19811317152448393, 0.20331524035327456], [0.08200493575001082, -0.07211361001746058]], [[-0.24319392395153294, 0.24839079071149478], [0.11390006098721968, -0.10401862658040198]], [[-0.284680554262798, 0.28987222415599984], [0.14329260344125125, -0.13342105046884037]], [[-0.32317211642620347, 0.3283585946495121], [0.17011930814521295, -0.16025762672577445]], [[-0.35900318052892, 0.3641844722740053], [0.1945301946735808, -0.18467837493556172]], [[-0.39241763882828784, 0.39759374928162805], [0.21672121585457807, -0.206879247936297]], [[-0.4236197328657279, 0.42879066720861475], [0.2368870865204111, -0.22705496057004831]], [[-0.4527899672355603, 0.4579557306441042], [0.25520883669657196, -0.24538654287215955]], [[-0.480090858404337, 0.4852514560494724], [0.2718514263639421, -0.2620389548333541]], [[-0.5056696648406707, 0.5108251018881609], [0.28696423399306054, -0.2771615749340031]], [[-0.5296601559913277, 0.5348104376017704], [0.30068230223779424, -0.29088944583779586]], [[-0.5521840163897296, 0.5573291477185619], [0.3131277115372648, -0.3033446479936664]], [[-0.5733520607774509, 0.5784920469749544], [0.3244108953075632, -0.31463761482750835]], [[-0.5932653156437906, 0.5984001618550965], [0.3346318452653775, -0.3248683380658027]], [[-0.6120159885771945, 0.6171456999422892], [0.343881197724551, -0.3341274540321758]], [[-0.629688337493526, 0.6348129191472556], [0.3522412053667091, -0.34249721541802625]], [[-0.6463594492832071, 0.6514789063552829], [0.35978660336214485, -0.3500523574034107]], [[-0.6620999365967274, 0.6672142742117311], [0.3665853798667815, -0.3568608681540061]], [[-0.6769745609737698, 0.6820837842511586], [0.3726994608517646, -0.3629846736507019]], [[-0.6910427899867324, 0.6961469040408437], [0.3781853186595553, -0.36848024624569364]], [[-0.7043592954752732, 0.7094583054153303], [0.38309451291935276, -0.373399145577905]], [[-0.7169743993213588, 0.7220683102514757], [0.3874741716309049, -0.3777884996567986]], [[-0.7289344725862914, 0.7340232896054782], [0.3913674194075298, -0.3816914331053976]], [[-0.740282293226254, 0.7453660214284218], [0.3948137590919308, -0.38514744877610074]], [[-0.7510573670358441, 0.7561360115098097], [0.39784941223981374, -0.38819276823429955]], [[-0.761296215947625, 0.7663697817771166], [0.4005076233137371, -0.3908606359522284]], [[-0.7710326373427682, 0.7761011296064303], [0.4028189318442837, -0.3931815914701365]], [[-0.7802979376031332, 0.7853613613745317], [0.40481141629522027, -0.3951837132614472]], [[-0.7891211427564682, 0.7941795031040954], [0.4065109129095432, -0.3968928375788039]], [[-0.7975291887306075, 0.802582490717887], [0.4079412124089851, -0.3983327551535766]], [[-0.8055470934358784, 0.8105953421211706], [0.40912423706516277, -0.3995253882670096]], [[-0.8131981126335712, 0.8182413130701781], [0.4100802003506174, -0.4004909504012623]], [[-0.8205038813185064, 0.8255420385546767], [0.4108277511073763, -0.40124809040797055]], [[-0.8274845421418948, 0.832517661220829], [0.41138410393457436, -0.40181402289586804]], [[-0.8341588622235608, 0.8391869481834161], [0.41176515729080737, -0.4022046463331398]], [[-0.8405443395471921, 0.8455673974210876], [0.4119856006273888, -0.4024346501806789]], [[-0.8466572999959447, 0.8516753348119663], [0.41205901171213477, -0.4025176122158716]], [[-0.8525129859660765, 0.8575260027472821], [0.4119979451667087, -0.4024660870699418]], [[-0.858125637391223, 0.8631336411556474], [0.4118140131212966, -0.4022916868826265]], [[-0.8635085659176224, 0.8685115616782823], [0.4115179587861677, -0.4020051548737363]], [[-0.8686742228894161, 0.8736722156543153], [0.411119723648519, -0.40161643254000007]], [[-0.8736342617317057, 0.87862725650384], [0.41062850892318703, -0.40113472110577664]], [[-0.8783995952560849, 0.883387597033447], [0.41005283181583846, -0.4005685377862455]], [[-0.882980448357831, 0.8879634621334157], [0.40940057709583993, -0.39992576736027663]], [[-0.887386406524891, 0.8923644372867001], [0.40867904442203606, -0.3992137094962083]], [[-0.8916264605354274, 0.8965995132664747], [0.40789499181716954, -0.3984391222262676]], [[-0.8957090476822825, 0.9006771273605988], [0.40705467564482545, -0.3976082619235144]], [[-0.8996420898286784, 0.9046052014273164], [0.4061638874058482, -0.39672692009825844]], [[-0.9034330285692389, 0.9083911770562783], [0.40522798763854234, -0.39580045729826013]], [[-0.9070888577435525, 0.9120420480821049], [0.4042519371780845, -0.39483383436814257]], [[-0.910616153525572, 0.9155643906737858], [0.403240326004974, -0.393831641297842]], [[-0.9140211022908208, 0.9189643912018863], [0.40219739988962777, -0.39279812386720286]], [[-0.917309526444339, 0.9222478720664935], [0.40112708502002803, -0.39173720827362557]], [[-0.9204869083752825, 0.9254203156518147], [0.40003301078134984, -0.39065252391169386]], [[-0.9235584126888485, 0.9284868865581043], [0.3989185308404653, -0.389547424457679]], [[-0.9265289068525463, 0.9314524522479328], [0.39778674267390673, -0.38842500739750324]], [[-0.92940298038156, 0.9343216022315511], [0.3966405056650727, -0.3872881321239456]], [[-0.9321849626769322, 0.9370986659050733], [0.39548245788499653, -0.3861394367174106]], [[-0.9348789396203664, 0.9397877291452794], [0.39431503166071796, -0.3849813535142996]], [[-0.9374887690204994, 0.9423926497558874], [0.3931404680260638, -0.3838161235577918]], [[-0.9400180949974154, 0.9449170718520681], [0.391960830141339, -0.38264581001753534]], [[-0.9424703613848737, 0.9473644392626718], [0.3907780157609473, -0.38147231065726744]], [[-0.9448488242231093, 0.9497380080230295], [0.3895937688212115, -0.38029736942263537]], [[-0.947156563409077, 0.9520408580251972], [0.3884096902145691, -0.37912258721539155]], [[-0.9493964935655729, 0.9542759038870771], [0.3872272478108016, -0.3779494319146232]], [[-0.9515713741857286, 0.9564459050969112], [0.38604778578096255, -0.37677924770068033]], [[-0.953683819104876, 0.9585534754851475], [0.38487253327513804, -0.37561326373293613]], [[-0.9557363053476929, 0.9606010920715842], [0.3837026125010574, -0.37445260222839777]], [[-0.9577311813948017, 0.9625911033319691], [0.38253904624683066, -0.3732982859844437]], [[-0.9596706749095884, 0.9645257369248186], [0.3813827648876806, -0.372151245385556]], [[-0.961556899962894, 0.9664071069161089], [0.3802346129134315, -0.3710123249308091]], [[-0.9633918637903787, 0.9682372205366404], [0.37909535501068087, -0.36988228931604106]], [[-0.9651774731147509, 0.9700179845042665], [0.377965681730987, -0.3687618291020418]], [[-0.9669155400626563, 0.9717512109407823], [0.3768462147740377, -0.3676515659977215]], [[-0.9686077877038278, 0.9734386229110756], [0.3757375119125907, -0.3665520577850508]], [[-0.9702558552380767, 0.9750818596101173], [0.3746400715839866, -0.36546380291057423]], [[-0.9718613028538499, 0.9766824812215185], [0.3735543371712069, -0.36438724476646794]], [[-0.9734256162803687, 0.9782419734696696], [0.3724807009947711, -0.36332277568243687]], [[-0.9749502110537906, 0.9797617518859022], [0.37141950803522145, -0.36227074064819953]], [[-0.976436436516385, 0.9812431658076645], [0.37037105940452286, -0.36123144078488795]], [[-0.9778855795663723, 0.9826875021283605], [0.3693356155833948, -0.3602051365823795]], [[-0.9792988681748427, 0.984095988814269], [0.3683133994403848, -0.35919205091837053]], [[-0.9806774746850226, 0.9854697982038094], [0.3673045990473773, -0.35819237187388503]], [[-0.9820225189081053, 0.9868100501033733], [0.3663093703052016, -0.3572062553588829]], [[-0.9833350710288786, 0.9881178146929513], [0.3653278393920516, -0.35623382756067923]], [[-0.9846161543334806, 0.9893941152538892], [0.364360105046547, -0.35527518722700596]], [[-0.9858667477707714, 0.9906399307302597], [0.3634062406964522, -0.35433040779473074]], [[-0.9870877883580327, 0.9918561981345615], [0.3624662964433136, -0.3533995393744938]], [[-0.9882801734409824, 0.9930438148077347], [0.3615403009125728, -0.35248261060082187]], [[-0.9894447628174236, 0.9942036405428091], [0.3606282629780682, -0.35157963035662904]], [[-0.9905823807332206, 0.9953364995808807], [0.3597301733692305, -0.3506905893804128]], [[-0.9916938177587207, 0.9964431824875332], [0.3588460061687205, -0.34981546176389156]], [[-0.9927798325531971, 0.9975244479172808], [0.35797572020773555, -0.34895420634731145]], [[-0.9938411535243921, 0.9985810242731116], [0.3571192603657296, -0.34810676801916596]], [[-0.9948784803897709, 0.9996136112677416], [0.35627655878083947, -0.3472730789266224]], [[-0.9958924856456658, 1.0006228813927585], [0.355447535976894, -0.34645305960253114]], [[-0.996883815950083, 1.0016094813014287], [0.3546321019124921, -0.34564662001450364]], [[-0.9978530934245715, 1.002574033110566], [0.3538301569572732, -0.3448536605411827]], [[-0.9988009168802008, 1.0035171356265093], [0.3530415928001657, -0.3440740728804913]], [[-0.9997278629723684, 1.0044393654999306], [0.352266293294085, -0.34330774089433025]], [[-1.0006344872888526, 1.0053412783138873], [0.3515041352412576, -0.3425545413939027]], [[-1.001521325375242, 1.0062234096092517], [0.3507549891230766, -0.341814344869569]], [[-1.0023888937016072, 1.0070862758513828], [0.3500187197781352, -0.3410870161688811]], [[-1.0032376905740343, 1.0079303753416602], [0.34929518703185053, -0.3403724151262057]], [[-1.004068196994406, 1.0087561890772643], [0.3485842462808649, -0.33967039714712566]], [[-1.0048808774716012, 1.0095641815623766], [0.34788574903520514, -0.3389808137505997]], [[-1.0056761807870835, 1.0103548015737682], [0.3471995434209874, -0.3383035130716665]], [[-1.0064545407176593, 1.0111284828835574], [0.3465254746462725, -0.33763834032730095]], [[-1.0072163767180085, 1.0118856449417406], [0.34586338543250983, -0.33698513824785725]], [[-1.0079620945654297, 1.0126266935209383], [0.3452131164138478, -0.33634374747637985]], [[-1.008692086969086, 1.013352021325639], [0.3445745065064422, -0.33571400693791176]], [[-1.0094067341458912, 1.0140620085680876], [0.3439473932497571, -0.3350957541807951]], [[-1.0101064043650465, 1.0147570235128207], [0.3433316131217205, -0.33448882569182753]], [[-1.010791454463109, 1.0154374229917353], [0.34272700182948135, -0.3338930571870183]], [[-1.0114622303313532, 1.016103552891451], [0.34213339457739644, -0.33330828387957584]], [[-1.0121190673770835, 1.016755748614621], [0.34155062631377514, -0.3327343407266523]], [[-1.012762290960443, 1.017394335516743], [0.34097853195780736, -0.33217106265627167]], [[-1.0133922168081775, 1.0180196293199213], [0.34041694660801103, -0.3316182847757768]], [[-1.0140091514057137, 1.0186319365049459], [0.33986570573344677, -0.33107584256304473]], [[-1.014613392368834, 1.019231554682967], [0.339324645348868, -0.3305435720416364]], [[-1.0152052287961453, 1.019818772947964], [0.33879360217489946, -0.33002130994097506]], [[-1.015784941603468, 1.020393872211135], [0.33827241378426426, -0.3295088938425738]], [[-1.0163528038412024, 1.0209571255182615], [0.33776091873501746, -0.32900616231326874]], [[-1.0169090809956598, 1.0215087983510418], [0.33725895669167727, -0.32851295502635036]], [[-1.0174540312752935, 1.02204914891332], [0.336766368535092, -0.32802911287143044]], [[-1.017987905882698, 1.0225784284030865], [0.33628299646182275, -0.3275544780538248]], [[-1.0185109492731974, 1.0230968812710657], [0.3358086840737732, -0.32708889418418324]], [[-1.0190233994007933, 1.0236047454666637], [0.33534327645875045, -0.32663220635905016]], [[-1.0195254879521924, 1.024102252671997], [0.3348866202625951, -0.3261842612329945]], [[-1.0200174405695928, 1.0245896285246776], [0.33443856375347764, -0.3257449070829067]], [[-1.0204994770628668, 1.0250670928299965], [0.33399895687892095, -0.3253139938650206]], [[-1.0209718116117368, 1.0255348597630995], [0.33356765131606886, -0.3248913732651824]], [[-1.0214346529585077, 1.0259931380617189], [0.33314450051569044, -0.3244768987428549]], [[-1.0218882045918818, 1.0264421312099898], [0.3327293597403742, -0.32407042556931154]], [[-1.0223326649223556, 1.0268820376138457], [0.3323220860973397, -0.3236718108604481]], [[-1.0227682274496606, 1.0273130507684591], [0.33192253856626286, -0.32328091360460814]], [[-1.0231950809226886, 1.0277353594181684], [0.33153057802248814, -0.3228975946857951]], [[-1.0236134094923144, 1.0281491477092988], [0.33114606725597406, -0.3225217169026177]], [[-1.024023392857499, 1.0285545953362665], [0.3307688709862961, -0.3221531449832931]], [[-1.0244252064050432, 1.0289518776813318], [0.33039885587401024, -0.3217917455970103]], [[-1.0248190213433268, 1.0293411659483391], [0.3300358905286597, -0.3214373873619368]], [[-1.0252050048303638, 1.0297226272907711], [0.3296798455136881, -0.3210899408501319]], [[-1.0255833200964681, 1.0300964249344151], [0.32933059334850573, -0.32074927858961305]], [[-1.0259541265618208, 1.03046271829493], [0.32898800850793836, -0.32041527506380457]], [[-1.0263175799492048, 1.0308216630905809], [0.3286519674192731, -0.3200878067085835]], [[-1.0266738323921587, 1.0311734114503934], [0.3283223484571007, -0.3197667519071217]], [[-1.027023032538789, 1.0315181120179655], [0.3279990319361402, -0.3194519909827112]], [[-1.0273653256514637, 1.031855910051161], [0.32768190010222104, -0.31914340618974546]], [[-1.0277008537025967, 1.0321869475178944], [0.32737083712158227, -0.31884088170301916]], [[-1.0280297554667244, 1.0325113631882068], [0.32706572906864123, -0.3185443036054967]], [[-1.0283521666090576, 1.0328292927228186], [0.32676646391237124, -0.31825355987468984]], [[-1.0286682197706885, 1.0331408687583357], [0.32647293150141893, -0.31796854036777517]], [[-1.0289780446506154, 1.033446220989275], [0.32618502354808293, -0.3176891368055728]], [[-1.0292817680847448, 1.0337454762470657], [0.32590263361126726, -0.3174152427554996]], [[-1.0295795141220159, 1.0340387585761746], [0.32562565707851354, -0.3171467536136017]], [[-1.0298714040977874, 1.034326189307492], [0.32535399114721136, -0.31688356658576444]], [[-1.0301575567046186, 1.0346078871291136], [0.3250875348050759, -0.31662558066819046]], [[-1.0304380880605677, 1.034883968154638], [0.32482618880997816, -0.3163726966272296]], [[-1.0307131117751236, 1.0351545459890998], [0.3245698556692058, -0.31612481697864003]], [[-1.0309827390128845, 1.0354197317926466], [0.32431843961822704, -0.3158818459663518]], [[-1.0312470785550827, 1.035679634342065], [0.32407184659902477, -0.31564368954080146]], [[-1.0315062368590584, 1.0359343600902537], [0.3238299842380638, -0.3154102553368987]], [[-1.0317603181157733, 1.0361840132237374], [0.323592761823948, -0.31518145265168407]], [[-1.0320094243054516, 1.0364286957183078], [0.3233600902848217, -0.31495719242173]], [[-1.0322536552514328, 1.036668507392876], [0.3231318821655637, -0.31473738720033506]], [[-1.032493108672313, 1.036903545961615], [0.3229080516048206, -0.31452195113455717]], [[-1.0327278802324515, 1.0371339070844643], [0.3226885143119204, -0.3143107999421273]], [[-1.0329580635909108, 1.0373596844160715], [0.32247318754370596, -0.31410385088828263]], [[-1.0331837504488963, 1.0375809696532319], [0.32226199008132334, -0.31390102276255544]], [[-1.0334050305957618, 1.037797852580893], [0.32205484220699865, -0.3137022358555495]], [[-1.0336219919536365, 1.0380104211167824], [0.32185166568083307, -0.31350741193573534]], [[-1.033834720620732, 1.0382187613547147], [0.32165238371764354, -0.3133164742262909]], [[-1.034043300913384, 1.038422957606633], [0.32145692096387524, -0.313129347382014]], [[-1.034247815406878, 1.0386230924434336], [0.32126520347460835, -0.312945957466329]], [[-1.0344483449751047, 1.038819246734624], [0.3210771586906806, -0.3127662319284095]], [[-1.0346449688290984, 1.0390114996868582], [0.32089271541594494, -0.31259009958043615]], [[-1.0348377645544926, 1.0391999288813947], [0.3207118037946798, -0.3124174905750065]], [[-1.0350268081479415, 1.0393846103105164], [0.3205343552891678, -0.3122483363827142]], [[-1.0352121740525408, 1.0395656184129531], [0.32036030265745785, -0.3120825697699107]], [[-1.035393935192291, 1.039743026108343], [0.32018957993132274, -0.31192012477666314]], [[-1.035572163005632, 1.039916904830768], [0.3200221223944247, -0.3117609366949197]], [[-1.0357469274780888, 1.0400873245613995], [0.3198578665606989, -0.3116049420468935]], [[-1.0359182971740557, 1.040254353860283], [0.3196967501529652, -0.3114520785636736]], [[-1.0360863392677522, 1.0404180598972934], [0.3195387120817746, -0.3113022851640722]], [[-1.036251119573379, 1.0405785084822907], [0.3193836924244996, -0.31115550193371494]], [[-1.0364127025745016, 1.0407357640945043], [0.3192316324046741, -0.31101167010438024]], [[-1.0365711514526872, 1.04088988991117], [0.319082474371588, -0.31087073203359444]], [[-1.0367265281154223, 1.0410409478354468], [0.31893616178014195, -0.3107326311844864]], [[-1.0368788932233326, 1.041188998523637], [0.31879263917096634, -0.31059731210590646]], [[-1.0370283062167294, 1.0413341014117334], [0.31865185215080716, -0.31046472041281237]], [[-1.037174825341504, 1.041476314741313], [0.31851374737318233, -0.31033480276692554]], [[-1.0373185076743923, 1.0416156955848015], [0.31837827251931067, -0.3102075068576602]], [[-1.0374594091476268, 1.0417522998701256], [0.31824537627931443, -0.31008278138332557]], [[-1.0375975845729992, 1.0418861824047756], [0.3181150083336974, -0.3099605760326045]], [[-1.0377330876653477, 1.0420173968992923], [0.31798711933509927, -0.30984084146630747]], [[-1.0378659710654892, 1.0421459959901997], [0.3178616608903261, -0.30972352929940306]], [[-1.0379962863626133, 1.0422720312623992], [0.3177385855426571, -0.309608592083325]], [[-1.038124084116153, 1.0423955532710392], [0.31761784675442783, -0.30949598328855504]], [[-1.0382494138771476, 1.0425166115628788], [0.3174993988898883, -0.30938565728748146]], [[-1.038372324209114, 1.0426352546971593], [0.3173831971983357, -0.30927756933753126]], [[-1.0384928627084393, 1.0427515302659964], [0.31726919779751966, -0.30917167556457603]], [[-1.0386110760243086, 1.0428654849143082], [0.3171573576573199, -0.30906793294660917]], [[-1.0387270098781822, 1.042977164359292], [0.3170476345836929, -0.30896629929769287]], [[-1.0388407090828335, 1.043086613409462], [0.3169399872028872, -0.3088667332521732]], [[-1.0389522175609596, 1.0431938759832615], [0.31683437494592404, -0.3087691942491607]], [[-1.0390615783633785, 1.0432989951272582], [0.3167307580333417, -0.3086736425172752]], [[-1.0391688336868214, 1.0434020130339372], [0.3166290974602013, -0.30858003905965087]], [[-1.0392740248913326, 1.0435029710591013], [0.31652935498135065, -0.3084883456392008]], [[-1.0393771925172868, 1.0436019097388878], [0.3164314930969447, -0.3083985247641369]], [[-1.0394783763020345, 1.043698868806414], [0.31633547503821835, -0.3083105396737434]], [[-1.0395776151961846, 1.0437938872080597], [0.31624126475351066, -0.3082243543244002]], [[-1.0396749473795333, 1.0438870031193963], [0.31614882689453544, -0.30813993337585405]], [[-1.0397704102766494, 1.0439782539607725], [0.3160581268028967, -0.308057242177734]], [[-1.0398640405721242, 1.0440676764125632], [0.3159691304968454, -0.30797624675630786]], [[-1.0399558742254937, 1.0441553064300921], [0.3158818046582741, -0.30789691380147705]], [[-1.040045946485843, 1.0442411792582367], [0.3157961166199467, -0.30781921065400647]], [[-1.0401342919060983, 1.0443253294457195], [0.3157120343529603, -0.307743105292986]], [[-1.0402209443570176, 1.0444077908590992], [0.31562952645443487, -0.3076685663235205]], [[-1.0403059370408834, 1.0444885966964628], [0.31554856213542876, -0.3075955629646453]], [[-1.0403893025049076, 1.0445677795008315], [0.31546911120907606, -0.3075240650374634]], [[-1.0404710726543556, 1.0446453711732835], [0.3153911440789424, -0.30745404295350137]], [[-1.0405512787653926, 1.0447214029858016], [0.31531463172759666, -0.30738546770328107]], [[-1.0406299514976642, 1.044795905593853], [0.3152395457053941, -0.3073183108451028]], [[-1.040707120906613, 1.0448689090487056], [0.31516585811946873, -0.30725254449403777]], [[-1.040782816455539, 1.0449404428094895], [0.3150935416229313, -0.30718814131112576]], [[-1.040857067027411, 1.0450105357550075], [0.31502256940426887, -0.3071250744927751]], [[-1.0409299009364321, 1.0450792161953009], [0.31495291517694407, -0.3070633177603618]], [[-1.041001345939367, 1.0451465118829768], [0.3148845531691895, -0.3070028453500238]], [[-1.0410714292466363, 1.0452124500243025], [0.314817458113995, -0.30694363200264846]], [[-1.0411401775331823, 1.045277057290071], [0.31475160523928375, -0.30688565295404857]], [[-1.0412076169491113, 1.0453403598262432], [0.314686970258275, -0.3068288839253251]], [[-1.0412737731301187, 1.0454023832643735], [0.3146235293600292, -0.3067733011134122]], [[-1.0413386712077004, 1.0454631527318208], [0.314561259200173, -0.30671888118180274]], [[-1.0414023358191562, 1.0455226928617523], [0.3145001368918015, -0.3066656012514496]], [[-1.041464791117389, 1.0455810278029427], [0.31444013999655307, -0.3066134388918415]], [[-1.0415260607805061, 1.0456381812293742], [0.3143812465158557, -0.30656237211224885]], [[-1.0415861680212224, 1.0456941763496417], [0.31432343488234055, -0.3065123793531373]], [[-1.0416451355960765, 1.0457490359161674], [0.31426668395142, -0.30646343947774596]], [[-1.0417029858144582, 1.0458027822342288], [0.31421097299302747, -0.3064155317638271]], [[-1.041759740547453, 1.045855437170804], [0.3141562816835162, -0.306368635895545]], [[-1.0418154212365103, 1.0459070221632378], [0.3141025900977137, -0.3063227319555305]], [[-1.041870048901934, 1.0459575582277347], [0.31404987870112927, -0.3062778004170883]], [[-1.0419236441512043, 1.0460070659676795], [0.3139981283423122, -0.30623382213655526]], [[-1.0419762271871311, 1.0460555655817898], [0.31394732024535715, -0.30619077834580594]], [[-1.0420278178158433, 1.0461030768721074], [0.3138974360025546, -0.3061486506449029]], [[-1.0420784354546184, 1.046149619251826], [0.3138484575671833, -0.30610742099488925]], [[-1.0421280991395545, 1.046195211752965], [0.3138003672464429, -0.30606707171072106]], [[-1.0421768275330892, 1.0462398730338862], [0.31375314769452256, -0.3060275854543365]], [[-1.0422246389313676, 1.046283621386664], [0.3137067819058052, -0.30598894522785935]], [[-1.042271551271463, 1.0463264747443042], [0.3136612532082026, -0.3059511343669347]], [[-1.0423175821384538, 1.046368450687822], [0.3136165452566207, -0.3059141365341941]], [[-1.0423627487723577, 1.0464095664531765], [0.31357264202655166, -0.30587793571284744]], [[-1.0424070680749298, 1.0464498389380679], [0.3135295278077906, -0.3058425162004001]], [[-1.0424505566163236, 1.0464892847085985], [0.3134871871982748, -0.30580786260249165]], [[-1.0424932306416197, 1.0465279200058022], [0.3134456050980425, -0.3057739598268552]], [[-1.0425351060772248, 1.046565760752043], [0.31340476670331013, -0.305740793077394]], [[-1.0425761985371431, 1.0466028225572868], [0.3133646575006642, -0.30570834784837403]], [[-1.0426165233291238, 1.0466391207252472], [0.3133252632613672, -0.3056766099187293]], [[-1.0426560954606852, 1.0466746702594125], [0.31328657003577415, -0.30564556534647885]], [[-1.0426949296450203, 1.046709485868949], [0.3132485641478584, -0.30561520046325236]], [[-1.0427330403067852, 1.04674358197449], [0.3132112321898443, -0.3055855018689229]], [[-1.0427704415877719, 1.0467769727138088], [0.3131745610169449, -0.30555645642634444]], [[-1.0428071473524694, 1.04680967194738], [0.31313853774220224, -0.30552805125619237]], [[-1.0428431711935144, 1.0468416932638303], [0.3131031497314287, -0.30550027373190486]], [[-1.0428785264370344, 1.0468730499852799], [0.3130683845982475, -0.30547311147472317]], [[-1.0429132261478844, 1.0469037551725815], [0.31303423019922977, -0.30544655234882895]], [[-1.0429472831347804, 1.0469338216304527], [0.3130006746291274, -0.30542058445657694]], [[-1.0429807099553314, 1.046963261912508], [0.3129677062161985, -0.30539519613382055]], [[-1.0430135189209724, 1.0469920883261918], [0.31293531351762527, -0.30537037594532973]], [[-1.0430457221017986, 1.0470203129376128], [0.312903485315021, -0.3053461126802977]], [[-1.0430773313313055, 1.047047947576284], [0.3128722106100251, -0.30532239534793654]], [[-1.043108358211035, 1.0470750038397685], [0.312841478619985, -0.3052992131731585]], [[-1.0431388141151292, 1.0471014930982339], [0.31281127877372206, -0.30527655559234235]], [[-1.0431687101947953, 1.0471274264989168], [0.3127816007073808, -0.3052544122491825]], [[-1.0431980573826816, 1.047152814970499], [0.3127524342603597, -0.30523277299061957]], [[-1.0432268663971678, 1.0471776692273973], [0.31272376947132124, -0.30521162786285083]], [[-1.0432551477465704, 1.0472019997739697], [0.3126955965742809, -0.30519096710741894]], [[-1.0432829117332656, 1.0472258169086375], [0.3126679059947723, -0.30517078115737717]], [[-1.0433101684577304, 1.047249130727927], [0.3126406883460878, -0.3051510606335301]], [[-1.0433369278225044, 1.0472719511304307], [0.31261393442559327, -0.30513179634074805]], [[-1.0433631995360737, 1.047294287820692], [0.3125876352111141, -0.30511297926435377]], [[-1.043388993116678, 1.0473161503130115], [0.3125617818573936, -0.30509460056658]], [[-1.043414317896043, 1.0473375479351803], [0.31253636569261956, -0.30507665158309677]], [[-1.04343918302304, 1.0473584898321382], [0.3125113782150199, -0.30505912381960665]], [[-1.043463597467272, 1.047378984969561], [0.31248681108952475, -0.30504200894850697]], [[-1.0434875700225896, 1.0473990421373764], [0.31246265614449426, -0.30502529880561746]], [[-1.04351110931054, 1.047418669953212], [0.3124389053685103, -0.3050089853869724]], [[-1.0435342237837446, 1.047437876865774], [0.3124155509072318, -0.3049930608456754]], [[-1.0435569217292129, 1.04745667115816], [0.312392585060311, -0.3049775174888162]], [[-1.0435792112715896, 1.0474750609511079], [0.3123700002783711, -0.3049623477744478]], [[-1.0436011003763397, 1.0474930542061784], [0.31234778916004274, -0.3049475443086234]], [[-1.043622596852869, 1.0475106587288778], [0.31232594444905887, -0.30493309984249095]], [[-1.043643708357584, 1.0475278821717169], [0.31230445903140647, -0.3049190072694451]], [[-1.0436644423968928, 1.0475447320372118], [0.3122833259325346, -0.30490525962233517]], [[-1.0436848063301456, 1.0475612156808243], [0.31226253831461687, -0.3048918500707276]], [[-1.0437048073725175, 1.0475773403138455], [0.3122420894738681, -0.3048787719182227]], [[-1.0437244525978358, 1.0475931130062226], [0.31222197283791325, -0.3048660185998235]], [[-1.0437437489413508, 1.0476085406893292], [0.31220218196320837, -0.3048535836793567]], [[-1.0437627032024526, 1.047623630158683], [0.31218271053251206, -0.30484146084694425]], [[-1.043781322047334, 1.0476383880766083], [0.31216355235240667, -0.30482964391652445]], [[-1.0437996120116024, 1.0476528209748475], [0.312144701350868, -0.3048181268234217]], [[-1.043817579502839, 1.0476669352571208], [0.31212615157488316, -0.3048069036219643]], [[-1.0438352308031085, 1.0476807372016361], [0.31210789718811466, -0.3047959684831487]], [[-1.0438525720714191, 1.0476942329635484], [0.31208993246861094, -0.30478531569234996]], [[-1.0438696093461353, 1.0477074285773724], [0.31207225180656134, -0.30477493964707664]], [[-1.0438863485473417, 1.0477203299593476], [0.3120548497020958, -0.3047648348547706]], [[-1.0439027954791618, 1.0477329429097557], [0.3120377207631271, -0.3047549959306492]], [[-1.0439189558320308, 1.047745273115194], [0.31202085970323595, -0.30474541759559054]], [[-1.0439348351849234, 1.0477573261508033], [0.3120042613395975, -0.30473609467405977]], [[-1.0439504390075387, 1.0477691074824527], [0.3119879205909486, -0.30472702209207636]], [[-1.0439657726624418, 1.0477806224688808], [0.31197183247559485, -0.30471819487522145]], [[-1.0439808414071632, 1.0477918763637957], [0.3119559921094569, -0.30470960814668385]], [[-1.0439956503962573, 1.047802874317933], [0.31194039470415524, -0.304701257125345]], [[-1.0440102046833208, 1.0478136213810747], [0.31192503556513246, -0.30469313712390106]], [[-1.0440245092229705, 1.0478241225040266], [0.3119099100898124, -0.3046852435470222]], [[-1.0440385688727838, 1.0478343825405587], [0.3118950137657954, -0.304677571889548]], [[-1.0440523883951995, 1.0478444062493066], [0.31188034216908933, -0.30467011773471814]], [[-1.044065972459383, 1.047854198295636], [0.31186589096237466, -0.3046628767524379]], [[-1.0440793256430536, 1.0478637632534702], [0.3118516558933046, -0.30465584469757784]], [[-1.0440924524342763, 1.0478731056070825], [0.31183763279283777, -0.3046490174083067]], [[-1.0441053572332193, 1.0478822297528527], [0.3118238175736038, -0.3046423908044572]], [[-1.0441180443538753, 1.0478911400009892], [0.31181020622830147, -0.30463596088592404]], [[-1.0441305180257514, 1.0478998405772182], [0.31179679482812783, -0.30462972373109276]], [[-1.0441427823955236, 1.047908335624439], [0.31178357952123825, -0.30462367549530023]], [[-1.0441548415286601, 1.0479166292043465], [0.31177055653123703, -0.30461781240932495]], [[-1.0441666994110128, 1.0479247252990234], [0.311757722155697, -0.3046121307779069]], [[-1.0441783599503769, 1.0479326278124994], [0.3117450727647091, -0.3046066269782967]], [[-1.0441898269780208, 1.0479403405722811], [0.31173260479945936, -0.3046012974588334]], [[-1.044201104250185, 1.0479478673308513], [0.31172031477083506, -0.30459613873754976]], [[-1.0442121954495533, 1.047955211767139], [0.311708199258057, -0.30459114740080495]], [[-1.0442231041866923, 1.0479623774879603], [0.3116962549073395, -0.3045863201019447]], [[-1.044233834001466, 1.0479693680294326], [0.31168447843057634, -0.30458165355998695]], [[-1.0442443883644204, 1.0479761868583588], [0.3116728666040528, -0.304577144558334]], [[-1.0442547706781413, 1.047982837373586], [0.31166141626718236, -0.3045727899435093]], [[-1.0442649842785872, 1.0479893229073363], [0.311650124321269, -0.30456858662391956]], [[-1.044275032436393, 1.0479956467265132], [0.3116389877282931, -0.30456453156864105]], [[-1.0442849183581508, 1.0480018120339811], [0.31162800350972175, -0.30456062180622934]], [[-1.0442946451876653, 1.0480078219698197], [0.31161716874534195, -0.30455685442355307]], [[-1.0443042160071825, 1.0480136796125548], [0.311606480572117, -0.3045532265646499]], [[-1.0443136338385968, 1.0480193879803636], [0.3115959361830652, -0.30454973542960556]], [[-1.0443229016446332, 1.0480249500322583], [0.31158553282616064, -0.30454637827345443]], [[-1.0443320223300063, 1.0480303686692438], [0.3115752678032555, -0.304543152405102]], [[-1.0443409987425576, 1.0480356467354557], [0.31156513846902356, -0.30454005518626814]], [[-1.0443498336743686, 1.0480407870192738], [0.31155514222992436, -0.3045370840304517]], [[-1.0443585298628544, 1.0480457922544149], [0.3115452765431878, -0.3045342364019146]], [[-1.044367089991834, 1.048050665121003], [0.3115355389158187, -0.3045315098146868]], [[-1.0443755166925808, 1.0480554082466207], [0.31152592690362063, -0.30452890183158987]], [[-1.0443838125448515, 1.0480600242073375], [0.3115164381102392, -0.30452641006328046]], [[-1.044391980077896, 1.0480645155287196], [0.311507070186224, -0.30452403216731216]], [[-1.0444000217714466, 1.0480688846868194], [0.31149782082810873, -0.30452176584721585]], [[-1.0444079400566881, 1.0480731341091454], [0.3114886877775101, -0.3045196088515981]], [[-1.044415737317209, 1.0480772661756137], [0.31147966882024336, -0.30451755897325733]], [[-1.044423415889934, 1.0480812832194801], [0.31147076178545613, -0.3045156140483171]], [[-1.0444309780660381, 1.0480851875282546], [0.31146196454477865, -0.30451377195537677]], [[-1.0444384260918433, 1.0480889813445975], [0.31145327501149084, -0.30451203061467835]], [[-1.0444457621696965, 1.048092666867198], [0.311444691139706, -0.30451038798729035]], [[-1.044452988458832, 1.0480962462516359], [0.3114362109235701, -0.30450884207430684]], [[-1.0444601070762156, 1.0480997216112267], [0.31142783239647676, -0.3045073909160628]], [[-1.0444671200973723, 1.0481030950178485], [0.31141955363029833, -0.30450603259136483]], [[-1.0444740295571993, 1.048106368502755], [0.31141137273463115, -0.3045047652167366]], [[-1.0444808374507606, 1.0481095440573707], [0.31140328785605614, -0.3045035869456794]], [[-1.0444875457340683, 1.0481126236340719], [0.31139529717741377, -0.3045024959679474]], [[-1.0444941563248478, 1.0481156091469512], [0.3113873989170932, -0.3045014905088363]], [[-1.0445006711032865, 1.0481185024725679], [0.31137959132833565, -0.304500568828487]], [[-1.044507091912771, 1.0481213054506833], [0.3113718726985509, -0.3044997292212021]], [[-1.044513420560607, 1.0481240198849813], [0.31136424134864776, -0.3044989700147763]], [[-1.0445196588187262, 1.048126647543776], [0.3113566956323773, -0.3044982895698397]], [[-1.0445258084243796, 1.0481291901607044], [0.31134923393568903, -0.30449768627921403]], [[-1.0445318710808165, 1.048131649435405], [0.3113418546761, -0.3044971585672815]], [[-1.0445378484579513, 1.0481340270341852], [0.3113345563020757, -0.304496704889366]], [[-1.044543742193016, 1.0481363245906736], [0.3113273372924236, -0.3044963237311266]], [[-1.0445495538912004, 1.0481385437064605], [0.31132019615569867, -0.30449601360796297]], [[-1.0445552851262803, 1.0481406859517253], [0.3113131314296199, -0.30449577306443193]], [[-1.0445609374412326, 1.048142752865852], [0.31130614168049886, -0.3044956006736761]], [[-1.0445665123488386, 1.0481447459580333], [0.3112992255026793, -0.3044954950368634]], [[-1.0445720113322756, 1.0481466667078612], [0.31129238151798777, -0.30449545478263773]], [[-1.044577435845697, 1.048148516565907], [0.311285608375195, -0.30449547856658027]], [[-1.0445827873148008, 1.0481502969542906], [0.3112789047494875, -0.3044955650706814]], [[-1.044588067137387, 1.0481520092672374], [0.3112722693419502, -0.30449571300282285]], [[-1.0445932766839043, 1.0481536548716248], [0.31126570087905875, -0.30449592109627055]], [[-1.0445984172979856, 1.0481552351075183], [0.31125919811218183, -0.30449618810917645]], [[-1.0446034902969736, 1.0481567512886967], [0.31125275981709344, -0.30449651282409107]], [[-1.0446084969724356, 1.048158204703167], [0.3112463847934944, -0.3044968940474851]], [[-1.0446134385906687, 1.0481595966136694], [0.31124007186454367, -0.30449733060928036]], [[-1.0446183163931946, 1.0481609282581725], [0.31123381987639837, -0.3044978213623903]], [[-1.0446231315972454, 1.0481622008503584], [0.3112276276977633, -0.3044983651822692]], [[-1.0446278853962387, 1.0481634155800987], [0.31122149421944884, -0.3044989609664702]], [[-1.0446325789602449, 1.0481645736139211], [0.31121541835393807, -0.3044996076342124]], [[-1.044637213436444, 1.0481656760954665], [0.31120939903496175, -0.3045003041259558]], [[-1.0446417899495741, 1.0481667241459376], [0.311203435217082, -0.30450104940298506]], [[-1.0446463096023713, 1.0481677188645384], [0.3111975258752842, -0.3045018424470014]], [[-1.0446507734760007, 1.0481686613289056], [0.3111916700045768, -0.30450268225972227]], [[-1.0446551826304784, 1.0481695525955306], [0.3111858666195987, -0.304503567862489]], [[-1.044659538105087, 1.0481703937001738], [0.3111801147542348, -0.3045044982958822]], [[-1.04466384091878, 1.0481711856582718], [0.3111744134612388, -0.3045054726193446]], [[-1.044668092070582, 1.0481719294653342], [0.3111687618118635, -0.30450648991081114]], [[-1.0446722925399774, 1.048172626097335], [0.3111631588954981, -0.3045075492663468]], [[-1.0446764432872946, 1.0481732765110947], [0.31115760381931323, -0.30450864979979103]], [[-1.04468054525408, 1.0481738816446564], [0.311152095707912, -0.30450979064240935]], [[-1.0446845993634668, 1.0481744424176527], [0.31114663370298895, -0.30451097094255175]], [[-1.0446886065205356, 1.0481749597316672], [0.31114121696299474, -0.304512189865318]], [[-1.0446925676126675, 1.0481754344705878], [0.311135844662808, -0.30451344659222895]], [[-1.0446964835098913, 1.0481758675009536], [0.3111305159934136, -0.30451474032090514]], [[-1.0447003550652234, 1.0481762596722946], [0.3111252301615867, -0.30451607026475075]], [[-1.044704183115001, 1.0481766118174651], [0.3111199863895837, -0.30451743565264455]], [[-1.0447079684792087, 1.0481769247529702], [0.3111147839148387, -0.30451883572863647]], [[-1.0447117119617988, 1.0481771992792865], [0.3111096219896662, -0.3045202697516502]], [[-1.0447154143510058, 1.048177436181176], [0.31110449988096955, -0.3045217369951916]], [[-1.044719076419654, 1.048177636227994], [0.3110994168699551, -0.30452323674706294]], [[-1.0447226989254588, 1.0481778001739905], [0.3110943722518521, -0.3045247683090828]], [[-1.0447262826113242, 1.0481779287586073], [0.31108936533563764, -0.3045263309968111]], [[-1.044729828205631, 1.048178022706767], [0.31108439544376754, -0.30452792413927987]], [[-1.044733336422523, 1.0481780827291578], [0.31107946191191227, -0.3045295470787291]], [[-1.0447368079621848, 1.048178109522513], [0.31107456408869805, -0.30453119917034804]], [[-1.0447402435111157, 1.0481781037698834], [0.31106970133545286, -0.3045328797820212]], [[-1.0447436437423978, 1.0481780661409066], [0.31106487302595776, -0.30453458829407953]], [[-1.0447470093159585, 1.0481779972920688], [0.31106007854620293, -0.3045363240990566]], [[-1.0447503408788286, 1.0481778978669627], [0.3110553172941484, -0.3045380866014492]], [[-1.0447536390653944, 1.0481777684965403], [0.3110505886794896, -0.304539875217483]], [[-1.0447569044976461, 1.048177609799361], [0.3110458921234272, -0.3045416893748826]], [[-1.0447601377854203, 1.0481774223818334], [0.3110412270584423, -0.30454352851264616]], [[-1.0447633395266376, 1.0481772068384543], [0.3110365929280748, -0.30454539208082443]], [[-1.0447665103075365, 1.0481769637520415], [0.3110319891867071, -0.30454727954030403]], [[-1.0447696507029027, 1.0481766936939632], [0.31102741529935185, -0.3045491903625952]], [[-1.0447727612762923, 1.0481763972243616], [0.31102287074144325, -0.3045511240296233]], [[-1.0447758425802525, 1.0481760748923739], [0.3110183549986332, -0.30455308003352505]], [[-1.0447788951565373, 1.0481757272363466], [0.3110138675665911, -0.30455505787644804]], [[-1.0447819195363188, 1.0481753547840482], [0.31100940795080767, -0.30455705707035474]], [[-1.0447849162403942, 1.0481749580528759], [0.3110049756664023, -0.30455907713682984]], [[-1.0447878857793893, 1.0481745375500584], [0.31100057023793476, -0.30456111760689186]], [[-1.0447908286539578, 1.048174093772856], [0.3109961911992202, -0.30456317802080835]], [[-1.0447937453549763, 1.0481736272087556], [0.31099183809314757, -0.3045652579279141]], [[-1.0447966363637362, 1.0481731383356618], [0.31098751047150225, -0.30456735688643405]], [[-1.0447995021521315, 1.048172627622085], [0.31098320789479167, -0.30456947446330856]], [[-1.0448023431828422, 1.0481720955273257], [0.3109789299320744, -0.30457161023402274]], [[-1.0448051599095156, 1.0481715425016545], [0.3109746761607925, -0.30457376378243894]], [[-1.0448079527769427, 1.0481709689864893], [0.31097044616660774, -0.30457593470063254]], [[-1.044810722221232, 1.048170375414569], [0.31096623954324026, -0.304578122588731]], [[-1.044813468669979, 1.048169762210123], [0.31096205589231074, -0.304580327054756]], [[-1.0448161925424342, 1.0481691297890379], [0.31095789482318587, -0.3045825477144687]], [[-1.044818894249665, 1.0481684785590222], [0.3109537559528263, -0.3045847841912178]], [[-1.0448215741947169, 1.0481678089197648], [0.31094963890563837, -0.30458703611579147]], [[-1.0448242327727706, 1.0481671212630934], [0.3109455433133277, -0.30458930312627064]], [[-1.0448268703712957, 1.048166415973128], [0.3109414688147567, -0.30459158486788673]], [[-1.044829487370202, 1.0481656934264325], [0.31093741505580424, -0.30459388099288115]], [[-1.0448320841419874, 1.0481649539921618], [0.3109333816892281, -0.304596191160368]], [[-1.0448346610518835, 1.0481641980322076], [0.31092936837453056, -0.3045985150361993]], [[-1.0448372184579973, 1.048163425901341], [0.31092537477782584, -0.3046008522928329]], [[-1.044839756711451, 1.0481626379473514], [0.310921400571711, -0.3046032026092031]], [[-1.044842276156519, 1.0481618345111838], [0.31091744543513894, -0.3046055656705935]], [[-1.0448447771307623, 1.0481610159270722], [0.3109135090532936, -0.3046079411685127]], [[-1.0448472599651588, 1.0481601825226725], [0.3109095911174684, -0.30461032880057226]], [[-1.0448497249842335, 1.0481593346191895], [0.3109056913249462, -0.304612728270367]], [[-1.0448521725061841, 1.0481584725315054], [0.31090180937888223, -0.3046151392873576]], [[-1.0448546028430057, 1.0481575965683017], [0.3108979449881889, -0.30461756156675585]], [[-1.0448570163006117, 1.0481567070321822], [0.31089409786742334, -0.3046199948294117]], [[-1.0448594131789526, 1.0481558042197916], [0.31089026773667655, -0.30462243880170287]], [[-1.0448617937721336, 1.0481548884219318], [0.3108864543214652, -0.30462489321542646]], [[-1.0448641583685288, 1.0481539599236773], [0.3108826573526253, -0.3046273578076926]], [[-1.0448665072508931, 1.0481530190044865], [0.3108788765662082, -0.30462983232082047]], [[-1.0448688406964728, 1.0481520659383126], [0.3108751117033783, -0.30463231650223593]], [[-1.044871158977113, 1.0481511009937108], [0.3108713625103129, -0.30463481010437166]], [[-1.0448734623593634, 1.0481501244339446], [0.31086762873810414, -0.30463731288456886]], [[-1.0448757511045828, 1.0481491365170894], [0.3108639101426628, -0.304639824604981]], [[-1.0448780254690397, 1.048148137496134], [0.31086020648462376, -0.30464234503247967]], [[-1.0448802857040127, 1.04814712761908], [0.31085651752925375, -0.30464487393856177]], [[-1.0448825320558879, 1.04814610712904], [0.31085284304636035, -0.3046474110992591]], [[-1.0448847647662547, 1.0481450762643338], [0.3108491828102034, -0.30464995629504926]], [[-1.044886984072, 1.0481440352585814], [0.3108455365994076, -0.30465250931076865]], [[-1.0448891902054005, 1.0481429843407952], [0.3108419041968772, -0.3046550699355269]], [[-1.044891383394212, 1.0481419237354714], [0.310838285389712, -0.304657637962623]], [[-1.044893563861759, 1.048140853662677], [0.31083467996912534, -0.3046602131894635]], [[-1.044895731827021, 1.048139774338138], [0.3108310877303637, -0.3046627954174816]], [[-1.0448978875047172, 1.0481386859733233], [0.3108275084726275, -0.3046653844520583]], [[-1.0449000311053913, 1.0481375887755289], [0.31082394199899377, -0.30466798010244517]], [[-1.0449021628354918, 1.0481364829479594], [0.3108203881163403, -0.3046705821816882]], [[-1.0449042828974529, 1.0481353686898078], [0.31081684663527104, -0.3046731905065536]], [[-1.0449063914897727, 1.0481342461963354], [0.3108133173700436, -0.3046758048974549]], [[-1.0449084888070912, 1.0481331156589473], [0.3108098001384971, -0.304678425178381]], [[-1.0449105750402645, 1.0481319772652689], [0.31080629476198274, -0.30468105117682676]], [[-1.0449126503764403, 1.0481308311992195], [0.3108028010652943, -0.3046836827237235]], [[-1.0449147149991294, 1.0481296776410856], [0.3107993188766014, -0.3046863196533722]], [[-1.0449167690882772, 1.0481285167675916], [0.3107958480273831, -0.30468896180337707]], [[-1.0449188128203344, 1.0481273487519693], [0.3107923883523631, -0.3046916090145811]], [[-1.044920846368324, 1.0481261737640273], [0.31078893968944643, -0.3046942611310022]], [[-1.0449228699019095, 1.0481249919702174], [0.31078550187965687, -0.30469691799977106]], [[-1.0449248835874605, 1.0481238035337002], [0.3107820747670762, -0.30469957947107024]], [[-1.0449268875881168, 1.0481226086144102], [0.31077865819878414, -0.30470224539807417]], [[-1.0449288820638518, 1.048121407369119], [0.3107752520247998, -0.30470491563689056]], [[-1.0449308671715347, 1.0481201999514966], [0.31077185609802405, -0.3047075900465028]], [[-1.0449328430649913, 1.0481189865121732], [0.31076847027418325, -0.30471026848871346]], [[-1.0449348098950633, 1.0481177671987978], [0.31076509441177375, -0.3047129508280894]], [[-1.0449367678096668, 1.0481165421560976], [0.31076172837200783, -0.3047156369319072]], [[-1.0449387169538498, 1.0481153115259343], [0.3107583720187605, -0.30471832667009996]], [[-1.0449406574698483, 1.0481140754473608], [0.31075502521851733, -0.3047210199152055]], [[-1.0449425894971416, 1.0481128340566765], [0.31075168784032353, -0.30472371654231506]], [[-1.0449445131725053, 1.0481115874874807], [0.3107483597557337, -0.30472641642902326]], [[-1.0449464286300654, 1.0481103358707258], [0.31074504083876275, -0.304729119455379]], [[-1.0449483360013494, 1.0481090793347692], [0.3107417309658377, -0.3047318255038373]], [[-1.044950235415338, 1.0481078180054244], [0.3107384300157506, -0.3047345344592122]], [[-1.0449521269985138, 1.0481065520060102], [0.3107351378696122, -0.3047372462086304]], [[-1.0449540108749114, 1.0481052814574003], [0.31073185441080664, -0.30473996064148584]], [[-1.0449558871661644, 1.048104006478071], [0.3107285795249468, -0.3047426776493953]], [[-1.0449577559915533, 1.0481027271841479], [0.3107253130998308, -0.3047453971261548]], [[-1.0449596174680502, 1.0481014436894522], [0.31072205502539924, -0.3047481189676969]], [[-1.0449614717103657, 1.0481001561055465], [0.3107188051936933, -0.30475084307204864]], [[-1.0449633188309921, 1.0480988645417777], [0.3107155634988136, -0.30475356933929054]], [[-1.0449651589402469, 1.0480975691053216], [0.31071232983687985, -0.3047562976715163]], [[-1.0449669921463156, 1.048096269901225], [0.3107091041059915, -0.3047590279727933]], [[-1.0449688185552934, 1.048094967032448], [0.3107058862061889, -0.3047617601491239]], [[-1.0449706382712263, 1.0480936605999036], [0.3107026760394153, -0.3047644941084074]], [[-1.0449724513961505, 1.0480923507024993], [0.3106994735094798, -0.3047672297604029]], [[-1.0449742580301329, 1.0480910374371755], [0.3106962785220206, -0.30476996701669273]], [[-1.0449760582713088, 1.0480897208989444], [0.31069309098446934, -0.30477270579064686]], [[-1.0449778522159199, 1.0480884011809277], [0.3106899108060162, -0.30477544599738754]], [[-1.0449796399583513, 1.048087078374394], [0.3106867378975751, -0.30477818755375513]], [[-1.0449814215911681, 1.0480857525687948], [0.3106835721717504, -0.30478093037827425]], [[-1.0449831972051509, 1.0480844238518], [0.3106804135428035, -0.3047836743911208]], [[-1.0449849668893305, 1.048083092309333], [0.31067726192662065, -0.30478641951408963]], [[-1.0449867307310226, 1.048081758025605], [0.31067411724068106, -0.3047891656705626]], [[-1.044988488815861, 1.0480804210831487], [0.3106709794040258, -0.30479191278547746]], [[-1.0449902412278305, 1.0480790815628511], [0.3106678483372273, -0.3047946607852975]], [[-1.0449919880492997, 1.0480777395439853], [0.3106647239623593, -0.30479740959798135]], [[-1.0449937293610523, 1.048076395104243], [0.31066160620296734, -0.30480015915295383]], [[-1.0449954652423175, 1.0480750483197652], [0.3106584949840405, -0.304802909381077]], [[-1.0449971957708015, 1.0480736992651718], [0.3106553902319827, -0.3048056602146222]], [[-1.0449989210227169, 1.0480723480135927], [0.3106522918745851, -0.3048084115872419]], [[-1.0450006410728112, 1.0480709946366964], [0.31064919984099915, -0.3048111634339433]], [[-1.045002355994397, 1.0480696392047184], [0.3106461140617099, -0.3048139156910611]], [[-1.0450040658593787, 1.0480682817864897], [0.3106430344685098, -0.30481666829623166]], [[-1.0450057707382807, 1.0480669224494645], [0.3106399609944735, -0.30481942118836763]], [[-1.045007470700274, 1.0480655612597467], [0.31063689357393237, -0.30482217430763264]], [[-1.0450091658132037, 1.0480641982821168], [0.3106338321424501, -0.3048249275954167]], [[-1.0450108561436133, 1.0480628335800575], [0.3106307766367988, -0.3048276809943124]], [[-1.0450125417567717, 1.0480614672157793], [0.31062772699493496, -0.3048304344480911]], [[-1.0450142227166972, 1.0480600992502458], [0.3106246831559768, -0.30483318790167974]], [[-1.0450158990861826, 1.0480587297431978], [0.3106216450601811, -0.3048359413011383]], [[-1.0450175709268188, 1.048057358753177], [0.3106186126489212, -0.30483869459363744]], [[-1.0450192382990182, 1.04805598633755], [0.31061558586466526, -0.30484144772743677]], [[-1.045020901262038, 1.0480546125525312], [0.31061256465095455, -0.3048442006518633]], [[-1.0450225598740028, 1.0480532374532057], [0.3106095489523828, -0.30484695331729067]], [[-1.045024214191927, 1.0480518610935505], [0.3106065387145755, -0.30484970567511843]], [[-1.0450258642717358, 1.0480504835264577], [0.31060353388416967, -0.30485245767775204]], [[-1.0450275101682873, 1.0480491048037544], [0.3106005344087942, -0.30485520927858295]], [[-1.045029151935393, 1.0480477249762243], [0.31059754023705044, -0.3048579604319694]], [[-1.0450307896258377, 1.0480463440936285], [0.3105945513184932, -0.30486071109321716]], [[-1.0450324232914012, 1.0480449622047243], [0.31059156760361206, -0.30486346121856134]], [[-1.0450340529828763, 1.0480435793572862], [0.3105885890438133, -0.3048662107651477]], [[-1.045035678750089, 1.0480421955981245], [0.31058561559140185, -0.3048689596910149]], [[-1.045037300641917, 1.0480408109731045], [0.3105826471995637, -0.3048717079550771]], [[-1.0450389187063085, 1.0480394255271648], [0.3105796838223487, -0.3048744555171066]], [[-1.0450405329903005, 1.0480380393043358], [0.3105767254146538, -0.304877202337717]], [[-1.045042143540036, 1.0480366523477573], [0.31057377193220653, -0.3048799483783466]], [[-1.0450437504007826, 1.048035264699696], [0.31057082333154845, -0.30488269360124237]], [[-1.0450453536169482, 1.0480338764015626], [0.31056787957001974, -0.304885437969444]], [[-1.0450469532320987, 1.0480324874939286], [0.3105649406057433, -0.30488818144676816]], [[-1.045048549288975, 1.048031098016543], [0.31056200639760945, -0.3048909239977933]], [[-1.0450501418295077, 1.0480297080083483], [0.31055907690526113, -0.30489366558784475]], [[-1.0450517308948342, 1.0480283175074958], [0.31055615208907905, -0.3048964061829801]], [[-1.045053316525313, 1.0480269265513622], [0.31055323191016737, -0.3048991457499745]], [[-1.0450548987605408, 1.0480255351765637], [0.3105503163303395, -0.3049018842563069]], [[-1.0450564776393652, 1.048024143418972], [0.31054740531210445, -0.30490462167014587]], [[-1.0450580531999007, 1.0480227513137281], [0.31054449881865304, -0.3049073579603364]], [[-1.0450596254795432, 1.0480213588952567], [0.3105415968138446, -0.30491009309638634]], [[-1.045061194514983, 1.0480199661972807], [0.31053869926219413, -0.30491282704845335]], [[-1.0450627603422193, 1.0480185732528347], [0.31053580612885934, -0.3049155597873323]], [[-1.045064322996574, 1.0480171800942786], [0.31053291737962807, -0.3049182912844426]], [[-1.0450658825127037, 1.0480157867533106], [0.31053003298090615, -0.3049210215118158]], [[-1.0450674389246144, 1.0480143932609807], [0.3105271528997053, -0.3049237504420841]], [[-1.0450689922656728, 1.0480129996477028], [0.3105242771036312, -0.3049264780484676]], [[-1.0450705425686198, 1.0480116059432678], [0.310521405560872, -0.3049292043047636]], [[-1.0450720898655819, 1.0480102121768553], [0.310518538240187, -0.30493192918533474]], [[-1.0450736341880837, 1.0480088183770457], [0.3105156751108954, -0.304934652665098]], [[-1.0450751755670595, 1.0480074245718327], [0.3105128161428655, -0.30493737471951393]], [[-1.0450767140328652, 1.0480060307886336], [0.310509961306504, -0.3049400953245758]], [[-1.0450782496152888, 1.0480046370543017], [0.31050711057274527, -0.304942814456799]], [[-1.0450797823435627, 1.0480032433951365], [0.3105042639130413, -0.30494553209321096]], [[-1.0450813122463731, 1.0480018498368955], [0.3105014212993516, -0.30494824821134103]], [[-1.045082839351872, 1.0480004564048038], [0.3104985827041332, -0.30495096278921063]], [[-1.0450843636876868, 1.0479990631235656], [0.3104957481003311, -0.3049536758053234]], [[-1.0450858852809306, 1.0479976700173737], [0.3104929174613685, -0.3049563872386558]], [[-1.045087404158213, 1.0479962771099196], [0.3104900907611378, -0.3049590970686479]], [[-1.0450889203456493, 1.047994884424404], [0.31048726797399134, -0.3049618052751939]], [[-1.0450904338688698, 1.0479934919835456], [0.3104844490747323, -0.30496451183863366]], [[-1.04509194475303, 1.0479920998095913], [0.3104816340386061, -0.30496721673974353]], [[-1.04509345302282, 1.0479907079243247], [0.31047882284129175, -0.304969919959728]], [[-1.0450949587024725, 1.0479893163490757], [0.31047601545889325, -0.3049726214802111]], [[-1.045096461815773, 1.0479879251047295], [0.3104732118679316, -0.3049753212832281]], [[-1.0450979623860677, 1.0479865342117352], [0.3104704120453364, -0.30497801935121754]], [[-1.0450994604362722, 1.0479851436901142], [0.3104676159684381, -0.30498071566701335]], [[-1.0451009559888806, 1.0479837535594687], [0.31046482361496003, -0.30498341021383674]], [[-1.0451024490659726, 1.0479823638389902], [0.310462034963011, -0.30498610297528883]], [[-1.0451039396892225, 1.0479809745474673], [0.3104592499910775, -0.30498879393534306]], [[-1.045105427879907, 1.0479795857032934], [0.3104564686780166, -0.30499148307833784]], [[-1.0451069136589124, 1.0479781973244753], [0.3104536910030484, -0.3049941703889694]], [[-1.0451083970467425, 1.0479768094286397], [0.3104509169457496, -0.30499685585228464]], [[-1.0451098780635264, 1.0479754220330417], [0.31044814648604585, -0.30499953945367436]], [[-1.0451113567290256, 1.0479740351545714], [0.3104453796042054, -0.3050022211788663]], [[-1.045112833062641, 1.0479726488097612], [0.31044261628083225, -0.30500490101391853]], [[-1.04511430708342, 1.0479712630147928], [0.3104398564968599, -0.305007578945213]], [[-1.0451157788100636, 1.047969877785505], [0.3104371002335444, -0.30501025495944917]], [[-1.045117248260933, 1.0479684931373991], [0.31043434747245874, -0.3050129290436376]], [[-1.0451187154540564, 1.047967109085646], [0.31043159819548616, -0.3050156011850938]], [[-1.045120180407135, 1.0479657256450932], [0.31042885238481444, -0.30501827137143245]], [[-1.0451216431375503, 1.0479643428302705], [0.31042611002292986, -0.30502093959056126]], [[-1.0451231036623694, 1.0479629606553968], [0.31042337109261137, -0.30502360583067517]], [[-1.0451245619983514, 1.0479615791343857], [0.31042063557692506, -0.30502627008025085]], [[-1.0451260181619537, 1.047960198280852], [0.3104179034592184, -0.30502893232804085]], [[-1.045127472169338, 1.0479588181081172], [0.3104151747231149, -0.30503159256306855]], [[-1.045128924036375, 1.0479574386292156], [0.3104124493525088, -0.30503425077462243]], [[-1.0451303737786517, 1.0479560598568995], [0.3104097273315594, -0.305036906952251]], [[-1.0451318214114755, 1.0479546818036451], [0.3104070086446867, -0.3050395610857576]], [[-1.0451332669498805, 1.047953304481658], [0.3104042932765655, -0.3050422131651953]], [[-1.0451347104086324, 1.0479519279028782], [0.3104015812121211, -0.30504486318086227]], [[-1.045136151802234, 1.0479505520789856], [0.31039887243652403, -0.3050475111232965]], [[-1.0451375911449303, 1.047949177021405], [0.31039616693518557, -0.30505015698327126]], [[-1.0451390284507132, 1.0479478027413114], [0.3103934646937529, -0.30505280075179053]], [[-1.0451404637333266, 1.0479464292496343], [0.31039076569810464, -0.30505544242008426]], [[-1.0451418970062718, 1.0479450565570632], [0.3103880699343463, -0.30505808197960393]], [[-1.045143328282811, 1.0479436846740517], [0.310385377388806, -0.30506071942201834]], [[-1.0451447575759736, 1.047942313610823], [0.31038268804802976, -0.3050633547392089]], [[-1.045146184898559, 1.0479409433773736], [0.31038000189877796, -0.30506598792326595]], [[-1.0451476102631423, 1.047939573983478], [0.3103773189280206, -0.30506861896648413]], [[-1.0451490336820781, 1.0479382054386934], [0.3103746391229335, -0.3050712478613586]], [[-1.045150455167505, 1.047936837752364], [0.31037196247089427, -0.30507387460058094]], [[-1.04515187473135, 1.0479354709336242], [0.31036928895947846, -0.3050764991770355]], [[-1.0451532923853322, 1.047934104991404], [0.3103666185764557, -0.3050791215837952]], [[-1.045154708140967, 1.0479327399344325], [0.3103639513097858, -0.30508174181411796]], [[-1.0451561220095698, 1.047931375771242], [0.31036128714761535, -0.30508435986144317]], [[-1.045157534002261, 1.0479300125101716], [0.31035862607827386, -0.30508697571938787]], [[-1.0451589441299682, 1.047928650159371], [0.3103559680902704, -0.30508958938174324]], [[-1.0451603524034314, 1.0479272887268047], [0.31035331317229, -0.30509220084247135]], [[-1.0451617588332054, 1.0479259282202553], [0.31035066131319033, -0.3050948100957015]], [[-1.0451631634296643, 1.047924568647327], [0.31034801250199845, -0.3050974171357271]], [[-1.0451645662030045, 1.0479232100154496], [0.31034536672790725, -0.30510002195700214]], [[-1.0451659671632485, 1.0479218523318814], [0.3103427239802726, -0.3051026245541384]], [[-1.0451673663202483, 1.0479204956037127], [0.3103400842486099, -0.30510522492190184]], [[-1.0451687636836884, 1.0479191398378693], [0.31033744752259135, -0.30510782305520995]], [[-1.045170159263089, 1.0479177850411159], [0.31033481379204253, -0.30511041894912855]], [[-1.04517155306781, 1.0479164312200588], [0.3103321830469398, -0.30511301259886875]], [[-1.0451729451070528, 1.0479150783811495], [0.31032955527740713, -0.3051156039997841]], [[-1.0451743353898646, 1.047913726530687], [0.31032693047371335, -0.30511819314736793]], [[-1.0451757239251407, 1.047912375674822], [0.3103243086262694, -0.30512078003725035]], [[-1.0451771107216274, 1.0479110258195592], [0.3103216897256257, -0.3051233646651956]], [[-1.0451784957879258, 1.0479096769707597], [0.3103190737624691, -0.3051259470270994]], [[-1.0451798791324933, 1.0479083291341442], [0.3103164607276206, -0.30512852711898625]], [[-1.0451812607636475, 1.0479069823152967], [0.31031385061203265, -0.30513110493700696]], [[-1.0451826406895681, 1.0479056365196657], [0.3103112434067867, -0.305133680477436]], [[-1.0451840189183002, 1.0479042917525678], [0.3103086391030905, -0.3051362537366692]], [[-1.0451853954577566, 1.04790294801919], [0.310306037692276, -0.30513882471122117]], [[-1.0451867703157203, 1.0479016053245922], [0.31030343916579667, -0.3051413933977229]], [[-1.0451881434998471, 1.0479002636737103], [0.31030084351522536, -0.30514395979291964]], [[-1.0451895150176684, 1.0478989230713578], [0.31029825073225187, -0.3051465238936684]], [[-1.0451908848765932, 1.0478975835222288], [0.3102956608086808, -0.30514908569693594]], [[-1.0451922530839104, 1.0478962450309004], [0.3102930737364294, -0.3051516451997962]], [[-1.0451936196467915, 1.0478949076018345], [0.31029048950752514, -0.30515420239942864]], [[-1.0451949845722923, 1.0478935712393804], [0.31028790811410406, -0.30515675729311564]], [[-1.0451963478673563, 1.0478922359477771], [0.3102853295484082, -0.3051593098782408]], [[-1.0451977095388152, 1.0478909017311557], [0.3102827538027839, -0.3051618601522867]], [[-1.0451990695933926, 1.0478895685935408], [0.31028018086967973, -0.30516440811283296]], [[-1.0452004280377054, 1.0478882365388533], [0.3102776107416444, -0.3051669537575544]], [[-1.0452017848782655, 1.0478869055709124], [0.31027504341132495, -0.30516949708421914]], [[-1.045203140121483, 1.047885575693437], [0.31027247887146503, -0.3051720380906864]], [[-1.0452044937736664, 1.0478842469100487], [0.31026991711490276, -0.3051745767749049]], [[-1.0452058458410267, 1.0478829192242725], [0.3102673581345691, -0.30517711313491125]], [[-1.0452071963296774, 1.0478815926395397], [0.3102648019234861, -0.30517964716882784]], [[-1.0452085452456374, 1.0478802671591898], [0.31026224847476497, -0.3051821788748614]], [[-1.0452098925948325, 1.0478789427864714], [0.3102596977816046, -0.30518470825130095]], [[-1.0452112383830978, 1.047877619524545], [0.3102571498372898, -0.3051872352965164]], [[-1.0452125826161782, 1.047876297376484], [0.31025460463518967, -0.3051897600089571]], [[-1.0452139252997312, 1.0478749763452766], [0.310252062168756, -0.3051922823871497]], [[-1.0452152664393286, 1.0478736564338285], [0.3102495224315217, -0.305194802429697]], [[-1.0452166060404573, 1.0478723376449626], [0.3102469854170992, -0.3051973201352763]], [[-1.0452179441085216, 1.0478710199814225], [0.3102444511191791, -0.30519983550263796]], [[-1.0452192806488452, 1.047869703445873], [0.3102419195315284, -0.3052023485306038]], [[-1.0452206156666712, 1.047868388040902], [0.3102393906479894, -0.30520485921806567]], [[-1.0452219491671657, 1.0478670737690223], [0.31023686446247795, -0.30520736756398414]], [[-1.0452232811554174, 1.0478657606326722], [0.31023434096898234, -0.30520987356738705]], [[-1.0452246116364405, 1.0478644486342181], [0.3102318201615617, -0.305212377227368]], [[-1.0452259406151756, 1.0478631377759555], [0.3102293020343448, -0.30521487854308527]], [[-1.0452272680964907, 1.0478618280601097], [0.31022678658152864, -0.3052173775137604]], [[-1.0452285940851833, 1.0478605194888386], [0.3102242737973772, -0.3052198741386767]], [[-1.0452299185859812, 1.047859212064233], [0.31022176367622023, -0.3052223684171784]], [[-1.0452312416035443, 1.0478579057883177], [0.31021925621245194, -0.3052248603486692]], [[-1.0452325631424657, 1.0478566006630543], [0.3102167514005298, -0.3052273499326108]], [[-1.045233883207273, 1.047855296690341], [0.31021424923497326, -0.3052298371685222]], [[-1.0452352018024291, 1.047853993872014], [0.3102117497103628, -0.30523232205597817]], [[-1.0452365189323345, 1.04785269220985], [0.3102092528213385, -0.3052348045946083]], [[-1.0452378346013276, 1.0478513917055654], [0.31020675856259927, -0.30523728478409573]], [[-1.0452391488136863, 1.0478500923608198], [0.31020426692890135, -0.3052397626241763]], [[-1.0452404615736286, 1.047848794177215], [0.31020177791505754, -0.3052422381146372]], [[-1.0452417728853147, 1.0478474971562977], [0.310199291515936, -0.305244711255316]], [[-1.0452430827528476, 1.0478462012995595], [0.31019680772645913, -0.30524718204609974]], [[-1.0452443911802736, 1.0478449066084388], [0.31019432654160284, -0.3052496504869238]], [[-1.0452456981715845, 1.0478436130843216], [0.31019184795639526, -0.3052521165777709]], [[-1.0452470037307182, 1.0478423207285426], [0.3101893719659159, -0.30525458031867014]], [[-1.045248307861559, 1.0478410295423857], [0.3101868985652946, -0.30525704170969603]], [[-1.0452496105679403, 1.047839739527086], [0.31018442774971067, -0.3052595007509677]], [[-1.0452509118536435, 1.0478384506838299], [0.310181959514392, -0.3052619574426478]], [[-1.0452522117224006, 1.0478371630137568], [0.310179493854614, -0.30526441178494157]], [[-1.0452535101778944, 1.0478358765179594], [0.310177030765699, -0.30526686377809625]], [[-1.0452548072237597, 1.0478345911974847], [0.3101745702430151, -0.30526931342239993]], [[-1.0452561028635843, 1.0478333070533357], [0.3101721122819752, -0.3052717607181807]], [[-1.0452573971009096, 1.0478320240864711], [0.3101696568780367, -0.305274205665806]], [[-1.0452586899392315, 1.0478307422978075], [0.3101672040267002, -0.30527664826568174]], [[-1.0452599813820016, 1.0478294616882189], [0.3101647537235089, -0.3052790885182514]], [[-1.0452612714326275, 1.0478281822585387], [0.3101623059640476, -0.30528152642399536]], [[-1.0452625600944745, 1.0478269040095598], [0.3101598607439423, -0.3052839619834301]], [[-1.0452638473708653, 1.0478256269420356], [0.31015741805885916, -0.3052863951971075]], [[-1.045265133265082, 1.0478243510566811], [0.3101549779045038, -0.30528882606561386]], [[-1.0452664177803657, 1.0478230763541734], [0.31015254027662065, -0.30529125458956957]], [[-1.0452677009199183, 1.047821802835152], [0.3101501051709921, -0.3052936807696281]], [[-1.0452689826869024, 1.0478205305002208], [0.310147672583438, -0.3052961046064754]], [[-1.0452702630844426, 1.0478192593499478], [0.31014524250981484, -0.3052985261008292]], [[-1.045271542115626, 1.0478179893848658], [0.310142814946015, -0.30530094525343837]], [[-1.045272819783503, 1.0478167206054738], [0.3101403898879663, -0.30530336206508224]], [[-1.0452740960910882, 1.047815453012237], [0.3101379673316312, -0.30530577653657004]], [[-1.0452753710413605, 1.0478141866055881], [0.3101355472730062, -0.3053081886687401]], [[-1.045276644637264, 1.0478129213859275], [0.31013312970812124, -0.3053105984624594]], [[-1.0452779168817092, 1.047811657353624], [0.31013071463303904, -0.30531300591862287]], [[-1.045279187777573, 1.0478103945090158], [0.3101283020438546, -0.30531541103815285]], [[-1.0452804573276993, 1.0478091328524108], [0.31012589193669454, -0.3053178138219984]], [[-1.0452817255349003, 1.0478078723840871], [0.3101234843077164, -0.305320214271135]], [[-1.0452829924019562, 1.047806613104294], [0.3101210791531085, -0.3053226123865636]], [[-1.0452842579316168, 1.0478053550132522], [0.31011867646908875, -0.30532500816931046]], [[-1.045285522126601, 1.047804098111155], [0.31011627625190474, -0.3053274016204262]], [[-1.0452867849895984, 1.0478028423981676], [0.3101138784978328, -0.3053297927409857]], [[-1.0452880465232688, 1.0478015878744293], [0.3101114832031776, -0.30533218153208735]], [[-1.0452893067302438, 1.0478003345400533], [0.3101090903642717, -0.30533456799485253]], [[-1.0452905656131266, 1.0477990823951264], [0.310106699977475, -0.3053369521304252]], [[-1.045291823174493, 1.047797831439711], [0.3101043120391741, -0.3053393339399715]], [[-1.0452930794168915, 1.0477965816738444], [0.31010192654578217, -0.30534171342467875]], [[-1.0452943343428442, 1.0477953330975402], [0.31009954349373814, -0.30534409058575585]], [[-1.0452955879548471, 1.0477940857107884], [0.31009716287950645, -0.3053464654244321]], [[-1.0452968402553702, 1.0477928395135556], [0.31009478469957646, -0.30534883794195716]], [[-1.0452980912468588, 1.047791594505786], [0.31009240895046203, -0.3053512081396003]], [[-1.0452993409317337, 1.047790350687402], [0.3100900356287011, -0.3053535760186502]], [[-1.045300589312391, 1.0477891080583035], [0.31008766473085536, -0.3053559415804145]], [[-1.0453018363912032, 1.0477878666183698], [0.3100852962535098, -0.30535830482621934]], [[-1.0453030821705196, 1.0477866263674591], [0.310082930193272, -0.30536066575740883]], [[-1.0453043266526667, 1.0477853873054093], [0.31008056654677213, -0.30536302437534485]], [[-1.0453055698399485, 1.0477841494320381], [0.3100782053106625, -0.3053653806814066]], [[-1.0453068117346467, 1.0477829127471443], [0.3100758464816169, -0.30536773467699024]], [[-1.045308052339022, 1.0477816772505069], [0.3100734900563304, -0.3053700863635084]], [[-1.045309291655313, 1.0477804429418864], [0.31007113603151903, -0.3053724357423898]], [[-1.0453105296857383, 1.0477792098210252], [0.31006878440391933, -0.30537478281507924]], [[-1.0453117664324958, 1.0477779778876475], [0.310066435170288, -0.30537712758303676]], [[-1.045313001897763, 1.0477767471414596], [0.3100640883274015, -0.3053794700477376]], [[-1.0453142360836982, 1.047775517582151], [0.31006174387205593, -0.30538181021067173]], [[-1.04531546899244, 1.0477742892093944], [0.3100594018010664, -0.3053841480733436]], [[-1.0453167006261084, 1.0477730620228458], [0.31005706211126677, -0.30538648363727167]], [[-1.0453179309868041, 1.0477718360221449], [0.3100547247995096, -0.3053888169039885]], [[-1.0453191600766103, 1.0477706112069158], [0.3100523898626653, -0.3053911478750398]], [[-1.0453203878975919, 1.047769387576767], [0.31005005729762247, -0.30539347655198457]], [[-1.0453216144517958, 1.047768165131292], [0.31004772710128703, -0.30539580293639473]], [[-1.0453228397412526, 1.0477669438700692], [0.3100453992705821, -0.30539812702985475]], [[-1.0453240637679748, 1.0477657237926625], [0.310043073802448, -0.30540044883396134]], [[-1.045325286533959, 1.047764504898622], [0.3100407506938414, -0.3054027683503233]], [[-1.045326508041185, 1.0477632871874833], [0.31003842994173564, -0.3054050855805611]], [[-1.045327728291617, 1.0477620706587687], [0.31003611154312, -0.30540740052630666]], [[-1.0453289472872025, 1.047760855311987], [0.31003379549499954, -0.305409713189203]], [[-1.0453301650298745, 1.0477596411466343], [0.31003148179439505, -0.3054120235709043]], [[-1.0453313815215504, 1.0477584281621934], [0.31002917043834244, -0.3054143316730752]], [[-1.0453325967641327, 1.0477572163581352], [0.31002686142389274, -0.3054166374973908]], [[-1.0453338107595092, 1.0477560057339177], [0.31002455474811186, -0.3054189410455364]], [[-1.0453350235095533, 1.0477547962889873], [0.31002225040808007, -0.3054212423192072]], [[-1.0453362350161242, 1.0477535880227786], [0.3100199484008921, -0.30542354132010807]], [[-1.0453374452810673, 1.0477523809347151], [0.3100176487236566, -0.3054258380499533]], [[-1.0453386543062144, 1.0477511750242086], [0.31001535137349623, -0.30542813251046663]], [[-1.0453398620933838, 1.0477499702906599], [0.3100130563475471, -0.30543042470338055]], [[-1.0453410686443807, 1.0477487667334595], [0.31001076364295876, -0.3054327146304364]], [[-1.0453422739609972, 1.0477475643519871], [0.31000847325689396, -0.3054350022933841]], [[-1.0453434780450133, 1.047746363145612], [0.3100061851865283, -0.30543728769398193]], [[-1.0453446808981957, 1.047745163113694], [0.31000389942905016, -0.30543957083399637]], [[-1.0453458825222994, 1.0477439642555824], [0.3100016159816605, -0.3054418517152017]], [[-1.0453470829190676, 1.0477427665706172], [0.3099993348415725, -0.30544413033938017]], [[-1.0453482820902311, 1.0477415700581292], [0.3099970560060116, -0.30544640670832146]], [[-1.0453494800375094, 1.0477403747174394], [0.30999477947221504, -0.3054486808238226]], [[-1.0453506767626104, 1.0477391805478604], [0.3099925052374319, -0.3054509526876878]], [[-1.0453518722672313, 1.0477379875486958], [0.30999023329892267, -0.3054532223017283]], [[-1.0453530665530577, 1.0477367957192407], [0.30998796365395936, -0.30545548966776215]], [[-1.0453542596217646, 1.0477356050587816], [0.3099856962998251, -0.3054577547876141]], [[-1.0453554514750167, 1.0477344155665966], [0.30998343123381406, -0.30546001766311526]], [[-1.045356642114468, 1.0477332272419564], [0.3099811684532312, -0.30546227829610306]], [[-1.0453578315417622, 1.047732040084123], [0.3099789079553922, -0.30546453668842116]], [[-1.045359019758533, 1.0477308540923516], [0.3099766497376231, -0.3054667928419191]], [[-1.0453602067664043, 1.047729669265889], [0.30997439379726055, -0.3054690467584522]], [[-1.04536139256699, 1.0477284856039755], [0.30997214013165114, -0.3054712984398816]], [[-1.0453625771618948, 1.0477273031058434], [0.3099698887381515, -0.30547354788807374]], [[-1.045363760552714, 1.0477261217707186], [0.3099676396141282, -0.3054757951049005]], [[-1.0453649427410334, 1.04772494159782], [0.30996539275695756, -0.3054780400922391]], [[-1.04536612372843, 1.0477237625863598], [0.30996314816402537, -0.3054802828519716]], [[-1.0453673035164714, 1.0477225847355434], [0.30996090583272684, -0.30548252338598514]], [[-1.045368482106717, 1.04772140804457], [0.3099586657604665, -0.30548476169617156]], [[-1.0453696595007176, 1.0477202325126327], [0.309956427944658, -0.3054869977844274]], [[-1.045370835700015, 1.0477190581389182], [0.30995419238272404, -0.3054892316526537]], [[-1.0453720107061433, 1.0477178849226074], [0.30995195907209605, -0.3054914633027558]], [[-1.045373184520628, 1.0477167128628757], [0.3099497280102143, -0.3054936927366434]], [[-1.0453743571449865, 1.0477155419588922], [0.30994749919452774, -0.3054959199562304]], [[-1.0453755285807287, 1.0477143722098206], [0.30994527262249355, -0.3054981449634345]], [[-1.0453766988293565, 1.0477132036148193], [0.30994304829157754, -0.3055003677601775]], [[-1.0453778678923642, 1.0477120361730416], [0.30994082619925356, -0.3055025883483849]], [[-1.0453790357712385, 1.0477108698836353], [0.3099386063430036, -0.3055048067299858]], [[-1.045380202467459, 1.0477097047457433], [0.30993638872031765, -0.3055070229069129]], [[-1.0453813679824975, 1.0477085407585036], [0.30993417332869366, -0.3055092368811023]], [[-1.0453825323178192, 1.0477073779210493], [0.30993196016563723, -0.3055114486544935]], [[-1.0453836954748819, 1.0477062162325088], [0.3099297492286617, -0.30551365822902904]], [[-1.0453848574551365, 1.047705055692006], [0.30992754051528787, -0.30551586560665484]], [[-1.0453860182600276, 1.0477038962986602], [0.309925334023044, -0.30551807078931964]], [[-1.0453871778909927, 1.0477027380515866], [0.3099231297494658, -0.3055202737789751]], [[-1.0453883363494625, 1.047701580949896], [0.309920927692096, -0.30552247457757586]], [[-1.0453894936368617, 1.047700424992695], [0.3099187278484846, -0.30552467318707904]], [[-1.0453906497546086, 1.047699270179086], [0.30991653021618865, -0.3055268696094445]], [[-1.045391804704115, 1.0476981165081678], [0.3099143347927721, -0.30552906384663464]], [[-1.0453929584867867, 1.0476969639790352], [0.30991214157580566, -0.3055312559006143]], [[-1.0453941111040232, 1.0476958125907794], [0.30990995056286685, -0.30553344577335073]], [[-1.0453952625572183, 1.0476946623424876], [0.30990776175153995, -0.30553563346681334]], [[-1.0453964128477597, 1.047693513233244], [0.3099055751394156, -0.3055378189829737]], [[-1.04539756197703, 1.0476923652621286], [0.309903390724091, -0.3055400023238056]], [[-1.045398709946405, 1.0476912184282186], [0.3099012085031699, -0.30554218349128476]], [[-1.0453998567572558, 1.0476900727305876], [0.3098990284742621, -0.30554436248738887]], [[-1.0454010024109477, 1.0476889281683062], [0.3098968506349838, -0.30554653931409737]], [[-1.0454021469088406, 1.0476877847404416], [0.30989467498295725, -0.3055487139733917]], [[-1.045403290252289, 1.0476866424460582], [0.30989250151581077, -0.3055508864672548]], [[-1.0454044324426421, 1.0476855012842177], [0.30989033023117873, -0.3055530567976713]], [[-1.0454055734812444, 1.0476843612539783], [0.3098881611267013, -0.3055552249666274]], [[-1.0454067133694347, 1.047683222354396], [0.30988599420002466, -0.30555739097611084]], [[-1.045407852108547, 1.0476820845845232], [0.3098838294488006, -0.3055595548281107]], [[-1.0454089896999106, 1.0476809479434106], [0.3098816668706866, -0.3055617165246174]], [[-1.0454101261448494, 1.047679812430106], [0.30987950646334583, -0.3055638760676227]], [[-1.0454112614446833, 1.0476786780436547], [0.3098773482244469, -0.30556603345911953]], [[-1.0454123956007269, 1.0476775447830993], [0.3098751921516641, -0.30556818870110203]], [[-1.0454135286142903, 1.0476764126474802], [0.3098730382426768, -0.30557034179556536]], [[-1.045414660486679, 1.047675281635836], [0.30987088649517003, -0.3055724927445057]], [[-1.0454157912191941, 1.047674151747202], [0.309868736906834, -0.3055746415499203]], [[-1.0454169208131325, 1.0476730229806122], [0.309866589475364, -0.3055767882138072]], [[-1.0454180492697862, 1.0476718953350983], [0.30986444419846065, -0.3055789327381654]], [[-1.045419176590443, 1.0476707688096898], [0.30986230107382956, -0.3055810751249946]], [[-1.0454203027763869, 1.0476696434034145], [0.30986016009918144, -0.30558321537629535]], [[-1.0454214278288974, 1.047668519115298], [0.30985802127223194, -0.30558535349406873]], [[-1.0454225517492497, 1.0476673959443639], [0.3098558845907017, -0.3055874894803166]], [[-1.0454236745387155, 1.0476662738896345], [0.30985375005231597, -0.30558962333704126]], [[-1.0454247961985619, 1.04766515295013], [0.3098516176548052, -0.3055917550662457]], [[-1.0454259167300526, 1.047664033124869], [0.3098494873959042, -0.30559388466993326]], [[-1.0454270361344469, 1.0476629144128684], [0.3098473592733527, -0.3055960121501078]], [[-1.0454281544130004, 1.0476617968131436], [0.3098452332848951, -0.3055981375087734]], [[-1.0454292715669653, 1.0476606803247084], [0.30984310942828025, -0.30560026074793467]], [[-1.0454303875975897, 1.0476595649465752], [0.3098409877012616, -0.3056023818695964]], [[-1.045431502506118, 1.0476584506777546], [0.3098388681015972, -0.30560450087576363]], [[-1.0454326162937915, 1.0476573375172564], [0.3098367506270494, -0.30560661776844167]], [[-1.0454337289618474, 1.0476562254640889], [0.30983463527538496, -0.30560873254963583]], [[-1.0454348405115195, 1.0476551145172586], [0.3098325220443751, -0.30561084522135173]], [[-1.045435950944038, 1.0476540046757714], [0.30983041093179525, -0.3056129557855949]], [[-1.04543706026063, 1.0476528959386315], [0.3098283019354251, -0.30561506424437096]], [[-1.045438168462519, 1.0476517883048426], [0.3098261950530486, -0.30561717059968546]], [[-1.0454392755509252, 1.0476506817734066], [0.30982409028245383, -0.30561927485354407]], [[-1.0454403815270656, 1.0476495763433247], [0.3098219876214331, -0.3056213770079522]], [[-1.045441486392154, 1.0476484720135968], [0.30981988706778263, -0.3056234770649152]], [[-1.0454425901474007, 1.0476473687832222], [0.3098177886193028, -0.3056255750264383]], [[-1.0454436927940132, 1.047646266651199], [0.30981569227379807, -0.3056276708945264]], [[-1.0454447943331957, 1.0476451656165242], [0.3098135980290767, -0.3056297646711843]], [[-1.0454458947661494, 1.0476440656781945], [0.30981150588295103, -0.3056318563584165]], [[-1.045446994094072, 1.0476429668352052], [0.3098094158332372, -0.3056339459582272]], [[-1.045448092318159, 1.0476418690865512], [0.30980732787775517, -0.3056360334726202]], [[-1.0454491894396025, 1.0476407724312264], [0.3098052420143288, -0.305638118903599]], [[-1.0454502854595917, 1.0476396768682241], [0.30980315824078575, -0.3056402022531667]], [[-1.045451380379313, 1.0476385823965368], [0.3098010765549574, -0.3056422835233259]], [[-1.0454524741999498, 1.0476374890151565], [0.30979899695467883, -0.3056443627160789]], [[-1.0454535669226828, 1.0476363967230744], [0.3097969194377887, -0.3056464398334274]], [[-1.04545465854869, 1.047635305519281], [0.3097948440021295, -0.3056485148773725]], [[-1.0454557490791463, 1.047634215402767], [0.3097927706455471, -0.3056505878499149]], [[-1.0454568385152243, 1.0476331263725214], [0.3097906993658912, -0.30565265875305464]], [[-1.0454579268580937, 1.0476320384275335], [0.30978863016101493, -0.3056547275887912]], [[-1.0454590141089217, 1.047630951566792], [0.3097865630287749, -0.3056567943591234]], [[-1.0454601002688728, 1.0476298657892853], [0.3097844979670313, -0.3056588590660494]], [[-1.045461185339109, 1.047628781094001], [0.30978243497364766, -0.3056609217115667]], [[-1.0454622693207893, 1.0476276974799266], [0.3097803740464911, -0.3056629822976722]], [[-1.045463352215071, 1.0476266149460491], [0.30977831518343196, -0.3056650408263618]], [[-1.045464434023108, 1.0476255334913553], [0.30977625838234407, -0.30566709729963093]], [[-1.0454655147460528, 1.0476244531148318], [0.30977420364110453, -0.30566915171947406]], [[-1.0454665943850543, 1.0476233738154643], [0.3097721509575938, -0.30567120408788495]], [[-1.0454676729412598, 1.0476222955922392], [0.30977010032969565, -0.3056732544068565]], [[-1.0454687504158136, 1.047621218444142], [0.30976805175529704, -0.3056753026783807]], [[-1.0454698268098583, 1.0476201423701583], [0.30976600523228826, -0.3056773489044488]], [[-1.0454709021245339, 1.0476190673692736], [0.3097639607585627, -0.3056793930870511]], [[-1.0454719763609777, 1.0476179934404728], [0.3097619183320171, -0.305681435228177]], [[-1.0454730495203255, 1.047616920582741], [0.30975987795055115, -0.3056834753298149]], [[-1.0454741216037102, 1.0476158487950633], [0.3097578396120679, -0.30568551339395234]], [[-1.0454751926122627, 1.0476147780764244], [0.3097558033144733, -0.30568754942257587]], [[-1.0454762625471117, 1.0476137084258093], [0.30975376905567653, -0.305689583417671]], [[-1.0454773314093837, 1.0476126398422025], [0.3097517368335898, -0.30569161538122236]], [[-1.045478399200203, 1.0476115723245891], [0.30974970664612844, -0.30569364531521337]], [[-1.045479465920692, 1.0476105058719536], [0.3097476784912107, -0.3056956732216266]], [[-1.0454805315719706, 1.047609440483281], [0.30974565236675794, -0.3056976991024434]], [[-1.045481596155157, 1.0476083761575559], [0.30974362827069435, -0.3056997229596441]], [[-1.0454826596713667, 1.0476073128937633], [0.3097416062009472, -0.305701744795208]], [[-1.045483722121714, 1.047606250690888], [0.3097395861554467, -0.30570376461111326]], [[-1.0454847835073104, 1.0476051895479153], [0.30973756813212594, -0.3057057824093368]], [[-1.045485843829266, 1.04760412946383], [0.3097355521289209, -0.30570779819185456]], [[-1.0454869030886884, 1.047603070437618], [0.30973353814377047, -0.30570981196064123]], [[-1.0454879612866836, 1.0476020124682641], [0.30973152617461647, -0.30571182371767036]], [[-1.0454890184243555, 1.0476009555547543], [0.3097295162194034, -0.30571383346491426]], [[-1.045490074502806, 1.0475998996960743], [0.3097275082760788, -0.30571584120434414]], [[-1.045491129523135, 1.04759884489121], [0.3097255023425929, -0.30571784693792997]], [[-1.0454921834864408, 1.0475977911391476], [0.3097234984168986, -0.30571985066764035]], [[-1.0454932363938196, 1.0475967384388738], [0.30972149649695185, -0.3057218523954428]], [[-1.045494288246366, 1.047595686789375], [0.30971949658071113, -0.3057238521233036]], [[-1.0454953390451724, 1.0475946361896382], [0.30971749866613774, -0.3057258498531876]], [[-1.0454963887913296, 1.0475935866386508], [0.3097155027511957, -0.30572784558705857]], [[-1.0454974374859263, 1.0475925381354], [0.30971350883385185, -0.3057298393268788]], [[-1.0454984851300497, 1.047591490678874], [0.3097115169120755, -0.30573183107460944]], [[-1.045499531724785, 1.0475904442680606], [0.3097095269838388, -0.3057338208322102]], [[-1.045500577271216, 1.0475893989019482], [0.3097075390471165, -0.3057358086016395]], [[-1.0455016217704245, 1.047588354579526], [0.309705553099886, -0.3057377943848545]], [[-1.0455026652234904, 1.0475873112997827], [0.30970356914012737, -0.30573977818381093]], [[-1.0455037076314921, 1.047586269061708], [0.3097015871658233, -0.30574176000046316]], [[-1.0455047489955063, 1.0475852278642919], [0.3096996071749589, -0.3057437398367642]], [[-1.0455057893166078, 1.0475841877065244], [0.3096976291655222, -0.3057457176946657]], [[-1.0455068285958697, 1.0475831485873965], [0.30969565313550357, -0.30574769357611786]], [[-1.045507866834364, 1.0475821105058991], [0.30969367908289597, -0.3057496674830696]], [[-1.0455089040331604, 1.0475810734610238], [0.30969170700569487, -0.30575163941746836]], [[-1.0455099401933272, 1.0475800374517628], [0.30968973690189844, -0.30575360938126017]], [[-1.045510975315931, 1.0475790024771081], [0.30968776876950727, -0.30575557737638964]], [[-1.045512009402037, 1.047577968536053], [0.30968580260652445, -0.30575754340479994]], [[-1.0455130424527084, 1.0475769356275904], [0.30968383841095554, -0.3057595074684327]], [[-1.0455140744690072, 1.0475759037507144], [0.3096818761808086, -0.3057614695692283]], [[-1.0455151054519938, 1.0475748729044192], [0.3096799159140942, -0.3057634297091255]], [[-1.0455161354027267, 1.0475738430876997], [0.3096779576088254, -0.30576538789006164]], [[-1.0455171643222632, 1.0475728142995513], [0.3096760012630176, -0.30576734411397255]], [[-1.0455181922116588, 1.0475717865389695], [0.3096740468746887, -0.3057692983827927]], [[-1.0455192190719675, 1.047570759804951], [0.30967209444185906, -0.30577125069845495]], [[-1.045520244904242, 1.0475697340964927], [0.3096701439625514, -0.3057732010628907]], [[-1.0455212697095333, 1.0475687094125916], [0.3096681954347908, -0.3057751494780298]], [[-1.045522293488891, 1.0475676857522462], [0.3096662488566049, -0.30577709594580066]], [[-1.045523316243363, 1.047566663114455], [0.30966430422602353, -0.3057790404681301]], [[-1.045524337973996, 1.0475656414982166], [0.309662361541079, -0.3057809830469435]], [[-1.045525358681835, 1.0475646209025313], [0.30966042079980605, -0.30578292368416465]], [[-1.0455263783679234, 1.0475636013263991], [0.30965848200024154, -0.3057848623817158]], [[-1.0455273970333037, 1.0475625827688209], [0.3096565451404249, -0.3057867991415177]], [[-1.0455284146790165, 1.0475615652287982], [0.30965461021839774, -0.30578873396548945]], [[-1.0455294313061012, 1.047560548705333], [0.3096526772322041, -0.30579066685554873]], [[-1.0455304469155957, 1.0475595331974281], [0.30965074617989025, -0.30579259781361157]], [[-1.0455314615085363, 1.0475585187040868], [0.3096488170595049, -0.30579452684159253]], [[-1.045532475085958, 1.047557505224313], [0.3096468898690989, -0.3057964539414044]], [[-1.0455334876488946, 1.0475564927571113], [0.30964496460672536, -0.3057983791149586]], [[-1.0455344991983784, 1.047555481301487], [0.30964304127043984, -0.3058003023641649]], [[-1.0455355097354402, 1.0475544708564455], [0.3096411198583001, -0.3058022236909314]], [[-1.0455365192611095, 1.0475534614209938], [0.3096392003683661, -0.30580414309716475]], [[-1.0455375277764145, 1.0475524529941391], [0.30963728279870006, -0.3058060605847699]], [[-1.045538535282382, 1.0475514455748889], [0.30963536714736656, -0.3058079761556503]], [[-1.0455395417800375, 1.0475504391622519], [0.3096334534124322, -0.3058098898117077]], [[-1.0455405472704051, 1.0475494337552371], [0.309631541591966, -0.3058118015548422]], [[-1.0455415517545075, 1.0475484293528547], [0.30962963168403906, -0.30581371138695246]], [[-1.0455425552333661, 1.047547425954115], [0.30962772368672487, -0.30581561930993534]], [[-1.0455435577080012, 1.0475464235580294], [0.30962581759809893, -0.3058175253256862]], [[-1.0455445591794315, 1.0475454221636096], [0.30962391341623907, -0.3058194294360987]], [[-1.0455455596486745, 1.0475444217698682], [0.3096220111392252, -0.30582133164306496]], [[-1.0455465591167463, 1.0475434223758189], [0.3096201107651395, -0.3058232319484754]], [[-1.045547557584662, 1.0475424239804756], [0.30961821229206626, -0.30582513035421877]], [[-1.0455485550534351, 1.0475414265828529], [0.30961631571809195, -0.3058270268621823]], [[-1.045549551524078, 1.0475404301819664], [0.30961442104130527, -0.3058289214742515]], [[-1.0455505469976019, 1.0475394347768325], [0.30961252825979696, -0.3058308141923102]], [[-1.0455515414750165, 1.047538440366468], [0.30961063737165995, -0.3058327050182406]], [[-1.0455525349573305, 1.0475374469498906], [0.3096087483749893, -0.3058345939539234]], [[-1.045553527445551, 1.0475364545261188], [0.3096068612678822, -0.3058364810012374]], [[-1.0455545189406843, 1.0475354630941716], [0.3096049760484381, -0.3058383661620599]], [[-1.045555509443735, 1.0475344726530689], [0.30960309271475833, -0.30584024943826654]], [[-1.045556498955707, 1.0475334832018315], [0.30960121126494644, -0.30584213083173123]], [[-1.0455574874776024, 1.0475324947394808], [0.3095993316971082, -0.3058440103443262]], [[-1.0455584750104223, 1.0475315072650389], [0.3095974540093513, -0.30584588797792206]], [[-1.0455594615551669, 1.0475305207775287], [0.3095955781997856, -0.3058477637343878]], [[-1.0455604471128346, 1.0475295352759741], [0.3095937042665231, -0.30584963761559075]], [[-1.045561431684423, 1.0475285507593994], [0.3095918322076778, -0.30585150962339636]], [[-1.0455624152709284, 1.0475275672268298], [0.30958996202136574, -0.3058533797596686]], [[-1.045563397873346, 1.0475265846772914], [0.30958809370570517, -0.3058552480262697]], [[-1.0455643794926697, 1.047525603109811], [0.3095862272588163, -0.3058571144250602]], [[-1.045565360129892, 1.0475246225234163], [0.30958436267882145, -0.3058589789578991]], [[-1.0455663397860047, 1.0475236429171355], [0.3095824999638449, -0.3058608416266435]], [[-1.045567318461998, 1.0475226642899977], [0.3095806391120131, -0.3058627024331489]], [[-1.0455682961588613, 1.0475216866410328], [0.3095787801214545, -0.30586456137926915]], [[-1.0455692728775825, 1.0475207099692718], [0.30957692299029954, -0.3058664184668563]], [[-1.0455702486191483, 1.0475197342737461], [0.3095750677166807, -0.3058682736977609]], [[-1.0455712233845447, 1.0475187595534878], [0.3095732142987326, -0.30587012707383165]], [[-1.045572197174756, 1.0475177858075302], [0.3095713627345916, -0.3058719785969156]], [[-1.0455731699907658, 1.0475168130349073], [0.3095695130223965, -0.3058738282688581]], [[-1.0455741418335562, 1.0475158412346537], [0.3095676651602877, -0.30587567609150285]], [[-1.0455751127041084, 1.0475148704058048], [0.3095658191464079, -0.30587752206669183]], [[-1.0455760826034024, 1.0475139005473972], [0.3095639749789016, -0.3058793661962652]], [[-1.045577051532417, 1.047512931658468], [0.3095621326559154, -0.3058812084820617]], [[-1.04557801949213, 1.047511963738055], [0.30956029217559794, -0.305883048925918]], [[-1.045578986483518, 1.047510996785197], [0.30955845353609973, -0.3058848875296694]], [[-1.0455799525075566, 1.0475100307989338], [0.3095566167355733, -0.3058867242951494]], [[-1.04558091756522, 1.0475090657783057], [0.3095547817721731, -0.30588855922418967]], [[-1.0455818816574813, 1.047508101722354], [0.30955294864405575, -0.30589039231862025]], [[-1.0455828447853128, 1.0475071386301207], [0.3095511173493796, -0.3058922235802696]], [[-1.0455838069496857, 1.0475061765006488], [0.3095492878863052, -0.3058940530109643]], [[-1.0455847681515698, 1.047505215332982], [0.30954746025299484, -0.30589588061252926]], [[-1.0455857283919339, 1.0475042551261646], [0.3095456344476129, -0.3058977063867878]], [[-1.0455866876717457, 1.0475032958792423], [0.3095438104683257, -0.3058995303355614]], [[-1.045587645991972, 1.047502337591261], [0.3095419883133014, -0.3059013524606698]], [[-1.0455886033535784, 1.0475013802612683], [0.30954016798071016, -0.3059031727639312]], [[-1.0455895597575293, 1.0475004238883114], [0.30953834946872416, -0.30590499124716203]], [[-1.0455905152047882, 1.0474994684714396], [0.30953653277551746, -0.3059068079121769]], [[-1.0455914696963173, 1.047498514009702], [0.30953471789926607, -0.3059086227607888]], [[-1.045592423233078, 1.0474975605021493], [0.3095329048381478, -0.305910435794809]], [[-1.0455933758160303, 1.0474966079478325], [0.3095310935903426, -0.3059122470160471]], [[-1.0455943274461335, 1.047495656345804], [0.3095292841540321, -0.3059140564263109]], [[-1.0455952781243456, 1.0474947056951165], [0.30952747652740004, -0.3059158640274066]], [[-1.0455962278516238, 1.0474937559948239], [0.30952567070863196, -0.30591766982113855]], [[-1.0455971766289238, 1.0474928072439806], [0.3095238666959154, -0.3059194738093095]], [[-1.0455981244572006, 1.0474918594416422], [0.3095220644874398, -0.3059212759937205]], [[-1.045599071337408, 1.0474909125868652], [0.3095202640813963, -0.3059230763761707]], [[-1.0456000172704987, 1.0474899666787065], [0.30951846547597817, -0.3059248749584578]], [[-1.0456009622574245, 1.0474890217162243], [0.3095166686693805, -0.30592667174237764]], [[-1.0456019062991362, 1.0474880776984772], [0.3095148736598002, -0.30592846672972435]], [[-1.0456028493965834, 1.0474871346245251], [0.30951308044543613, -0.3059302599222904]], [[-1.0456037915507148, 1.0474861924934287], [0.30951128902448904, -0.30593205132186646]], [[-1.045604732762478, 1.0474852513042492], [0.30950949939516165, -0.3059338409302416]], [[-1.0456056730328196, 1.0474843110560488], [0.3095077115556583, -0.3059356287492032]], [[-1.0456066123626848, 1.0474833717478909], [0.30950592550418543, -0.30593741478053676]], [[-1.0456075507530185, 1.0474824333788393], [0.3095041412389512, -0.30593919902602623]], [[-1.045608488204764, 1.047481495947959], [0.3095023587581658, -0.3059409814874537]], [[-1.0456094247188639, 1.0474805594543157], [0.30950057806004105, -0.30594276216659966]], [[-1.0456103602962594, 1.047479623896976], [0.3094987991427909, -0.30594454106524294]], [[-1.045611294937891, 1.047478689275007], [0.309497022004631, -0.30594631818516055]], [[-1.0456122286446985, 1.0474777555874772], [0.30949524664377875, -0.3059480935281278]], [[-1.0456131614176198, 1.0474768228334557], [0.30949347305845365, -0.30594986709591837]], [[-1.0456140932575926, 1.0474758910120125], [0.30949170124687686, -0.3059516388903041]], [[-1.045615024165553, 1.0474749601222186], [0.3094899312072715, -0.3059534089130552]], [[-1.0456159541424368, 1.0474740301631456], [0.30948816293786235, -0.3059551771659403]], [[-1.045616883189178, 1.047473101133866], [0.30948639643687625, -0.30595694365072607]], [[-1.04561781130671, 1.0474721730334535], [0.3094846317025417, -0.30595870836917766]], [[-1.0456187384959656, 1.0474712458609823], [0.3094828687330891, -0.3059604713230584]], [[-1.045619664757876, 1.0474703196155275], [0.30948110752675073, -0.3059622325141301]], [[-1.0456205900933713, 1.0474693942961653], [0.30947934808176064, -0.3059639919441526]], [[-1.0456215145033811, 1.0474684699019723], [0.30947759039635464, -0.3059657496148842]], [[-1.045622437988834, 1.0474675464320264], [0.30947583446877047, -0.3059675055280815]], [[-1.045623360550657, 1.0474666238854065], [0.3094740802972476, -0.3059692596854993]], [[-1.0456242821897772, 1.0474657022611917], [0.3094723278800273, -0.3059710120888908]], [[-1.0456252029071196, 1.0474647815584628], [0.30947057721535287, -0.3059727627400075]], [[-1.0456261227036088, 1.0474638617763008], [0.3094688283014691, -0.30597451164059913]], [[-1.0456270415801683, 1.0474629429137876], [0.3094670811366228, -0.3059762587924137]], [[-1.0456279595377207, 1.0474620249700064], [0.3094653357190625, -0.30597800419719756]], [[-1.0456288765771875, 1.047461107944041], [0.30946359204703844, -0.3059797478566954]], [[-1.0456297926994893, 1.0474601918349762], [0.3094618501188029, -0.3059814897726502]], [[-1.0456307079055458, 1.0474592766418973], [0.30946010993260975, -0.3059832299468032]], [[-1.0456316221962756, 1.047458362363891], [0.3094583714867147, -0.30598496838089395]], [[-1.0456325355725964, 1.0474574490000441], [0.3094566347793753, -0.30598670507666037]], [[-1.045633448035425, 1.0474565365494453], [0.30945489980885077, -0.3059884400358386]], [[-1.045634359585677, 1.0474556250111833], [0.30945316657340227, -0.3059901732601631]], [[-1.0456352702242673, 1.0474547143843482], [0.30945143507129264, -0.30599190475136673]], [[-1.04563617995211, 1.0474538046680306], [0.30944970530078647, -0.3059936345111805]], [[-1.0456370887701174, 1.0474528958613223], [0.3094479772601502, -0.3059953625413338]], [[-1.045637996679202, 1.0474519879633155], [0.30944625094765205, -0.3059970888435545]], [[-1.0456389036802745, 1.047451080973104], [0.3094445263615619, -0.3059988134195684]], [[-1.0456398097742448, 1.0474501748897815], [0.3094428035001515, -0.3060005362711]], [[-1.0456407149620222, 1.0474492697124436], [0.3094410823616944, -0.3060022573998719]], [[-1.0456416192445148, 1.0474483654401858], [0.3094393629444657, -0.3060039768076051]], [[-1.0456425226226298, 1.0474474620721053], [0.30943764524674255, -0.3060056944960188]], [[-1.0456434250972735, 1.0474465596072993], [0.3094359292668037, -0.3060074104668306]], [[-1.045644326669351, 1.0474456580448668], [0.30943421500292956, -0.30600912472175645]], [[-1.0456452273397667, 1.047444757383907], [0.3094325024534025, -0.30601083726251055]], [[-1.0456461271094242, 1.0474438576235203], [0.3094307916165065, -0.30601254809080547]], [[-1.0456470259792259, 1.0474429587628078], [0.30942908249052736, -0.306014257208352]], [[-1.045647923950073, 1.0474420608008717], [0.30942737507375256, -0.30601596461685937]], [[-1.0456488210228667, 1.0474411637368146], [0.3094256693644714, -0.3060176703180351]], [[-1.0456497171985064, 1.0474402675697403], [0.3094239653609749, -0.306019374313585]], [[-1.0456506124778908, 1.0474393722987534], [0.3094222630615557, -0.3060210766052132]], [[-1.0456515068619177, 1.0474384779229595], [0.3094205624645084, -0.30602277719462223]], [[-1.045652400351484, 1.047437584441465], [0.3094188635681291, -0.30602447608351285]], [[-1.0456532929474858, 1.0474366918533768], [0.3094171663707158, -0.30602617327358417]], [[-1.045654184650818, 1.0474358001578032], [0.3094154708705682, -0.30602786876653365]], [[-1.0456550754623748, 1.047434909353853], [0.30941377706598766, -0.30602956256405717]], [[-1.0456559653830493, 1.0474340194406362], [0.3094120849552773, -0.30603125466784875]], [[-1.0456568544137337, 1.047433130417263], [0.30941039453674196, -0.3060329450796008]], [[-1.0456577425553195, 1.0474322422828455], [0.3094087058086882, -0.30603463380100415]], [[-1.0456586298086972, 1.0474313550364955], [0.3094070187694243, -0.30603632083374793]], [[-1.0456595161747562, 1.0474304686773266], [0.3094053334172603, -0.3060380061795196]], [[-1.045660401654385, 1.047429583204453], [0.3094036497505078, -0.3060396898400049]], [[-1.0456612862484713, 1.0474286986169892], [0.3094019677674804, -0.30604137181688795]], [[-1.045662169957902, 1.0474278149140515], [0.3094002874664931, -0.30604305211185123]], [[-1.045663052783563, 1.0474269320947562], [0.30939860884586284, -0.30604473072657556]], [[-1.0456639347263392, 1.047426050158221], [0.3093969319039081, -0.3060464076627401]], [[-1.0456648157871145, 1.0474251691035645], [0.3093952566389491, -0.3060480829220223]], [[-1.0456656959667723, 1.047424288929906], [0.30939358304930786, -0.30604975650609795]], [[-1.0456665752661944, 1.047423409636365], [0.309391911133308, -0.3060514284166413]], [[-1.0456674536862627, 1.047422531222063], [0.3093902408892748, -0.3060530986553248]], [[-1.0456683312278572, 1.0474216536861218], [0.3093885723155354, -0.30605476722381936]], [[-1.0456692078918577, 1.047420777027664], [0.30938690541041847, -0.3060564341237942]], [[-1.0456700836791426, 1.047419901245813], [0.3093852401722545, -0.3060580993569168]], [[-1.0456709585905897, 1.0474190263396934], [0.30938357659937554, -0.3060597629248532]], [[-1.0456718326270757, 1.0474181523084303], [0.30938191469011544, -0.30606142482926757]], [[-1.0456727057894768, 1.04741727915115], [0.3093802544428096, -0.30606308507182256]], [[-1.045673578078668, 1.0474164068669793], [0.30937859585579525, -0.3060647436541792]], [[-1.045674449495523, 1.0474155354550463], [0.3093769389274112, -0.3060664005779968]], [[-1.0456753200409157, 1.0474146649144793], [0.309375283655998, -0.30606805584493296]], [[-1.045676189715718, 1.047413795244408], [0.30937363003989776, -0.3060697094566438]], [[-1.0456770585208015, 1.0474129264439629], [0.3093719780774545, -0.30607136141478375]], [[-1.0456779264570368, 1.047412058512275], [0.3093703277670136, -0.3060730117210056]], [[-1.0456787935252936, 1.0474111914484767], [0.30936867910692245, -0.3060746603769604]], [[-1.0456796597264408, 1.0474103252517006], [0.3093670320955298, -0.3060763073842977]], [[-1.0456805250613461, 1.0474094599210808], [0.30936538673118624, -0.30607795274466537]], [[-1.0456813895308767, 1.0474085954557517], [0.309363743012244, -0.3060795964597096]], [[-1.0456822531358987, 1.047407731854849], [0.30936210093705696, -0.30608123853107505]], [[-1.0456831158772775, 1.0474068691175087], [0.3093604605039806, -0.3060828789604047]], [[-1.0456839777558773, 1.0474060072428681], [0.3093588217113721, -0.3060845177493398]], [[-1.0456848387725617, 1.0474051462300655], [0.30935718455759037, -0.3060861548995201]], [[-1.0456856989281933, 1.0474042860782395], [0.30935554904099594, -0.3060877904125837]], [[-1.0456865582236339, 1.0474034267865302], [0.3093539151599509, -0.30608942429016706]], [[-1.0456874166597443, 1.0474025683540777], [0.30935228291281913, -0.306091056533905]], [[-1.0456882742373848, 1.0474017107800238], [0.309350652297966, -0.3060926871454308]], [[-1.0456891309574141, 1.0474008540635105], [0.30934902331375863, -0.306094316126376]], [[-1.0456899868206908, 1.047399998203681], [0.30934739595856586, -0.30609594347837055]], [[-1.0456908418280721, 1.0473991431996794], [0.309345770230758, -0.3060975692030429]], [[-1.0456916959804148, 1.0473982890506504], [0.30934414612870703, -0.3060991933020197]], [[-1.0456925492785742, 1.0473974357557396], [0.3093425236507867, -0.30610081577692605]], [[-1.0456934017234052, 1.0473965833140935], [0.3093409027953723, -0.3061024366293856]], [[-1.0456942533157618, 1.0473957317248594], [0.3093392835608408, -0.3061040558610201]], [[-1.045695104056497, 1.0473948809871856], [0.30933766594557077, -0.30610567347344986]], [[-1.045695953946463, 1.047394031100221], [0.3093360499479424, -0.30610728946829363]], [[-1.0456968029865112, 1.0473931820631155], [0.30933443556633755, -0.30610890384716843]], [[-1.045697651177492, 1.0473923338750197], [0.3093328227991397, -0.30611051661168975]], [[-1.045698498520255, 1.047391486535085], [0.3093312116447339, -0.3061121277634714]], [[-1.045699345015649, 1.0473906400424642], [0.30932960210150695, -0.30611373730412567]], [[-1.0457001906645218, 1.0473897943963102], [0.3093279941678471, -0.30611534523526324]], [[-1.0457010354677203, 1.0473889495957769], [0.3093263878421444, -0.3061169515584931]], [[-1.045701879426091, 1.0473881056400196], [0.3093247831227903, -0.30611855627542267]], [[-1.045702722540479, 1.0473872625281937], [0.30932318000817816, -0.3061201593876579]], [[-1.0457035648117288, 1.0473864202594558], [0.3093215784967027, -0.306121760896803]], [[-1.045704406240684, 1.0473855788329633], [0.3093199785867604, 