[[[-0.0126081657765819, -0.01587640797130166, -0.010428397954264278, -0.0011438531957879514, 0.008586500520822753, -0.017696571235092787, -0.0005475019577337526, 0.008860875902022523, 0.015323991191771085, -0.017731824760431423, 0.005608816282221981, 0.01843896723579537, 0.0027304919138169082, 0.010048757083383134, -0.019514602790494075, -0.00384442650647975, 0.018668434481963342, 0.01219898544575686, -0.00510663527296201, -0.007011421650895436, 0.002462196286685784, -0.013401189649621146, 0.004310903240260951, 0.0053748612593132895, 0.01661137518868922, 0.005443550093549971, 0.00372127696104672, -0.0013651571788838568, 0.007213909035247546, -0.005460179329346339, -0.007102663033457302, -0.003999884961231601, -0.022587222230454063, 0.004320332177624114, 0.006885216107577916, 0.005523664651792732, -0.012891200269991054, -0.000995692618983299, -0.002919557979620409, -0.0014995523146792014, 0.015626579293027777, -0.0010741256182084681, -0.0009576899654310987, 0.0064197838032289106, -0.009348747593706122, -0.006966618307606467, -0.005387038324985914, 0.011492341372242585, 0.009706445894514536, 0.003362546530218337, -0.000849739219742625, -0.005517982677655079, -0.01346143001802902, -0.01293303894933181, 0.01247335011337875, -0.011097284785250607, -0.0001820179729471467, 0.0031660189769282133, 0.0039047017727638243, -0.0067463942219251755, 0.0015257416915575458, 0.001323993336978046, -0.01180009023266164, 0.006010978954408637, -0.007673525896876014, 0.006186545424742511, -0.0031225595633233194, -0.0032537933522725146, 0.005994876055077513, -0.00557028675039151, -0.006927900516358105, 0.005449539625156751, -0.014610178427925587, 0.0066293577882107265, -0.009580900140216937, -0.018278719695799656, -0.009586368260987079, 0.00295344192841405, 0.003452425110690701, 0.0043627969409983074, -0.0008018895258994794, -0.012161768705163898, 0.007796179382955241, -0.0009811674779060223, 0.003899486179277425, -0.012487122487234686, 0.010368571216921807, 0.0061550162148383296, 0.007167250529261485, -0.0007631341044489538, -0.008735574513379253, 0.010826040336271124, 0.019651822513214377, -0.005925871281028826, 0.016342652640102803, 0.009714545410232376, 0.002162675731263344, 0.01692515750371034, 0.009689930712907982, -0.017935249575058945], [-0.013944193879450352, -0.011642911023022813, -0.0019941404800857087, -0.003745529483482139, -0.014075048392833108, 0.0010126404496302018, 0.019359239496867946, 0.011793565199552979, -0.01303826006161425, -0.007604599304258033, -0.0022135284256497305, 0.0015711092601282991, 0.012531659806003475, 0.006392818886301479, -0.005283828184271172, 0.012441637699718712, 0.0056993721210390055, -0.0006336040195743654, -0.006964340858082373, -0.014955626099974386, -0.004624417237284764, -0.012265925186084239, -0.013209907863344918, 0.00647857119151958, -0.007470654117230104, 0.0028696863766768557, 0.01119958200610698, 0.00546620528841521, 0.007754772391206937, 0.002918975236037426, -0.010743962481866681, -0.003755923801452626, 0.014423855931716668, -0.0037720099340913644, 0.014627558896132372, -0.0060255062897014485, -0.0181551166390407, 0.00149876397200512, 0.005670029076113558, -0.014993919888624354, -0.00890780895859224, 0.0014317183108004934, -0.008725394995655384, -0.00014600323504330832, 0.0046693487985989875, 0.025382235845115567, -0.0019540851124585654, -0.006213921860723445, -0.011497066767280427, -0.007184848950824505, -0.015214933199265316, -0.0062929648477640186, -0.012344142447973156, 0.006343627676888491, 0.017637430812757895, -0.005175598119267867, 0.01460042151549812, 0.003561623699441476, 0.0018231995652326764, -0.001462331463714007, 0.0022409320276433626, -0.002783286361800473, -0.0052241713576976195, -0.007491643013102182, 0.0022077950255308502, -0.002553381549583035, -0.001158011064779184, -0.004348869061295319, 0.0032947683517297456, -0.01091965499899062, 0.01293351948610481, -0.0018340456976533213, 0.002598596290169807, -0.006425516917524334, 0.0010394396314491049, 0.004045320202383818, 0.01170124498945945, -0.0011654290893259051, -0.011833884843266975, -0.005101596906301936, -0.01885508159727213, 0.003333198352937916, 0.003704865301503019, -0.009174609645020903, -0.01500306140216818, -0.008771425555922273, -0.004374015587292824, -0.009999311918100556, 0.0033742191524593727, -0.002691917275122206, -0.0177562489135309, 0.00971602754821923, 0.003985890900603095, -0.010976291224930228, 0.01612960924827665, 0.010918125419501852, 0.006607836613205174, -0.010691998083886795, 0.0064841805683029255, -0.0017821640970618739]], [[-0.011407769384159123, -0.014364849256807227, -0.00943553257599498, -0.0010349493889998587, 0.48723401788895615, -0.03988005353583884, -0.016428365689945372, 0.4759065445768194, 0.5905408134604818, -0.016043615797234775, 0.00218075767744016, 0.03512486625998754, -0.018164882041194326, 0.2576913967905743, -0.017656659358882314, -0.07696578761796367, 0.44184748779962607, 0.6095141705046522, -0.004620443493149897, -0.0063438792498332255, 0.002227775864845832, -0.01212529115695873, 0.0022528436626779655, 0.26535364840423015, 0.5565499392574647, -0.002891970435906612, -0.009090774293722617, -0.01758060301143385, 0.428094674896214, -0.006834467035584508, -0.006426433736267002, -0.0036190645022805726, -0.01646743986313444, 0.0023512619309571624, -0.021852725052056217, 0.4114383761893131, -0.011663856771158025, -0.0009008948625951711, -0.02426614139891439, -0.001356783158507928, 0.9055408205612094, -0.022490338806616075, -0.0008665103600916575, 0.11718384673541286, -0.016389740945552633, -0.00811117909056422, -0.004874149972647843, 0.49721984308060085, 0.4279202624338952, 0.4714630637359236, -0.0007688373731176578, -0.0049926273946517925, -0.012179796169233417, -0.014494985027748725, -0.0006478651355194688, -0.010040736127979186, -0.021130298257242913, -0.008399988553956758, 0.1561943362241473, -0.006104084513331197, 0.17529486732723387, 0.07868263538405801, -0.010676628977745425, 0.41215848359402274, -0.01861481588910914, 0.21695140887197328, -0.0028252673717897507, -0.002944006673466961, 0.012129072176861821, -0.005039951708925778, -0.051503173344384326, 0.4708953891946624, -0.029323524315454267, 0.11973057993548954, -0.022876090449341396, -0.01764782396939063, -0.015597446819133401, 0.19229321293670149, 0.24811980316368268, 0.002850794394325766, -0.0007255433458865836, -0.04168372396185832, -0.012569063196616525, -0.0008877526290127327, 0.3963074919562053, -0.011298250366496959, 0.5043556008990577, 0.0032735912403099292, -0.007762803772773113, -0.0006904777449000662, -0.00790387922023221, -0.0057440065680085615, 0.5572012555986465, -0.005361681799881536, 0.4630887150005895, 0.4975730109733077, 0.3194376145938967, 0.5896650206751746, 0.2937972281425571, -0.01622767297203781], [-0.012616597119957728, -0.010534414463174678, -0.0018042826466231128, -0.003388925663437505, -0.21705147293652827, -0.07566286901147648, -0.016244144062996242, -0.20314026987251077, -0.2677470150389227, -0.006880581732439044, -0.00022039471909552694, 0.03603309901978244, -0.02448044271478877, -0.10684172979687115, -0.0047807662478266425, 0.09261505220519164, -0.18822517688797666, -0.27944910314943106, -0.006301280918216079, -0.013531733050425649, -0.004184136401272531, -0.011098112785453283, -0.01195222089885011, -0.11311259965004329, -0.24842739317171197, -0.0010212153656996457, -0.0060403814599714, -0.03424390973963102, -0.18590256415181441, -0.01614996347516905, -0.009721052882477292, -0.0033983303607118052, -0.01872073203013988, -0.0035981834771289627, -0.029766648436909394, -0.18337325293485138, -0.016426606964937463, 0.0013560698722471837, -0.04968461088822134, -0.013566380969679373, -0.40376885846700494, -0.04923144336011155, -0.007894668872534247, -0.0512650556467327, -0.03642291591137378, 0.020270207612440132, -0.0017680408645443185, -0.22781362114871148, -0.19202873172225773, -0.20980481051761873, -0.01376635207755491, -0.005693825176319504, -0.01116888314977911, -0.016817096517034297, 0.024189987839106655, -0.004682840534930048, -0.028622414576501852, -0.014445641867711903, -0.06933979064628529, -0.0013231060248457287, -0.07737776277783312, -0.03540721850530929, -0.0047267892196211705, -0.18349875829097972, 0.019620151873870714, -0.09741815562843298, -0.0010477593176829896, -0.003934822575485772, 0.02226164631761134, -0.009880018092277666, -0.10816908962500467, -0.2092397648533452, 0.02942099123438166, -0.056003393500190096, -0.05379514463707545, 3.4970546749929564e-05, -0.02316991511665763, -0.08709087140920209, -0.11164150764588826, -0.004615884818561585, -0.017059929762400044, 0.04952834006714546, -0.021832869215894658, -0.008301114759648617, -0.17821473159103443, -0.007936316961990968, -0.2244492472633561, -0.009133108577411564, -0.01067959558196192, -0.0024356256112103066, -0.016065714579159084, 0.003923500272677563, -0.2426334566924318, -0.009931262104749983, -0.19567994953961892, -0.21140967013603007, -0.1414896304287066, -0.271880069725583, -0.12633345334696902, -0.0016124880798895778]], [[-0.010321660154871373, -0.01299720280203138, -0.008537195778595845, -0.0009364140798272027, 0.7396852447540821, -0.2908990773756686, 0.18648037480605414, 0.7043832313213982, 0.8968068172003437, -0.014516137584647478, 0.0019731324213057887, 0.36023269290831966, -0.08340490229364728, 0.38563633278122744, -0.0159756067321785, -1.2766666461568723, 0.6716785797007173, 0.928933778226886, -0.004180540988784664, -0.005739892127486711, 0.0020156741080419615, -0.01097086822028356, 0.0020383552546659077, 0.3927194689599994, 0.8464010837036149, 0.02625958360194926, 0.08661032190043523, -0.12689612927009608, 0.6351592577299722, -0.054935406104018106, -0.005814586778520994, -0.0032745011415614444, -0.06584341222512217, 0.0021274033309374553, 0.27955550014474695, 0.6143623077414743, -0.010553366011602842, -0.000815122597051195, -0.18058838897075669, -0.0012276067471541075, 1.3772067241717179, -0.18401798495176305, -0.0007840117692036038, 0.17827826956112422, -0.13809014556023108, -0.14119294834077134, -0.0044100926191062645, 0.7578384926190009, 0.6356247450934522, 0.7156919176468682, -0.0006956380176043888, -0.0045172900601457185, -0.01102018392736804, -0.06562663774797994, -0.1605527951647579, -0.009084779199836477, -0.09637397655907551, -0.05226591930543283, 0.23206645418922084, -0.005522927732980474, 0.26685789050591036, 0.11884867812197217, -0.009660130056710728, 0.6256652635378999, -0.2840018298300519, 0.32769470694113706, -0.0025562797314919515, -0.0026637141192032603, -0.14273092838316906, -0.00456010872806836, -0.4012689356841884, 0.7116591066030331, -0.4365607912623486, 0.18319511951434006, -0.19289832902270163, -0.021994754441459444, -0.08019399867597977, 0.2922882966921524, 0.37474734503569757, 0.002579376381021734, -0.0006564659217487861, -0.6867302126970413, -0.07975687730886133, -0.0008032316073102702, 0.5985918928839005, -0.010222568207731033, 0.7669170203813714, 0.0029619196470926507, 0.10572638578670918, -0.0006247388413423631, -0.0071513678502013334, 0.013324039286677207, 0.8260082789766999, -0.0048512075878553084, 0.6954166506236065, 0.7369699766786603, 0.47683450410155737, 0.8985078077412536, 0.4470896041857998, -0.01468267107102919], [-0.01141539799743519, -0.009531455480721528, -0.0016325007698381312, -0.0030662733274303714, -0.40776390031605103, -0.5871801480887844, -0.10992198480542022, -0.38947482299366826, -0.49901643433950604, -0.006225496319084888, -0.00019941141110296458, 0.227098509242301, -0.23832052273374169, -0.20723918998719992, -0.004325599758219823, 0.7874519421735113, -0.3614091874481856, -0.518834266999116, -0.005701349491559373, -0.012243405800864166, -0.0037857737583240018, -0.01004148529606038, -0.01081427560984793, -0.2170011147021871, -0.4664010921789664, -0.01585862540515949, -0.05062454985106086, -0.306643181807972, -0.35377024146564245, -0.11447466329313938, -0.008795532309742537, -0.0030747826236701375, -0.1719768992008718, -0.0032556081539805858, -0.1681816311013589, -0.3437877470139616, -0.01486266498559876, 0.001226961371346742, -0.4389352018234088, -0.012274754966118769, -0.7584317993892559, -0.43499167222696955, -0.00714303439993203, -0.09722473861686697, -0.2853040583591566, 0.09237492484262483, -0.0015997094900158319, -0.4230423530495157, -0.35982771085497894, -0.3943440407650711, -0.012455687254174177, -0.005151728306572216, -0.01010551776595077, -0.125057090695645, 0.11624878886479054, -0.004236997342190468, -0.274816851473177, -0.13934699093822506, -0.13062482017239652, -0.0011971359410792503, -0.14611234991579386, -0.06642319344707301, -0.00427676176697497, -0.34481653515657307, 0.18368798902425795, -0.18295206731675526, -0.0009480044027047862, -0.0035601965665852664, 0.11387751235542398, -0.008939362783234194, -0.9528695717918744, -0.39499680136606463, 0.2652735338780992, -0.10308050113216487, -0.38595497903969933, -0.013534337397994364, -0.21233499254690805, -0.16247780015484564, -0.20942601336955105, -0.004176416335815914, -0.015435690479331007, 0.42244146142656247, -0.20929560471093528, -0.007510783446819771, -0.3344302904653911, -0.007180717264214758, -0.42197570542305174, -0.008263564919578841, -0.05909833259527198, -0.0022037349263321145, -0.014536132388993366, -0.009094916611479823, -0.4609817602566391, -0.008985727963305748, -0.3764722538971551, -0.4063519790393289, -0.266166398701028, -0.5032196295718782, -0.2415452224967666, -0.001458966551998552]], [[-0.009338957053304089, -0.011759767029722283, -0.007724387698845826, -0.0008472601058743628, 0.8556016152947648, -0.7413761503312627, 0.2600151631675867, 0.8179801616724824, 1.0377699194059522, -0.013134087293011201, 0.0017852747200129367, 1.2174816646720088, -0.25680592430800997, 0.4454599933680632, -0.014454603516652018, -2.256779960537461, 0.7788990396468775, 1.075367985115922, -0.003782520657339345, -0.0051934093222297745, 0.001823766104096795, -0.009926355412731916, 0.0018442878274496787, 0.45603920458819297, 0.9790741718370343, 0.03671230107381779, 0.12071239257224592, -0.3523485595752411, 0.7379167361783374, -0.14280628107909807, -0.005260992455916994, -0.0029627429185996707, -0.1905997327404443, 0.0019248578275757563, 0.3906345639454512, 0.7109059890255748, -0.00954860269291498, -0.0007375165247468536, -0.5206152747246653, -0.0011107289445688405, 1.5930231625202138, -0.5080265716442091, -0.0007093676920201461, 0.20686116868746468, -0.3571428127203579, -0.2516908163618231, -0.0039902171698114755, 0.8802590955165035, 0.7389590449631824, 0.8278249069438036, -0.0006294078155621991, -0.00408720857265466, -0.009970975877231312, -0.1593239816188418, -0.29289840816276913, -0.008219836878274007, -0.2982367195977554, -0.14984495870771417, 0.2697405385197725, -0.0049971016418772565, 0.3096858691632885, 0.13813024758436476, -0.00874040981540897, 0.7236973738275344, -0.5066801757359755, 0.3808462018777338, -0.0023129018268798597, -0.0024101076172110213, -0.2656804275815558, -0.0041259505671409355, -1.098039488514327, 0.8269321109228818, -0.7664891470013716, 0.2128686612692428, -0.49608858364971864, -0.037511000698567463, -0.23630852891025056, 0.33824774840278804, 0.4355365714386096, 0.002333799493999042, -0.0005939652108460643, -1.2134371094430247, -0.22637153037065663, -0.0007267576506078551, 0.6956933128968185, -0.009249299437689299, 0.8870714934021767, 0.0026799216370712387, 0.14679546565404725, -0.0005652587976434872, -0.006470501471983613, 0.01918633061515817, 0.9596643910697749, -0.004389334529509924, 0.8063882457970772, 0.8557852201022733, 0.5517545161113989, 1.0401537933114928, 0.518557134649847, -0.013284765483720847], [-0.010328562464256928, -0.00862398606952076, -0.0014770738767066265, -0.002774340027563223, -0.5761072354038688, -1.073790183639799, -0.14004624947018157, -0.5492224970834997, -0.7031773703314298, -0.005632780181393308, -0.0001804258788108258, 0.7930626419218236, -0.41475355564034455, -0.2948245716684325, -0.003913768692794256, 1.5601703064401906, -0.5134535568600119, -0.7305510821585601, -0.005158536247913654, -0.011077737422548315, -0.0034253383672807093, -0.009085457041233204, -0.009784671648513724, -0.30606347956217883, -0.6590739373265253, -0.020285827637052056, -0.0665599906507046, -0.5469317646957075, -0.4979015679524231, -0.20922044779992557, -0.007958128563539946, -0.0027820391719784276, -0.29262925885355806, -0.002945648691800993, -0.21246810084765386, -0.4834588518228306, -0.013447622564151645, 0.0011101450136064004, -0.7764214288462448, -0.011106101901089271, -1.071927783985187, -0.7752567091911277, -0.006462961431621586, -0.1375963865431871, -0.5178145348864537, 0.17880116407942664, -0.0014474045842296026, -0.5947614273634644, -0.504079828575837, -0.5572250713886315, -0.011269808014481115, -0.004661243315849947, -0.009143393117150322, -0.23187284799718225, 0.21528956630588597, -0.003833601922555592, -0.4810781173683416, -0.23302839136799827, -0.18330024158630212, -0.0010831591985160853, -0.20653560927105746, -0.09343356992628114, -0.0038695804618351023, -0.4872061149862554, 0.3541512347655857, -0.25743049200822327, -0.0008577469389965129, -0.0032212378956275366, 0.2050453114735405, -0.008088265246470848, -1.686200118044995, -0.5567714112652182, 0.5339197012358726, -0.14461246857435509, -0.7142288888923842, -0.03314879182390489, -0.3762861148769583, -0.22904508995200268, -0.2945859838969635, -0.0037787887037236487, -0.01396609153097654, 0.8378125389419622, -0.35050169762534716, -0.006795697881354164, -0.47046831874742695, -0.006497056591305351, -0.5965506408594922, -0.007476808646399259, -0.0784113570515266, -0.0019939220556655043, -0.013152178434966428, -0.014544813750276657, -0.6483815920006708, -0.008130216097299105, -0.5336411984735276, -0.5735249101317395, -0.37462088150809003, -0.7079101531329992, -0.34276917978535876, -0.0013200614791498548]], [[-0.008449815004061726, -0.010640144860379432, -0.006988965331177436, -0.0007665942903578535, 0.9016768102875838, -0.9977226644873954, 0.2379838901681223, 0.8618363614346252, 1.0939321191041251, -0.011883619042222484, 0.0016153025471083299, 1.8603325710525604, -0.35457883950754043, 0.4690833612187092, -0.013078411751508945, -2.4388627672101335, 0.8199845021418107, 1.1337707306922604, -0.0034223949870560216, -0.004698955971500628, 0.0016501292491589434, -0.008981288426899492, 0.0016686971432938724, 0.4804807544029185, 1.0318056707802015, 0.033608921118239626, 0.11053108873503625, -0.4821488050505736, 0.7776595471503517, -0.1927103575476289, -0.004760104660138162, -0.002680666526665734, -0.26015280053340745, 0.0017415962467008978, 0.3576437353334579, 0.7494127530493812, -0.008639500732458283, -0.0006672991599575464, -0.7066312666102569, -0.001004978826617786, 1.6787896143917156, -0.6904007058364436, -0.0006418303171560049, 0.21785082156945704, -0.48085397319381135, -0.27238373715285014, -0.003610317160523712, 0.9276042124532244, 0.7790851626829124, 0.8723918879725697, -0.0005694832488526719, -0.0036980742201537667, -0.009021660672779114, -0.2151658360402052, -0.31728705638796795, -0.007437243858017988, -0.4121894492913567, -0.20600070869620749, 0.2843498269148783, -0.004521338323899567, 0.32616781314015614, 0.14559710359622297, -0.007908254163537616, 0.7626618416166877, -0.5481222501810733, 0.40142433209239337, -0.0020926954100058477, -0.002180646445751467, -0.2886992600496641, -0.0037331276725284736, -1.5002109732313367, 0.8714975315634743, -0.8293424773147762, 0.224373916722121, -0.6671423698340417, -0.04621391650159083, -0.3237042614907751, 0.35655519683299786, 0.45907644895814587, 0.0021116034551082827, -0.0005374150584322575, -1.3112430493823473, -0.31095033872014755, -0.000657564615124796, 0.7332928912147553, -0.008368693497524523, 0.9348108058581569, 0.0024247720521021737, 0.13441824032169894, -0.0005114417211947645, -0.005854458919738466, 0.017554943300493137, 1.0113829170478317, -0.003971435413355619, 0.8489573525264492, 0.9016227892321013, 0.5816221459444509, 1.0966820563542343, 0.5459712540689831, -0.012019951485917875], [-0.00934520220863308, -0.007802914872520409, -0.0013364448443509587, -0.002510201070362436, -0.6470635277686617, -1.359732882682329, -0.13849675168649, -0.6170333270332591, -0.7891020828885873, -0.0050964952745424, -0.0001632479182841249, 1.1696786145756957, -0.5213561659750321, -0.33189085645538535, -0.0035411471788597305, 1.9159033404689731, -0.5782786148559106, -0.8196007158103621, -0.00466740308771369, -0.010023049827709374, -0.0030992192559228804, -0.008220450183846763, -0.00885309406966136, -0.3438733143793649, -0.7402901006371836, -0.01994131122647256, -0.06530191230140119, -0.689941806716052, -0.5590130085108146, -0.2647027305736494, -0.007200452230012248, -0.002517167195768808, -0.36911701517437395, -0.0026651998044973087, -0.20898023338367136, -0.5421904892586848, -0.012167303293393536, 0.001004450490468513, -0.9823437747909357, -0.01004871378515021, -1.2040862967792323, -0.9759971079813896, -0.005847636750429986, -0.15477340717208174, -0.655783425454968, 0.21851783544918277, -0.0013096003015073273, -0.6675554664972686, -0.5650838843300616, -0.6258842106979912, -0.01019683379098165, -0.004217456347967296, -0.008272870290371152, -0.2946342778969183, 0.2625613690313319, -0.003468612914688318, -0.6052948948242237, -0.2953926965226364, -0.20559700254852734, -0.000980033936891333, -0.23222831304176744, -0.10487918205607678, -0.003501166014493041, -0.547225429812798, 0.43323190275535295, -0.28899584532894235, -0.0007760826946148664, -0.002914550751948884, 0.2481610798335771, -0.007318198878779552, -2.146846496084259, -0.6253979679809532, 0.652956836589124, -0.1621934465049837, -0.905437259877248, -0.04528498616543769, -0.47089950284107707, -0.257065405088332, -0.33067293789535895, -0.003419018344731148, -0.01263640994309885, 1.0290379860956058, -0.44416539107684705, -0.006148694077206514, -0.5281174457328858, -0.005878485783166447, -0.6701553097542602, -0.0067649577487339276, -0.07704496857194051, -0.0018040850179229723, -0.011899987765395898, -0.014227870058441285, -0.7278138659152926, -0.007356155679173699, -0.6005919515675121, -0.6445191015413296, -0.42024361713095515, -0.7939669556141669, -0.3858995769339716, -0.001194381260042096]], [[-0.007645326260238653, -0.009627119513823595, -0.006323560948099306, -0.0006936084939379923, 0.9205166008795553, -1.1612720776834597, 0.20830481689352, 0.879719669538182, 1.1170001639289757, -0.010752205188693843, 0.0014615130598363887, 2.2157710388363223, -0.41866349959908705, 0.47861506247190927, -0.011833244249484943, -2.330722776764179, 0.8365081128082372, 1.1578164222004128, -0.0030965561086096134, -0.0042515784626468356, 0.0014930239863616532, -0.008126199239621898, 0.0015098240711633763, 0.4904439990904289, 1.053365774706577, 0.029394970916179593, 0.09668679247955478, -0.5671327931473888, 0.7939243240507328, -0.22456920682425485, -0.004306905315932381, -0.0024254460223577367, -0.3058827586764074, 0.0015757826074576829, 0.31287621446310604, 0.7652546600123697, -0.007816952417711392, -0.0006037670397051629, -0.825200412275083, -0.000909296950339323, 1.7138473015404652, -0.8108910999892819, -0.0005807230307422544, 0.22229984128063857, -0.5597581787620899, -0.2604204734830149, -0.003266586615431719, 0.9469880847446769, 0.7956301973707323, 0.890611260144795, -0.0005152639714746997, -0.0033459885138387817, -0.008162727730655125, -0.2515650278559558, -0.3034113896844608, -0.0067291598389043385, -0.4866759188889389, -0.2425517858461437, 0.29035862655195727, -0.004090871409908587, 0.33285192711872724, 0.1486614084425744, -0.007155326264548128, 0.7785922201283053, -0.5240095175969771, 0.4098656643097589, -0.0018934543732741969, -0.0019730317797473466, -0.2763262144025758, -0.0033777046022766383, -1.762951524644286, 0.8897312927297343, -0.7929166625724294, 0.22910251923728772, -0.7790126906316045, -0.05144376010653515, -0.3814206360342107, 0.36407315613487384, 0.46873593224203464, 0.0019105622240001494, -0.00048624892461016144, -1.2530755816437367, -0.36609170488179654, -0.0005949592999847636, 0.7487206940195368, -0.00757192815816175, 0.9543165200130105, 0.0021939147112828386, 0.11763355013943953, -0.00046274845304334196, -0.00529706845617917, 0.01525416927173708, 1.0325661769047496, -0.0035933235747734513, 0.8661052502332208, 0.9202906386499804, 0.5939002449454399, 1.1199791667548724, 0.5570193647544722, -0.010875557713146257], [-0.00845546557156091, -0.007060016101253235, -0.001209204800219351, -0.0022712102161403587, -0.6838874110270674, -1.5470670832760107, -0.13291919400700647, -0.6522592961940238, -0.8335927463059347, -0.0046112689022080895, -0.00014770543449613675, 1.5335356115120535, -0.5923422648348162, -0.3512430062180522, -0.0032040021592061488, 2.1704220214639327, -0.612175088864984, -0.8656680961550292, -0.004223029661177624, -0.009068776774240856, -0.0028041492449426136, -0.007437798772083993, -0.008010209991888544, -0.3635177118647054, -0.7824428727242075, -0.019226394918691308, -0.06295920364622766, -0.7874061677057924, -0.5907016369431036, -0.3010224946946056, -0.006514912633382476, -0.002277513111703854, -0.4222324623110578, -0.0024114518535981572, -0.20159112122340214, -0.5725554532039842, -0.011008880471413247, 0.0009088189159404242, -1.116594897312245, -0.009091997321397182, -1.2726900546426099, -1.116192763642142, -0.00529089581096258, -0.16372669964577546, -0.7461293644263436, 0.24705690686267764, -0.0011849160686615754, -0.7052844579749151, -0.5965885439572904, -0.6615205085954756, -0.009226015139503912, -0.003815921384435671, -0.0074852280728181265, -0.33757526925758813, 0.29629944555189275, -0.0031383737265871818, -0.6878468920109869, -0.33733910573938547, -0.21712855982370655, -0.0008867270100042105, -0.24560728030538678, -0.11080997034984436, -0.003167827515654706, -0.5783756132850532, 0.4902551524988301, -0.30535646424956675, -0.0007021935275983784, -0.002637062632727702, 0.27913491865483114, -0.006621448876536089, -2.4471886536478262, -0.6610191445750059, 0.7390022064409633, -0.17128686009389296, -1.03864158073749, -0.052698762721555825, -0.5362982870568124, -0.2715777022077917, -0.3493723872307304, -0.0030935009491504547, -0.011433324484225432, 1.1658415715293198, -0.5077100495385296, -0.0055632901160610265, -0.5579921189045174, -0.005318807773528584, -0.7083715926498216, -0.006120880646610492, -0.07436399843564746, -0.0016323219569422001, -0.010767015480879428, -0.013634429976892412, -0.768982563836952, -0.006655791891462279, -0.6355458120947596, -0.6814232314075587, -0.44384677822403784, -0.8384550773386849, -0.4084308236098747, -0.0010806667847458645]], [[-0.0069174311623861505, -0.008710542135432734, -0.0057215082876351745, -0.0006275715184864623, 0.9300364884002267, -1.3136003693639784, 0.18133566923568278, 0.8887207688111448, 1.128734378401333, -0.009728510818885467, 0.0013223655394440925, 2.379708430122821, -0.4758209973346216, 0.4833365498494431, -0.010706626471812426, -2.1574549593019396, 0.8446527636161574, 1.1700893548479046, -0.0028017396501669625, -0.0038467948058406296, 0.0013508763783124287, -0.0073525212578912855, 0.0013660769631118723, 0.4954562497174195, 1.064258927954455, 0.025573748877097163, 0.08413511090168221, -0.6424718783173827, 0.8021547729914279, -0.2542360746755772, -0.003896854108217904, -0.0021945245142774602, -0.34615027708498086, 0.0014257557287860759, 0.27230988667508454, 0.7733338300959737, -0.007072717161906792, -0.0005462836762113219, -0.9354873959843671, -0.0008227247400614642, 1.7315530286633114, -0.9171463330023256, -0.0005254336378636647, 0.22451510274364309, -0.6332387635407324, -0.24109446146018004, -0.0029555819175093685, 0.9568040636005238, 0.8040953587631444, 0.8998148149254721, -0.0004662067950809301, -0.0030274241316539992, -0.007385571949724069, -0.2837075182616142, -0.28088134064749143, -0.006088490978913601, -0.5530675434262305, -0.2748429732548379, 0.29342171179236737, -0.0037013883265372767, 0.3361890043749782, 0.15021808433483158, -0.006474083014199618, 0.7866405376508486, -0.4851379425036642, 0.41415108574902504, -0.0017131826478566027, -0.0017851836603211845, -0.25588394883647314, -0.003056120599409738, -1.9967525283252103, 0.8989522486410466, -0.7341391147388839, 0.23151067536096262, -0.8774954552879557, -0.05636296149648541, -0.4327717447249772, 0.3678959674314351, 0.4736422967304599, 0.0017286616968474383, -0.0004399542085297599, -1.159913343277892, -0.4147406637163562, -0.0005383145024784838, 0.7565561266702839, -0.006851021136013926, 0.9641617077501566, 0.0019850368022059513, 0.10243869090083536, -0.0004186911664026326, -0.004792745941874649, 0.013134379765531319, 1.0432988567249866, -0.0032512109524935793, 0.8745807902480727, 0.9296687893176531, 0.6001542967291686, 1.1318880025226452, 0.5624824074010244, -0.009840119214336654], [-0.007650438849338644, -0.006387847126910271, -0.001094079007490671, -0.0020549731680082266, -0.715190938750094, -1.7099829507108795, -0.12897308792766107, -0.6822131192118728, -0.8714082768029879, -0.004172239890947531, -0.00013364271721812282, 1.6748520663644644, -0.6482250299566213, -0.3677028338576277, -0.002898955992985092, 2.328117901658539, -0.6410175209623363, -0.904815964126816, -0.0038209640744617805, -0.008205358009260321, -0.002537172216158912, -0.006729661920793582, -0.007247575097392524, -0.3802221985971791, -0.8182754725430045, -0.01863997661513386, -0.06103817123831218, -0.8617774076661934, -0.6176418535168885, -0.3326019199821294, -0.005894641789816359, -0.0020606759784181543, -0.46224417680780655, -0.0021818627002784118, -0.19552944682869017, -0.5983656970264931, -0.009960748599048165, 0.0008222922182912901, -1.233174348588773, -0.008226367777979056, -1.3310091198811418, -1.2219825898931571, -0.004787160980955764, -0.17134336109843995, -0.8246864172873348, 0.26480642384871417, -0.0010721027539138412, -0.7373685634198498, -0.6233656046300846, -0.6918150387177989, -0.008347626047375335, -0.0034526157026406683, -0.0067725755796409215, -0.3701587499402347, 0.31734905152059023, -0.0028395759025240676, -0.7528030151372297, -0.3691207550582689, -0.22693034325739808, -0.0008023036352854295, -0.25698829733568507, -0.11585138545777529, -0.0028662254595751098, -0.6048564139446683, 0.5256668976938852, -0.31926383578215334, -0.0006353391895250867, -0.0023859935615390265, 0.29858623851812316, -0.005991034946004745, -2.6779321512022674, -0.6913005961405174, 0.7924273864820909, -0.179017861780612, -1.139216877209021, -0.05920841897253372, -0.5864832856744979, -0.2839121625682954, -0.3652678128223197, -0.0027989753658801365, -0.010344782208730068, 1.2505898013107348, -0.5557719939071507, -0.005033621209127335, -0.5833869966108627, -0.004812415505496017, -0.7408588940086788, -0.005538124742473456, -0.0721620220381794, -0.0014769120882025845, -0.009741911054951447, -0.013118291599393346, -0.8039827460471596, -0.006022108236218172, -0.665289001530357, -0.7128034507066919, -0.463909642207065, -0.8762618180084726, -0.4276013372379757, -0.0009777788204846794]], [[-0.006258837393926643, -0.007881230121242618, -0.0051767757682983076, -0.0005678217816787768, 0.876050451469917, -1.4171561686718925, 0.16112898199514666, 0.8370902077991842, 1.063265203965591, -0.008802280192038332, 0.0011964659557027987, 2.4211928780232572, -0.5173932056831441, 0.45521247644466123, -0.009687271553775644, -1.9855800086049649, 0.7954437243816246, 1.10226310043044, -0.002534992033728179, -0.0034805497318824057, 0.0012222623388184926, -0.006652503495626643, 0.0012360157085765662, 0.4666708430311766, 1.002483895548665, 0.02271220812207153, 0.07472688759725654, -0.696762979219218, 0.7555919089189215, -0.2744220437289807, -0.003525842995563354, -0.0019855885471667736, -0.3744623381847892, 0.0012900125871080253, 0.24188219372319256, 0.728488357840526, -0.006399338946849625, -0.0004942731803324119, -1.0106099264013868, -0.0007443948840437798, 1.6310362600445996, -0.9918610185085565, -0.000475408229368432, 0.2114500073233812, -0.6831943760555683, -0.22193145869758438, -0.0026741873091137556, 0.901236990968904, 0.7574837174845086, 0.8475796043588156, -0.00042182024712027574, -0.0027391895803030803, -0.006682407502053624, -0.30702515482544884, -0.2586225741621285, -0.005508818825493685, -0.6013449301398774, -0.2983427050491078, 0.2764052656630528, -0.0033489870912692806, 0.31663162430629677, 0.1415020730895546, -0.00585769947101007, 0.7409760087568438, -0.44652449635701735, 0.3901191094347869, -0.0015500742063521244, -0.0016152201570143149, -0.23569820526642205, -0.002765153918978371, -2.165299994746629, 0.8467672487340181, -0.675692874481115, 0.21807828129852103, -0.9464367475861315, -0.059353964241366075, -0.469841355758898, 0.34655788052439157, 0.44615992656681697, 0.001564079528323822, -0.00039806711296735395, -1.0674979082333476, -0.4501274666414336, -0.00048706273451995497, 0.7126575338893559, -0.006198750123575443, 0.9081889647057603, 0.0017960457103676525, 0.0910357463125703, -0.0003788284794269812, -0.0043364388913192786, 0.011598114725025787, 0.9827425712338984, -0.0029416701384262713, 0.823641373221774, 0.8756542069591009, 0.5653461734378614, 1.0662819075953756, 0.5297237838180628, -0.008903262591794529], [-0.006922056992855244, -0.005779673917391282, -0.0009899140942995204, -0.0018593235849432234, -0.7485164382395779, -1.8407145047321731, -0.11738237375017803, -0.7141000285027753, -0.911713824445729, -0.0037750098892038813, -0.00012091888105789557, 1.8142845926260338, -0.6992897438511211, -0.38517622484333613, -0.0026229526172811355, 2.3058209638288703, -0.6716358661482719, -0.9465499954905323, -0.003457178288976621, -0.007424143491035319, -0.002295613497055671, -0.006088945258664191, -0.006557549033737633, -0.398003292471598, -0.8564181798253755, -0.017000088612540293, -0.05567532359447699, -0.9288594114853317, -0.6463406887647963, -0.3579283854765964, -0.0053334256014741415, -0.0018644834430186054, -0.4968803275142927, -0.001974132237292216, -0.17838688054161986, -0.6259012983320662, -0.009012407111792659, 0.0007440035417426711, -1.326546798179566, -0.007443152964784702, -1.3930853856065895, -1.3136374746795474, -0.004331385662537929, -0.17944166306191117, -0.887716905884979, 0.2621930159685259, -0.0009700301526402237, -0.7715776111009562, -0.651949356747199, -0.7240652303186519, -0.007552866494707061, -0.0031238995747507586, -0.006127773200193181, -0.400281099107441, 0.3140782731268229, -0.002569225977737098, -0.8121639159711748, -0.3984459848703531, -0.23738539782947538, -0.000725918028807038, -0.2690948537438967, -0.1212236388788861, -0.0025933382876809413, -0.6330474765182484, 0.5205927674203156, -0.334081823444927, -0.0005748499094358867, -0.0021588282375443802, 0.2953652777547188, -0.005420641372228901, -2.8862201745336247, -0.7235388578136825, 0.7848316916960418, -0.1872672197045379, -1.2265430960013586, -0.0644589165570755, -0.631735080533037, -0.2970557433105388, -0.38220636972176725, -0.002532490931013067, -0.009359877706060568, 1.2386293923364042, -0.6000474867787438, -0.004554380941563423, -0.6104472832216298, -0.004354235758021053, -0.7754348766988881, -0.005010851776726113, -0.06569401177211759, -0.0013362984593830076, -0.00881440462040029, -0.012032492271693658, -0.8412802765290779, -0.005448756241198991, -0.696892482916668, -0.7461928537097332, -0.48530592390055316, -0.916585499672516, -0.4479618559799068, -0.0008846865983886428]], [[-0.005662946924086462, -0.007130875123296348, -0.004683906062524841, -0.0005137606890230726, 0.9962763459459629, -1.559586685820686, 0.1313375737025827, 0.9516855470672058, 1.2094606658118459, -0.007964233994450839, 0.0010825530010087911, 2.2698261799397, -0.572130383198942, 0.5173039779478363, -0.008764967228814218, -1.8351517942480826, 0.9034966368362547, 1.25407945264209, -0.0022936408851130653, -0.003149174065045927, 0.0011058933658758083, -0.006019132921489485, 0.0011183373068292639, 0.5305473639823355, 1.1400804485319582, 0.018471243318185386, 0.06082593538334994, -0.7692629585365267, 0.8592733582655986, -0.3021598496743495, -0.0031901550543415986, -0.0017965449248754151, -0.4132301899761633, 0.0011671932584931813, 0.1971078504060762, 0.8287120241967796, -0.005790071625828454, -0.00044721449209368484, -1.1136736419391695, -0.0006735226454344319, 1.8548438745511517, -1.094248167505324, -0.0004301456326057902, 0.24025840730371756, -0.7518958893315025, -0.20516207187299346, -0.002419583677197268, 1.02465947837451, 0.861790586522957, 0.9638733787713265, -0.0003816596470879896, -0.0024783972217139235, -0.0060461898316718525, -0.33791743194620627, -0.239142390845183, -0.00498433601317885, -0.664903952442484, -0.3280401675844879, 0.3144245677602961, -0.0030301372209656273, 0.35980818487145166, 0.16093468377753684, -0.005300000481522037, 0.8426481198397228, -0.4127359758596184, 0.44368288946381995, -0.0014024949693509168, -0.0014614385139263238, -0.2180380140928146, -0.002501889551452326, -2.390456262044741, 0.9629143270233511, -0.6245535356391152, 0.2480265005148196, -1.0408989626242182, -0.06402529253336714, -0.5192849965104667, 0.394215635738033, 0.5074291504828119, 0.0014151668746887076, -0.0003601679978370876, -0.9866136014913053, -0.4968377356924007, -0.00044069053734538416, 0.8105193748066339, -0.005608580433731193, 1.0327947557412307, 0.0016250480545979132, 0.0743130715904249, -0.00034276103328855986, -0.003923575855304165, 0.008872318986090267, 1.1176057080934665, -0.0026616000406469898, 0.9356178019007594, 0.9955198546276849, 0.6430896210629399, 1.213161992779287, 0.6017423685516612, -0.008055602076746939], [-0.006263022809008964, -0.005229403573333556, -0.0008956664988393856, -0.0016823013785999376, -0.7686897019313015, -1.8279689423568737, -0.11450753479771708, -0.7334503794999602, -0.9360599518258662, -0.003415599303028264, -0.00010940645401896057, 1.9815212343049753, -0.6935718519675257, -0.3958215598603581, -0.002373226930367321, 2.4262934738673025, -0.6903752318588545, -0.9717166737934835, -0.0031280277670380544, -0.006717306729734115, -0.00207705306494421, -0.005509229854244607, -0.005933218870038903, -0.4087953771663792, -0.8795051584361077, -0.016561937511564543, -0.05422466655673622, -0.9217071439896345, -0.6637101024917842, -0.35540792638141694, -0.004825641601429013, -0.0016869699776667646, -0.49316188061129285, -0.0017861793456660125, -0.1737288273674258, -0.6425129342161267, -0.008154355181341739, 0.0006731685619935557, -1.3169841206911093, -0.0067345063523033205, -1.430671506574429, -1.3038550184762936, -0.003919003733585228, -0.18438202712110074, -0.8815623768953019, 0.27581609699372595, -0.0008776756645723873, -0.7923250544728225, -0.6691760099822032, -0.7435927913712801, -0.006833774292609196, -0.002826479803606341, -0.005544361070828633, -0.3973749472848527, 0.3302799907355743, -0.002324615488817068, -0.8055382896763521, -0.3917195756228799, -0.24369534719883887, -0.0006568049319128709, -0.27647243324960397, -0.12447408730315761, -0.0023464321175030263, -0.6501160464053012, 0.5477370556014659, -0.34304992800813217, -0.0005201196838266174, -0.001953290836297485, 0.310459325023163, -0.004904553745912391, -2.8639386178722974, -0.743074118038625, 0.8257912469650573, -0.19225408476546724, -1.2169626151666433, -0.06486287311652375, -0.6267166111910112, -0.304994605997794, -0.39245501899734037, -0.00229137790701731, -0.008468743846388276, 1.3033604892384956, -0.5953400029099798, -0.004120768110890928, -0.6268214760785734, -0.003939678320539159, -0.7963727093305477, -0.004533779337932563, -0.06407273081236727, -0.001209072352249893, -0.007975204082020973, -0.011868565572409258, -0.8638502781940599, -0.0049299918585736565, -0.7162042470014508, -0.766457217239928, -0.49822361796143233, -0.9408941831454696, -0.4604122073418457, -0.0008004574868787837]], [[-0.005123789906435161, -0.0064519598136070335, -0.004237961423190768, -0.00046484663692380454, 0.9905463562681684, -1.6444678824143573, 0.11449566842506638, 0.946142134369463, 1.202610517270147, -0.0072059763759551605, 0.0009794854541471337, 2.440248584772992, -0.6057981116633101, 0.5141942558077244, -0.007930473518340114, -1.7701727440353616, 0.8979667384971163, 1.2470479197393913, -0.002075268261149239, -0.002849347963947711, 0.0010006036329895784, -0.005446064199797283, 0.0010118628130434135, 0.5274535547401847, 1.1335247599571903, 0.016112048958692688, 0.05305744677503148, -0.8120011872053846, 0.8543407276053432, -0.31856142836185514, -0.0028864272412433846, -0.0016254997399642625, -0.4360705854801033, 0.0010560672944486913, 0.17188422553558955, 0.8240470277475908, -0.005238811338275493, -0.00040463616052181204, -1.174944358058704, -0.000609398000492325, 1.844163002737679, -1.155182200876131, -0.00038919239049697775, 0.23881879754915547, -0.7928400640043604, -0.1980519499369909, -0.0021892203104126, 1.0187494041847205, 0.8569763296425497, 0.9583235952568958, -0.00034532265155540263, -0.0022424343436351886, -0.005470545079655449, -0.3562359163633254, -0.23111494411907943, -0.004509788083300277, -0.7023562909956204, -0.3478266426513558, 0.3126520384732958, -0.002741644362206657, 0.3576654125624983, 0.16001774865433718, -0.004795398815380018, 0.8377980121715907, -0.3982229477054883, 0.4411508100372269, -0.0012689664346351914, -0.0013222980908900665, -0.21103929451911738, -0.0022636900190999053, -2.5231901708982245, 0.9573712976964361, -0.6025209955893451, 0.24661968884503044, -1.0976079522538102, -0.06782070464777659, -0.548405594235269, 0.3919824849939248, 0.5045372152392446, 0.0012804318750737928, -0.0003258771760846643, -0.9516435702228858, -0.5242681916890238, -0.000398733337497424, 0.8058985673342858, -0.0050745995328955835, 1.026840362716642, 0.0014703307184826026, 0.06478173829638927, -0.0003101274912560697, -0.0035500206224841615, 0.007636555519562646, 1.111203497564453, -0.0024081948155349254, 0.9299275661548119, 0.9897047153987069, 0.6394570903410063, 1.2063789694191178, 0.5980828208168789, -0.007288645499313516], [-0.005666733854785351, -0.004731523287240571, -0.000810392014582706, -0.0015221330764357915, -0.7717729294461421, -1.8495388513218491, -0.10941378854450647, -0.7364512242773483, -0.9396432313778792, -0.003090407427067033, -9.899010043991263e-05, 2.0800814851636082, -0.6995776400278048, -0.3976054083400372, -0.0021472770899151243, 2.4525671894527843, -0.693576589611952, -0.9753665254369219, -0.002830214959569661, -0.006077766378817495, -0.001879301302299982, -0.004984707908764925, -0.005368329840718074, -0.41047329642615316, -0.8830401662158586, -0.015766228063188246, -0.051655827552323244, -0.9289233122550893, -0.6663281908377919, -0.35884540089888334, -0.004366202625758194, -0.001526357188209478, -0.49617129762592316, -0.0016161210452953112, -0.16576132105244495, -0.6448957618841883, -0.007377996532853993, 0.0006090776285755971, -1.330200734556309, -0.006093328462251431, -1.4364405416269883, -1.3165121071479553, -0.003545883802657221, -0.18518798243141077, -0.891953441166724, 0.2787560961955702, -0.0007941140490179022, -0.7954223390709324, -0.6715988633112899, -0.7465831716475754, -0.006183145315100347, -0.002557376730278515, -0.005016494357648702, -0.401539836800766, 0.33376111515045404, -0.00210329383934058, -0.8095036405040654, -0.3986443777843891, -0.2446056481667709, -0.0005942719445803204, -0.27765860552990296, -0.12495812269106518, -0.002123033353652129, -0.6527274997338927, 0.5536053939293178, -0.3443912899152369, -0.00047060020548558834, -0.0017673222097111326, 0.3136380065848592, -0.004437601714398659, -2.8863215787309264, -0.7460662304941499, 0.8346331007550832, -0.19297375743629686, -1.2317464992057605, -0.06588417473176574, -0.6293233935999551, -0.30616840756582747, -0.3939814982688419, -0.0020732207363391092, -0.0076624529281296636, 1.3174843995543088, -0.5991031608523244, -0.0037284386268107094, -0.6292632587019679, -0.0035645900065779572, -0.7995973973677687, -0.004102127941707771, -0.061315356601070826, -0.0010939591696080028, -0.007215902025041771, -0.010974299376853413, -0.8672242915346825, -0.004460617918971964, -0.7194312234182384, -0.769634315636348, -0.5000977158498257, -0.9443764335975663, -0.4625104976886933, -0.0007242476482262974]], [[-0.004635964870803024, -0.005837682572844872, -0.0038344742154738432, -0.0004205895867008757, 1.0378373820599627, -1.8737636426101427, 0.09654627908797055, 0.9907179182367783, 1.2595151690320288, -0.00651991083725113, 0.0008862307471244319, 2.2778258645762883, -0.6325960068001529, 0.5399241874684423, -0.007175430162287364, -1.7843233237306628, 0.939864995966297, 1.3063464099650097, -0.0018776864258421542, -0.002578067662174325, 0.0009053383095024182, -0.004927556120653688, 0.0009155255271980677, 0.5522693536032729, 1.1877972873205518, 0.013907057446777874, 0.044680292176491256, -0.8506007798080261, 0.8946697446603454, -0.3395248449879139, -0.0026116167010921025, -0.0014707393998550419, -0.5088786017113464, 0.0009555213948407966, 0.14484378768979117, 0.8630588740554533, -0.0047400353590819275, -0.0003661116204783775, -1.2292555856949148, -0.0005513785253122515, 1.9321964078294391, -1.2092613743909828, -0.0003521382186380774, 0.2500090443314869, -0.9034194371298554, -0.19985666701157057, -0.00198078934516316, 1.0670014553818297, 0.8976272138059566, 1.005919370284154, -0.000312445223347812, -0.0020289369845392057, -0.00494970622850379, -0.406103572384972, -0.23360382359520016, -0.0040804208429170725, -0.7248833328406526, -0.3631668366233415, 0.3274666693837871, -0.002480618289103155, 0.374441724906848, 0.16758202926662852, -0.004338839190434225, 0.8794104285198494, -0.4015432989093832, 0.4619995594734165, -0.0011481508650088028, -0.0011964049287807824, -0.21376981179396712, -0.0020481689527812783, -2.6430788367039284, 1.002525464818085, -0.60743428379263, 0.258346871109865, -1.2507246528439386, -0.06255579689246832, -0.6351595526529877, 0.4105856387012428, 0.5283869440190448, 0.0011585247054808488, -0.0002948511098449957, -0.959199203270909, -0.540595125968121, -0.00036077079256010956, 0.8439912244532528, -0.00459145780711082, 1.0758565319852227, 0.001330343687743116, 0.05468739134104893, -0.0002806009186925675, -0.003212030781315391, 0.006175196276052641, 1.1637103271122002, -0.0021789157578159485, 0.97336532079602, 1.0364184471491626, 0.6697116434724629, 1.263584139084163, 0.6260124110649693, -0.006594709210874548], [-0.005127216291593184, -0.004281045114180912, -0.0007332363308780908, -0.0013772140544211348, -0.779776595108044, -1.9677265280644334, -0.1077320458192676, -0.7443064124577148, -0.9494355508582212, -0.002796176371392132, -8.956546552003021e-05, 2.2870749961473575, -0.6964248136693229, -0.40147298831724704, -0.00194283944863238, 2.574718049958926, -0.7013493986973616, -0.9854008658297069, -0.0025607562700623726, -0.005499115291545794, -0.0017003770603815915, -0.004510124571506102, -0.004857222682997897, -0.41486637689558675, -0.8921549678258571, -0.014896135767880785, -0.0508007225780537, -0.9327559119019354, -0.673349684608145, -0.3742630852823371, -0.003950505848493273, -0.0013810359975824974, -0.518658014088914, -0.0014622536305683954, -0.16313554870388347, -0.6515499711329655, -0.006675553324358469, 0.0005510886553178406, -1.335708468647221, -0.0055131957424295495, -1.4513640326940618, -1.3216550304918244, -0.0032082878192219505, -0.18721427790740564, -0.9489352553827878, 0.29263621210061685, -0.000718508155464069, -0.8037039233433122, -0.6784612599953355, -0.7537271556595565, -0.005594461325565715, -0.0023138943827673334, -0.004538884700840774, -0.4273373892997366, 0.3504501146480815, -0.001903043748907998, -0.9068569074311421, -0.3979092483080247, -0.24713011856725076, -0.0005376925887062673, -0.2806755940563434, -0.12626702832516798, -0.0019209039064449287, -0.6589704837891573, 0.5811101959108848, -0.3480055544220584, -0.00042579537035345816, -0.0015990592567662809, 0.3293071557492185, -0.004015107183206244, -2.898199743104696, -0.7539885609747374, 0.8760418585254334, -0.19494843480349816, -1.3114099444138878, -0.06031965380032718, -0.6609828944330378, -0.3093469725303298, -0.39810860104540263, -0.0018758338414729275, -0.006932927237000167, 1.3831022919436629, -0.6708018239505804, -0.00337346199053375, -0.6358586389060774, -0.003225213045631741, -0.8079150174933022, -0.0037115731481129136, -0.06040196803874346, -0.0009898056659243559, -0.006528891486599707, -0.01036455784212332, -0.8763182112620017, -0.0040359320643605255, -0.7274062866242216, -0.7778495984365509, -0.5052830921795958, -0.9541018484981151, -0.46766080551390915, -0.0006552935846807255]], [[-0.004194584609397595, -0.005281889349252593, -0.003469402158470733, -0.00038054615520475324, 1.0467386823691351, -1.7507782999959698, 0.08944762797418501, 0.9992182515446694, 1.270487737610763, -0.005899164125426386, 0.0008018546205289018, 2.3597331473325474, -0.6701541363626882, 0.5440574919757256, -0.0064922728630004535, -1.6528973231278659, 0.9477084416234127, 1.317761891399262, -0.0016989159328439892, -0.0023326153754631277, 0.0008191429929189887, -0.00445841408242955, 0.0008283603074909506, 0.5570086777220584, 1.197966567023108, 0.012845235173672843, 0.0413763906425317, -0.9009071708852068, 0.9024106786011583, -0.33808826846898926, -0.002362970282419146, -0.0013307134594395722, -0.4652160155612072, 0.0008645482544510904, 0.13417096058589809, 0.8706060203589243, -0.00428874676993864, -0.00033125491917591047, -1.3006354825095472, -0.0004988829597896633, 1.9487561295790967, -1.2800697970559578, -0.0003186118949223431, 0.25212059482869476, -0.8447627408413263, -0.18517244570269464, -0.0017922026445901336, 1.0757511316488304, 0.9055029873811218, 1.0139072967411253, -0.00028269798448828944, -0.0018357662505996415, -0.004478455326070045, -0.3795446132908548, -0.2164975366362547, -0.0036919327355904676, -0.7977438014160919, -0.384449052783605, 0.33032562771224877, -0.0022444439479671796, 0.3776155953172581, 0.16903678719517687, -0.003925747627094086, 0.886395196303112, -0.3719944668463519, 0.4660064663919376, -0.0010388378863617769, -0.0010824977843289887, -0.19819150801298185, -0.0018531671844386093, -2.799360761836286, 1.0111840392327196, -0.5627205903378041, 0.2604842078030661, -1.1718647447839907, -0.06638201592307555, -0.5931867956704396, 0.41415513377193935, 0.5329731518004117, 0.0010482240557562943, -0.0002667789687555137, -0.8885400092148896, -0.5943999209011342, -0.0003264225800163759, 0.8513153892735611, -0.004154314967677802, 1.085070273937534, 0.0012036845216322632, 0.0506884967968208, -0.00025388550770592746, -0.002906220227221678, 0.005499679193907815, 1.173785161112911, -0.0019714658668941853, 0.9815226215724026, 1.0452848868314837, 0.6755569074688345, 1.274665160018711, 0.6312570316612354, -0.005966841106497733], [-0.0046390650371869865, -0.003873456000750402, -0.0006634264741569659, -0.0012460924613348747, -0.76366588826302, -1.7781432443729401, -0.09944320115744472, -0.7289425607992952, -0.9296770017098344, -0.0025299584227805065, -8.103812985510707e-05, 2.39732486263653, -0.7443793831425803, -0.39343716283015295, -0.0017578658762253054, 2.7418721946666738, -0.6871122325954254, -0.9648572127830866, -0.0023169521638246268, -0.004975556331863548, -0.0015384878113655557, -0.004080725294803305, -0.004394776940359074, -0.4063048990763866, -0.8737344125246613, -0.013753013960964316, -0.04687536931078978, -0.9973384250557816, -0.6593873893731108, -0.35995810710920684, -0.0035743866688434938, -0.0012495505254939906, -0.4685438397423854, -0.0013230356020267945, -0.1505597976273837, -0.6379420632766492, -0.006039988225518359, 0.0004986206876950358, -1.4283433764277378, -0.004988296213250993, -1.4213973017137762, -1.412721375350386, -0.0029028336245125854, -0.18338249289170847, -0.8575089474413976, 0.3115848758353118, -0.0006501005367010463, -0.7871577224570628, -0.6642542303905506, -0.7383710648252407, -0.005061824674703209, -0.0020935934667784045, -0.0041067472339752905, -0.38616545620696335, 0.3730615707282932, -0.0017218590396257903, -0.9762458411676745, -0.4252933925300497, -0.2419734016030523, -0.0004865000318226718, -0.27491668416496584, -0.1236438025163232, -0.0017380187699114176, -0.6455430404499902, 0.6188031781587013, -0.3407803636043285, -0.00038525630737318235, -0.001446816258291616, 0.3504574534488066, -0.0036328374491848537, -3.098851045974108, -0.738389111653089, 0.9328891064525173, -0.19091537460987412, -1.185059295955095, -0.06552915762435785, -0.5972243583645207, -0.3029158298067253, -0.3898381556429873, -0.0016972397290548466, -0.006272858120548497, 1.4729064012597683, -0.7225147900165036, -0.003052281917621519, -0.6226513314098927, -0.002918147436456288, -0.7912429367289783, -0.0033582022378506695, -0.055769945410024176, -0.0008955683936970127, -0.005907289746432965, -0.00942843801794771, -0.8581269447180633, -0.0036516796381178243, -0.7125824181644084, -0.7618257364385463, -0.4947463022684027, -0.9341686601890251, -0.4581432274098795, -0.0005929044894731132]], [[-0.003795227214986968, -0.004779012005127286, -0.003139087828163673, -0.00034431517284357543, 1.0277605379658807, -1.6298341732397632, 0.08402709488126778, 0.9811096306454316, 1.2475631987408478, -0.005337517375220709, 0.000725511763781393, 2.498588302191559, -0.7035670814435359, 0.5340496070956181, -0.005874157503362246, -1.4913716433094493, 0.9303877110254608, 1.294002341141704, -0.0015371657946436031, -0.002110532073955734, 0.0007411541473563218, -0.004033938050363431, 0.0007494939011985093, 0.5469131508050573, 1.1762345193240265, 0.01205052630123605, 0.038870226130598394, -0.9456130389003319, 0.8860922923191128, -0.3506756663413823, -0.002137996955395907, -0.001204019088159444, -0.4318776642730457, 0.0007822364714282112, 0.12604561838277303, 0.8549246261762398, -0.003880424398399765, -0.00029971684956315014, -1.3643166982749648, -0.00045138538434653176, 1.9134124631787313, -1.343238694022122, -0.000288277540502754, 0.24753359719009946, -0.7858878353405758, -0.16704285347372977, -0.0016215708788615752, 1.0563498929662143, 0.8892199733144786, 0.9954565270744301, -0.0002557829163698775, -0.0016609868874789336, -0.004052071210227741, -0.35331853420358644, -0.19521758573515366, -0.0033404317468342893, -0.8616307813611105, -0.4034113520096947, 0.32437350333976295, -0.002030755258757592, 0.3707539095957361, 0.16598600200332536, -0.0035519856245450057, 0.8702658417175544, -0.3356426670834239, 0.45759310035924106, -0.0009399323617043391, -0.0009794354945288576, -0.17864381412110045, -0.0016767311157688768, -2.938250076882848, 0.9928902853214854, -0.5077685534825497, 0.2557959195543465, -1.0886384882755642, -0.0700869718960012, -0.5510936920530106, 0.4066762492066243, 0.5233534267327686, 0.0009484248940639776, -0.00024137951594508216, -0.8017173777854493, -0.6416052220461108, -0.00029534458703941297, 0.8359489260773957, -0.0037587915593918155, 1.065383429153765, 0.001089084302775194, 0.047621199542774106, -0.00022971361363830013, -0.002629525239373193, 0.005050029375023601, 1.1525757855618006, -0.0017837668346685793, 0.9636110952417575, 1.026311901546059, 0.6633807193935863, 1.2517166533578137, 0.6197370159798421, -0.005398750976234421], [-0.004197389615596549, -0.003504672571669434, -0.0006002630640045591, -0.0011274546735933874, -0.7490961065936765, -1.608450403043245, -0.0922597843714167, -0.7150456373870335, -0.9118083782223082, -0.0022890865134559866, -7.332266350968188e-05, 2.424392643860258, -0.7870995485302896, -0.386094582426565, -0.001590503240487816, 2.835139611910912, -0.6742319014188215, -0.9462803187737081, -0.00209636012306664, -0.004501844296592032, -0.0013920116901537122, -0.003692208201266305, -0.003976359663953306, -0.3985611386885407, -0.8570759425506194, -0.012760883520683258, -0.043470828072674036, -1.0547144068130303, -0.6467604715327604, -0.37804105125102455, -0.0032340769887175247, -0.0011305835028887713, -0.4238039039658397, -0.0011970722230657017, -0.13965691295146257, -0.6256345506564255, -0.005464933915108277, 0.00045114808261490527, -1.5112396554116947, -0.004513371241226554, -1.3942971855230677, -1.49422378562468, -0.002626461067836613, -0.17991519837299746, -0.7756746606483409, 0.3221911395327449, -0.0005882058604415141, -0.7720405856315248, -0.6514029433122759, -0.7243409218340141, -0.00457989921573787, -0.001894266927989665, -0.00371575264748179, -0.34931276488020463, 0.3858024214047075, -0.0015579245374901672, -1.0451487769797911, -0.44969237880606133, -0.23730921935512472, -0.000440181408363723, -0.26970552979552626, -0.12127073585789706, -0.0015725457345520796, -0.6332750578166214, 0.6398314791628795, -0.33424423127547426, -0.0003485768815372807, -0.0013090679888186944, 0.36243799765295337, -0.003286962795763055, -3.2771165645418336, -0.7242799321000933, 0.964563397673252, -0.18723185568687667, -1.0719658069597244, -0.07105624169981535, -0.5402162569657436, -0.2971001127474836, -0.3823564650565935, -0.0015356491786182236, -0.005675632767430739, 1.523006820261575, -0.7738820709139594, -0.0027616807098411245, -0.6107035560523132, -0.0026403168846256507, -0.7761663595551367, -0.003038475013226968, -0.051757325439419896, -0.0008103032498202956, -0.005344869373297879, -0.008693324810260885, -0.8416729028893767, -0.0033040110603440396, -0.6991715333256352, -0.7473347531796298, -0.4852162582894637, -0.916141924966229, -0.44953201306716417, -0.0005364553260637359]], [[-0.003433891780632442, -0.004324012533201309, -0.00284022201602272, -0.0003115336645209666, 0.9949360682098345, -1.5166284123253098, 0.07900345871801406, 0.9497815755021264, 1.2078011818238, -0.004829343806182671, 0.0006564373465080212, 2.503370939091879, -0.7233742178107648, 0.5168896618848658, -0.005314891579951229, -1.3997771825174303, 0.9005687971899942, 1.2527731139037244, -0.0013908155398053357, -0.0019095928467467564, 0.0006705904523287567, -0.0036498754699120194, 0.0006781361961140291, 0.5294484942040567, 1.1386591564099013, 0.011319289198521442, 0.03655159853080496, -0.9680249898626246, 0.8578242566290666, -0.35801512822514325, -0.0019344428557952352, -0.0010893870159416736, -0.40234799325973825, 0.000707761416534183, 0.1185205013755448, 0.8276994353937985, -0.0035109775231405445, -0.0002711814518423992, -1.3960311750399528, -0.00040840995107864513, 1.8522930104832276, -1.37483223387457, -0.0002608312548361461, 0.23961669197882907, -0.7313069652585501, -0.1568579948321779, -0.0014671845971822293, 1.0226973702354991, 0.8609246760913984, 0.9636228099596766, -0.00023143037409730787, -0.0015028478922497809, -0.0036662822105596026, -0.3287877040404414, -0.1834608295713621, -0.003022396412504993, -0.8961010359624715, -0.41464408706868777, 0.31404217094650644, -0.0018374114108337376, 0.358902688237207, 0.16069562555694203, -0.0032138086997491044, 0.8424363619202956, -0.31505921689629973, 0.44300625001208727, -0.0008504434196881285, -0.0008861855440541427, -0.16803598254242805, -0.0015170931463688868, -3.0073645164910556, 0.9612086728314649, -0.4765772886060628, 0.24765373788499342, -1.0131816345057996, -0.0718386055173037, -0.5126706059256003, 0.39371016310278406, 0.5066724150135179, 0.0008581273962762385, -0.0002183982905012186, -0.7524615798055422, -0.6669882713677382, -0.0002672254630458024, 0.8093037374417874, -0.0034009250855750075, 1.0313461492822098, 0.0009853949246958038, 0.044774158431464775, -0.00020784307370504644, -0.0023791737872221608, 0.004632370706348434, 1.1158208936860126, -0.001613938224290007, 0.9327491410659611, 0.993516197564443, 0.6422489850967085, 1.2118616925370744, 0.5998880152789732, -0.004884747487519376], [-0.003797765162568385, -0.0031710002210513103, -0.0005431133065137389, -0.0010201121348939464, -0.7322215909691903, -1.455276688555415, -0.08600172575898717, -0.6989471874448303, -0.8911554895362428, -0.002071147501438877, -6.634177014902112e-05, 2.326856538842945, -0.7745556496883937, -0.37754004434583543, -0.0014390748419522833, 2.7100420613132683, -0.6592392810955751, -0.9248188374346441, -0.001896770176873024, -0.004073233367085112, -0.0012594812459415599, -0.003340680986014584, -0.0035977789980446585, -0.3895897291925308, -0.8377787612922108, -0.011899333428720231, -0.0405052215924951, -1.028843382896257, -0.6321509555990472, -0.3712934693658582, -0.0029261674625527673, -0.0010229430750700699, -0.3834424561910018, -0.001083101546957797, -0.1301587340700471, -0.6114252317754414, -0.004944629290885346, 0.0004081952423353733, -1.4744948751816165, -0.004083662856070637, -1.3629038750235691, -1.4576909018007442, -0.0023764013488784532, -0.17588955855243374, -0.7018066911491195, 0.30795624692088475, -0.0005322040434137443, -0.7545681610752734, -0.6365783735307597, -0.7080785669410216, -0.004143856844971858, -0.0017139178409822592, -0.003361983816058499, -0.3160475046416732, 0.3687157280699352, -0.0014095978873168598, -1.0218999556794874, -0.44256223033325226, -0.23192304461968113, -0.00039827268159294937, -0.2636596700801267, -0.11852701568943834, -0.0014228270315998805, -0.6190557934013385, 0.6115967916783276, -0.3266857367575608, -0.00031538962508031716, -0.0011844344363210906, 0.34635094209566597, -0.0029740181254613355, -3.192695870224627, -0.707945303600686, 0.9220167095812015, -0.18297974109085144, -0.9698818305679072, -0.06988815623180364, -0.48876990282696375, -0.2903760629449444, -0.3737060644871214, -0.0013894433175353868, -0.005135267957872579, 1.4558100310541033, -0.7568050200925308, -0.0024987470190996645, -0.5968887576626074, -0.0023889379831010227, -0.7586981163067451, -0.002749188331168985, -0.04826084915752542, -0.0007331560172181209, -0.004835995836308495, -0.008193591177917486, -0.82264345172449, -0.0029894432613761252, -0.6835796974572929, -0.7305363870275096, -0.4742086658926793, -0.8953298424025097, -0.439516599340529, -0.000485380566299792]], [[-0.0031069583171545435, -0.0039123325840618, -0.002569810576156822, -0.00028187321322012757, 1.0237903644370636, -1.4255099094397838, 0.0610757006852075, 0.9753292808610012, 1.24374467040865, -0.004369552351546313, 0.0005939393561926182, 2.025326675167535, -0.7623435602851065, 0.5307303454976229, -0.004808872164300643, -1.2740707979299981, 0.9246232895111658, 1.2892741898587174, -0.0012583989784995806, -0.0017277846119209783, 0.000606744975196489, -0.003302378663119354, 0.0006135723049175356, 0.5428578750672295, 1.1716687507615495, 0.008304117903087611, 0.027946280341999835, -1.0208316695430688, 0.882752273394184, -0.37465464839027857, -0.001750268704963746, -0.000985668817191664, -0.37683343714782713, 0.0006403769717102037, 0.09117707548722366, 0.8499073625113852, -0.0031767048916303076, -0.0002453628480698972, -1.4714763064286753, -0.0003695261165390523, 1.906003703581039, -1.4495521824510527, -0.0002359980710975596, 0.24614738613119616, -0.6873701381306893, -0.14275909147571772, -0.0013274971018966718, 1.0505416883579484, 0.8847207399716762, 0.9892859835537579, -0.00020939638508683212, -0.0013597649712139906, -0.003317223353217018, -0.30904312709002757, -0.16693603310544539, -0.002734640539499164, -0.959495224911053, -0.4368457336712118, 0.3224640584108475, -0.001662475415539487, 0.3686683153772807, 0.16512788941364254, -0.002907828873858711, 0.8648732304871269, -0.28676959165257754, 0.45526601214406665, -0.0007694745276983463, -0.0008018137211458782, -0.15287678816806427, -0.0013726539652745976, -3.17160070415633, 0.985594453124962, -0.43380226171604147, 0.2544030796297138, -0.9428219946748702, -0.07405931114809176, -0.48305286905891925, 0.40516491882193517, 0.5206967096168735, 0.0007764269293738746, -0.00019760505818856123, -0.6848899672804566, -0.7138605094985876, -0.00024178350047266683, 0.8317034555880402, -0.0030771303103502867, 1.0610913897727599, 0.0008915775896704678, 0.03485289080707962, -0.00018805478092030184, -0.002152657759297394, 0.0036806373727958186, 1.145681558471037, -0.001460278631264242, 0.9575050647136534, 1.0221613806370233, 0.6594724382880173, 1.2427347279860061, 0.6164229950461395, -0.004419681167340946], [-0.003436188095673893, -0.00286909609850306, -0.0004914046547265915, -0.0009229894488274428, -0.6264031335678976, -1.3024393975436115, -0.08167646706903715, -0.598591871396703, -0.7621894331529013, -0.0018739579948160766, -6.002551265645699e-05, 2.800024943502053, -0.8026791319756711, -0.323205410524133, -0.0013020636161073273, 3.1884404859409328, -0.5644601645618195, -0.7912614482229083, -0.0017161827609141944, -0.0036854295639001393, -0.0011395687407649141, -0.0030226219221580796, -0.0032552421844814364, -0.33392207150015873, -0.7166981287199948, -0.011479607251772002, -0.038547897014234424, -1.0681985370958718, -0.5408224950545997, -0.3840103036708467, -0.0026475733412573907, -0.0009255508612677491, -0.34226135692620796, -0.0009799817742141244, -0.12372353111632906, -0.5237747632672975, -0.004473861752781495, 0.00036933184975422313, -1.5314169095804329, -0.003694866083632655, -1.1659283373262066, -1.5136360711136854, -0.00215014927885565, -0.15058445253260655, -0.6281018068113909, 0.3623055734032772, -0.00048153403914291904, -0.6462217785727588, -0.5451255673814757, -0.6064424468107202, -0.003749329132093928, -0.0015507394033188314, -0.00304189655549311, -0.28285836647396795, 0.4337748692676039, -0.0012753930990323692, -1.065640887628459, -0.4586752557247899, -0.1986741531154213, -0.00036035399471521926, -0.2257433708869782, -0.10148696229074414, -0.0012873627248926802, -0.5301987911189195, 0.7195439567372681, -0.2797026300793199, -0.00028536205605380786, -0.0010716669767543753, 0.4074551073882658, -0.002690868245291249, -3.3156282800538803, -0.6068083258415269, 1.0847525564368043, -0.15671695123358864, -0.8680146243254371, -0.07336828143169309, -0.43695957070337305, -0.2484328666229511, -0.31996344963568646, -0.001257157402565638, -0.004646350121607758, 1.7128043556156567, -0.7894203083541239, -0.002260846680505165, -0.5110491743020878, -0.0021614923270514667, -0.6490901155037688, -0.0024874440129783433, -0.04576967402283984, -0.000663353806988119, -0.00437557105616652, -0.007900825161399094, -0.7046561071447413, -0.0027048247871351116, -0.5853935362565263, -0.6249826153287534, -0.4062201595416232, -0.7675224637775907, -0.376179299717557, -0.00043916852474965663]], [[-0.002811151486771055, -0.0035398477989562007, -0.002325144428876449, -0.0002550366698032796, 0.9978670649146992, -1.353189776094775, 0.05792410608171144, 0.9517559948392698, 1.213843870596131, -0.003953536654081346, 0.0005373916653448533, 1.8207406850806367, -0.7294215990573603, 0.517715047171903, -0.004351029770732927, -3.2076365687456088, 0.9017372033275073, 1.2587785378275262, -0.0011385895136823343, -0.0015632859487700078, 0.0005489780888584852, -0.0029879662811862595, 0.0005551554031758447, 0.5317879541004964, 1.1419953114534522, 0.007821404994871984, 0.0264848867680292, -0.9808887280367455, 0.8604213521026328, -0.3576029986724475, -0.001583629379590079, -0.0008918254054498758, -0.3617627634404173, 0.0005794080551958499, 0.08644782113817577, 0.8289963419853945, -0.0028742576396448083, -0.00022200237812709713, -1.4123511159451432, -0.00033434432839796, 1.8608140217223474, -1.392352231472208, -0.00021352920146305477, 0.24005052388704118, -0.6524569221447291, -0.294945699002209, -0.0012011089531123158, 1.0244417840248525, 0.8628162816986997, 0.9647500728494207, -0.00018946020486056397, -0.0012303046678747175, -0.0030013976402129628, -0.29335633059985483, -0.34209552791162007, -0.00247428128531764, -0.9294157517715056, -0.4175615253700603, 0.31469133130633337, -0.0015041947007497288, 0.35954204507571763, 0.16104915167331946, -0.0026309807302178616, 0.8434234481519612, -0.7229328164120244, 0.44398797670772866, -0.000696214510065494, -0.0007254747583408118, -0.2969645169771413, -0.0012419665284849502, -3.0502077858491377, 0.9628096865378089, -1.0919160763608529, 0.24810671544898705, -0.8998993011059279, -0.07087425395551641, -0.4590377821481891, 0.3955752229623393, 0.5077841169128288, 0.0007025049885050925, -0.00017879150487895776, -1.723746198162923, -0.6908113759905918, -0.00021876381252933282, 0.8110778320761893, -0.0027841633404505095, 1.0361480878964082, 0.000806692401676408, 0.03308684719697445, -0.00017015048900387804, -0.0019477078360356753, 0.0036107562234577524, 1.117511571654421, -0.0013212486381658417, 0.9338737494551739, 0.9981293188526675, 0.6432727425728383, 1.2174751457239525, 0.6013161035705274, -0.0039988928129564396], [-0.0031090360049713483, -0.002595935619240147, -0.00044461907265174345, -0.0008351136051678805, -0.5543989705285732, -1.1500525030772473, -0.07341343600593124, -0.5294752760830845, -0.6740791837076874, -0.001695542477730538, -5.431061247803685e-05, 2.160315775247921, -0.7064194815478555, -0.28588424438091053, -0.0011780969348963888, 2.586926160901538, -0.49938946893831454, -0.6996613167843605, -0.0015527886850870863, -0.0033345477281575475, -0.0010310728477403517, -0.0027348445788623736, -0.002945317565472079, -0.2947181841768778, -0.634312090731462, -0.010329278661997747, -0.03465762464609098, -0.9400010510657898, -0.47866592224885934, -0.3380669709718456, -0.002395503568077291, -0.0008374311510293894, -0.3004385864544402, -0.0008866798136235001, -0.11122006701174804, -0.4634699456147293, -0.004047914981189073, 0.0003341685573366013, -1.3474999639778769, -0.003343085817107611, -1.0308959326780025, -1.33193102696267, -0.0019454381826307964, -0.1332331143278367, -0.5546148791514933, 0.3155205225512859, -0.00043568821718445834, -0.5718687203932803, -0.48239990839085917, -0.5366033233810221, -0.003392363555663244, -0.0014030968343426784, -0.0027522841157424077, -0.24977031399709088, 0.3800450003904614, -0.0011539656604875057, -0.9371602716328958, -0.4036511089326691, -0.1757458165022479, -0.00032604546459938524, -0.1997348434012605, -0.08980022599155627, -0.0011647956839698033, -0.46914040083118436, 0.5838140158868167, -0.24750142577455023, -0.00025819334740170743, -0.0009696358648884489, 0.36184178937820694, -0.00243467645725717, -2.9176755585057372, -0.5364614316214994, 0.8799244482351265, -0.1386829873623803, -0.7664990160728775, -0.0643942129759099, -0.38489058898976475, -0.21966959095334374, -0.28313302798478585, -0.0011374661455272577, -0.004203981102771526, 1.389628504546084, -0.6941951794074092, -0.0020455963223491684, -0.4522228038411907, -0.0019557012835627018, -0.5738469840564292, -0.0022506198093278163, -0.041126883691635745, -0.0006001973153208333, -0.0039589823307575045, -0.007035836966499975, -0.6234869575366255, -0.002447304226718362, -0.5179080857383205, -0.552528711386185, -0.35943709188002776, -0.6774648562209141, -0.3327578121179933, -0.0003973562324530018]], [[-0.0025435077895774793, -0.003202826490473319, -0.0021037724201526022, -0.0002307551760640394, 0.9658411199899052, -1.3312845512479672, 0.054729539707540895, 0.9220953959941486, 1.1732891190334584, -0.0035771289179390097, 0.00048622775872838203, 1.6473918737913957, -0.7265653530430621, 0.5010902793937824, -0.003936777568417117, -3.543684980617982, 0.8735853460155044, 1.2176303465291118, -0.0010301868507657927, -0.0014144488501403073, 0.0004967110637366488, -0.0027034884270578812, 0.0005023002492212492, 0.5143874107732149, 1.1053390683361137, 0.007362773447853318, 0.02499802411157228, -0.9763662966737595, 0.8328234339431685, -0.3555057891939687, -0.0014328554265916594, -0.000806916623447547, -0.3669186177797624, 0.0005242438583156313, 0.08162873754051002, 0.8048153433076458, -0.0026006057411322096, -0.00020086600836996565, -1.405601732379709, -0.0003025121227664816, 1.7999040637908645, -1.385889476787227, -0.00019319954466323296, 0.23243369413074974, -0.6418971605665214, -0.3384659914058038, -0.0010867539486039916, 0.991675449815651, 0.8355148065765451, 0.9343746023778515, -0.00017142210554839298, -0.0011131700020503845, -0.0027156410152303044, -0.288613878911932, -0.3969975869691537, -0.002238710276705814, -0.928833157501843, -0.4157812728338771, 0.3049009593137399, -0.0013609835529684098, 0.34813798317301564, 0.15594807516708564, -0.0023804907039086127, 0.8168683824439653, -0.7986811070486116, 0.42992300668829875, -0.000629929421413877, -0.0006564038642759821, -0.35943757313562724, -0.0011237215619512575, -3.0358671632048506, 0.932825538886862, -1.2063778157764276, 0.2402836196669315, -0.889496514979109, -0.07070078651459842, -0.45532944837420264, 0.38263951934959844, 0.4918104817499376, 0.0006356209969076143, -0.00016176914958512345, -1.904335960072979, -0.6912941321273409, -0.00019793577964919592, 0.7855629422852938, -0.002519089126721493, 1.0022262197434615, 0.000729888950173112, 0.031267786097787735, -0.0001539508262782663, -0.0017622707549169142, 0.0030404245447197757, 1.0827292643914508, -0.001195455392197136, 0.9065885026238084, 0.9657597931813179, 0.6232633268784348, 1.1776989526271866, 0.5820027705817166, -0.0036181668143124364], [-0.0028130313623918554, -0.0023487821627012455, -0.0004022878453922769, -0.0007556042319037168, -0.5379509987168923, -0.9799930598967953, -0.06775957312095855, -0.5134817141472833, -0.6545319876052826, -0.0015341135189483111, -4.913981567506354e-05, 1.9546367487301848, -0.5977434573615719, -0.2774915396211264, -0.0010659328552329829, 2.6721706641855745, -0.48444153693295894, -0.6790607868712236, -0.0014049510083938182, -0.003017072598612808, -0.0009329066157376394, -0.0024744658985311756, -0.0026649002039952044, -0.28608748843409876, -0.6155012209528026, -0.009493087786843067, -0.03196077195777942, -0.7951298554367372, -0.46443323995147473, -0.2862306617961327, -0.0021674328167792037, -0.0007577011291997866, -0.28257475811957794, -0.00080226093237079, -0.10261847136452222, -0.44884479688358075, -0.0036625216871638113, 0.00030235308649047407, -1.1395260805899723, -0.0030247977944461856, -1.0007179143573648, -1.1265401920289397, -0.0017602171903395101, -0.129267762037727, -0.4726076379725496, 0.32127864583891486, -0.00039420727749847005, -0.5547899954432776, -0.4678556095280031, -0.5205042784738277, -0.0030693839053188418, -0.0012695109973533609, -0.0024902450545495323, -0.2128535356895116, 0.38254203896566225, -0.0010440990676479796, -0.7918015131804689, -0.3415104494441398, -0.170402484280413, -0.0002950033759715644, -0.19378079496037431, -0.08710558838310979, -0.0010538979878478199, -0.45506427692478674, 0.6029918645262015, -0.24007763400332846, -0.00023361131316606643, -0.0008773189161108775, 0.35712907529221133, -0.0022028761392889123, -2.4679049567485305, -0.5202338037928642, 0.9089509073629078, -0.13449635760684742, -0.6532633086243201, -0.054098952822665906, -0.3335989551811868, -0.21321219272576056, -0.27460103193004376, -0.0010291704360807618, -0.0038037290884021086, 1.43547273344533, -0.58640918762861, -0.0018508394886262106, -0.43859665589363744, -0.001769503163467734, -0.5570570874508185, -0.0020363431296183615, -0.037986099371894226, -0.0005430538176210207, -0.0035820561234313204, -0.0066852810387742915, -0.6045841694101047, -0.002214301645932963, -0.5017618300091812, -0.5362763387794265, -0.3485116832548127, -0.6574805768635845, -0.3229638995002732, -0.00035952479873016557]], [[-0.002301345874132251, -0.0028978922571480203, -0.0019034767650684783, -0.00020878547120858424, 0.9555487000794447, -1.4302589302011282, 0.0529000865832132, 0.9122671865609732, 1.1607929024832813, -0.0032365581541645753, 0.0004399350578061392, 1.4905472306253928, -0.7031436065472542, 0.4957071366711614, -0.0035619654288372112, -3.8459435323264657, 0.866081333200467, 1.2046271246042586, -0.0009321049726326915, -0.0012797822121009648, 0.0004494202698534172, -0.0024460950986147645, 0.0004544773209886455, 0.5088720564501447, 1.0935543523436524, 0.00705411551689416, 0.024145900683975187, -0.9503892791966286, 0.8239694466730121, -0.351267878081137, -0.0012964363379293973, -0.0007300918242708503, -0.4177595148044825, 0.0004743317261765749, 0.07887868393023996, 0.7961973489566738, -0.002353007652315251, -0.0001817419869952214, -1.3613924728084208, -0.00027371059308581113, 1.7805787986618857, -1.3422951361411954, -0.00017480543083723738, 0.2299587839116733, -0.6896185741315844, -0.3739819112426095, -0.000983286438541707, 0.981241778002173, 0.8267148658371765, 0.9244420831163401, -0.00015510137494188325, -0.0010071874762577393, -0.002457090664960279, -0.31022882940439206, -0.43913207617341427, -0.002025567478026179, -0.9013844617862709, -0.40278213929898005, 0.3016718673500214, -0.0012314072310767314, 0.3444364378579953, 0.15429904218937265, -0.0021538492951736995, 0.8081854817932197, -0.8683261603742869, 0.42537436600726297, -0.000569955193731158, -0.0005939090617320012, -0.4002672424499636, -0.0010167344447958495, -2.9399783408222127, 0.9249081504834948, -1.309315214199447, 0.23775245988812768, -0.9568205749428333, -0.07561081150766141, -0.5056251508828774, 0.3785472396187651, 0.4866005643997217, 0.0005751048865425966, -0.00014636745618988253, -2.0667630153359733, -0.6695713499785944, -0.0001790907390594221, 0.7772407028629407, -0.0022792520597371374, 0.9914583954471694, 0.0006603977903817011, 0.03023768485024879, -0.0001392934986582423, -0.001594488740136971, 0.001814331719553983, 1.0735647306915455, -0.0010816386510847076, 0.896757348645062, 0.9553552281198099, 0.6180036593357214, 1.1651492779150137, 0.5757796933362939, -0.003273688920537316], [-0.0025452086862767296, -0.002125159656092842, -0.0003639868833902261, -0.0006836647753523684, -0.5450569990374653, -1.1733747954091114, -0.06364760013965728, -0.5202745408664607, -0.6630709646407258, -0.0013880538647254104, -4.4461319333412625e-05, 1.768539980710943, -0.5160328245835791, -0.28129991871159254, -0.0009644476767652966, 2.7295667893980298, -0.4904466363869265, -0.6879177888728505, -0.0012711886394742137, -0.00272982359449682, -0.0008440865799098424, -0.002238877313291675, -0.002411180777416582, -0.2898876553840296, -0.623643414033384, -0.008870377968421784, -0.029975166210169796, -0.693228940975157, -0.47052130393993824, -0.26009927645806297, -0.001961076192018371, -0.0006855620315591568, -0.37721262032774683, -0.0007258793915452133, -0.09632293571858373, -0.4546821833434055, -0.00331382086117947, 0.00027356669831217283, -0.978745840388396, -0.0027368132910217764, -1.0140284514612337, -0.9677166688088725, -0.0015926306910337457, -0.13099757553846728, -0.5658345761368031, 0.3244629740789229, -0.00035667564901569057, -0.5619485327213016, -0.47383949454853125, -0.5273888648279232, -0.0027771544540096975, -0.0011486435810798136, -0.0022531541697451657, -0.25551953695284313, 0.3864909387878049, -0.0009446926372166374, -0.6829865794102593, -0.29261962239316763, -0.1726049590337269, -0.00026691673795110475, -0.19635990739283124, -0.08823867006626335, -0.000953558623263646, -0.4610816971813964, 0.6135534055192089, -0.24320506858433957, -0.00021136968162957832, -0.0007937912658114327, 0.3602719418841414, -0.0019931450318927744, -2.1200701942278655, -0.5264321225274978, 0.9284860919141104, -0.13622202900041197, -0.7853734051380407, -0.061202378405395205, -0.43041269594545534, -0.21600853853096377, -0.27817751302817184, -0.0009311853286074649, -0.0034415842089342147, 1.4663396355167424, -0.5057413253577465, -0.0016746250348769484, -0.4443108955006036, -0.0016010325665984724, -0.5644792815093899, -0.0018424672725076468, -0.03571622126247776, -0.0004913508296436203, -0.003241016251001232, -0.006967469383773152, -0.611724593203687, -0.0020034827405811077, -0.5086148825860277, -0.5434570494088615, -0.35258644751506674, -0.6660008866736852, -0.32734484917775414, -0.0003252952145836906]], [[-0.002082239674707394, -0.002621990157449149, -0.001722250829247366, -0.00018890745478096247, 0.9525889878005013, -1.5818998247819027, 0.051787993838387184, 0.909439058068793, 1.1572092168101926, -0.0029284124015649484, 0.0003980497855430105, 1.3486354291719427, -0.7631290611632829, 0.49412434243654035, -0.003222838348302424, -4.10263125608183, 0.863195082830919, 1.2008761758198334, -0.0008433612595236977, -0.0011579368955247642, 0.00040663193091709576, -0.002213207636319971, 0.00041120751107180285, 0.5072635356193087, 1.09016129240222, 0.006862241612273575, 0.023629945980513604, -1.0207987422172737, 0.8214389864407253, -0.36468360326203125, -0.0011730054177913735, -0.000660581349272188, -0.4674678788826825, 0.0004291716209714552, 0.0772110612329647, 0.7936974760355452, -0.002128982845913307, -0.00016443872263411809, -1.4705636033402176, -0.0002476511952058777, 1.7749253517197272, -1.397393525483409, -0.00015816258109436088, 0.22924713519377415, -0.7627390594098064, -0.4026416398666239, -0.0008896698479559431, 0.9783344221235069, 0.8242597253046929, 0.9216006306965626, -0.0001403345060539549, -0.0009112953191892782, -0.002223156338402459, -0.3411230467788269, -0.472943545539873, -0.0018327175475670076, -0.9408434170438693, -0.4307313285032016, 0.3007584181191253, -0.0011141675925772628, 0.34337618079495474, 0.15383379893074045, -0.001948785928339561, 0.8057019226655656, -0.9258703504144256, 0.4240892174816849, -0.0005156909834946247, -0.0005373642551547853, -0.4324166196615412, -0.0009199333413513014, -3.0612258764927107, 0.9219246977822627, -1.3967261569561775, 0.2370457071165697, -1.059641673014699, -0.08360800618256052, -0.5644804729383811, 0.3773621690106818, 0.48512447352690463, 0.0005203503851104621, -0.0001324321249536155, -2.204701981841741, -0.6832328775141604, -0.0001620398943217556, 0.774882403465952, -0.0020622493649429074, 0.9883032820311954, 0.0005975227347086086, 0.029610822252448175, -0.00012603166372997156, -0.0014426808907371626, 0.0006663890983643603, 1.070127646835246, -0.0009786581575161075, 0.8938109913754075, 0.9522868228680881, 0.6160414555657565, 1.161549082025647, 0.5739708257937349, -0.0029620080273953194], [-0.002302884832108786, -0.0019228277681956727, -0.0003293324737438701, -0.0006185745199970809, -0.5772225459904414, -1.4362454475456456, -0.06134532296845581, -0.55099145881519, -0.7020717833992423, -0.0012559002365743863, -4.02282525831867e-05, 1.6001610864038924, -0.5801905449864839, -0.2980794421329001, -0.0008726246842393015, 2.722296717535929, -0.5197573386298702, -0.7283822864275529, -0.0011501614984964275, -0.0024699229513064397, -0.0007637229089864939, -0.002025718611417346, -0.0021816174326780512, -0.30702554025093937, -0.6604614353377705, -0.008485391032459173, -0.028828629962557147, -0.7686485684148766, -0.49822919544266353, -0.2705848872781913, -0.0017743663384298782, -0.0006202911425140456, -0.45168651640295304, -0.0006567699732217862, -0.09274633509051072, -0.48141103590185474, -0.002998319092136773, 0.00024752100034467926, -1.1356092224834267, -0.0024762471738329307, -1.0740007139406296, -0.9943942446039838, -0.0014409997424996138, -0.13875550457070523, -0.6925776645960788, 0.3199764863366621, -0.0003227173262960822, -0.5948922362545064, -0.5015534843759195, -0.5585222566884369, -0.002512747541309835, -0.0010392836919935848, -0.0020386361990219347, -0.3076803160812319, 0.3812025845630273, -0.0008547504795897536, -0.7075185284826225, -0.32527376149546794, -0.18273030040643357, -0.0002415041684313672, -0.20797113496575306, -0.09342345108694437, -0.0008627723541415058, -0.4882987608876585, 0.6124984232356879, -0.25750113056668633, -0.0001912456280763672, -0.000718216103753635, 0.35467858127891505, -0.0018033819729152856, -2.17832153553406, -0.5575744139329288, 0.9260194955326808, -0.1441963299693696, -0.9664477579056282, -0.0744494942811955, -0.5288693937521436, -0.22873397274374604, -0.29452943822452776, -0.0008425291728315327, -0.003113918365874224, 1.4624538935187634, -0.4959930821505693, -0.0015151875809166849, -0.47043082714136014, -0.0014486016935316036, -0.5978801681214974, -0.001667049919478933, -0.034471778159388206, -0.0004445703721393535, -0.0029324460525738272, -0.007262046665116012, -0.6478324465861162, -0.0018127354505556392, -0.5389266048165745, -0.5756610418807842, -0.3733456687526443, -0.7051062062506765, -0.3468054643902696, -0.00029432455564899204]], [[-0.0018839941060838539, -0.002372356104269427, -0.0015582790256630885, -0.0001709219816170529, 0.9552190655965619, -1.7174200112382325, 0.05138210727598773, 0.9119478093163553, 1.1604227841088748, -0.002649604544446363, 0.00036015232011961184, 1.2202347456341007, -0.8243976857748709, 0.4954376109680489, -0.0029159988289609484, -4.222327847850189, 0.865383553394215, 1.2041837009164746, -0.0007630666447969686, -0.0010476922099240333, 0.00036791737785947233, -0.002002492889274402, 0.0003720573268519406, 0.5086350265837355, 1.093165180523184, 0.00677407840867704, 0.02344455075095505, -1.058268334708501, 0.8237292152795221, -0.3938088336674637, -0.0010613260905394694, -0.0005976888173512543, -0.5126148043216864, 0.0003883111124190336, 0.07660854793694066, 0.7958674706386725, -0.0019262869603221574, -0.00014878286492075925, -1.4551338308878452, -0.00022407285664560243, 1.7797007922743868, -1.4969037297606713, -0.000143104261341413, 0.2298792986206606, -0.8280880952001718, -0.4153885515647503, -0.0008049662919543844, 0.981163664509653, 0.8266417034375934, 0.9241646397616446, -0.00012697355904669962, -0.0008245328485039395, -0.0020114943967926126, -0.3702889308762621, -0.48869026641813396, -0.0016582284449161238, -0.9799006351661118, -0.4411644524444227, 0.3016106687118295, -0.0010080900883324933, 0.3443289798429336, 0.15427092829807856, -0.0017632462043673347, 0.8079440830716971, -0.9511912760481148, 0.4252917342865155, -0.00046659315220328183, -0.0004862029582036573, -0.4468073244912674, -0.000832348463122733, -3.278914140238707, 0.9243656951184279, -1.437484553360111, 0.23772986401189677, -1.1507176227930784, -0.0909255649083228, -0.6156039574924651, 0.37839491931280433, 0.4864950170064156, 0.0004708089421955406, -0.00011982354668361286, -2.2690226897926213, -0.7404062541552126, -0.00014661242390145974, 0.7770709437033575, -0.0018659070307905767, 0.990955076386329, 0.0005406338780862574, 0.02938128705611751, -0.00011403245963055395, -0.0013053263407299962, -0.00024433449056346536, 1.0729880847265125, -0.0008854822156293449, 0.8961180591808143, 0.9548153409635185, 0.6177052987188778, 1.1647764784194607, 0.5755258398870284, -0.0026800016028750533], [-0.0020836321117993013, -0.0017397594649156245, -0.00029797743603298543, -0.0005596813680979906, -0.6161562714987319, -1.6101615899013848, -0.06006115748011705, -0.5881695819769786, -0.7493113153099591, -0.0011363286716107547, -3.63982070293741e-05, 1.4478131850951836, -0.6831508733138104, -0.3183503793075917, -0.0007895439616773002, 2.680863216135525, -0.5551686089315898, -0.7773980979432819, -0.0010406570917521033, -0.002234766890317984, -0.0006910104906218171, -0.001832854291872502, -0.0019739103210934723, -0.32776621651229426, -0.7050234059605668, -0.008246606024249429, -0.028162869409758255, -0.7996434402368552, -0.5317798750729344, -0.31999293149095925, -0.0016054327291142596, -0.0005612345546708999, -0.5044135588260429, -0.0005942403142311533, -0.09071217876177055, -0.5137959652436815, -0.0027128555691064587, 0.00022395505735759545, -1.056694506518231, -0.0022404889971965516, -1.1465768005264556, -1.168234537034416, -0.001303805251006528, -0.14813929752744975, -0.7764328105805025, 0.31328703780442657, -0.00029199210257022795, -0.6348104843068176, -0.5351508287645292, -0.5962033191691234, -0.0022735142430564204, -0.0009403357231391389, -0.0018445420236967883, -0.34520946566163985, 0.37208298684323654, -0.0007733715216744861, -0.7397669682149032, -0.3314343543154762, -0.19499946519966682, -0.00021851107509192745, -0.2220195687892595, -0.09970366045310362, -0.0007806296507740422, -0.5212402938197949, 0.6058669180416154, -0.2748164470241556, -0.00017303754245332617, -0.0006498362906068938, 0.34659226024492257, -0.0016316858473401777, -2.558670521137015, -0.5952666507661393, 0.9119436046585798, -0.15386198737913576, -1.0803102161285378, -0.08401036690077474, -0.5910592736316472, -0.24414447946915005, -0.3143355747653794, -0.0007623137792921798, -0.0028174488841961514, 1.440212573728703, -0.5913274961873007, -0.0013709298246176354, -0.5020678746126539, -0.0013106834366030144, -0.6382972032550163, -0.0015083336759910797, -0.033797464042871206, -0.0004022437815511062, -0.002653254160203394, -0.007231651592247845, -0.6915519151574068, -0.0016401488004573735, -0.5755633056093347, -0.6146216316494895, -0.39849237568169404, -0.7524903224646886, -0.3703286815540079, -0.00026630254665394005]], [[-0.0017046230723931834, -0.0021464891733002497, -0.0014099186254319651, -0.0001546488667362233, 0.952602231219465, -1.8442935605568713, 0.051045257423432494, 0.9094482495562007, 1.1572664764585736, -0.0023973413847718666, 0.00032586299100900755, 1.1040588154850288, -0.8768982146907744, 0.494032286911576, -0.0026383728414366378, -4.275272069985604, 0.8628490332851668, 1.2008883042831762, -0.0006904167079367035, -0.0009479436841314731, 0.0003328887542739176, -0.00181183984086652, 0.00033663454761175427, 0.50721901937553, 1.090164943683802, 0.006706244951521012, 0.023296756980901983, -1.1240617881149213, 0.8214928438220732, -0.4184223934772238, -0.0009602795122470053, -0.0005407841483570949, -0.5541236779513832, 0.00035134084515373043, 0.07611759047682623, 0.7936796594970462, -0.001742889314787026, -0.00013461756780538264, -1.5510879168150482, -0.0002027393610742768, 1.7747266664077066, -1.5831940787141552, -0.00012947961188021837, 0.2292478103891686, -0.8892681439348715, -0.4215736165174965, -0.0007283271796515679, 0.9785868720781853, 0.8244722218097729, 0.9216487881083609, -0.00011488467911653253, -0.0007460308463636622, -0.001819984334181184, -0.3975801042140984, -0.4958464941962666, -0.0015003520750806868, -1.0433317757432004, -0.4691634722267687, 0.3008047028697982, -0.0009121119955064053, 0.34338855872339963, 0.15385913258486011, -0.0015953713191396179, 0.8057451803526312, -0.9646171001756658, 0.4241542137283077, -0.00042216982001056115, -0.00043991261848612374, -0.45332580305971565, -0.0007531023530956136, -3.4678026324932705, 0.9217542517938474, -1.4555114775602562, 0.23710510613208444, -1.2365023716598698, -0.09760308043019435, -0.6632103115530943, 0.37735334247764996, 0.48519017706258466, 0.000425984233689437, -0.00010841540407864587, -2.297471606073932, -0.7867054101849643, -0.0001326537698153469, 0.7749861641950848, -0.0016882580287035714, 0.9881788996445622, 0.000489161287356076, 0.029186231809259666, -0.00010317567398978625, -0.0011810490225131743, -0.0010560076728779193, 1.0699817332709511, -0.0008011773551102795, 0.8935287101227097, 0.9521183485141516, 0.6159904637915031, 1.1616142674981966, 0.5739195756748486, -0.002424844404533503], [-0.0018852539722299625, -0.0015741207017224066, -0.0002696076441397228, -0.0005063953067409193, -0.6532311262482493, -1.7578084618097116, -0.05928258707257667, -0.6235729747864298, -0.7943062072797938, -0.001028141258613563, -3.293281188919666e-05, 1.30997000036181, -0.7572419670472686, -0.3376439040120144, -0.0007143731763266684, 2.6205512182971704, -0.5888820736814605, -0.8240882628550349, -0.000941578364455494, -0.002021999532989438, -0.000625220865487811, -0.0016583521700898973, -0.0017859785576320748, -0.3475181878621493, -0.7474570071632675, -0.00808715541728222, -0.02774196598238441, -0.9014889856419548, -0.5637316119003641, -0.3553715448443641, -0.0014525829260219128, -0.0005078006177550899, -0.5504447854271697, -0.0005376639698147299, -0.08945301613620563, -0.5446489359816784, -0.002454570415181214, 0.00020263277720355258, -1.2088930911673534, -0.0020271768503581085, -1.215693000887391, -1.297328892544113, -0.001179672752476325, -0.15707322870564241, -0.8476231423494237, 0.3035203853303792, -0.0002641921614247628, -0.6728307509171771, -0.5671555364830619, -0.6320843604670506, -0.002057057833468618, -0.0008508083779467841, -0.0016689271380620828, -0.3776325253203979, 0.3606373598062959, -0.0006997404796124546, -0.8367927159095576, -0.3752448339311672, -0.20668622718755517, -0.00019770710480055003, -0.23539542579901213, -0.10568490377545695, -0.0007063075778244703, -0.5526083226185916, 0.5899113033875434, -0.29130721432775186, -0.0001565630095676245, -0.0005879667726506193, 0.3359635682564133, -0.0014763365412299712, -2.8412906484774014, -0.6311679794875144, 0.8914504832103725, -0.1630691657331147, -1.1819911499304818, -0.09199968962278628, -0.6453931188633357, -0.2588228408184225, -0.333199275609666, -0.0006897355211401373, -0.0025492056253149592, 1.4078282677903984, -0.6582122974587968, -0.0012404065395580108, -0.5321994122366049, -0.0011858960807904168, -0.6767866376629582, -0.001364728465263881, -0.03340159150948694, -0.0003639470147727633, -0.0024006435284488078, -0.007271402777751803, -0.7331982522625619, -0.0014839937547518013, -0.6104459001954629, -0.6517235638271199, -0.4224493672338548, -0.7976294677128322, -0.39272050627590177, -0.00024094845296886708]], [[-0.0015423295696901955, -0.0019421265478666624, -0.0012756833003601982, -0.0001399250801829693, 0.9494549857766342, -1.9641665458167274, 0.05090726959203309, 0.9064430027094073, 1.1534690491444288, -0.0021690956588922886, 0.00029483827529993537, 0.9989437462025172, -0.9260054870106307, 0.4923532178278736, -0.002387179028089952, -4.313721275745223, 0.8598530429357807, 1.196932297926986, -0.0006246836155772283, -0.0008576920013081954, 0.00030119513072950576, -0.001639338459843779, 0.0003045842951262912, 0.5055247264676841, 1.0865579696986714, 0.006671732850391327, 0.02324373689992502, -1.1834306071687657, 0.8187980021560277, -0.4413788003403967, -0.0008688533617152727, -0.0004892972507170741, -0.592728099660043, 0.0003178904376553887, 0.07592886209274473, 0.7910594351297994, -0.0015769525653076954, -0.00012180091821385753, -1.6333011001980902, -0.00018343698181085656, 1.7687811491708525, -1.6649509090060661, -0.00011715213604055249, 0.22848803826131153, -0.9470724480612419, -0.4256853114432419, -0.0006589847126782141, 0.9754554551710116, 0.82183758431094, 0.9186176952684778, -0.000103946755488317, -0.0006750028512944355, -0.001646707533437108, -0.4232853019219004, -0.500590182248118, -0.0013575067754387625, -1.099318564621366, -0.4941476932567065, 0.2998305101591304, -0.0008252717708224101, 0.3422557549484241, 0.15336077730867326, -0.0014434794412879653, 0.8030958163488577, -0.9731802533927819, 0.42277821817116323, -0.00038197593789396356, -0.00039802948262247377, -0.4583064555331531, -0.000681401095053767, -3.646812394494968, 0.9186458840692038, -1.4686726155662515, 0.23634659294013372, -1.3170890790168641, -0.10383849377619626, -0.7076917100290969, 0.37610447151320614, 0.48361347110530245, 0.00038542718943645365, -9.809340623651834e-05, -2.318244344418903, -0.8293619905814533, -0.00012002408921395529, 0.7724671506822987, -0.001527522606672661, 0.9848622172952448, 0.0004425892914718101, 0.029101606630444508, -9.33525395991228e-05, -0.0010686038809262432, -0.0017685306434266567, 1.0663975023029912, -0.0007248989793491125, 0.8904580179717865, 0.9489034141309027, 0.6139422924360546, 1.1578114957380727, 0.5719934592635272, -0.002193980175194533], [-0.0017057629893885958, -0.0014242520495275544, -0.00024393887921944868, -0.000458182496874422, -0.6849477838211013, -1.872111479310265, -0.058702500649912386, -0.6538607064129217, -0.8328014447649991, -0.0009302541369171568, -2.9797349579718135e-05, 1.1852505692819084, -0.8140414661725963, -0.35414927928591694, -0.0006463592400490467, 2.5241060438735894, -0.617734248618536, -0.8640368558501649, -0.000851932710051501, -0.0018294892989164301, -0.0005656949293050083, -0.0015004640206463164, -0.0016159393738589705, -0.3644182842480845, -0.7837579650187521, -0.007964662421376853, -0.027422687540081384, -0.982074161634286, -0.5910653045597878, -0.38267180769277986, -0.0013142856244960806, -0.0004594540112442955, -0.5844930623139902, -0.00048647413767434976, -0.08850624299656837, -0.5710502304757582, -0.0022208760361935986, 0.00018334054556161608, -1.324577557100488, -0.0018341736950147182, -1.2748307983592482, -1.4005879368551029, -0.0010673586426045941, -0.16471573701749898, -0.9027361726856115, 0.29069068183047714, -0.00023903899298612286, -0.7053529098656334, -0.5945330416493166, -0.6627795290962419, -0.001861209773881147, -0.0007698047390648026, -0.0015100321686235285, -0.4022588445392483, 0.3454690008478948, -0.000633119690970929, -0.9124372954388279, -0.40942452371248844, -0.2166840471812616, -0.00017888383585212478, -0.24683772559359504, -0.11080143508456601, -0.0006390615498624854, -0.5794427425009536, 0.5682951481944643, -0.305413940221393, -0.00014165698158527526, -0.0005319877186580714, 0.32081048188787026, -0.0013357777090018928, -3.0674113391070286, -0.6618916493731322, 0.858542035944124, -0.17094526893622505, -1.2581111241410645, -0.09795778110396369, -0.6859581788820603, -0.2713818880844191, -0.3493365052296287, -0.0006240672831129776, -0.002306501231163065, 1.3558409516587546, -0.7103308169939838, -0.0011223100962205787, -0.5579758809264265, -0.0010729894611920942, -0.7097193418508954, -0.0012347955983133035, -0.03311082332291742, -0.0003292964009318733, -0.0021720834125598253, -0.007264939145069835, -0.7688382028684044, -0.0013427058956652167, -0.6402968073168505, -0.6834708304771233, -0.4429510487094479, -0.8362505080881003, -0.4118758559352265, -0.0002180082681054277]], [[-0.0013954876829169545, -0.0017572208492108124, -0.0011542282323700062, -0.00012660311373380667, 0.931704773743221, -2.0352129527501908, 0.0500992830907375, 0.8894937530655767, 1.1319193117806068, -0.0019625807185041813, 0.00026676735615993114, 0.9038364569723875, -0.95146877449299, 0.48311220047905873, -0.002159900838370326, -4.419135437609176, 0.8436521707263155, 1.1745552017107221, -0.0005652088298048753, -0.0007760329874258963, 0.00027251898903294373, -0.0014832605649281335, 0.0002755854783644324, 0.49605575260724905, 1.0662408033159143, 0.006556692057349251, 0.022884836147216474, -1.2081897636025436, 0.8035050009740785, -0.45249787302804856, -0.0007861316986733256, -0.00044271231005313643, -0.616115246438255, 0.00028762477163313586, 0.07474026896265547, 0.7762610175411345, -0.001426814297461221, -0.00011020451431113742, -1.6691988729836853, -0.0001659723406327032, 1.7356371333248435, -1.6957640573100787, -0.00010599833270708883, 0.22421421441248543, -0.981332902167856, -0.4356261122504561, -0.0005962441930992321, 0.9572954072329148, 0.8065406660688785, 0.9014518016556418, -9.405020808377805e-05, -0.0006107372791305689, -0.0014899280448468803, -0.43849161451184115, -0.513044308042291, -0.001228261470070647, -1.122607438658267, -0.5058105250580579, 0.29423926282288465, -0.0007466994174747408, 0.3358579151345575, 0.15050111375840952, -0.0013060488629974354, 0.7880890565169087, -0.9970914019311892, 0.4148932261519867, -0.00034560882899285224, -0.000360133950196547, -0.46872906707471995, -0.0006165263598393302, -3.7142640734510275, 0.901408102338439, -1.504538440526824, 0.2319464342072312, -1.3648879429046774, -0.10750575736139446, -0.7343589639739275, 0.3690685706961313, 0.4745909815900312, 0.00034873149428621116, -8.87541436464368e-05, -2.3748539132236606, -0.8464390446533219, -0.00010859685338526202, 0.7580552418086826, -0.0013820904590560866, 0.9664030939491065, 0.0004004513153203144, 0.02863343072223178, -8.446464474240788e-05, -0.0009668643998372966, -0.0023302682357862078, 1.0464054682334534, -0.0006558829039658199, 0.8737069296497371, 0.9311010545055174, 0.6024442938845185, 1.1361840271305983, 0.5612762186035974, -0.0019850960334391724], [-0.0015433609576360058, -0.001288652069923137, -0.00022071398229347671, -0.0004145599251169287, -0.7307774487102161, -1.8949165308719127, -0.059312865163627826, -0.697622249303209, -0.8884573089234147, -0.0008416866379026848, -2.6960407904530925e-05, 1.0724054074483236, -0.8230338224766656, -0.37795520882637645, -0.0005848207646107618, 2.2335361128762914, -0.6593333527022511, -0.921793000300322, -0.0007708220259238979, -0.0016553075508881504, -0.0005118363296972165, -0.001357608062907449, -0.0014620892556794411, -0.38883061649443174, -0.8362081506424159, -0.00800449650144628, -0.02765864884881602, -0.9938123642701124, -0.6305762598174038, -0.38611794682674133, -0.0011891553121084906, -0.0004157103813337324, -0.5915017981088011, -0.000440157979541665, -0.0893528717296606, -0.6092238985551198, -0.00200943119726099, 0.00016588508587169333, -1.3503332594669568, -0.0016595459556918524, -1.360249757723199, -1.3997606674457008, -0.0009657377179825855, -0.17575235459729, -0.9137303514130495, 0.25966982542328265, -0.0002162806037078128, -0.7524010681907706, -0.6341542290973936, -0.707130949917527, -0.001684007987538944, -0.000696513282716751, -0.0013662652480596522, -0.407350578361172, 0.30753299015334284, -0.0005728417245735546, 