[[[-0.055516849632287334, 0.055516849632287334]], [[0.23134050793393648, -0.23134050793393668]], [[0.5555888693001774, -0.5555888693001779]], [[0.748505108987938, -0.7485051089879377]], [[0.683675388480792, -0.6836753884807922]], [[0.5828313430121201, -0.5828313430121201]], [[0.498701314564737, -0.4987013145647366]], [[0.44218436428287894, -0.4421843642828781]], [[0.3854273987148094, -0.38542739871480863]], [[0.4198557779510657, -0.41985577795106516]], [[1.008832877325675, -1.008832877325674]], [[1.5115078117834129, -1.5115078117834118]], [[1.5886963456109926, -1.58869634561099]], [[1.4121417056997874, -1.4121417056997845]], [[1.5697518720841648, -1.569751872084163]], [[1.5661093876986205, -1.566109387698618]], [[1.5393919410894783, -1.539391941089476]], [[1.6070677265521367, -1.607067726552135]], [[1.6540084668995299, -1.6540084668995279]], [[1.712402837458834, -1.7124028374588323]], [[1.7044717546389963, -1.7044717546389954]], [[1.6748926242058562, -1.6748926242058553]], [[1.6380491003400737, -1.6380491003400728]], [[1.5881851097032955, -1.5881851097032953]], [[1.6176574413559315, -1.6176574413559317]], [[1.6089944674216825, -1.6089944674216818]], [[1.608766287491184, -1.6087662874911832]], [[1.6141263871810114, -1.6141263871810108]], [[1.6048802922115375, -1.6048802922115368]], [[1.7157078252261058, -1.7157078252261053]], [[1.679769830222271, -1.6797698302222706]], [[1.664283523926318, -1.664283523926318]], [[1.6027962239850928, -1.6027962239850932]], [[1.635930499759984, -1.635930499759984]], [[1.7380661441279441, -1.7380661441279441]], [[1.7082959426376212, -1.7082959426376212]], [[1.690563161839204, -1.6905631618392036]], [[1.6409873044985215, -1.6409873044985201]], [[1.5885418474341149, -1.5885418474341144]], [[1.5656509741514852, -1.565650974151485]], [[1.574959265110833, -1.5749592651108326]], [[1.557294648020497, -1.5572946480204972]], [[1.5945407312968358, -1.5945407312968358]], [[1.61179184666619, -1.6117918466661905]], [[1.6757396625113286, -1.6757396625113294]], [[1.5894543769792309, -1.5894543769792306]], [[1.6225123207559502, -1.6225123207559506]], [[1.663301642806463, -1.6633016428064629]], [[1.7216708390686712, -1.7216708390686715]], [[1.6698458870374953, -1.6698458870374955]], [[1.7667935874611613, -1.7667935874611613]], [[1.7504348628066086, -1.7504348628066102]], [[1.720001521331691, -1.7200015213316922]], [[1.5696495327821984, -1.5696495327822]], [[1.7169878122165907, -1.7169878122165914]], [[1.7286535396128642, -1.7286535396128653]], [[1.7295843085930243, -1.7295843085930247]], [[1.666726890402851, -1.666726890402851]], [[1.6240502735167501, -1.6240502735167501]], [[1.6041373133592394, -1.6041373133592411]], [[1.6682316179008772, -1.6682316179008785]], [[1.6658136142691427, -1.6658136142691433]], [[1.6561086698756915, -1.6561086698756924]], [[1.893450722388758, -1.8934507223887582]], [[1.9278332465843266, -1.9278332465843262]], [[1.7824689527307407, -1.7824689527307391]], [[1.6796714045278167, -1.6796714045278154]], [[1.6221508612108222, -1.6221508612108204]], [[1.595020060425422, -1.5950200604254194]], [[1.5699755567356077, -1.5699755567356055]], [[1.6090753105045756, -1.6090753105045736]], [[1.621523171418399, -1.6215231714183966]], [[1.6221279613646868, -1.6221279613646853]], [[1.6557717729669286, -1.6557717729669266]], [[1.651415204509218, -1.6514152045092163]], [[1.6270234092689453, -1.6270234092689437]], [[1.6882251566085076, -1.6882251566085051]], [[1.683111146325388, -1.683111146325387]], [[1.897446737219231, -1.8974467372192305]], [[1.7628879970061115, -1.762887997006111]], [[1.6852803954071112, -1.685280395407111]], [[1.6385369489773478, -1.638536948977347]], [[1.6390291296115582, -1.6390291296115576]], [[1.6408149465196218, -1.64081494651962]], [[1.5631332393765611, -1.5631332393765591]], [[1.6146300847083819, -1.6146300847083794]], [[1.648158439304042, -1.6481584393040396]], [[1.765753519247738, -1.7657535192477347]], [[1.6975827881755614, -1.697582788175557]], [[1.640686698733956, -1.6406866987339521]], [[1.6284373402851315, -1.628437340285127]], [[1.581452100562943, -1.5814521005629376]], [[1.600056592077158, -1.6000565920771521]], [[1.632741325047253, -1.6327413250472473]], [[1.596999054546102, -1.5969990545460953]], [[1.6332887548487875, -1.6332887548487816]], [[1.6248706945305205, -1.6248706945305147]], [[1.670922343219465, -1.6709223432194598]], [[1.6430103780931697, -1.6430103780931649]], [[1.634295540631364, -1.6342955406313597]], [[1.8599688533289787, -1.859968853328974]], [[1.801266575764226, -1.801266575764222]], [[1.6976431858321153, -1.6976431858321104]], [[1.6561025301654255, -1.6561025301654209]], [[1.6406836530971698, -1.6406836530971654]], [[1.6297191749379039, -1.6297191749379007]], [[1.5751825408156157, -1.575182540815613]], [[1.4960770035695337, -1.4960770035695308]], [[1.6206662883059613, -1.6206662883059586]], [[1.6195937482891558, -1.6195937482891525]], [[1.6108320198194674, -1.6108320198194643]], [[1.8401509446861892, -1.8401509446861863]], [[1.7169590043540042, -1.7169590043540015]], [[1.6452339624078876, -1.645233962407884]], [[1.647843881727558, -1.6478438817275545]], [[1.6435723217904994, -1.6435723217904954]], [[1.6269824153061194, -1.6269824153061152]], [[1.6649447484087945, -1.6649447484087903]], [[1.672107961991749, -1.6721079619917454]], [[1.6095144405138828, -1.6095144405138793]], [[1.7265502574426321, -1.7265502574426277]], [[1.6260102975646051, -1.6260102975646007]], [[1.664972112803923, -1.6649721128039192]], [[1.6275032640422669, -1.6275032640422653]], [[1.6179936443065253, -1.6179936443065257]], [[1.9276770227842288, -1.9276770227842295]], [[1.783143994422742, -1.7831439944227427]], [[1.667557981953322, -1.6675579819533228]], [[1.6067527990585035, -1.6067527990585058]], [[1.5784881405033857, -1.578488140503388]], [[1.5764870336625276, -1.57648703366253]], [[1.575556812930325, -1.5755568129303286]], [[1.6009436330177929, -1.6009436330177966]], [[1.6663479306511484, -1.6663479306511522]], [[1.6503508841121792, -1.6503508841121843]], [[1.6103710430414548, -1.6103710430414602]], [[1.594823722716146, -1.5948237227161508]], [[1.5991610102253104, -1.599161010225315]], [[1.6249856011524222, -1.6249856011524275]], [[1.5789708700296692, -1.578970870029674]], [[1.6375695478821821, -1.6375695478821872]], [[1.5971044573015802, -1.5971044573015858]], [[1.6743449574392408, -1.6743449574392462]], [[1.6303518093471867, -1.6303518093471925]], [[1.627806795881003, -1.6278067958810096]], [[1.6307202283878086, -1.6307202283878142]], [[1.6548123640022447, -1.65481236400225]], [[1.8245224998336493, -1.8245224998336544]], [[1.7677415282595534, -1.7677415282595592]], [[1.8923364778580554, -1.892336477858061]], [[1.8029520866774948, -1.8029520866775]], [[1.8392309214381266, -1.8392309214381324]], [[1.7613805293779965, -1.7613805293780027]], [[1.8888359034121673, -1.888835903412174]], [[1.8706996452379119, -1.8706996452379177]], [[1.7496849532034346, -1.7496849532034402]], [[1.6908738403922448, -1.6908738403922505]], [[1.6639491398094814, -1.663949139809486]], [[1.6514005421115845, -1.651400542111589]], [[1.645077169309407, -1.6450771693094128]], [[1.5850831349160437, -1.5850831349160501]], [[1.6268738997836585, -1.6268738997836651]], [[1.6672813398641502, -1.6672813398641566]], [[1.6290427354122259, -1.629042735412233]], [[1.667525346465097, -1.667525346465104]], [[1.6409495267204366, -1.6409495267204435]], [[1.6549785407589392, -1.6549785407589452]], [[1.6436390809324388, -1.6436390809324448]], [[1.626729047617634, -1.62672904761764]], [[1.71372580763646, -1.7137258076364659]], [[1.546594061705573, -1.5465940617055782]], [[1.597709297660968, -1.5977092976609728]], [[1.669076012931181, -1.669076012931186]], [[1.7078928781014893, -1.7078928781014941]], [[1.6337470041898852, -1.6337470041898907]], [[1.6581480901667192, -1.6581480901667243]], [[1.976850456831782, -1.976850456831787]], [[1.9059016204533628, -1.9059016204533683]], [[1.7762604291158017, -1.7762604291158082]], [[1.6664732048797604, -1.6664732048797668]], [[1.6119097623298981, -1.6119097623299043]], [[1.589355159466908, -1.5893551594669137]], [[1.5738707181137839, -1.5738707181137899]], [[1.577879310488361, -1.5778793104883686]], [[1.584888665295276, -1.584888665295283]], [[1.6477577141157373, -1.6477577141157436]], [[1.604426523912312, -1.6044265239123194]], [[1.6047338788667314, -1.6047338788667382]], [[1.586225266300452, -1.5862252663004577]], [[1.5248343102780648, -1.5248343102780695]], [[1.662985343737055, -1.66298534373706]], [[1.6564619919132133, -1.6564619919132184]], [[1.673236460617662, -1.6732364606176664]], [[1.67204557189142, -1.6720455718914242]], [[1.634891889738811, -1.6348918897388138]], [[1.9549836018548608, -1.9549836018548639]], [[1.8335692318930763, -1.8335692318930807]], [[1.7276006023336623, -1.727600602333667]], [[1.6739466149403806, -1.6739466149403845]], [[1.647183496256523, -1.647183496256527]]]