[[[-0.055317371977878185, 0.05531737197787825]], [[-0.08269013286421359, 0.08269013286421362]], [[-0.09626356738339975, 0.09626356738339975]], [[-0.10304724041966151, 0.10304724041966154]], [[-0.10637198594900375, 0.1063719859490038]], [[-0.10800282813030262, 0.10800282813030267]], [[-0.10870471294788064, 0.10870471294788073]], [[-0.10900137751941047, 0.10900137751941052]], [[-0.10899762640609492, 0.108997626406095]], [[-0.10888316586238947, 0.10888316586238952]], [[-0.10861580472611596, 0.10861580472611601]], [[-0.10833457379010784, 0.10833457379010789]], [[-0.10799028016292822, 0.1079902801629282]], [[-0.10729115052756422, 0.10729115052756422]], [[-0.10648624073163826, 0.1064862407316382]], [[-0.10575121772758062, 0.10575121772758062]], [[-0.10479528995860143, 0.10479528995860143]], [[-0.10334776894294392, 0.1033477689429439]], [[-0.10166288929065094, 0.1016628892906509]], [[-0.09955969157020263, 0.09955969157020253]], [[-0.0973812151407489, 0.09738121514074882]], [[-0.09422718036730965, 0.09422718036730973]], [[-0.09044675844696998, 0.09044675844697009]], [[-0.08684360380329953, 0.08684360380329964]], [[-0.08211120374242781, 0.08211120374242799]], [[-0.07695211827794965, 0.07695211827794984]], [[-0.06990523793372723, 0.06990523793372744]], [[-0.062272524119180134, 0.06227252411918031]], [[-0.05419075023822707, 0.054190750238227246]], [[-0.04575805442572866, 0.04575805442572878]], [[-0.03755210394741721, 0.03755210394741733]], [[-0.027855790568049266, 0.027855790568049356]], [[-0.013084803474231264, 0.013084803474231368]], [[-0.010144749815439183, 0.010144749815439343]], [[0.006850032113460698, -0.006850032113460622]], [[0.012973696391100797, -0.012973696391100784]], [[0.02693484725348845, -0.02693484725348841]], [[0.032288743553501184, -0.0322887435535012]], [[0.040641322587108716, -0.040641322587108675]], [[0.05595944465593669, -0.05595944465593668]], [[0.05762294013484831, -0.05762294013484835]], [[0.06735156897269419, -0.0673515689726942]], [[0.07389838602063767, -0.07389838602063765]], [[0.08453884091992728, -0.08453884091992725]], [[0.09422266005172894, -0.09422266005172887]], [[0.09913566361041078, -0.09913566361041073]], [[0.10630097455906574, -0.10630097455906574]], [[0.10871943988962289, -0.10871943988962292]], [[0.11462932818529295, -0.11462932818529298]], [[0.11751380850808302, -0.11751380850808299]], [[0.12249986762265144, -0.12249986762265133]], [[0.1270488084418614, -0.12704880844186123]], [[0.13100139201372427, -0.1310013920137241]], [[0.13447203888617526, -0.13447203888617518]], [[0.13754658119172045, -0.1375465811917203]], [[0.1402641262652088, -0.14026412626520862]], [[0.1427255084356588, -0.14272550843565857]], [[0.14497242529656262, -0.14497242529656232]], [[0.14702255030618816, -0.14702255030618794]], [[0.1488950005147959, -0.14889500051479576]], [[0.15063492821445962, -0.1506349282144595]], [[0.1522581539036298, -0.15225815390362965]], [[0.1537151925791362, -0.15371519257913607]], [[0.15512355796295066, -0.15512355796295052]], [[0.15644084755305632, -0.15644084755305618]], [[0.15768845446959306, -0.157688454469593]], [[0.15879501011296787, -0.15879501011296782]], [[0.15989759804511466, -0.15989759804511466]], [[0.16093034377071874, -0.16093034377071874]], [[0.1618944914256546, -0.1618944914256546]], [[0.16282177031561695, -0.16282177031561695]], [[0.16368372485162014, -0.16368372485162017]], [[0.16449566107732466, -0.16449566107732463]], [[0.1652269351673572, -0.16522693516735718]], [[0.16602786307496237, -0.16602786307496237]], [[0.16672461490807763, -0.16672461490807763]], [[0.1673638174886382, -0.1673638174886382]], [[0.16864647578477118, -0.16864647578477115]], [[0.16900197807280193, -0.16900197807280193]], [[0.16966022473542847, -0.16966022473542847]], [[0.17016251939568144, -0.17016251939568144]], [[0.17067298420831364, -0.17067298420831367]], [[0.17218817119973778, -0.17218817119973784]], [[0.17219982236606807, -0.17219982236606818]], [[0.17500752011043258, -0.1750075201104327]], [[0.17633610681636133, -0.17633610681636147]], [[0.1907742103676091, -0.19077421036760928]], [[0.18582106781492982, -0.18582106781493]], [[0.19960658922847763, -0.19960658922847782]], [[0.19012117393683853, -0.19012117393683875]], [[0.19803320474525032, -0.19803320474525055]], [[0.1906542185235694, -0.1906542185235697]], [[0.20742866135615157, -0.20742866135615184]], [[0.19688565332012517, -0.19688565332012545]], [[0.21394820730133043, -0.21394820730133074]], [[0.20045563430954277, -0.20045563430954305]], [[0.22004761810836637, -0.22004761810836665]], [[0.20577682763125515, -0.20577682763125543]], [[0.22000239785355438, -0.22000239785355463]], [[0.20680777221381147, -0.20680777221381172]], [[0.22557028085829525, -0.2255702808582955]], [[0.210821065244259, -0.21082106524425925]], [[0.2261452396524031, -0.2261452396524034]], [[0.21282715108461975, -0.21282715108462003]], [[0.23454074367477173, -0.23454074367477196]], [[0.2178439429103023, -0.2178439429103025]], [[0.24167263495261057, -0.24167263495261088]], [[0.2228748050510468, -0.22287480505104706]], [[0.24481198161284992, -0.24481198161285023]], [[0.2273312372935914, -0.22733123729359173]], [[0.24668399566592064, -0.24668399566592097]], [[0.22933956792997157, -0.22933956792997195]], [[0.253383488344685, -0.2533834883446854]], [[0.23430224823189894, -0.23430224823189927]], [[0.26191225247886857, -0.2619122524788689]], [[0.24055846930237235, -0.24055846930237268]], [[0.2629962284051709, -0.2629962284051712]], [[0.24329820027284332, -0.24329820027284357]], [[0.2668919176186163, -0.2668919176186166]], [[0.24684620889979147, -0.24684620889979178]], [[0.2700630243015309, -0.2700630243015312]], [[0.2514165289579987, -0.25141652895799893]], [[0.2718372423871112, -0.27183724238711143]], [[0.25678561965855146, -0.25678561965855173]], [[0.283065502708982, -0.2830655027089823]], [[0.2633120548815385, -0.26331205488153886]], [[0.29302103344760955, -0.2930210334476099]], [[0.2716856019800694, -0.27168560198006975]], [[0.3001157695175269, -0.3001157695175273]], [[0.27662030265507664, -0.276620302655077]], [[0.30635357031831506, -0.30635357031831534]], [[0.2841604517609886, -0.2841604517609888]], [[0.31234754791093966, -0.3123475479109398]], [[0.2900096726745963, -0.29000967267459654]], [[0.322109478608277, -0.3221094786082771]], [[0.28961168988675884, -0.28961168988675895]], [[0.32128052552440667, -0.3212805255244068]], [[0.29564256195006017, -0.2956425619500603]], [[0.3262658131232288, -0.32626581312322883]], [[0.3003348968645406, -0.30033489686454073]], [[0.33177867807085293, -0.33177867807085304]], [[0.30412216082892407, -0.3041221608289242]], [[0.3369130819972017, -0.3369130819972018]], [[0.3129816952564044, -0.31298169525640446]], [[0.34127999775633566, -0.3412799977563357]], [[0.32036299886106323, -0.3203629988610633]], [[0.35297668642150076, -0.3529766864215008]], [[0.32798035732923714, -0.32798035732923714]], [[0.35853491909801444, -0.35853491909801444]], [[0.338996013205079, -0.33899601320507894]], [[0.3674870295114935, -0.3674870295114934]], [[0.3473143467954536, -0.3473143467954536]], [[0.37895259772255363, -0.37895259772255363]], [[0.3547995536521002, -0.35479955365210025]], [[0.3858853469961586, -0.38588534699615873]], [[0.36467744509507366, -0.3646774450950738]], [[0.3923641423663621, -0.3923641423663623]], [[0.3720600282320142, -0.3720600282320144]], [[0.39631406520008394, -0.39631406520008405]], [[0.37674709143040497, -0.37674709143040513]], [[0.4066903537882579, -0.4066903537882581]], [[0.38144822966428765, -0.3814482296642879]], [[0.4130893478684032, -0.41308934786840334]], [[0.3907093793396781, -0.3907093793396783]], [[0.41723489973484684, -0.41723489973484706]], [[0.39500642998131474, -0.39500642998131497]], [[0.4184862263192762, -0.41848622631927634]], [[0.4001246230219192, -0.40012462302191937]], [[0.4240528010301161, -0.4240528010301163]], [[0.40222895655810686, -0.402228956558107]], [[0.4284309213040518, -0.42843092130405197]], [[0.4012892320098009, -0.4012892320098011]], [[0.43590142466358905, -0.4359014246635893]], [[0.4060838883840064, -0.4060838883840066]], [[0.43805443698152546, -0.43805443698152563]], [[0.40960634315711697, -0.40960634315711714]], [[0.44041657144409196, -0.44041657144409213]], [[0.40916030450595114, -0.4091603045059513]], [[0.43876813219695515, -0.43876813219695526]], [[0.4098696214494482, -0.4098696214494483]], [[0.4458509177334077, -0.4458509177334078]], [[0.40432013909517267, -0.40432013909517284]], [[0.4594636832633626, -0.45946368326336273]], [[0.390633202150405, -0.3906332021504051]], [[0.4777325011783763, -0.4777325011783763]], [[0.380153820057129, -0.380153820057129]], [[0.49813094188215606, -0.49813094188215606]], [[0.36870782434026605, -0.3687078243402661]], [[0.5137586332739148, -0.5137586332739149]], [[0.37706215584369607, -0.3770621558436962]], [[0.5170667697433786, -0.5170667697433787]], [[0.3886911447127761, -0.3886911447127763]], [[0.523191109771301, -0.5231911097713012]], [[0.3916906988375122, -0.3916906988375124]], [[0.5314987527887468, -0.531498752788747]], [[0.39614350454422986, -0.3961435045442301]], [[0.536652756097612, -0.5366527560976121]], [[0.4052492038189735, -0.4052492038189736]], [[0.5409115271144131, -0.5409115271144131]], [[0.4093453079489673, -0.4093453079489673]], [[0.5499984408893083, -0.5499984408893083]], [[0.43182143775684234, -0.4318214377568424]], [[0.5427229143836421, -0.5427229143836421]], [[0.44612451573922574, -0.44612451573922574]], [[0.5425916127619612, -0.5425916127619612]], [[0.4465563573761776, -0.44655635737617766]], [[0.5510645737787434, -0.5510645737787434]], [[0.44694903824145815, -0.44694903824145815]], [[0.5557694870800848, -0.5557694870800848]], [[0.46060800895701204, -0.46060800895701204]], [[0.5498486419563213, -0.5498486419563213]], [[0.4595952042939277, -0.4595952042939277]], [[0.5577097865327632, -0.5577097865327632]], [[0.45700500751047857, -0.45700500751047857]], [[0.5652701440264993, -0.5652701440264993]], [[0.475885790718107, -0.475885790718107]], [[0.5545715382815342, -0.5545715382815342]], [[0.4703209059016856, -0.47032090590168557]], [[0.5662773942678679, -0.5662773942678679]], [[0.47383701212976037, -0.4738370121297603]], [[0.5590214145647681, -0.5590214145647681]], [[0.4724583524466508, -0.4724583524466508]], [[0.576106394851003, -0.5761063948510031]], [[0.47126320984702563, -0.47126320984702574]], [[0.5795522428973696, -0.5795522428973697]], [[0.4667745116019316, -0.46677451160193173]], [[0.6053356283780094, -0.6053356283780095]], [[0.48952965225117817, -0.4895296522511783]], [[0.5870225359176509, -0.5870225359176509]], [[0.4985604114801423, -0.4985604114801423]], [[0.579716075061484, -0.579716075061484]], [[0.4937790837776829, -0.49377908377768287]], [[0.5997211004953658, -0.5997211004953656]], [[0.4835778018408166, -0.4835778018408165]], [[0.6250696508175018, -0.6250696508175017]], [[0.5093652345103723, -0.5093652345103723]], [[0.5883791506989207, -0.5883791506989207]], [[0.5144761836156817, -0.5144761836156817]], [[0.6068335147826631, -0.6068335147826631]], [[0.5014731320113164, -0.5014731320113164]], [[0.6270627001812104, -0.6270627001812104]], [[0.5233009213326292, -0.5233009213326292]], [[0.591910783367134, -0.5919107833671341]], [[0.5270899153945185, -0.5270899153945187]], [[0.6125633672019767, -0.6125633672019768]], [[0.5102990876157163, -0.5102990876157164]], [[0.6355677510620199, -0.6355677510620199]], [[0.5314945011367147, -0.5314945011367147]], [[0.599000542892397, -0.5990005428923969]], [[0.5339389704948261, -0.533938970494826]], [[0.6210168045141884, -0.6210168045141883]], [[0.5146619201930015, -0.5146619201930014]], [[0.6563246752083554, -0.6563246752083554]], [[0.5417119857424278, -0.5417119857424277]], [[0.6100288186730437, -0.6100288186730436]], [[0.5155137760827475, -0.5155137760827474]], [[0.6493428895729781, -0.649342889572978]], [[0.5060003092592198, -0.5060003092592197]], [[0.6793484684940481, -0.6793484684940478]], [[0.5393550658062366, -0.5393550658062364]], [[0.627539671163732, -0.6275396711637318]], [[0.5197622020773317, -0.5197622020773315]], [[0.6568311425332991, -0.6568311425332989]], [[0.5201691553519862, -0.5201691553519859]], [[0.6744314309917319, -0.6744314309917316]], [[0.5583141227269508, -0.5583141227269506]], [[0.6236095353938751, -0.6236095353938749]], [[0.5376072231142657, -0.5376072231142655]], [[0.6487885181835342, -0.648788518183534]], [[0.5308350052560323, -0.5308350052560321]], [[0.6769755500470441, -0.6769755500470439]], [[0.5769659425479307, -0.5769659425479305]], [[0.6155915447159974, -0.6155915447159973]], [[0.5807170939138913, -0.5807170939138911]], [[0.622285916620791, -0.6222859166207909]], [[0.5561900221179019, -0.5561900221179018]], [[0.6472283956770688, -0.6472283956770686]], [[0.5413657389192924, -0.5413657389192922]], [[0.6762279681667219, -0.6762279681667217]], [[0.5755529290158707, -0.5755529290158705]], [[0.62985188050125, -0.6298518805012499]], [[0.5792209319021483, -0.5792209319021482]], [[0.6328269439619153, -0.6328269439619152]], [[0.5556822774839261, -0.5556822774839258]], [[0.6605421782156606, -0.6605421782156604]], [[0.5429257000819396, -0.5429257000819395]], [[0.6934374585235408, -0.6934374585235407]], [[0.5867399116834079, -0.5867399116834079]], [[0.629941471297536, -0.629941471297536]], [[0.557849975609793, -0.557849975609793]], [[0.6583053409824979, -0.6583053409824979]], [[0.5415480256831359, -0.5415480256831359]], [[0.7036186440476702, -0.7036186440476702]], [[0.5889072167402276, -0.5889072167402276]], [[0.632707288798273, -0.632707288798273]], [[0.5615615571303172, -0.5615615571303172]], [[0.6608062332842427, -0.6608062332842426]], [[0.5491998606757634, -0.5491998606757633]], [[0.6926227864901587, -0.6926227864901586]], [[0.5544306166996471, -0.5544306166996469]], [[0.7060082719993976, -0.7060082719993974]], [[0.6023758767991206, -0.6023758767991205]], [[0.6421132848055587, -0.6421132848055586]], [[0.5793262744348586, -0.5793262744348585]], [[0.6572335676564526, -0.6572335676564525]], [[0.5680736579806216, -0.5680736579806215]], [[0.6766034774503829, -0.6766034774503827]], [[0.5658073837203939, -0.5658073837203937]], [[0.6925282908126408, -0.6925282908126407]], [[0.6157758604461666, -0.6157758604461665]], [[0.6362379777090682, -0.6362379777090681]], [[0.5841546089739539, -0.5841546089739538]], [[0.6554363854821204, -0.6554363854821202]], [[0.5684880668178871, -0.5684880668178869]], [[0.6776153559765122, -0.677615355976512]], [[0.5652131899145982, -0.565213189914598]], [[0.6947439816284673, -0.6947439816284671]], [[0.5734788934356203, -0.5734788934356202]], [[0.6993780742224692, -0.6993780742224691]], [[0.6186047445677727, -0.6186047445677727]], [[0.6439586115648066, -0.6439586115648066]], [[0.5918711615244183, -0.5918711615244183]], [[0.6563825807860095, -0.6563825807860095]], [[0.5770930674543433, -0.5770930674543433]], [[0.6723638166105079, -0.6723638166105078]], [[0.572506971335685, -0.5725069713356847]], [[0.6876287251187481, -0.687628725118748]], [[0.575496736991866, -0.5754967369918658]], [[0.698044792106628, -0.6980447921066277]], [[0.6243481666671792, -0.624348166667179]], [[0.6451714000070643, -0.6451714000070641]], [[0.5963213099282301, -0.5963213099282298]], [[0.6556034567305673, -0.6556034567305671]], [[0.5804665778381437, -0.5804665778381435]], [[0.6692518317531087, -0.6692518317531084]], [[0.5724855162509824, -0.5724855162509822]], [[0.6834602420135197, -0.6834602420135195]], [[0.575473115788378, -0.5754731157883778]], [[0.6915803969405492, -0.6915803969405491]], [[0.5883506662481115, -0.5883506662481114]], [[0.6843368421517382, -0.684336842151738]], [[0.5925143043689235, -0.5925143043689233]], [[0.6852754536907111, -0.6852754536907109]], [[0.5968970992372409, -0.5968970992372407]], [[0.6792264669887044, -0.6792264669887041]], [[0.5972762603965437, -0.5972762603965435]], [[0.6769699903444091, -0.6769699903444087]], [[0.5973904831264031, -0.5973904831264027]], [[0.6731137359279471, -0.6731137359279467]], [[0.5971755873093435, -0.5971755873093431]], [[0.6585347455595886, -0.6585347455595881]], [[0.5911619028127038, -0.5911619028127033]], [[0.6560122822245691, -0.6560122822245686]], [[0.5821367671224315, -0.582136767122431]], [[0.6662294990314535, -0.666229499031453]], [[0.581413246744222, -0.5814132467442216]], [[0.6631985845650553, -0.6631985845650549]], [[0.5819847929460433, -0.5819847929460429]], [[0.6558664192463357, -0.6558664192463353]], [[0.5817218984952326, -0.5817218984952321]], [[0.6512119717781479, -0.6512119717781475]], [[0.5765569714267289, -0.5765569714267285]], [[0.655544632359927, -0.6555446323599265]], [[0.5743343843916336, -0.5743343843916332]], [[0.6565800704345123, -0.6565800704345118]], [[0.5756132409262735, -0.5756132409262731]], [[0.6494177130653903, -0.64941771306539]], [[0.5756748304433387, -0.5756748304433383]], [[0.643195703351359, -0.6431957033513587]], [[0.5700938905325436, -0.5700938905325432]], [[0.650139296314884, -0.6501392963148837]], [[0.570257216157438, -0.5702572161574376]], [[0.6444636332263111, -0.6444636332263107]], [[0.5698360920796877, -0.5698360920796873]], [[0.6370644548812241, -0.6370644548812238]], [[0.5644805472478437, -0.5644805472478434]], [[0.6439848023522516, -0.6439848023522513]], [[0.5648631652390464, -0.5648631652390461]], [[0.6380386701936622, -0.6380386701936619]], [[0.5644752105028195, -0.5644752105028192]], [[0.6305989058779997, -0.6305989058779995]], [[0.5598697703671504, -0.5598697703671501]], [[0.6353174027633268, -0.6353174027633266]], [[0.5592030841988546, -0.5592030841988543]], [[0.6299114365154441, -0.6299114365154438]], [[0.5579658185599553, -0.557965818559955]], [[0.6231243478237656, -0.6231243478237652]], [[0.5527404725315742, -0.5527404725315739]], [[0.6288754637565498, -0.6288754637565495]], [[0.5523814368105815, -0.552381436810581]], [[0.6235932564132147, -0.6235932564132143]], [[0.5515293212606884, -0.551529321260688]], [[0.6166772023209358, -0.6166772023209354]], [[0.5467768797043343, -0.5467768797043339]], [[0.6223678307371047, -0.6223678307371042]], [[0.5464906375496226, -0.5464906375496221]], [[0.6171279833817832, -0.6171279833817828]], [[0.5457232800042675, -0.5457232800042671]], [[0.6103064923357442, -0.6103064923357437]], [[0.5416505041230475, -0.541650504123047]], [[0.615546874330091, -0.6155468743300906]], [[0.5409763798411198, -0.5409763798411193]], [[0.6105946446412184, -0.6105946446412179]], [[0.5400425648569631, -0.5400425648569627]], [[0.6039629984457553, -0.6039629984457549]], [[0.5367251887553691, -0.5367251887553687]], [[0.6041023295352689, -0.6041023295352683]], [[0.5346184336085175, -0.5346184336085169]], [[0.6003855061481884, -0.6003855061481879]], [[0.5322716139582253, -0.5322716139582248]], [[0.5962374431851634, -0.5962374431851628]], [[0.5290604873677578, -0.5290604873677572]], [[0.5923949085643179, -0.5923949085643173]], [[0.5230033540137701, -0.5230033540137695]], [[0.6012881528414793, -0.6012881528414787]], [[0.5239120904674904, -0.5239120904674899]], [[0.59650968497998, -0.5965096849799796]], [[0.5245649218895132, -0.5245649218895128]], [[0.5897779607646763, -0.5897779607646758]], [[0.5225643321359755, -0.5225643321359751]], [[0.5831566338088233, -0.5831566338088229]], [[0.5194353365805149, -0.5194353365805144]], [[0.5804952777478096, -0.5804952777478092]], [[0.5127988507455739, -0.5127988507455734]], [[0.5903751355683187, -0.5903751355683182]], [[0.5138671191815745, -0.513867119181574]], [[0.5859269819780797, -0.5859269819780792]], [[0.5148230456687709, -0.5148230456687705]], [[0.5793516434397367, -0.5793516434397362]], [[0.5130419250969973, -0.513041925096997]], [[0.5731978924577522, -0.5731978924577519]], [[0.5101014985247024, -0.5101014985247021]], [[0.5703854513704876, -0.5703854513704872]], [[0.5041587242027163, -0.504158724202716]], [[0.5798851245869615, -0.5798851245869612]], [[0.5051001003130688, -0.5051001003130685]], [[0.5755943029554574, -0.5755943029554571]], [[0.5059452076197337, -0.5059452076197333]], [[0.5692997550836902, -0.5692997550836898]], [[0.5041234750419019, -0.5041234750419015]], [[0.5635644881541363, -0.5635644881541358]], [[0.4979508857853663, -0.49795088578536584]], [[0.571903799703358, -0.5719037997033576]], [[0.49917520431643986, -0.4991752043164394]], [[0.5671032127038669, -0.5671032127038664]], [[0.49954593507700573, -0.49954593507700523]], [[0.5609554608921353, -0.5609554608921348]], [[0.49728073765525604, -0.4972807376552555]], [[0.5554509669935614, -0.5554509669935609]], [[0.4916054725807555, -0.49160547258075493]], [[0.563226704301492, -0.5632267043014915]], [[0.49218745014718635, -0.4921874501471858]], [[0.5589794766795569, -0.5589794766795564]], [[0.4923140112194721, -0.4923140112194716]], [[0.5531922808079326, -0.5531922808079321]], [[0.4900443687522795, -0.4900443687522791]], [[0.5478886901266966, -0.5478886901266962]], [[0.485452565468713, -0.48545256546871257]], [[0.554894835165355, -0.5548948351653546]], [[0.48537143787660353, -0.4853714378766032]], [[0.5511152059847102, -0.5511152059847099]], [[0.4852231234603795, -0.4852231234603791]], [[0.5456765653168923, -0.5456765653168919]], [[0.4829428015407968, -0.4829428015407963]], [[0.5405614266820674, -0.540561426682067]], [[0.4791001401889471, -0.47910014018894664]], [[0.5359817579220747, -0.5359817579220743]], [[0.47514980485514424, -0.4751498048551438]], [[0.5343243442369662, -0.5343243442369657]], [[0.4703243977394252, -0.47032439773942475]], [[0.5436874467117502, -0.5436874467117497]], [[0.4716870568589743, -0.47168705685897383]], [[0.5401737538932817, -0.5401737538932813]], [[0.4728623017440506, -0.4728623017440502]], [[0.5347420281249092, -0.5347420281249088]], [[0.47141433180051706, -0.47141433180051656]], [[0.5301250896913325, -0.530125089691332]], [[0.468496973479091, -0.46849697347909036]], [[0.5257163962994612, -0.5257163962994607]], [[0.4640400167449281, -0.4640400167449275]], [[0.5265844495325166, -0.526584449532516]], [[0.46112880054179933, -0.4611288005417987]], [[0.5317310749106265, -0.5317310749106259]], [[0.46271229903502725, -0.4627122990350266]], [[0.5278446638134937, -0.527844663813493]], [[0.46290848881638913, -0.4629084888163885]], [[0.523406627087626, -0.5234066270876253]], [[0.4612837604984734, -0.46128376049847275]], [[0.5219966969116151, -0.5219966969116143]], [[0.4596360175183414, -0.45963601751834066]], [[0.5183100641739383, -0.5183100641739377]], [[0.4553745048876265, -0.4553745048876258]], [[0.5219413779105945, -0.5219413779105938]], [[0.45610822866471845, -0.4561082286647178]], [[0.5181126202872176, -0.518112620287217]], [[0.45535848013647473, -0.4553584801364742]], [[0.5140127082825083, -0.5140127082825077]], [[0.45316783198491567, -0.453167831984915]], [[0.5128915776804285, -0.5128915776804278]], [[0.4513269475406203, -0.45132694754061964]], [[0.5095019889247961, -0.5095019889247955]], [[0.4476386163346742, -0.4476386163346736]], [[0.5128494233028764, -0.5128494233028758]], [[0.4480224050798064, -0.44802240507980573]], [[0.5094315621105722, -0.5094315621105714]], [[0.44726547148782236, -0.4472654714878216]], [[0.5055509006609205, -0.5055509006609197]], [[0.4451960284971142, -0.4451960284971134]], [[0.5013182591970204, -0.5013182591970197]], [[0.44221946498883724, -0.4422194649888364]], [[0.4980117017567264, -0.49801170175672554]], [[0.43832645932891146, -0.4383264593289106]], [[0.49764228691317847, -0.49764228691317763]], [[0.43445891539022596, -0.4344589153902252]], [[0.5034827632060677, -0.5034827632060669]], [[0.43638492189933387, -0.4363849218993331]], [[0.5002465164291409, -0.5002465164291401]], [[0.43682064200230997, -0.4368206420023092]], [[0.4963427557838761, -0.4963427557838753]], [[0.43570994251017503, -0.43570994251017425]], [[0.49203712402292027, -0.4920371240229195]], [[0.4330312818698995, -0.43303128186989875]], [[0.4880540310840006, -0.4880540310839998]], [[0.4297153393388935, -0.4297153393388927]], [[0.48492967419053323, -0.48492967419053246]], [[0.4251094571046131, -0.4251094571046123]], [[0.48762219918769073, -0.4876221991876899]], [[0.42488914101245395, -0.4248891410124532]], [[0.4905880206923709, -0.4905880206923701]], [[0.42593313655183934, -0.4259331365518386]], [[0.48845786370033595, -0.48845786370033517]], [[0.42630613311893634, -0.42630613311893556]], [[0.48449507035367656, -0.48449507035367584]], [[0.4249241101442587, -0.424924110144258]], [[0.4804152024793529, -0.48041520247935215]], [[0.42218930665040744, -0.42218930665040677]], [[0.4765374212822955, -0.4765374212822948]], [[0.4190570011268516, -0.41905700112685096]], [[0.4738788855945077, -0.47387888559450697]], [[0.4155264642976335, -0.4155264642976328]], [[0.47625693835922156, -0.47625693835922084]], [[0.41330381589751564, -0.41330381589751486]], [[0.47997156063003027, -0.4799715606300295]], [[0.41504011439878974, -0.41504011439878896]], [[0.4777675881303959, -0.4777675881303951]], [[0.41587973174725473, -0.41587973174725396]], [[0.4737482108974447, -0.4737482108974439]], [[0.4147592937201092, -0.41475929372010845]], [[0.4696746960328863, -0.4696746960328855]], [[0.4121970469839693, -0.4121970469839685]], [[0.4659268988870713, -0.4659268988870705]], [[0.408466859208777, -0.40846685920877623]], [[0.46770480061552583, -0.467704800615525]], [[0.40705174150531503, -0.4070517415053142]], [[0.4703309911882955, -0.47033099118829474]], [[0.4080931042997768, -0.408093104299776]], [[0.4682775388244289, -0.4682775388244281]], [[0.4082172899528067, -0.40821728995280593]], [[0.4646124438096405, -0.46461244380963973]], [[0.40675517575046277, -0.40675517575046194]], [[0.4607828153072932, -0.46078281530729237]], [[0.40409614143194716, -0.40409614143194633]], [[0.45718346508557745, -0.4571834650855766]], [[0.40075094774417996, -0.40075094774417913]], [[0.4587525798478335, -0.4587525798478327]], [[0.39970656066896043, -0.39970656066895965]], [[0.4569544018087129, -0.45695440180871205]], [[0.3986290948800064, -0.39862909488000564]], [[0.45460433726434446, -0.4546043372643437]], [[0.3957030829824789, -0.39570308298247814]], [[0.45549195908184786, -0.4554919590818471]], [[0.3956619731621689, -0.3956619731621681]], [[0.4530563051527265, -0.45305630515272566]], [[0.39463193223085613, -0.3946319322308553]], [[0.44994855893878033, -0.4499485589387795]], [[0.3925096440037435, -0.39250964400374266]], [[0.4471598030259222, -0.4471598030259213]], [[0.3892106247825436, -0.38921062478254265]], [[0.4502593312542175, -0.4502593312542165]], [[0.38977912804372644, -0.38977912804372544]], [[0.44839945683981913, -0.4483994568398182]], [[0.3894618507904522, -0.38946185079045126]], [[0.4452439285373818, -0.4452439285373809]], [[0.3881708824066627, -0.38817088240666175]], [[0.4423471133585903, -0.4423471133585894]], [[0.38553281337031226, -0.38553281337031137]], [[0.44232715940455913, -0.4423271594045583]], [[0.38458534010820555, -0.38458534010820467]], [[0.4401588695386113, -0.4401588695386104]], [[0.3829232638127084, -0.3829232638127075]], [[0.43780427468912214, -0.4378042746891213]], [[0.3801807252361708, -0.38018072523616997]], [[0.4413301369781378, -0.4413301369781369]], [[0.3812095914039694, -0.3812095914039685]], [[0.4395337604569467, -0.4395337604569458]], [[0.38118014443528436, -0.3811801444352835]], [[0.4363806187024264, -0.4363806187024255]], [[0.37987915279613516, -0.37987915279613427]], [[0.43298621111740654, -0.4329862111174057]], [[0.3770164971287934, -0.3770164971287926]], [[0.432705077955188, -0.4327050779551872]], [[0.3760223445559196, -0.3760223445559188]], [[0.43046134751401155, -0.4304613475140108]], [[0.37428240811573665, -0.3742824081157359]], [[0.42810382766794625, -0.4281038276679454]], [[0.37196769435480115, -0.3719676943548003]], [[0.4311101171679178, -0.431110117167917]], [[0.37256722717718105, -0.3725672271771802]], [[0.42960896413437466, -0.4296089641343738]], [[0.3722936699589534, -0.37229366995895263]], [[0.4267113787855913, -0.4267113787855905]], [[0.3709316317074585, -0.37093163170745774]], [[0.42349549167987577, -0.42349549167987494]], [[0.36838704386690374, -0.3683870438669029]], [[0.4231055868880154, -0.4231055868880146]], [[0.3672984658914637, -0.36729846589146287]], [[0.42103665325136863, -0.4210366532513678]], [[0.3656132597771767, -0.36561325977717585]], [[0.4187655958069276, -0.41876559580692674]], [[0.3636492087407703, -0.3636492087407694]], [[0.4160749889185279, -0.416074988918527]], [[0.36151887187570986, -0.36151887187570897]], [[0.41396096984150826, -0.4139609698415074]], [[0.3588370993839106, -0.35883709938390973]], [[0.4168063768961904, -0.41680637689618943]], [[0.35910789277126415, -0.35910789277126326]], [[0.4158433163443836, -0.4158433163443827]], [[0.3587562845482365, -0.3587562845482356]], [[0.41345019686808815, -0.41345019686808726]], [[0.3568024938505807, -0.3568024938505798]], [[0.4140399216506295, -0.41403992165062864]], [[0.3570141392559626, -0.3570141392559617]], [[0.4119775203947506, -0.41197752039474966]], [[0.35608535483631404, -0.35608535483631304]], [[0.40965178220621185, -0.40965178220621085]], [[0.35476311324387483, -0.3547631132438739]], [[0.40682806281046396, -0.406828062810463]], [[0.35273436431319155, -0.3527343643131906]], [[0.4039583783800067, -0.40395837838000576]], [[0.3489792771959901, -0.34897927719598915]], [[0.40681713786372387, -0.406817137863723]], [[0.34964188810584024, -0.34964188810583935]], [[0.40555851792438435, -0.40555851792438347]], [[0.349380607382555, -0.3493806073825541]], [[0.40307019209349404, -0.40307019209349315]], [[0.34760734639495755, -0.3476073463949567]], [[0.40341907181304626, -0.4034190718130455]], [[0.3477114980651178, -0.34771149806511703]], [[0.4014449829613468, -0.401444982961346]], [[0.3467464942574781, -0.34674649425747733]], [[0.3991999859968299, -0.3991999859968291]], [[0.3454002722576931, -0.3454002722576923]], [[0.39648317034133423, -0.39648317034133346]], [[0.34339899219097586, -0.343398992190975]], [[0.39370192803651327, -0.39370192803651244]], [[0.33992355343932423, -0.33992355343932346]], [[0.3963421549060862, -0.39634215490608543]], [[0.34046793202033004, -0.3404679320203293]], [[0.3952497391604645, -0.3952497391604638]], [[0.3401299568710293, -0.34012995687102854]], [[0.39292095854363857, -0.39292095854363773]], [[0.33868934493724234, -0.33868934493724157]], [[0.3930733112487239, -0.3930733112487231]], [[0.3386222369447196, -0.33862223694471877]], [[0.39128702466620396, -0.3912870246662032]], [[0.3376351860010226, -0.33763518600102177]], [[0.3891595062642353, -0.38915950626423446]], [[0.3362704621034895, -0.33627046210348865]], [[0.3865741442202001, -0.3865741442201993]], [[0.33431305864658845, -0.33431305864658767]], [[0.38388941316132696, -0.3838894131613262]], [[0.33124245355117543, -0.33124245355117465]], [[0.3862355403566643, -0.3862355403566635]], [[0.3316281167873578, -0.33162811678735704]], [[0.38531703705761344, -0.38531703705761267]], [[0.3311879371000235, -0.3311879371000227]], [[0.38315413853913743, -0.38315413853913666]], [[0.33002418934120353, -0.33002418934120276]], [[0.38048664330642906, -0.38048664330642834]], [[0.3283792889846646, -0.3283792889846639]], [[0.3781050477630303, -0.37810504776302956]], [[0.32610383077029415, -0.3261038307702934]], [[0.3780305473671087, -0.37803054736710806]], [[0.3252191584269246, -0.32521915842692395]], [[0.37708669298389097, -0.3770866929838903]], [[0.32419822942998877, -0.3241982294299881]], [[0.37520692911423664, -0.375206929114236]], [[0.32270446449714496, -0.3227044644971443]], [[0.3729018734457189, -0.37290187344571823]], [[0.3210376350078646, -0.32103763500786386]], [[0.3709832995195208, -0.37098329951952]], [[0.3202781711200478, -0.32027817112004703]], [[0.3731737964496312, -0.37317379644963045]], [[0.32979041509577883, -0.32979041509577806]], [[0.3726326874415678, -0.37263268744156697]], [[0.3385245434096445, -0.3385245434096437]], [[0.3710490874754429, -0.37104908747544213]], [[0.3452190487202746, -0.34521904872027376]], [[0.36770587273203714, -0.36770587273203625]], [[0.34977701440434367, -0.3497770144043428]], [[0.3661726637425637, -0.3661726637425628]], [[0.35374541133114085, -0.35374541133113996]], [[0.36508916448786694, -0.36508916448786605]], [[0.3563702747675434, -0.3563702747675425]], [[0.36444909473034653, -0.3644490947303457]], [[0.3582702046230755, -0.3582702046230747]], [[0.36397000028874194, -0.3639700002887411]], [[0.3595391680540429, -0.35953916805404207]], [[0.36361188166299685, -0.36361188166299596]], [[0.36037789608035226, -0.36037789608035137]], [[0.36332669271222684, -0.36332669271222595]], [[0.3609199124424656, -0.3609199124424647]], [[0.3630827976759589, -0.3630827976759581]], [[0.36125464123207846, -0.3612546412320776]], [[0.36286073991784473, -0.3628607399178439]], [[0.36144276374669465, -0.3614427637466938]], [[0.36264919307053467, -0.36264919307053384]], [[0.36152610403559976, -0.3615261040355989]], [[0.3623520771743962, -0.3623520771743954]], [[0.3621714378300892, -0.36217143783008837]], [[0.3628601966614486, -0.36286019666144775]], [[0.362589272425662, -0.3625892724256612]], [[0.36366670800376333, -0.3636667080037625]], [[0.3634795744925296, -0.36347957449252877]], [[0.3643210389568636, -0.36432103895686274]], [[0.3641089079518679, -0.36410890795186707]], [[0.3647576015863487, -0.3647576015863478]], [[0.3645328478811872, -0.3645328478811864]], [[0.36503612054667006, -0.36503612054666923]], [[0.3648053913749453, -0.36480539137494444]], [[0.3651975025913325, -0.36519750259133166]], [[0.364964467503636, -0.3649644675036352]], [[0.3652462162432702, -0.3652462162432694]], [[0.36560484920888014, -0.36560484920887937]], [[0.36593712734591144, -0.3659371273459107]], [[0.36614364161531, -0.36614364161530927]], [[0.3667940581772712, -0.36679405817727045]], [[0.367046299646329, -0.3670462996463283]], [[0.36753864161891825, -0.3675386416189175]], [[0.3676722370321415, -0.3676722370321408]], [[0.3680378696279758, -0.368037869627975]], [[0.3680874024272504, -0.36808740242724963]], [[0.36835927291115944, -0.36835927291115866]], [[0.3683475972970861, -0.36834759729708527]], [[0.36854878974438526, -0.36854878974438443]], [[0.368457805254131, -0.3684578052541302]], [[0.36919892967660584, -0.36919892967660495]], [[0.3691744037791157, -0.3691744037791148]], [[0.36971912322355105, -0.3697191232235502]], [[0.37003421947749643, -0.37003421947749565]], [[0.3705919107908066, -0.37059191079080583]], [[0.3707637191015049, -0.3707637191015041]], [[0.3711828555163136, -0.3711828555163128]], [[0.37124481981315866, -0.3712448198131578]], [[0.3715642168357406, -0.3715642168357398]], [[0.3715455289056648, -0.371545528905664]], [[0.3717917154698711, -0.3717917154698704]], [[0.3717120463724804, -0.3717120463724797]], [[0.37171430580857046, -0.37171430580856973]], [[0.37247617529196203, -0.3724761752919613]], [[0.3723621081029496, -0.3723621081029489]], [[0.3728322341864352, -0.37283223418643446]], [[0.3732606626230856, -0.3732606626230849]], [[0.37365460489039437, -0.37365460489039365]], [[0.3739240522496974, -0.37392405224969666]], [[0.37419011582973805, -0.37419011582973727]], [[0.37434948852564776, -0.374349488525647]], [[0.37452355688194805, -0.3745235568819473]], [[0.37460169339527, -0.3746016933952692]], [[0.37470808104983755, -0.37470808104983677]], [[0.3745669335862995, -0.3745669335862988]], [[0.37543461979138665, -0.3754346197913859]], [[0.3751896641003629, -0.3751896641003622]], [[0.3757727276449621, -0.3757727276449614]], [[0.37615089816719993, -0.3761508981671992]], [[0.37654610988839554, -0.3765461098883948]], [[0.3767685501209518, -0.37676855012095106]], [[0.3770408437515161, -0.37704084375151536]], [[0.3771510386635567, -0.377151038663556]], [[0.37733640006640223, -0.3773364000664015]], [[0.37736229013292283, -0.3773622901329221]], [[0.37748446772752237, -0.37748446772752164]], [[0.37790900942632377, -0.3779090094263231]], [[0.37811361310716574, -0.37811361310716507]], [[0.37826984524010737, -0.3782698452401067]], [[0.3789388103120961, -0.3789388103120954]], [[0.3790104472286768, -0.3790104472286761]], [[0.37955665619492046, -0.3795566561949198]], [[0.37946473430656064, -0.37946473430655997]], [[0.3799372698674924, -0.3799372698674917]], [[0.37971235051253815, -0.3797123505125375]], [[0.38014747014067435, -0.38014747014067374]], [[0.37979587812594123, -0.3797958781259406]], [[0.38070019999287147, -0.38070019999287086]], [[0.38035202824232395, -0.38035202824232334]], [[0.3810739174172847, -0.381073917417284]], [[0.3810702317807216, -0.3810702317807209]], [[0.38181130876950387, -0.3818113087695032]], [[0.3815883041162982, -0.3815883041162975]], [[0.3822727351262602, -0.38227273512625953]], [[0.38186381062165714, -0.3818638106216565]], [[0.3825420855436237, -0.382542085543623]], [[0.38196018208631205, -0.38196018208631144]], [[0.3826302626487535, -0.38263026264875294]], [[0.38239332868003173, -0.3823933286800312]], [[0.3831948985307416, -0.38319489853074107]], [[0.3830295023424878, -0.3830295023424873]], [[0.3839590352391774, -0.3839590352391769]], [[0.38354605279507153, -0.383546052795071]], [[0.38445948413253817, -0.3844594841325376]], [[0.3837984394294713, -0.3837984394294707]], [[0.3847624916432547, -0.38476249164325416]], [[0.3838539740465847, -0.38385397404658417]], [[0.3849293103982484, -0.38492931039824785]], [[0.3835302327874753, -0.38353023278747467]], [[0.3857116847429396, -0.385711684742939]], [[0.38369577578726644, -0.3836957757872658]], [[0.3866299682780094, -0.3866299682780088]], [[0.3636487287060474, -0.3636487287060468]], [[0.38918279052826266, -0.3891827905282621]], [[0.3430724638242661, -0.34307246382426554]], [[0.4091279429233485, -0.4091279429233479]], [[0.28412829268382606, -0.28412829268382556]], [[0.5155641106117455, -0.5155641106117449]], [[0.2624803194849742, -0.26248031948497363]], [[0.5207983616187306, -0.5207983616187299]], [[0.5026272170766756, -0.5026272170766748]], [[0.3986720930273093, -0.39867209302730855]], [[0.542807678721562, -0.5428076787215612]], [[0.36992536208739546, -0.3699253620873947]], [[0.5382988923446259, -0.5382988923446252]], [[0.42011250510809284, -0.42011250510809217]], [[0.5570440761866908, -0.5570440761866902]], [[0.4237616402742015, -0.4237616402742008]], [[0.560431054499914, -0.5604310544999134]], [[0.3129208093872252, -0.3129208093872246]], [[0.5493746158985227, -0.549374615898522]], [[0.5119983632246453, -0.5119983632246446]], [[0.4902060170901274, -0.49020601709012673]], [[0.4702592335963528, -0.47025923359635213]], [[0.4495560154028443, -0.4495560154028436]], [[0.4586851828908584, -0.4586851828908577]], [[0.4325061874868643, -0.4325061874868636]], [[0.449176007354343, -0.44917600735434227]], [[0.4199032460833388, -0.41990324608333807]], [[0.44123633464287715, -0.4412363346428765]], [[0.4097179082999543, -0.40971790829995364]], [[0.43616533667449725, -0.4361653366744966]], [[0.4022017515657357, -0.40220175156573496]], [[0.4314159869650508, -0.4314159869650501]], [[0.39580720678709025, -0.3958072067870896]], [[0.427067724763157, -0.42706772476315635]], [[0.39011443442353155, -0.3901144344235309]], [[0.42280840252190915, -0.42280840252190854]], [[0.3985863747603221, -0.39858637476032155]], [[0.4199116903734559, -0.4199116903734554]], [[0.40404097799685124, -0.40404097799685074]], [[0.4166583964486328, -0.4166583964486323]], [[0.40722235703708276, -0.4072223570370822]], [[0.41484290686707637, -0.41484290686707587]], [[0.40921013280874835, -0.40921013280874785]], [[0.41393176867140263, -0.4139317686714021]], [[0.4105341152749029, -0.41053411527490236]], [[0.4135446498090359, -0.4135446498090353]], [[0.411482181173772, -0.41148218117377144]], [[0.41346351041180085, -0.4134635104118003]], [[0.41221272773207807, -0.4122127277320775]], [[0.41356281188191923, -0.4135628118819187]], [[0.4128140571319361, -0.41281405713193553]], [[0.4137693320823728, -0.41376933208237227]], [[0.41333621166512935, -0.41333621166512885]], [[0.41403968604922525, -0.4140396860492247]], [[0.4138080375106601, -0.4138080375106596]], [[0.4143477271148331, -0.4143477271148326]], [[0.4142464685190047, -0.4142464685190042]], [[0.4146774833634355, -0.414677483363435]], [[0.4146616227403534, -0.4146616227403529]], [[0.41501903723396055, -0.41501903723396005]], [[0.41505965524095256, -0.4150596552409521]], [[0.41536615232566476, -0.4153661523256643]], [[0.4154443838850316, -0.41544438388503113]], [[0.4157148632337325, -0.4157148632337321]], [[0.4158182274249128, -0.41581822742491237]], [[0.41606262616044437, -0.4160626261604439]], [[0.4161827546120713, -0.4161827546120709]], [[0.4164077998128746, -0.4164077998128742]], [[0.4165390100087072, -0.41653901000870674]], [[0.4167493232935842, -0.4167493232935838]], [[0.41688771035191197, -0.41688771035191147]], [[0.41708651313649187, -0.41708651313649137]], [[0.4172293640161563, -0.4172293640161558]], [[0.4174189344108219, -0.4174189344108214]], [[0.41756434470980264, -0.41756434470980214]], [[0.41774631709505383, -0.41774631709505333]], [[0.4178929378992495, -0.417892937899249]], [[0.4180685090680705, -0.41806850906806997]], [[0.4182153541671551, -0.4182153541671545]], [[0.4183854090560275, -0.4183854090560269]], [[0.4185317873100289, -0.41853178731002827]], [[0.4186969775068412, -0.4186969775068406]], [[0.4188424055914572, -0.4188424055914566]], [[0.41900320344083253, -0.4190032034408319]], [[0.4191473303491511, -0.41914733034915047]], [[0.4193041227848903, -0.41930412278488965]], [[0.4194466764728611, -0.41944667647286044]], [[0.4195998156751741, -0.41959981567517346]], [[0.4197405127903978, -0.41974051279039715]], [[0.41989021137236704, -0.4198902113723664]], [[0.42002905444081146, -0.42002905444081073]], [[0.42017547754755163, -0.4201754775475509]], [[0.4203094688629504, -0.4203094688629497]], [[0.42045751505813245, -0.4204575150581317]], [[0.42058814363333247, -0.42058814363333175]], [[0.42073260907903476, -0.42073260907903404]], [[0.4208615451839606, -0.4208615451839598]], [[0.42100255618185567, -0.4210025561818549]], [[0.4211299864867171, -0.4211299864867164]], [[0.4212676583638214, -0.4212676583638207]], [[0.42139329994373864, -0.421393299943738]], [[0.42152797717877843, -0.42152797717877777]], [[0.42165173794502364, -0.42165173794502303]], [[0.4217828554250415, -0.4217828554250409]], [[0.42190603033720814, -0.4219060303372075]], [[0.42203406890169, -0.4220340689016894]], [[0.4221551021889778, -0.42215510218897717]], [[0.4222804350931226, -0.42228043509312196]], [[0.4223993261125708, -0.4223993261125702]], [[0.42252137638686704, -0.42252137638686643]], [[0.42263987194472014, -0.42263987194471947]], [[0.4227590404904984, -0.4227590404904978]], [[0.42287534352972317, -0.42287534352972256]], [[0.42299218721188797, -0.4229921872118874]], [[0.42310636063952395, -0.4231063606395234]], [[0.4232203682002269, -0.42322036820022635]], [[0.42333320264721314, -0.4233332026472126]], [[0.42344486252184077, -0.4234448625218402]], [[0.4235556128224509, -0.4235556128224504]], [[0.4236649707774454, -0.4236649707774449]], [[0.4237737577981753, -0.4237737577981748]], [[0.42388097550191367, -0.42388097550191317]], [[0.42398798603942306, -0.42398798603942256]], [[0.42409304606563536, -0.42409304606563486]], [[0.4241976696261617, -0.4241976696261612]], [[0.424300950140802, -0.4243009501408015]], [[0.4244036690049343, -0.42440366900493376]], [[0.4245050358817965, -0.42450503588179594]], [[0.4246023631454052, -0.4246023631454047]], [[0.42470736793808195, -0.42470736793808145]], [[0.42480071561583876, -0.4248007156158383]], [[0.4249038699838855, -0.4249038699838851]], [[0.42499490844573445, -0.424994908445734]], [[0.4250961227071806, -0.42509612270718017]], [[0.42518363717895624, -0.4251836371789558]], [[0.4252861269498301, -0.42528612694982965]], [[0.42537038871018246, -0.425370388710182]], [[0.4254710119799718, -0.42547101197997134]], [[0.4255316894037804, -0.42553168940377994]], [[0.40087653416017666, -0.4008765341601762]], [[0.42609523974990027, -0.4260952397498998]], [[0.38466953296985645, -0.384669532969856]], [[0.4395881029576904, -0.43958810295768996]], [[0.3610486523113501, -0.36104865231134964]], [[0.4913841250600007, -0.4913841250600003]], [[0.27559935074873765, -0.2755993507487372]], [[0.5103877870873033, -0.5103877870873028]], [[0.47381210776580174, -0.4738121077658013]], [[0.4620166573841811, -0.46201665738418063]], [[0.44479170984561506, -0.4447917098456146]], [[0.42504974900474707, -0.4250497490047466]], [[0.4398226104449221, -0.4398226104449216]], [[0.411091727462013, -0.4110917274620125]], [[0.43583455120495135, -0.43583455120495085]], [[0.4005175739490882, -0.4005175739490877]], [[0.43289426705899914, -0.43289426705899864]], [[0.39137109384686686, -0.39137109384686636]], [[0.43343340511868467, -0.43343340511868417]], [[0.38256746217010146, -0.38256746217010096]], [[0.43630220745608617, -0.4363022074560856]], [[0.3728239342163633, -0.3728239342163628]], [[0.4431315153802535, -0.44313151538025297]], [[0.36020260215372846, -0.3602026021537279]], [[0.45695613740192376, -0.4569561374019232]], [[0.33824104673288674, -0.3382410467328862]], [[0.4952998955672647, -0.49529989556726417]], [[0.25690951368608095, -0.2569095136860804]], [[0.5065272525810517, -0.5065272525810511]], [[0.4799817375034041, -0.47998173750340356]], [[0.4594986425228716, -0.45949864252287104]], [[0.44261660930578905, -0.44261660930578856]], [[0.4217083326069638, -0.4217083326069633]], [[0.43222934102459576, -0.43222934102459526]], [[0.4076038887205289, -0.4076038887205284]], [[0.42397320863603427, -0.4239732086360337]], [[0.396939983157662, -0.3969399831576615]], [[0.4172163333171253, -0.4172163333171248]], [[0.38825626980297756, -0.38825626980297706]], [[0.41289613444839984, -0.41289613444839934]], [[0.3816851293892046, -0.3816851293892041]], [[0.409068140216905, -0.4090681402169045]], [[0.3762507376114781, -0.37625073761147754]], [[0.40579872831952835, -0.4057987283195278]], [[0.3715695796359606, -0.37156957963596005]], [[0.402895187687466, -0.4028951876874654]], [[0.37895546005419106, -0.37895546005419045]], [[0.400485556696872, -0.4004855566968714]], [[0.3843493483323875, -0.3843493483323869]], [[0.39741562001034314, -0.3974156200103426]], [[0.38775379711192004, -0.38775379711191943]], [[0.3956171246774567, -0.39561712467745613]], [[0.38987060865322143, -0.3898706086532209]], [[0.3946355690439759, -0.39463556904397534]], [[0.39121316882215834, -0.3912131688221578]], [[0.3941418887262929, -0.3941418887262923]], [[0.39209827754368437, -0.39209827754368376]], [[0.3939318654813789, -0.3939318654813783]], [[0.3927115762369355, -0.3927115762369349]], [[0.39388513805231284, -0.3938851380523123]], [[0.3931609129972382, -0.39316091299723765]], [[0.39393183108140134, -0.3939318310814008]], [[0.3934898876744192, -0.39348988767441867]], [[0.3949340550392919, -0.39493405503929135]], [[0.39469977564855113, -0.3946997756485505]], [[0.3964503597127518, -0.39645035971275117]], [[0.39631261698834036, -0.39631261698833975]], [[0.39744107165351567, -0.397441071653515]], [[0.39732455575376546, -0.3973245557537648]], [[0.3980734111356781, -0.3980734111356774]], [[0.3980016782054771, -0.3980016782054764]], [[0.3985265372351693, -0.3985265372351686]], [[0.39851313019847623, -0.3985131301984755]], [[0.3988943103857596, -0.3988943103857589]], [[0.3989156475620898, -0.3989156475620891]], [[0.3992003532483579, -0.3992003532483572]], [[0.3992421146122557, -0.39924211461225506]], [[0.39946129730635604, -0.3994612973063553]], [[0.39951480447318694, -0.3995148044731862]], [[0.39968893749419415, -0.39968893749419343]], [[0.39974893046181936, -0.39974893046181864]], [[0.39989167181690416, -0.3998916718169035]], [[0.3999549571199848, -0.39995495711998413]], [[0.40007549300656436, -0.4000754930065637]], [[0.40014012617706396, -0.40014012617706335]], [[0.40024359405174614, -0.40024359405174553]], [[0.4003101047303921, -0.4003101047303914]], [[0.4004015970783127, -0.400401597078312]], [[0.4004670226946032, -0.40046702269460255]], [[0.40055008209464327, -0.4005500820946426]], [[0.40061409689028205, -0.4006140968902814]], [[0.4006907361714104, -0.4006907361714097]], [[0.4007531976347401, -0.40075319763473943]], [[0.40082465540862794, -0.4008246554086273]], [[0.4008854981051265, -0.40088549810512586]], [[0.4009527278300921, -0.40095272783009145]], [[0.40101026074178814, -0.40101026074178747]], [[0.4010765648003244, -0.4010765648003237]], [[0.40113189853519327, -0.4011318985351926]], [[0.40119444338298316, -0.4011944433829825]], [[0.4012485507952058, -0.40124855079520516]], [[0.4013079017108463, -0.4013079017108456]], [[0.40135777049123944, -0.4013577704912388]], [[0.40141903122027645, -0.4014190312202758]], [[0.4014664964284489, -0.4014664964284482]], [[0.40152408726403804, -0.4015240872640374]], [[0.4015708970197139, -0.4015708970197132]], [[0.4016245494687134, -0.40162454946871273]], [[0.40167183297429476, -0.4016718329742941]], [[0.4017224428764656, -0.4017224428764649]], [[0.4017683637346914, -0.4017683637346907]], [[0.4018167380112499, -0.40181673801124923]], [[0.40186125598228584, -0.4018612559822851]], [[0.40190605469376156, -0.40190605469376084]], [[0.4019516351562435, -0.40195163515624277]], [[0.4019938762390883, -0.40199387623908756]], [[0.4020374643109523, -0.40203746431095155]], [[0.4020782390403986, -0.40207823904039786]], [[0.40211996457283655, -0.40211996457283583]], [[0.40215739052199984, -0.4021573905219991]], [[0.40220051464479856, -0.4022005146447979]], [[0.40223565320470395, -0.4022356532047033]], [[0.4022764499380128, -0.40227644993801215]], [[0.4023105866406324, -0.40231058664063174]], [[0.40234927037800794, -0.4023492703780073]], [[0.40238034662313105, -0.4023803466231303]], [[0.40242044412466543, -0.4024204441246647]], [[0.4024494479267971, -0.4024494479267964]], [[0.4024870959082162, -0.40248709590821546]], [[0.40251536324443526, -0.4025153632444345]], [[0.4025508025730353, -0.40255080257303455]], [[0.4025764151137296, -0.4025764151137288]], [[0.4026129359562668, -0.402612935956266]], [[0.4026367042304455, -0.40263670423044473]], [[0.40267081901535423, -0.40267081901535345]], [[0.4026939650715829, -0.4026939650715821]], [[0.40272588260917996, -0.4027258826091792]], [[0.4007298611776484, -0.40072986117764764]], [[0.38233757839793314, -0.38233757839793236]], [[0.39929161688629655, -0.3992916168862958]], [[0.3694396322812057, -0.3694396322812049]], [[0.4025981474258511, -0.4025981474258503]], [[0.3577342470322753, -0.3577342470322745]], [[0.41951519092963485, -0.4195151909296341]], [[0.3371093730522298, -0.33710937305222904]], [[0.4653828864007308, -0.46538288640073006]], [[0.2308076850730022, -0.23080768507300148]], [[0.48621123628614815, -0.48621123628614743]], [[0.5275408348373947, -0.5275408348373939]], [[0.5524892568732677, -0.5524892568732669]], [[0.5814028893802532, -0.5814028893802524]], [[0.60034098569157, -0.6003409856915692]], [[0.6216363813655378, -0.621636381365537]], [[0.644037600180429, -0.6440376001804282]], [[0.6656938993425584, -0.6656938993425576]], [[0.6868944543697114, -0.6868944543697106]], [[0.7075501211115262, -0.7075501211115254]], [[0.7281978989167054, -0.7281978989167046]], [[0.7415712139897666, -0.7415712139897657]], [[0.759829494342373, -0.7598294943423721]], [[0.7772239507579719, -0.777223950757971]], [[0.7946487564434676, -0.7946487564434667]], [[0.8117457405481687, -0.8117457405481678]], [[0.8294008156159106, -0.8294008156159097]], [[0.8395869755970777, -0.8395869755970768]], [[0.8556666716842204, -0.8556666716842195]], [[0.8702392841099948, -0.8702392841099938]], [[0.8852224823475, -0.885222482347499]], [[0.9005473382452341, -0.9005473382452331]], [[0.9098286512503295, -0.9098286512503285]], [[0.9238303982841215, -0.9238303982841205]], [[0.9367163963485496, -0.9367163963485486]], [[0.9500565781698009, -0.9500565781697999]], [[0.9646944939499915, -0.9646944939499905]], [[0.972910313273218, -0.972910313273217]], [[0.9853157966086333, -0.9853157966086323]], [[0.9967993543495308, -0.9967993543495298]], [[1.0092716673511812, -1.0092716673511803]], [[1.0172061368396834, -1.0172061368396825]], [[1.0284685053319684, -1.0284685053319675]], [[1.0390776063291145, -1.0390776063291136]], [[1.0510300333499458, -1.051030033349945]], [[1.0583502920185293, -1.0583502920185284]], [[1.0687507277618211, -1.0687507277618202]], [[1.0785637457345894, -1.0785637457345885]], [[1.0901977878627096, -1.0901977878627087]], [[1.0969190017967405, -1.0969190017967396]], [[1.106585500689907, -1.1065855006899061]], [[1.115722609171232, -1.1157226091712311]], [[1.1253869252347541, -1.1253869252347533]], [[1.1327698020879664, -1.1327698020879655]], [[1.1416796474920647, -1.1416796474920639]], [[1.151326023922934, -1.151326023922933]], [[1.1575099769274677, -1.1575099769274668]], [[1.1659539442876887, -1.165953944287688]], [[1.1745941003670592, -1.1745941003670586]], [[1.1806401691215207, -1.1806401691215203]], [[1.1886110122255866, -1.1886110122255862]], [[1.1970232512941281, -1.1970232512941277]], [[1.20278987349768, -1.2027898734976796]], [[1.2104130565328914, -1.210413056532891]], [[1.2186217342871473, -1.2186217342871468]], [[1.2241387457732453, -1.224138745773245]], [[1.231432870217591, -1.2314328702175907]], [[1.2394838390456626, -1.2394838390456624]], [[1.2447574469325853, -1.244757446932585]], [[1.2517308844618702, -1.25173088446187]], [[1.259656809069083, -1.2596568090690825]], [[1.2646789003650771, -1.2646789003650767]], [[1.2713929589363384, -1.271392958936338]], [[1.2782761159449845, -1.278276115944984]], [[1.283651528018428, -1.2836515280184275]], [[1.2903309743990843, -1.2903309743990838]], [[1.296779327084738, -1.2967793270847376]], [[1.3023550970043745, -1.3023550970043738]], [[1.3091097022595042, -1.3091097022595035]], [[1.3134886793237872, -1.3134886793237865]], [[1.319924147632454, -1.3199241476324532]], [[1.3255254137039958, -1.3255254137039951]], [[1.3309420343984273, -1.3309420343984266]], [[1.337092354936068, -1.3370923549360674]], [[1.341532717431225, -1.3415327174312244]], [[1.3473654816613154, -1.3473654816613148]], [[1.3528296897349454, -1.3528296897349448]], [[1.357802371959175, -1.3578023719591743]], [[1.3630099419831638, -1.3630099419831632]], [[1.367538756607955, -1.3675387566079544]], [[1.3733271616280494, -1.3733271616280487]], [[1.3775996527678778, -1.377599652767877]], [[1.383059001371866, -1.3830590013718653]], [[1.3880022639214629, -1.3880022639214622]], [[1.3926737672898244, -1.3926737672898237]], [[1.3975765947713394, -1.3975765947713388]], [[1.401981508511183, -1.4019815085111824]], [[1.4065482305656705, -1.4065482305656698]], [[1.41079912968041, -1.4107991296804094]], [[1.415313113379225, -1.4153131133792243]], [[1.4191947828760685, -1.4191947828760678]], [[1.4237937450246383, -1.4237937450246376]], [[1.4278973265451744, -1.4278973265451738]], [[1.4322346495271585, -1.4322346495271578]], [[1.436648732183693, -1.4366487321836923]], [[1.440607945714931, -1.4406079457149303]], [[1.4453150701580224, -1.4453150701580217]], [[1.4494520183591568, -1.449452018359156]], [[1.4537874528749124, -1.4537874528749115]], [[1.4576022037957923, -1.4576022037957914]], [[1.4617653825373116, -1.4617653825373107]], [[1.4654053767613335, -1.4654053767613326]], [[1.469506962652022, -1.4695069626520212]], [[1.4730190184742336, -1.4730190184742327]], [[1.4771068315484555, -1.4771068315484546]], [[1.4805033047666067, -1.4805033047666059]], [[1.4846079367142313, -1.4846079367142304]], [[1.4878848304890793, -1.4878848304890784]], [[1.4920311819813041, -1.4920311819813032]], [[1.495174734643291, -1.4951747346432902]], [[1.4993922936448172, -1.4993922936448163]], [[1.502379833086596, -1.5023798330865952]], [[1.5066559652078877, -1.5066559652078868]], [[1.5089144659658194, -1.5089144659658185]], [[1.5136990165060638, -1.5136990165060629]], [[1.5155495550277376, -1.5155495550277367]], [[1.5208512244668337, -1.5208512244668329]], [[1.5218358381206465, -1.5218358381206456]], [[1.527942678516461, -1.52794267851646]], [[1.5279957589074131, -1.5279957589074122]], [[1.5347146097234712, -1.5347146097234703]], [[1.5338096997109658, -1.533809699710965]], [[1.5412588751720913, -1.5412588751720904]], [[1.5392429292868, -1.539242929286799]], [[1.5486661962837829, -1.548666196283782]], [[1.544137301417476, -1.544137301417475]], [[1.556062586953324, -1.5560625869533231]], [[1.5480504039105398, -1.548050403910539]], [[1.5643425610562665, -1.5643425610562656]], [[1.5507331576886094, -1.5507331576886085]], [[1.5741572752641566, -1.5741572752641557]], [[1.5512068192715145, -1.5512068192715136]], [[1.5855105607177413, -1.5855105607177404]], [[1.549367846071435, -1.5493678460714342]], [[1.5987347964849086, -1.5987347964849077]], [[1.5438081915171544, -1.5438081915171535]], [[1.6754082767477634, -1.6754082767477625]], [[1.4831528800899316, -1.4831528800899307]], [[1.5398161908895172, -1.5398161908895163]], [[1.4197325074080327, -1.4197325074080318]], [[1.5516303055368061, -1.5516303055368053]], [[1.3818884933591815, -1.3818884933591806]], [[1.352898760953942, -1.3528987609539411]], [[1.37322697726001, -1.3732269772600092]], [[1.3238109027776308, -1.32381090277763]], [[1.3978505076568313, -1.3978505076568304]], [[1.310873363527455, -1.310873363527454]], [[1.4463070445018649, -1.446307044501864]], [[1.3100003676906082, -1.3100003676906073]], [[1.2226502834523711, -1.2226502834523703]], [[1.3016682392903134, -1.3016682392903125]], [[1.2314394963035955, -1.2314394963035946]], [[1.2913907244013187, -1.2913907244013179]], [[1.248125056929897, -1.248125056929896]], [[1.292651684897611, -1.2926516848976104]], [[1.2648832487400463, -1.2648832487400457]], [[1.31519594099012, -1.3151959409901193]], [[1.2710020974492267, -1.271002097449226]], [[1.3177804696831468, -1.317780469683146]], [[1.2846558048091872, -1.2846558048091865]], [[1.3213487979810115, -1.321348797981011]], [[1.3002563143395192, -1.3002563143395187]], [[1.3280291253878425, -1.328029125387842]], [[1.314591484640865, -1.3145914846408644]], [[1.3361662318659326, -1.336166231865932]], [[1.328161744731764, -1.3281617447317633]], [[1.3451237767039685, -1.3451237767039679]], [[1.340505914477008, -1.3405059144770073]], [[1.3548491576173958, -1.354849157617395]], [[1.3515278769248775, -1.3515278769248769]], [[1.3734636866951029, -1.3734636866951022]], [[1.3581038588748549, -1.3581038588748542]], [[1.3819525051689459, -1.3819525051689452]], [[1.3668354697184988, -1.3668354697184981]], [[1.3894911098539302, -1.3894911098539295]], [[1.376408245233036, -1.3764082452330353]], [[1.3973576971945405, -1.3973576971945398]], [[1.3863185102991238, -1.3863185102991231]], [[1.4053351961421607, -1.40533519614216]], [[1.3957791454552944, -1.3957791454552937]], [[1.4134918284862468, -1.413491828486246]], [[1.4051047807211958, -1.4051047807211954]], [[1.421420443080182, -1.4214204430801816]], [[1.4135344937356453, -1.4135344937356449]], [[1.4401309607397503, -1.4401309607397499]], [[1.414540206426648, -1.4145402064266475]], [[1.4486003560200755, -1.448600356020075]], [[1.4189837852640463, -1.418983785264046]], [[1.4550582264408511, -1.4550582264408507]], [[1.4252527859500579, -1.4252527859500572]], [[1.4612940296801267, -1.461294029680126]], [[1.4326046918967474, -1.4326046918967468]], [[1.4671812363882177, -1.467181236388217]], [[1.4398296102710648, -1.4398296102710642]], [[1.4730581491879642, -1.4730581491879635]], [[1.4459310669278989, -1.4459310669278982]], [[1.4977420296345592, -1.4977420296345585]], [[1.4397514884927605, -1.4397514884927598]], [[1.5002559748919109, -1.5002559748919102]], [[1.4436126800874045, -1.4436126800874038]], [[1.49782661078171, -1.4978266107817093]], [[1.4513311365344512, -1.4513311365344506]], [[1.4974609273609711, -1.4974609273609705]], [[1.460291057925937, -1.4602910579259365]], [[1.4995068988109677, -1.4995068988109672]], [[1.4678805282875502, -1.4678805282875498]], [[1.5027855355066992, -1.5027855355066988]], [[1.4756663568908435, -1.475666356890843]], [[1.5072825274594466, -1.5072825274594461]], [[1.4832873879957025, -1.483287387995702]], [[1.5125424101955907, -1.5125424101955902]], [[1.4900876537701335, -1.490087653770133]], [[1.5328745293893924, -1.532874529389392]], [[1.4854526870720606, -1.4854526870720601]], [[1.5375104078870545, -1.537510407887054]], [[1.4877549518062407, -1.4877549518062403]], [[1.536973158079422, -1.5369731580794215]], [[1.4940278639050206, -1.4940278639050202]], [[1.537774600212889, -1.5377746002128885]], [[1.5009948084884723, -1.5009948084884719]], [[1.539874193273478, -1.5398741932734776]], [[1.5083891145763892, -1.5083891145763888]], [[1.5422399465581442, -1.5422399465581438]], [[1.5155974445529006, -1.5155974445529001]], [[1.545463861856791, -1.5454638618567906]], [[1.5214627560020497, -1.5214627560020493]], [[1.5499221177654452, -1.5499221177654448]], [[1.5271551217678836, -1.5271551217678832]], [[1.5538760127259732, -1.5538760127259728]], [[1.5322215820750704, -1.53222158207507]], [[1.573376210608131, -1.5733762106081306]], [[1.5249466615090734, -1.524946661509073]], [[1.5779446590950963, -1.5779446590950958]], [[1.525193147200362, -1.5251931472003615]], [[1.5766428565462511, -1.576642856546251]], [[1.5301385922845958, -1.5301385922845956]], [[1.5759845073216217, -1.5759845073216214]], [[1.5365828725405264, -1.5365828725405262]], [[1.5762242578441286, -1.5762242578441283]], [[1.5427121638364636, -1.5427121638364634]], [[1.578111531051204, -1.5781115310512037]], [[1.5485508377887873, -1.548550837788787]], [[1.5802325727823465, -1.5802325727823463]], [[1.5538781902935104, -1.5538781902935102]], [[1.583547164072827, -1.5835471640728267]], [[1.5589700365071626, -1.5589700365071624]], [[1.5867905226665298, -1.5867905226665295]], [[1.5632788005452598, -1.5632788005452596]], [[1.6078304210671057, -1.6078304210671055]], [[1.5537717307312742, -1.553771730731274]], [[1.6103913828091518, -1.6103913828091516]], [[1.5539637201350343, -1.5539637201350338]], [[1.6073565264252152, -1.6073565264252148]], [[1.5585137348763891, -1.5585137348763887]], [[1.6054663212479017, -1.6054663212479012]], [[1.564589894427128, -1.5645898944271275]], [[1.6050551354705858, -1.6050551354705855]], [[1.5703267936605525, -1.5703267936605523]], [[1.606082402184889, -1.6060824021848887]], [[1.5759407581242915, -1.5759407581242912]], [[1.6080385750854536, -1.6080385750854533]], [[1.581008306886748, -1.5810083068867478]], [[1.6105855850308857, -1.6105855850308854]], [[1.5856288681809398, -1.5856288681809396]], [[1.6132149673554834, -1.6132149673554832]], [[1.5894408871718613, -1.589440887171861]], [[1.6162822176376281, -1.616282217637628]], [[1.5929261408752429, -1.5929261408752426]], [[1.6366822095517368, -1.6366822095517366]], [[1.582083775225362, -1.5820837752253618]], [[1.6387509162189582, -1.638750916218958]], [[1.5810441353988336, -1.5810441353988334]], [[1.6346996475009368, -1.6346996475009365]], [[1.5847630736012654, -1.5847630736012652]], [[1.631823555228972, -1.6318235552289717]], [[1.5899330027703904, -1.5899330027703902]], [[1.6310868482491425, -1.6310868482491423]], [[1.595568765340393, -1.5955687653403927]], [[1.631399714225413, -1.6313997142254129]], [[1.600385093615319, -1.6003850936153188]], [[1.6323901702815655, -1.6323901702815653]], [[1.6044987126380381, -1.604498712638038]], [[1.6346309423644265, -1.6346309423644263]], [[1.608999374020663, -1.6089993740206627]], [[1.636698211063908, -1.6366982110639077]], [[1.6120848742853637, -1.6120848742853635]], [[1.6395303505273477, -1.6395303505273475]], [[1.6154590664063662, -1.615459066406366]], [[1.6602849685598242, -1.660284968559824]], [[1.6026092796344769, -1.6026092796344766]], [[1.6606679521897298, -1.6606679521897296]], [[1.6013397228024024, -1.6013397228024022]], [[1.6553421497533864, -1.6553421497533862]], [[1.6051585897319656, -1.6051585897319653]], [[1.652189568980162, -1.6521895689801618]], [[1.6107420245921018, -1.6107420245921016]], [[1.650571391698773, -1.6505713916987728]], [[1.6155014061853035, -1.6155014061853032]], [[1.6505867734811064, -1.6505867734811062]], [[1.6201858016746888, -1.6201858016746886]], [[1.6511898489044687, -1.6511898489044685]], [[1.6238456422998602, -1.62384564229986]], [[1.652859202437903, -1.6528592024379027]], [[1.6277626108327687, -1.6277626108327685]], [[1.655059171258627, -1.6550591712586267]], [[1.6310579789969784, -1.6310579789969784]], [[1.6571346686314299, -1.6571346686314299]], [[1.6334880611373408, -1.6334880611373408]], [[1.6597990752014877, -1.6597990752014877]], [[1.6356198482367938, -1.6356198482367938]], [[1.6823188409068366, -1.6823188409068366]], [[1.6213853115874448, -1.6213853115874448]], [[1.6818572711063229, -1.6818572711063229]], [[1.620192867142412, -1.620192867142412]], [[1.675739528876714, -1.675739528876714]], [[1.6243217914836858, -1.6243217914836858]], [[1.671721012834069, -1.671721012834069]], [[1.6293488488782955, -1.6293488488782955]], [[1.6701221609483057, -1.670122160948306]], [[1.6344630792076609, -1.634463079207661]], [[1.6696475782240896, -1.6696475782240898]], [[1.6385270585662677, -1.638527058566268]], [[1.6699143354189048, -1.669914335418905]], [[1.6419348576619142, -1.6419348576619144]], [[1.6708240235149414, -1.6708240235149416]], [[1.644873323908996, -1.6448733239089963]], [[1.6722156092115366, -1.6722156092115368]], [[1.6473960524864333, -1.6473960524864335]], [[1.673996001618175, -1.6739960016181752]], [[1.6494397510155594, -1.6494397510155596]], [[1.6957261951481362, -1.6957261951481364]], [[1.6342349021728344, -1.6342349021728346]], [[1.6938932186254867, -1.693893218625487]], [[1.6330792514169739, -1.633079251416974]], [[1.6875704690755062, -1.6875704690755065]], [[1.637642811917684, -1.6376428119176842]], [[1.6833181613733441, -1.6833181613733443]], [[1.6423428439640175, -1.6423428439640178]], [[1.6814953433048534, -1.6814953433048536]], [[1.647224754952124, -1.6472247549521242]], [[1.6811158796772796, -1.6811158796772798]], [[1.6513670490883425, -1.6513670490883428]], [[1.6816260876842803, -1.6816260876842806]], [[1.6549398364499568, -1.654939836449957]], [[1.6826634764420512, -1.6826634764420514]], [[1.657892578511247, -1.6578925785112473]], [[1.6841163731808668, -1.684116373180867]], [[1.6604215033174716, -1.6604215033174716]], [[1.685896769783702, -1.685896769783702]], [[1.66254251927575, -1.66254251927575]], [[1.6879552179621489, -1.6879552179621489]], [[1.6641035236572763, -1.664103523657276]], [[1.710612332949623, -1.7106123329496228]], [[1.6476269631876395, -1.6476269631876392]], [[1.7086120496099844, -1.7086120496099841]], [[1.646433060909415, -1.6464330609094149]], [[1.7017080962907059, -1.7017080962907056]], [[1.6505749309536781, -1.650574930953678]], [[1.697221048467749, -1.6972210484677488]], [[1.6552504314051872, -1.655250431405187]], [[1.6950729020929267, -1.6950729020929265]], [[1.6597626299679615, -1.6597626299679613]], [[1.6943689078019257, -1.6943689078019255]], [[1.663582085498841, -1.6635820854988408]], [[1.6945772345710164, -1.6945772345710162]], [[1.6668334179038717, -1.6668334179038715]], [[1.6954518343284117, -1.6954518343284115]], [[1.6696165469501951, -1.669616546950195]], [[1.6968039335329634, -1.6968039335329632]], [[1.6719983151756665, -1.6719983151756663]], [[1.6985222754913303, -1.69852227549133]], [[1.6740018495758144, -1.6740018495758142]], [[1.7005325880910431, -1.700532588091043]], [[1.6750178688321866, -1.6750178688321864]], [[1.7258172149147355, -1.7258172149147353]], [[1.6570291088553368, -1.6570291088553366]], [[1.7200512185666956, -1.7200512185666954]], [[1.6571013862022006, -1.6571013862022004]], [[1.711901074395435, -1.7119010743954348]], [[1.6614819979602886, -1.6614819979602884]], [[1.7070709413905982, -1.707070941390598]], [[1.6662464428322383, -1.666246442832238]], [[1.7047183698796338, -1.7047183698796335]], [[1.670548741362109, -1.6705487413621087]], [[1.7039600748547439, -1.7039600748547437]], [[1.6742737075340557, -1.6742737075340555]], [[1.704197141210114, -1.7041971412101138]], [[1.6774649367316659, -1.6774649367316656]], [[1.7050851806517007, -1.7050851806517007]], [[1.6801874301628492, -1.6801874301628492]], [[1.7064387855778225, -1.7064387855778225]], [[1.682502496292509, -1.682502496292509]], [[1.7081688800930896, -1.7081688800930896]], [[1.684446600438503, -1.684446600438503]], [[1.710159408656155, -1.7101594086561551]], [[1.6856282160696126, -1.6856282160696128]], [[1.7351303729180412, -1.7351303729180414]], [[1.667011395861412, -1.6670113958614121]], [[1.7302179838979554, -1.7302179838979557]], [[1.6658284246095705, -1.6658284246095707]], [[1.7214636928080052, -1.7214636928080054]], [[1.6704287300527436, -1.6704287300527438]], [[1.7164113622329376, -1.7164113622329378]], [[1.6753407877095317, -1.675340787709532]], [[1.7139230582751963, -1.7139230582751968]], [[1.6797214040003954, -1.6797214040003958]], [[1.713039703255051, -1.7130397032550515]], [[1.6834777186196725, -1.683477718619673]], [[1.713196680690972, -1.7131966806909724]], [[1.686675501342551, -1.6866755013425514]], [[1.7140182581853936, -1.714018258185394]], [[1.6893925274057235, -1.689392527405724]], [[1.7153300926148123, -1.7153300926148127]], [[1.6916936905774747, -1.691693690577475]], [[1.716978172800756, -1.7169781728007565]], [[1.693605908195455, -1.6936059081954555]], [[1.718918932279452, -1.7189189322794525]], [[1.6951651854923055, -1.695165185492306]], [[1.7211125139270762, -1.7211125139270766]], [[1.695547422632128, -1.6955474226321285]], [[1.7490483247566482, -1.7490483247566488]], [[1.6749721170629983, -1.674972117062999]], [[1.7403744857927037, -1.7403744857927044]], [[1.674386385959553, -1.6743863859595536]], [[1.7307832148936144, -1.730783214893615]], [[1.6795040877761167, -1.6795040877761174]], [[1.7256009740308882, -1.7256009740308889]], [[1.68463953134106, -1.6846395313410607]], [[1.7231318520644785, -1.7231318520644794]], [[1.6890859482402354, -1.6890859482402363]], [[1.7222885396149283, -1.7222885396149292]], [[1.6928394213798927, -1.6928394213798936]], [[1.7224513103219106, -1.7224513103219115]], [[1.6959975608742488, -1.6959975608742497]], [[1.723272542534863, -1.7232725425348638]], [[1.6986548952242586, -1.6986548952242595]], [[1.724568217417518, -1.724568217417519]], [[1.7008798824043068, -1.7008798824043077]], [[1.726204641971546, -1.7262046419715469]], [[1.702721256978662, -1.702721256978663]], [[1.7281311681413931, -1.728131168141394]], [[1.7041918415467665, -1.7041918415467674]], [[1.7302993057162777, -1.7302993057162785]], [[1.7044488214153617, -1.7044488214153626]], [[1.7594910388179614, -1.7594910388179623]], [[1.682752987206678, -1.682752987206679]], [[1.7490543993356003, -1.7490543993356014]], [[1.6834221636882216, -1.6834221636882227]], [[1.7393304978857256, -1.7393304978857267]], [[1.6886978999652416, -1.6886978999652427]], [[1.7341923819681497, -1.7341923819681508]], [[1.693886922028696, -1.6938869220286972]], [[1.7317991451367498, -1.7317991451367512]], [[1.6983242219864592, -1.6983242219864605]], [[1.730994232101166, -1.7309942321011673]], [[1.7020401352623362, -1.7020401352623376]], [[1.731161823186106, -1.7311618231861072]], [[1.7051439334768077, -1.705143933476809]], [[1.7319923354851483, -1.7319923354851496]], [[1.707742378457575, -1.7077423784575763]], [[1.7332595118023955, -1.7332595118023968]], [[1.7099050634994688, -1.7099050634994701]], [[1.734878278733221, -1.7348782787332224]], [[1.711682246775912, -1.7116822467759134]], [[1.7367680517103683, -1.7367680517103696]], [[1.7130880872056244, -1.7130880872056258]], [[1.7389034602478122, -1.7389034602478135]], [[1.713531400021549, -1.7135314000215502]], [[1.7681144413918055, -1.7681144413918068]], [[1.6909901753000882, -1.6909901753000895]], [[1.7569433634789775, -1.7569433634789788]], [[1.6913310542110378, -1.6913310542110391]], [[1.7470721414151469, -1.747072141415148]], [[1.6965929128197559, -1.696592912819757]], [[1.7420134943488748, -1.7420134943488759]], [[1.7017876449436125, -1.7017876449436136]], [[1.7396172753940082, -1.7396172753940093]], [[1.7062055910884462, -1.7062055910884473]], [[1.7387893241200618, -1.738789324120063]], [[1.7098833695307256, -1.7098833695307267]], [[1.7389564549723278, -1.7389564549723289]], [[1.7129449915151511, -1.712944991515152]], [[1.7397397785905981, -1.7397397785905988]], [[1.715479177087456, -1.7154791770874567]], [[1.7409804739107253, -1.7409804739107257]], [[1.7175885338273496, -1.71758853382735]], [[1.742551860990089, -1.7425518609900894]], [[1.719303611154022, -1.7193036111540225]], [[1.7444033230560012, -1.7444033230560017]], [[1.7206641816208446, -1.720664181620845]], [[1.7464954835562299, -1.7464954835562303]], [[1.72127621479161, -1.7212762147916105]], [[1.7759113238676065, -1.775911323867607]], [[1.697918709808413, -1.6979187098084134]], [[1.7639365428349028, -1.7639365428349032]], [[1.6986494199904363, -1.6986494199904367]], [[1.7541345718083987, -1.7541345718083992]], [[1.7041040998931842, -1.7041040998931847]], [[1.7491844126061797, -1.7491844126061802]], [[1.7093443362164913, -1.7093443362164917]], [[1.746913001346867, -1.7469130013468674]], [[1.7137607950029532, -1.7137607950029536]], [[1.7460998868580258, -1.7460998868580262]], [[1.7174204106252746, -1.717420410625275]], [[1.7462327347871878, -1.7462327347871882]], [[1.7204503608988246, -1.720450360898825]], [[1.747000010929258, -1.7470000109292585]], [[1.7229620480043406, -1.7229620480043413]], [[1.7481973733601992, -1.7481973733601999]], [[1.7250235103912726, -1.7250235103912732]], [[1.7497254671381317, -1.7497254671381324]], [[1.7267062211633668, -1.7267062211633675]], [[1.7515277695830986, -1.7515277695830993]], [[1.7280284188730308, -1.7280284188730315]], [[1.753569196411974, -1.7535691964119746]], [[1.7290030019150218, -1.7290030019150224]], [[1.7758278828576142, -1.7758278828576148]], [[1.7063468520837803, -1.706346852083781]], [[1.7849530037239159, -1.7849530037239165]], [[1.6978999270510486, -1.6978999270510493]], [[1.8456300394961962, -1.8456300394961969]], [[1.6362504698447322, -1.6362504698447329]], [[1.6858054791985078, -1.6858054791985084]], [[1.5920947930070235, -1.5920947930070242]], [[1.6746303261990498, -1.6746303261990505]], [[1.538242940942327, -1.5382429409423275]], [[1.6811445146257256, -1.681144514625726]], [[1.5214724433357776, -1.521472443335778]], [[1.4520968867095292, -1.4520968867095296]], [[1.5028231238497896, -1.50282312384979]], [[1.4144528710898994, -1.4144528710898998]], [[1.515969847491419, -1.5159698474914194]], [[1.402288440018818, -1.4022884400188185]], [[1.4961297888641334, -1.4961297888641338]], [[1.3956513946971096, -1.39565139469711]], [[1.4637734125319704, -1.4637734125319708]], [[1.383438580641991, -1.3834385806419915]], [[1.423498832024712, -1.4234988320247124]], [[1.3748788153177027, -1.3748788153177032]], [[1.4357332497665138, -1.4357332497665143]], [[1.3723055787030405, -1.372305578703041]], [[1.4365395911705983, -1.4365395911705987]], [[1.373831582045574, -1.3738315820455744]], [[1.405041703089165, -1.4050417030891655]], [[1.3764548665612302, -1.3764548665612306]], [[1.4147818225257018, -1.4147818225257025]], [[1.379903721598435, -1.3799037215984358]], [[1.403338100357525, -1.4033381003575256]], [[1.3815420750589245, -1.3815420750589251]], [[1.4187809200166976, -1.4187809200166983]], [[1.3876331942997395, -1.3876331942997402]], [[1.4091597138283234, -1.409159713828324]], [[1.3910058931719804, -1.391005893171981]], [[1.4230931380049407, -1.4230931380049414]], [[1.3941157831388151, -1.3941157831388158]], [[1.4160842843736907, -1.4160842843736914]], [[1.4013809422963086, -1.401380942296309]], [[1.4268931913787584, -1.4268931913787588]], [[1.403255834169322, -1.4032558341693224]], [[1.4223542975674568, -1.4223542975674572]], [[1.4115637489924155, -1.411563748992416]], [[1.4222675235645714, -1.4222675235645719]], [[1.4211728843558948, -1.4211728843558953]], [[1.423660130533005, -1.4236601305330054]], [[1.4247977030216454, -1.4247977030216459]], [[1.4270353370790374, -1.4270353370790378]], [[1.428467262137627, -1.4284672621376275]], [[1.43948937698548, -1.4394893769854804]], [[1.4326563259851592, -1.4326563259851597]], [[1.4355178295249487, -1.435517829524949]], [[1.4366024478935349, -1.4366024478935353]], [[1.4390324647859771, -1.4390324647859776]], [[1.4397010889998445, -1.439701088999845]], [[1.45164253950626, -1.4516425395062604]], [[1.4430036073245858, -1.4430036073245862]], [[1.4530291108841045, -1.453029110884105]], [[1.4431623095076846, -1.443162309507685]], [[1.4545620932085117, -1.4545620932085122]], [[1.4476565105196182, -1.4476565105196186]], [[1.4656311545436842, -1.4656311545436846]], [[1.450215849429707, -1.4502158494297075]], [[1.465393424998609, -1.4653934249986094]], [[1.4506590597964466, -1.450659059796447]], [[1.4660836447813677, -1.466083644781368]], [[1.4557502708951298, -1.4557502708951302]], [[1.4668933401164113, -1.4668933401164117]], [[1.4660531644548063, -1.4660531644548067]], [[1.4685865390674195, -1.46858653906742]], [[1.468645382474001, -1.4686453824740013]], [[1.471561561787059, -1.4715615617870594]], [[1.4668091348792294, -1.4668091348792298]], [[1.4734130305472763, -1.4734130305472768]], [[1.468857211779888, -1.4688572117798884]], [[1.4844921957671628, -1.4844921957671633]], [[1.4690228843602149, -1.4690228843602153]], [[1.4732447762226388, -1.4732447762226393]], [[1.4554190550671187, -1.455419055067119]], [[1.4484713572434311, -1.4484713572434318]], [[1.456520595858401, -1.4565205958584018]], [[1.433696657245237, -1.4336966572452376]], [[1.463760528234351, -1.4637605282343518]], [[1.412837162455214, -1.4128371624552147]], [[1.50698385933645, -1.5069838593364508]], [[1.40036930779487, -1.400369307794871]], [[1.4950090224606236, -1.4950090224606243]], [[1.404576542391825, -1.4045765423918257]], [[1.523246601503206, -1.5232466015032067]], [[1.413633042409161, -1.4136330424091617]], [[1.4689923055507388, -1.4689923055507395]], [[1.4426025326223528, -1.4426025326223535]], [[1.4583503914167202, -1.4583503914167208]], [[1.4458791914793132, -1.4458791914793139]], [[1.4555114574938242, -1.4555114574938248]], [[1.4503077521931853, -1.450307752193186]], [[1.4573163950369525, -1.4573163950369532]], [[1.4544035071911543, -1.454403507191155]], [[1.4598396037651922, -1.4598396037651928]], [[1.458256623775674, -1.4582566237756747]], [[1.4624334214974244, -1.462433421497425]], [[1.4617377280160067, -1.4617377280160073]], [[1.4648796497656034, -1.464879649765604]], [[1.4647495158913093, -1.46474951589131]], [[1.467213106748685, -1.4672131067486858]], [[1.4647790520468393, -1.46477905204684]], [[1.4682615011010245, -1.4682615011010252]], [[1.4625221671978437, -1.4625221671978443]], [[1.4693590135402887, -1.4693590135402894]], [[1.4507452625109445, -1.4507452625109452]], [[1.4557301072905744, -1.455730107290575]], [[1.428955075163853, -1.4289550751638536]], [[1.4615716203616862, -1.461571620361687]], [[1.4095022222787619, -1.4095022222787628]], [[1.499615593875131, -1.4996155938751319]], [[1.3969657079221458, -1.3969657079221467]], [[1.4921698508681636, -1.4921698508681644]], [[1.4007617401952757, -1.4007617401952766]], [[1.4829322870671486, -1.4829322870671495]], [[1.400470488555896, -1.400470488555897]], [[1.5098886194793768, -1.5098886194793777]], [[1.403515870034445, -1.403515870034446]], [[1.4741302647803285, -1.4741302647803294]], [[1.4433840298817098, -1.4433840298817107]], [[1.462386334707795, -1.4623863347077959]], [[1.447913275667843, -1.447913275667844]], [[1.4493037185231326, -1.4493037185231334]], [[1.4507279763032284, -1.4507279763032292]], [[1.4520338947752907, -1.4520338947752915]], [[1.453413334678302, -1.453413334678303]], [[1.4546307141970587, -1.4546307141970596]], [[1.45602483794042, -1.4560248379404208]], [[1.4573091311546742, -1.457309131154675]], [[1.4586673455902013, -1.4586673455902022]], [[1.4596479319675562, -1.4596479319675568]], [[1.4476890145281789, -1.4476890145281796]], [[1.4459978095831691, -1.4459978095831698]], [[1.429661634876698, -1.4296616348766986]], [[1.4435118391242228, -1.4435118391242234]], [[1.4153531624286535, -1.4153531624286542]], [[1.460982421778242, -1.4609824217782426]], [[1.3965247490200514, -1.3965247490200523]], [[1.4722620118845677, -1.4722620118845686]], [[1.3897378330322623, -1.3897378330322632]], [[1.4732128084920886, -1.4732128084920895]], [[1.3869400809912693, -1.3869400809912702]], [[1.51405540408408, -1.5140554040840808]], [[1.3947109040774224, -1.3947109040774233]], [[1.4676686382654696, -1.4676686382654704]], [[1.4422266177486838, -1.4422266177486844]], [[1.4440200124910028, -1.4440200124910034]], [[1.4301107484136693, -1.43011074841367]], [[1.41887163332874, -1.4188716333287406]], [[1.4307001201517136, -1.4307001201517142]], [[1.420540900960065, -1.4205409009600656]], [[1.4324299461226835, -1.4324299461226842]], [[1.4201475571391422, -1.4201475571391429]], [[1.4305930036693346, -1.4305930036693353]], [[1.4011305781830101, -1.4011305781830108]], [[1.4343846445116122, -1.4343846445116128]], [[1.389632571954361, -1.3896325719543616]], [[1.4388636147754355, -1.4388636147754361]], [[1.3780699612393446, -1.3780699612393452]], [[1.4728404292500559, -1.4728404292500563]], [[1.3731953308267522, -1.3731953308267526]], [[1.4548648189275382, -1.4548648189275386]], [[1.3806003717111606, -1.380600371711161]], [[1.4443805367331188, -1.4443805367331193]], [[1.3822390781330176, -1.382239078133018]], [[1.4372587903843048, -1.4372587903843055]], [[1.3804562473399826, -1.3804562473399833]], [[1.4325167621367585, -1.4325167621367592]], [[1.376798092225819, -1.3767980922258194]], [[1.4296894431628822, -1.4296894431628826]], [[1.3725685511706887, -1.372568551170689]], [[1.427896092114413, -1.4278960921144135]], [[1.3669097735362314, -1.3669097735362319]], [[1.4529217553781186, -1.452921755378119]], [[1.3633522927033208, -1.3633522927033213]], [[1.4379967822752773, -1.4379967822752777]], [[1.3701140378654995, -1.3701140378655]], [[1.4277974684538037, -1.427797468453804]], [[1.3712961951718678, -1.371296195171868]], [[1.4208997736252158, -1.420899773625216]], [[1.3689142760558823, -1.3689142760558826]], [[1.4164026226183755, -1.4164026226183757]], [[1.3648793343784054, -1.3648793343784056]], [[1.4134132208902725, -1.4134132208902728]], [[1.3604659523621376, -1.3604659523621379]], [[1.4115046513965617, -1.411504651396562]], [[1.3562397653725589, -1.356239765372559]], [[1.4101178182670733, -1.4101178182670735]], [[1.3516000564181665, -1.3516000564181667]], [[1.4335409123156853, -1.4335409123156855]], [[1.3477304223096038, -1.347730422309604]], [[1.4205455463092314, -1.4205455463092316]], [[1.35436245458996, -1.3543624545899602]], [[1.4111157922983044, -1.4111157922983046]], [[1.3556635289588344, -1.3556635289588346]], [[1.404695668693022, -1.4046956686930223]], [[1.3535197694896837, -1.3535197694896839]], [[1.400424438567672, -1.400424438567672]], [[1.349888459122595, -1.349888459122595]], [[1.3974807419929223, -1.3974807419929223]], [[1.3458005360384482, -1.3458005360384482]], [[1.3954632372218414, -1.3954632372218414]], [[1.3499285869621014, -1.3499285869621014]], [[1.394132186630571, -1.394132186630571]], [[1.3442120250534848, -1.3442120250534848]], [[1.3932267488423613, -1.3932267488423613]], [[1.3467021758943427, -1.3467021758943425]], [[1.4079669692575356, -1.4079669692575354]], [[1.3415486614706436, -1.3415486614706431]], [[1.4045529029956059, -1.4045529029956054]], [[1.3425740731806592, -1.3425740731806588]], [[1.3990243108731713, -1.3990243108731708]], [[1.3423896213456084, -1.342389621345608]], [[1.3941911813291126, -1.3941911813291121]], [[1.3405111582037499, -1.3405111582037494]], [[1.3904094557327937, -1.3904094557327933]], [[1.3375822973058882, -1.3375822973058877]], [[1.3874733598113411, -1.3874733598113407]], [[1.3343089939545396, -1.3343089939545392]], [[1.3853598378865857, -1.3853598378865852]], [[1.330972806847296, -1.3309728068472955]], [[1.3837301465891316, -1.3837301465891312]], [[1.32788366568574, -1.3278836656857396]], [[1.3823008008178976, -1.3823008008178972]], [[1.330834712696723, -1.3308347126967226]], [[1.4002765654202671, -1.4002765654202667]], [[1.3274686940334022, -1.3274686940334017]], [[1.3937856962379678, -1.3937856962379673]], [[1.3309957908295529, -1.3309957908295524]], [[1.3867738663692426, -1.3867738663692422]], [[1.3316140529116136, -1.3316140529116132]], [[1.3812884664434895, -1.381288466443489]], [[1.3297852390409068, -1.3297852390409062]], [[1.3772652153496086, -1.3772652153496079]], [[1.3266506713108712, -1.3266506713108706]], [[1.3742731664246124, -1.3742731664246117]], [[1.3232024617056237, -1.323202461705623]], [[1.3721138575160676, -1.372113857516067]], [[1.3196621172812981, -1.3196621172812975]], [[1.3703533608038823, -1.3703533608038816]], [[1.3239854335112426, -1.323985433511242]], [[1.368969990604212, -1.3689699906042114]], [[1.3205536939522189, -1.3205536939522182]], [[1.367836300534546, -1.3678363005345453]], [[1.3235578579946412, -1.3235578579946405]], [[1.3814142275359207, -1.3814142275359198]], [[1.326820037972672, -1.3268200379726711]], [[1.3785777825144132, -1.3785777825144123]], [[1.3240235212211924, -1.3240235212211915]], [[1.372167824320069, -1.3721678243200681]], [[1.3200345296325429, -1.320034529632542]], [[1.369760884315707, -1.369760884315706]], [[1.3164535964762814, -1.3164535964762805]], [[1.3673896678590634, -1.3673896678590625]], [[1.3131064901812344, -1.3131064901812335]], [[1.3651414400223882, -1.3651414400223874]], [[1.3099259877180829, -1.309925987718082]], [[1.3632726015841663, -1.3632726015841654]], [[1.3068951677616583, -1.3068951677616574]], [[1.361712507618748, -1.361712507618747]], [[1.3041044279072018, -1.304104427907201]], [[1.3603377460438244, -1.3603377460438235]], [[1.301604478321823, -1.3016044783218221]], [[1.3590547126850596, -1.3590547126850587]], [[1.2980920889117773, -1.2980920889117764]], [[1.3850546590005777, -1.3850546590005768]], [[1.2967191086027265, -1.2967191086027257]], [[1.373596619060511, -1.37359661906051]], [[1.3038601245534036, -1.3038601245534027]], [[1.363529665003469, -1.363529665003468]], [[1.3067504057081372, -1.3067504057081363]], [[1.3557543785117452, -1.3557543785117443]], [[1.3060157294041703, -1.3060157294041697]], [[1.3501746224138886, -1.350174622413888]], [[1.3031206160806197, -1.303120616080619]], [[1.346229425709997, -1.3462294257099963]], [[1.2993904662145772, -1.2993904662145765]], [[1.343351535417145, -1.3433515354171444]], [[1.2967738294129443, -1.2967738294129436]], [[1.3413290519282197, -1.341329051928219]], [[1.2932665254463491, -1.2932665254463485]], [[1.33991611342103, -1.3399161134210293]], [[1.2967116014117523, -1.2967116014117517]], [[1.3386469680888973, -1.3386469680888966]], [[1.2935318898383203, -1.2935318898383197]], [[1.3376719215310184, -1.3376719215310178]], [[1.2963142481634216, -1.296314248163421]], [[1.3369827950146398, -1.3369827950146391]], [[1.2918703712028978, -1.2918703712028972]], [[1.3517758247691298, -1.3517758247691292]], [[1.2936018996538337, -1.293601899653833]], [[1.349762166345288, -1.3497621663452875]], [[1.2930855984373235, -1.293085598437323]], [[1.345960057905326, -1.3459600579053255]], [[1.2919775107187945, -1.291977510718794]], [[1.3420731159025723, -1.3420731159025718]], [[1.290083346588865, -1.2900833465888646]], [[1.3386135183575745, -1.338613518357574]], [[1.2875758932073016, -1.2875758932073011]], [[1.3356743117643175, -1.335674311764317]], [[1.284744778614093, -1.2847447786140926]], [[1.3334130840088125, -1.333413084008812]], [[1.2817208856892899, -1.2817208856892894]], [[1.3316692642528263, -1.3316692642528258]], [[1.2788134708902164, -1.278813470890216]], [[1.3302788436848432, -1.3302788436848427]], [[1.2761395112485407, -1.2761395112485403]], [[1.3291128982986506, -1.3291128982986502]], [[1.2733886294590742, -1.2733886294590737]], [[1.3507755103145647, -1.3507755103145642]], [[1.2708109521071411, -1.2708109521071407]], [[1.344243707557827, -1.3442437075578266]], [[1.2759728442987266, -1.2759728442987261]], [[1.3363364179132144, -1.336336417913214]], [[1.2787920315141879, -1.2787920315141874]], [[1.3293298283514767, -1.3293298283514763]], [[1.2789053457213857, -1.2789053457213853]], [[1.3238210709666762, -1.3238210709666758]], [[1.2770048126403983, -1.277004812640398]], [[1.319679238717402, -1.3196792387174014]], [[1.2740194134920406, -1.2740194134920402]], [[1.316556640575967, -1.3165566405759666]], [[1.27055734760669, -1.2705573476066896]], [[1.314320912987082, -1.3143209129870816]], [[1.2683694804180075, -1.268369480418007]], [[1.3125470215940243, -1.3125470215940238]], [[1.272641578907733, -1.2726415789077326]], [[1.3110064724373518, -1.3110064724373514]], [[1.2775134061042146, -1.2775134061042142]], [[1.3096478207644269, -1.3096478207644264]], [[1.2819112032017603, -1.2819112032017599]], [[1.308575652226581, -1.3085756522265806]], [[1.2857349183503144, -1.285734918350314]], [[1.307834278578719, -1.3078342785787187]], [[1.2890467341287684, -1.2890467341287681]], [[1.3074170335084847, -1.3074170335084845]], [[1.2919252629458784, -1.2919252629458782]], [[1.3072897013567342, -1.307289701356734]], [[1.2943635368614617, -1.2943635368614614]], [[1.3106166813597395, -1.3106166813597393]], [[1.2980646661471442, -1.298064666147144]], [[1.3123283453184222, -1.312328345318422]], [[1.301262951639051, -1.3012629516390508]], [[1.313527970495688, -1.3135279704956877]], [[1.3037959598191098, -1.3037959598191096]], [[1.314425221405568, -1.3144252214055678]], [[1.304634233005693, -1.3046342330056928]], [[1.3145827329048276, -1.3145827329048274]], [[1.2920688251322194, -1.2920688251322192]], [[1.3146046341290851, -1.314604634129085]], [[1.2921532414805637, -1.2921532414805634]], [[1.3144678043171054, -1.3144678043171052]], [[1.2815033522446138, -1.2815033522446135]], [[1.3151017807790668, -1.3151017807790666]], [[1.2726501498935043, -1.272650149893504]], [[1.3167157401016651, -1.3167157401016645]], [[1.265454027808708, -1.2654540278087072]], [[1.3193455821334141, -1.3193455821334132]], [[1.2574732326149523, -1.2574732326149514]], [[1.354869593938257, -1.354869593938256]], [[1.253652460679854, -1.2536524606798531]], [[1.352448342202881, -1.3524483422028801]], [[1.249272277169173, -1.2492722771691722]], [[1.3541558607538893, -1.3541558607538884]], [[1.2444679082872177, -1.2444679082872168]], [[1.3558837253128484, -1.3558837253128475]], [[1.2400821054930073, -1.2400821054930065]], [[1.3573221557165762, -1.3573221557165753]], [[1.2365016337009904, -1.2365016337009895]], [[1.3584213589328213, -1.3584213589328205]], [[1.2365748041347489, -1.236574804134748]], [[1.3528313029938717, -1.3528313029938708]], [[1.2479751595714281, -1.2479751595714272]], [[1.3317674494320428, -1.331767449432042]], [[1.2683842971443022, -1.2683842971443013]], [[1.3132839477788483, -1.3132839477788474]], [[1.2753256678854608, -1.2753256678854599]], [[1.3031800655275425, -1.3031800655275416]], [[1.273289637742625, -1.2732896377426242]], [[1.2971703001375652, -1.2971703001375643]], [[1.2785962556021075, -1.2785962556021067]], [[1.2938240994034094, -1.2938240994034085]], [[1.2834604316295777, -1.2834604316295768]], [[1.292424562445709, -1.292424562445708]], [[1.2867126265302693, -1.2867126265302684]], [[1.2921411288917228, -1.292141128891722]], [[1.2890428023964002, -1.2890428023963993]], [[1.2924759766826426, -1.2924759766826417]], [[1.290854749462814, -1.2908547494628133]], [[1.2931497040935604, -1.2931497040935598]], [[1.2923720694698584, -1.2923720694698577]], [[1.2940084211590783, -1.2940084211590777]], [[1.2937180827279955, -1.2937180827279948]], [[1.2949175719498902, -1.2949175719498895]], [[1.2949502463084308, -1.2949502463084301]], [[1.2958896584000577, -1.295889658400057]], [[1.2958073701664754, -1.2958073701664747]], [[1.2968263543016088, -1.296826354301608]], [[1.2966685376211622, -1.2966685376211615]], [[1.29742443496507, -1.2974244349650692]], [[1.29746218666329, -1.2974621866632892]], [[1.2980352984909205, -1.2980352984909196]], [[1.2968106874339895, -1.2968106874339886]], [[1.2984114812813825, -1.2984114812813814]], [[1.2977654361774746, -1.2977654361774735]], [[1.2989100252831167, -1.2989100252831156]], [[1.2985491959951354, -1.2985491959951343]], [[1.3013086957586608, -1.3013086957586597]], [[1.284905735835719, -1.2849057358357179]], [[1.300850361823582, -1.300850361823581]], [[1.2863601633223645, -1.2863601633223634]], [[1.2999111477526866, -1.2999111477526855]], [[1.2779329748503965, -1.2779329748503954]], [[1.2986190623577591, -1.298619062357758]], [[1.2799482148221644, -1.2799482148221633]], [[1.2974717397478823, -1.2974717397478812]], [[1.2727764483083133, -1.2727764483083122]], [[1.2962235401423086, -1.2962235401423075]], [[1.274608736511442, -1.2746087365114411]], [[1.301193730097587, -1.3011937300975862]], [[1.2694977130903984, -1.2694977130903975]], [[1.3009733122034204, -1.3009733122034195]], [[1.2644952537477552, -1.2644952537477543]], [[1.2995590364138159, -1.299559036413815]], [[1.2604363251201687, -1.2604363251201678]], [[1.2979224556278202, -1.2979224556278193]], [[1.2567162461508015, -1.2567162461508006]], [[1.2964365975413128, -1.296436597541312]], [[1.2532182938663419, -1.253218293866341]], [[1.2952098695385736, -1.2952098695385728]], [[1.2484103523492585, -1.2484103523492576]], [[1.3149853411281789, -1.314985341128178]], [[1.2446274646260826, -1.2446274646260815]], [[1.3138135314930515, -1.3138135314930504]], [[1.2458308043523125, -1.2458308043523114]], [[1.309289588621424, -1.3092895886214229]], [[1.2473596979978177, -1.2473596979978165]], [[1.3035500319683606, -1.3035500319683593]], [[1.2484598034966183, -1.248459803496617]], [[1.29758351082902, -1.2975835108290186]], [[1.2486772816586629, -1.2486772816586615]], [[1.292041161695126, -1.2920411616951248]], [[1.247792448091296, -1.247792448091295]], [[1.2873067683423094, -1.2873067683423083]], [[1.2458940344407945, -1.2458940344407934]], [[1.2834805562010283, -1.2834805562010272]], [[1.2433140355102044, -1.2433140355102035]], [[1.2804789787671131, -1.2804789787671123]], [[1.2403473767476383, -1.2403473767476374]], [[1.2781602139285761, -1.278160213928575]], [[1.2359294711132593, -1.2359294711132582]], [[1.2926239931476067, -1.2926239931476056]], [[1.2329366651546132, -1.232936665154612]], [[1.2916227080320366, -1.2916227080320355]], [[1.2338732523967773, -1.2338732523967761]], [[1.2877279637656205, -1.2877279637656194]], [[1.2346821342043215, -1.2346821342043204]], [[1.2827972383635373, -1.2827972383635362]], [[1.2347888119386126, -1.2347888119386115]], [[1.2780161186525134, -1.2780161186525123]], [[1.234003990391025, -1.2340039903910238]], [[1.2737956345646084, -1.2737956345646073]], [[1.2323671445895672, -1.232367144589566]], [[1.2702731683425657, -1.2702731683425643]], [[1.230123597061588, -1.2301235970615867]], [[1.2674230583064967, -1.2674230583064954]], [[1.2275263891880785, -1.2275263891880772]], [[1.2651530600290561, -1.2651530600290548]], [[1.2245263060932055, -1.2245263060932041]], [[1.2770873576943191, -1.2770873576943178]], [[1.221701533528142, -1.2217015335281407]], [[1.276534522979908, -1.276534522979907]], [[1.2222240618056621, -1.222224061805661]], [[1.2732930406267577, -1.2732930406267566]], [[1.2226221464121598, -1.2226221464121587]], [[1.2690522248005003, -1.2690522248004994]], [[1.222486880515406, -1.2224868805154052]], [[1.2648147179225369, -1.264814717922536]], [[1.2215999073116381, -1.2215999073116373]], [[1.2610031440647953, -1.2610031440647944]], [[1.220010988080418, -1.220010988080417]], [[1.2577634755055929, -1.257763475505592]], [[1.2179010749897354, -1.2179010749897345]], [[1.2550902446351546, -1.255090244635154]], [[1.2154749251485921, -1.2154749251485915]], [[1.2529187496413967, -1.2529187496413958]], [[1.2129109004927463, -1.2129109004927454]], [[1.251174667688218, -1.2511746676882172]], [[1.2097510603790929, -1.209751060379092]], [[1.2645009595978856, -1.2645009595978847]], [[1.2071990532591943, -1.2071990532591932]], [[1.2646297440944894, -1.2646297440944883]], [[1.2076534233296465, -1.2076534233296454]], [[1.2620069828282845, -1.2620069828282834]], [[1.2082139688874647, -1.2082139688874636]], [[1.2581235273340732, -1.258123527334072]], [[1.2085529674524713, -1.2085529674524702]], [[1.2539177210726464, -1.2539177210726453]], [[1.2083781909883384, -1.2083781909883373]], [[1.2498701516341966, -1.2498701516341955]], [[1.2075579961116547, -1.2075579961116536]], [[1.2462505121332859, -1.2462505121332847]], [[1.2061028158250833, -1.2061028158250822]], [[1.243161572110778, -1.243161572110777]], [[1.204188359840452, -1.2041883598404508]], [[1.2405938883631287, -1.2405938883631276]], [[1.2019576053431482, -1.201957605343147]], [[1.2384867342762051, -1.238486734276204]], [[1.199581519749417, -1.199581519749416]], [[1.2366822242030235, -1.2366822242030224]], [[1.202952846298577, -1.202952846298576]], [[1.2442825535297466, -1.2442825535297455]], [[1.2091653378585585, -1.2091653378585574]], [[1.2427087165941373, -1.2427087165941362]], [[1.2068518966956918, -1.2068518966956907]], [[1.2402444236618257, -1.2402444236618246]], [[1.2044051327971588, -1.2044051327971577]], [[1.2376233183728904, -1.2376233183728893]], [[1.2017413590382258, -1.2017413590382247]], [[1.2351144993361105, -1.2351144993361094]], [[1.198945524277371, -1.19894552427737]], [[1.2329692963281011, -1.2329692963281]], [[1.196084208760565, -1.1960842087605639]], [[1.2311845537696644, -1.2311845537696633]], [[1.1932600230682833, -1.1932600230682822]], [[1.2297285615872877, -1.2297285615872866]], [[1.190538522329753, -1.190538522329752]], [[1.2285774308421633, -1.2285774308421622]], [[1.1879279883380522, -1.1879279883380511]], [[1.2277202052373317, -1.2277202052373306]], [[1.1846189962708644, -1.1846189962708633]], [[1.243340422318866, -1.2433404223188649]], [[1.1819198382042393, -1.1819198382042382]], [[1.2458384511180824, -1.2458384511180813]], [[1.1804859220774664, -1.1804859220774653]], [[1.246359390594389, -1.246359390594388]], [[1.1792493724347832, -1.1792493724347821]], [[1.2457826989775391, -1.245782698977538]], [[1.1783829825971341, -1.178382982597133]], [[1.2445338364439498, -1.2445338364439487]], [[1.1781652479984615, -1.1781652479984603]], [[1.242396649385902, -1.2423966493859009]], [[1.1787045983828912, -1.17870459838289]], [[1.2391773879495573, -1.2391773879495562]], [[1.1799575496686898, -1.1799575496686887]], [[1.2348679791738215, -1.2348679791738204]], [[1.181627421315657, -1.181627421315656]], [[1.2297490293134863, -1.2297490293134852]], [[1.1831770719476817, -1.1831770719476806]], [[1.2243948966325455, -1.2243948966325444]], [[1.1839842568531995, -1.1839842568531984]], [[1.2194534811015607, -1.2194534811015596]], [[1.1836869700492154, -1.1836869700492143]], [[1.2153230232563614, -1.2153230232563605]], [[1.1822408151392658, -1.182240815139265]], [[1.2118625401980978, -1.211862540198097]], [[1.1883801711377704, -1.1883801711377695]], [[1.208696156296197, -1.2086961562961962]], [[1.193250518263987, -1.193250518263986]], [[1.2064602648589693, -1.2064602648589684]], [[1.1966966224649536, -1.1966966224649527]], [[1.205176863495962, -1.2051768634959612]], [[1.1992815340393, -1.199281534039299]], [[1.2045857769470747, -1.2045857769470738]], [[1.2009290955867507, -1.2009290955867498]], [[1.2063874567555948, -1.206387456755594]], [[1.2037920798431667, -1.2037920798431658]], [[1.2073550988602246, -1.2073550988602237]], [[1.205892024756801, -1.2058920247568001]], [[1.2082253017714504, -1.2082253017714495]], [[1.2072920121841626, -1.2072920121841617]], [[1.2090241001922055, -1.2090241001922046]], [[1.2083990511647078, -1.208399051164707]], [[1.2095391409890925, -1.2095391409890917]], [[1.2092627601531518, -1.209262760153151]], [[1.21004231015349, -1.2100423101534892]], [[1.2099665357259866, -1.2099665357259857]], [[1.2105239822842981, -1.2105239822842973]], [[1.2105384682895102, -1.2105384682895093]], [[1.210952104538767, -1.2109521045387661]], [[1.2110340144019545, -1.2110340144019536]], [[1.2113568954067375, -1.2113568954067366]], [[1.2114754217204362, -1.2114754217204353]], [[1.2117399379296396, -1.2117399379296387]], [[1.2118773929786117, -1.2118773929786109]], [[1.212103441989064, -1.212103441989063]], [[1.212246188737974, -1.2122461887379732]], [[1.2112522867267597, -1.211252286726759]], [[1.2123918029570635, -1.2123918029570628]], [[1.2118280898831886, -1.211828089883188]], [[1.2126116313215423, -1.2126116313215416]], [[1.212314587089311, -1.2123145870893104]], 