[[[-0.055320042773766995, 0.05532004277376706]], [[-0.08262504431553873, 0.08262504431553874]], [[-0.09614607590445544, 0.09614607590445545]], [[-0.10281704116201504, 0.1028170411620151]], [[-0.10604655079842004, 0.10604655079842001]], [[-0.10755316073746266, 0.10755316073746257]], [[-0.10823064556982818, 0.1082306455698281]], [[-0.10844474881984718, 0.10844474881984703]], [[-0.10840337839974284, 0.10840337839974269]], [[-0.10814211095564716, 0.10814211095564707]], [[-0.10775117825883045, 0.1077511782588304]], [[-0.10727707880530807, 0.107277078805308]], [[-0.10666136081970454, 0.10666136081970452]], [[-0.10577015408006835, 0.10577015408006835]], [[-0.10481339105647666, 0.10481339105647662]], [[-0.10371476254452688, 0.1037147625445268]], [[-0.10252668051681263, 0.10252668051681255]], [[-0.10076319932404079, 0.10076319932404074]], [[-0.0985517068935996, 0.09855170689359957]], [[-0.09604064547919419, 0.0960406454791941]], [[-0.0934756341820058, 0.09347563418200572]], [[-0.08990796527979714, 0.08990796527979703]], [[-0.08556519609995208, 0.08556519609995199]], [[-0.0816332033165772, 0.08163320331657706]], [[-0.0752072717668173, 0.07520727176681716]], [[-0.06974394884156881, 0.06974394884156862]], [[-0.06182847490198102, 0.06182847490198087]], [[-0.051522039916526145, 0.05152203991652597]], [[-0.042022241937688276, 0.04202224193768812]], [[-0.03375939876428254, 0.03375939876428239]], [[-0.022861414304438152, 0.022861414304437985]], [[-0.01202403983674552, 0.012024039836745312]], [[0.0025508321866509406, -0.002550832186651128]], [[0.010932685929550413, -0.010932685929550587]], [[0.027789860145526264, -0.027789860145526438]], [[0.03704809462142982, -0.03704809462142997]], [[0.0496526389268253, -0.04965263892682546]], [[0.056514364670385786, -0.05651436467038596]], [[0.06804670773780098, -0.06804670773780111]], [[0.08156482243695565, -0.08156482243695573]], [[0.084977314050224, -0.08497731405022413]], [[0.09782281295010935, -0.09782281295010947]], [[0.10360138126744706, -0.1036013812674471]], [[0.11420837402836292, -0.114208374028363]], [[0.12272779898313485, -0.12272779898313492]], [[0.13140104346622267, -0.1314010434662227]], [[0.13555973357942608, -0.1355597335794262]], [[0.14134839704244018, -0.14134839704244026]], [[0.1432507001597913, -0.14325070015979136]], [[0.1486025433111704, -0.14860254331117043]], [[0.15338543606974098, -0.15338543606974103]], [[0.15764317117935564, -0.15764317117935567]], [[0.16128371825078897, -0.16128371825078902]], [[0.1644089119378377, -0.16440891193783777]], [[0.1671081744811885, -0.16710817448118853]], [[0.16946627766407618, -0.16946627766407624]], [[0.17153850390851888, -0.17153850390851894]], [[0.17337765862682816, -0.17337765862682822]], [[0.17501733680145065, -0.1750173368014507]], [[0.17649370566909134, -0.17649370566909134]], [[0.1778266960679335, -0.17782669606793344]], [[0.1790397623243671, -0.17903976232436705]], [[0.18014479774530268, -0.18014479774530257]], [[0.18115739069813874, -0.18115739069813858]], [[0.1820925787742457, -0.1820925787742455]], [[0.18295396134143102, -0.18295396134143083]], [[0.18375573384454724, -0.18375573384454702]], [[0.1844992872517207, -0.1844992872517205]], [[0.18519680298290903, -0.18519680298290886]], [[0.18584823103399892, -0.18584823103399872]], [[0.1864643961690785, -0.1864643961690783]], [[0.1870414691905059, -0.18704146919050565]], [[0.1875960400264271, -0.18759604002642688]], [[0.18811963797342102, -0.18811963797342074]], [[0.1886275777674346, -0.18862757776743427]], [[0.18911120521043248, -0.18911120521043223]], [[0.18958612730419938, -0.1895861273041991]], [[0.19092069436242914, -0.19092069436242884]], [[0.1909749643125389, -0.19097496431253855]], [[0.1913376449521491, -0.19133764495214872]], [[0.19167408893790408, -0.19167408893790372]], [[0.19203897195966596, -0.19203897195966568]], [[0.1924252917591362, -0.19242529175913592]], [[0.1928178129294623, -0.19281781292946204]], [[0.19323343323854986, -0.19323343323854963]], [[0.1940521479805509, -0.19405214798055073]], [[0.2018760748738524, -0.20187607487385223]], [[0.2094310110705984, -0.20943101107059828]], [[0.21392884412731097, -0.21392884412731086]], [[0.21891245527907377, -0.2189124552790736]], [[0.22107588493435318, -0.22107588493435304]], [[0.21452300071800628, -0.21452300071800615]], [[0.2298579418359244, -0.22985794183592423]], [[0.2234474013984949, -0.22344740139849473]], [[0.23241106108961967, -0.2324110610896195]], [[0.2285486567381754, -0.22854865673817523]], [[0.24050339270179705, -0.24050339270179683]], [[0.231166598326151, -0.23116659832615077]], [[0.24002778046180068, -0.24002778046180043]], [[0.23580987042665075, -0.23580987042665044]], [[0.2462735659432198, -0.24627356594321947]], [[0.24934895966691056, -0.24934895966691023]], [[0.24202000333082246, -0.2420200033308222]], [[0.25753596357647346, -0.2575359635764731]], [[0.24267363208649714, -0.24267363208649684]], [[0.26484022810594726, -0.2648402281059469]], [[0.24833418532599447, -0.24833418532599408]], [[0.2687004767831951, -0.2687004767831947]], [[0.25225935071374184, -0.25225935071374145]], [[0.2795824753473311, -0.2795824753473307]], [[0.2598539919932979, -0.2598539919932975]], [[0.27799722345881994, -0.2779972234588196]], [[0.26119099535303775, -0.26119099535303736]], [[0.2883340927502391, -0.2883340927502387]], [[0.2696615963975614, -0.26966159639756093]], [[0.29355735065462174, -0.2935573506546213]], [[0.27648624003265754, -0.27648624003265704]], [[0.2940054175631202, -0.29400541756311965]], [[0.2792877801527007, -0.2792877801527002]], [[0.3064746820721929, -0.30647468207219236]], [[0.2885038094593369, -0.2885038094593363]], [[0.31715856579782453, -0.317158565797824]], [[0.29773970251969645, -0.29773970251969584]], [[0.3274700048177232, -0.3274700048177226]], [[0.3072966059147484, -0.3072966059147478]], [[0.33546599802428856, -0.3354659980242879]], [[0.31613074940693164, -0.316130749406931]], [[0.34533460417513007, -0.34533460417512934]], [[0.32690151490204666, -0.326901514902046]], [[0.3557614776900783, -0.35576147769007765]], [[0.3364539785594225, -0.33645397855942183]], [[0.36642480843021646, -0.3664248084302157]], [[0.3480406603324135, -0.34804066033241277]], [[0.3797026756523259, -0.3797026756523252]], [[0.3551171759854237, -0.355117175985423]], [[0.3817546765191589, -0.3817546765191582]], [[0.3636679040534653, -0.3636679040534646]], [[0.3881417813532556, -0.38814178135325494]], [[0.372084228716909, -0.3720842287169083]], [[0.4038507208411498, -0.40385072084114915]], [[0.38693081375633187, -0.3869308137563312]], [[0.4174465538305221, -0.41744655383052137]], [[0.40010767276206377, -0.40010767276206305]], [[0.42857604759956125, -0.42857604759956053]], [[0.4145719828323473, -0.41457198283234653]], [[0.4437772775588753, -0.4437772775588746]], [[0.4278085661635397, -0.42780856616353896]], [[0.45309664311279807, -0.4530966431127974]], [[0.44117573770747076, -0.4411757377074701]], [[0.46389124601952436, -0.46389124601952375]], [[0.4527004047269622, -0.4527004047269616]], [[0.47182222987575007, -0.47182222987574945]], [[0.462757395684476, -0.4627573956844753]], [[0.4838848578567399, -0.48388485785673924]], [[0.4741310323936737, -0.47413103239367305]], [[0.4957291220869436, -0.495729122086943]], [[0.4840189131718178, -0.4840189131718172]], [[0.507217908765856, -0.5072179087658555]], [[0.49185907454382194, -0.4918590745438214]], [[0.5158551090522476, -0.5158551090522471]], [[0.5035861138288819, -0.5035861138288813]], [[0.5222274298512133, -0.5222274298512127]], [[0.5127580906524747, -0.5127580906524741]], [[0.5267011888955221, -0.5267011888955215]], [[0.5184083653441294, -0.5184083653441288]], [[0.5320720557537325, -0.532072055753732]], [[0.5274958914280571, -0.5274958914280565]], [[0.5359055879108084, -0.5359055879108079]], [[0.5346862678221131, -0.5346862678221125]], [[0.5403123916752426, -0.5403123916752419]], [[0.541045644830754, -0.5410456448307533]], [[0.5488505416370731, -0.5488505416370725]], [[0.5424063466573303, -0.5424063466573296]], [[0.5567874380513829, -0.5567874380513822]], [[0.5501412607454336, -0.5501412607454329]], [[0.5605124111305094, -0.5605124111305088]], [[0.5564200920442156, -0.5564200920442149]], [[0.5688815376505184, -0.5688815376505177]], [[0.5562385474651043, -0.5562385474651036]], [[0.5786019012111768, -0.5786019012111762]], [[0.5625944993056459, -0.5625944993056452]], [[0.5831891457169435, -0.5831891457169428]], [[0.568214321858533, -0.5682143218585324]], [[0.5927624558391471, -0.5927624558391464]], [[0.5658309324348162, -0.5658309324348155]], [[0.605896217272336, -0.6058962172723352]], [[0.568701064129719, -0.5687010641297182]], [[0.6151709983025402, -0.6151709983025394]], [[0.568779500782314, -0.5687795007823132]], [[0.6320151779835564, -0.6320151779835557]], [[0.5643787016955175, -0.5643787016955167]], [[0.6483410336402295, -0.6483410336402288]], [[0.547333990729864, -0.5473339907298632]], [[0.6791662211717994, -0.6791662211717986]], [[0.5351692203938364, -0.5351692203938356]], [[0.6951023918619277, -0.6951023918619269]], [[0.5338675717695659, -0.5338675717695651]], [[0.7127381583315473, -0.7127381583315465]], [[0.5451225143448575, -0.5451225143448567]], [[0.7248656383500582, -0.7248656383500574]], [[0.5663803372088385, -0.5663803372088376]], [[0.7065767247429372, -0.7065767247429363]], [[0.5750755500470386, -0.5750755500470377]], [[0.7116785435098698, -0.7116785435098689]], [[0.59796682228991, -0.597966822289909]], [[0.6994532805936967, -0.6994532805936957]], [[0.6082605960231029, -0.6082605960231018]], [[0.7004176605075627, -0.7004176605075616]], [[0.615604309961045, -0.6156043099610439]], [[0.7013398353600381, -0.701339835360037]], [[0.6211478626602269, -0.6211478626602258]], [[0.7054875739558533, -0.7054875739558522]], [[0.6225921978442612, -0.6225921978442601]], [[0.7101635261168002, -0.7101635261167991]], [[0.6246636248835803, -0.6246636248835792]], [[0.7159585407894478, -0.7159585407894465]], [[0.6250165106486609, -0.6250165106486597]], [[0.7221552642526137, -0.7221552642526123]], [[0.6251809219213839, -0.6251809219213825]], [[0.7281010339893609, -0.7281010339893595]], [[0.6254587602806461, -0.6254587602806447]], [[0.7331194216030626, -0.7331194216030614]], [[0.635697783691286, -0.6356977836912848]], [[0.7271358102214796, -0.7271358102214782]], [[0.6443018606188242, -0.6443018606188229]], [[0.7125633398542784, -0.7125633398542771]], [[0.6452731483581494, -0.6452731483581481]], [[0.7258306018765727, -0.7258306018765712]], [[0.6378325059687779, -0.6378325059687765]], [[0.7405049187348607, -0.7405049187348591]], [[0.6310097288271651, -0.6310097288271636]], [[0.7548985136755355, -0.7548985136755341]], [[0.6409931240122744, -0.6409931240122729]], [[0.7604355908839603, -0.7604355908839587]], [[0.6513517912438108, -0.6513517912438093]], [[0.7525350068321711, -0.7525350068321696]], [[0.6534413345147501, -0.6534413345147485]], [[0.7618900350598683, -0.7618900350598667]], [[0.6520896907384814, -0.6520896907384799]], [[0.7691341547848278, -0.7691341547848263]], [[0.6650445280298648, -0.6650445280298632]], [[0.7541902798972767, -0.7541902798972752]], [[0.6676293853272912, -0.6676293853272897]], [[0.767106671550741, -0.7671066715507393]], [[0.6642183860610547, -0.664218386061053]], [[0.7741069792952875, -0.7741069792952858]], [[0.6762537783605698, -0.6762537783605681]], [[0.7458894036883288, -0.745889403688327]], [[0.6778628451138995, -0.6778628451138977]], [[0.7590142403660337, -0.7590142403660319]], [[0.6688786149806705, -0.6688786149806686]], [[0.7756543285589366, -0.7756543285589347]], [[0.6632466713869937, -0.6632466713869918]], [[0.7980552541982875, -0.7980552541982856]], [[0.6819939557645668, -0.6819939557645649]], [[0.77249711377443, -0.772497113774428]], [[0.6845495878396436, -0.6845495878396416]], [[0.7820217670095914, -0.7820217670095894]], [[0.6956421764005917, -0.6956421764005897]], [[0.7528975665912824, -0.7528975665912804]], [[0.6976045243293536, -0.6976045243293517]], [[0.7671289068623467, -0.7671289068623448]], [[0.6850535816126168, -0.6850535816126149]], [[0.7872403079533924, -0.7872403079533905]], [[0.6757992493371268, -0.6757992493371249]], [[0.8132145489410658, -0.8132145489410639]], [[0.6957485198415986, -0.6957485198415967]], [[0.7810838920106874, -0.7810838920106855]], [[0.6980717302680802, -0.6980717302680783]], [[0.7920285365129831, -0.7920285365129812]], [[0.7075369919983361, -0.7075369919983342]], [[0.7603495087476975, -0.7603495087476957]], [[0.708532772158323, -0.7085327721583212]], [[0.7758414393065272, -0.7758414393065254]], [[0.6920252248754618, -0.69202522487546]], [[0.8020994300823002, -0.8020994300822984]], [[0.682962970177051, -0.6829629701770491]], [[0.8258452002149688, -0.8258452002149669]], [[0.7072938971760809, -0.7072938971760792]], [[0.7858495127087214, -0.7858495127087196]], [[0.6885897712163336, -0.6885897712163318]], [[0.8075936267785124, -0.8075936267785107]], [[0.6811768744937754, -0.6811768744937736]], [[0.8366801348517625, -0.8366801348517607]], [[0.717245250690488, -0.7172452506904862]], [[0.7738599677848406, -0.7738599677848387]], [[0.7233885901606146, -0.7233885901606127]], [[0.7787612737898354, -0.7787612737898335]], [[0.7062009261999855, -0.7062009261999836]], [[0.7954748351266638, -0.795474835126662]], [[0.6943286137858035, -0.6943286137858016]], [[0.8174770304864003, -0.8174770304863984]], [[0.694225226920528, -0.6942252269205261]], [[0.8257635000688908, -0.8257635000688889]], [[0.7267855127512493, -0.7267855127512474]], [[0.7810087202778718, -0.7810087202778699]], [[0.7057685371963518, -0.7057685371963499]], [[0.7998640963538883, -0.7998640963538863]], [[0.6961624518634661, -0.6961624518634641]], [[0.8176862361648203, -0.8176862361648183]], [[0.6977375261556086, -0.6977375261556066]], [[0.8237789689711476, -0.8237789689711454]], [[0.7319017938645753, -0.7319017938645731]], [[0.7779533803884284, -0.7779533803884262]], [[0.7100019453935557, -0.7100019453935534]], [[0.7954283970471135, -0.7954283970471113]], [[0.6989306504461271, -0.6989306504461249]], [[0.8157022752404418, -0.8157022752404396]], [[0.699775145431746, -0.6997751454317438]], [[0.822428855355038, -0.8224288553550358]], [[0.7349788136135128, -0.7349788136135107]], [[0.7746375828345432, -0.7746375828345411]], [[0.7409778644917072, -0.7409778644917051]], [[0.7759821203225037, -0.7759821203225017]], [[0.721052697064773, -0.721052697064771]], [[0.7889689240183123, -0.7889689240183104]], [[0.7081453190293734, -0.7081453190293715]], [[0.8016487797305989, -0.801648779730597]], [[0.7012557723374954, -0.7012557723374935]], [[0.82021944566452, -0.8202194456645181]], [[0.7030275603500348, -0.7030275603500329]], [[0.8216364855319476, -0.8216364855319456]], [[0.739395812629279, -0.739395812629277]], [[0.774465020589607, -0.774465020589605]], [[0.7146262596436146, -0.7146262596436126]], [[0.7895269185854351, -0.7895269185854331]], [[0.7013485090776233, -0.7013485090776213]], [[0.8112201309175056, -0.8112201309175036]], [[0.6993241861889238, -0.6993241861889218]], [[0.8119823542278477, -0.8119823542278457]], [[0.7017078457559855, -0.7017078457559836]], [[0.8178100344846834, -0.8178100344846814]], [[0.7399557631353325, -0.7399557631353305]], [[0.7605148758735759, -0.7605148758735739]], [[0.7119145717551579, -0.7119145717551559]], [[0.7737034131553486, -0.7737034131553466]], [[0.694755159921513, -0.694755159921511]], [[0.7968919770530505, -0.7968919770530485]], [[0.6902709588365692, -0.6902709588365672]], [[0.8034059254583169, -0.8034059254583148]], [[0.693108768366959, -0.6931087683669569]], [[0.8060435264816547, -0.8060435264816526]], [[0.7004565455718971, -0.700456545571895]], [[0.7964585409463953, -0.7964585409463933]], [[0.738173051523494, -0.738173051523492]], [[0.7437746096783117, -0.7437746096783097]], [[0.7040446726155873, -0.7040446726155853]], [[0.7650448400248647, -0.7650448400248627]], [[0.6882688818648964, -0.6882688818648944]], [[0.7734474948826586, -0.7734474948826565]], [[0.6803593093108615, -0.6803593093108594]], [[0.7949156662342405, -0.7949156662342384]], [[0.683748397701441, -0.6837483977014389]], [[0.7862772672234984, -0.7862772672234963]], [[0.6901094102246046, -0.6901094102246025]], [[0.7816705350697075, -0.7816705350697054]], [[0.693285008780077, -0.6932850087800749]], [[0.7744582746240886, -0.7744582746240865]], [[0.6940274218736137, -0.6940274218736115]], [[0.7644420800792352, -0.7644420800792331]], [[0.6904650727104533, -0.6904650727104512]], [[0.7664695702678529, -0.7664695702678508]], [[0.6876732322282467, -0.6876732322282446]], [[0.7636118335903764, -0.7636118335903743]], [[0.6859030792105802, -0.6859030792105781]], [[0.756405598361825, -0.7564055983618229]], [[0.679703271725253, -0.6797032717252509]], [[0.764174631866025, -0.764174631866023]], [[0.6785624812703266, -0.6785624812703246]], [[0.7615096045969615, -0.7615096045969596]], [[0.679650870907959, -0.6796508709079572]], [[0.7528475437149109, -0.7528475437149091]], [[0.6754735183671006, -0.6754735183670988]], [[0.7591232669146991, -0.7591232669146973]], [[0.6756814835434929, -0.6756814835434911]], [[0.754716042521471, -0.7547160425214692]], [[0.6764230404585142, -0.6764230404585124]], [[0.7453549247928475, -0.7453549247928457]], [[0.6720203036852824, -0.6720203036852807]], [[0.7510781643339368, -0.751078164333935]], [[0.6714014459490634, -0.6714014459490616]], [[0.7466415310418829, -0.7466415310418811]], [[0.6710469137352096, -0.6710469137352079]], [[0.7382296191317155, -0.7382296191317137]], [[0.6667218229051104, -0.6667218229051086]], [[0.742546835395222, -0.7425468353952203]], [[0.6652085320332356, -0.6652085320332338]], [[0.7390464876330393, -0.7390464876330375]], [[0.6643226661824094, -0.6643226661824077]], [[0.7314033739848047, -0.731403373984803]], [[0.6596011999631156, -0.659601199963114]], [[0.7367587989323847, -0.7367587989323832]], [[0.6587492176109979, -0.6587492176109964]], [[0.7330830718383381, -0.7330830718383365]], [[0.6583367302576778, -0.6583367302576763]], [[0.7253028516611357, -0.7253028516611343]], [[0.6540457936361748, -0.6540457936361733]], [[0.7305656223521075, -0.7305656223521061]], [[0.653388839778089, -0.6533888397780877]], [[0.7231679193001266, -0.7231679193001253]], [[0.652441950063603, -0.6524419500636016]], [[0.7166730051909798, -0.7166730051909784]], [[0.647988547628749, -0.6479885476287477]], [[0.7256279518730469, -0.7256279518730455]], [[0.6468799284557716, -0.6468799284557702]], [[0.7191235671300776, -0.7191235671300762]], [[0.6467097492595965, -0.646709749259595]], [[0.7113986837144886, -0.7113986837144871]], [[0.6434481341477863, -0.6434481341477849]], [[0.7077608118501607, -0.7077608118501593]], [[0.6408330594810033, -0.6408330594810018]], [[0.7051450916942138, -0.7051450916942121]], [[0.6344874092692495, -0.6344874092692478]], [[0.7142609198197359, -0.7142609198197342]], [[0.634801413779834, -0.6348014137798322]], [[0.7076521120053304, -0.7076521120053285]], [[0.6355178366988574, -0.6355178366988555]], [[0.7009440102958151, -0.7009440102958132]], [[0.6324338937374613, -0.6324338937374594]], [[0.6983103177492365, -0.6983103177492347]], [[0.6307305359418541, -0.6307305359418524]], [[0.6954714408247243, -0.6954714408247226]], [[0.6249730278777903, -0.6249730278777885]], [[0.7048957287308419, -0.7048957287308402]], [[0.6261096839820203, -0.6261096839820185]], [[0.6977985417420794, -0.6977985417420777]], [[0.626031390639286, -0.6260313906392841]], [[0.6941647416693815, -0.6941647416693796]], [[0.6252695711346792, -0.6252695711346773]], [[0.6875575557054631, -0.6875575557054612]], [[0.6233418193989106, -0.6233418193989088]], [[0.6843084335692069, -0.684308433569205]], [[0.6176202570654536, -0.6176202570654518]], [[0.6926122221620472, -0.6926122221620453]], [[0.6173389057341739, -0.617338905734172]], [[0.6903671161944688, -0.6903671161944669]], [[0.6183808243152399, -0.618380824315238]], [[0.6833879555230689, -0.683387955523067]], [[0.617216271630521, -0.6172162716305192]], [[0.6770857582756713, -0.6770857582756695]], [[0.6112244275340195, -0.6112244275340177]], [[0.684497281187668, -0.6844972811876662]], [[0.6113571199111749, -0.6113571199111731]], [[0.6784536079306498, -0.678453607930648]], [[0.6098499193652457, -0.6098499193652439]], [[0.6761245324101537, -0.6761245324101519]], [[0.6090310210537466, -0.6090310210537448]], [[0.6703816609087017, -0.6703816609086999]], [[0.6049448752813074, -0.6049448752813056]], [[0.677306244042137, -0.6773062440421352]], [[0.6049931808092568, -0.6049931808092549]], [[0.6713924147200789, -0.6713924147200772]], [[0.6046347757334861, -0.6046347757334843]], [[0.6679698694643097, -0.6679698694643079]], [[0.6029524171403692, -0.6029524171403674]], [[0.6627097272239261, -0.6627097272239242]], [[0.5995865415555082, -0.5995865415555063]], [[0.6687888248289194, -0.6687888248289175]], [[0.5985305121848241, -0.5985305121848222]], [[0.6637144645943273, -0.6637144645943254]], [[0.5979802395658163, -0.5979802395658143]], [[0.6578993522732451, -0.6578993522732431]], [[0.5944206792048305, -0.5944206792048284]], [[0.6558912568419055, -0.6558912568419034]], [[0.5918466836374102, -0.5918466836374081]], [[0.6516435648578783, -0.6516435648578762]], [[0.5867943951870553, -0.5867943951870532]], [[0.6599522655372186, -0.6599522655372164]], [[0.587482722209492, -0.5874827222094898]], [[0.6546222522278892, -0.6546222522278868]], [[0.5880547592951468, -0.5880547592951444]], [[0.6486646721401096, -0.6486646721401071]], [[0.5862134544241507, -0.5862134544241483]], [[0.6442246283355497, -0.6442246283355473]], [[0.5823719993140671, -0.5823719993140646]], [[0.642563972493024, -0.6425639724930214]], [[0.578113058092582, -0.5781130580925793]], [[0.6520248322183407, -0.6520248322183381]], [[0.5791106245655574, -0.5791106245655547]], [[0.646695414323594, -0.6466954143235913]], [[0.5803296434518749, -0.5803296434518722]], [[0.6407008230186079, -0.6407008230186052]], [[0.5786483167519354, -0.5786483167519327]], [[0.6356750244088144, -0.6356750244088117]], [[0.5747877373015347, -0.574787737301532]], [[0.6338388052937065, -0.6338388052937038]], [[0.5716171231628416, -0.571617123162839]], [[0.6422389114064729, -0.6422389114064703]], [[0.5717555266197201, -0.5717555266197174]], [[0.6376828706036729, -0.6376828706036703]], [[0.572520646956893, -0.5725206469568905]], [[0.6321812757464804, -0.6321812757464779]], [[0.570768481784452, -0.5707684817844495]], [[0.6274186816048857, -0.6274186816048831]], [[0.5672087651398411, -0.5672087651398385]], [[0.6255666108479538, -0.6255666108479513]], [[0.5640331556583478, -0.5640331556583453]], [[0.622469262478212, -0.6224692624782096]], [[0.5583815826117938, -0.5583815826117914]], [[0.6323412915676061, -0.6323412915676037]], [[0.5604902435640781, -0.5604902435640756]], [[0.6273736373814346, -0.6273736373814321]], [[0.5620928401490592, -0.5620928401490567]], [[0.6218707408919193, -0.6218707408919167]], [[0.5607853727047216, -0.5607853727047191]], [[0.6172093568986236, -0.617209356898621]], [[0.557139715724603, -0.5571397157246004]], [[0.6156712039223946, -0.615671203922392]], [[0.5545370529284053, -0.5545370529284027]], [[0.6125676655490888, -0.6125676655490863]], [[0.5496409317143096, -0.5496409317143071]], [[0.6218902068891834, -0.621890206889181]], [[0.5515702664811685, -0.551570266481166]], [[0.6173803222331846, -0.6173803222331822]], [[0.5531153219332274, -0.553115321933225]], [[0.6121987239310327, -0.6121987239310303]], [[0.5518987807281511, -0.5518987807281487]], [[0.6077309611114992, -0.6077309611114966]], [[0.5483504134900429, -0.5483504134900403]], [[0.6063139214979405, -0.606313921497938]], [[0.5459661953453357, -0.5459661953453332]], [[0.6032105283161803, -0.6032105283161777]], [[0.5555600099591109, -0.5555600099591084]], [[0.608961603065617, -0.6089616030656144]], [[0.566594022185985, -0.5665940221859824]], [[0.6083615774835437, -0.6083615774835411]], [[0.557402294167209, -0.5574022941672064]], [[0.6063601943168707, -0.6063601943168682]], [[0.5508213446447754, -0.5508213446447728]], [[0.6037639181480273, -0.6037639181480248]], [[0.5457405921467348, -0.5457405921467323]], [[0.6009746868620862, -0.6009746868620838]], [[0.5412625729978873, -0.5412625729978848]], [[0.6001882267687412, -0.6001882267687386]], [[0.5383559662198182, -0.5383559662198156]], [[0.5978865433133392, -0.5978865433133367]], [[0.5335389761319417, -0.5335389761319391]], [[0.6083041118099534, -0.6083041118099508]], [[0.5362555577969323, -0.5362555577969298]], [[0.60415807264856, -0.6041580726485576]], [[0.5384615387265534, -0.538461538726551]], [[0.5990057793008543, -0.5990057793008519]], [[0.5379861264238576, -0.5379861264238551]], [[0.5944182337602844, -0.5944182337602819]], [[0.5355578372421457, -0.5355578372421432]], [[0.5905421764538009, -0.5905421764537984]], [[0.5323447651001428, -0.5323447651001403]], [[0.5873697780894911, -0.5873697780894885]], [[0.5417324471672562, -0.5417324471672537]], [[0.5849934886943847, -0.5849934886943822]], [[0.5487777469837999, -0.5487777469837973]], [[0.5845811008805399, -0.5845811008805374]], [[0.5534504263379975, -0.5534504263379948]], [[0.590124867236463, -0.5901248672364603]], [[0.5608537388089072, -0.5608537388089045]], [[0.5920029654477781, -0.5920029654477754]], [[0.5664802773886104, -0.5664802773886077]], [[0.5912544016816108, -0.5912544016816081]], [[0.5705757539947302, -0.5705757539947275]], [[0.5907017526633009, -0.5907017526632983]], [[0.5735983804173285, -0.5735983804173258]], [[0.5903651614498965, -0.5903651614498938]], [[0.5758673833334899, -0.5758673833334872]], [[0.5902155565935425, -0.5902155565935399]], [[0.5775987416122891, -0.5775987416122864]], [[0.5902190342652341, -0.5902190342652315]], [[0.5789383464201313, -0.5789383464201288]], [[0.5903484356113133, -0.5903484356113107]], [[0.579984802684121, -0.5799848026841183]], [[0.5905852466396087, -0.590585246639606]], [[0.5808043141216919, -0.5808043141216892]], [[0.5909189257345928, -0.5909189257345902]], [[0.5808176380420859, -0.5808176380420832]], [[0.5943910815446029, -0.5943910815446002]], [[0.5831659661236278, -0.5831659661236251]], [[0.5967102022681121, -0.5967102022681096]], [[0.58474487124738, -0.5847448712473774]], [[0.5985789371433554, -0.5985789371433529]], [[0.5857640480427018, -0.5857640480426992]], [[0.5998770666463732, -0.5998770666463706]], [[0.5591714469535544, -0.5591714469535518]], [[0.603441523007806, -0.6034415230078034]], [[0.5429923803304196, -0.5429923803304171]], [[0.6087622505656883, -0.6087622505656858]], [[0.5307605135776214, -0.530760513577619]], [[0.615569012174841, -0.6155690121748385]], [[0.5202450917957955, -0.5202450917957931]], [[0.6270059612559211, -0.6270059612559188]], [[0.5028865760398167, -0.5028865760398143]], [[0.6956527685039001, -0.6956527685038978]], [[0.45184725190802644, -0.4518472519080241]], [[0.6824809118924133, -0.682480911892411]], [[0.6271938854268537, -0.6271938854268514]], [[0.6213068035415772, -0.6213068035415749]], [[0.596928077822449, -0.5969280778224467]], [[0.6112759792912424, -0.6112759792912401]], [[0.5791973510070618, -0.5791973510070595]], [[0.6035318669285039, -0.6035318669285016]], [[0.5663679590818873, -0.566367959081885]], [[0.598883353786652, -0.5988833537866497]], [[0.5574159681584491, -0.5574159681584467]], [[0.5947349028832013, -0.594734902883199]], [[0.550756955482507, -0.5507569554825047]], [[0.590648390241178, -0.5906483902411757]], [[0.559561870535817, -0.5595618705358146]], [[0.588095739064588, -0.5880957390645857]], [[0.5658823235438872, -0.5658823235438849]], [[0.5850386391294236, -0.5850386391294212]], [[0.5700062574865563, -0.570006257486554]], [[0.5832606173525582, -0.5832606173525559]], [[0.5728065580126505, -0.5728065580126481]], [[0.582143210428532, -0.5821432104285296]], [[0.5764009737741342, -0.5764009737741318]], [[0.5832890418907234, -0.5832890418907208]], [[0.5789129220817673, -0.5789129220817647]], [[0.584161614172112, -0.5841616141721094]], [[0.580788187768671, -0.5807881877686685]], [[0.5848750357420675, -0.5848750357420649]], [[0.5822281075193821, -0.5822281075193797]], [[0.5854852114568728, -0.5854852114568704]], [[0.5833646088420144, -0.5833646088420119]], [[0.5860230338349592, -0.5860230338349568]], [[0.5842855377851173, -0.5842855377851148]], [[0.5864967808505192, -0.5864967808505168]], [[0.5867200629327277, -0.5867200629327253]], [[0.5885884503006886, -0.5885884503006863]], [[0.5886022835912229, -0.5886022835912206]], [[0.5901143024063664, -0.590114302406364]], [[0.590008917515277, -0.5900089175152745]], [[0.5912725400081662, -0.5912725400081638]], [[0.5910947683606357, -0.5910947683606332]], [[0.5921819467216638, -0.5921819467216614]], [[0.5919564112689286, -0.5919564112689262]], [[0.592917280197405, -0.5929172801974025]], [[0.5926567045901681, -0.5926567045901656]], [[0.5935278324018362, -0.5935278324018336]], [[0.5931881492073005, -0.5931881492072979]], [[0.5956938230512877, -0.5956938230512852]], [[0.5952147818393281, -0.5952147818393255]], [[0.5974257044198401, -0.5974257044198376]], [[0.5966801025503379, -0.5966801025503353]], [[0.5987159790866576, -0.5987159790866551]], [[0.5977674305240472, -0.5977674305240447]], [[0.5997130892558541, -0.5997130892558515]], [[0.5985896511557499, -0.5985896511557474]], [[0.6005107877850386, -0.6005107877850361]], [[0.5992182301314222, -0.5992182301314196]], [[0.6011713676601547, -0.6011713676601521]], [[0.5996996384215783, -0.5996996384215756]], [[0.6017386445857377, -0.601738644585735]], [[0.5996729457824779, -0.5996729457824752]], [[0.6043135593481276, -0.6043135593481249]], [[0.601399714400232, -0.6013997144002293]], [[0.605615212751011, -0.6056152127510084]], [[0.5729873637921024, -0.5729873637920997]], [[0.6081882339826568, -0.6081882339826541]], [[0.5552831984955653, -0.5552831984955625]], [[0.6161964567902951, -0.6161964567902923]], [[0.5392643519831661, -0.5392643519831635]], [[0.6296518364298984, -0.6296518364298958]], [[0.516809078494817, -0.5168090784948144]], [[0.7087685943219926, -0.7087685943219899]], [[0.4648019033976682, -0.46480190339766553]], [[0.6865277147270079, -0.6865277147270052]], [[0.6392724020023579, -0.6392724020023552]], [[0.6310839650462098, -0.6310839650462071]], [[0.6112585470150332, -0.6112585470150306]], [[0.6187043707887224, -0.6187043707887196]], [[0.5909999305807041, -0.5909999305807013]], [[0.610468275037094, -0.6104682750370912]], [[0.5765181746942676, -0.5765181746942647]], [[0.604396256214453, -0.6043962562144503]], [[0.565580199504266, -0.5655801995042632]], [[0.6010449770079185, -0.6010449770079157]], [[0.5575424257447544, -0.5575424257447517]], [[0.5981044165613612, -0.5981044165613585]], [[0.551183291564883, -0.5511832915648803]], [[0.5954351511760382, -0.5954351511760355]], [[0.5459163356732762, -0.5459163356732736]], [[0.592951306128882, -0.5929513061288794]], [[0.5414041612723187, -0.5414041612723159]], [[0.5908514502848452, -0.5908514502848424]], [[0.5364135451615148, -0.5364135451615121]], [[0.6045083382707024, -0.6045083382706996]], [[0.5375824045173263, -0.5375824045173235]], [[0.6023204616739122, -0.6023204616739094]], [[0.539798812440064, -0.5397988124400612]], [[0.5975532966899575, -0.5975532966899547]], [[0.5402495576764469, -0.5402495576764441]], [[0.5925338581012979, -0.5925338581012951]], [[0.5388904220794849, -0.5388904220794821]], [[0.588005019405746, -0.5880050194057432]], [[0.5362725170035775, -0.5362725170035747]], [[0.5841027383820298, -0.5841027383820271]], [[0.532987970917265, -0.5329879709172625]], [[0.5807517333864924, -0.5807517333864899]], [[0.529279073447194, -0.5292790734471915]], [[0.5906159802575857, -0.5906159802575831]], [[0.529618784810081, -0.5296187848100784]], [[0.588977832734904, -0.5889778327349015]], [[0.5307023265541595, -0.530702326554157]], [[0.5849704497197916, -0.5849704497197891]], [[0.5303691204119614, -0.5303691204119588]], [[0.5806217828280333, -0.5806217828280307]], [[0.5286347539526234, -0.5286347539526207]], [[0.5765866170700925, -0.5765866170700898]], [[0.5259361074021568, -0.5259361074021541]], [[0.5730156119717514, -0.5730156119717488]], [[0.5227290024156643, -0.5227290024156617]], [[0.5698787571718368, -0.5698787571718341]], [[0.519346751585904, -0.5193467515859014]], [[0.5670993616351615, -0.5670993616351587]], [[0.5147520478038015, -0.5147520478037987]], [[0.5786766221087165, -0.5786766221087136]], [[0.5160952361453008, -0.516095236145298]], [[0.5771896623582142, -0.5771896623582113]], [[0.517817815472813, -0.5178178154728101]], [[0.573265730217211, -0.5732657302172081]], [[0.5181145392249675, -0.5181145392249646]], [[0.5689174826829118, -0.5689174826829089]], [[0.5169303536838795, -0.5169303536838766]], [[0.5648512087002014, -0.5648512087001986]], [[0.5146550876861792, -0.5146550876861763]], [[0.5612513271475813, -0.5612513271475784]], [[0.5117489235488059, -0.5117489235488029]], [[0.5580996521119662, -0.5580996521119632]], [[0.5085723617897093, -0.5085723617897063]], [[0.5553213507545082, -0.5553213507545052]], [[0.5048630362116289, -0.5048630362116259]], [[0.5653373103082312, -0.5653373103082282]], [[0.5058127028643412, -0.5058127028643382]], [[0.564408942548917, -0.564408942548914]], [[0.5070447465486961, -0.507044746548693]], [[0.5610647647919202, -0.5610647647919171]], [[0.5071067139778518, -0.5071067139778487]], [[0.5571698037702968, -0.5571698037702937]], [[0.5059305041731273, -0.5059305041731242]], [[0.5534124180902438, -0.5534124180902406]], [[0.5038061708530971, -0.5038061708530939]], [[0.5500106026135545, -0.5500106026135513]], [[0.5011020096187375, -0.5011020096187343]], [[0.546985591031925, -0.5469855910319218]], [[0.49812389334185214, -0.498123893341849]], [[0.5442922820040809, -0.5442922820040776]], [[0.4950502855287484, -0.49505028552874525]], [[0.5420850653949428, -0.5420850653949396]], [[0.4917553113572228, -0.49175531135721956]], [[0.5526237948653023, -0.5526237948652992]], [[0.4930795191225659, -0.4930795191225628]], [[0.5521294137827893, -0.5521294137827863]], [[0.4944864777400759, -0.4944864777400729]], [[0.549109744367925, -0.549109744367922]], [[0.49487362995223594, -0.494873629952233]], [[0.5453843387169786, -0.5453843387169756]], [[0.4941051569393835, -0.49410515693938056]], [[0.5416886438148788, -0.5416886438148758]], [[0.4923738270950725, -0.49237382709506955]], [[0.5382966557441113, -0.5382966557441083]], [[0.48999359501994155, -0.4899935950199385]], [[0.5352648712577536, -0.5352648712577506]], [[0.48726029259873926, -0.48726029259873627]], [[0.532565122735522, -0.532565122735519]], [[0.4843911989731414, -0.4843911989731384]], [[0.5301813766571816, -0.5301813766571786]], [[0.48075686324186045, -0.4807568632418574]], [[0.5360579252342819, -0.5360579252342789]], [[0.4792875249080385, -0.47928752490803544]], [[0.5410627756954811, -0.5410627756954781]], [[0.4815681210440317, -0.4815681210440287]], [[0.53923899863646, -0.539238998636457]], [[0.4829316137821595, -0.48293161378215654]], [[0.5358156272456914, -0.5358156272456884]], [[0.48319826302703883, -0.4831982630270358]], [[0.5320083277920042, -0.5320083277920011]], [[0.4823485751898446, -0.4823485751898415]], [[0.5283581426570841, -0.528358142657081]], [[0.48059537731076046, -0.48059537731075735]], [[0.5250557193755403, -0.5250557193755372]], [[0.4782441370642015, -0.47824413706419844]], [[0.5221222657149983, -0.5221222657149952]], [[0.47554856496320014, -0.47554856496319703]], [[0.5196648404575284, -0.5196648404575253]], [[0.47265167213409603, -0.4726516721340929]], [[0.5242668412434763, -0.5242668412434732]], [[0.4820828113065145, -0.48208281130651137]], [[0.526102237771027, -0.5261022377710239]], [[0.48034936299706743, -0.4803493629970643]], [[0.5249231304960662, -0.5249231304960631]], [[0.4785100441153398, -0.47851004411533665]], [[0.5227478636015797, -0.5227478636015765]], [[0.47635431377626325, -0.47635431377626014]], [[0.5202510298412649, -0.5202510298412618]], [[0.47391754296411376, -0.47391754296411065]], [[0.5177213212386929, -0.5177213212386897]], [[0.47129371360981004, -0.47129371360980693]], [[0.5152845222746221, -0.515284522274619]], [[0.46857902342622976, -0.46857902342622665]], [[0.5129902220274406, -0.5129902220274375]], [[0.4658515892280381, -0.46585158922803505]], [[0.5108515929478609, -0.5108515929478578]], [[0.46310620666919444, -0.46310620666919133]], [[0.5090480078486259, -0.5090480078486228]], [[0.4600027242076079, -0.4600027242076048]], [[0.5149159719750024, -0.5149159719749993]], [[0.45911173875367794, -0.45911173875367484]], [[0.5201455125164971, -0.520145512516494]], [[0.46088407200397624, -0.46088407200397313]], [[0.5193669191942538, -0.5193669191942507]], [[0.4619196910293332, -0.46191969102933017]], [[0.5167216729222629, -0.5167216729222599]], [[0.46240218080271717, -0.46240218080271417]], [[0.513258101544421, -0.513258101544418]], [[0.46219357581141735, -0.4621935758114144]], [[0.5095942796710442, -0.5095942796710413]], [[0.46123551034690285, -0.46123551034689997]], [[0.5060845816466865, -0.5060845816466836]], [[0.45961157849289663, -0.45961157849289375]], [[0.5028837719781573, -0.5028837719781544]], [[0.4574992569695364, -0.45749925696953353]], [[0.5000224936640763, -0.5000224936640733]], [[0.4549604199156908, -0.4549604199156878]], [[0.5036372047134385, -0.5036372047134354]], [[0.46470959764047, -0.4647095976404669]], [[0.5029912054065804, -0.5029912054065773]], [[0.46123749825124294, -0.46123749825123983]], [[0.5035553652730326, -0.5035553652730295]], [[0.4596635243461503, -0.4596635243461472]], [[0.5021348781579397, -0.5021348781579366]], [[0.4577968899666272, -0.4577968899666241]], [[0.5000722738888685, -0.5000722738888654]], [[0.45565938950249346, -0.45565938950249035]], [[0.49779500672938215, -0.49779500672937893]], [[0.45331688164571715, -0.45331688164571393]], [[0.4955019584141393, -0.4955019584141361]], [[0.45084625066448997, -0.45084625066448675]], [[0.49328752935991166, -0.49328752935990844]], [[0.4483173504878923, -0.44831735048788907]], [[0.4911938394575514, -0.49119383945754824]], [[0.4457506622909363, -0.44575066229093313]], [[0.48938169857825103, -0.48938169857824787]], [[0.44324105740667546, -0.4432410574066723]], [[0.4941734174928218, -0.4941734174928186]], [[0.4436259046134816, -0.44362590461347845]], [[0.4976763253858068, -0.49767632538580364]], [[0.4444536978777736, -0.44445369787777045]], [[0.4974525403801018, -0.4974525403800986]], [[0.44456878873093425, -0.44456878873093114]], [[0.49563275014413394, -0.4956327501441309]], [[0.44428064845106746, -0.4442806484510644]], [[0.4930264421630599, -0.4930264421630568]], [[0.4436091199595809, -0.4436091199595778]], [[0.4900774449216141, -0.4900774449216109]], [[0.4425357514762468, -0.4425357514762436]], [[0.4870692763353609, -0.4870692763353576]], [[0.44107135919482376, -0.4410713591948205]], [[0.48417231445725833, -0.48417231445725506]], [[0.43927241176287646, -0.43927241176287324]], [[0.48147047905963286, -0.48147047905962964]], [[0.43717025172978147, -0.43717025172977825]], [[0.479189055154126, -0.4791890551541228]], [[0.4348927153154327, -0.4348927153154295]], [[0.4831075149725771, -0.4831075149725738]], [[0.44438506808762085, -0.4443850680876176]], [[0.4825708902599116, -0.48257089025990835]], [[0.44158312539872374, -0.44158312539872047]], [[0.48322830964175223, -0.483228309641749]], [[0.44044396828845606, -0.4404439682884528]], [[0.4819857262832751, -0.4819857262832718]], [[0.43889057427269673, -0.43889057427269346]], [[0.4800913025615167, -0.4800913025615135]], [[0.4370372169838598, -0.43703721698385656]], [[0.47794881665905053, -0.4779488166590473]], [[0.43496343594223463, -0.4349634359422314]], [[0.47575578158679155, -0.47575578158678833]], [[0.4327415284023987, -0.43274152840239555]], [[0.4736133588400025, -0.47361335883999933]], [[0.4304343967957418, -0.4304343967957386]], [[0.47157242925957576, -0.4715724292595726]], [[0.4280681017392587, -0.4280681017392555]], [[0.4697815819857089, -0.46978158198570574]], [[0.4257454735513186, -0.4257454735513154]], [[0.4682141198972118, -0.4682141198972086]], [[0.4319612770966926, -0.43196127709668936]], [[0.46979482809969636, -0.4697948280996931]], [[0.44037837653265477, -0.44037837653265155]], [[0.46917539086665994, -0.4691753908666567]], [[0.44671788912261695, -0.44671788912261373]], [[0.46910804884933927, -0.46910804884933605]], [[0.4526500383454921, -0.45265003834548884]], [[0.4674240551960826, -0.46742405519607927]], [[0.4567559131743422, -0.45675591317433895]], [[0.46624882131804646, -0.4662488213180432]], [[0.4594902082824774, -0.4594902082824741]], [[0.4655453913307451, -0.4655453913307418]], [[0.46129020354052336, -0.4612902035405201]], [[0.46516256106379406, -0.4651625610637908]], [[0.4624774362739811, -0.4624774362739778]], [[0.4649704163065702, -0.4649704163065669]], [[0.4632643429392728, -0.4632643429392695]], [[0.4648817296439406, -0.46488172964393726]], [[0.46378666652090667, -0.46378666652090333]], [[0.4648433614209749, -0.4648433614209716]], [[0.4641309535723642, -0.4641309535723609]], [[0.46482470675262566, -0.46482470675262233]], [[0.4643529945905585, -0.4643529945905552]], [[0.4648090082911956, -0.4648090082911923]], [[0.46448936276735653, -0.4644893627673532]], [[0.464783205140681, -0.46478320514067767]], [[0.4645859233061157, -0.46458592330611237]], [[0.46480723092500614, -0.4648072309250028]], [[0.46470564072407405, -0.46470564072407067]], [[0.4648545285155091, -0.46485452851550574]], [[0.4648112758305294, -0.464811275830526]], [[0.4649498390414393, -0.4649498390414359]], [[0.46495620292412254, -0.4649562029241191]], [[0.4650897770040844, -0.4650897770040809]], [[0.4651313469824045, -0.465131346982401]], [[0.4652626614472524, -0.46526266144724887]], [[0.46532919844722903, -0.4653291984472255]], [[0.4654595259685432, -0.4654595259685396]], [[0.4655436944079651, -0.4655436944079616]], [[0.4656735064689079, -0.46567350646890443]], [[0.46577000958119374, -0.4657700095811902]], [[0.46589935522225495, -0.46589935522225145]], [[0.4660043422540184, -0.4660043422540149]], [[0.46613306534949195, -0.4661330653494885]], [[0.46624372082916976, -0.4662437208291663]], [[0.4663715821505261, -0.46637158215052266]], [[0.46648583807683935, -0.4664858380768359]], [[0.4666125813323339, -0.4666125813323305]], [[0.46672891334948485, -0.4667289133494815]], [[0.46685429861203587, -0.46685429861203254]], [[0.46697158028230257, -0.46697158028229924]], [[0.4670953987996064, -0.4670953987996031]], [[0.46721279653166337, -0.4672127965316601]], [[0.4673348752401442, -0.4673348752401409]], [[0.46745177196758203, -0.4674517719675787]], [[0.467571972607988, -0.4675719726079847]], [[0.46768791199082743, -0.4676879119908242]], [[0.4678061276603293, -0.4678061276603261]], [[0.4679207730597714, -0.4679207730597682]], [[0.46803692379865036, -0.4680369237986472]], [[0.4681500279654269, -0.4681500279654237]], [[0.4682640562415225, -0.46826405624151934]], [[0.4683754388249539, -0.46837543882495075]], [[0.4684861000570456, -0.46848610005704244]], [[0.46932140682399465, -0.4693214068239915]], [[0.46950431789113767, -0.46950431789113456]], [[0.4704964164004633, -0.4704964164004602]], [[0.4705779993781961, -0.47057799937819295]], [[0.4713122760574178, -0.47131227605741466]], [[0.47132222666808016, -0.47132222666807694]], [[0.47186910443615937, -0.4718691044361561]], [[0.4718344589186246, -0.4718344589186213]], [[0.4722410440621641, -0.47224104406216083]], [[0.47216201789562584, -0.47216201789562257]], [[0.47248356652870277, -0.47248356652869955]], [[0.47241728861156124, -0.472417288611558]], [[0.4726927140522685, -0.47269271405226526]], [[0.4726521344796674, -0.4726521344796642]], [[0.47289464201179554, -0.4728946420117924]], [[0.472874466772005, -0.4728744667720019]], [[0.47309026886180316, -0.47309026886180006]], [[0.47308628428830235, -0.47308628428829924]], [[0.47328022402769054, -0.47328022402768744]], [[0.4732890869219757, -0.4732890869219726]], [[0.47346497180186614, -0.4734649718018631]], [[0.47348401926940475, -0.4734840192694017]], [[0.47364480756048916, -0.4736448075604861]], [[0.4736719033135995, -0.47367190331359643]], [[0.47382003812061746, -0.47382003812061446]], [[0.47385347037089176, -0.4738534703708888]], [[0.4739908704954305, -0.47399087049542754]], [[0.47402925665855344, -0.4740292566585505]], [[0.4741574601482319, -0.47415746014822896]], [[0.47419967779367184, -0.4741996777936689]], [[0.4743199271764522, -0.47431992717644933]], [[0.47436506109259624, -0.47436506109259335]], [[0.4744783655912159, -0.47447836559121304]], [[0.4745256554451602, -0.4745256554451573]], [[0.47463283792889405, -0.47463283792889116]], [[0.47466768704822376, -0.4746676870482209]], [[0.47548740951284085, -0.4754874095128379]], [[0.47559934706410756, -0.4755993470641046]], [[0.47653987791897817, -0.47653987791897523]], [[0.476533421097429, -0.4765334210974261]], [[0.47724905443845417, -0.4772490544384512]], [[0.47713547489749564, -0.4771354748974927]], [[0.47768814873730975, -0.4776881487373068]], [[0.47750611936187937, -0.4775061193618764]], [[0.4779160154848421, -0.4779160154848391]], [[0.47771296659052237, -0.4777129665905194]], [[0.4780666248635051, -0.4780666248635021]], [[0.47787763525149846, -0.47787763525149546]], [[0.47818972368862206, -0.47818972368861906]], [[0.4578119157731469, -0.4578119157731439]], [[0.4771530250279573, -0.4771530250279543]], [[0.44493896596389804, -0.44493896596389504]], [[0.4799148040290387, -0.4799148040290357]], [[0.4279368322727571, -0.4279368322727541]], [[0.5145409566766435, -0.5145409566766405]], [[0.3724669173842726, -0.3724669173842696]], [[0.5951835256632098, -0.5951835256632068]], [[0.37138835758223165, -0.3713883575822286]], [[0.5853202990687973, -0.5853202990687943]], [[0.5442869749781182, -0.5442869749781152]], [[0.5095118573024898, -0.5095118573024868]], [[0.4934955987625895, -0.49349559876258653]], [[0.5019225751176576, -0.5019225751176546]], [[0.47955144193602217, -0.4795514419360192]], [[0.49568586284515076, -0.49568586284514776]], [[0.46868362140624553, -0.4686836214062425]], [[0.49060697417419896, -0.4906069741741959]], [[0.4593053326029208, -0.45930533260291767]], [[0.4867163189825414, -0.48671631898253837]], [[0.45075472132484845, -0.4507547213248454]], [[0.4842206597210128, -0.4842206597210098]], [[0.44240765263459386, -0.44240765263459086]], [[0.4837440933676813, -0.4837440933676783]], [[0.43287444940538794, -0.43287444940538494]], [[0.4898365113734481, -0.4898365113734451]], [[0.4164415122215456, -0.4164415122215426]], [[0.5152460459393077, -0.5152460459393047]], [[0.35389026901904286, -0.35389026901903986]], [[0.5760423959929052, -0.5760423959929022]], [[0.4192630840713174, -0.41926308407131435]], [[0.5984582156391687, -0.5984582156391656]], [[0.3234193244504179, -0.3234193244504148]], [[0.5782473612968734, -0.5782473612968704]], [[0.5782213152218285, -0.5782213152218256]], [[0.5424521493851497, -0.5424521493851469]], [[0.5248519747860736, -0.5248519747860707]], [[0.5102425270653963, -0.5102425270653934]], [[0.49134450317153916, -0.49134450317153633]], [[0.49978525671292, -0.4997852567129172]], [[0.47910212893639276, -0.4791021289363899]], [[0.4915265379714221, -0.49152653797141926]], [[0.4692200354063031, -0.4692200354063002]], [[0.4838857163307226, -0.48388571633071964]], [[0.47493779191416374, -0.4749377919141608]], [[0.48081768527715285, -0.48081768527714996]], [[0.47733425147029984, -0.47733425147029696]], [[0.4797368215216674, -0.4797368215216645]], [[0.47840227544012315, -0.4784022754401202]], [[0.47942973548546386, -0.47942973548546086]], [[0.47894187879693445, -0.47894187879693145]], [[0.47941554840293815, -0.47941554840293515]], [[0.47926380141576697, -0.4792638014157639]], [[0.47950893832252206, -0.479508938322519]], [[0.4794909977665477, -0.4794909977665446]], [[0.4796388044845905, -0.47963880448458734]], [[0.4796735523074807, -0.4796735523074776]], [[0.47977803053764717, -0.47977803053764406]], [[0.4798326345499142, -0.4798326345499111]], [[0.47991651479440783, -0.47991651479440467]], [[0.47997759727713063, -0.47997759727712747]], [[0.48005067783334376, -0.48005067783334054]], [[0.48011288145425995, -0.4801128814542567]], [[0.4801797159550356, -0.48017971595503234]], [[0.48023884319640875, -0.48023884319640553]], [[0.48029999468753526, -0.4802999946875321]], [[0.48035700533615167, -0.4803570053361485]], [[0.48041423022211543, -0.48041423022211227]], [[0.4804683568917029, -0.48046835689169975]], [[0.4805234918908878, -0.48052349189088456]], [[0.48057548108269627, -0.4805754810826931]], [[0.48062761822764616, -0.480627618227643]], [[0.48067749197975923, -0.480677491979756]], [[0.4807274694018116, -0.4807274694018083]], [[0.48077543347882085, -0.48077543347881757]], [[0.4808229970888681, -0.48082299708886483]], [[0.4808690702998338, -0.4808690702998305]], [[0.4809141418483044, -0.4809141418483011]], [[0.4809587461814773, -0.48095874618147405]], [[0.4810017892242193, -0.48100178922421605]], [[0.48104425929426486, -0.4810442592942616]], [[0.4810854799171072, -0.48108547991710393]], [[0.4811255478876736, -0.48112554788767026]], [[0.48116553682352065, -0.48116553682351737]], [[0.4812037113524683, -0.48120371135246504]], [[0.48124158993335775, -0.48124158993335453]], [[0.48127809927232745, -0.4812780992723243]], [[0.48131358328429036, -0.4813135832842872]], [[0.48134905407949957, -0.4813490540794964]], [[0.4813826958274089, -0.4813826958274057]], [[0.48141613195245153, -0.4814161319524483]], [[0.4814481949642276, -0.48144819496422436]], [[0.4814793182175528, -0.48147931821754963]], [[0.4815104154075129, -0.4815104154075097]], [[0.4815397515693018, -0.4815397515692986]], [[0.481568904431854, -0.48156890443185085]], [[0.4815967227380618, -0.48159672273805865]], [[0.4816237023829253, -0.4816237023829221]], [[0.48165053004639374, -0.4816505300463906]], [[0.481675781192454, -0.4816757811924509]], [[0.48170077960312735, -0.48170077960312424]], [[0.4817245477259875, -0.48172454772598433]], [[0.4817475764124749, -0.48174757641247173]], [[0.4817702307256653, -0.4817702307256621]], [[0.4817916025348971, -0.4817916025348939]], [[0.4818125639772692, -0.48181256397726596]], [[0.4818324662299782, -0.48183246622997505]], [[0.48185172248154035, -0.4818517224815372]], [[0.48186080017066063, -0.4818608001706574]], [[0.4624046172065114, -0.46240461720650816]], [[0.47741021484290824, -0.477410214842905]], [[0.4532655479397788, -0.4532655479397756]], [[0.4733752637209622, -0.473375263720959]], [[0.4464288279425291, -0.44642882794252586]], [[0.4711293304286408, -0.4711293304286375]], [[0.44089311501273526, -0.440893115012732]], [[0.47387825614793655, -0.4738782561479333]], [[0.4374116415831929, -0.4374116415831896]], [[0.47706054445414264, -0.47706054445413937]], [[0.4359285070633753, -0.435928507063372]], [[0.476710953766063, -0.47671095376605965]], [[0.43351950182293847, -0.4335195018229352]], [[0.4758471962839595, -0.4758471962839563]], [[0.43067605508947693, -0.4306760550894737]], [[0.4752105962172919, -0.47521059621728867]], [[0.4274671156328323, -0.4274671156328291]], [[0.4752350513264026, -0.47523505132639937]], [[0.42375222537929735, -0.4237522253792942]], [[0.48590075729557075, -0.4859007572955676]], [[0.42028994650465934, -0.4202899465046562]], [[0.5000053714968531, -0.50000537149685]], [[0.4111740605111985, -0.41117406051119537]], [[0.5207917195036298, -0.5207917195036267]], [[0.3721592742262495, -0.3721592742262464]], [[0.5797716849023724, -0.5797716849023693]], [[0.38957705705600887, -0.38957705705600565]], [[0.577716922660399, -0.5777169226603956]], [[0.3592812983199725, -0.3592812983199692]], [[0.6049652966904308, -0.6049652966904275]], [[0.4682613635605139, -0.46826136356051073]], [[0.5940544367711653, -0.5940544367711622]], [[0.39330801456446934, -0.39330801456446624]], [[0.5996511711892109, -0.5996511711892079]], [[0.5262847087773805, -0.5262847087773775]], [[0.5345926719591969, -0.5345926719591939]], [[0.5166040242163664, -0.5166040242163634]], [[0.5025129916069222, -0.5025129916069192]], [[0.5052478812846375, -0.5052478812846345]], [[0.4891132316932801, -0.4891132316932771]], [[0.49626170789676916, -0.49626170789676616]], [[0.4781074528043062, -0.4781074528043032]], [[0.48851252346751695, -0.48851252346751395]], [[0.4689354249401547, -0.4689354249401517]], [[0.48043675425101307, -0.48043675425101007]], [[0.4747406884258121, -0.4747406884258091]], [[0.4780970447738865, -0.47809704477388343]], [[0.4765408219716329, -0.47654082197162984]], [[0.4775734970177966, -0.47757349701779356]], [[0.47716446075275404, -0.477164460752751]], [[0.4774992240297273, -0.4774992240297242]], [[0.47738594355386066, -0.4773859435538576]], [[0.47751239678466123, -0.4775123967846582]], [[0.4774979657718451, -0.47749796577184206]], [[0.47755329866910223, -0.4775532986690992]], [[0.47756313106962867, -0.4775631310696256]], [[0.47759240022449223, -0.47759240022448923]], [[0.4776056973856662, -0.4776056973856633]], [[0.4776235372398265, -0.47762353723982354]], [[0.4776349446488781, -0.4776349446488751]], [[0.4776466014375436, -0.4776466014375406]], [[0.4776551139159741, -0.4776551139159711]], [[0.47766275205329184, -0.4776627520532889]], [[0.47766849549018214, -0.4776684954901792]], [[0.4776731644430849, -0.47767316444308194]], [[0.4776764801744947, -0.47767648017449177]], [[0.47767876709516605, -0.4776787670951631]], [[0.4776799721540443, -0.47767997215404134]], [[0.4776802399145732, -0.47768023991457026]], [[0.47767958046050196, -0.477679580460499]], [[0.4776780673824798, -0.47767806738247687]], [[0.4776757238689506, -0.4776757238689476]], [[0.47767259225817565, -0.47767259225817266]], [[0.4776686951853427, -0.4776686951853397]], [[0.4776640584343518, -0.4776640584343488]], [[0.4776587009139116, -0.47765870091390866]], [[0.47765264046489203, -0.4776526404648891]], [[0.4776458914593906, -0.47764589145938763]], [[0.4776384662669573, -0.4776384662669543]], [[0.4776303767238437, -0.4776303767238407]], [[0.47762163226679233, -0.47762163226678933]], [[0.4776122413168165, -0.4776122413168135]], [[0.47760221261332453, -0.47760221261332153]], [[0.4775915517287479, -0.4775915517287449]], [[0.4775802672453743, -0.4775802672453713]], [[0.4775683625878307, -0.4775683625878277]], [[0.4775558458644556, -0.4775558458644526]], [[0.4775427208132456, -0.47754272081324256]], [[0.4775289929430259, -0.47752899294302287]], [[0.47751466730079645, -0.47751466730079345]], [[0.4774658785419156, -0.4774658785419125]], [[0.4594541424246329, -0.4594541424246299]], [[0.47138547388648644, -0.4713854738864835]], [[0.45114758554240875, -0.4511475855424058]], [[0.46595666046070033, -0.46595666046069734]], [[0.4567234750915411, -0.45672347509153816]], [[0.4633846393640195, -0.4633846393640166]], [[0.459390751144353, -0.4593907511443501]], [[0.4623589427860232, -0.46235894278602024]], [[0.4606569902980658, -0.46065699029806284]], [[0.46199493876406056, -0.4619949387640576]], [[0.4612738117114735, -0.4612738117114706]], [[0.46188624458780675, -0.4618862445878038]], [[0.4615811850305602, -0.4615811850305573]], [[0.4618645831420658, -0.46186458314206286]], [[0.4617339168947154, -0.4617339168947124]], [[0.46186424540488746, -0.4618642454048845]], [[0.4618049686871123, -0.46180496868710935]], [[0.4618617668146485, -0.4618617668146456]], [[0.4618300936178625, -0.4618300936178596]], [[0.46185010523388076, -0.4618501052338779]], [[0.46182768010107045, -0.46182768010106756]], [[0.46182833349714386, -0.461828333497141]], [[0.46180812222878664, -0.4618081222287837]], [[0.4617977283751847, -0.4617977283751818]], [[0.4617769478049333, -0.4617769478049304]], [[0.4617598146245692, -0.46175981462456633]], [[0.4617375121182464, -0.4617375121182435]], [[0.4617162242702254, -0.4617162242702225]], [[0.4616920370857899, -0.461692037085787]], [[0.46166788039967616, -0.46166788039967327]], [[0.46164182117598745, -0.4616418211759845]], [[0.4616156707209005, -0.4616156707208975]], [[0.46158816733751246, -0.46158816733750946]], [[0.4615600874188299, -0.4615600874188269]], [[0.4615312503479932, -0.4615312503479902]], [[0.461501878479179, -0.461501878479176]], [[0.4614716105140886, -0.46147161051408553]], [[0.46144113879203214, -0.4614411387920291]], [[0.4614096204785813, -0.4614096204785783]], [[0.4613780768315591, -0.4613780768315562]], [[0.4613455854333902, -0.46134558543338733]], [[0.4613127241518818, -0.4613127241518789]], [[0.4612794651904056, -0.4612794651904027]], [[0.46124565835371656, -0.4612456583537137]], [[0.46121133368178047, -0.4612113336817776]], [[0.46117667618761965, -0.4611766761876168]], [[0.46114149255107945, -0.4611414925510766]], [[0.4611056819565028, -0.4611056819565]], [[0.46106978518943664, -0.46106978518943376]], [[0.4610331319543667, -0.46103313195436374]], [[0.46099628487448163, -0.4609962848744787]], [[0.4609588958388813, -0.46095889583887834]], [[0.46092118902526447, -0.4609211890252616]], [[0.460882776716257, -0.4608827767162541]], [[0.46084440327917253, -0.46084440327916965]], [[0.46077830401594844, -0.46077830401594555]], [[0.44328830892221405, -0.44328830892221116]], [[0.4562647803424072, -0.4562647803424043]], [[0.4350784067301245, -0.43507840673012155]], [[0.4521218639245053, -0.4521218639245023]], [[0.42869688685709706, -0.42869688685709406]], [[0.4520069140997358, -0.4520069140997328]], [[0.4250578306528543, -0.42505783065285124]], [[0.45271993889609763, -0.4527199388960945]], [[0.4233918933754924, -0.42339189337548927]], [[0.45094411714130134, -0.45094411714129823]], [[0.421196103582459, -0.4211961035824559]], [[0.44869122987271487, -0.44869122987271176]], [[0.4186467042014983, -0.4186467042014952]], [[0.44640698232780335, -0.44640698232780024]], [[0.4158992846022514, -0.41589928460224823]], [[0.4442700870049165, -0.44427008700491327]], [[0.4119780253507448, -0.4119780253507416]], [[0.44850457369011393, -0.4485045736901107]], [[0.41110982992673817, -0.41110982992673495]], [[0.45100969274502833, -0.4510096927450251]], [[0.4107555824159492, -0.410755582415946]], [[0.45055732135493903, -0.45055732135493587]], [[0.40944154177191333, -0.40944154177191017]], [[0.44936251997928356, -0.44936251997928045]], [[0.40768220726500887, -0.4076822072650057]], [[0.44793402647007957, -0.4479340264700764]], [[0.4056210585736341, -0.40562105857363095]], [[0.446667207853117, -0.44666720785311387]], [[0.403368106052862, -0.4033681060528589]], [[0.445741625562459, -0.44574162556245583]], [[0.40076276754804807, -0.4007627675480449]], [[0.4531157377057738, -0.4531157377057706]], [[0.3995746692723674, -0.39957466927236424]], [[0.4612699284924251, -0.4612699284924219]], [[0.39549464325011324, -0.3954946432501101]], [[0.47044049860955756, -0.4704404986095544]], [[0.3827459019228392, -0.3827459019228361]], [[0.49458714514087276, -0.49458714514086966]], [[0.33504594194813364, -0.33504594194813053]], [[0.5545054916195293, -0.5545054916195262]], [[0.38188198327056466, -0.38188198327056155]], [[0.5622581783776522, -0.562258178377649]], [[0.30493570891293925, -0.3049357089129361]], [[0.5641433834409617, -0.5641433834409586]], [[0.5203997746303366, -0.5203997746303335]], [[0.5043638597811891, -0.504363859781186]], [[0.48624671349896254, -0.4862467134989594]], [[0.4724472797997397, -0.47244727979973655]], [[0.45777290394542686, -0.4577729039454237]], [[0.4617767673764055, -0.46177676737640233]], [[0.4454671465600089, -0.44546714656000574]], [[0.45325224845365447, -0.4532522484536513]], [[0.4354654763800788, -0.43546547638007566]], [[0.44584683548857423, -0.44584683548857107]], [[0.4401089134906184, -0.44010891349061526]], [[0.4433063672908426, -0.4433063672908394]], [[0.44146949338250385, -0.44146949338250063]], [[0.4424616964537887, -0.44246169645378547]], [[0.44187748583643965, -0.44187748583643643]], [[0.4421839907916212, -0.442183990791618]], [[0.4419917356955475, -0.4419917356955443]], [[0.44208345219338485, -0.4420834521933817]], [[0.44201490661894877, -0.4420149066189456]], [[0.44203786116307603, -0.44203786116307286]], [[0.44200830717498485, -0.4420083071749817]], [[0.44200833486841146, -0.4420083348684083]], [[0.4419906160838022, -0.441990616083799]], [[0.4419822810197467, -0.4419822810197436]], [[0.44196756565044165, -0.44196756565043854]], [[0.44195555775358836, -0.44195555775358525]], [[0.44194093883330116, -0.44194093883329805]], [[0.4419267951752362, -0.4419267951752331]], [[0.4419113112705779, -0.4419113112705748]], [[0.44189555104257566, -0.44189555104257255]], [[0.4418788890667242, -0.44187888906672107]], [[0.4418616989471024, -0.4418616989470993]], [[0.4418437646691451, -0.44184376466914194]], [[0.4418252211329719, -0.4418252211329688]], [[0.44180599485217076, -0.4418059948521676]], [[0.4417861370806819, -0.4417861370806787]], [[0.44176562449202983, -0.44176562449202667]], [[0.4417444786095934, -0.44174447860959026]], [[0.44172269392091157, -0.4417226939209084]], [[0.44170028121140853, -0.44170028121140537]], [[0.4416772413186903, -0.44167724131868713]], [[0.4416535810859376, -0.44165358108593444]], [[0.44162930362952774, -0.44162930362952457]], [[0.441604414285315, -0.4416044142853118]], [[0.4415789169742477, -0.44157891697424456]], [[0.44155281643748806, -0.4415528164374849]], [[0.44152611686551496, -0.4415261168655118]], [[0.4414988227481837, -0.44149882274818053]], [[0.4414709383522089, -0.44147093835220574]], [[0.4413804742240271, -0.44138047422402393]], [[0.42449000978897244, -0.4244900097889693]], [[0.43537648112095245, -0.43537648112094923]], [[0.4166176670155669, -0.41661766701556363]], [[0.43005553839997057, -0.4300555383999673]], [[0.41022779989492086, -0.4102277998949176]], [[0.4247917750176332, -0.42479177501762994]], [[0.41581553427962226, -0.415815534279619]], [[0.42226681953804485, -0.42226681953804157]], [[0.41847051402934776, -0.41847051402934443]], [[0.42128356612072004, -0.42128356612071666]], [[0.4197113918727444, -0.4197113918727411]], [[0.4209499209483053, -0.42094992094830197]], [[0.4203045593545357, -0.42030455935453237]], [[0.4208567115104453, -0.42085671151044196]], [[0.4205916913367068, -0.4205916913367035]], [[0.42083833282999356, -0.4208383328299902]], [[0.42072599178673786, -0.42072599178673453]], [[0.4208324771214602, -0.4208324771214569]], [[0.420778734271506, -0.42077873427150264]], [[0.4208182595128497, -0.4208182595128463]], [[0.4207847972507646, -0.4207847972507612]], [[0.4207906209474751, -0.42079062094747166]], [[0.42076229440440976, -0.4207622944044063]], [[0.4207500498130646, -0.4207500498130612]], [[0.42072124309014547, -0.42072124309014214]], [[0.4206985968035863, -0.42069859680358296]], [[0.4206675237504765, -0.42066752375047317]], [[0.42063842834909515, -0.4206384283490918]], [[0.4206047694526397, -0.42060476945263636]], [[0.4205713774816488, -0.42057137748164547]], [[0.4205353170107671, -0.42053531701076374]], [[0.42049886710876677, -0.42049886710876344]], [[0.4204607151135208, -0.42046071511351746]], [[0.42042195721865533, -0.42042195721865205]], [[0.42038201263950226, -0.420382012639499]], [[0.4203414210578779, -0.42034142105787464]], [[0.42029993140407845, -0.4202999314040752]], [[0.4202578170208515, -0.42025781702084825]], [[0.42021497446203687, -0.4202149744620336]], [[0.4201715470073912, -0.4201715470073879]], [[0.42012749636118474, -0.4201274963611815]], [[0.42008290075810883, -0.42008290075810567]], [[0.42003774984053055, -0.4200377498405274]], [[0.4199920883971869, -0.4199920883971837]], [[0.41994591738983333, -0.41994591738983017]], [[0.4198992638564504, -0.4198992638564472]], [[0.41985213281137124, -0.4198521328113681]], [[0.419804541538276, -0.41980454153827285]], [[0.4197564960536603, -0.41975649605365717]], [[0.4197080080811714, -0.4197080080811683]], [[0.41965908346044084, -0.41965908346043773]], [[0.41960973062696055, -0.4196097306269575]], [[0.41955995487011166, -0.41955995487010855]], [[0.4195097626104551, -0.419509762610452]], [[0.4194591585405558, -0.4194591585405527]], [[0.4194081478044661, -0.41940814780446295]], [[0.4193567345679242, -0.4193567345679211]], [[0.4193045434930518, -0.41930454349304874]], [[0.4192529049505298, -0.41925290495052675]], [[0.4191999298353847, -0.4191999298353816]], [[0.41914723728450726, -0.4191472372845042]], [[0.4190934937898237, -0.4190934937898207]], [[0.4190400594318316, -0.4190400594318286]], [[0.4189857120427935, -0.4189857120427905]], [[0.4189313792978884, -0.4189313792978854]], [[0.4188763899517306, -0.4188763899517276]], [[0.41882115868711867, -0.4188211586871157]], [[0.41876560818946273, -0.4187656081894598]], [[0.4187096025279762, -0.41870960252797323]], [[0.4186532998655702, -0.41865329986556726]], [[0.41859658987634657, -0.4185965898763436]], [[0.41853945790280134, -0.41853945790279845]], [[0.4184821952525474, -0.4184821952525445]], [[0.4184243482301197, -0.4184243482301168]], [[0.418366363593788, -0.41836636359378515]], [[0.41830668640821234, -0.4183066864082095]], [[0.4182479480221446, -0.41824794802214177]], [[0.41818857251311364, -0.4181885725131108]], [[0.41811282944035555, -0.4181128294403527]], [[0.4017616985257952, -0.40176169852579235]], [[0.4139284574320869, -0.41392845743208406]], [[0.39390424155344683, -0.393904241553444]], [[0.4100862224156591, -0.4100862224156563]], [[0.3879143109076743, -0.3879143109076715]], [[0.40791085101301755, -0.4079108510130147]], [[0.38268585939613387, -0.3826858593961311]], [[0.41167372658789647, -0.41167372658789364]], [[0.38175751720947193, -0.3817575172094691]], [[0.41147470161292393, -0.4114747016129211]], [[0.3797039040985159, -0.37970390409851307]], [[0.4103947998218273, -0.4103947998218245]], [[0.37716417515547396, -0.3771641751554712]], [[0.40928312457890254, -0.4092831245788997]], [[0.37429178629710713, -0.37429178629710436]], [[0.4085266510734572, -0.4085266510734544]], [[0.3710645979380396, -0.37106459793803676]], [[0.40854163683490846, -0.40854163683490563]], [[0.367219824501999, -0.3672198245019962]], [[0.4101070432693341, -0.41010704326933134]], [[0.36090549724737275, -0.36090549724737]], [[0.43177302715758736, -0.4317730271575846]], [[0.35213856004655114, -0.35213856004654837]], [[0.46367480404939665, -0.4636748040493939]], [[0.2811212029754998, -0.281121202975497]], [[0.5067263854861243, -0.5067263854861214]], [[0.3926485335137504, -0.39264853351374757]], [[0.5267351060319638, -0.5267351060319609]], [[0.2721997277838503, -0.2721997277838474]], [[0.5278818845293844, -0.5278818845293815]], [[0.5275625695254068, -0.5275625695254038]], [[0.5967470165412595, -0.5967470165412565]], [[0.5996341137652381, -0.5996341137652351]], [[0.6281374631294575, -0.6281374631294545]], [[0.6484084549236317, -0.6484084549236288]], [[0.6701316023258689, -0.6701316023258659]], [[0.690846989975364, -0.690846989975361]], [[0.7111486893321476, -0.7111486893321446]], [[0.7309008989449054, -0.7309008989449024]], [[0.7501511453195748, -0.7501511453195718]], [[0.7689050488233633, -0.7689050488233603]], [[0.7871808906365476, -0.7871808906365446]], [[0.8049946990478677, -0.8049946990478647]], [[0.822363451785728, -0.822363451785725]], [[0.8393037871651347, -0.8393037871651317]], [[0.8558320691383408, -0.8558320691383378]], [[0.8720034033949104, -0.8720034033949075]], [[0.8879695569081494, -0.8879695569081464]], [[0.901015576446739, -0.9010155764467361]], [[0.9148703221192822, -0.9148703221192793]], [[0.928517140323833, -0.9285171403238301]], [[0.9421779843930648, -0.9421779843930619]], [[0.955656308010019, -0.9556563080100161]], [[0.9689624492892722, -0.9689624492892692]], [[0.9822042723763394, -0.9822042723763365]], [[0.9943240546745599, -0.9943240546745569]], [[1.0052277980701143, -1.0052277980701112]], [[1.0167971643315281, -1.016797164331525]], [[1.0282789096147251, -1.028278909614722]], [[1.0397889048713413, -1.0397889048713382]], [[1.05154785224398, -1.051547852243977]], [[1.060739110569403, -1.0607391105694]], [[1.0709479984815848, -1.0709479984815817]], [[1.081082848799586, -1.081082848799583]], [[1.0914201160812536, -1.0914201160812504]], [[1.1022715827949283, -1.1022715827949252]], [[1.1101432969740936, -1.1101432969740905]], [[1.1195639102315564, -1.1195639102315533]], [[1.1287137236938127, -1.1287137236938096]], [[1.1383725611028033, -1.1383725611028002]], [[1.1463359648038296, -1.1463359648038265]], [[1.1547485951331273, -1.1547485951331242]], [[1.1632823392523797, -1.1632823392523768]], [[1.1723751069329211, -1.1723751069329182]], [[1.179010105546357, -1.1790101055463542]], [[1.1871905994332987, -1.1871905994332959]], [[1.1951110196523074, -1.1951110196523045]], [[1.204083025990689, -1.204083025990686]], [[1.2103251480855732, -1.2103251480855706]], [[1.2180562701416775, -1.2180562701416748]], [[1.2256638714841972, -1.2256638714841945]], [[1.2319643292864513, -1.2319643292864486]], [[1.2390121286631268, -1.2390121286631242]], [[1.246280323605482, -1.2462803236054794]], [[1.2536297637031575, -1.2536297637031548]], [[1.2597533091767141, -1.2597533091767115]], [[1.2667431359365606, -1.266743135936558]], [[1.2741667999499302, -1.2741667999499275]], [[1.2796817717573803, -1.2796817717573776]], [[1.2863364287769121, -1.2863364287769095]], [[1.2932105574114088, -1.2932105574114061]], [[1.2985155370713726, -1.29851553707137]], [[1.3049105010869453, -1.3049105010869428]], [[1.3116159995385162, -1.3116159995385137]], [[1.3166857403446446, -1.3166857403446421]], [[1.322894771809731, -1.3228947718097284]], [[1.3291859950957239, -1.3291859950957212]], [[1.334232210617093, -1.3342322106170903]], [[1.339993453080197, -1.3399934530801942]], [[1.3457505215615368, -1.3457505215615342]], [[1.3512978794482127, -1.35129787944821]], [[1.3567541347002305, -1.3567541347002279]], [[1.361725311826306, -1.3617253118263033]], [[1.3669371501101637, -1.366937150110161]], [[1.3722505822331625, -1.3722505822331599]], [[1.3773626873396374, -1.3773626873396347]], [[1.3825965474834487, -1.382596547483446]], [[1.3869707076428803, -1.3869707076428777]], [[1.392024245705749, -1.3920242457057463]], [[1.3970398292880133, -1.3970398292880106]], [[1.401411537660737, -1.4014115376607343]], [[1.4065435264587967, -1.406543526458794]], [[1.4105184151614751, -1.4105184151614725]], [[1.4152573833926416, -1.415257383392639]], [[1.4199970770003196, -1.419997077000317]], [[1.4240712014893422, -1.4240712014893395]], [[1.4288282225346927, -1.42882822253469]], [[1.4327772379559547, -1.4327772379559522]], [[1.4373685609099895, -1.437368560909987]], [[1.4409034751719356, -1.4409034751719332]], [[1.445401725448356, -1.4454017254483535]], [[1.4496260603583764, -1.449626060358374]], [[1.453648870381171, -1.4536488703811685]], [[1.4576762434142256, -1.4576762434142232]], [[1.4613839282655905, -1.461383928265588]], [[1.465304272998365, -1.4653042729983625]], [[1.4689608661731879, -1.4689608661731854]], [[1.472792443867853, -1.4727924438678506]], [[1.4762867167410891, -1.4762867167410867]], [[1.4801095380194143, -1.4801095380194118]], [[1.4833797922914123, -1.4833797922914098]], [[1.4872858463508318, -1.4872858463508294]], [[1.4903171008727227, -1.4903171008727203]], [[1.4943736682210298, -1.4943736682210274]], [[1.497195695264812, -1.4971956952648093]], [[1.5014386172153549, -1.5014386172153522]], [[1.5039844367143045, -1.503984436714302]], [[1.5084900207568084, -1.508490020756806]], [[1.510532040574958, -1.5105320405749556]], [[1.5155045212188953, -1.515504521218893]], [[1.5168945942821386, -1.5168945942821361]], [[1.5225650687210566, -1.5225650687210543]], [[1.5227307208042349, -1.5227307208042327]], [[1.5296276620290858, -1.5296276620290836]], [[1.528376053298767, -1.5283760532987647]], [[1.5369918584185172, -1.536991858418515]], [[1.5335553157529893, -1.533555315752987]], [[1.5447031374553117, -1.5447031374553095]], [[1.5379275313282577, -1.5379275313282554]], [[1.5532837780658655, -1.5532837780658633]], [[1.5411396401884876, -1.5411396401884854]], [[1.5632056201462916, -1.5632056201462894]], [[1.5422963866866468, -1.5422963866866446]], [[1.5751889497067133, -1.575188949706711]], [[1.540434115557448, -1.5404341155574457]], [[1.5897102700048469, -1.5897102700048447]], [[1.5344267244121197, -1.5344267244121175]], [[1.6057094406399781, -1.605709440639976]], [[1.5219579369894252, -1.521957936989423]], [[1.7045734796598122, -1.70457347965981]], [[1.467688431330428, -1.4676884313304257]], [[1.509337340001176, -1.5093373400011738]], [[1.4511225311696598, -1.4511225311696576]], [[1.497578558521423, -1.4975785585214207]], [[1.4142283332520438, -1.4142283332520416]], [[1.4994964788301104, -1.4994964788301082]], [[1.3846234631765926, -1.3846234631765904]], [[1.4881204160004728, -1.4881204160004706]], [[1.3693058814494254, -1.3693058814494232]], [[1.47026554738399, -1.4702655473839878]], [[1.3621722316638627, -1.3621722316638603]], [[1.4510912444492345, -1.451091244449232]], [[1.3536742237945627, -1.3536742237945605]], [[1.4291631464137267, -1.4291631464137244]], [[1.347827155873047, -1.3478271558730448]], [[1.4126685451389907, -1.4126685451389887]], [[1.343545122758015, -1.343545122758013]], [[1.400866629449737, -1.400866629449735]], [[1.3406783511965412, -1.3406783511965392]], [[1.3928803646945322, -1.3928803646945302]], [[1.3391540464929463, -1.3391540464929443]], [[1.3878033542369366, -1.3878033542369346]], [[1.3386097464846598, -1.3386097464846578]], [[1.3850745516081846, -1.3850745516081826]], [[1.339153384320391, -1.339153384320389]], [[1.3843198114258295, -1.3843198114258275]], [[1.3397989626885705, -1.3397989626885685]], [[1.385431876219202, -1.3854318762192]], [[1.3417293439805118, -1.3417293439805098]], [[1.3875629377758885, -1.3875629377758865]], [[1.344276688721737, -1.344276688721735]], [[1.390568782972867, -1.390568782972865]], [[1.347590838732596, -1.347590838732594]], [[1.3942142326560887, -1.3942142326560867]], [[1.3513020546061454, -1.3513020546061434]], [[1.3984506374440375, -1.3984506374440355]], [[1.355453182186309, -1.3554531821863072]], [[1.4029904078693223, -1.4029904078693205]], [[1.3600940525424332, -1.3600940525424314]], [[1.4079726022413597, -1.407972602241358]], [[1.3650166562790278, -1.365016656279026]], [[1.413174490675671, -1.413174490675669]], [[1.3703645825125763, -1.3703645825125743]], [[1.4187510506478704, -1.4187510506478684]], [[1.37555835331912, -1.3755583533191178]], [[1.4246797262239645, -1.4246797262239623]], [[1.3809312099606903, -1.380931209960688]], [[1.430643158310523, -1.4306431583105208]], [[1.3864253463230833, -1.3864253463230811]], [[1.4365002030968037, -1.4365002030968015]], [[1.3920905460415463, -1.392090546041544]], [[1.442203147587953, -1.4422031475879509]], [[1.3978298112155316, -1.3978298112155294]], [[1.4481092203473749, -1.4481092203473727]], [[1.4039002239495348, -1.4039002239495326]], [[1.4684459867941606, -1.4684459867941584]], [[1.412208196691435, -1.4122081966914328]], [[1.4804914820554966, -1.4804914820554942]], [[1.4215954034791602, -1.4215954034791578]], [[1.4890532626148243, -1.4890532626148218]], [[1.4311735850504128, -1.4311735850504104]], [[1.4971654588890784, -1.497165458889076]], [[1.440531490103419, -1.4405314901034165]], [[1.5052100528946968, -1.5052100528946943]], [[1.4501263268064, -1.4501263268063975]], [[1.513377760137069, -1.5133777601370666]], [[1.4597396098190663, -1.4597396098190638]], [[1.5211724336195875, -1.521172433619585]], [[1.469124114399079, -1.4691241143990765]], [[1.5293291923368113, -1.5293291923368089]], [[1.478184610416437, -1.4781846104164342]], [[1.537565863110889, -1.5375658631108864]], [[1.4874069019295229, -1.4874069019295202]], [[1.5455081555824604, -1.5455081555824577]], [[1.496034688216568, -1.4960346882165654]], [[1.553458338816415, -1.5534583388164123]], [[1.5047093032865257, -1.504709303286523]], [[1.5612252681441445, -1.5612252681441419]], [[1.513006181798235, -1.5130061817982323]], [[1.5691611991084449, -1.5691611991084422]], [[1.5212719555725214, -1.5212719555725187]], [[1.5770078687276845, -1.5770078687276818]], [[1.529315801212099, -1.5293158012120964]], [[1.5844966786098473, -1.5844966786098447]], [[1.5370548660496919, -1.5370548660496892]], [[1.591723559668297, -1.5917235596682944]], [[1.5448102140451672, -1.5448102140451645]], [[1.598923574056406, -1.5989235740564032]], [[1.5524030329607457, -1.5524030329607428]], [[1.6060292625513761, -1.606029262551373]], [[1.5596835710505035, -1.5596835710505004]], [[1.6129495532613178, -1.6129495532613147]], [[1.5668467823991066, -1.5668467823991035]], [[1.60981621131914, -1.609816211319137]], [[1.573113077205791, -1.573113077205788]], [[1.6099139248084522, -1.609913924808449]], [[1.578848639458917, -1.5788486394589138]], [[1.6116855149520228, -1.6116855149520197]], [[1.5839852835752712, -1.5839852835752681]], [[1.6144207537671498, -1.6144207537671467]], [[1.5888179465621792, -1.5888179465621761]], [[1.617801179674491, -1.617801179674488]], [[1.593323950738821, -1.593323950738818]], [[1.621660824042285, -1.6216608240422818]], [[1.597501121117354, -1.5975011211173509]], [[1.6259094663683327, -1.6259094663683293]], [[1.6013983542246517, -1.6013983542246484]], [[1.6304869846851267, -1.6304869846851233]], [[1.6049579376368934, -1.60495793763689]], [[1.6353523631454998, -1.6353523631454965]], [[1.6081188320906827, -1.6081188320906794]], [[1.6404077788343776, -1.6404077788343743]], [[1.6109735695434964, -1.610973569543493]], [[1.645680723860566, -1.6456807238605624]], [[1.6135165463741072, -1.6135165463741037]], [[1.6511231532168078, -1.6511231532168043]], [[1.6155575151931285, -1.615557515193125]], [[1.6564702923443886, -1.656470292344385]], [[1.6170571860370362, -1.6170571860370326]], [[1.6616112223002197, -1.6616112223002162]], [[1.6184938154680373, -1.6184938154680337]], [[1.675804910572537, -1.6758049105725334]], [[1.621224232106327, -1.6212242321063235]], [[1.6848508631872783, -1.6848508631872747]], [[1.6252822765261057, -1.6252822765261021]], [[1.690311409181468, -1.6903114091814642]], [[1.6299190169092972, -1.6299190169092934]], [[1.6941134450124906, -1.6941134450124868]], [[1.6349072662178985, -1.6349072662178947]], [[1.6978008774426672, -1.6978008774426634]], [[1.6400635337991523, -1.6400635337991485]], [[1.7013972463736438, -1.70139724637364]], [[1.6451698365869087, -1.645169836586905]], [[1.7047903050210196, -1.7047903050210158]], [[1.6500389415043557, -1.650038941504352]], [[1.709797932738492, -1.7097979327384882]], [[1.6543372393415297, -1.6543372393415259]], [[1.713593176178843, -1.7135931761788392]], [[1.6589512126924086, -1.6589512126924049]], [[1.7173788850444356, -1.7173788850444318]], [[1.6637147955573506, -1.6637147955573468]], [[1.7207226072917352, -1.7207226072917314]], [[1.6678598110528786, -1.6678598110528748]], [[1.724437283542979, -1.7244372835429753]], [[1.6721715314158392, -1.6721715314158354]], [[1.7280536982996009, -1.728053698299597]], [[1.6766297156423764, -1.6766297156423726]], [[1.7316912483729012, -1.7316912483728975]], [[1.6806439688190782, -1.6806439688190744]], [[1.7352032862805542, -1.7352032862805504]], [[1.6847324004817432, -1.6847324004817394]], [[1.7383457650518814, -1.7383457650518777]], [[1.6878349286638445, -1.6878349286638408]], [[1.7342774430099304, -1.7342774430099266]], [[1.6908666292542542, -1.6908666292542505]], [[1.73623969022567, -1.7362396902256663]], [[1.6913002704926796, -1.6913002704926758]], [[1.7366302159526597, -1.7366302159526559]], [[1.6914451013105136, -1.69144510131051]], [[1.7372038520389521, -1.7372038520389488]], [[1.691894803790635, -1.6918948037906318]], [[1.737582818661713, -1.73758281866171]], [[1.6918061330241554, -1.6918061330241523]], [[1.7383718829310975, -1.7383718829310943]], [[1.6919238025761456, -1.6919238025761425]], [[1.7390073436917284, -1.7390073436917253]], [[1.6921588924724493, -1.6921588924724462]], [[1.7474211904526746, -1.7474211904526715]], [[1.6929354342314733, -1.6929354342314702]], [[1.752624537972772, -1.752624537972769]], [[1.6949129675537802, -1.694912967553777]], [[1.7556673020689864, -1.7556673020689832]], [[1.6974909335598178, -1.6974909335598147]], [[1.7573063294605737, -1.7573063294605706]], [[1.7000354276062781, -1.700035427606275]], [[1.7616135538944064, -1.7616135538944033]], [[1.7020015488445086, -1.7020015488445055]], [[1.7643180518203296, -1.7643180518203265]], [[1.7042601456505302, -1.704260145650527]], [[1.7648993997034128, -1.7648993997034097]], [[1.7063220787727844, -1.7063220787727813]], [[1.7665980558310268, -1.7665980558310237]], [[1.709239968319014, -1.709239968319011]], [[1.7671390471142183, -1.7671390471142152]], [[1.7113846207508001, -1.711384620750797]], [[1.7684551317609243, -1.7684551317609212]], [[1.713874358973329, -1.7138743589733259]], [[1.7702545357670325, -1.7702545357670294]], [[1.716643570672783, -1.7166435706727798]], [[1.7718736528398138, -1.7718736528398107]], [[1.7188665357159816, -1.7188665357159785]], [[1.7736117291029279, -1.7736117291029248]], [[1.7209620170621314, -1.7209620170621283]], [[1.7753370614609152, -1.775337061460912]], [[1.7228522718936787, -1.7228522718936756]], [[1.7782091457111806, -1.7782091457111775]], [[1.7256772970183374, -1.7256772970183343]], [[1.7792237381121552, -1.779223738112152]], [[1.6988468946641875, -1.6988468946641844]], [[1.7414764997423355, -1.7414764997423324]], [[1.6651213756282754, -1.6651213756282723]], [[1.7910145065704386, -1.7910145065704355]], [[1.6575143903599687, -1.6575143903599656]], [[1.7865965098595018, -1.786596509859499]], [[1.7031982725196444, -1.7031982725196415]], [[1.7505953751747438, -1.750595375174741]], [[1.7145006477333793, -1.7145006477333764]], [[1.7456462227063556, -1.7456462227063525]], [[1.7210558408981507, -1.7210558408981476]], [[1.743509354453075, -1.743509354453072]], [[1.7261510485340805, -1.7261510485340774]], [[1.7435276044089836, -1.7435276044089805]], [[1.7303206962253703, -1.7303206962253672]], [[1.7442180602168693, -1.7442180602168662]], [[1.7340505269839395, -1.7340505269839364]], [[1.745493121128938, -1.7454931211289346]], [[1.73696822283121, -1.7369682228312067]], [[1.7463757220200595, -1.7463757220200562]], [[1.707224541705604, -1.7072245417056007]], [[1.7212040248652323, -1.721204024865229]], [[1.6761095831558221, -1.6761095831558188]], [[1.7539973521803964, -1.753997352180393]], [[1.6532221842107067, -1.6532221842107033]], [[1.7956562749432248, -1.7956562749432217]], [[1.666901432807351, -1.666901432807348]], [[1.7669571923265148, -1.7669571923265117]], [[1.6998044242201367, -1.6998044242201336]], [[1.7472557087953224, -1.7472557087953193]], [[1.7120292258402172, -1.712029225840214]], [[1.748322265384079, -1.748322265384076]], [[1.7200877691947523, -1.7200877691947491]], [[1.7447125744443441, -1.744712574444341]], [[1.725936436079901, -1.7259364360798979]], [[1.7440070140495716, -1.7440070140495685]], [[1.7309818326065016, -1.7309818326064985]], [[1.744770898298323, -1.7447708982983199]], [[1.7353595652882627, -1.7353595652882596]], [[1.7459200407958402, -1.745920040795837]], [[1.7388381178269119, -1.7388381178269088]], [[1.7473223827933295, -1.7473223827933264]], [[1.7419854487229136, -1.7419854487229105]], [[1.7493945486954594, -1.7493945486954563]], [[1.7439756803957327, -1.7439756803957296]], [[1.7201758171971804, -1.7201758171971775]], [[1.720077050305571, -1.720077050305568]], [[1.6913314961639065, -1.6913314961639037]], [[1.7417664799491972, -1.7417664799491943]], [[1.6626576767708743, -1.6626576767708716]], [[1.7872884851317714, -1.7872884851317687]], [[1.657605132295715, -1.6576051322957124]], [[1.7864121832865951, -1.7864121832865925]], [[1.7033875878420393, -1.7033875878420366]], [[1.7482186650207332, -1.7482186650207305]], [[1.7158242667519668, -1.715824266751964]], [[1.750365372539192, -1.7503653725391894]], [[1.7237224399323239, -1.7237224399323212]], [[1.7472536606479812, -1.7472536606479785]], [[1.7293740968896236, -1.729374096889621]], [[1.746608700932002, -1.7466087009319993]], [[1.733206823517983, -1.7332068235179803]], [[1.7172066975587676, -1.717206697558765]], [[1.7086129147855642, -1.7086129147855615]], [[1.689053505714037, -1.6890535057140343]], [[1.723807734425927, -1.7238077344259244]], [[1.6606038552812707, -1.660603855281268]], [[1.7648685469361105, -1.7648685469361078]], [[1.6483330928553825, -1.6483330928553799]], [[1.7842488821156226, -1.78424888211562]], [[1.6995184357836237, -1.699518435783621]], [[1.731212322855027, -1.7312123228550242]], [[1.677376625079327, -1.6773766250793243]], [[1.695620301254306, -1.6956203012543034]], [[1.6754935536957782, -1.6754935536957756]], [[1.7049167430413852, -1.7049167430413825]], [[1.6500912957707223, -1.6500912957707197]], [[1.7364756108869115, -1.7364756108869088]], [[1.6325000859254457, -1.632500085925443]], [[1.7669394628754214, -1.7669394628754187]], [[1.6474846568598607, -1.647484656859858]], [[1.7462228680707885, -1.7462228680707859]], [[1.6875838595860557, -1.687583859586053]], [[1.7263720882738436, -1.726372088273841]], [[1.7024275499169386, -1.702427549916936]], [[1.7279962816479901, -1.7279962816479872]], [[1.71215586147458, -1.712155861474577]], [[1.726366678765117, -1.7263666787651144]], [[1.7188801701518492, -1.7188801701518466]], [[1.7278124333239306, -1.727812433323928]], [[1.724257688730659, -1.7242576887306564]], [[1.7300050981368238, -1.7300050981368211]], [[1.7285690161001819, -1.7285690161001792]], [[1.7311981441688984, -1.7311981441688957]], [[1.6986592516060681, -1.6986592516060652]], [[1.7039139429680858, -1.7039139429680832]], [[1.6698202689180623, -1.6698202689180597]], [[1.7267032347104905, -1.7267032347104878]], [[1.644208397619867, -1.6442083976198643]], [[1.764960430640083, -1.7649604306400803]], [[1.6409630735331548, -1.6409630735331522]], [[1.7658212856262812, -1.7658212856262783]], [[1.6931304217877114, -1.6931304217877086]], [[1.7308740057003755, -1.7308740057003726]], [[1.7080893611662933, -1.7080893611662904]], [[1.732933249298372, -1.7329332492983691]], [[1.7169272333137153, -1.7169272333137124]], [[1.701068429693816, -1.7010684296938132]], [[1.690886109274438, -1.6908861092744352]], [[1.67232111007563, -1.672321110075627]], [[1.704199399867697, -1.704199399867694]], [[1.6458655282513712, -1.6458655282513683]], [[1.7377789410670847, -1.7377789410670816]], [[1.631795818243554, -1.6317958182435508]], [[1.7632670890978277, -1.7632670890978246]], [[1.6478874186774086, -1.6478874186774055]], [[1.7448206303948661, -1.744820630394863]], [[1.6901868993421179, -1.690186899342115]], [[1.72526284941014, -1.7252628494101372]], [[1.7052382026186963, -1.7052382026186934]], [[1.7273020267619315, -1.7273020267619286]], [[1.7151200080686961, -1.7151200080686932]], [[1.7264589712825011, -1.7264589712824983]], [[1.721623484416922, -1.721623484416919]], [[1.7282293233353998, -1.7282293233353967]], [[1.7264299828875056, -1.7264299828875025]], [[1.6983351238244857, -1.6983351238244826]], [[1.6979794159085508, -1.6979794159085477]], [[1.6700395736073355, -1.6700395736073324]], [[1.7152373912501047, -1.7152373912501016]], [[1.645165245739718, -1.6451652457397148]], [[1.7493102199593649, -1.7493102199593618]], [[1.6369047666387164, -1.6369047666387133]], [[1.763914313258021, -1.763914313258018]], [[1.691618263097378, -1.6916182630973748]], [[1.7130072999941865, -1.7130072999941832]], [[1.6708390994454914, -1.670839099445488]], [[1.676554750627368, -1.6765547506273646]], [[1.6750844321034182, -1.6750844321034148]], [[1.6481783241865122, -1.648178324186509]], [[1.6963267380938918, -1.6963267380938885]], [[1.6229230766248726, -1.6229230766248692]], [[1.7329597719172454, -1.7329597719172418]], [[1.6167284516325593, -1.6167284516325557]], [[1.746573952173835, -1.7465739521738315]], [[1.637557675558083, -1.6375576755580794]], [[1.7279864661989919, -1.7279864661989883]], [[1.680410789147419, -1.6804107891474154]], [[1.7116029235301737, -1.7116029235301702]], [[1.694997191329385, -1.6949971913293815]], [[1.714129884550635, -1.7141298845506314]], [[1.7048700080778327, -1.7048700080778292]], [[1.71433282908587, -1.7143328290858664]], [[1.711559468765168, -1.7115594687651645]], [[1.715807336152065, -1.7158073361520614]], [[1.6818716746018156, -1.681871674601812]], [[1.684751097975556, -1.6847510979755524]], [[1.6546994302690488, -1.6546994302690454]], [[1.7012995624573342, -1.7012995624573308]], [[1.6315381616456406, -1.6315381616456373]], [[1.7320411905278355, -1.7320411905278321]], [[1.623446944393965, -1.6234469443939616]], [[1.7476210580455978, -1.7476210580455944]], [[1.6411232884773783, -1.641123288477375]], [[1.7323759204740188, -1.7323759204740155]], [[1.6858721900991651, -1.6858721900991618]], [[1.7148610427099649, -1.7148610427099615]], [[1.6995962134945546, -1.6995962134945513]], [[1.7119143359709066, -1.7119143359709033]], [[1.7072215222476739, -1.7072215222476705]], [[1.7134447586910397, -1.7134447586910364]], [[1.6786450791995764, -1.678645079199573]], [[1.6816078555861238, -1.6816078555861207]], [[1.652115939506033, -1.6521159395060299]], [[1.6976786834611421, -1.697678683461139]], [[1.6296779069803435, -1.6296779069803404]], [[1.7262852280503769, -1.7262852280503738]], [[1.6212557919199506, -1.6212557919199475]], [[1.7425975903112076, -1.7425975903112045]], [[1.6382855781725478, -1.6382855781725447]], [[1.7299556014513964, -1.7299556014513933]], [[1.6843117424688172, -1.684311742468814]], [[1.7125398863996528, -1.7125398863996497]], [[1.6993045733071364, -1.6993045733071332]], [[1.709857591593691, -1.709857591593688]], [[1.6726806029879409, -1.6726806029879377]], [[1.675336454455749, -1.6753364544557459]], [[1.645576516357891, -1.645576516357888]], [[1.6913480296025052, -1.691348029602502]], [[1.6239718988494887, -1.6239718988494856]], [[1.7180429957296517, -1.7180429957296486]], [[1.616017192086697, -1.6160171920866937]], [[1.7341170241247257, -1.7341170241247224]], [[1.6315550624931383, -1.631555062493135]], [[1.7247650285694958, -1.7247650285694924]], [[1.680038966866264, -1.6800389668662608]], [[1.7066079166918247, -1.7066079166918213]], [[1.6594947029196367, -1.6594947029196334]], [[1.6650289637526725, -1.6650289637526692]], [[1.6325938676199903, -1.632593867619987]], [[1.6818926599541881, -1.6818926599541848]], [[1.612293292872589, -1.6122932928725855]], [[1.7070725199363228, -1.7070725199363193]], [[1.6058284224952468, -1.6058284224952433]], [[1.7214500743956214, -1.721450074395618]], [[1.6214121543229363, -1.621412154322933]], [[1.7143788726723226, -1.7143788726723193]], [[1.6709464966432455, -1.6709464966432421]], [[1.6739619634443883, -1.673961963444385]], [[1.6477149070617683, -1.647714907061765]], [[1.6413520375443904, -1.6413520375443873]], [[1.6536125499116507, -1.6536125499116476]], [[1.6171506972038479, -1.6171506972038447]], [[1.6722281093118345, -1.6722281093118314]], [[1.5978854915345633, -1.5978854915345602]], [[1.6975194755642695, -1.6975194755642664]], [[1.5930684207345926, -1.5930684207345895]], [[1.7100126247580847, -1.7100126247580816]], [[1.6109673322496079, -1.6109673322496048]], [[1.702381718882715, -1.702381718882712]], [[1.6605988913956509, -1.6605988913956478]], [[1.662786485086023, -1.66278648508602]], [[1.6369300866752599, -1.6369300866752565]], [[1.629804383291524, -1.6298043832915208]], [[1.6428030824744937, -1.6428030824744904]], [[1.6057182792660376, -1.6057182792660343]], [[1.6610487781837011, -1.6610487781836978]], [[1.586849018454655, -1.5868490184546518]], [[1.6919141292683848, -1.6919141292683815]], [[1.5839164475760055, -1.5839164475760021]], [[1.7023271818842314, -1.702327181884228]], [[1.6035510100115158, -1.6035510100115125]], [[1.6945122574462523, -1.694512257446249]], [[1.6562383865405002, -1.6562383865404968]], [[1.6543483206457923, -1.654348320645789]], [[1.631198327992671, -1.6311983279926676]], [[1.6213187685323551, -1.6213187685323518]], [[1.6372484283979882, -1.637248428397985]], [[1.5986458091478533, -1.59864580914785]], [[1.6545478975389325, -1.6545478975389292]], [[1.5807820958001542, -1.5807820958001508]], [[1.683428218617802, -1.6834282186177987]], [[1.5777067456113254, -1.577706745611322]], [[1.6941741263840435, -1.6941741263840402]], [[1.597205370558597, -1.5972053705585936]], [[1.68705880056229, -1.6870588005622866]], [[1.6101480902203098, -1.6101480902203065]], [[1.6800550463931088, -1.6800550463931054]], [[1.6148407989409996, -1.6148407989409963]], [[1.6762203831917297, -1.6762203831917264]], [[1.6146836696644427, -1.6146836696644393]], [[1.6760606970291905, -1.6760606970291871]], [[1.6072711678607723, -1.607271167860769]], [[1.6806452427254306, -1.6806452427254273]], [[1.6018743075762227, -1.6018743075762194]], [[1.6862115498527634, -1.68621154985276]], [[1.607861817448126, -1.6078618174481225]], [[1.6858506585055626, -1.685850658505559]], [[1.6142271990090227, -1.6142271990090191]], [[1.6833545971476027, -1.6833545971475994]], [[1.617310110930794, -1.6173101109307906]], [[1.6822708215797182, -1.6822708215797149]], [[1.618183974564783, -1.6181839745647797]], [[1.68254710363261, -1.682547103632607]], [[1.612244166863588, -1.6122441668635847]], [[1.6865939679771589, -1.6865939679771556]], [[1.6085575772729472, -1.608557577272944]], [[1.6905814961649055, -1.6905814961649022]], [[1.6151094362853147, -1.6151094362853113]], [[1.6894144809290896, -1.6894144809290863]], [[1.6207092190159866, -1.6207092190159833]], [[1.6871604667730282, -1.687160466773025]], [[1.6234687398461476, -1.6234687398461443]], [[1.6858717979480757, -1.6858717979480722]], [[1.6180754576923628, -1.6180754576923593]], [[1.6886072661964804, -1.6886072661964766]], [[1.6141238389221164, -1.6141238389221126]], [[1.6925523520040657, -1.692552352004062]], [[1.612693067485485, -1.612693067485481]], [[1.694866908060997, -1.6948669080609933]], [[1.620981523026321, -1.6209815230263172]], [[1.692208261024944, -1.6922082610249403]], [[1.6266782424535131, -1.6266782424535093]], [[1.6891899418135667, -1.689189941813563]], [[1.6225319269449874, -1.6225319269449836]], [[1.690094102385664, -1.6900941023856602]], [[1.6188483845636283, -1.6188483845636246]], [[1.692978417570178, -1.6929784175701743]], [[1.6168724192111945, -1.6168724192111905]], [[1.6955362406649697, -1.6955362406649657]], [[1.6167347535817809, -1.6167347535817769]], [[1.6965716456138622, -1.6965716456138582]], [[1.6176890841706033, -1.6176890841705993]], [[1.6961252792114225, -1.6961252792114183]], [[1.6188663727082881, -1.618866372708284]], [[1.6948583961632562, -1.694858396163252]], [[1.6197369081076278, -1.6197369081076238]], [[1.6934526030258383, -1.6934526030258343]], [[1.6201052432958098, -1.6201052432958059]], [[1.6922726563867632, -1.6922726563867592]], [[1.6200703803051224, -1.6200703803051184]], [[1.6915529102213, -1.691552910221296]], [[1.6198234321225058, -1.6198234321225018]], [[1.6913182146761259, -1.6913182146761216]], [[1.6195760884820078, -1.6195760884820036]], [[1.6913071805296829, -1.6913071805296789]], [[1.6194757493209395, -1.6194757493209355]], [[1.6914230550145968, -1.6914230550145928]], [[1.6194853920258903, -1.6194853920258863]], [[1.6915148411835712, -1.6915148411835672]], [[1.6196184822686621, -1.6196184822686581]], [[1.6914379073421753, -1.691437907342171]], [[1.6197975302870566, -1.6197975302870524]], [[1.691382338913541, -1.6913823389135367]], [[1.620007584048381, -1.6200075840483767]], [[1.6912861011232991, -1.691286101123295]], [[1.6201875622563005, -1.6201875622562962]], [[1.690905788530273, -1.6909057885302687]], [[1.6203145279465367, -1.6203145279465325]], [[1.68610054143918, -1.6861005414391759]], [[1.6194415712429464, -1.6194415712429422]], [[1.6808865709339076, -1.6808865709339034]], [[1.6173202879655861, -1.617320287965582]], [[1.67641985700421, -1.6764198570042057]], [[1.6142573306303558, -1.6142573306303516]], [[1.673024221970002, -1.6730242219699978]], [[1.610564200391182, -1.6105642003911778]], [[1.670687825033952, -1.6706878250339479]], [[1.6066608586476787, -1.6066608586476745]], [[1.6691305774038234, -1.6691305774038192]], [[1.6029876155630234, -1.6029876155630194]], [[1.6732229801693335, -1.6732229801693295]], [[1.600823841930328, -1.600823841930324]], [[1.6773482722053843, -1.67734827220538]], [[1.6007143306929565, -1.6007143306929523]], [[1.6797860647638756, -1.6797860647638714]], [[1.602041179761675, -1.6020411797616707]], [[1.6802878852192749, -1.6802878852192706]], [[1.603848610914909, -1.603848610914905]], [[1.6794773620673855, -1.6794773620673815]], [[1.6054209431994089, -1.6054209431994049]], [[1.678166581557085, -1.6781665815570812]], [[1.6064612274243273, -1.6064612274243237]], [[1.6769797131782753, -1.6769797131782718]], [[1.6069443131662415, -1.606944313166238]], [[1.6761748286805314, -1.6761748286805278]], [[1.6070384604966539, -1.6070384604966503]], [[1.6759432941325014, -1.6759432941324979]], [[1.6069728693307326, -1.606972869330729]], [[1.6761891091633405, -1.676189109163337]], [[1.6069799636590971, -1.6069799636590936]], [[1.6766973132970175, -1.676697313297014]], [[1.607092680793044, -1.6070926807930404]], [[1.6772707714321082, -1.6772707714321047]], [[1.6073807643890623, -1.6073807643890587]], [[1.6777542820049962, -1.6777542820049927]], [[1.6078044580528532, -1.6078044580528497]], [[1.6780428332127344, -1.6780428332127308]], [[1.6082861665210872, -1.6082861665210837]], [[1.6782899132505347, -1.6782899132505311]], [[1.6087695007150022, -1.6087695007149987]], [[1.6784297116149407, -1.6784297116149371]], [[1.6092209590335074, -1.6092209590335038]], [[1.6786016653612585, -1.678601665361255]], [[1.6096469731786314, -1.6096469731786278]], [[1.678815889400496, -1.6788158894004925]], [[1.61002755028646, -1.6100275502864565]], [[1.6790924613785139, -1.6790924613785103]], [[1.6103970269359993, -1.6103970269359957]], [[1.679403321341114, -1.6794033213411104]], [[1.6107705594915893, -1.610770559491586]], [[1.6796812454072274, -1.679681245407224]], [[1.6111412506416396, -1.6111412506416363]], [[1.6799880351514667, -1.6799880351514633]], [[1.611550244484581, -1.6115502444845777]], [[1.6803519130819662, -1.6803519130819629]], [[1.6119252413969942, -1.611925241396991]], [[1.6807408081523847, -1.6807408081523814]], [[1.6123210637919472, -1.6123210637919438]], [[1.6811153937554957, -1.6811153937554923]], [[1.6127338585852056, -1.6127338585852022]], [[1.6814892089614806, -1.6814892089614772]], [[1.6131643340391701, -1.6131643340391668]], [[1.6818573484875399, -1.6818573484875365]], [[1.6135969059979753, -1.613596905997972]], [[1.6822189956208615, -1.6822189956208582]], [[1.6140311330737145, -1.6140311330737112]], [[1.682492622056579, -1.6824926220565757]], [[1.6144483519013844, -1.614448351901381]], [[1.6828492156198007, -1.6828492156197974]], [[1.6148582955837862, -1.614858295583783]], [[1.6831721233335422, -1.6831721233335386]], [[1.6152754943336778, -1.6152754943336742]], [[1.6835552776137181, -1.6835552776137144]], [[1.6156777658284245, -1.6156777658284207]], [[1.683960241807647, -1.6839602418076431]], [[1.6160897591173722, -1.6160897591173682]], [[1.6843554568338759, -1.6843554568338721]], [[1.616545589798514, -1.6165455897985102]], [[1.6846412408600755, -1.6846412408600717]], [[1.6169461027730208, -1.616946102773017]], [[1.6842768488115036, -1.6842768488114999]], [[1.6172608522726184, -1.6172608522726146]], [[1.6804581929723386, -1.6804581929723348]], [[1.616791634016242, -1.6167916340162383]], [[1.6754341409742237, -1.67543414097422]], [[1.615332189086974, -1.6153321890869703]], [[1.670694382652147, -1.6706943826521432]], [[1.6129362339239486, -1.6129362339239448]], [[1.6667739963445154, -1.6667739963445116]], [[1.6098217161620136, -1.6098217161620099]], [[1.663909997625378, -1.6639099976253742]], [[1.6062486589187805, -1.6062486589187768]], [[1.6621132618904688, -1.662113261890465]], [[1.6024167416684416, -1.6024167416684378]], [[1.6612462946991495, -1.6612462946991458]], [[1.5987527487331608, -1.598752748733157]], [[1.6662919068875286, -1.6662919068875248]], [[1.5962530993672033, -1.5962530993671995]], [[1.6721088209050234, -1.6721088209050197]], [[1.5956051728957679, -1.595605172895764]], [[1.6766591306040377, -1.676659130604034]], [[1.5967058783733334, -1.5967058783733297]], [[1.678876703549101, -1.6788767035490972]], [[1.5989200721924066, -1.5989200721924028]], [[1.6788001875625813, -1.6788001875625775]], [[1.6014806364109335, -1.6014806364109295]], [[1.67712790004091, -1.677127900040906]], [[1.6037562538978263, -1.6037562538978223]], [[1.6747559931134592, -1.6747559931134552]], [[1.6053850468788713, -1.6053850468788673]], [[1.6724754409444427, -1.6724754409444387]], [[1.6063258830583593, -1.6063258830583553]], [[1.6707385753978918, -1.6707385753978878]], [[1.6066127663669865, -1.6066127663669825]], [[1.669922810139267, 