[[[-0.15053708216577735, 0.1405302549936778], [0.13683425032597385, -0.13521201443942335]], [[-2.9268027309736957, 2.917748632330857], [2.9286561229731505, -2.927188336682232]], [[-3.477638459852976, 3.4694463825017445], [3.439025312151195, -3.43769727064153]], [[-3.733976444305556, 3.7265643170496143], [3.6688354838328627, -3.667633882303876]], [[-3.8741101890489524, 3.8674037545143696], [3.789481646875548, -3.78839444724816]], [[-3.9562830668236137, 3.95021513752159], [3.8566514852452856, -3.855667795560082]], [[-4.006362825008431, 4.000872610226718], [3.894956189019267, -3.894066154316898]], [[-4.037643008724804, 4.032675505504348], [3.9169307958235238, -3.916125499414162]], [[-4.057530066132815, 4.053035508228183], [3.929455775661147, -3.9287271497938603]], [[-4.07035492130516, 4.066288280608301], [3.936465638178622, -3.935806383215714]], [[-4.07872911592289, 4.075049651355236], [3.9402598645169635, -3.9396633758035775]], [[-4.084260542175567, 4.0809313915291705], [3.942195946019245, -3.9416562477155352]], [[-4.087954395974336, 4.084942206612922], [3.9430769902173766, -3.942588675430368]], [[-4.0904468677540615, 4.0877214624742395], [3.9433762327637547, -3.9429344093791503]], [[-4.09214501176753, 4.089679086472646], [3.9433698303208264, -3.942970071992027]], [[-4.093312001720376, 4.091080851878193], [3.943216318482634, -3.9428546202859946]], [[-4.094119783695993, 4.092101056839757], [3.943004407927701, -3.9426771462397574]], [[-4.09468192568762, 4.092855397480926], [3.942781758749178, -3.942485654943873]], [[-4.095074288995167, 4.093421660617264], [3.9425722569842376, -3.942304344586467]], [[-4.095348140630216, 4.093852855451796], [3.9423863270961825, -3.9421439220625674]], [[-4.095538537842349, 4.094185615555219], [3.9422270305072575, -3.942007704336422]], [[-4.095669735035974, 4.094445621574917], [3.94209362310714, -3.941895178510111]], [[-4.095758702594409, 4.094651134347672], [3.9419835895700617, -3.9418040384570316]], [[-4.09581743989446, 4.094815320842416], [3.941893772555379, -3.9417313161183043]], [[-4.095854512234662, 4.094947802785897], [3.9418209706942977, -3.941673981385787]], [[-4.095876083941656, 4.095055700352695], [3.941762230257675, -3.941629235485625]], [[-4.095886621272027, 4.095144344643115], [3.9417149646840333, -3.941594632058677]], [[-4.095889376621295, 4.095217770556474], [3.941676981130646, -3.9415681051161844]], [[-4.095886726244405, 4.095279062350995], [3.941646460026029, -3.941547949863137]], [[-4.095880408667194, 4.095330599148348], [3.9416219137344144, -3.9415327825126165]], [[-4.095871694929623, 4.095374231594568], [3.9416021386676876, -3.941521493438145]], [[-4.095861511442844, 4.09541141052381], [3.9415861682981608, -3.9415132011277683]], [[-4.095850529494513, 4.0954432817175626], [3.941573230581796, -3.9415072104590254]], [[-4.095839230998026, 4.0954707564075195], [3.941562711106359, -3.9415029766177265]], [[-4.095827957130071, 4.09549456421417], [3.9415541221113046, -3.9415000748150835]], [[-4.095816944516025, 4.095515293223812], [3.941547076952079, -3.941498175382885]], [[-4.095806352271071, 4.095533420550712], [3.9415412693416183, -3.9414970235858315]], [[-4.095796282272945, 4.0955493357956625], [3.941536456643133, -3.9414964234307566]], [[-4.0957867943912, 4.095563359157799], [3.9415324465216077, -3.941496224785425]], [[-4.095777917937614, 4.095575755493037], [3.941529086336269, -3.9414963131938134]], [[-4.095769660272725, 4.095586745280435], [3.941526254744838, -3.9414966018629087]], [[-4.095762013265161, 4.095596513216548], [3.94152385507766, -3.9414970253829518]], [[-4.095754958125725, 4.095605214981391], [3.941521810119516, -3.9414975348224353]], [[-4.095748469009823, 4.095612982588749], [3.941520058005836, -3.941498093907666]], [[-4.095742515685794, 4.0956199286359585], [3.9415185489981024, -3.94149867605456]], [[-4.095737065495137, 4.095626149695106], [3.9415172429511385, -3.9414992620678797]], [[-4.095732084776576, 4.095631729031719], [3.9415161073238063, -3.9414998383618336]], [[-4.095727539884973, 4.095636738795115], [3.941515115615985, -3.9415003955869508]], [[-4.095723397905071, 4.095641241792013], [3.9415142461396355, -3.9415009275729607]], [[-4.095719627136302, 4.095645292930379], [3.9415134810515733, -3.941501430517034]], [[-4.0957161974069844, 4.095648940401201], [3.9415128055911977, -3.9415019023621776]], [[-4.095713080262065, 4.095652226651394], [3.9415122074787976, -3.941502342322803]], [[-4.095710249058313, 4.0956551891892605], [3.941511676439645, -3.941502750523972]], [[-4.095707678992516, 4.095657861255375], [3.94151120382676, -3.941503127728349]], [[-4.095705347082031, 4.095660272384676], [3.941510782321056, -3.9415034751306366]], [[-4.095703232112364, 4.095662448880167], [3.94151040569236, -3.9415037942038507]], [[-4.095701314562703, 4.095664414214472], [3.9415100686082343, -3.9415040865853492]], [[-4.095699576517511, 4.095666189372209], [3.9415097664805363, -3.9415043539932086]], [[-4.0956980015703035, 4.095667793143415], [3.941509495341746, -3.941504598165716]], [[-4.095696574723886, 4.095669242376457], [3.941509251744849, -3.941504820818435]], [[-4.095695282290314, 4.095670552196995], [3.941509032681903, -3.94150502361448]], [[-4.0956941117927235, 4.095671736198491], [3.9415088355174848, -3.941505208144764]], [[-4.095693051870618, 4.095672806608671], [3.9415086579339818, -3.94150537591563]], [[-4.095692092189541, 4.095673774435518], [3.9415084978864017, -3.941505528341973]], [[-4.09569122335582, 4.095674649595822], [3.941508353564813, -3.941505666744337]], [[-4.095690436836602, 4.095675441028712], [3.941508223362954, -3.9415057923488837]], [[-4.09568972488542, 4.095676156796201], [3.941508105851831, -3.9415059062893922]], [[-4.095689080473108, 4.0956768041725296], [3.9415079997574214, -3.9415060096106025]], [[-4.0956884972240335, 4.095677389723678], [3.9415079039416843, -3.9415061032724688]], [[-4.095687969357382, 4.095677919378284], [3.9415078173863307, -3.9415061881549662]], [[-4.095687491633245, 4.095678398491075], [3.9415077391788897, -3.9415062650631434]], [[-4.095687059303238, 4.095678831899608], [3.9415076685006403, -3.9415063347322876]], [[-4.095686668065352, 4.0956792239751545], [3.9415076046161577, -3.9415063978330274]], [[-4.095686314022724, 4.095679578668374], [3.9415075468641856, -3.941506454976285]], [[-4.09568599364606, 4.095679899550338], [3.941507494649651, -3.9415065067180537]], [[-4.095685703739401, 4.095680189849448], [3.941507447436633, -3.941506553563883]], [[-4.09568544140899, 4.095680452484663], [3.9415074047421887, -3.9415065959731437]], [[-4.095685204034968, 4.095680690095418], [3.9415073661308573, -3.9415066343629777]], [[-4.095684989245654, 4.095680905068595], [3.941507331209817, -3.9415066691119875]], [[-4.09568479489419, 4.09568109956286], [3.941507299624557, -3.9415067005636373]], [[-4.095684619037366, 4.095681275530596], [3.94150727105502, -3.941506729029403]], [[-4.095684459916386, 4.095681434737712], [3.9415072452121733, -3.9415067547916536]], [[-4.095684315939455, 4.095681578781547], [3.941507221834933, -3.941506778106297]], [[-4.095684185665975, 4.095681709106989], [3.9415072006873966, -3.941506799205214]], [[-4.09568406779222, 4.0956818270210995], [3.9415071815563882, -3.941506818298462]], [[-4.095683961138391, 4.095681933706277], [3.9415071642492223, -3.9415068355763045]], [[-4.095683864636833, 4.095682030232178], [3.941507148591712, -3.941506851211037]], [[-4.0956837773214225, 4.095682117566497], [3.941507134426377, -3.941506865358679]], [[-4.095683698317919, 4.095682196584692], [3.9415071216108286, -3.9415068781604883]], [[-4.095683626835226, 4.095682268078793], [3.9415071100163015, -3.9415068897443444]], [[-4.09568356215751, 4.095682332765362], [3.9415070995263455, -3.9415069002260097]], [[-4.0956835036370585, 4.095682391292693], [3.941507090035649, -3.9415069097102697]], [[-4.095683450687768, 4.0956824442473225], [3.941507081448954, -3.941506918291964]], [[-4.095683402779326, 4.095682492159916], [3.941507073680099, -3.941506926056937]], [[-4.095683359431878, 4.095682535510591], [3.9415070666511496, -3.941506933082872]], [[-4.095683320211242, 4.095682574733729], [3.941507060291603, -3.9415069394400755]], [[-4.095683284724558, 4.095682610222357], [3.9415070545376856, -3.941506945192174]], [[-4.09568325261636, 4.095682642332067], [3.9415070493317024, -3.9415069503967435]], [[-4.0956832235650165, 4.095682671384578], [3.9415070446214626, -3.941506955105888]], [[-4.095683197279514, 4.095682697670994], [3.9415070403597428, -3.941506959366753]], [[-4.095683173496539, 4.0956827214546765], [3.941507036503829, -3.9415069632220066]], [[-4.095683151977846, 4.09568274297392], [3.941507033015068, -3.941506966710252]], [[-4.095683132507865, 4.095682762444328], [3.9415070298584998, -3.9415069698664222]], [[-4.095683114891555, 4.095682780060967], [3.941507027002487, -3.9415069727221255]], [[-4.095683098952435, 4.095682796000349], [3.94150702441841, -3.941506975305962]], [[-4.095683084530824, 4.095682810422158], [3.9415070220803714, -3.9415069776438125]], [[-4.095683071482257, 4.095682823470884], [3.941507019964945, -3.9415069797590943]], [[-4.095683059676, 4.095682835277257], [3.941507018050931, -3.9415069816729935]], [[-4.095683048993787, 4.095682845959563], [3.941507016319156, -3.941506983404682]], [[-4.095683039328599, 4.095682855624827], [3.941507014752264, -3.9415069849715074]], [[-4.095683030583607, 4.095682864369875], [3.941507013334555, -3.941506986389161]], [[-4.095683022671201, 4.095682872282324], [3.9415070120518267, -3.9415069876718474]], [[-4.095683015512119, 4.0956828794414415], [3.94150701089123, -3.9415069888324124]], [[-4.0956830090346354, 4.0956828859189525], [3.9415070098411307, -3.9415069898824857]], [[-4.095683003173856, 4.095682891779749], [3.9415070088910107, -3.9415069908325857]], [[-4.095682997871065, 4.0956828970825585], [3.941507008031352, -3.9415069916922314]], [[-4.095682993073144, 4.09568290188049], [3.941507007253541, -3.941506992470032]], [[-4.095682988732018, 4.095682906221626], [3.9415070065497844, -3.9415069931737805]], [[-4.095682984804204, 4.0956829101494465], [3.9415070059130315, -3.9415069938105267]], [[-4.095682981250345, 4.09568291370331], [3.941507005336902, -3.9415069943866494]], [[-4.095682978034841, 4.0956829169188165], [3.9415070048156253, -3.941506994907921]], [[-4.095682975125477, 4.095682919828184], [3.941507004343979, -3.941506995379565]], [[-4.095682972493115, 4.09568292246055], [3.9415070039172346, -3.9415069958063076]], [[-4.095682970111373, 4.095682924842296], [3.941507003531123, -3.941506996192417]], [[-4.09568296795639, 4.0956829269972825], [3.9415070031817736, -3.9415069965417655]], [[-4.095682966006577, 4.095682928947096], [3.941507002865683, -3.9415069968578544]], [[-4.095682964242403, 4.095682930711271], [3.9415070025796863, -3.941506997143849]], [[-4.095682962646193, 4.095682932307484], [3.9415070023209196, -3.9415069974026147]], [[-4.095682961201952, 4.095682933751726], [3.94150700208679, -3.9415069976367443]], [[-4.095682959895216, 4.095682935058462], [3.9415070018749514, -3.941506997848583]], [[-4.095682958712891, 4.095682936240786], [3.9415070016832803, -3.941506998040253]], [[-4.095682957643131, 4.0956829373105474], [3.941507001509859, -3.9415069982136743]], [[-4.095682956675221, 4.095682938278458], [3.941507001352948, -3.941506998370585]], [[-4.0956829557994645, 4.095682939154214], [3.9415070012109767, -3.9415069985125566]], [[-4.095682955007088, 4.095682939946591], [3.941507001082522, -3.941506998641011]], [[-4.095682954290151, 4.095682940663528], [3.941507000966296, -3.9415069987572378]], [[-4.095682953641464, 4.095682941312214], [3.9415070008611366, -3.941506998862397]], [[-4.095682953054543, 4.095682941899135], [3.9415070007659887, -3.9415069989575438]], [[-4.0956829525235, 4.095682942430178], [3.941507000679898, -3.9415069990436344]], [[-4.095682952043018, 4.09568294291066], [3.9415070006020048, -3.9415069991215272]], [[-4.095682951608283, 4.095682943345394], [3.9415070005315282, -3.9415069991920038]], [[-4.095682951214934, 4.095682943738743], [3.9415070004677615, -3.941506999255771]], [[-4.095682950859041, 4.095682944094637], [3.941507000410065, -3.941506999313468]], [[-4.095682950537027, 4.095682944416652], [3.9415070003578627, -3.94150699936567]], [[-4.095682950245672, 4.095682944708006], [3.9415070003106303, -3.941506999412902]], [[-4.095682949982063, 4.095682944971615], [3.9415070002678925, -3.94150699945564]], [[-4.095682949743547, 4.095682945210132], [3.941507000229226, -3.9415069994943064]], [[-4.0956829495277365, 4.095682945425942], [3.9415070001942416, -3.941506999529291]], [[-4.095682949332475, 4.095682945621204], [3.941507000162588, -3.941506999560945]], [[-4.095682949155808, 4.095682945797869], [3.9415070001339476, -3.9415069995895857]], [[-4.095682948995957, 4.095682945957719], [3.9415070001080337, -3.941506999615499]], [[-4.0956829488513256, 4.095682946102349], [3.941507000084588, -3.941506999638945]], [[-4.095682948720465, 4.095682946233212], [3.9415070000633743, -3.9415069996601586]], [[-4.095682948602062, 4.095682946351615], [3.941507000044179, -3.9415069996793535]], [[-4.0956829484949315, 4.095682946458747], [3.9415070000268133, -3.941506999696721]], [[-4.095682948398001, 4.0956829465556766], [3.9415070000110997, -3.941506999712434]], [[-4.095682948310297, 4.095682946643381], [3.941506999996881, -3.941506999726652]], [[-4.095682948230946, 4.095682946722731], [3.9415069999840164, -3.9415069997395165]], [[-4.0956829481591495, 4.095682946794528], [3.9415069999723777, -3.941506999751155]], [[-4.095682948094188, 4.0956829468594895], [3.9415069999618466, -3.9415069997616863]], [[-4.095682948035413, 4.095682946918266], [3.941506999952318, -3.9415069997712147]], [[-4.095682947982232, 4.095682946971446], [3.9415069999436967, -3.9415069997798353]], [[-4.095682947934115, 4.095682947019563], [3.9415069999358967, -3.9415069997876353]], [[-4.095682947890577, 4.095682947063102], [3.9415069999288397, -3.941506999794693]], [[-4.095682947851186, 4.0956829471024925], [3.941506999922453, -3.94150699980108]], [[-4.095682947815544, 4.095682947138135], [3.9415069999166747, -3.9415069998068586]], [[-4.095682947783298, 4.095682947170381], [3.9415069999114474, -3.9415069998120864]], [[-4.095682947754116, 4.0956829471995615], [3.9415069999067165, -3.941506999816817]], [[-4.095682947727718, 4.09568294722596], [3.9415069999024364, -3.941506999821097]], [[-4.095682947703833, 4.095682947249847], [3.9415069998985643, -3.941506999824969]], [[-4.095682947682219, 4.0956829472714595], [3.941506999895062, -3.941506999828472]], [[-4.095682947662665, 4.095682947291015], [3.941506999891892, -3.941506999831642]], [[-4.095682947644974, 4.095682947308706], [3.941506999889023, -3.9415069998345107]], [[-4.095682947628966, 4.095682947324714], [3.941506999886428, -3.9415069998371055]], [[-4.095682947614481, 4.095682947339197], [3.9415069998840795, -3.9415069998394525]], [[-4.095682947601379, 4.095682947352301], [3.9415069998819554, -3.941506999841578]], [[-4.095682947589521, 4.095682947364157], [3.9415069998800343, -3.941506999843499]], [[-4.095682947578793, 4.095682947374885], [3.941506999878295, -3.941506999845238]], [[-4.095682947569086, 4.09568294738459], [3.9415069998767214, -3.941506999846812]], [[-4.095682947560304, 4.095682947393374], [3.9415069998752967, -3.9415069998482366]], [[-4.095682947552358, 4.095682947401318], [3.9415069998740093, -3.941506999849524]], [[-4.095682947545169, 4.095682947408508], [3.941506999872845, -3.941506999850688]], [[-4.095682947538663, 4.095682947415014], [3.9415069998717884, -3.941506999851744]], [[-4.095682947532778, 4.095682947420899], [3.941506999870834, -3.941506999852699]], [[-4.095682947527453, 4.095682947426225], [3.94150699986997, -3.941506999853563]], [[-4.095682947522633, 4.095682947431045], [3.9415069998691914, -3.9415069998543424]], [[-4.095682947518274, 4.095682947435402], [3.9415069998684857, -3.9415069998550476]], [[-4.09568294751433, 4.095682947439347], [3.9415069998678454, -3.941506999855688]], [[-4.095682947510761, 4.095682947442917], [3.9415069998672667, -3.941506999856267]], [[-4.0956829475075285, 4.095682947446149], [3.941506999866745, -3.9415069998567884]], [[-4.095682947504609, 4.0956829474490695], [3.941506999866271, -3.941506999857262]], [[-4.095682947501966, 4.095682947451714], [3.941506999865842, -3.941506999857691]], [[-4.095682947499572, 4.095682947454107], [3.941506999865453, -3.94150699985808]], [[-4.09568294749741, 4.09568294745627], [3.9415069998650987, -3.941506999858435]], [[-4.095682947495452, 4.0956829474582275], [3.941506999864787, -3.941506999858746]], [[-4.09568294749368, 4.095682947459999], [3.9415069998645014, -3.941506999859032]], [[-4.095682947492077, 4.095682947461602], [3.941506999864235, -3.9415069998592984]], [[-4.095682947490621, 4.095682947463058], [3.941506999864008, -3.941506999859525]], [[-4.0956829474893155, 4.095682947464364], [3.941506999863786, -3.941506999859747]], [[-4.095682947488125, 4.095682947465554], [3.941506999863603, -3.941506999859929]]]