[[[-0.002935972555548144, 0.002935972555548158]], [[0.009248192915018091, -0.009248192915018036]], [[0.024086387041910462, -0.024086387041910406]], [[0.038593647030873354, -0.03859364703087331]], [[0.052150977319883836, -0.052150977319883766]], [[0.0647070097692082, -0.06470700976920818]], [[0.07633935398486535, -0.07633935398486527]], [[0.08714714456031034, -0.08714714456031028]], [[0.09722466671040467, -0.09722466671040458]], [[0.10665554630952173, -0.1066555463095217]], [[0.11551236897031149, -0.11551236897031147]], [[0.12385771839574952, -0.12385771839574952]], [[0.13174549956413417, -0.1317454995641342]], [[0.13922221130437845, -0.13922221130437845]], [[0.14632807396329983, -0.1463280739632998]], [[0.15309799626101148, -0.1530979962610115]], [[0.15956239170479875, -0.1595623917047988]], [[0.16574786293450713, -0.16574786293450722]], [[0.1716777735407241, -0.17167777354072417]], [[0.17737272549343192, -0.177372725493432]], [[0.182850958062235, -0.18285095806223506]], [[0.18812868172179223, -0.1881286817217923]], [[0.19322035831527684, -0.1932203583152769]], [[0.1981389368014322, -0.19813893680143232]], [[0.2028960522570532, -0.20289605225705332]], [[0.20750219442825668, -0.20750219442825682]], [[0.2119668509878021, -0.21196685098780224]], [[0.21629862972569233, -0.21629862972569253]], [[0.22050536314187752, -0.22050536314187774]], [[0.22459419829257335, -0.22459419829257354]], [[0.22857167423947294, -0.2285716742394731]], [[0.23244378904230875, -0.23244378904230892]], [[0.2362160579020134, -0.23621605790201353]], [[0.23989356378966742, -0.23989356378966759]], [[0.2434810016738046, -0.24348100167380482]], [[0.24698271727603646, -0.24698271727603668]], [[0.25040274113477173, -0.2504027411347719]], [[0.25374481863294057, -0.25374481863294074]], [[0.25701243654317746, -0.2570124365431776]], [[0.2602088465589223, -0.26020884655892246]], [[0.2633370862091781, -0.26333708620917834]], [[0.2663999974956444, -0.26639999749564464]], [[0.26940024354154, -0.2694002435415403]], [[0.2723403234999567, -0.27234032349995696]], [[0.2752225859346592, -0.27522258593465954]], [[0.2780492408567596, -0.2780492408567599]], [[0.28082237057571635, -0.2808223705757167]], [[0.28354393950190243, -0.28354393950190276]], [[0.2862158030199216, -0.28621580301992194]], [[0.28883971553643184, -0.2888397155364322]], [[0.2914173377930289, -0.29141733779302925]], [[0.29395024352340954, -0.29395024352340987]], [[0.2964399255242791, -0.29643992552427945]], [[0.2988878012010561, -0.29888780120105646]], [[0.30129521764214656, -0.30129521764214695]], [[0.30366345626925706, -0.30366345626925745]], [[0.30599373710573347, -0.3059937371057339]], [[0.30828722270014136, -0.30828722270014175]], [[0.3105450217381402, -0.3105450217381406]], [[0.3127681923720619, -0.3127681923720622]], [[0.31495774529441284, -0.31495774529441317]], [[0.3171146465787163, -0.31711464657871663]], [[0.3192398203086457, -0.31923982030864606]], [[0.321334151014227, -0.3213341510142273]], [[0.32339848593196596, -0.3233984859319663]], [[0.32543363710406026, -0.3254336371040606]], [[0.3274403833303472, -0.32744038333034753]], [[0.32941947198530314, -0.3294194719853035]], [[0.3313716207112192, -0.33137162071121956]], [[0.3332975189976188, -0.33329751899761917]], [[0.33519782965603695, -0.3351978296560373]], [[0.3370731901984346, -0.33707319019843496]], [[0.33892421412676565, -0.33892421412676593]], [[0.3407514921405345, -0.3407514921405348]], [[0.3425555932685739, -0.34255559326857415]], [[0.344337065930723, -0.3443370659307233]], [[0.3460964389345948, -0.3460964389345951]], [[0.3478342224121745, -0.34783422241217477]], [[0.34955090870059086, -0.34955090870059113]], [[0.35124697317103815, -0.3512469731710385]], [[0.3529228750094982, -0.3529228750094986]], [[0.35457905795261396, -0.35457905795261435]], [[0.3562159509817956, -0.356215950981796]], [[0.35783396897839476, -0.35783396897839514]], [[0.35943351334255896, -0.35943351334255935]], [[0.36101497257817494, -0.36101497257817533]], [[0.3625787228461238, -0.3625787228461242]], [[0.3641251284879024, -0.36412512848790274]], [[0.36565454252151, -0.3656545425215103]], [[0.3671673071113582, -0.36716730711135853]], [[0.36866375401383333, -0.36866375401383367]], [[0.37014420500001977, -0.3701442050000201]], [[0.37160897225698697, -0.3716089722569873]], [[0.3730583587689404, -0.3730583587689408]], [[0.3744926586794462, -0.3744926586794466]], [[0.3759121576358546, -0.375912157635855]], [[0.37731713311696935, -0.37731713311696974]], [[0.3787078547449385, -0.3787078547449389]], [[0.380084584582277, -0.38008458458227734]], [[0.38144757741486895, -0.3814475774148693]], [[0.38279708102174204, -0.38279708102174237]], [[0.3841333364323548, -0.38413333643235514]], [[0.38545657817208834, -0.38545657817208867]], [[0.3867670344965902, -0.3867670344965905]], [[0.3880649276155766, -0.38806492761557687]], [[0.38935047390666055, -0.3893504739066608]], [[0.3906238841197387, -0.3906238841197389]], [[0.3918853635724355, -0.3918853635724357]], [[0.3931351123370733, -0.39313511233707354]], [[0.39437332541960896, -0.3943733254196092]], [[0.39560019293094917, -0.39560019293094933]], [[0.39681590025103436, -0.3968159002510345]], [[0.3980206281860562, -0.3980206281860564]], [[0.3992145531191526, -0.39921455311915277]], [[0.4003978471549045, -0.4003978471549047]], [[0.40157067825793974, -0.40157067825793985]], [[0.4027332103859317, -0.40273321038593174]], [[0.4038856036172642, -0.40388560361726433]], [[0.4050280142736192, -0.40502801427361934]], [[0.40616059503772783, -0.406160595037728]], [[0.4072834950665152, -0.40728349506651534]], [[0.4083968600998528, -0.408396860099853]], [[0.4095008325651245, -0.40950083256512465]], [[0.41059555167779727, -0.41059555167779743]], [[0.4116811535381814, -0.4116811535381815]], [[0.4127577712245512, -0.4127577712245513]], [[0.4138255348827916, -0.4138255348827917]], [[0.4148845718127251, -0.4148845718127252]], [[0.41593500655126625, -0.4159350065512663]], [[0.41697696095254383, -0.41697696095254383]], [[0.41801055426512235, -0.4180105542651224]], [[0.4190359032064495, -0.41903590320644957]], [[0.420053122034648, -0.42005312203464806]], [[0.421062322617766, -0.42106232261776605]], [[0.4220636145005932, -0.4220636145005932]], [[0.42305710496914584, -0.42305710496914584]], [[0.42404289911291704, -0.42404289911291704]], [[0.42502109988498615, -0.4250210998849861]], [[0.42599180816007437, -0.4259918081600743]], [[0.42695512279063175, -0.4269551227906317]], [[0.4279111406610343, -0.42791114066103425]], [[0.4288599567399684, -0.42885995673996835]], [[0.4298016641310747, -0.42980166413107457]], [[0.4307363541219206, -0.43073635412192046]], [[0.43166411623136797, -0.43166411623136786]], [[0.4325850382553985, -0.4325850382553984]], [[0.43349920631145683, -0.4334992063114568]], [[0.4344067048813692, -0.4344067048813692]], [[0.4353076168528924, -0.4353076168528924]], [[0.4362020235599448, -0.4362020235599448]], [[0.4370900048215705, -0.4370900048215705]], [[0.43797163897968316, -0.4379716389796832]], [[0.43884700293563644, -0.4388470029356365]], [[0.4397161721856639, -0.43971617218566394]], [[0.4405792208552304, -0.4405792208552305]], [[0.44143622173233577, -0.4414362217323359]], [[0.44228724629980753, -0.4422872462998077]], [[0.44313236476662077, -0.443132364766621]], [[0.44397164609827966, -0.4439716460982799]], [[0.44480515804629434, -0.44480515804629456]], [[0.4456329671767854, -0.44563296717678563]], [[0.4464551388982471, -0.4464551388982473]], [[0.44727173748849847, -0.4472717374884987]], [[0.4480828261208515, -0.44808282612085165]], [[0.44888846688952255, -0.4488884668895227]], [[0.44968872083431477, -0.44968872083431494]], [[0.4504836479645945, -0.4504836479645946]], [[0.4512733072825877, -0.4512733072825878]], [[0.45205775680601884, -0.45205775680601895]], [[0.4528370535901138, -0.4528370535901139]], [[0.45361125374898925, -0.45361125374898936]], [[0.4543804124764484, -0.4543804124764485]], [[0.45514458406620273, -0.45514458406620284]], [[0.45590382193153933, -0.45590382193153944]], [[0.4566581786244511, -0.45665817862445124]], [[0.45740770585424834, -0.4574077058542485]], [[0.45815245450566777, -0.4581524545056679]], [[0.45889247465649585, -0.4588924746564959]], [[0.4596278155947214, -0.45962781559472143]], [[0.4603585258352333, -0.4603585258352334]], [[0.46108465313607694, -0.46108465313607705]], [[0.461806244514284, -0.4618062445142841]], [[0.4625233462612884, -0.4625233462612885]], [[0.4632360039579422, -0.4632360039579423]], [[0.4639442624891429, -0.463944262489143]], [[0.46464816605808484, -0.46464816605808495]], [[0.4653477582001462, -0.4653477582001463]], [[0.46604308179642223, -0.4660430817964224]], [[0.46673417908691667, -0.4667341790869168]], [[0.4674210916833999, -0.4674210916834]], [[0.4681038605819459, -0.46810386058194603]], [[0.4687825261751562, -0.4687825261751563]], [[0.4694571282640805, -0.4694571282640806]], [[0.47012770606984344, -0.47012770606984355]], [[0.47079429824498586, -0.470794298244986]], [[0.4714569428845287, -0.47145694288452883]], [[0.4721156775367681, -0.47211567753676825]], [[0.4727705392138092, -0.4727705392138094]], [[0.4734215644018466, -0.47342156440184685]], [[0.4740687890711982, -0.4740687890711985]], [[0.47471224868610024, -0.4747122486861005]], [[0.47535197821426933, -0.47535197821426955]], [[0.4759880121362393, -0.4759880121362395]], [[0.47662038445447835, -0.4766203844544785]], [[0.4772491287022931, -0.47724912870229325]], [[0.47787427795252513, -0.4778742779525253]], [[0.4784958648260464, -0.4784958648260466]], [[0.47911392150005844, -0.4791139215000587]], [[0.4797284797162014, -0.47972847971620164]], [[0.48033957078847733, -0.48033957078847755]], [[0.48094722561099396, -0.4809472256109942]], [[0.48155147466553255, -0.48155147466553283]], [[0.4821523480289459, -0.4821523480289462]], [[0.4827498753803896, -0.48274987538038994]], [[0.4833440860083928, -0.4833440860083931]], [[0.48393500881777074, -0.4839350088177711]], [[0.48452267233638535, -0.4845226723363857]], [[0.4851071047217562, -0.48510710472175655]], [[0.48568833376752707, -0.4856883337675274]], [[0.4862663869097905, -0.4862663869097909]], [[0.4868412912332759, -0.48684129123327635]], [[0.487413073477403, -0.4874130734774034]], [[0.4879817600422049, -0.4879817600422053]], [[0.48854737699412454, -0.488547376994125]], [[0.4891099500716871, -0.4891099500716876]], [[0.4896695046910515, -0.4896695046910521]], [[0.4902260659514448, -0.49022606595144536]], [[0.4907796586404815, -0.49077965864048206]], [[0.49133030723937177, -0.4913303072393723]], [[0.4918780359280203, -0.4918780359280208]], [[0.49242286859001916, -0.4924228685900196]], [[0.49296482881753717, -0.4929648288175376]], [[0.4935039399161084, -0.49350393991610886]], [[0.49404022490932226, -0.49404022490932264]], [[0.494573706543417, -0.49457370654341737]], [[0.4951044072917805, -0.4951044072917809]], [[0.4956323493593591, -0.4956323493593595]], [[0.4961575546869772, -0.49615755468697764]], [[0.4966800449555703, -0.4966800449555707]], [[0.4971998415903325, -0.4971998415903329]], [[0.49771696576478197, -0.4977169657647824]], [[0.49823143840474493, -0.4982314384047454]], [[0.4987432801922608, -0.4987432801922613]], [[0.4992525115694104, -0.4992525115694109]], [[0.49975915274206895, -0.4997591527420695]], [[0.5002632236835852, -0.5002632236835858]], [[0.5007647441383896, -0.5007647441383901]], [[0.5012637336255312, -0.5012637336255318]], [[0.5017602114421476, -0.501760211442148]], [[0.5022541966668662, -0.5022541966668667]], [[0.5027457081631423, -0.5027457081631429]], [[0.5032347645825316, -0.5032347645825322]], [[0.5037213843679009, -0.5037213843679016]], [[0.5042055857565784, -0.504205585756579]], [[0.5046873867834435, -0.5046873867834442]], [[0.5051668052839595, -0.5051668052839602]], [[0.5056438588971484, -0.505643858897149]], [[0.5061185650685107, -0.5061185650685114]], [[0.5065909410528909, -0.5065909410528916]], [[0.5070610039172893, -0.5070610039172898]], [[0.5075287705436219, -0.5075287705436224]], [[0.5079942576314307, -0.5079942576314314]], [[0.5084574817005426, -0.5084574817005433]], [[0.5089184590936807, -0.5089184590936813]], [[0.5093772059790277, -0.5093772059790282]], [[0.5098337383527429, -0.5098337383527435]], [[0.5102880720414341, -0.5102880720414347]], [[0.5107402227045843, -0.5107402227045849]], [[0.5111902058369352, -0.5111902058369358]], [[0.5116380367708281, -0.5116380367708286]], [[0.5120837306785032, -0.5120837306785037]], [[0.5125273025743579, -0.5125273025743583]], [[0.512968767317165, -0.5129687673171655]], [[0.5134081396122526, -0.5134081396122531]], [[0.5138454340136448, -0.5138454340136452]], [[0.5142806649261652, -0.5142806649261656]], [[0.5147138466075043, -0.5147138466075046]], [[0.51514499317025, -0.5151449931702503]], [[0.5155741185838839, -0.5155741185838842]], [[0.5160012366767427, -0.516001236676743]], [[0.5164263611379457, -0.516426361137946]], [[0.5168495055192898, -0.51684950551929]], [[0.5172706832371113, -0.5172706832371116]], [[0.5176899075741177, -0.5176899075741178]], [[0.5181071916811859, -0.518107191681186]], [[0.5185225485791326, -0.5185225485791327]], [[0.5189359911604531, -0.5189359911604533]], [[0.5193475321910319, -0.5193475321910321]], [[0.519757184311824, -0.5197571843118243]], [[0.5201649600405089, -0.5201649600405092]], [[0.5205708717731165, -0.5205708717731167]], [[0.520974931785626, -0.5209749317856264]], [[0.5213771522355399, -0.5213771522355403]], [[0.5217775451634296, -0.5217775451634299]], [[0.5221761224944577, -0.522176122494458]], [[0.5225728960398748, -0.5225728960398751]], [[0.5229678774984916, -0.5229678774984919]], [[0.5233610784581278, -0.5233610784581282]], [[0.5237525103970369, -0.5237525103970371]], [[0.5241421846853078, -0.524142184685308]], [[0.5245301125862456, -0.5245301125862458]], [[0.5249163052577278, -0.524916305257728]], [[0.5253007737535408, -0.525300773753541]], [[0.5256835290246943, -0.5256835290246945]], [[0.5260645819207148, -0.526064581920715]], [[0.526443943190919, -0.5264439431909193]], [[0.526821623485667, -0.5268216234856672]], [[0.5271976333575954, -0.5271976333575956]], [[0.527571983262832, -0.5275719832628322]], [[0.5279446835621904, -0.5279446835621907]], [[0.5283157445223473, -0.5283157445223476]], [[0.5286851763170002, -0.5286851763170005]], [[0.5290529890280081, -0.5290529890280085]], [[0.5294191926465145, -0.5294191926465148]], [[0.5297837970740525, -0.5297837970740529]], [[0.5301468121236341, -0.5301468121236345]], [[0.5305082475208218, -0.5305082475208222]], [[0.5308681129047844, -0.5308681129047848]], [[0.5312264178293368, -0.5312264178293371]], [[0.5315831717639637, -0.5315831717639641]], [[0.5319383840948286, -0.531938384094829]], [[0.5322920641257666, -0.532292064125767]], [[0.532644221079263, -0.5326442210792635]], [[0.5329948640974175, -0.5329948640974179]], [[0.533344002242893, -0.5333440022428935]], [[0.5336916444998517, -0.5336916444998522]], [[0.534037799774876, -0.5340377997748764]], [[0.5343824768978767, -0.5343824768978771]], [[0.5347256846229873, -0.5347256846229878]], [[0.5350674316294458, -0.5350674316294463]], [[0.5354077265224627, -0.5354077265224632]], [[0.5357465778340773, -0.5357465778340778]], [[0.5360839940240006, -0.5360839940240011]], [[0.536419983480447, -0.5364199834804474]], [[0.5367545545209527, -0.5367545545209531]], [[0.5370877153931837, -0.5370877153931841]], [[0.5374194742757311, -0.5374194742757316]], [[0.5377498392788956, -0.5377498392788961]], [[0.5380788184454603, -0.5380788184454608]], [[0.5384064197514532, -0.5384064197514536]], [[0.5387326511068978, -0.5387326511068983]], [[0.5390575203565544, -0.539057520356555]], [[0.5393810352806498, -0.5393810352806503]], [[0.5397032035955971, -0.5397032035955975]], [[0.5400240329547056, -0.540024032954706]], [[0.5403435309488805, -0.540343530948881]], [[0.5406617051073132, -0.5406617051073135]], [[0.5409785628981608, -0.5409785628981612]], [[0.5412941117292183, -0.5412941117292186]], [[0.5416083589485792, -0.5416083589485795]], [[0.5419213118452887, -0.541921311845289]], [[0.5422329776499868, -0.5422329776499871]], [[0.5425433635355431, -0.5425433635355434]], [[0.542852476617683, -0.5428524766176833]], [[0.5431603239556049, -0.5431603239556052]], [[0.5434669125525893, -0.5434669125525896]], [[0.5437722493565995, -0.5437722493565998]], [[0.5440763412608745, -0.5440763412608748]], [[0.5443791951045133, -0.5443791951045136]], [[0.5446808176730519, -0.5446808176730522]], [[0.544981215699032, -0.5449812156990324]], [[0.5452803958625628, -0.5452803958625632]], [[0.5455783647918745, -0.5455783647918748]], [[0.5458751290638649, -0.5458751290638653]], [[0.546170695204639, -0.5461706952046393]], [[0.5464650696900404, -0.5464650696900408]], [[0.546758258946177, -0.5467582589461775]], [[0.5470502693499388, -0.5470502693499393]], [[0.5473411072295095, -0.5473411072295098]], [[0.5476307788648705, -0.5476307788648709]], [[0.5479192904883, -0.5479192904883003]], [[0.5482066482848635, -0.5482066482848639]], [[0.5484928583928996, -0.5484928583929]], [[0.5487779269044986, -0.5487779269044989]], [[0.549061859865975, -0.5490618598659753]], [[0.5493446632783346, -0.549344663278335]], [[0.5496263430977347, -0.5496263430977351]], [[0.5499069052359385, -0.5499069052359389]], [[0.5501863555607645, -0.5501863555607649]], [[0.550464699896529, -0.5504646998965295]], [[0.5507419440244844, -0.5507419440244848]], [[0.55101809368325, -0.5510180936832505]], [[0.5512931545692396, -0.55129315456924]], [[0.5515671323370813, -0.5515671323370818]], [[0.5518400326000346, -0.551840032600035]], [[0.5521118609303997, -0.5521118609304001]], [[0.5523826228599237, -0.5523826228599241]], [[0.5526523238802005, -0.5526523238802009]], [[0.5529209694430662, -0.5529209694430667]], [[0.5531885649609897, -0.5531885649609901]], [[0.5534551158074577, -0.5534551158074582]], [[0.553720627317356, -0.5537206273173566]], [[0.5539851047873458, -0.5539851047873463]], [[0.5542485534762339, -0.5542485534762346]], [[0.5545109786053413, -0.5545109786053419]], [[0.5547723853588641, -0.5547723853588648]], [[0.5550327788842324, -0.5550327788842331]], [[0.5552921642924635, -0.5552921642924642]], [[0.5555505466585112, -0.5555505466585119]], [[0.5558079310216111, -0.5558079310216117]], [[0.556064322385621, -0.5560643223856216]], [[0.5563197257193583, -0.556319725719359]], [[0.5565741459569322, -0.5565741459569329]], [[0.5568275879980727, -0.5568275879980734]], [[0.5570800567084553, -0.557080056708456]], [[0.5573315569200217, -0.5573315569200225]], [[0.5575820934312973, -0.557582093431298]], [[0.5578316710077041, -0.5578316710077049]], [[0.5580802943818707, -0.5580802943818713]], [[0.5583279682539375, -0.5583279682539382]], [[0.5585746972918598, -0.5585746972918605]], [[0.5588204861317062, -0.5588204861317069]], [[0.5590653393779539, -0.5590653393779546]], [[0.5593092616037803, -0.5593092616037809]], [[0.5595522573513515, -0.5595522573513521]], [[0.5597943311321074, -0.559794331132108]], [[0.5600354874270433, -0.560035487427044]], [[0.5602757306869884, -0.5602757306869892]], [[0.5605150653328809, -0.5605150653328816]], [[0.5607534957560397, -0.5607534957560405]], [[0.560991026318434, -0.5609910263184348]], [[0.5612276613529485, -0.5612276613529493]], [[0.5614634051636465, -0.5614634051636472]], [[0.5616982620260291, -0.5616982620260299]], [[0.5619322361872928, -0.5619322361872935]], [[0.5621653318665825, -0.5621653318665831]], [[0.562397553255243, -0.5623975532552437]], [[0.5626289045170669, -0.5626289045170676]], [[0.5628593897885401, -0.5628593897885408]], [[0.563089013179084, -0.5630890131790847]], [[0.5633177787712955, -0.5633177787712962]], [[0.5635456906211843, -0.563545690621185]], [[0.563772752758407, -0.5637727527584077]], [[0.5639989691864992, -0.5639989691864998]], [[0.5642243438831045, -0.5642243438831052]], [[0.5644488808002016, -0.5644488808002023]], [[0.5646725838643282, -0.5646725838643288]], [[0.5648954569768025, -0.5648954569768032]], [[0.5651175040139431, -0.5651175040139438]], [[0.565338728827285, -0.5653387288272856]], [[0.5655591352437948, -0.5655591352437954]], [[0.5657787270660823, -0.5657787270660829]], [[0.5659975080726106, -0.5659975080726112]], [[0.5662154820179033, -0.5662154820179037]], [[0.5664326526327497, -0.5664326526327501]], [[0.5666490236244082, -0.5666490236244086]], [[0.5668645986768066, -0.566864598676807]], [[0.5670793814507411, -0.5670793814507414]], [[0.5672933755840723, -0.5672933755840727]], [[0.5675065846919202, -0.5675065846919205]], [[0.5677190123668556, -0.567719012366856]], [[0.5679306621790912, -0.5679306621790915]], [[0.5681415376766689, -0.5681415376766692]], [[0.5683516423856467, -0.5683516423856471]], [[0.5685609798102824, -0.5685609798102829]], [[0.568769553433216, -0.5687695534332164]], [[0.5689773667156496, -0.56897736671565]], [[0.5691844230975263, -0.5691844230975267]], [[0.5693907259977062, -0.5693907259977067]], [[0.5695962788141417, -0.5695962788141421]], [[0.569801084924049, -0.5698010849240495]], [[0.5700051476840807, -0.5700051476840812]], [[0.5702084704304936, -0.570208470430494]], [[0.5704110564793167, -0.5704110564793171]], [[0.570612909126517, -0.5706129091265173]], [[0.5708140316481629, -0.5708140316481632]], [[0.571014427300587, -0.5710144273005874]], [[0.5712140993205463, -0.5712140993205467]], [[0.5714130509253813, -0.5714130509253815]], [[0.5716112853131728, -0.5716112853131731]], [[0.5718088056628983, -0.5718088056628985]], [[0.5720056151345853, -0.5720056151345855]], [[0.572201716869464, -0.5722017168694642]], [[0.5723971139901185, -0.5723971139901187]], [[0.5725918096006357, -0.5725918096006359]], [[0.5727858067867534, -0.5727858067867536]], [[0.5729791086160064, -0.5729791086160066]], [[0.5731717181378718, -0.573171718137872]], [[0.5733636383839117, -0.5733636383839119]], [[0.5735548723679157, -0.5735548723679159]], [[0.5737454230860412, -0.5737454230860414]], [[0.5739352935169524, -0.5739352935169526]], [[0.5741244866219581, -0.5741244866219584]], [[0.5743130053451482, -0.5743130053451484]], [[0.5745008526135279, -0.5745008526135282]], [[0.5746880313371524, -0.5746880313371527]], [[0.5748745444092582, -0.5748745444092586]], [[0.5750603947063948, -0.5750603947063951]], [[0.5752455850885536, -0.575245585088554]], [[0.5754301183992971, -0.5754301183992975]], [[0.5756139974658855, -0.5756139974658858]], [[0.5757972250994025, -0.5757972250994028]], [[0.5759798040948801, -0.5759798040948805]], [[0.5761617372314224, -0.5761617372314227]], [[0.5763430272723268, -0.5763430272723271]], [[0.5765236769652059, -0.5765236769652062]], [[0.576703689042107, -0.5767036890421072]], [[0.5768830662196305, -0.5768830662196307]], [[0.577061811199048, -0.5770618111990481]], [[0.5772399266664179, -0.577239926666418]], [[0.5774174152927013, -0.5774174152927014]], [[0.5775942797338758, -0.5775942797338759]], [[0.5777705226310486, -0.5777705226310487]], [[0.5779461466105682, -0.5779461466105683]], [[0.5781211542841357, -0.5781211542841358]], [[0.5782955482489143, -0.5782955482489144]], [[0.5784693310876381, -0.5784693310876382]], [[0.5786425053687199, -0.57864250536872]], [[0.5788150736463576, -0.5788150736463578]], [[0.5789870384606405, -0.5789870384606406]], [[0.5791584023376531, -0.5791584023376534]], [[0.5793291677895798, -0.5793291677895801]], [[0.5794993373148065, -0.5794993373148069]], [[0.5796689133980234, -0.5796689133980237]], [[0.5798378985103249, -0.5798378985103252]], [[0.5800062951093099, -0.5800062951093102]], [[0.5801741056391807, -0.580174105639181]], [[0.5803413325308409, -0.5803413325308413]], [[0.5805079782019923, -0.5805079782019927]], [[0.5806740450572313, -0.5806740450572317]], [[0.5808395354881442, -0.5808395354881446]], [[0.581004451873401, -0.5810044518734014]], [[0.5811687965788499, -0.5811687965788503]], [[0.581332571957609, -0.5813325719576095]], [[0.5814957803501586, -0.581495780350159]], [[0.5816584240844319, -0.5816584240844324]], [[0.5818205054759055, -0.5818205054759059]], [[0.5819820268276881, -0.5819820268276885]], [[0.5821429904306094, -0.5821429904306098]], [[0.5823033985633075, -0.5823033985633079]], [[0.5824632534923162, -0.5824632534923165]], [[0.5826225574721503, -0.5826225574721506]], [[0.5827813127453916, -0.5827813127453919]], [[0.5829395215427731, -0.5829395215427734]], [[0.5830971860832626, -0.5830971860832629]], [[0.5832543085741461, -0.5832543085741464]], [[0.5834108912111097, -0.58341089121111]], [[0.5835669361783212, -0.5835669361783216]], [[0.5837224456485111, -0.5837224456485114]], [[0.583877421783052, -0.5838774217830524]], [[0.5840318667320388, -0.5840318667320391]], [[0.5841857826343666, -0.5841857826343669]], [[0.584339171617809, -0.5843391716178093]], [[0.5844920357990954, -0.5844920357990957]], [[0.584644377283987, -0.5846443772839873]], [[0.5847961981673534, -0.5847961981673537]], [[0.5849475005332473, -0.5849475005332476]], [[0.5850982864549793, -0.5850982864549796]], [[0.5852485579951914, -0.5852485579951917]], [[0.5853983172059306, -0.5853983172059309]], [[0.5855475661287215, -0.5855475661287218]], [[0.5856963067946378, -0.5856963067946381]], [[0.5858445412243742, -0.5858445412243746]], [[0.5859922714283168, -0.5859922714283171]], [[0.5861394994066128, -0.5861394994066131]], [[0.586286227149241, -0.5862862271492412]], [[0.5864324566360793, -0.5864324566360796]], [[0.5865781898369744, -0.5865781898369746]], [[0.5867234287118083, -0.5867234287118085]], [[0.5868681752105659, -0.5868681752105661]], [[0.5870124312734016, -0.587012431273402]], [[0.5871561988307054, -0.5871561988307057]], [[0.5872994798031674, -0.5872994798031678]], [[0.5874422761018437, -0.5874422761018441]], [[0.5875845896282201, -0.5875845896282205]], [[0.5877264222742757, -0.5877264222742761]], [[0.5878677759225465, -0.5878677759225468]], [[0.5880086524461876, -0.5880086524461879]], [[0.5881490537090358, -0.5881490537090361]], [[0.5882889815656707, -0.5882889815656709]], [[0.5884284378614757, -0.5884284378614759]], [[0.5885674244326993, -0.5885674244326995]], [[0.5887059431065141, -0.5887059431065144]], [[0.5888439957010774, -0.5888439957010776]], [[0.588981584025589, -0.5889815840255892]], [[0.5891187098803508, -0.589118709880351]], [[0.5892553750568242, -0.5892553750568245]], [[0.5893915813376882, -0.5893915813376884]], [[0.5895273304968958, -0.589527330496896]], [[0.589662624299731, -0.5896626242997313]], [[0.5897974645028651, -0.5897974645028653]], [[0.5899318528544119, -0.5899318528544121]], [[0.590065791093983, -0.5900657910939834]], [[0.5901992809527432, -0.5901992809527435]], [[0.5903323241534638, -0.5903323241534641]], [[0.5904649224105771, -0.5904649224105774]], [[0.5905970774302295, -0.5905970774302297]], [[0.5907287909103347, -0.5907287909103349]], [[0.590860064540626, -0.5908600645406262]], [[0.5909909000027086, -0.5909909000027088]], [[0.5911212989701112, -0.5911212989701115]], [[0.5912512631083372, -0.5912512631083374]], [[0.5913807940749155, -0.5913807940749157]], [[0.5915098935194512, -0.5915098935194514]], [[0.5916385630836751, -0.5916385630836754]], [[0.591766804401494, -0.5917668044014941]], [[0.5918946190990392, -0.5918946190990392]], [[0.5920220087947157, -0.5920220087947157]], [[0.5921489750992507, -0.5921489750992507]], [[0.5922755196157414, -0.5922755196157415]], [[0.592401643939703, -0.5924016439397031]], [[0.5925273496591151, -0.5925273496591152]], [[0.5926526383544697, -0.5926526383544699]], [[0.592777511598817, -0.5927775115988172]], [[0.5929019709578117, -0.5929019709578119]], [[0.593026017989759, -0.5930260179897592]], [[0.5931496542456595, -0.5931496542456597]], [[0.5932728812692547, -0.5932728812692549]], [[0.5933957005970717, -0.5933957005970719]], [[0.5935181137584672, -0.5935181137584674]], [[0.5936401222756716, -0.5936401222756719]], [[0.5937617276638331, -0.5937617276638333]], [[0.5938829314310601, -0.5938829314310603]], [[0.594003735078465, -0.5940037350784653]], [[0.5941241401002065, -0.5941241401002068]], [[0.5942441479835319, -0.594244147983532]], [[0.5943637602088188, -0.5943637602088188]], [[0.594482978249617, -0.5944829782496172]], [[0.5946018035726903, -0.5946018035726904]], [[0.5947202376380565, -0.5947202376380566]], [[0.5948382818990284, -0.5948382818990285]], [[0.5949559378022549, -0.594955937802255]], [[0.5950732067877599, -0.5950732067877599]], [[0.5951900902889827, -0.5951900902889827]], [[0.5953065897328176, -0.5953065897328176]], [[0.5954227065396522, -0.5954227065396522]], [[0.5955384421234072, -0.5955384421234072]], [[0.5956537978915744, -0.5956537978915744]], [[0.5957687752452546, -0.5957687752452546]], [[0.5958833755791965, -0.5958833755791965]], [[0.5959976002818334, -0.5959976002818334]], [[0.5961114507353211, -0.5961114507353211]], [[0.5962249283155749, -0.596224928315575]], [[0.5963380343923064, -0.5963380343923065]], [[0.5964507703290595, -0.5964507703290596]], [[0.5965631374832475, -0.5965631374832476]], [[0.5966751372061887, -0.5966751372061887]], [[0.5967867708431417, -0.5967867708431417]], [[0.5968980397333414, -0.5968980397333414]], [[0.5970089452100341, -0.5970089452100341]], [[0.597119488600512, -0.597119488600512]], [[0.5972296712261481, -0.5972296712261481]], [[0.5973394944024306, -0.5973394944024306]], [[0.5974489594389971, -0.5974489594389971]], [[0.5975580676396682, -0.5975580676396682]], [[0.5976668203024814, -0.5976668203024814]], [[0.5977752187197242, -0.597775218719724]], [[0.5978832641779672, -0.5978832641779671]], [[0.5979909579580974, -0.5979909579580974]], [[0.5980983013353506, -0.5980983013353506]], [[0.5982052955793433, -0.5982052955793434]], [[0.5983119419541059, -0.598311941954106]], [[0.5984182417181134, -0.5984182417181134]], [[0.5985241961243181, -0.5985241961243181]], [[0.5986298064201804, -0.5986298064201803]], [[0.5987350738477002, -0.5987350738477001]], [[0.5988399996434481, -0.598839999643448]], [[0.598944585038596, -0.5989445850385959]], [[0.5990488312589476, -0.5990488312589475]], [[0.5991527395249684, -0.5991527395249684]], [[0.5992563110518168, -0.5992563110518168]], [[0.5993595470493727, -0.5993595470493727]], [[0.5994624487222681, -0.5994624487222681]], [[0.5995650172699161, -0.5995650172699161]], [[0.5996672538865403, -0.5996672538865404]], [[0.5997691597612039, -0.599769159761204]], [[0.5998707360778383, -0.5998707360778384]], [[0.5999719840152715, -0.5999719840152717]], [[0.6000729047472575, -0.6000729047472576]], [[0.6001734994425031, -0.6001734994425032]], [[0.600273769264697, -0.600273769264697]], [[0.600373715372537, -0.600373715372537]], [[0.600473338919758, -0.600473338919758]], [[0.600572641055159, -0.600572641055159]], [[0.6006716229226307, -0.6006716229226307]], [[0.6007702856611821, -0.6007702856611822]], [[0.6008686304049677, -0.600868630404968]], [[0.6009666582833142, -0.6009666582833144]], [[0.6010643704207462, -0.6010643704207466]], [[0.6011617679370136, -0.6011617679370139]], [[0.6012588519471165, -0.6012588519471168]], [[0.601355623561332, -0.6013556235613323]], [[0.6014520838852395, -0.6014520838852399]], [[0.6015482340197463, -0.6015482340197467]], [[0.601644075061113, -0.6016440750611133]], [[0.6017396081009784, -0.6017396081009787]], [[0.6018348342263851, -0.6018348342263854]], [[0.6019297545198037, -0.601929754519804]], [[0.6020243700591578, -0.6020243700591581]], [[0.6021186819178482, -0.6021186819178486]], [[0.6022126911647778, -0.6022126911647782]], [[0.6023063988643751, -0.6023063988643754]], [[0.6023998060766182, -0.6023998060766186]], [[0.6024929138570594, -0.6024929138570597]], [[0.6025857232568477, -0.602585723256848]], [[0.6026782353227532, -0.6026782353227536]], [[0.6027704510971902, -0.6027704510971905]], [[0.60286237161824, -0.6028623716182403]], [[0.6029539979196742, -0.6029539979196745]], [[0.6030453310309777, -0.6030453310309779]], [[0.603136371977371, -0.6031363719773711]], [[0.6032271217798331, -0.6032271217798332]], [[0.6033175814551236, -0.6033175814551237]], [[0.6034077520158053, -0.6034077520158053]], [[0.6034976344702658, -0.6034976344702658]], [[0.6035872298227398, -0.6035872298227398]], [[0.6036765390733309, -0.6036765390733309]], [[0.6037655632180328, -0.6037655632180328]], [[0.6038543032487513, -0.6038543032487513]], [[0.6039427601533256, -0.6039427601533256]], [[0.604030934915549, -0.604030934915549]], [[0.6041188285151907, -0.6041188285151907]], [[0.6042064419280161, -0.604206441928016]], [[0.6042937761258077, -0.6042937761258076]], [[0.6043808320763862, -0.604380832076386]], [[0.6044676107436303, -0.6044676107436302]], [[0.6045541130874978, -0.6045541130874977]], [[0.6046403400640453, -0.6046403400640452]], [[0.6047262926254484, -0.6047262926254484]], [[0.6048119717200219, -0.6048119717200219]], [[0.6048973782922393, -0.6048973782922393]], [[0.6049825132827529, -0.6049825132827529]], [[0.6050673776284128, -0.6050673776284128]], [[0.605151972262287, -0.605151972262287]], [[0.6052362981136803, -0.6052362981136803]], [[0.6053203561081535, -0.6053203561081535]], [[0.6054041471675427, -0.6054041471675427]], [[0.6054876722099779, -0.6054876722099779]], [[0.6055709321499023, -0.6055709321499023]], [[0.6056539278980906, -0.6056539278980906]], [[0.6057366603616675, -0.6057366603616675]], [[0.6058191304441265, -0.6058191304441265]], [[0.6059013390453479, -0.6059013390453479]], [[0.6059832870616174, -0.6059832870616174]], [[0.6060649753856437, -0.6060649753856437]], [[0.606146404906577, -0.606146404906577]], [[0.6062275765100263, -0.6062275765100263]], [[0.6063084910780777, -0.6063084910780777]], [[0.6063891494893116, -0.6063891494893116]], [[0.6064695526188202, -0.6064695526188202]], [[0.6065497013382256, -0.6065497013382256]], [[0.6066295965156963, -0.6066295965156963]], [[0.6067092390159644, -0.6067092390159644]], [[0.6067886297003434, -0.6067886297003434]], [[0.6068677694267445, -0.6068677694267445]], [[0.6069466590496935, -0.6069466590496935]], [[0.6070252994203479, -0.6070252994203479]], [[0.6071036913865132, -0.6071036913865132]], [[0.6071818357926598, -0.6071818357926598]], [[0.6072597334799391, -0.607259733479939]], [[0.6073373852861998, -0.6073373852861996]], [[0.6074147920460043, -0.6074147920460041]], [[0.6074919545906451, -0.6074919545906449]], [[0.6075688737481599, -0.6075688737481597]], [[0.6076455503433488, -0.6076455503433486]], [[0.607721985197789, -0.6077219851977887]], [[0.607798179129851, -0.6077981791298509]], [[0.6078741329547145, -0.6078741329547144]], [[0.6079498474843832, -0.6079498474843831]], [[0.6080253235277009, -0.6080253235277008]], [[0.6081005618903664, -0.6081005618903663]], [[0.6081755633749492, -0.608175563374949]], [[0.6082503287809039, -0.6082503287809038]], [[0.6083248589045861, -0.608324858904586]], [[0.6083991545392667, -0.6083991545392666]], [[0.6084732164751472, -0.6084732164751471]], [[0.6085470454993741, -0.608547045499374]], [[0.6086206423960538, -0.6086206423960537]], [[0.6086940079462673, -0.6086940079462672]], [[0.6087671429280842, -0.6087671429280841]], [[0.6088400481165779, -0.6088400481165778]], [[0.6089127242838391, -0.608912724283839]], [[0.6089851721989906, -0.6089851721989905]], [[0.6090573926282012, -0.6090573926282011]], [[0.6091293863346999, -0.6091293863346998]], [[0.6092011540787897, -0.6092011540787895]], [[0.6092726966178615, -0.6092726966178613]], [[0.6093440147064082, -0.609344014706408]], [[0.6094151090960379, -0.6094151090960377]], [[0.6094859805354882, -0.609485980535488]], [[0.6095566297706391, -0.6095566297706387]], [[0.6096270575445268, -0.6096270575445264]], [[0.6096972645973573, -0.6096972645973568]], [[0.6097672516665191, -0.6097672516665187]], [[0.6098370194865972, -0.6098370194865967]], [[0.6099065687893855, -0.6099065687893851]], [[0.6099759003039005, -0.6099759003039]], [[0.6100450147563938, -0.6100450147563933]], [[0.6101139128703653, -0.6101139128703649]], [[0.6101825953665762, -0.6101825953665757]], [[0.6102510629630611, -0.6102510629630606]], [[0.6103193163751415, -0.610319316375141]], [[0.6103873563154378, -0.6103873563154374]], [[0.6104551834938823, -0.6104551834938818]], [[0.6105227986177311, -0.6105227986177306]], [[0.610590202391577, -0.6105902023915767]], [[0.6106573955173619, -0.6106573955173615]], [[0.6107243786943882, -0.6107243786943879]], [[0.6107911526193321, -0.6107911526193318]], [[0.6108577179862549, -0.6108577179862545]], [[0.610924075486615, -0.6109240754866146]], [[0.6109902258092805, -0.6109902258092802]], [[0.6110561696405407, -0.6110561696405403]], [[0.6111219076641177, -0.6111219076641173]], [[0.6111874405611785, -0.6111874405611781]], [[0.6112527690103464, -0.6112527690103461]], [[0.611317893687713, -0.6113178936877128]], [[0.6113828152668495, -0.6113828152668493]], [[0.6114475344188178, -0.6114475344188177]], [[0.6115120518121829, -0.6115120518121827]], [[0.6115763681130231, -0.6115763681130229]], [[0.6116404839849419, -0.6116404839849416]], [[0.6117044000890792, -0.611704400089079]], [[0.6117681170841225, -0.6117681170841223]], [[0.6118316356263175, -0.6118316356263173]], [[0.6118949563694798, -0.6118949563694795]], [[0.6119580799650053, -0.6119580799650051]], [[0.6120210070618815, -0.6120210070618812]], [[0.6120837383066978, -0.6120837383066977]], [[0.6121462743436572, -0.6121462743436571]], [[0.6122086158145859, -0.6122086158145857]], [[0.6122707633589445, -0.6122707633589444]], [[0.6123327176138388, -0.6123327176138386]], [[0.6123944792140298, -0.6123944792140296]], [[0.6124560487919446, -0.6124560487919444]], [[0.6125174269776866, -0.6125174269776864]], [[0.6125786143990459, -0.6125786143990457]], [[0.6126396116815095, -0.6126396116815093]], [[0.6127004194482716, -0.6127004194482714]], [[0.6127610383202439, -0.6127610383202436]], [[0.6128214689160654, -0.6128214689160651]], [[0.6128817118521127, -0.6128817118521126]], [[0.6129417677425102, -0.61294176774251]], [[0.6130016371991392, -0.613001637199139]], [[0.613061320831649, -0.6130613208316489]], [[0.6131208192474658, -0.6131208192474656]], [[0.6131801330518026, -0.6131801330518025]], [[0.6132392628476695, -0.6132392628476694]], [[0.6132982092358827, -0.6132982092358825]], [[0.6133569728150745, -0.6133569728150743]], [[0.6134155541817027, -0.6134155541817025]], [[0.6134739539300601, -0.6134739539300599]], [[0.6135321726522842, -0.613532172652284]], [[0.6135902109383662, -0.6135902109383661]], [[0.6136480693761608, -0.6136480693761607]], [[0.613705748551395, -0.6137057485513949]], [[0.6137632490476779, -0.6137632490476778]], [[0.6138205714465094, -0.6138205714465093]], [[0.6138777163272896, -0.6138777163272895]], [[0.6139346842673279, -0.6139346842673278]], [[0.613991475841852, -0.6139914758418519]], [[0.6140480916240169, -0.6140480916240167]], [[0.6141045321849137, -0.6141045321849136]], [[0.6141607980935789, -0.6141607980935788]], [[0.6142168899170029, -0.6142168899170027]], [[0.6142728082201387, -0.6142728082201386]], [[0.6143285535659112, -0.6143285535659111]], [[0.6143841265152253, -0.6143841265152252]], [[0.614439527626975, -0.6144395276269747]], [[0.6144947574580515, -0.6144947574580512]], [[0.6145498165633524, -0.6145498165633521]], [[0.6146047054957898, -0.6146047054957895]], [[0.6146594248062991, -0.6146594248062986]], [[0.6147139750438467, -0.6147139750438463]], [[0.6147683567554395, -0.6147683567554391]], [[0.6148225704861322, -0.6148225704861318]], [[0.6148766167790363, -0.6148766167790358]], [[0.6149304961753278, -0.6149304961753274]], [[0.6149842092142559, -0.6149842092142555]], [[0.6150377564331508, -0.6150377564331504]], [[0.6150911383674321, -0.6150911383674317]], [[0.6151443555506166, -0.6151443555506162]], [[0.6151974085143266, -0.6151974085143261]], [[0.6152502977882974, -0.615250297788297]], [[0.6153030239003859, -0.6153030239003855]], [[0.6153555873765783, -0.6153555873765778]], [[0.6154079887409974, -0.615407988740997]], [[0.6154602285159113, -0.6154602285159109]], [[0.6155123072217406, -0.6155123072217401]], [[0.6155642253770661, -0.6155642253770656]], [[0.615615983498637, -0.6156159834986364]], [[0.615667582101378, -0.6156675821013774]], [[0.6157190216983971, -0.6157190216983965]], [[0.6157703028009935, -0.615770302800993]], [[0.6158214259186647, -0.6158214259186642]], [[0.6158723915591141, -0.6158723915591137]], [[0.6159232002282586, -0.6159232002282582]], [[0.615973852430236, -0.6159738524302355]], [[0.6160243486674121, -0.6160243486674115]], [[0.6160746894403883, -0.6160746894403878]], [[0.6161248752480092, -0.6161248752480086]], [[0.616174906587369, -0.6161749065873683]], [[0.6162247839538194, -0.6162247839538187]], [[0.6162745078409769, -0.6162745078409763]], [[0.6163240787407295, -0.6163240787407288]], [[0.6163734971432439, -0.6163734971432433]], [[0.6164227635369728, -0.6164227635369723]], [[0.6164718784086619, -0.6164718784086615]], [[0.6165208422433567, -0.6165208422433562]], [[0.6165696555244096, -0.6165696555244091]], [[0.6166183187334868, -0.6166183187334864]], [[0.6166668323505755, -0.6166668323505751]], [[0.6167151968539901, -0.6167151968539897]], [[0.6167634127203797, -0.6167634127203793]], [[0.6168114804247345, -0.6168114804247341]], [[0.6168594004403928, -0.6168594004403923]], [[0.6169071732390473, -0.6169071732390469]], [[0.6169547992907525, -0.616954799290752]], [[0.6170022790639306, -0.6170022790639301]], [[0.6170496130253786, -0.6170496130253781]], [[0.6170968016402748, -0.6170968016402744]], [[0.6171438453721853, -0.6171438453721848]], [[0.6171907446830703, -0.6171907446830699]], [[0.6172375000332913, -0.6172375000332908]], [[0.6172841118816166, -0.6172841118816161]], [[0.6173305806852284, -0.617330580685228]], [[0.617376906899729, -0.6173769068997286]], [[0.6174230909791473, -0.6174230909791468]], [[0.6174691333759446, -0.6174691333759441]], [[0.6175150345410216, -0.6175150345410212]], [[0.6175607949237243, -0.6175607949237238]], [[0.6176064149718502, -0.6176064149718496]], [[0.6176518951316545, -0.617651895131654]], [[0.6176972358478565, -0.617697235847856]], [[0.6177424375636456, -0.617742437563645]], [[0.6177875007206871, -0.6177875007206866]], [[0.617832425759129, -0.6178324257591286]], [[0.6178772131176075, -0.617877213117607]], [[0.6179218632332528, -0.6179218632332525]], [[0.6179663765416961, -0.6179663765416957]], [[0.6180107534770741, -0.6180107534770739]], [[0.6180549944720365, -0.6180549944720363]], [[0.6180990999577506, -0.6180990999577504]], [[0.6181430703639079, -0.6181430703639077]], [[0.6181869061187298, -0.6181869061187296]], [[0.6182306076489732, -0.618230607648973]], [[0.6182741753799365, -0.6182741753799362]], [[0.6183176097354653, -0.6183176097354651]], [[0.6183609111379583, -0.6183609111379581]], [[0.6184040800083727, -0.6184040800083724]], [[0.6184471167662299, -0.6184471167662297]], [[0.6184900218296214, -0.6184900218296212]], [[0.6185327956152143, -0.6185327956152141]], [[0.6185754385382569, -0.6185754385382566]], [[0.618617951012584, -0.6186179510125837]], [[0.6186603334506229, -0.6186603334506225]], [[0.6187025862633985, -0.6187025862633982]], [[0.6187447098605392, -0.618744709860539]], [[0.618786704650282, -0.6187867046502817]], [[0.618828571039478, -0.6188285710394777]], [[0.6188703094335979, -0.6188703094335977]], [[0.6189119202367374, -0.6189119202367371]], [[0.6189534038516223, -0.6189534038516221]], [[0.6189947606796143, -0.6189947606796141]], [[0.619035991120716, -0.6190359911207157]], [[0.6190770955735758, -0.6190770955735756]], [[0.619118074435494, -0.6191180744354938]], [[0.6191589281024276, -0.6191589281024273]], [[0.6191996569689949, -0.6191996569689947]], [[0.619240261428482, -0.6192402614284817]], [[0.6192807418728467, -0.6192807418728463]], [[0.6193210986927242, -0.6193210986927239]], [[0.6193613322774324, -0.6193613322774321]], [[0.6194014430149765, -0.6194014430149761]], [[0.6194414312920542, -0.6194414312920539]], [[0.6194812974940611, -0.6194812974940608]], [[0.6195210420050952, -0.6195210420050948]], [[0.619560665207962, -0.6195606652079617]], [[0.61960016748418, -0.6196001674841796]], [[0.6196395492139846, -0.6196395492139841]], [[0.6196788107763339, -0.6196788107763335]], [[0.6197179525489134, -0.6197179525489129]], [[0.6197569749081406, -0.6197569749081402]], [[0.6197958782291701, -0.6197958782291697]], [[0.6198346628858983, -0.6198346628858978]], [[0.6198733292509682, -0.6198733292509677]], [[0.6199118776957742, -0.6199118776957737]], [[0.6199503085904668, -0.6199503085904664]], [[0.6199886223039577, -0.6199886223039572]], [[0.6200268192039239, -0.6200268192039234]], [[0.6200648996568128, -0.6200648996568123]], [[0.6201028640278468, -0.6201028640278463]], [[0.6201407126810277, -0.6201407126810273]], [[0.6201784459791418, -0.6201784459791415]], [[0.6202160642837643, -0.620216064283764]], [[0.6202535679552635, -0.6202535679552632]], [[0.6202909573528059, -0.6202909573528056]], [[0.6203282328343604, -0.6203282328343601]], [[0.620365394756703, -0.6203653947567027]], [[0.6204024434754213, -0.620402443475421]], [[0.6204393793449188, -0.6204393793449183]], [[0.6204762027184194, -0.6204762027184189]], [[0.6205129139479721, -0.6205129139479716]], [[0.6205495133844552, -0.6205495133844546]], [[0.6205860013775805, -0.6205860013775799]], [[0.6206223782758981, -0.6206223782758975]], [[0.6206586444268004, -0.6206586444267999]], [[0.6206948001765268, -0.6206948001765262]], [[0.6207308458701675, -0.620730845870167]], [[0.6207667818516683, -0.6207667818516679]], [[0.6208026084638348, -0.6208026084638344]], [[0.6208383260483362, -0.6208383260483358]], [[0.6208739349457101, -0.6208739349457096]], [[0.6209094354953664, -0.6209094354953659]], [[0.6209448280355916, -0.6209448280355911]], [[0.620980112903553, -0.6209801129035525]], [[0.6210152904353028, -0.6210152904353022]], [[0.6210503609657823, -0.6210503609657816]], [[0.6210853248288258, -0.6210853248288252]], [[0.6211201823571653, -0.6211201823571646]], [[0.6211549338824339, -0.6211549338824333]], [[0.6211895797351703, -0.6211895797351696]], [[0.6212241202448225, -0.6212241202448219]], [[0.6212585557397525, -0.6212585557397519]], [[0.6212928865472394, -0.6212928865472387]], [[0.621327112993484, -0.6213271129934833]], [[0.6213612354036128, -0.6213612354036121]], [[0.6213952541016816, -0.621395254101681]], [[0.6214291694106798, -0.6214291694106793]], [[0.6214629816525342, -0.6214629816525337]], [[0.6214966911481128, -0.6214966911481121]], [[0.6215302982172286, -0.6215302982172279]], [[0.621563803178644, -0.6215638031786433]], [[0.6215972063500741, -0.6215972063500734]], [[0.6216305080481908, -0.6216305080481901]], [[0.6216637085886265, -0.6216637085886259]], [[0.6216968082859782, -0.6216968082859775]], [[0.6217298074538108, -0.6217298074538101]], [[0.6217627064046614, -0.6217627064046607]], [[0.6217955054500426, -0.6217955054500419]], [[0.6218282049004467, -0.621828204900446]], [[0.6218608050653487, -0.621860805065348]], [[0.621893306253211, -0.6218933062532104]], [[0.6219257087714863, -0.6219257087714857]], [[0.6219580129266216, -0.621958012926621]], [[0.6219902190240617, -0.6219902190240612]], [[0.6220223273682532, -0.6220223273682527]], [[0.6220543382626477, -0.6220543382626471]], [[0.6220862520097055, -0.6220862520097049]], [[0.6221180689108994, -0.6221180689108988]], [[0.6221497892667183, -0.6221497892667177]], [[0.6221814133766703, -0.6221814133766698]], [[0.622212941539287, -0.6222129415392864]], [[0.6222443740521262, -0.6222443740521256]], [[0.622275711211776, -0.6222757112117755]], [[0.6223069533138583, -0.6223069533138578]], [[0.622338100653032, -0.6223381006530314]], [[0.6223691535229964, -0.6223691535229958]], [[0.622400112216495, -0.6224001122164945]], [[0.6224309770253191, -0.6224309770253186]], [[0.6224617482403106, -0.6224617482403101]], [[0.6224924261513658, -0.6224924261513652]], [[0.6225230110474388, -0.6225230110474382]], [[0.6225535032165448, -0.6225535032165442]], [[0.6225839029457635, -0.6225839029457629]], [[0.6226142105212426, -0.6226142105212419]], [[0.6226444262282006, -0.6226444262281999]], [[0.6226745503509311, -0.6226745503509304]], [[0.6227045831728052, -0.6227045831728045]], [[0.6227345249762752, -0.6227345249762746]], [[0.6227643760428779, -0.6227643760428773]], [[0.6227941366532377, -0.6227941366532369]], [[0.6228238070870699, -0.6228238070870691]], [[0.6228533876231842, -0.6228533876231834]], [[0.6228828785394878, -0.622882878539487]], [[0.6229122801129882, -0.6229122801129874]], [[0.622941592619797, -0.6229415926197962]], [[0.6229708163351328, -0.6229708163351322]], [[0.6229999515333247, -0.622999951533324]], [[0.6230289984878147, -0.623028998487814]], [[0.6230579574711615, -0.6230579574711609]], [[0.6230868287550438, -0.6230868287550431]], [[0.6231156126102627, -0.6231156126102619]], [[0.6231443093067452, -0.6231443093067445]], [[0.6231729191135478, -0.6231729191135469]], [[0.6232014422988584, -0.6232014422988575]], [[0.6232298791300006, -0.6232298791299996]], [[0.6232582298734359, -0.6232582298734349]], [[0.6232864947947673, -0.6232864947947663]], [[0.6233146741587419, -0.6233146741587409]], [[0.6233427682292542, -0.6233427682292532]], [[0.6233707772693491, -0.6233707772693481]], [[0.6233987015412247, -0.6233987015412237]], [[0.6234265413062355, -0.6234265413062345]], [[0.6234542968248953, -0.6234542968248944]], [[0.62348196835688, -0.6234819683568791]], [[0.6235095561610308, -0.6235095561610299]], [[0.623537060495357, -0.6235370604953561]], [[0.6235644816170389, -0.623564481617038]], [[0.623591819782431, -0.62359181978243]], [[0.6236190752470641, -0.6236190752470631]], [[0.6236462482656492, -0.6236462482656482]], [[0.6236733390920797, -0.6236733390920787]], [[0.6237003479794346, -0.6237003479794336]], [[0.6237272751799813, -0.6237272751799803]], [[0.623754120945178, -0.623754120945177]], [[0.6237808855256771, -0.6237808855256762]], [[0.623807569171328, -0.6238075691713272]], [[0.6238341721311794, -0.6238341721311786]], [[0.6238606946534826, -0.6238606946534818]], [[0.623887136985694, -0.6238871369856932]], [[0.6239134993744779, -0.6239134993744772]], [[0.6239397820657095, -0.6239397820657088]], [[0.6239659853044773, -0.6239659853044766]], [[0.6239921093350861, -0.6239921093350852]], [[0.6240181544010593, -0.6240181544010585]], [[0.6240441207451426, -0.6240441207451417]], [[0.6240700086093054, -0.6240700086093045]], [[0.6240958182347445, -0.6240958182347436]], [[0.6241215498618862, -0.6241215498618853]], [[0.6241472037303892, -0.6241472037303883]], [[0.6241727800791476, -0.6241727800791467]], [[0.6241982791462927, -0.6241982791462918]], [[0.6242237011691965, -0.6242237011691956]], [[0.6242490463844738, -0.6242490463844729]], [[0.6242743150279849, -0.624274315027984]], [[0.6242995073348386, -0.6242995073348377]], [[0.6243246235393942, -0.6243246235393933]], [[0.6243496638752645, -0.6243496638752636]], [[0.6243746285753181, -0.6243746285753172]], [[0.6243995178716824, -0.6243995178716815]], [[0.6244243319957454, -0.6244243319957445]], [[0.6244490711781593, -0.6244490711781584]], [[0.624473735648842, -0.6244737356488411]], [[0.6244983256369803, -0.6244983256369794]], [[0.624522841371032, -0.6245228413710311]], [[0.6245472830787289, -0.624547283078728]], [[0.6245716509870786, -0.6245716509870777]], [[0.6245959453223676, -0.6245959453223668]], [[0.6246201663101637, -0.6246201663101629]], [[0.624644314175318, -0.6246443141753172]], [[0.6246683891419678, -0.624668389141967]], [[0.6246923914335389, -0.6246923914335382]], [[0.6247163212727482, -0.6247163212727475]], [[0.6247401788816058, -0.624740178881605]], [[0.6247639644814176, -0.6247639644814168]], [[0.6247876782927877, -0.6247876782927869]], [[0.6248113205356209, -0.6248113205356202]], [[0.6248348914291251, -0.6248348914291243]], [[0.6248583911918131, -0.6248583911918123]], [[0.6248818200415059, -0.6248818200415052]], [[0.6249051781953345, -0.6249051781953338]], [[0.6249284658697424, -0.6249284658697416]], [[0.6249516832804876, -0.6249516832804868]], [[0.6249748306426454, -0.6249748306426446]], [[0.6249979081706106, -0.6249979081706099]], [[0.6250209160780998, -0.6250209160780992]], [[0.6250438545781537, -0.625043854578153]], [[0.6250667238831391, -0.6250667238831384]], [[0.6250895242047516, -0.625089524204751]], [[0.625112255754018, -0.6251122557540173]], [[0.6251349187412978, -0.6251349187412971]], [[0.6251575133762863, -0.6251575133762857]], [[0.6251800398680166, -0.625180039868016]], [[0.6252024984248614, -0.6252024984248608]], [[0.625224889254536, -0.6252248892545353]], [[0.6252472125640998, -0.6252472125640991]], [[0.6252694685599589, -0.6252694685599584]], [[0.6252916574478685, -0.625291657447868]], [[0.6253137794329346, -0.6253137794329341]], [[0.6253358347196165, -0.6253358347196161]], [[0.625357823511729, -0.6253578235117285]], [[0.6253797460124444, -0.625379746012444]], [[0.6254016024242948, -0.6254016024242943]], [[0.6254233929491742, -0.6254233929491737]], [[0.6254451177883408, -0.6254451177883403]], [[0.6254667771424188, -0.6254667771424184]], [[0.6254883712114012, -0.6254883712114008]], [[0.6255099001946509, -0.6255099001946505]], [[0.6255313642909037, -0.6255313642909033]], [[0.6255527636982702, -0.6255527636982697]], [[0.6255740986142375, -0.6255740986142371]], [[0.6255953692356719, -0.6255953692356715]], [[0.6256165757588207, -0.6256165757588202]], [[0.6256377183793139, -0.6256377183793135]], [[0.625658797292167, -0.6256587972921666]], [[0.6256798126917825, -0.6256798126917821]], [[0.6257007647719524, -0.6257007647719519]], [[0.6257216537258595, -0.6257216537258591]], [[0.6257424797460805, -0.6257424797460801]], [[0.6257632430245872, -0.6257632430245867]], [[0.6257839437527486, -0.6257839437527482]], [[0.6258045821213335, -0.6258045821213329]], [[0.6258251583205118, -0.6258251583205112]], [[0.6258456725398569, -0.6258456725398563]], [[0.6258661249683477, -0.6258661249683471]], [[0.6258865157943704, -0.6258865157943698]], [[0.6259068452057206, -0.6259068452057199]], [[0.625927113389605, -0.6259271133896044]], [[0.6259473205326441, -0.6259473205326435]], [[0.6259674668208732, -0.6259674668208726]], [[0.625987552439745, -0.6259875524397444]], [[0.6260075775741313, -0.6260075775741306]], [[0.6260275424083248, -0.6260275424083241]], [[0.6260474471260415, -0.6260474471260409]], [[0.6260672919104222, -0.6260672919104215]], [[0.6260870769440345, -0.6260870769440339]], [[0.6261068024088747, -0.6261068024088742]], [[0.6261264684863699, -0.6261264684863693]], [[0.6261460753573794, -0.6261460753573789]], [[0.6261656232021974, -0.6261656232021967]], [[0.6261851122005537, -0.6261851122005531]], [[0.626204542531617, -0.6262045425316163]], [[0.6262239143739953, -0.6262239143739946]], [[0.6262432279057389, -0.6262432279057384]], [[0.626262483304342, -0.6262624833043414]], [[0.6262816807467437, -0.6262816807467433]], [[0.6263008204093312, -0.6263008204093308]], [[0.6263199024679404, -0.6263199024679399]], [[0.6263389270978585, -0.6263389270978579]], [[0.6263578944738254, -0.6263578944738247]], [[0.6263768047700358, -0.6263768047700351]], [[0.6263956581601406, -0.62639565816014]], [[0.6264144548172496, -0.6264144548172488]], [[0.6264331949139318, -0.626433194913931]], [[0.6264518786222185, -0.6264518786222177]], [[0.6264705061136047, -0.6264705061136039]], [[0.6264890775590504, -0.6264890775590496]], [[0.626507593128983, -0.6265075931289822]], [[0.6265260529932987, -0.6265260529932979]], [[0.6265444573213643, -0.6265444573213635]], [[0.6265628062820191, -0.6265628062820183]], [[0.6265811000435763, -0.6265811000435755]], [[0.626599338773825, -0.6265993387738242]], [[0.6266175226400321, -0.6266175226400313]], [[0.6266356518089434, -0.6266356518089428]], [[0.6266537264467861, -0.6266537264467854]], [[0.6266717467192696, -0.626671746719269]], [[0.6266897127915881, -0.6266897127915875]], [[0.6267076248284218, -0.6267076248284211]], [[0.6267254829939385, -0.6267254829939378]], [[0.6267432874517955, -0.6267432874517949]], [[0.6267610383651414, -0.6267610383651407]], [[0.6267787358966173, -0.6267787358966167]], [[0.6267963802083589, -0.6267963802083584]], [[0.6268139714619981, -0.6268139714619976]], [[0.6268315098186644, -0.6268315098186639]], [[0.6268489954389868, -0.6268489954389862]], [[0.626866428483095, -0.6268664284830946]], [[0.626883809110622, -0.6268838091106216]], [[0.6269011374807045, -0.6269011374807041]], [[0.6269184137519853, -0.6269184137519849]], [[0.6269356380826148, -0.6269356380826143]], [[0.6269528106302524, -0.626952810630252]], [[0.6269699315520684, -0.6269699315520679]], [[0.6269870010047451, -0.6269870010047447]], [[0.6270040191444791, -0.6270040191444787]], [[0.6270209861269823, -0.6270209861269819]], [[0.6270379021074837, -0.6270379021074832]], [[0.6270547672407307, -0.6270547672407303]], [[0.6270715816809915, -0.627071581680991]], [[0.6270883455820556, -0.6270883455820551]], [[0.6271050590972359, -0.6271050590972354]], [[0.6271217223793702, -0.6271217223793697]], [[0.627138335580823, -0.6271383355808224]], [[0.6271548988534864, -0.6271548988534859]], [[0.6271714123487823, -0.6271714123487816]], [[0.6271878762176633, -0.6271878762176626]], [[0.6272042906106147, -0.627204290610614]], [[0.6272206556776561, -0.6272206556776554]], [[0.6272369715683423, -0.6272369715683416]], [[0.6272532384317655, -0.6272532384317647]], [[0.6272694564165563, -0.6272694564165555]], [[0.6272856256708855, -0.6272856256708846]], [[0.6273017463424654, -0.6273017463424645]], [[0.6273178185785513, -0.6273178185785504]], [[0.6273338425259433, -0.6273338425259424]], [[0.6273498183309872, -0.6273498183309864]], [[0.6273657461395766, -0.6273657461395757]], [[0.6273816260971538, -0.6273816260971529]], [[0.6273974583487114, -0.6273974583487105]], [[0.6274132430387943, -0.6274132430387934]], [[0.6274289803115004, -0.6274289803114995]], [[0.6274446703104823, -0.6274446703104815]], [[0.6274603131789491, -0.6274603131789482]], [[0.6274759090596672, -0.6274759090596663]], [[0.6274914580949622, -0.6274914580949613]], [[0.6275069604267202, -0.6275069604267193]], [[0.627522416196389, -0.6275224161963882]], [[0.62753782554498, -0.6275378255449792]], [[0.6275531886130692, -0.6275531886130683]], [[0.6275685055407987, -0.6275685055407978]], [[0.627583776467878, -0.6275837764678771]], [[0.6275990015335857, -0.6275990015335848]], [[0.6276141808767707, -0.6276141808767698]], [[0.6276293146358533, -0.6276293146358524]], [[0.6276444029488272, -0.6276444029488263]], [[0.6276594459532603, -0.6276594459532594]], [[0.6276744437862964, -0.6276744437862956]], [[0.6276893965846567, -0.6276893965846558]], [[0.6277043044846405, -0.6277043044846397]], [[0.6277191676221272, -0.6277191676221263]], [[0.6277339861325774, -0.6277339861325765]], [[0.6277487601510342, -0.6277487601510333]], [[0.6277634898121247, -0.6277634898121239]], [[0.6277781752500614, -0.6277781752500605]], [[0.627792816598643, -0.6277928165986422]], [[0.6278074139912566, -0.6278074139912557]], [[0.627821967560878, -0.6278219675608772]], [[0.627836477440074, -0.6278364774400731]], [[0.6278509437610029, -0.627850943761002]], [[0.6278653666554164, -0.6278653666554155]], [[0.6278797462546606, -0.6278797462546597]], [[0.6278940826896774, -0.6278940826896765]], [[0.6279083760910057, -0.6279083760910048]], [[0.6279226265887827, -0.627922626588782]], [[0.6279368343127455, -0.6279368343127447]], [[0.6279509993922318, -0.627950999392231]], [[0.6279651219561817, -0.6279651219561809]], [[0.6279792021331387, -0.627979202133138]], [[0.627993240051251, -0.6279932400512502]], [[0.6280072358382729, -0.6280072358382721]], [[0.6280211896215657, -0.628021189621565]], [[0.6280351015280996, -0.6280351015280988]], [[0.6280489716844543, -0.6280489716844535]], [[0.6280628002168206, -0.6280628002168197]], [[0.6280765872510014, -0.6280765872510006]], [[0.6280903329124132, -0.6280903329124125]], [[0.6281040373260873, -0.6281040373260866]], [[0.6281177006166708, -0.62811770061667]], [[0.6281313229084281, -0.6281313229084273]], [[0.6281449043252418, -0.6281449043252411]], [[0.6281584449906144, -0.6281584449906136]], [[0.6281719450276687, -0.6281719450276679]], [[0.6281854045591502, -0.6281854045591494]], [[0.6281988237074271, -0.6281988237074263]], [[0.6282122025944923, -0.6282122025944915]], [[0.6282255413419642, -0.6282255413419634]], [[0.628238840071088, -0.6282388400710872]], [[0.628252098902737, -0.6282520989027363]], [[0.6282653179574137, -0.6282653179574129]], [[0.6282784973552508, -0.62827849735525]], [[0.6282916372160126, -0.6282916372160118]], [[0.6283047376590961, -0.6283047376590953]], [[0.6283177988035323, -0.6283177988035316]], [[0.6283308207679872, -0.6283308207679864]], [[0.6283438036707628, -0.628343803670762]], [[0.6283567476297987, -0.6283567476297979]], [[0.6283696527626728, -0.628369652762672]], [[0.6283825191866027, -0.6283825191866019]], [[0.6283953470184469, -0.6283953470184461]], [[0.6284081363747057, -0.6284081363747049]], [[0.6284208873715226, -0.6284208873715218]], [[0.6284336001246851, -0.6284336001246842]], [[0.6284462747496261, -0.6284462747496252]], [[0.6284589113614251, -0.6284589113614242]], [[0.6284715100748088, -0.628471510074808]], [[0.6284840710041532, -0.6284840710041523]], [[0.6284965942634834, -0.6284965942634825]], [[0.6285090799664758, -0.6285090799664749]], [[0.6285215282264587, -0.6285215282264578]], [[0.6285339391564135, -0.6285339391564126]], [[0.628546312868976, -0.6285463128689751]], [[0.628558649476437, -0.6285586494764361]], [[0.6285709490907438, -0.628570949090743]], [[0.6285832118235013, -0.6285832118235004]], [[0.6285954377859727, -0.6285954377859718]], [[0.628607627089081, -0.6286076270890801]], [[0.62861977984341, -0.6286197798434091]], [[0.628631896159205, -0.6286318961592041]], [[0.6286439761463745, -0.6286439761463735]], [[0.6286560199144905, -0.6286560199144895]], [[0.6286680275727903, -0.6286680275727893]], [[0.6286799992301771, -0.6286799992301761]], [[0.6286919349952214, -0.6286919349952204]], [[0.6287038349761613, -0.6287038349761603]], [[0.6287156992809046, -0.6287156992809037]], [[0.6287275280170292, -0.6287275280170282]], [[0.6287393212917841, -0.6287393212917831]], [[0.6287510792120907, -0.6287510792120897]], [[0.6287628018845437, -0.6287628018845427]], [[0.6287744894154123, -0.6287744894154113]], [[0.6287861419106408, -0.6287861419106398]], [[0.62879775947585, -0.628797759475849]], [[0.6288093422163384, -0.6288093422163374]], [[0.6288208902370828, -0.6288208902370817]], [[0.6288324036427391, -0.628832403642738]], [[0.6288438825376439, -0.6288438825376429]], [[0.6288553270258155, -0.6288553270258145]], [[0.6288667372109543, -0.6288667372109533]], [[0.6288781131964445, -0.6288781131964435]], [[0.6288894550853543, -0.6288894550853533]], [[0.6289007629804378, -0.6289007629804368]], [[0.6289120369841354, -0.6289120369841343]], [[0.6289232771985748, -0.6289232771985737]], [[0.628934483725572, -0.6289344837255709]], [[0.6289456566666328, -0.6289456566666317]], [[0.628956796122953, -0.6289567961229519]], [[0.6289679021954198, -0.6289679021954186]], [[0.6289789749846127, -0.6289789749846116]], [[0.6289900145908046, -0.6289900145908035]], [[0.6290010211139624, -0.6290010211139613]], [[0.6290119946537484, -0.6290119946537472]], [[0.6290229353095207, -0.6290229353095196]], [[0.629033843180335, -0.6290338431803338]], [[0.6290447183649445, -0.6290447183649434]], [[0.6290555609618017, -0.6290555609618007]], [[0.629066371069059, -0.629066371069058]], [[0.6290771487845698, -0.6290771487845688]], [[0.6290878942058888, -0.6290878942058878]], [[0.629098607430274, -0.629098607430273]], [[0.6291092885546867, -0.6291092885546857]], [[0.629119937675793, -0.6291199376757919]], [[0.6291305548899643, -0.6291305548899632]], [[0.6291411402932787, -0.6291411402932776]], [[0.6291516939815215, -0.6291516939815204]], [[0.6291622160501863, -0.6291622160501852]], [[0.6291727065944759, -0.6291727065944748]], [[0.6291831657093032, -0.6291831657093021]], [[0.6291935934892922, -0.629193593489291]], [[0.6292039900287785, -0.6292039900287774]], [[0.6292143554218107, -0.6292143554218096]], [[0.6292246897621512, -0.6292246897621502]], [[0.6292349931432768, -0.6292349931432759]], [[0.62924526565838, -0.6292452656583791]], [[0.6292555074003695, -0.6292555074003686]], [[0.6292657184618713, -0.6292657184618704]], [[0.6292758989352295, -0.6292758989352285]], [[0.6292860489125073, -0.6292860489125063]], [[0.6292961684854876, -0.6292961684854866]], [[0.6293062577456745, -0.6293062577456735]], [[0.6293163167842933, -0.6293163167842922]], [[0.6293263456922921, -0.629326345692291]], [[0.6293363445603422, -0.629336344560341]], [[0.6293463134788391, -0.629346313478838]], [[0.6293562525379035, -0.6293562525379025]], [[0.6293661618273823, -0.6293661618273813]], [[0.6293760414368487, -0.6293760414368477]], [[0.6293858914556038, -0.6293858914556028]], [[0.6293957119726773, -0.6293957119726763]], [[0.6294055030768282, -0.6294055030768272]], [[0.6294152648565455, -0.6294152648565445]], [[0.6294249974000496, -0.6294249974000485]], [[0.6294347007952924, -0.6294347007952913]], [[0.6294443751299587, -0.6294443751299575]], [[0.6294540204914667, -0.6294540204914656]], [[0.6294636369669692, -0.629463636966968]], [[0.6294732246433539, -0.6294732246433528]], [[0.6294827836072447, -0.6294827836072436]], [[0.6294923139450025, -0.6294923139450014]], [[0.6295018157427255, -0.6295018157427243]], [[0.6295112890862504, -0.6295112890862493]], [[0.6295207340611535, -0.6295207340611524]], [[0.6295301507527509, -0.6295301507527498]], [[0.6295395392460996, -0.6295395392460986]], [[0.6295488996259986, -0.6295488996259976]], [[0.629558231976989, -0.629558231976988]], [[0.6295675363833555, -0.6295675363833545]], [[0.6295768129291268, -0.6295768129291258]], [[0.6295860616980765, -0.6295860616980755]], [[0.6295952827737239, -0.6295952827737229]], [[0.6296044762393347, -0.6296044762393337]], [[0.6296136421779218, -0.6296136421779208]], [[0.6296227806722465, -0.6296227806722455]], [[0.6296318918048186, -0.6296318918048176]], [[0.6296409756578977, -0.6296409756578966]], [[0.6296500323134935, -0.6296500323134924]], [[0.6296590618533672, -0.6296590618533661]], [[0.6296680643590317, -0.6296680643590306]], [[0.6296770399117526, -0.6296770399117516]], [[0.6296859885925492, -0.6296859885925483]], [[0.629694910482195, -0.629694910482194]], [[0.629703805661218, -0.629703805661217]], [[0.6297126742099025, -0.6297126742099014]], [[0.6297215162082891, -0.629721516208288]], [[0.6297303317361755, -0.6297303317361744]], [[0.6297391208731179, -0.6297391208731167]], [[0.6297478836984306, -0.6297478836984294]], [[0.629756620291188, -0.6297566202911866]], [[0.6297653307302242, -0.6297653307302229]], [[0.6297740150941348, -0.6297740150941334]], [[0.6297826734612768, -0.6297826734612755]], [[0.62979130590977, -0.6297913059097686]], [[0.6297999125174969, -0.6297999125174956]], [[0.6298084933621043, -0.629808493362103]], [[0.6298170485210036, -0.6298170485210023]], [[0.6298255780713716, -0.6298255780713703]], [[0.6298340820901512, -0.6298340820901499]], [[0.6298425606540521, -0.6298425606540508]], [[0.6298510138395516, -0.6298510138395502]], [[0.6298594417228952, -0.6298594417228939]], [[0.6298678443800976, -0.6298678443800962]], [[0.6298762218869429, -0.6298762218869416]], [[0.629884574318986, -0.6298845743189847]], [[0.6298929017515527, -0.6298929017515513]], [[0.6299012042597404, -0.6299012042597391]], [[0.6299094819184196, -0.6299094819184182]], [[0.6299177348022335, -0.6299177348022321]], [[0.6299259629855996, -0.6299259629855982]], [[0.6299341665427098, -0.6299341665427085]], [[0.6299423455475317, -0.6299423455475304]], [[0.6299505000738085, -0.6299505000738072]], [[0.6299586301950603, -0.6299586301950589]], [[0.6299667359845845, -0.6299667359845832]], [[0.629974817515457, -0.6299748175154557]], [[0.6299828748605321, -0.6299828748605307]], [[0.6299909080924434, -0.6299909080924421]], [[0.629998917283605, -0.6299989172836037]], [[0.6300069025062118, -0.6300069025062105]], [[0.63001486383224, -0.6300148638322387]], [[0.6300228013334481, -0.6300228013334468]], [[0.6300307150813773, -0.630030715081376]], [[0.6300386051473524, -0.6300386051473511]], [[0.6300464716024825, -0.6300464716024812]], [[0.6300543145176614, -0.63005431451766]], [[0.6300621339635682, -0.6300621339635669]], [[0.6300699300106686, -0.6300699300106672]], [[0.6300777027292147, -0.6300777027292134]], [[0.6300854521892465, -0.630085452189245]], [[0.6300931784605917, -0.6300931784605902]], [[0.6301008816128669, -0.6301008816128655]], [[0.6301085617154785, -0.630108561715477]], [[0.6301162188376225, -0.630116218837621]], [[0.6301238530482858, -0.6301238530482844]], [[0.6301314644162468, -0.6301314644162455]], [[0.6301390530100757, -0.6301390530100743]], [[0.6301466188981354, -0.6301466188981342]], [[0.6301541621485823, -0.6301541621485811]], [[0.6301616828293665, -0.6301616828293654]], [[0.6301691810082326, -0.6301691810082315]], [[0.6301766567527206, -0.6301766567527195]], [[0.6301841101301663, -0.6301841101301652]], [[0.6301915412077017, -0.6301915412077006]], [[0.6301989500522561, -0.630198950052255]], [[0.6302063367305565, -0.6302063367305554]], [[0.6302137013091281, -0.630213701309127]], [[0.6302210438542951, -0.630221043854294]], [[0.6302283644321812, -0.6302283644321801]], [[0.6302356631087104, -0.6302356631087093]], [[0.6302429399496072, -0.6302429399496061]], [[0.6302501950203979, -0.6302501950203968]], [[0.6302574283864105, -0.6302574283864094]], [[0.6302646401127757, -0.6302646401127746]], [[0.6302718302644275, -0.6302718302644263]], [[0.6302789989061035, -0.6302789989061024]], [[0.630286146102346, -0.6302861461023449]], [[0.6302932719175022, -0.6302932719175011]], [[0.6303003764157248, -0.6303003764157237]], [[0.6303074596609728, -0.6303074596609717]], [[0.6303145217170122, -0.6303145217170111]], [[0.6303215626474161, -0.630321562647415]], [[0.6303285825155659, -0.6303285825155648]], [[0.6303355813846513, -0.6303355813846502]], [[0.6303425593176714, -0.6303425593176702]], [[0.6303495163774349, -0.6303495163774337]], [[0.6303564526265608, -0.6303564526265597]], [[0.6303633681274793, -0.6303633681274782]], [[0.6303702629424318, -0.6303702629424307]], [[0.630377137133472, -0.6303771371334709]], [[0.6303839907624661, -0.6303839907624649]], [[0.6303908238910935, -0.6303908238910922]], [[0.6303976365808475, -0.6303976365808462]], [[0.6304044288930357, -0.6304044288930345]], [[0.6304112008887809, -0.6304112008887797]], [[0.630417952629021, -0.6304179526290198]], [[0.6304246841745103, -0.630424684174509]], [[0.6304313955858194, -0.6304313955858182]], [[0.6304380869233365, -0.6304380869233353]], [[0.6304447582472672, -0.630444758247266]], [[0.6304514096176357, -0.6304514096176344]], [[0.6304580410942847, -0.6304580410942834]], [[0.6304646527368768, -0.6304646527368755]], [[0.6304712446048941, -0.6304712446048928]], [[0.6304778167576397, -0.6304778167576384]], [[0.6304843692542373, -0.630484369254236]], [[0.6304909021536326, -0.6304909021536312]], [[0.6304974155145933, -0.6304974155145919]], [[0.6305039093957097, -0.6305039093957083]], [[0.6305103838553955, -0.6305103838553943]], [[0.6305168389518883, -0.630516838951887]], [[0.6305232747432499, -0.6305232747432487]], [[0.6305296912873669, -0.6305296912873657]], [[0.6305360886419515, -0.6305360886419502]], [[0.6305424668645417, -0.6305424668645403]], [[0.630548826012502, -0.6305488260125005]], [[0.6305551661430236, -0.6305551661430222]], [[0.630561487313126, -0.6305614873131246]], [[0.6305677895796561, -0.6305677895796546]], [[0.6305740729992895, -0.630574072999288]], [[0.630580337628531, -0.6305803376285296]], [[0.6305865835237152, -0.6305865835237138]], [[0.6305928107410065, -0.630592810741005]], [[0.6305990193364002, -0.6305990193363987]], [[0.6306052093657226, -0.6306052093657212]], [[0.630611380884632, -0.6306113808846305]], [[0.6306175339486185, -0.6306175339486171]], [[0.6306236686130053, -0.6306236686130039]], [[0.6306297849329486, -0.6306297849329473]], [[0.6306358829634385, -0.6306358829634372]], [[0.6306419627592994, -0.630641962759298]], [[0.6306480243751902, -0.6306480243751887]], [[0.6306540678656052, -0.6306540678656037]], [[0.6306600932848746, -0.6306600932848732]], [[0.6306661006871647, -0.6306661006871632]], [[0.6306720901264785, -0.6306720901264771]], [[0.6306780616566565, -0.6306780616566551]], [[0.630684015331377, -0.6306840153313755]], [[0.6306899512041562, -0.6306899512041547]], [[0.6306958693283492, -0.6306958693283478]], [[0.6307017697571505, -0.6307017697571491]], [[0.6307076525435943, -0.6307076525435928]], [[0.6307135177405547, -0.6307135177405533]], [[0.630719365400747, -0.6307193654007456]], [[0.6307251955767273, -0.6307251955767259]], [[0.6307310083208937, -0.6307310083208922]], [[0.6307368036854861, -0.6307368036854847]], [[0.6307425817225873, -0.6307425817225859]], [[0.6307483424841231, -0.6307483424841217]], [[0.630754086021863, -0.6307540860218617]], [[0.6307598123874205, -0.6307598123874192]], [[0.6307655216322536, -0.6307655216322523]], [[0.6307712138076655, -0.6307712138076642]], [[0.6307768889648048, -0.6307768889648034]], [[0.630782547154666, -0.6307825471546645]], [[0.63078818842809, -0.6307881884280886]], [[0.6307938128357649, -0.6307938128357634]], [[0.6307994204282257, -0.6307994204282242]], [[0.6308050112558556, -0.6308050112558542]], [[0.6308105853688862, -0.6308105853688848]], [[0.6308161428173975, -0.6308161428173961]], [[0.6308216836513189, -0.6308216836513174]], [[0.6308272079204293, -0.6308272079204278]], [[0.6308327156743581, -0.6308327156743565]], [[0.6308382069625849, -0.6308382069625833]], [[0.6308436818344406, -0.6308436818344391]], [[0.6308491403391077, -0.6308491403391061]], [[0.6308545825256202, -0.6308545825256187]], [[0.630860008442865, -0.6308600084428634]], [[0.6308654181395816, -0.63086541813958]], [[0.6308708116643629, -0.6308708116643611]], [[0.6308761890656552, -0.6308761890656535]], [[0.6308815503917595, -0.6308815503917578]], [[0.6308868956908312, -0.6308868956908295]], [[0.6308922250108808, -0.630892225010879]], [[0.6308975383997742, -0.6308975383997725]], [[0.6309028359052335, -0.6309028359052318]], [[0.630908117574837, -0.6309081175748352]], [[0.6309133834560198, -0.6309133834560181]], [[0.6309186335960744, -0.6309186335960728]], [[0.630923868042151, -0.6309238680421495]], [[0.6309290868412579, -0.6309290868412564]], [[0.630934290040262, -0.6309342900402604]], [[0.630939477685889, -0.6309394776858873]], [[0.6309446498247242, -0.6309446498247225]], [[0.6309498065032128, -0.6309498065032111]], [[0.6309549477676601, -0.6309549477676585]], [[0.6309600736642323, -0.6309600736642307]], [[0.6309651842389565, -0.630965184238955]], [[0.6309702795377216, -0.63097027953772]], [[0.6309753596062782, -0.6309753596062766]], [[0.6309804244902394, -0.6309804244902378]], [[0.6309854742350812, -0.6309854742350798]], [[0.6309905088861428, -0.6309905088861414]], [[0.6309955284886269, -0.6309955284886255]], [[0.6310005330876004, -0.631000533087599]], [[0.6310055227279945, -0.6310055227279929]], [[0.6310104974546052, -0.6310104974546037]], [[0.6310154573120942, -0.6310154573120926]], [[0.6310204023449885, -0.6310204023449869]], [[0.6310253325976813, -0.6310253325976798]], [[0.6310302481144325, -0.631030248114431]], [[0.6310351489393687, -0.6310351489393672]], [[0.6310400351164839, -0.6310400351164824]], [[0.6310449066896398, -0.6310449066896383]], [[0.631049763702566, -0.6310497637025646]], [[0.6310546061988612, -0.6310546061988597]], [[0.6310594342219924, -0.6310594342219908]], [[0.6310642478152962, -0.6310642478152947]], [[0.631069047021979, -0.6310690470219774]], [[0.631073831885117, -0.6310738318851155]], [[0.6310786024476573, -0.6310786024476558]], [[0.6310833587524177, -0.6310833587524162]], [[0.6310881008420871, -0.6310881008420857]], [[0.6310928287592265, -0.631092828759225]], [[0.6310975425462685, -0.631097542546267]], [[0.6311022422455185, -0.631102242245517]], [[0.6311069278991546, -0.6311069278991531]], [[0.6311115995492281, -0.6311115995492267]], [[0.6311162572376641, -0.6311162572376627]], [[0.6311209010062615, -0.6311209010062602]], [[0.6311255308966937, -0.6311255308966923]], [[0.6311301469505087, -0.6311301469505074]], [[0.6311347492091298, -0.6311347492091285]], [[0.6311393377138558, -0.6311393377138544]], [[0.6311439125058612, -0.6311439125058599]], [[0.631148473626197, -0.6311484736261957]], [[0.6311530211157907, -0.6311530211157895]], [[0.6311575550154471, -0.6311575550154459]], [[0.631162075365848, -0.6311620753658468]], [[0.6311665822075532, -0.631166582207552]], [[0.6311710755810004, -0.6311710755809993]], [[0.6311755555265062, -0.631175555526505]], [[0.6311800220842657, -0.6311800220842645]], [[0.6311844752943534, -0.6311844752943522]], [[0.6311889151967235, -0.6311889151967222]], [[0.6311933418312099, -0.6311933418312085]], [[0.631197755237527, -0.6311977552375255]], [[0.6312021554552699, -0.6312021554552685]], [[0.6312065425239147, -0.6312065425239133]], [[0.631210916482819, -0.6312109164828176]], [[0.6312152773712222, -0.6312152773712207]], [[0.6312196252282456, -0.6312196252282442]], [[0.6312239600928933, -0.6312239600928918]], [[0.631228282004052, -0.6312282820040506]], [[0.6312325910004917, -0.6312325910004902]], [[0.6312368871208659, -0.6312368871208645]], [[0.6312411704037121, -0.6312411704037106]], [[0.6312454408874519, -0.6312454408874505]], [[0.6312496986103919, -0.6312496986103905]], [[0.6312539436107232, -0.6312539436107217]], [[0.6312581759265222, -0.6312581759265209]], [[0.6312623955957515, -0.6312623955957501]], [[0.631266602656259, -0.6312666026562577]], [[0.6312707971457795, -0.6312707971457782]], [[0.6312749791019341, -0.6312749791019328]], [[0.6312791485622311, -0.6312791485622298]], [[0.6312833055640663, -0.631283305564065]], [[0.631287450144723, -0.6312874501447217]], [[0.6312915823413725, -0.6312915823413713]], [[0.6312957021910748, -0.6312957021910736]], [[0.6312998097307784, -0.6312998097307772]], [[0.6313039049973208, -0.6313039049973196]], [[0.6313079880274293, -0.631307988027428]], [[0.6313120588577203, -0.6313120588577191]], [[0.6313161175247008, -0.6313161175246996]], [[0.6313201640647681, -0.6313201640647669]], [[0.6313241985142101, -0.6313241985142087]], [[0.6313282209092057, -0.6313282209092044]], [[0.6313322312858254, -0.631332231285824]], [[0.6313362296800312, -0.6313362296800299]], [[0.6313402161276774, -0.6313402161276761]], [[0.6313441906645106, -0.6313441906645093]], [[0.63134815332617, -0.6313481533261687]], [[0.6313521041481879, -0.6313521041481865]], [[0.6313560431659898, -0.6313560431659885]], [[0.6313599704148952, -0.6313599704148938]], [[0.6313638859301173, -0.6313638859301157]], [[0.6313677897467636, -0.631367789746762]], [[0.6313716818998364, -0.6313716818998348]], [[0.6313755624242329, -0.6313755624242313]], [[0.6313794313547455, -0.631379431354744]], [[0.6313832887260622, -0.6313832887260606]], [[0.6313871345727671, -0.6313871345727655]], [[0.6313909689293401, -0.6313909689293385]], [[0.6313947918301581, -0.6313947918301566]], [[0.6313986033094945, -0.6313986033094929]], [[0.63140240340152, -0.6314024034015184]], [[0.6314061921403027, -0.6314061921403011]], [[0.6314099695598084, -0.6314099695598069]], [[0.6314137356939012, -0.6314137356938997]], [[0.6314174905763436, -0.631417490576342]], [[0.6314212342407963, -0.6314212342407948]], [[0.6314249667208197, -0.6314249667208182]], [[0.631428688049873, -0.6314286880498714]], [[0.6314323982613151, -0.6314323982613136]], [[0.6314360973884051, -0.6314360973884037]], [[0.631439785464302, -0.6314397854643006]], [[0.6314434625220655, -0.6314434625220641]], [[0.631447128594656, -0.6314471285946546]], [[0.6314507837149351, -0.6314507837149337]], [[0.6314544279156658, -0.6314544279156643]], [[0.6314580612295126, -0.6314580612295112]], [[0.6314616836890425, -0.631461683689041]], [[0.6314652953267244, -0.6314652953267228]], [[0.6314688961749297, -0.6314688961749282]], [[0.6314724862659331, -0.6314724862659316]], [[0.6314760656319123, -0.6314760656319107]], [[0.6314796343049484, -0.6314796343049468]], [[0.6314831923170263, -0.6314831923170248]], [[0.6314867397000352, -0.6314867397000337]], [[0.6314902764857683, -0.6314902764857667]], [[0.6314938027059236, -0.631493802705922]], [[0.6314973183921041, -0.6314973183921025]], [[0.6315008235758179, -0.6315008235758164]], [[0.6315043182884787, -0.6315043182884771]], [[0.6315078025614059, -0.6315078025614043]], [[0.6315112764258249, -0.6315112764258233]], [[0.6315147399128677, -0.631514739912866]], [[0.6315181930535726, -0.6315181930535709]], [[0.6315216358788852, -0.6315216358788835]], [[0.6315250684196579, -0.6315250684196563]], [[0.6315284907066511, -0.6315284907066494]], [[0.6315319027705323, -0.6315319027705306]], [[0.6315353046418775, -0.6315353046418758]], [[0.6315386963511709, -0.6315386963511692]], [[0.6315420779288052, -0.6315420779288037]], [[0.6315454494050823, -0.6315454494050807]], [[0.6315488108102126, -0.6315488108102112]], [[0.6315521621743166, -0.6315521621743152]], [[0.6315555035274241, -0.6315555035274227]], [[0.6315588348994748, -0.6315588348994735]], [[0.6315621563203191, -0.6315621563203178]], [[0.6315654678197172, -0.631565467819716]], [[0.6315687694273407, -0.6315687694273395]], [[0.631572061172772, -0.6315720611727708]], [[0.6315753430855047, -0.6315753430855034]], [[0.631578615194944, -0.6315786151949427]], [[0.6315818775304071, -0.6315818775304058]], [[0.6315851301211233, -0.631585130121122]], [[0.631588372996234, -0.6315883729962328]], [[0.6315916061847937, -0.6315916061847925]], [[0.6315948297157694, -0.6315948297157682]], [[0.6315980436180414, -0.6315980436180402]], [[0.6316012479204034, -0.6316012479204022]], [[0.6316044426515629, -0.6316044426515617]], [[0.6316076278401412, -0.63160762784014]], [[0.6316108035146739, -0.6316108035146727]], [[0.631613969703611, -0.6316139697036097]], [[0.6316171264353171, -0.631617126435316]], [[0.6316202737380722, -0.6316202737380711]], [[0.6316234116400711, -0.63162341164007]], [[0.6316265401694243, -0.6316265401694232]], [[0.631629659354158, -0.6316296593541569]], [[0.6316327692222145, -0.6316327692222133]], [[0.6316358698014519, -0.6316358698014509]], [[0.6316389611196456, -0.6316389611196446]], [[0.631642043204487, -0.631642043204486]], [[0.631645116083585, -0.631645116083584]], [[0.6316481797844655, -0.6316481797844644]], [[0.631651234334572, -0.6316512343345709]], [[0.6316542797612658, -0.6316542797612646]], [[0.6316573160918258, -0.6316573160918247]], [[0.6316603433534499, -0.6316603433534488]], [[0.6316633615732539, -0.6316633615732528]], [[0.6316663707782725, -0.6316663707782714]], [[0.6316693709954594, -0.6316693709954584]], [[0.6316723622516877, -0.6316723622516867]], [[0.6316753445737496, -0.6316753445737486]], [[0.6316783179883574, -0.6316783179883564]], [[0.6316812825221431, -0.6316812825221421]], [[0.6316842382016589, -0.6316842382016579]], [[0.6316871850533776, -0.6316871850533766]], [[0.6316901231036927, -0.6316901231036917]], [[0.6316930523789183, -0.6316930523789173]], [[0.6316959729052899, -0.6316959729052889]], [[0.6316988847089644, -0.6316988847089634]], [[0.6317017878160204, -0.6317017878160194]], [[0.6317046822524581, -0.6317046822524571]], [[0.6317075680442, -0.631707568044199]], [[0.6317104452170909, -0.6317104452170899]], [[0.6317133137968981, -0.6317133137968971]], [[0.6317161738093119, -0.6317161738093108]], [[0.6317190252799453, -0.6317190252799442]], [[0.6317218682343348, -0.6317218682343337]], [[0.6317247026979405, -0.6317247026979393]], [[0.6317275286961459, -0.6317275286961447]], [[0.6317303462542587, -0.6317303462542574]], [[0.6317331553975107, -0.6317331553975094]], [[0.6317359561510582, -0.6317359561510568]], [[0.6317387485399818, -0.6317387485399806]], [[0.6317415325892876, -0.6317415325892863]], [[0.6317443083239062, -0.6317443083239049]], [[0.6317470757686937, -0.6317470757686925]], [[0.631749834948432, -0.6317498349484308]], [[0.6317525858878283, -0.6317525858878273]], [[0.6317553286115164, -0.6317553286115154]], [[0.6317580631440557, -0.6317580631440547]], [[0.6317607895099324, -0.6317607895099314]], [[0.6317635077335593, -0.6317635077335583]], [[0.6317662178392759, -0.6317662178392749]], [[0.631768919851349, -0.631768919851348]], [[0.6317716137939726, -0.6317716137939716]], [[0.6317742996912683, -0.6317742996912673]], [[0.6317769775672855, -0.6317769775672845]], [[0.6317796474460015, -0.6317796474460003]], [[0.6317823093513216, -0.6317823093513205]], [[0.6317849633070799, -0.6317849633070788]], [[0.6317876093370388, -0.6317876093370377]], [[0.6317902474648898, -0.6317902474648887]], [[0.6317928777142531, -0.631792877714252]], [[0.6317955001086785, -0.6317955001086774]], [[0.631798114671645, -0.6317981146716439]], [[0.6318007214265615, -0.6318007214265604]], [[0.6318033203967668, -0.6318033203967657]], [[0.6318059116055296, -0.6318059116055285]], [[0.631808495076049, -0.6318084950760479]], [[0.6318110708314547, -0.6318110708314536]], [[0.6318136388948071, -0.631813638894806]], [[0.6318161992890976, -0.6318161992890965]], [[0.6318187520372487, -0.6318187520372475]], [[0.6318212971621141, -0.6318212971621129]], [[0.6318238346864794, -0.6318238346864782]], [[0.6318263646330617, -0.6318263646330605]], [[0.6318288870245102, -0.631828887024509]], [[0.6318314018834063, -0.631831401883405]], [[0.6318339092322636, -0.6318339092322623]], [[0.6318364090935285, -0.6318364090935272]], [[0.6318389014895801, -0.6318389014895789]], [[0.6318413864427306, -0.6318413864427294]], [[0.6318438639752251, -0.6318438639752239]], [[0.6318463341092424, -0.6318463341092412]], [[0.6318487968668949, -0.6318487968668935]], [[0.6318512522702284, -0.6318512522702271]], [[0.6318537003412233, -0.6318537003412219]], [[0.6318561411017937, -0.6318561411017922]], [[0.6318585745737882, -0.6318585745737868]], [[0.6318610007789902, -0.6318610007789888]], [[0.6318634197391176, -0.6318634197391162]], [[0.6318658314758235, -0.6318658314758221]], [[0.6318682360106961, -0.6318682360106946]], [[0.6318706333652588, -0.6318706333652574]], [[0.6318730235609709, -0.6318730235609695]], [[0.6318754066192271, -0.6318754066192258]], [[0.6318777825613584, -0.6318777825613571]], [[0.6318801514086316, -0.6318801514086303]], [[0.6318825131822502, -0.6318825131822489]], [[0.6318848679033539, -0.6318848679033525]], [[0.6318872155930192, -0.6318872155930179]], [[0.6318895562722596, -0.6318895562722583]], [[0.6318918899620257, -0.6318918899620244]], [[0.6318942166832053, -0.631894216683204]], [[0.6318965364566238, -0.6318965364566225]], [[0.6318988493030441, -0.6318988493030427]], [[0.6319011552431669, -0.6319011552431656]], [[0.6319034542976312, -0.6319034542976298]], [[0.631905746487014, -0.6319057464870127]], [[0.6319080318318309, -0.6319080318318295]], [[0.6319103103525359, -0.6319103103525345]], [[0.6319125820695218, -0.6319125820695205]], [[0.6319148470031205, -0.6319148470031192]], [[0.631917105173603, -0.6319171051736017]], [[0.6319193566011795, -0.6319193566011782]], [[0.6319216013059997, -0.6319216013059984]], [[0.6319238393081533, -0.631923839308152]], [[0.6319260706276696, -0.6319260706276683]], [[0.631928295284518, -0.6319282952845166]], [[0.631930513298608, -0.6319305132986066]], [[0.6319327246897899, -0.6319327246897884]], [[0.6319349294778541, -0.6319349294778527]], [[0.6319371276825323, -0.6319371276825307]], [[0.6319393193234966, -0.631939319323495]], [[0.6319415044203606, -0.631941504420359]], [[0.631943682992679, -0.6319436829926774]], [[0.6319458550599483, -0.6319458550599467]], [[0.6319480206416062, -0.6319480206416046]], [[0.6319501797570325, -0.6319501797570309]], [[0.6319523324255489, -0.6319523324255474]], [[0.6319544786664195, -0.631954478666418]], [[0.6319566184988504, -0.6319566184988489]], [[0.6319587519419906, -0.631958751941989]], [[0.6319608790149314, -0.6319608790149298]], [[0.6319629997367072, -0.6319629997367057]], [[0.6319651141262956, -0.631965114126294]], [[0.631967222202617, -0.6319672222026154]], [[0.6319693239845355, -0.6319693239845339]], [[0.6319714194908587, -0.631971419490857]], [[0.6319735087403376, -0.6319735087403361]], [[0.6319755917516677, -0.6319755917516662]], [[0.6319776685434881, -0.6319776685434866]], [[0.6319797391343823, -0.6319797391343808]], [[0.631981803542878, -0.6319818035428766]], [[0.6319838617874478, -0.6319838617874464]], [[0.6319859138865087, -0.6319859138865073]], [[0.6319879598584227, -0.6319879598584213]], [[0.6319899997214969, -0.6319899997214955]], [[0.6319920334939837, -0.6319920334939823]], [[0.6319940611940806, -0.6319940611940792]], [[0.631996082839931, -0.6319960828399297]], [[0.6319980984496238, -0.6319980984496225]], [[0.6320001080411939, -0.6320001080411927]], [[0.6320021116326222, -0.6320021116326209]], [[0.6320041092418357, -0.6320041092418344]], [[0.6320061008867078, -0.6320061008867065]], [[0.6320080865850586, -0.6320080865850572]], [[0.6320100663546546, -0.6320100663546533]], [[0.6320120402132093, -0.632012040213208]], [[0.6320140081783834, -0.632014008178382]], [[0.6320159702677843, -0.632015970267783]], [[0.6320179264989672, -0.6320179264989658]], [[0.6320198768894344, -0.6320198768894331]], [[0.6320218214566361, -0.6320218214566348]], [[0.6320237602179701, -0.6320237602179689]], [[0.6320256931907824, -0.6320256931907812]], [[0.6320276203923668, -0.6320276203923657]], [[0.6320295418399657, -0.6320295418399646]], [[0.6320314575507696, -0.6320314575507686]], [[0.6320333675419177, -0.6320333675419169]], [[0.6320352718304981, -0.6320352718304972]], [[0.6320371704335475, -0.6320371704335466]], [[0.6320390633680517, -0.6320390633680508]], [[0.6320409506509458, -0.632040950650945]], [[0.6320428322991142, -0.6320428322991134]], [[0.6320447083293907, -0.63204470832939]], [[0.632046578758559, -0.6320465787585582]], [[0.6320484436033522, -0.6320484436033514]], [[0.6320503028804537, -0.6320503028804529]], [[0.6320521566064967, -0.6320521566064959]], [[0.632054004798065, -0.6320540047980642]], [[0.6320558474716924, -0.6320558474716916]], [[0.6320576846438636, -0.6320576846438627]], [[0.6320595163310136, -0.6320595163310128]], [[0.6320613425495287, -0.6320613425495278]], [[0.6320631633157459, -0.632063163315745]], [[0.6320649786459532, -0.6320649786459523]], [[0.6320667885563903, -0.6320667885563894]], [[0.6320685930632479, -0.632068593063247]], [[0.6320703921826687, -0.6320703921826677]], [[0.6320721859307467, -0.6320721859307457]], [[0.6320739743235279, -0.6320739743235269]], [[0.6320757573770104, -0.6320757573770094]], [[0.6320775351071444, -0.6320775351071434]], [[0.6320793075298324, -0.6320793075298314]], [[0.6320810746609294, -0.6320810746609284]], [[0.6320828365162429, -0.6320828365162419]], [[0.6320845931115329, -0.6320845931115319]], [[0.6320863444625127, -0.6320863444625117]], [[0.6320880905848483, -0.6320880905848473]], [[0.632089831494159, -0.632089831494158]], [[0.6320915672060173, -0.6320915672060163]], [[0.6320932977359492, -0.6320932977359482]], [[0.6320950230994342, -0.6320950230994332]], [[0.6320967433119056, -0.6320967433119046]], [[0.6320984583887503, -0.6320984583887492]], [[0.6321001683453095, -0.6321001683453084]], [[0.6321018731968782, -0.632101873196877]], [[0.6321035729587059, -0.6321035729587049]], [[0.6321052676459965, -0.6321052676459955]], [[0.6321069572739083, -0.6321069572739073]], [[0.6321086418575543, -0.6321086418575533]], [[0.6321103214120024, -0.6321103214120014]], [[0.6321119959522753, -0.6321119959522743]], [[0.6321136654933508, -0.6321136654933498]], [[0.6321153300501621, -0.6321153300501611]], [[0.6321169896375974, -0.6321169896375964]], [[0.6321186442705007, -0.6321186442704997]], [[0.6321202939636714, -0.6321202939636704]], [[0.6321219387318648, -0.6321219387318638]], [[0.632123578589792, -0.632123578589791]], [[0.6321252135521199, -0.6321252135521189]], [[0.632126843633472, -0.632126843633471]], [[0.6321284688484278, -0.6321284688484268]], [[0.632130089211523, -0.632130089211522]], [[0.6321317047372503, -0.6321317047372493]], [[0.6321333154400587, -0.6321333154400578]], [[0.6321349213343541, -0.6321349213343532]], [[0.6321365224344995, -0.6321365224344985]], [[0.6321381187548145, -0.6321381187548135]], [[0.6321397103095764, -0.6321397103095754]], [[0.6321412971130195, -0.6321412971130185]], [[0.6321428791793356, -0.6321428791793345]], [[0.6321444565226741, -0.632144456522673]], [[0.6321460291571421, -0.632146029157141]], [[0.6321475970968045, -0.6321475970968033]], [[0.632149160355684, -0.6321491603556828]], [[0.6321507189477616, -0.6321507189477604]], [[0.6321522728869765, -0.6321522728869753]], [[0.632153822187226, -0.6321538221872248]], [[0.6321553668623661, -0.6321553668623648]], [[0.6321569069262111, -0.6321569069262097]], [[0.632158442392534, -0.6321584423925327]], [[0.6321599732750671, -0.6321599732750658]], [[0.6321614995875011, -0.6321614995874998]], [[0.632163021343486, -0.6321630213434848]], [[0.632164538556631, -0.6321645385566298]], [[0.6321660512405046, -0.6321660512405033]], [[0.6321675594086347, -0.6321675594086333]], [[0.6321690630745086, -0.6321690630745073]], [[0.6321705622515735, -0.6321705622515722]], [[0.6321720569532364, -0.6321720569532351]], [[0.6321735471928641, -0.6321735471928628]], [[0.6321750329837835, -0.6321750329837822]], [[0.6321765143392817, -0.6321765143392802]], [[0.6321779912726058, -0.6321779912726043]], [[0.6321794637969637, -0.6321794637969622]], [[0.6321809319255235, -0.632180931925522]], [[0.6321823956714141, -0.6321823956714127]], [[0.6321838550477251, -0.6321838550477237]], [[0.632185310067507, -0.6321853100675056]], [[0.6321867607437712, -0.6321867607437698]], [[0.6321882070894903, -0.6321882070894889]], [[0.6321896491175981, -0.6321896491175966]], [[0.6321910868409897, -0.632191086840988]], [[0.6321925202725215, -0.6321925202725198]], [[0.6321939494250117, -0.6321939494250101]], [[0.6321953743112403, -0.6321953743112385]], [[0.6321967949439486, -0.6321967949439469]], [[0.6321982113358403, -0.6321982113358385]], [[0.6321996234995808, -0.6321996234995791]], [[0.6322010314477979, -0.6322010314477963]], [[0.6322024351930815, -0.6322024351930798]], [[0.6322038347479839, -0.6322038347479821]], [[0.6322052301250197, -0.6322052301250181]], [[0.6322066213366665, -0.6322066213366648]], [[0.6322080083953642, -0.6322080083953625]], [[0.6322093913135156, -0.632209391313514]], [[0.6322107701034866, -0.6322107701034849]], [[0.632212144777606, -0.6322121447776043]], [[0.6322135153481658, -0.6322135153481642]], [[0.6322148818274212, -0.6322148818274196]], [[0.6322162442275908, -0.6322162442275892]], [[0.6322176025608567, -0.632217602560855]], [[0.6322189568393645, -0.6322189568393628]], [[0.6322203070752235, -0.6322203070752218]], [[0.632221653280507, -0.6322216532805053]], [[0.6322229954672519, -0.6322229954672502]], [[0.6322243336474594, -0.6322243336474578]], [[0.6322256678330948, -0.6322256678330931]], [[0.6322269980360873, -0.6322269980360856]], [[0.6322283242683309, -0.6322283242683292]], [[0.6322296465416837, -0.632229646541682]], [[0.6322309648679686, -0.6322309648679668]], [[0.632232279258973, -0.6322322792589712]], [[0.632233589726449, -0.6322335897264473]], [[0.6322348962821139, -0.6322348962821122]], [[0.6322361989376498, -0.6322361989376479]], [[0.6322374977047037, -0.6322374977047018]], [[0.632238792594888, -0.6322387925948861]], [[0.6322400836197803, -0.6322400836197785]], [[0.6322413707909238, -0.6322413707909219]], [[0.6322426541198268, -0.6322426541198249]], [[0.6322439336179636, -0.6322439336179617]], [[0.6322452092967739, -0.6322452092967721]], [[0.6322464811676634, -0.6322464811676616]], [[0.6322477492420037, -0.6322477492420019]], [[0.6322490135311324, -0.6322490135311306]], [[0.632250274046353, -0.6322502740463513]], [[0.6322515307989357, -0.6322515307989339]], [[0.6322527838001165, -0.6322527838001147]], [[0.6322540330610982, -0.6322540330610963]], [[0.6322552785930498, -0.6322552785930478]], [[0.632256520407107, -0.632256520407105]], [[0.6322577585143724, -0.6322577585143704]], [[0.6322589929259153, -0.6322589929259134]], [[0.6322602236527719, -0.63226022365277]], [[0.6322614507059455, -0.6322614507059436]], [[0.6322626740964065, -0.6322626740964046]], [[0.6322638938350924, -0.6322638938350904]], [[0.6322651099329081, -0.6322651099329061]], [[0.6322663224007258, -0.6322663224007238]], [[0.6322675312493854, -0.6322675312493834]], [[0.6322687364896943, -0.6322687364896923]], [[0.6322699381324276, -0.6322699381324256]], [[0.6322711361883282, -0.6322711361883262]], [[0.6322723306681068, -0.632272330668105]], [[0.6322735215824424, -0.6322735215824405]], [[0.6322747089419818, -0.6322747089419799]], [[0.63227589275734, -0.6322758927573381]], [[0.6322770730391003, -0.6322770730390984]], [[0.6322782497978144, -0.6322782497978126]], [[0.6322794230440026, -0.6322794230440008]], [[0.6322805927881536, -0.6322805927881517]], [[0.6322817590407248, -0.6322817590407229]], [[0.6322829218121423, -0.6322829218121404]], [[0.632284081112801, -0.6322840811127992]], [[0.6322852369530649, -0.6322852369530632]], [[0.6322863893432671, -0.6322863893432653]], [[0.6322875382937094, -0.6322875382937077]], [[0.6322886838146633, -0.6322886838146615]], [[0.6322898259163692, -0.6322898259163674]], [[0.6322909646090372, -0.6322909646090354]], [[0.6322920999028468, -0.6322920999028451]], [[0.632293231807947, -0.6322932318079453]], [[0.6322943603344566, -0.6322943603344549]], [[0.6322954854924641, -0.6322954854924623]], [[0.6322966072920277, -0.6322966072920259]], [[0.6322977257431759, -0.632297725743174]], [[0.6322988408559068, -0.6322988408559049]], [[0.632299952640189, -0.6322999526401871]], [[0.6323010611059611, -0.6323010611059592]], [[0.6323021662631321, -0.6323021662631302]], [[0.6323032681215813, -0.6323032681215794]], [[0.6323043666911586, -0.6323043666911567]], [[0.6323054619816844, -0.6323054619816825]], [[0.6323065540029497, -0.6323065540029478]], [[0.6323076427647163, -0.6323076427647144]], [[0.6323087282767168, -0.6323087282767149]], [[0.6323098105486549, -0.632309810548653]], [[0.632310889590205, -0.6323108895902031]], [[0.6323119654110128, -0.6323119654110109]], [[0.632313038020695, -0.6323130380206932]], [[0.6323141074288399, -0.632314107428838]], [[0.6323151736450068, -0.6323151736450049]], [[0.6323162366787266, -0.6323162366787247]], [[0.6323172965395016, -0.6323172965394999]], [[0.6323183532368061, -0.6323183532368043]], [[0.6323194067800855, -0.6323194067800837]], [[0.6323204571787574, -0.6323204571787556]], [[0.6323215044422111, -0.6323215044422094]], [[0.632322548579808, -0.6323225485798062]], [[0.6323235896008812, -0.6323235896008794]], [[0.6323246275147363, -0.6323246275147345]], [[0.6323256623306508, -0.632325662330649]], [[0.6323266940578747, -0.6323266940578728]], [[0.6323277227056301, -0.6323277227056282]], [[0.6323287482831118, -0.6323287482831099]], [[0.632329770799487, -0.6323297707994852]], [[0.6323307902638957, -0.6323307902638938]], [[0.6323318066854503, -0.6323318066854484]], [[0.6323328200732361, -0.6323328200732342]], [[0.6323338304363113, -0.6323338304363094]], [[0.632334837783707, -0.6323348377837051]], [[0.6323358421244274, -0.6323358421244255]], [[0.6323368434674496, -0.6323368434674477]], [[0.632337841821724, -0.6323378418217221]], [[0.6323388371961743, -0.6323388371961725]], [[0.6323398295996976, -0.6323398295996956]], [[0.632340819041164, -0.632340819041162]], [[0.6323418055294177, -0.6323418055294157]], [[0.632342789073276, -0.632342789073274]], [[0.6323437696815302, -0.6323437696815282]], [[0.632344747362945, -0.632344747362943]], [[0.6323457221262593, -0.6323457221262573]], [[0.6323466939801856, -0.6323466939801835]], [[0.6323476629334104, -0.6323476629334083]], [[0.6323486289945943, -0.6323486289945922]], [[0.6323495921723721, -0.63234959217237]], [[0.6323505524753527, -0.6323505524753505]], [[0.6323515099121192, -0.6323515099121171]], [[0.6323524644912293, -0.6323524644912272]], [[0.632353416221215, -0.6323534162212129]], [[0.6323543651105829, -0.6323543651105806]], [[0.6323553111678138, -0.6323553111678115]], [[0.6323562544013638, -0.6323562544013615]], [[0.6323571948196631, -0.6323571948196608]], [[0.6323581324311173, -0.6323581324311149]], [[0.6323590672441063, -0.632359067244104]], [[0.6323599992669855, -0.6323599992669832]], [[0.632360928508085, -0.6323609285080827]], [[0.6323618549757102, -0.6323618549757078]], [[0.6323627786781415, -0.6323627786781392]], [[0.6323636996236348, -0.6323636996236325]], [[0.6323646178204211, -0.6323646178204188]], [[0.632365533276707, -0.6323655332767046]], [[0.6323664460006744, -0.632366446000672]], [[0.6323673560004809, -0.6323673560004786]], [[0.6323682632842598, -0.6323682632842574]], [[0.6323691678601199, -0.6323691678601174]], [[0.6323700697361457, -0.6323700697361434]], [[0.632370968920398, 