[[[-0.05879107147444056, 0.05879107147444054]], [[-0.07048898503019119, 0.07048898503019121]], [[-0.06935039936429603, 0.06935039936429604]], [[-0.06475644999846533, 0.06475644999846533]], [[-0.05933668089270035, 0.05933668089270036]], [[-0.053829301456194495, 0.05382930145619447]], [[-0.04843326856949864, 0.04843326856949865]], [[-0.04319350935770836, 0.043193509357708396]], [[-0.03811176581714258, 0.038111765817142575]], [[-0.03317861878823305, 0.03317861878823304]], [[-0.028382691553915852, 0.028382691553915887]], [[-0.02371320139494231, 0.023713201394942346]], [[-0.019160565293032936, 0.01916056529303309]], [[-0.014716442262243931, 0.01471644226224407]], [[-0.01037362218943745, 0.010373622189437576]], [[-0.006125883304303109, 0.006125883304303234]], [[-0.001967854146585374, 0.001967854146585471]], [[0.0021051103243719393, -0.002105110324371849]], [[0.006097036892571975, -0.006097036892571885]], [[0.010011427389282096, -0.01001142738928202]], [[0.01385133868476588, -0.013851338684765721]], [[0.01761945101458004, -0.017619451014579866]], [[0.021318126195658982, -0.02131812619565881]], [[0.024949457135893367, -0.024949457135893215]], [[0.02851530987691798, -0.028515309876917812]], [[0.03201735925156918, -0.032017359251569025]], [[0.035457119092031836, -0.03545711909203168]], [[0.038835967794468546, -0.03883596779446839]], [[0.04215516993117843, -0.04215516993117828]], [[0.04541589450130527, -0.04541589450130515]], [[0.04861923032457707, -0.048619230324576906]], [[0.051766199008096994, -0.05176619900809687]], [[0.054857765852389107, -0.05485776585238897]], [[0.05789484900836449, -0.05789484900836442]], [[0.060878327150360845, -0.060878327150360734]], [[0.06380904589079711, -0.06380904589079693]], [[0.06668782312828128, -0.06668782312828118]], [[0.06951545349234832, -0.06951545349234822]], [[0.07229271202363696, -0.07229271202363682]], [[0.07502035720760193, -0.07502035720760183]], [[0.07769913346224262, -0.07769913346224254]], [[0.08032977316534973, -0.0803297731653496]], [[0.0829129982940276, -0.08291299829402742]], [[0.08544952173840173, -0.08544952173840151]], [[0.08794004834218333, -0.08794004834218312]], [[0.09038527571489298, -0.0903852757148928]], [[0.09278589485383806, -0.09278589485383781]], [[0.0951425906082179, -0.09514259060821773]], [[0.09745604201285135, -0.09745604201285116]], [[0.09972692251485625, -0.09972692251485607]], [[0.10195590011305572, -0.10195590011305561]], [[0.10414363742685004, -0.10414363742684991]], [[0.1062907917087003, -0.10629079170870019]], [[0.10839801481215602, -0.10839801481215593]], [[0.11046595312546761, -0.11046595312546749]], [[0.11249524747920922, -0.11249524747920905]], [[0.11448653303495974, -0.11448653303495959]], [[0.11644043916091387, -0.1164404391609137]], [[0.11835758929929016, -0.11835758929929001]], [[0.1202386008295502, -0.12023860082955004]], [[0.12208408493071514, -0.12208408493071499]], [[0.12389464644544548, -0.12389464644544528]], [[0.1256708837480273, -0.12567088374802704]], [[0.12741338861796142, -0.12741338861796114]], [[0.12912274612047556, -0.12912274612047528]], [[0.1307995344949628, -0.1307995344949625]], [[0.1324443250520822, -0.1324443250520819]], [[0.134057682080033, -0.1340576820800327]], [[0.135640162760328, -0.1356401627603277]], [[0.13719231709323615, -0.13719231709323582]], [[0.13871468783293578, -0.13871468783293542]], [[0.14020781043231623, -0.14020781043231584]], [[0.14167221299727845, -0.14167221299727817]], [[0.14310841625031961, -0.1431084162503194]], [[0.14451693350312922, -0.14451693350312905]], [[0.14589827063788557, -0.14589827063788535]], [[0.14725292609690682, -0.1472529260969066]], [[0.14858139088029004, -0.1485813908802898]], [[0.14988414855115428, -0.14988414855115406]], [[0.15116167524809476, -0.15116167524809454]], [[0.15241443970444982, -0.1524144397044496]], [[0.1536429032739831, -0.1536429032739829]], [[0.15484751996258483, -0.15484751996258467]], [[0.15602873646560292, -0.15602873646560275]], [[0.15718699221042226, -0.15718699221042212]], [[0.15832271940392018, -0.15832271940392004]], [[0.15943634308443747, -0.15943634308443733]], [[0.1605282811779174, -0.16052828117791726]], [[0.1615989445578761, -0.161598944557876]], [[0.16264873710888422, -0.1626487371088841]], [[0.1636780557932505, -0.16367805579325043]], [[0.1646872907206154, -0.16468729072061533]], [[0.1656768252201737, -0.16567682522017366]], [[0.16664703591526192, -0.16664703591526187]], [[0.16759829280005792, -0.16759829280005792]], [[0.16853095931815582, -0.16853095931815576]], [[0.1694453924427904, -0.1694453924427903]], [[0.1703419427585004, -0.1703419427585003]], [[0.17122095454403097, -0.17122095454403083]], [[0.1720827658562879, -0.17208276585628773]], [[0.1729277086151686, -0.17292770861516843]], [[0.1737561086891058, -0.17375610868910563]], [[0.17456828598116964, -0.17456828598116947]], [[0.17536455451558533, -0.17536455451558514]], [[0.17614522252453307, -0.1761452225245329]], [[0.17691059253510533, -0.17691059253510516]], [[0.17766096145630672, -0.17766096145630655]], [[0.17839662066598913, -0.17839662066598885]], [[0.17911785609762307, -0.17911785609762282]], [[0.1798249483268144, -0.17982494832681414]], [[0.18051817265748096, -0.1805181726574807]], [[0.18119779920761245, -0.1811977992076122]], [[0.18186409299454181, -0.18186409299454162]], [[0.18251731401966353, -0.18251731401966334]], [[0.1831577173525376, -0.18315771735253744]], [[0.18378555321432702, -0.18378555321432688]], [[0.1844010670605179, -0.18440106706051773]], [[0.18500449966287769, -0.1850044996628775]], [[0.18559608719061194, -0.1855960871906117]], [[0.18617606129068276, -0.18617606129068248]], [[0.18674464916725664, -0.18674464916725636]], [[0.18730207366025348, -0.1873020736602532]], [[0.18784855332297043, -0.18784855332297015]], [[0.18838430249875943, -0.1883843024987592]], [[0.1889095313967379, -0.18890953139673772]], [[0.1894244461665172, -0.18942444616651702]], [[0.18992924897193347, -0.18992924897193336]], [[0.19042413806377056, -0.19042413806377045]], [[0.19090930785146393, -0.19090930785146384]], [[0.19138494897377933, -0.19138494897377922]], [[0.1918512483684599, -0.19185124836845982]], [[0.19230838934083805, -0.192308389340838]], [[0.19275655163140984, -0.1927565516314098]], [[0.19319591148237072, -0.1931959114823707]], [[0.19362664170311394, -0.1936266417031139]], [[0.19404891173469235, -0.1940489117346923]], [[0.1944628877132478, -0.1944628877132477]], [[0.19486873253241177, -0.19486873253241166]], [[0.19526660590468115, -0.19526660590468098]], [[0.19565666442177698, -0.19565666442177682]], [[0.1960390616139917, -0.19603906161399154]], [[0.1964139480085325, -0.19641394800853237]], [[0.19678147118686906, -0.19678147118686895]], [[0.19714177584109432, -0.1971417758410942]], [[0.19749500382930782, -0.19749500382930768]], [[0.1978412942300311, -0.19784129423003094]], [[0.19818078339566542, -0.1981807833956652]], [[0.19851360500500242, -0.19851360500500226]], [[0.1988398901147992, -0.19883989011479908]], [[0.19915976721042758, -0.19915976721042747]], [[0.199473362255611, -0.19947336225561085]], [[0.1997807987412592, -0.19978079874125915]], [[0.20008219773341393, -0.20008219773341385]], [[0.20037767792031608, -0.20037767792031602]], [[0.2006673556586087, -0.20066735565860863]], [[0.20095134501868603, -0.20095134501868606]], [[0.2012297578292027, -0.20122975782920272]], [[0.20150270372075424, -0.20150270372075424]], [[0.20177029016874262, -0.20177029016874257]], [[0.20203262253543808, -0.20203262253543805]], [[0.20228980411125125, -0.2022898041112512]], [[0.20254193615522664, -0.2025419361552266]], [[0.20278911793477092, -0.2027891179347709]], [[0.20303144676462842, -0.20303144676462836]], [[0.20326901804511538, -0.20326901804511538]], [[0.20350192529962663, -0.20350192529962666]], [[0.20373026021142568, -0.20373026021142573]], [[0.20395411265973085, -0.20395411265973096]], [[0.20417357075511025, -0.2041735707551104]], [[0.20438872087419618, -0.20438872087419624]], [[0.20459964769373162, -0.20459964769373168]], [[0.20480643422396072, -0.20480643422396078]], [[0.20500916184137438, -0.2050091618413744]], [[0.20520791032082264, -0.2052079103208227]], [[0.2054027578670051, -0.20540275786700518]], [[0.20559378114535098, -0.2055937811453511]], [[0.20578105531229923, -0.20578105531229932]], [[0.2059646540449902, -0.20596465404499031]], [[0.20614464957037945, -0.20614464957037953]], [[0.20632111269378406, -0.20632111269378406]], [[0.20649411282687247, -0.20649411282687247]], [[0.20666371801510774, -0.20666371801510774]], [[0.2068299949646548, -0.20682999496465485]], [[0.20699300906876097, -0.206993009068761]], [[0.20715282443362068, -0.2071528244336207]], [[0.2073095039037335, -0.2073095039037335]], [[0.20746310908676485, -0.2074631090867648]], [[0.20761370037791937, -0.20761370037791932]], [[0.20776133698383592, -0.20776133698383586]], [[0.20790607694601324, -0.20790607694601315]], [[0.2080479771637755, -0.2080479771637754]], [[0.20818709341678637, -0.20818709341678623]], [[0.20832348038712012, -0.20832348038711998]], [[0.20845719168089902, -0.20845719168089882]], [[0.2085882798495039, -0.20858827984950373]], [[0.20871679641036817, -0.208716796410368]], [[0.20884279186736135, -0.20884279186736115]], [[0.2089663157307715, -0.20896631573077135]], [[0.2090874165368936, -0.20908741653689344]], [[0.2092061418672316, -0.20920614186723147]], [[0.20932253836732206, -0.20932253836732193]], [[0.2094366517651864, -0.20943665176518617]], [[0.20954852688941894, -0.20954852688941866]], [[0.20965820768691837, -0.2096582076869181]], [[0.2097657372402688, -0.20976573724026853]], [[0.209871157784778, -0.20987115778477777]], [[0.20997451072517948, -0.2099745107251792]], [[0.21007583665200388, -0.21007583665200363]], [[0.21017517535762825, -0.21017517535762803]], [[0.21027256585200765, -0.21027256585200746]], [[0.21036804637809597, -0.2103680463780958]], [[0.2104616544269626, -0.21046165442696244]], [[0.2105534267526101, -0.21055342675260996]], [[0.21064339938649934, -0.21064339938649923]], [[0.21073160765178744, -0.2107316076517874]], [[0.21081808617728498, -0.2108180861772849]], [[0.21090286891113647, -0.21090286891113647]], [[0.21098598913423178, -0.21098598913423175]], [[0.21106747947335128, -0.21106747947335125]], [[0.21114737191405236, -0.21114737191405245]], [[0.21122569781330075, -0.2112256978133009]], [[0.21130248791185227, -0.2113024879118524]], [[0.21137777234639027, -0.21137777234639038]], [[0.211451580661423, -0.21145158066142314]], [[0.21152394182094603, -0.21152394182094617]], [[0.2115948842198742, -0.2115948842198744]], [[0.21166443569524807, -0.21166443569524823]], [[0.21173262353721836, -0.2117326235372185]], [[0.21179947449981393, -0.2117994744998141]], [[0.2118650148114971, -0.21186501481149733]], [[0.21192927018551017, -0.21192927018551044]], [[0.21199226583001762, -0.21199226583001793]], [[0.21205402645804838, -0.21205402645804872]], [[0.21211457629724145, -0.21211457629724179]], [[0.21217393909939913, -0.21217393909939947]], [[0.21223213814985176, -0.21223213814985215]], [[0.21228919627663728, -0.21228919627663767]], [[0.21234513585950004, -0.21234513585950038]], [[0.21239997883871148, -0.2123999788387117]], [[0.212453746723717, -0.21245374672371714]], [[0.21250646060161216, -0.21250646060161227]], [[0.2125581411454514, -0.21255814114545152]], [[0.21260880862239306, -0.21260880862239318]], [[0.21265848290168335, -0.2126584829016835]], [[0.21270718346248324, -0.2127071834624834]], [[0.21275492940154056, -0.2127549294015407]], [[0.21280173944071068, -0.2128017394407108]], [[0.21284763193432932, -0.21284763193432948]], [[0.21289262487643962, -0.2128926248764397]], [[0.21293673590787643, -0.21293673590787646]], [[0.21297998232321141, -0.21297998232321147]], [[0.21302238107756097, -0.2130223810775611]], [[0.21306394879325982, -0.21306394879325996]], [[0.21310470176640306, -0.21310470176640323]], [[0.21314465597325943, -0.2131446559732596]], [[0.2131838270765579, -0.21318382707655806]], [[0.21322223043165056, -0.2132222304316507]], [[0.213259881092554, -0.21325988109255417]], [[0.21329679381787145, -0.2132967938178716]], [[0.21333298307659845, -0.21333298307659865]], [[0.21336846305381413, -0.21336846305381432]], [[0.21340324765626018, -0.21340324765626045]], [[0.21343735051780988, -0.2134373505178102]], [[0.21347078500482997, -0.2134707850048303]], [[0.21350356422143593, -0.21350356422143624]], [[0.21353570101464459, -0.2135357010146448]], [[0.21356720797942474, -0.21356720797942494]], [[0.21359809746364894, -0.21359809746364916]], [[0.213628381572947, -0.21362838157294717]], [[0.21365807217546431, -0.2136580721754645]], [[0.21368718090652672, -0.2136871809065269]], [[0.21371571917321314, -0.2137157191732133]], [[0.21374369815883837, -0.21374369815883842]], [[0.21377112882734758, -0.2137711288273476]], [[0.2137980219276246, -0.2137980219276246]], [[0.2138243879977149, -0.2138243879977149]], [[0.21385023736896608, -0.21385023736896605]], [[0.2138755801700864, -0.21387558017008634]], [[0.21390042633112355, -0.2139004263311235]], [[0.21392478558736527, -0.21392478558736522]], [[0.21394866748316343, -0.21394866748316338]], [[0.2139720813756822, -0.21397208137568213]], [[0.2139950364385733, -0.21399503643857332]], [[0.21401754166557846, -0.21401754166557843]], [[0.214039605874061, -0.214039605874061]], [[0.21406123770846855, -0.21406123770846852]], [[0.2140824456437267, -0.21408244564372675]], [[0.21410323798856695, -0.21410323798856698]], [[0.21412362288878828, -0.21412362288878828]], [[0.21414360833045548, -0.21414360833045548]], [[0.21416320214303386, -0.21416320214303386]], [[0.2141824120024629, -0.21418241200246285]], [[0.2142012454341689, -0.21420124543416885]], [[0.2142197098160192, -0.21421970981601918]], [[0.2142378123812174, -0.21423781238121736]], [[0.21425556022114245, -0.2142555602211424]], [[0.21427296028813142, -0.21427296028813136]], [[0.2142900193982082, -0.21429001939820808]], [[0.21430674423375762, -0.2143067442337575]], [[0.21432314134614808, -0.21432314134614794]], [[0.21433921715830195, -0.2143392171583018]], [[0.21435497796721573, -0.21435497796721556]], [[0.21437042994643052, -0.21437042994643035]], [[0.2143855791484542, -0.2143855791484541]], [[0.2144004315071359, -0.2144004315071359]], [[0.2144149928399939, -0.21441499283999388]], [[0.21442926885049754, -0.2144292688504975]], [[0.2144432651303046, -0.21444326513030454]], [[0.21445698716145467, -0.21445698716145467]], [[0.21447044031851945, -0.21447044031851947]], [[0.21448362987071076, -0.2144836298707108]], [[0.2144965609839471, -0.21449656098394704]], [[0.21450923872287964, -0.21450923872287955]], [[0.21452166805287876, -0.21452166805287873]], [[0.21453385384198118, -0.21453385384198118]], [[0.2145458008627989, -0.21454580086279879]], [[0.2145575137943907, -0.21455751379439061]], [[0.21456899722409728, -0.21456899722409722]], [[0.21458025564933975, -0.21458025564933964]], [[0.21459129347938316, -0.21459129347938305]], [[0.2146021150370654, -0.21460211503706528]], [[0.21461272456049196, -0.2146127245604919]], [[0.21462312620469803, -0.21462312620469798]], [[0.21463332404327684, -0.21463332404327679]], [[0.21464332206997727, -0.21464332206997716]], [[0.21465312420026922, -0.21465312420026916]], [[0.2146627342728789, -0.21466273427287885]], [[0.21467215605129344, -0.21467215605129336]], [[0.2146813932252361, -0.214681393225236]], [[0.21469044941211307, -0.21469044941211296]], [[0.21469932815843104, -0.2146993281584309]], [[0.2147080329411875, -0.21470803294118737]], [[0.21471656716923376, -0.21471656716923365]], [[0.21472493418461086, -0.21472493418461075]], [[0.21473313726385945, -0.21473313726385934]], [[0.21474117961930433, -0.21474117961930422]], [[0.2147490644003132, -0.21474906440031305]], [[0.214756794694531, -0.21475679469453085]], [[0.21476437352909, -0.2147643735290899]], [[0.2147718038717964, -0.21477180387179623]], [[0.214779088632293, -0.21477908863229284]], [[0.21478623066319985, -0.2147862306631997]], [[0.21479323276123197, -0.21479323276123174]], [[0.21480009766829522, -0.214800097668295]], [[0.2148068280725609, -0.21480682807256068]], [[0.21481342660951924, -0.21481342660951905]], [[0.21481989586301192, -0.2148198958630117]], [[0.21482623836624465, -0.21482623836624448]], [[0.2148324566027798, -0.21483245660277958]], [[0.21483855300750934, -0.21483855300750915]], [[0.21484452996760928, -0.2148445299676091]], [[0.2148503898234747, -0.21485038982347454]], [[0.2148561348696369, -0.21485613486963676]], [[0.21486176735566226, -0.21486176735566215]], [[0.21486728948703387, -0.21486728948703376]], [[0.21487270342601522, -0.21487270342601517]], [[0.214878011292498, -0.21487801129249792]], [[0.21488321516483197, -0.2148832151648319]], [[0.21488831708063957, -0.21488831708063943]], [[0.21489331903761416, -0.21489331903761405]], [[0.2148982229943025, -0.2148982229943024]], [[0.2149030308708723, -0.21490303087087226]], [[0.2149077445498643, -0.21490774454986422]], [[0.2149123658769297, -0.21491236587692958]], [[0.21491689666155314, -0.21491689666155311]], [[0.214921338677762, -0.21492133867776192]], [[0.2149256936648206, -0.2149256936648205]], [[0.2149299633279122, -0.21492996332791214]], [[0.2149341493388066, -0.21493414933880658]], [[0.21493825333651517, -0.21493825333651514]], [[0.21494227692793277, -0.21494227692793277]], [[0.21494622168846722, -0.21494622168846722]], [[0.21495008916265645, -0.2149500891626564]], [[0.2149538808647734, -0.2149538808647733]], [[0.21495759827941927, -0.2149575982794192]], [[0.21496124286210505, -0.214961242862105]], [[0.21496481603982143, -0.21496481603982137]], [[0.214968319211598, -0.21496831921159798]], [[0.21497175374905103, -0.214971753749051]], [[0.21497512099692084, -0.2149751209969208]], [[0.21497842227359829, -0.21497842227359823]], [[0.21498165887164145, -0.21498165887164142]], [[0.21498483205828164, -0.2149848320582816]], [[0.2149879430759199, -0.21498794307591984]], [[0.21499099314261336, -0.21499099314261333]], [[0.2149939834525526, -0.2149939834525526]], [[0.21499691517652925, -0.21499691517652925]], [[0.2149997894623944, -0.2149997894623944]], [[0.2150026074355083, -0.2150026074355083]], [[0.2150053701991811, -0.21500537019918106]], [[0.21500807883510475, -0.21500807883510464]], [[0.21501073440377705, -0.21501073440377694]], [[0.21501333794491645, -0.21501333794491634]], [[0.21501589047786968, -0.21501589047786962]], [[0.2150183930020109, -0.2150183930020108]], [[0.21502084649713277, -0.21502084649713266]], [[0.21502325192383043, -0.21502325192383037]], [[0.21502561022387762, -0.21502561022387753]], [[0.21502792232059553, -0.21502792232059542]], [[0.21503018911921432, -0.21503018911921418]], [[0.21503241150722766, -0.2150324115072276]], [[0.21503459035474048, -0.21503459035474037]], [[0.21503672651480923, -0.21503672651480907]], [[0.21503882082377623, -0.21503882082377607]], [[0.21504087410159756, -0.21504087410159728]], [[0.2150428871521633, -0.21504288715216308]], [[0.21504486076361315, -0.21504486076361295]], [[0.2150467957086446, -0.21504679570864446]], [[0.2150486927448157, -0.21504869274481556]], [[0.21505055261484168, -0.21505055261484154]], [[0.21505237604688565, -0.21505237604688549]], [[0.21505416375484396, -0.21505416375484376]], [[0.21505591643862565, -0.21505591643862543]], [[0.21505763478442647, -0.21505763478442624]], [[0.21505931946499768, -0.2150593194649975]], [[0.21506097113990963, -0.21506097113990935]], [[0.2150625904558095, -0.2150625904558092]], [[0.21506417804667505, -0.21506417804667471]], [[0.2150657345340628, -0.2150657345340625]], [[0.21506726052735115, -0.21506726052735078]], [[0.2150687566239792, -0.21506875662397879]], [[0.2150702234096807, -0.2150702234096803]], [[0.21507166145871315, -0.21507166145871276]], [[0.2150730713340831, -0.21507307133408274]], [[0.21507445358776633, -0.2150744535877659]], [[0.2150758087609238, -0.2150758087609234]], [[0.21507713738411405, -0.2150771373841136]], [[0.21507843997750042, -0.21507843997749998]], [[0.21507971705105516, -0.21507971705105472]], [[0.21508096910475877, -0.21508096910475832]], [[0.21508219662879602, -0.21508219662879552]], [[0.21508340010374777, -0.21508340010374727]], [[0.2150845800007792, -0.21508458000077865]], [[0.21508573678182413, -0.21508573678182358]], [[0.21508687089976608, -0.21508687089976555]], [[0.21508798279861563, -0.2150879827986151]], [[0.21508907291368407, -0.21508907291368362]], [[0.21509014167175405, -0.21509014167175358]], [[0.21509118949124653, -0.215091189491246]], [[0.21509221678238458, -0.215092216782384]], [[0.21509322394735422, -0.21509322394735364]], [[0.21509421138046186, -0.2150942113804612]], [[0.21509517946828827, -0.2150951794682876]], [[0.2150961285898406, -0.2150961285898399]], [[0.21509705911670018, -0.21509705911669946]], [[0.21509797141316855, -0.21509797141316778]], [[0.21509886583640964, -0.21509886583640883]], [[0.21509974273658972, -0.21509974273658894]], [[0.2151006024570148, -0.21510060245701404]], [[0.21510144533426462, -0.21510144533426384]], [[0.2151022716983247, -0.21510227169832397]], [[0.21510308187271554, -0.21510308187271487]], [[0.21510387617461915, -0.2151038761746185]], [[0.21510465491500347, -0.21510465491500272]], [[0.21510541839874364, -0.2151054183987429]], [[0.21510616692474202, -0.21510616692474124]], [[0.2151069007860447, -0.2151069007860439]], [[0.21510762026995647, -0.2151076202699557]], [[0.2151083256581533, -0.21510832565815252]], [[0.21510901722679257, -0.21510901722679182]], [[0.21510969524662127, -0.21510969524662055]], [[0.21511035998308178, -0.2151103599830811]], [[0.21511101169641617, -0.2151110116964155]], [[0.21511165064176777, -0.21511165064176713]], [[0.21511227706928115, -0.21511227706928054]], [[0.21511289122420024, -0.2151128912241996]], [[0.21511349334696406, -0.21511349334696334]], [[0.21511408367330087, -0.2151140836733002]], [[0.21511466243432098, -0.21511466243432031]], [[0.21511522985660647, -0.21511522985660578]], [[0.21511578616230034, -0.21511578616229965]], [[0.21511633156919358, -0.21511633156919285]], [[0.21511686629081014, -0.21511686629080937]], [[0.2151173905364907, -0.2151173905364899]], [[0.21511790451147444, -0.21511790451147367]], [[0.21511840841697988, -0.21511840841697902]], [[0.21511890245028298, -0.2151189024502821]], [[0.215119386804795, -0.21511938680479403]], [[0.21511986167013764, -0.21511986167013666]], [[0.21512032723221786, -0.21512032723221686]], [[0.2151207836733003, -0.2151207836732993]], [[0.2151212311720787, -0.21512123117207765]], [[0.21512166990374587, -0.2151216699037448]], [[0.21512210004006235, -0.21512210004006133]], [[0.21512252174942367, -0.21512252174942265]], [[0.21512293519692616, -0.2151229351969251]], [[0.2151233405444315, -0.21512334054443044]], [[0.21512373795063044, -0.2151237379506294]], [[0.21512412757110463, -0.21512412757110355]], [[0.21512450955838758, -0.21512450955838652]], [[0.21512488406202449, -0.2151248840620234]], [[0.2151252512286307, -0.21512525122862958]], [[0.21512561120194917, -0.21512561120194806]], [[0.2151259641229067, -0.21512596412290555]], [[0.21512631012966899, -0.21512631012966787]], [[0.21512664935769496, -0.2151266493576939]], [[0.21512698193978974, -0.21512698193978863]], [[0.21512730800615648, -0.21512730800615537]], [[0.21512762768444743, -0.21512762768444632]], [[0.21512794109981404, -0.21512794109981292]], [[0.21512824837495584, -0.2151282483749547]], [[0.21512854963016836, -0.21512854963016723]], [[0.2151288449833904, -0.21512884498338933]], [[0.21512913455025037, -0.21512913455024926]], [[0.21512941844411104, -0.21512941844410993]], [[0.21512969677611443, -0.2151296967761133]], [[0.21512996965522502, -0.21512996965522385]], [[0.2151302371882725, -0.2151302371882714]], [[0.21513049947999371, -0.2151304994799926]], [[0.21513075663307346, -0.2151307566330724]], [[0.21513100874818483, -0.21513100874818375]], [[0.21513125592402854, -0.2151312559240275]], [[0.2151314982573717, -0.2151314982573706]], [[0.21513173584308543, -0.21513173584308432]], [[0.2151319687741824, -0.21513196877418134]], [[0.21513219714185278, -0.2151321971418518]], [[0.21513242103550054, -0.21513242103549957]], [[0.2151326405427777, -0.21513264054277673]], [[0.21513285574961943, -0.21513285574961843]], [[0.215133066740277, -0.21513306674027594]], [[0.21513327359735107, -0.21513327359735002]], [[0.21513347640182434, -0.2151334764018233]], [[0.21513367523309262, -0.21513367523309157]], [[0.2151338701689965, -0.21513387016899546]], [[0.21513406128585133, -0.2151340612858503]], [[0.21513424865847747, -0.21513424865847647]], [[0.2151344323602294, -0.21513443236022836]], [[0.21513461246302445, -0.21513461246302346]], [[0.21513478903737104, -0.2151347890373701]], [[0.2151349621523963, -0.21513496215239536]], [[0.2151351318758729, -0.21513513187587194]], [[0.21513529827424582, -0.21513529827424488]], [[0.21513546141265827, -0.21513546141265733]], [[0.21513562135497727, -0.2151356213549764]], [[0.21513577816381857, -0.21513577816381774]], [[0.2151359319005712, -0.2151359319005704]], [[0.21513608262542142, -0.2151360826254206]], [[0.2151362303973764, -0.21513623039737562]], [[0.2151363752742873, -0.21513637527428656]], [[0.21513651731287192, -0.21513651731287114]], [[0.21513665656873682, -0.21513665656873598]], [[0.2151367930963991, -0.21513679309639833]], [[0.21513692694930797, -0.21513692694930714]], [[0.21513705817986528, -0.21513705817986445]], [[0.2151371868394465, -0.2151371868394456]], [[0.21513731297842031, -0.21513731297841943]], [[0.21513743664616886, -0.21513743664616797]], [[0.2151375578911066, -0.21513755789110572]], [[0.2151376767606996, -0.21513767676069867]], [[0.21513779330148403, -0.2151377933014831]], [[0.2151379075590843, -0.2151379075590834]], [[0.21513801957823103, -0.21513801957823006]], [[0.2151381294027784, -0.21513812940277746]], [[0.21513823707572155, -0.2151382370757206]], [[0.21513834263921316, -0.21513834263921222]], [[0.21513844613458027, -0.21513844613457922]], [[0.21513854760233997, -0.21513854760233891]], [[0.21513864708221597, -0.21513864708221486]], [[0.21513874461315333, -0.21513874461315213]], [[0.21513884023333424, -0.21513884023333307]], [[0.2151389339801931, -0.21513893398019196]], [[0.2151390258904306, -0.21513902589042955]], [[0.21513911600002875, -0.21513911600002766]], [[0.2151392043442642, -0.21513920434426315]], [[0.21513929095772277, -0.21513929095772177]], [[0.2151393758743127, -0.21513937587431178]], [[0.21513945912727783, -0.2151394591272769]], [[0.21513954074921074, -0.21513954074920977]], [[0.21513962077206533, -0.2151396207720644]], [[0.21513969922716975, -0.21513969922716886]], [[0.21513977614523833, -0.21513977614523738]], [[0.2151398515563835, -0.21513985155638254]], [[0.21513992549012778, -0.21513992549012684]], [[0.21513999797541544, -0.2151399979754145]], [[0.2151400690406236, -0.2151400690406227]], [[0.21514013871357357, -0.21514013871357268]], [[0.21514020702154135, -0.21514020702154046]], [[0.21514027399126878, -0.2151402739912679]], [[0.21514033964897367, -0.21514033964897283]], [[0.21514040402036033, -0.2151404040203594]], [[0.21514046713062931, -0.21514046713062834]], [[0.21514052900448752, -0.21514052900448655]], [[0.21514058966615784, -0.2151405896661569]], [[0.21514064913938868, -0.21514064913938774]], [[0.21514070744746305, -0.2151407074474621]], [[0.21514076461320786, -0.21514076461320691]], [[0.21514082065900278, -0.2151408206590019]], [[0.21514087560678913, -0.21514087560678827]], [[0.21514092947807828, -0.2151409294780775]], [[0.21514098229396034, -0.21514098229395948]], [[0.21514103407511181, -0.21514103407511104]], [[0.21514108484180455, -0.21514108484180383]], [[0.2151411346139132, -0.2151411346139125]], [[0.21514118341092286, -0.2151411834109221]], [[0.21514123125193696, -0.21514123125193618]], [[0.21514127815568468, -0.2151412781556839]], [[0.21514132414052828, -0.2151413241405275]], [[0.21514136922447025, -0.21514136922446947]], [[0.2151414134251604, -0.21514141342515963]], [[0.21514145675990282, -0.21514145675990198]], [[0.21514149924566245, -0.21514149924566162]], [[0.21514154089907211, -0.21514154089907117]], [[0.21514158173643844, -0.2151415817364375]], [[0.21514162177374885, -0.2151416217737479]], [[0.21514166102667737, -0.21514166102667648]], [[0.21514169951059114, -0.2151416995105903]], [[0.21514173724055616, -0.2151417372405553]], [[0.2151417742313432, -0.21514177423134231]], [[0.2151418104974337, -0.21514181049743286]], [[0.21514184605302544, -0.21514184605302467]], [[0.21514188091203795, -0.21514188091203718]], [[0.21514191508811814, -0.21514191508811736]], [[0.21514194859464553, -0.21514194859464475]], [[0.21514198144473745, -0.21514198144473667]], [[0.2151420136512544, -0.21514201365125363]], [[0.21514204522680475, -0.21514204522680402]], [[0.21514207618375, -0.21514207618374925]], [[0.21514210653420943, -0.21514210653420868]], [[0.2151421362900648, -0.215142136290064]], [[0.21514216546296516, -0.21514216546296444]], [[0.21514219406433147, -0.21514219406433077]], [[0.21514222210536066, -0.21514222210535996]], [[0.2151422495970305, -0.21514224959702988]], [[0.21514227655010365, -0.21514227655010304]], [[0.21514230297513193, -0.21514230297513134]], [[0.21514232888246043, -0.21514232888245982]], [[0.21514235428223144, -0.21514235428223089]], [[0.21514237918438878, -0.21514237918438822]], [[0.21514240359868125, -0.2151424035986807]], [[0.21514242753466678, -0.21514242753466625]], [[0.21514245100171608, -0.21514245100171547]], [[0.2151424740090161, -0.21514247400901548]], [[0.21514249656557388, -0.2151424965655733]], [[0.21514251868022016, -0.21514251868021955]], [[0.2151425403616125, -0.21514254036161184]], [[0.21514256161823886, -0.2151425616182382]], [[0.215142582458421, -0.21514258245842033]], [[0.21514260289031756, -0.2151426028903169]], [[0.21514262292192732, -0.21514262292192668]], [[0.21514264256109256, -0.21514264256109183]], [[0.21514266181550162, -0.2151426618155009]], [[0.21514268069269238, -0.21514268069269168]], [[0.21514269920005513, -0.2151426992000544]], [[0.21514271734483514, -0.21514271734483448]], [[0.21514273513413598, -0.2151427351341353]], [[0.21514275257492188, -0.2151427525749212]], [[0.21514276967402068, -0.21514276967402002]], [[0.21514278643812645, -0.21514278643812587]], [[0.2151428028738022, -0.2151428028738016]], [[0.21514281898748225, -0.21514281898748158]], [[0.2151428347854749, -0.21514283478547422]], [[0.2151428502739649, -0.21514285027396418]], [[0.21514286545901576, -0.21514286545901506]], [[0.21514288034657225, -0.21514288034657159]], [[0.21514289494246264, -0.215142894942462]], [[0.21514290925240104, -0.21514290925240048]], [[0.21514292328198975, -0.2151429232819892]], [[0.21514293703672097, -0.2151429370367204]], [[0.2151429505219796, -0.2151429505219791]], [[0.21514296374304498, -0.21514296374304448]], [[0.21514297670509294, -0.21514297670509241]], [[0.21514298941319793, -0.21514298941319746]], [[0.2151430018723351, -0.21514300187233465]], [[0.21514301408738207, -0.2151430140873816]], [[0.21514302606312075, -0.21514302606312025]], [[0.21514303780423963, -0.2151430378042391]], [[0.21514304931533507, -0.21514304931533462]], [[0.2151430606009136, -0.2151430606009132]], [[0.21514307166539337, -0.21514307166539304]], [[0.215143082513106, -0.21514308251310565]], [[0.21514309314829821, -0.21514309314829788]], [[0.21514310357513355, -0.21514310357513328]], [[0.21514311379769402, -0.21514311379769377]], [[0.21514312381998155, -0.21514312381998135]], [[0.21514313364591986, -0.21514313364591964]], [[0.21514314327935558, -0.21514314327935535]], [[0.2151431527240601, -0.2151431527240599]], [[0.21514316198373093, -0.21514316198373074]], [[0.2151431710619931, -0.21514317106199293]], [[0.21514317996240065, -0.2151431799624005]], [[0.2151431886884379, -0.21514318868843788]], [[0.21514319724352104, -0.21514319724352104]], [[0.2151432056309994, -0.2151432056309994]], [[0.2151432138541564, -0.21514321385415636]], [[0.21514322191621135, -0.21514322191621132]], [[0.21514322982032041, -0.21514322982032041]], [[0.21514323756957798, -0.215143237569578]], [[0.21514324516701788, -0.21514324516701785]], [[0.2151432526156143, -0.21514325261561423]], [[0.2151432599182833, -0.21514325991828329]], [[0.21514326707788378, -0.2151432670778838]], [[0.21514327409721862, -0.21514327409721867]], [[0.2151432809790358, -0.21514328097903584]], [[0.21514328772602948, -0.21514328772602961]], [[0.21514329434084106, -0.21514329434084117]], [[0.21514330082606017, -0.2151433008260603]], [[0.21514330718422559, -0.2151433071842257]], [[0.21514331341782653, -0.2151433134178266]], [[0.21514331952930332, -0.2151433195293034]], [[0.21514332552104853, -0.21514332552104867]], [[0.21514333139540792, -0.21514333139540806]], [[0.2151433371546812, -0.21514333715468137]], [[0.21514334280112302, -0.21514334280112324]], [[0.21514334833694387, -0.2151433483369441]], [[0.21514335376431104, -0.21514335376431126]], [[0.2151433590853492, -0.21514335908534937]], [[0.2151433643021416, -0.21514336430214176]], [[0.21514336941673037, -0.21514336941673057]], [[0.2151433744311178, -0.21514337443111808]], [[0.21514337934726713, -0.21514337934726746]], [[0.21514338416710288, -0.21514338416710319]], [[0.2151433888925119, -0.21514338889251222]], [[0.21514339352534423, -0.2151433935253446]], [[0.21514339806741356, -0.2151433980674139]], [[0.21514340252049807, -0.2151434025204983]], [[0.21514340688634093, -0.21514340688634115]], [[0.2151434111666515, -0.21514341116665164]], [[0.21514341536310533, -0.21514341536310544]], [[0.21514341947734533, -0.21514341947734544]], [[0.21514342351098212, -0.21514342351098226]], [[0.21514342746559487, -0.21514342746559506]], [[0.21514343134273178, -0.215143431342732]], [[0.21514343514391077, -0.21514343514391093]], [[0.21514343887061976, -0.21514343887061999]], [[0.21514344252431788, -0.21514344252431805]], [[0.21514344610643538, -0.21514344610643554]], [[0.21514344961837467, -0.21514344961837484]], [[0.21514345306151061, -0.2151434530615108]], [[0.21514345643719124, -0.21514345643719143]], [[0.21514345974673804, -0.2151434597467382]], [[0.21514346299144654, -0.21514346299144674]], [[0.21514346617258712, -0.21514346617258734]], [[0.21514346929140515, -0.21514346929140543]], [[0.21514347234912157, -0.2151434723491219]], [[0.21514347534693345, -0.21514347534693384]], [[0.21514347828601446, -0.21514347828601488]], [[0.2151434811675152, -0.21514348116751558]], [[0.21514348399256367, -0.21514348399256406]], [[0.2151434867622659, -0.21514348676226625]], [[0.21514348947770617, -0.2151434894777065]], [[0.21514349213994743, -0.21514349213994777]], [[0.2151434947500321, -0.21514349475003242]], [[0.2151434973089819, -0.21514349730898225]], [[0.21514349981779862, -0.215143499817799]], [[0.2151435022774645, -0.21514350227746487]], [[0.21514350468894244, -0.21514350468894278]], [[0.21514350705317636, -0.2151435070531768]], [[0.21514350937109206, -0.21514350937109245]], [[0.21514351164359685, -0.21514351164359727]], [[0.21514351387158037, -0.21514351387158082]], [[0.21514351605591492, -0.2151435160559153]], [[0.21514351819745553, -0.21514351819745592]], [[0.2151435202970407, -0.2151435202970411]], [[0.2151435223554924, -0.21514352235549272]], [[0.21514352437361645, -0.2151435243736167]], [[0.21514352635220285, -0.21514352635220307]], [[0.2151435282920262, -0.2151435282920264]], [[0.21514353019384602, -0.21514353019384613]], [[0.21514353205840675, -0.21514353205840686]], [[0.21514353388643842, -0.21514353388643848]], [[0.21514353567865654, -0.21514353567865666]], [[0.21514353743576292, -0.21514353743576303]], [[0.21514353915844536, -0.21514353915844553]], [[0.21514354084737825, -0.21514354084737838]], [[0.2151435425032228, -0.21514354250322293]], [[0.21514354412662728, -0.2151435441266274]], [[0.21514354571822727, -0.21514354571822736]], [[0.21514354727864582, -0.2151435472786459]], [[0.21514354880849373, -0.2151435488084938]], [[0.21514355030837, -0.21514355030836996]], [[0.2151435517788618, -0.21514355177886174]], [[0.21514355322054482, -0.21514355322054474]], [[0.21514355463398346, -0.21514355463398338]], [[0.215143556019731, -0.21514355601973095]], [[0.21514355737833007, -0.21514355737833002]], [[0.2151435587103124, -0.2151435587103124]], [[0.21514356001619955, -0.21514356001619955]], [[0.21514356129650272, -0.21514356129650275]], [[0.21514356255172312, -0.21514356255172318]], [[0.2151435637823522, -0.21514356378235225]], [[0.21514356498887166, -0.21514356498887172]], [[0.2151435661717539, -0.21514356617175395]], [[0.21514356733146203, -0.215143567331462]], [[0.21514356846844992, -0.2151435684684499]], [[0.21514356958316283, -0.2151435695831628]], [[0.21514357067603712, -0.21514357067603707]], [[0.2151435717475006, -0.21514357174750054]], [[0.21514357279797275, -0.2151435727979727]], [[0.2151435738278648, -0.2151435738278648]], [[0.21514357483758, -0.21514357483758]], [[0.2151435758275136, -0.2151435758275136]], [[0.21514357679805318, -0.21514357679805318]], [[0.2151435777495786, -0.2151435777495786]], [[0.21514357868246248, -0.21514357868246248]], [[0.21514357959707, -0.21514357959707]], [[0.2151435804937592, -0.21514358049375915]], [[0.21514358137288112, -0.21514358137288106]], [[0.21514358223477995, -0.21514358223477986]], [[0.21514358307979303, -0.21514358307979303]], [[0.21514358390825128, -0.21514358390825133]], [[0.21514358472047898, -0.21514358472047906]], [[0.2151435855167941, -0.21514358551679413]], [[0.21514358629750843, -0.21514358629750846]], [[0.21514358706292752, -0.21514358706292758]], [[0.2151435878133511, -0.21514358781335122]], [[0.215143588549073, -0.21514358854907306]], [[0.21514358927038116, -0.2151435892703812]], [[0.21514358997755792, -0.215143589977558]], [[0.2151435906708803, -0.2151435906708803]], [[0.21514359135061956, -0.2151435913506196]], [[0.21514359201704186, -0.21514359201704197]], [[0.21514359267040817, -0.21514359267040825]], [[0.21514359331097413, -0.2151435933109742]], [[0.21514359393899063, -0.21514359393899068]], [[0.2151435945547035, -0.21514359455470355]], [[0.21514359515835374, -0.2151435951583538]], [[0.21514359575017772, -0.2151435957501778]], [[0.2151435963304071, -0.21514359633040722]], [[0.21514359689926904, -0.2151435968992692]], [[0.2151435974569863, -0.21514359745698647]], [[0.2151435980037772, -0.21514359800377736]], [[0.21514359853985576, -0.21514359853985593]], [[0.2151435990654318, -0.215143599065432]], [[0.2151435995807112, -0.21514359958071144]], [[0.21514360008589564, -0.2151436000858959]], [[0.21514360058118281, -0.2151436005811831]], [[0.21514360106676678, -0.21514360106676705]], [[0.21514360154283751, -0.21514360154283774]], [[0.2151436020095814, -0.21514360200958163]], [[0.21514360246718123, -0.21514360246718145]], [[0.21514360291581608, -0.2151436029158163]], [[0.21514360335566157, -0.2151436033556618]], [[0.21514360378688996, -0.21514360378689018]], [[0.21514360420966996, -0.21514360420967027]], [[0.21514360462416726, -0.21514360462416754]], [[0.21514360503054403, -0.2151436050305443]], [[0.21514360542895938, -0.21514360542895963]], [[0.21514360581956926, -0.21514360581956954]], [[0.21514360620252657, -0.21514360620252687]], [[0.21514360657798132, -0.2151436065779816]], [[0.21514360694608037, -0.21514360694608065]], [[0.21514360730696788, -0.2151436073069682]], [[0.2151436076607852, -0.2151436076607855]], [[0.21514360800767068, -0.21514360800767102]], [[0.2151436083477603, -0.2151436083477607]], [[0.2151436086811872, -0.2151436086811876]], [[0.21514360900808177, -0.21514360900808221]], [[0.21514360932857213, -0.21514360932857257]], [[0.21514360964278362, -0.21514360964278403]], [[0.21514360995083937, -0.2151436099508398]], [[0.21514361025285988, -0.21514361025286033]], [[0.21514361054896347, -0.2151436105489639]], [[0.21514361083926598, -0.21514361083926645]], [[0.21514361112388106, -0.21514361112388156]], [[0.21514361140292027, -0.2151436114029207]], [[0.2151436116764927, -0.21514361167649315]], [[0.2151436119447055, -0.21514361194470594]], [[0.21514361220766365, -0.21514361220766412]], [[0.21514361246547012, -0.2151436124654706]], [[0.21514361271822585, -0.21514361271822632]], [[0.21514361296602982, -0.2151436129660303]], [[0.21514361320897896, -0.21514361320897946]], [[0.2151436134471684, -0.21514361344716887]], [[0.21514361368069143, -0.21514361368069185]], [[0.21514361390963946, -0.21514361390963987]], [[0.2151436141341021, -0.21514361413410255]], [[0.2151436143541672, -0.21514361435416768]], [[0.21514361456992098, -0.21514361456992143]], [[0.2151436147814479, -0.2151436147814484]], [[0.2151436149888307, -0.21514361498883117]], [[0.21514361519215058, -0.21514361519215103]], [[0.2151436153914872, -0.21514361539148769]], [[0.21514361558691858, -0.21514361558691908]], [[0.21514361577852115, -0.2151436157785217]], [[0.2151436159663701, -0.21514361596637055]], [[0.21514361615053879, -0.21514361615053923]], [[0.2151436163310994, -0.21514361633109985]], [[0.21514361650812255, -0.215143616508123]], [[0.21514361668167767, -0.2151436166816781]], [[0.21514361685183253, -0.21514361685183298]], [[0.21514361701865387, -0.21514361701865437]], [[0.21514361718220693, -0.21514361718220748]], [[0.21514361734255583, -0.21514361734255638]], [[0.2151436174997633, -0.21514361749976385]], [[0.2151436176538909, -0.21514361765389142]], [[0.2151436178049989, -0.21514361780499944]], [[0.21514361795314652, -0.21514361795314701]], [[0.21514361809839172, -0.21514361809839228]], [[0.21514361824079142, -0.21514361824079198]], [[0.21514361838040133, -0.21514361838040183]], [[0.21514361851727606, -0.21514361851727654]], [[0.2151436186514693, -0.2151436186514698]], [[0.21514361878303354, -0.21514361878303404]], [[0.21514361891202022, -0.2151436189120207]], [[0.21514361903847984, -0.2151436190384804]], [[0.215143619162462, -0.21514361916246258]], [[0.2151436192840152, -0.21514361928401576]], [[0.21514361940318705, -0.2151436194031876]], [[0.21514361952002414, -0.2151436195200247]], [[0.2151436196345722, -0.21514361963457276]], [[0.21514361974687612, -0.21514361974687668]], [[0.21514361985697988, -0.21514361985698044]], [[0.21514361996492665, -0.21514361996492715]], [[0.2151436200707586, -0.2151436200707591]], [[0.21514362017451713, -0.2151436201745176]], [[0.21514362027624293, -0.21514362027624334]], [[0.21514362037597579, -0.21514362037597623]], [[0.21514362047375474, -0.2151436204737552]], [[0.21514362056961803, -0.2151436205696185]], [[0.21514362066360326, -0.2151436206636037]], [[0.21514362075574722, -0.21514362075574767]], [[0.215143620846086, -0.2151436208460864]], [[0.21514362093465483, -0.21514362093465528]], [[0.21514362102148854, -0.21514362102148904]], [[0.21514362110662116, -0.2151436211066216]], [[0.2151436211900858, -0.21514362119008626]], [[0.21514362127191528, -0.21514362127191575]], [[0.2151436213521416, -0.2151436213521421]], [[0.21514362143079618, -0.21514362143079674]], [[0.21514362150790986, -0.2151436215079104]], [[0.2151436215835128, -0.21514362158351336]], [[0.21514362165763457, -0.21514362165763512]], [[0.2151436217303042, -0.21514362173030477]], [[0.21514362180155017, -0.21514362180155072]], [[0.21514362187140032, -0.21514362187140088]], [[0.215143621939882, -0.21514362193988257]], [[0.21514362200702203, -0.21514362200702256]], [[0.21514362207284665, -0.2151436220728473]], [[0.21514362213738175, -0.21514362213738242]], [[0.21514362220065258, -0.2151436222006532]], [[0.21514362226268383, -0.21514362226268438]], [[0.21514362232349973, -0.21514362232350032]], [[0.21514362238312423, -0.2151436223831248]], [[0.2151436224415806, -0.2151436224415812]], [[0.21514362249889174, -0.21514362249889235]], [[0.21514362255508013, -0.21514362255508074]], [[0.21514362261016762, -0.21514362261016823]], [[0.21514362266417592, -0.21514362266417653]], [[0.21514362271712612, -0.21514362271712675]], [[0.21514362276903898, -0.21514362276903962]], [[0.2151436228199347, -0.21514362281993543]], [[0.2151436228698334, -0.21514362286983413]], [[0.2151436229187545, -0.21514362291875522]], [[0.21514362296671719, -0.21514362296671788]], [[0.21514362301374024, -0.2151436230137409]], [[0.21514362305984203, -0.2151436230598427]], [[0.21514362310504068, -0.21514362310504137]], [[0.21514362314935376, -0.21514362314935448]], [[0.21514362319279878, -0.21514362319279945]], [[0.2151436232353926, -0.21514362323539327]], [[0.21514362327715195, -0.21514362327715258]], [[0.21514362331809317, -0.2151436233180938]], [[0.21514362335823234, -0.21514362335823298]], [[0.21514362339758508, -0.21514362339758572]], [[0.21514362343616694, -0.21514362343616755]], [[0.2151436234739928, -0.21514362347399343]], [[0.2151436235110777, -0.21514362351107832]], [[0.21514362354743605, -0.21514362354743666]], [[0.21514362358308203, -0.21514362358308262]], [[0.2151436236180297, -0.2151436236180303]], [[0.2151436236522927, -0.21514362365229328]], [[0.21514362368588447, -0.21514362368588505]], [[0.21514362371881818, -0.21514362371881873]], [[0.21514362375110663, -0.21514362375110718]], [[0.2151436237827625, -0.21514362378276305]], [[0.21514362381379817, -0.21514362381379867]], [[0.21514362384422586, -0.21514362384422633]], [[0.21514362387405736, -0.21514362387405786]], [[0.21514362390330455, -0.215143623903305]], [[0.21514362393197867, -0.2151436239319791]], [[0.21514362396009096, -0.21514362396009146]], [[0.21514362398765255, -0.21514362398765305]], [[0.21514362401467418, -0.21514362401467468]], [[0.21514362404116646, -0.21514362404116688]], [[0.21514362406713966, -0.2151436240671401]], [[0.21514362409260407, -0.21514362409260443]], [[0.21514362411756957, -0.2151436241175699]], [[0.2151436241420459, -0.2151436241420463]], [[0.21514362416604277, -0.21514362416604316]], [[0.21514362418956956, -0.21514362418956992]], [[0.2151436242126354, -0.21514362421263575]], [[0.21514362423524935, -0.2151436242352497]], [[0.21514362425742029, -0.2151436242574206]], [[0.2151436242791568, -0.21514362427915715]], [[0.2151436243004675, -0.21514362430046785]], [[0.21514362432136064, -0.21514362432136103]], [[0.21514362434184453, -0.21514362434184492]], [[0.2151436243619271, -0.21514362436192752]], [[0.21514362438161622, -0.2151436243816166]], [[0.2151436244009196, -0.21514362440092002]], [[0.2151436244198448, -0.2151436244198452]], [[0.21514362443839927, -0.21514362443839963]], [[0.21514362445659024, -0.2151436244565906]], [[0.2151436244744248, -0.21514362447442514]], [[0.21514362449190993, -0.2151436244919103]], [[0.21514362450905253, -0.2151436245090529]], [[0.21514362452585928, -0.2151436245258596]], [[0.21514362454233674, -0.21514362454233713]], [[0.21514362455849143, -0.21514362455849184]], [[0.21514362457432962, -0.21514362457433006]], [[0.21514362458985747, -0.21514362458985792]], [[0.21514362460508113, -0.21514362460508163]], [[0.21514362462000658, -0.21514362462000705]], [[0.2151436246346396, -0.2151436246346401]], [[0.21514362464898595, -0.21514362464898645]], [[0.2151436246630512, -0.2151436246630517]], [[0.2151436246768409, -0.21514362467684145]], [[0.21514362469036044, -0.21514362469036102]], [[0.21514362470361514, -0.2151436247036157]], [[0.2151436247166102, -0.21514362471661075]], [[0.21514362472935067, -0.2151436247293512]], [[0.21514362474184148, -0.21514362474184207]], [[0.2151436247540876, -0.2151436247540882]], [[0.21514362476609383, -0.2151436247660944]], [[0.21514362477786475, -0.21514362477786536]], [[0.21514362478940507, -0.21514362478940574]], [[0.21514362480071936, -0.21514362480072005]], [[0.21514362481181196, -0.21514362481181265]], [[0.2151436248226873, -0.21514362482268798]], [[0.21514362483334953, -0.2151436248333502]], [[0.21514362484380287, -0.21514362484380356]], [[0.21514362485405147, -0.21514362485405217]], [[0.21514362486409921, -0.2151436248641]], [[0.2151436248739501, -0.21514362487395094]], [[0.21514362488360803, -0.21514362488360889]], [[0.2151436248930767, -0.21514362489307756]], [[0.21514362490235994, -0.21514362490236077]], [[0.21514362491146127, -0.21514362491146208]], [[0.21514362492038436, -0.21514362492038508]], [[0.21514362492913264, -0.2151436249291333]], [[0.2151436249377095, -0.21514362493771017]], [[0.21514362494611833, -0.21514362494611897]], [[0.21514362495436234, -0.215143624954363]], [[0.21514362496244493, -0.21514362496244555]], [[0.21514362497036918, -0.21514362497036973]], [[0.21514362497813816, -0.21514362497813866]], [[0.21514362498575493, -0.21514362498575548]], [[0.21514362499322245, -0.21514362499322298]], [[0.21514362500054374, -0.21514362500054424]], [[0.21514362500772158, -0.21514362500772208]], [[0.2151436250147588, -0.21514362501475925]], [[0.21514362502165812, -0.21514362502165857]], [[0.21514362502842227, -0.21514362502842274]], [[0.2151436250350539, -0.2151436250350544]], [[0.21514362504155565, -0.2151436250415561]], [[0.21514362504793, -0.21514362504793044]], [[0.21514362505417947, -0.21514362505417994]], [[0.21514362506030654, -0.21514362506030693]], [[0.2151436250663135, -0.2151436250663139]], [[0.2151436250722028, -0.2151436250722032]], [[0.2151436250779768, -0.21514362507797707]], [[0.2151436250836376, -0.21514362508363782]], [[0.21514362508918752, -0.2151436250891877]], [[0.21514362509462864, -0.21514362509462887]], [[0.2151436250999632, -0.21514362509996346]], [[0.2151436251051933, -0.21514362510519358]], [[0.21514362511032087, -0.21514362511032115]], [[0.21514362511534807, -0.2151436251153483]], [[0.21514362512027674, -0.2151436251202769]], [[0.21514362512510876, -0.21514362512510898]], [[0.21514362512984625, -0.21514362512984644]], [[0.21514362513449084, -0.21514362513449103]], [[0.2151436251390445, -0.21514362513904467]], [[0.21514362514350888, -0.21514362514350904]], [[0.21514362514788582, -0.21514362514788601]], [[0.215143625152177, -0.2151436251521772]], [[0.21514362515638413, -0.21514362515638435]], [[0.2151436251605089, -0.21514362516050908]], [[0.21514362516455277, -0.21514362516455293]], [[0.21514362516851743, -0.2151436251685176]], [[0.2151436251724044, -0.21514362517240468]], [[0.21514362517621521, -0.21514362517621546]], [[0.2151436251799514, -0.21514362517995164]], [[0.21514362518361435, -0.2151436251836146]], [[0.21514362518720564, -0.2151436251872058]], [[0.2151436251907265, -0.21514362519072672]], [[0.21514362519417835, -0.21514362519417862]], [[0.21514362519756264, -0.21514362519756292]], [[0.2151436252008806, -0.21514362520088093]], [[0.21514362520413355, -0.21514362520413388]], [[0.21514362520732275, -0.2151436252073231]], [[0.2151436252104495, -0.2151436252104499]], [[0.21514362521351496, -0.2151436252135154]], [[0.21514362521652042, -0.2151436252165208]], [[0.215143625219467, -0.21514362521946737]], [[0.2151436252223558, -0.21514362522235625]], [[0.21514362522518804, -0.21514362522518843]], [[0.21514362522796482, -0.2151436252279652]], [[0.21514362523068717, -0.21514362523068759]], [[0.21514362523335623, -0.2151436252333566]], [[0.21514362523597294, -0.2151436252359733]], [[0.21514362523853842, -0.21514362523853875]], [[0.21514362524105365, -0.21514362524105396]], [[0.21514362524351954, -0.21514362524351985]], [[0.2151436252459372, -0.21514362524593755]], [[0.21514362524830744, -0.21514362524830777]], [[0.21514362525063122, -0.21514362525063152]], [[0.21514362525290953, -0.21514362525290984]], [[0.2151436252551432, -0.2151436252551435]], [[0.21514362525733313, -0.21514362525733338]], [[0.2151436252594801, -0.21514362525948036]], [[0.21514362526158504, -0.21514362526158526]], [[0.21514362526364877, -0.215143625263649]], [[0.21514362526567204, -0.2151436252656722]], [[0.21514362526765574, -0.2151436252676558]], [[0.21514362526960049, -0.21514362526960057]], [[0.21514362527150716, -0.2151436252715072]], [[0.2151436252733764, -0.2151436252733765]], [[0.21514362527520908, -0.2151436252752092]], [[0.21514362527700584, -0.21514362527700598]], [[0.2151436252787674, -0.21514362527876751]], [[0.21514362528049452, -0.2151436252804946]], [[0.2151436252821877, -0.21514362528218775]], [[0.21514362528384778, -0.21514362528384778]], [[0.21514362528547537, -0.21514362528547532]], [[0.215143625287071, -0.21514362528707093]], [[0.21514362528863543, -0.21514362528863534]], [[0.21514362529016914, -0.21514362529016906]], [[0.21514362529167286, -0.2151436252916727]], [[0.2151436252931471, -0.21514362529314693]], [[0.21514362529459247, -0.21514362529459224]], [[0.21514362529600944, -0.21514362529600933]], [[0.2151436252973987, -0.2151436252973986]], [[0.2151436252987608, -0.2151436252987607]], [[0.21514362530009612, -0.21514362530009606]], [[0.2151436253014053, -0.21514362530140524]], [[0.21514362530268882, -0.21514362530268877]], [[0.21514362530394726, -0.21514362530394723]], [[0.21514362530518102, -0.215143625305181]], [[0.21514362530639064, -0.21514362530639053]], [[0.21514362530757647, -0.2151436253075764]], [[0.21514362530873918, -0.21514362530873904]], [[0.21514362530987902, -0.21514362530987893]], [[0.21514362531099654, -0.21514362531099646]], [[0.21514362531209225, -0.2151436253120921]], [[0.21514362531316636, -0.2151436253131664]], [[0.2151436253142195, -0.21514362531421957]], [[0.215143625315252, -0.21514362531525208]], [[0.21514362531626427, -0.21514362531626433]], [[0.21514362531725673, -0.21514362531725684]], [[0.21514362531822973, -0.21514362531822984]], [[0.21514362531918368, -0.2151436253191838]], [[0.21514362532011896, -0.21514362532011905]], [[0.21514362532103593, -0.21514362532103604]], [[0.2151436253219349, -0.21514362532193504]], [[0.2151436253228163, -0.21514362532281636]], [[0.21514362532368042, -0.21514362532368042]], [[0.21514362532452758, -0.21514362532452758]], [[0.21514362532535808, -0.2151436253253581]], [[0.21514362532617234, -0.21514362532617243]], [[0.21514362532697068, -0.2151436253269708]], [[0.21514362532775344, -0.21514362532775347]], [[0.21514362532852088, -0.21514362532852083]], [[0.21514362532927322, -0.21514362532927317]], [[0.21514362533001077, -0.21514362533001072]], [[0.21514362533073395, -0.21514362533073386]], [[0.21514362533144288, -0.21514362533144282]], [[0.215143625332138, -0.21514362533213793]], [[0.21514362533281944, -0.21514362533281944]], [[0.21514362533348758, -0.21514362533348758]], [[0.2151436253341426, -0.21514362533414255]], [[0.21514362533478476, -0.21514362533478476]], [[0.21514362533541437, -0.21514362533541437]], [[0.21514362533603165, -0.21514362533603162]], [[0.21514362533663683, -0.21514362533663683]], [[0.21514362533723014, -0.2151436253372302]], [[0.21514362533781184, -0.2151436253378119]], [[0.21514362533838213, -0.21514362533838222]], [[0.21514362533894127, -0.21514362533894132]], [[0.21514362533948947, -0.21514362533948952]], [[0.21514362534002693, -0.21514362534002696]], [[0.2151436253405538, -0.21514362534055387]], [[0.2151436253410704, -0.21514362534107043]], [[0.21514362534157683, -0.21514362534157688]], [[0.21514362534207337, -0.21514362534207343]], [[0.21514362534256015, -0.21514362534256024]], [[0.21514362534303744, -0.21514362534303755]], [[0.2151436253435054, -0.2151436253435055]], [[0.21514362534396414, -0.2151436253439643]], [[0.21514362534441392, -0.21514362534441409]], [[0.21514362534485484, -0.21514362534485504]], [[0.2151436253452872, -0.21514362534528736]], [[0.21514362534571102, -0.21514362534571124]], [[0.21514362534612658, -0.2151436253461268]], [[0.215143625346534, -0.2151436253465342]], [[0.21514362534693346, -0.21514362534693363]], [[0.21514362534732506, -0.21514362534732523]], [[0.21514362534770906, -0.21514362534770917]], [[0.2151436253480855, -0.21514362534808562]], [[0.21514362534845455, -0.2151436253484546]], [[0.21514362534881637, -0.21514362534881637]], [[0.21514362534917109, -0.21514362534917109]], [[0.21514362534951886, -0.21514362534951886]], [[0.21514362534985979, -0.21514362534985984]], [[0.21514362535019405, -0.2151436253501941]], [[0.21514362535052178, -0.21514362535052187]], [[0.21514362535084303, -0.2151436253508432]], [[0.215143625351158, -0.21514362535115822]], [[0.2151436253514668, -0.21514362535146708]], [[0.21514362535176956, -0.2151436253517699]], [[0.2151436253520665, -0.21514362535206683]], [[0.2151436253523575, -0.21514362535235784]], [[0.21514362535264284, -0.21514362535264311]], [[0.21514362535292259, -0.2151436253529229]], [[0.21514362535319687, -0.21514362535319714]], [[0.21514362535346576, -0.21514362535346604]], [[0.2151436253537294, -0.21514362535372966]], [[0.21514362535398787, -0.21514362535398812]], [[0.21514362535424128, -0.21514362535424153]], [[0.2151436253544897, -0.21514362535448997]], [[0.21514362535473322, -0.21514362535473353]], [[0.21514362535497206, -0.2151436253549724]], [[0.21514362535520615, -0.21514362535520654]], [[0.21514362535543569, -0.21514362535543607]], [[0.21514362535566073, -0.21514362535566117]], [[0.21514362535588138, -0.21514362535588183]], [[0.2151436253560977, -0.21514362535609816]], [[0.21514362535630974, -0.2151436253563102]], [[0.21514362535651768, -0.21514362535651804]], [[0.2151436253567215, -0.21514362535672188]], [[0.21514362535692133, -0.21514362535692172]], [[0.21514362535711723, -0.21514362535711767]], [[0.21514362535730935, -0.21514362535730974]], [[0.21514362535749765, -0.21514362535749806]], [[0.21514362535768233, -0.21514362535768272]], [[0.21514362535786336, -0.2151436253578637]], [[0.21514362535804085, -0.2151436253580412]], [[0.21514362535821474, -0.21514362535821513]], [[0.21514362535838533, -0.21514362535838571]], [[0.21514362535855258, -0.21514362535855297]], [[0.2151436253587165, -0.21514362535871698]], [[0.21514362535887727, -0.21514362535887774]], [[0.21514362535903486, -0.21514362535903536]], [[0.2151436253591894, -0.21514362535918985]], [[0.21514362535934092, -0.21514362535934137]], [[0.21514362535948942, -0.2151436253594899]], [[0.21514362535963505, -0.21514362535963552]], [[0.21514362535977777, -0.2151436253597782]], [[0.2151436253599177, -0.2151436253599182]], [[0.21514362536005494, -0.21514362536005543]], [[0.21514362536018944, -0.21514362536018997]], [[0.21514362536032133, -0.2151436253603219]], [[0.2151436253604507, -0.21514362536045123]], [[0.21514362536057746, -0.21514362536057807]], [[0.2151436253607018, -0.21514362536070236]], [[0.21514362536082363, -0.21514362536082424]], [[0.21514362536094309, -0.2151436253609436]], [[0.21514362536106024, -0.2151436253610608]], [[0.21514362536117504, -0.2151436253611756]], [[0.21514362536128764, -0.2151436253612882]], [[0.21514362536139803, -0.21514362536139855]], [[0.21514362536150616, -0.21514362536150677]], [[0.21514362536161227, -0.2151436253616129]], [[0.21514362536171633, -0.21514362536171694]], [[0.21514362536181833, -0.21514362536181897]], [[0.21514362536191828, -0.21514362536191894]], [[0.2151436253620163, -0.21514362536201703]], [[0.21514362536211246, -0.21514362536211318]], [[0.21514362536220666, -0.21514362536220738]], [[0.21514362536229903, -0.21514362536229972]], [[0.21514362536238962, -0.2151436253623903]], [[0.21514362536247844, -0.21514362536247908]], [[0.21514362536256548, -0.21514362536256615]], [[0.2151436253626508, -0.21514362536265147]], [[0.21514362536273451, -0.21514362536273518]], [[0.2151436253628165, -0.21514362536281723]], [[0.215143625362897, -0.21514362536289766]], [[0.21514362536297588, -0.21514362536297654]], [[0.21514362536305318, -0.21514362536305381]], [[0.21514362536312898, -0.2151436253631296]], [[0.2151436253632033, -0.215143625363204]], [[0.21514362536327614, -0.21514362536327686]], [[0.21514362536334763, -0.2151436253633483]], [[0.21514362536341763, -0.2151436253634183]], [[0.21514362536348627, -0.2151436253634869]], [[0.2151436253635536, -0.21514362536355425]], [[0.2151436253636196, -0.21514362536362022]], [[0.2151436253636843, -0.21514362536368492]], [[0.21514362536374776, -0.21514362536374843]], [[0.21514362536380996, -0.21514362536381065]], [[0.21514362536387097, -0.2151436253638716]], [[0.21514362536393078, -0.2151436253639314]], [[0.21514362536398934, -0.21514362536398995]], [[0.2151436253640468, -0.21514362536404746]], [[0.21514362536410314, -0.2151436253641038]], [[0.21514362536415838, -0.21514362536415912]], [[0.21514362536421247, -0.21514362536421325]], [[0.2151436253642655, -0.2151436253642663]], [[0.21514362536431758, -0.21514362536431836]], [[0.2151436253643686, -0.2151436253643694]], [[0.21514362536441867, -0.21514362536441944]], [[0.2151436253644677, -0.2151436253644685]], [[0.2151436253645158, -0.21514362536451653]], [[0.215143625364563, -0.21514362536456366]], [[0.21514362536460924, -0.21514362536460988]], [[0.21514362536465456, -0.21514362536465514]], [[0.215143625364699, -0.21514362536469955]], [[0.21514362536474257, -0.21514362536474316]], [[0.21514362536478526, -0.21514362536478587]], [[0.21514362536482715, -0.21514362536482773]], [[0.21514362536486825, -0.2151436253648688]], [[0.21514362536490844, -0.215143625364909]], [[0.21514362536494797, -0.2151436253649485]], [[0.21514362536498666, -0.21514362536498718]], [[0.21514362536502452, -0.2151436253650251]], [[0.21514362536506168, -0.21514362536506226]], [[0.21514362536509812, -0.2151436253650987]], [[0.21514362536513382, -0.21514362536513448]], [[0.21514362536516887, -0.2151436253651695]], [[0.21514362536520318, -0.21514362536520387]], [[0.21514362536523685, -0.2151436253652375]], [[0.21514362536526987, -0.21514362536527054]], [[0.21514362536530224, -0.2151436253653029]], [[0.21514362536533393, -0.2151436253653346]], [[0.215143625365365, -0.21514362536536574]], [[0.2151436253653955, -0.21514362536539622]], [[0.21514362536542542, -0.21514362536542614]], [[0.21514362536545473, -0.21514362536545545]], [[0.21514362536548348, -0.2151436253654842]], [[0.21514362536551168, -0.2151436253655124]], [[0.21514362536553927, -0.2151436253655401]], [[0.21514362536556636, -0.2151436253655672]], [[0.21514362536559295, -0.21514362536559373]], [[0.21514362536561904, -0.2151436253656198]], [[0.21514362536564455, -0.2151436253656453]], [[0.21514362536566956, -0.2151436253656703]], [[0.2151436253656941, -0.2151436253656948]], [[0.21514362536571818, -0.2151436253657189]], [[0.21514362536574178, -0.2151436253657425]], [[0.21514362536576487, -0.2151436253657656]], [[0.2151436253657876, -0.21514362536578827]], [[0.21514362536580978, -0.21514362536581044]], [[0.21514362536583154, -0.21514362536583226]], [[0.2151436253658529, -0.21514362536585363]], [[0.21514362536587378, -0.21514362536587456]], [[0.21514362536589435, -0.21514362536589515]], [[0.21514362536591453, -0.2151436253659153]], [[0.2151436253659343, -0.21514362536593507]], [[0.21514362536595358, -0.2151436253659544]], [[0.21514362536597254, -0.21514362536597342]], [[0.21514362536599108, -0.21514362536599196]], [[0.21514362536600928, -0.21514362536601017]], [[0.2151436253660271, -0.2151436253660281]], [[0.21514362536604462, -0.2151436253660456]], [[0.21514362536606182, -0.2151436253660628]], [[0.21514362536607867, -0.21514362536607962]], [[0.21514362536609516, -0.2151436253660961]], [[0.21514362536611137, -0.21514362536611226]], [[0.2151436253661273, -0.21514362536612816]], [[0.21514362536614284, -0.21514362536614373]], [[0.21514362536615816, -0.21514362536615894]], [[0.2151436253661731, -0.2151436253661739]], [[0.21514362536618778, -0.21514362536618858]], [[0.21514362536620218, -0.21514362536620296]], [[0.21514362536621628, -0.21514362536621703]], [[0.21514362536623005, -0.21514362536623083]], [[0.2151436253662436, -0.21514362536624432]], [[0.21514362536625692, -0.21514362536625758]], [[0.21514362536627, -0.21514362536627063]], [[0.21514362536628276, -0.2151436253662834]], [[0.21514362536629528, -0.2151436253662959]], [[0.21514362536630752, -0.2151436253663081]], [[0.2151436253663196, -0.21514362536632015]], [[0.2151436253663314, -0.21514362536633197]], [[0.2151436253663429, -0.21514362536634357]], [[0.2151436253663543, -0.215143625366355]], [[0.21514362536636542, -0.2151436253663661]], [[0.21514362536637635, -0.215143625366377]], [[0.21514362536638704, -0.21514362536638768]], [[0.21514362536639756, -0.21514362536639814]], [[0.2151436253664078, -0.2151436253664084]], [[0.21514362536641787, -0.21514362536641846]], [[0.21514362536642778, -0.2151436253664284]], [[0.2151436253664375, -0.2151436253664381]], [[0.21514362536644702, -0.2151436253664476]], [[0.21514362536645637, -0.21514362536645693]], [[0.21514362536646553, -0.21514362536646603]], [[0.21514362536647444, -0.21514362536647497]], [[0.21514362536648318, -0.21514362536648368]], [[0.2151436253664918, -0.21514362536649234]], [[0.21514362536650022, -0.2151436253665008]], [[0.2151436253665085, -0.21514362536650905]], [[0.21514362536651668, -0.21514362536651718]], [[0.2151436253665246, -0.2151436253665251]], [[0.21514362536653237, -0.21514362536653286]], [[0.21514362536654003, -0.21514362536654053]], [[0.21514362536654755, -0.21514362536654802]], [[0.21514362536655493, -0.2151436253665554]], [[0.21514362536656212, -0.21514362536656256]], [[0.21514362536656914, -0.2151436253665696]], [[0.215143625366576, -0.21514362536657647]], [[0.21514362536658282, -0.2151436253665833]], [[0.2151436253665895, -0.21514362536658993]], [[0.21514362536659604, -0.21514362536659642]], [[0.21514362536660242, -0.21514362536660275]], [[0.2151436253666087, -0.21514362536660903]], [[0.21514362536661483, -0.21514362536661516]], [[0.21514362536662085, -0.21514362536662124]], [[0.2151436253666267, -0.21514362536662712]], [[0.21514362536663245, -0.21514362536663295]], [[0.2151436253666381, -0.2151436253666386]], [[0.21514362536664372, -0.21514362536664422]], [[0.21514362536664916, -0.2151436253666497]], [[0.2151436253666545, -0.21514362536665504]], [[0.21514362536665968, -0.2151436253666603]], [[0.21514362536666481, -0.2151436253666654]], [[0.2151436253666698, -0.21514362536667048]], [[0.2151436253666748, -0.21514362536667542]], [[0.21514362536667964, -0.21514362536668025]], [[0.2151436253666844, -0.215143625366685]], [[0.21514362536668907, -0.21514362536668968]], [[0.21514362536669362, -0.21514362536669426]], [[0.21514362536669812, -0.2151436253666988]], [[0.2151436253667025, -0.21514362536670315]], [[0.2151436253667068, -0.21514362536670745]], [[0.215143625366711, -0.21514362536671164]], [[0.21514362536671516, -0.21514362536671575]], [[0.21514362536671922, -0.21514362536671983]], [[0.2151436253667232, -0.21514362536672377]], [[0.2151436253667271, -0.2151436253667276]], [[0.21514362536673096, -0.2151436253667314]], [[0.21514362536673468, -0.2151436253667352]], [[0.2151436253667383, -0.21514362536673887]], [[0.21514362536674192, -0.2151436253667425]], [[0.21514362536674544, -0.215143625366746]], [[0.21514362536674891, -0.21514362536674947]], [[0.21514362536675233, -0.2151436253667529]], [[0.21514362536675566, -0.21514362536675619]], [[0.21514362536675885, -0.2151436253667594]], [[0.2151436253667621, -0.2151436253667626]], [[0.21514362536676523, -0.21514362536676568]], [[0.2151436253667683, -0.2151436253667688]], [[0.21514362536677129, -0.21514362536677178]], [[0.21514362536677428, -0.21514362536677473]], [[0.21514362536677717, -0.21514362536677756]], [[0.21514362536678006, -0.21514362536678042]], [[0.2151436253667829, -0.21514362536678316]], [[0.21514362536678563, -0.21514362536678583]], [[0.21514362536678827, -0.2151436253667885]], [[0.21514362536679088, -0.2151436253667911]], [[0.2151436253667935, -0.2151436253667937]], [[0.215143625366796, -0.2151436253667962]], [[0.21514362536679846, -0.2151436253667987]], [[0.2151436253668009, -0.21514362536680115]], [[0.21514362536680326, -0.2151436253668036]], [[0.2151436253668056, -0.21514362536680598]], [[0.21514362536680787, -0.21514362536680826]], [[0.21514362536681014, -0.21514362536681053]], [[0.21514362536681234, -0.21514362536681272]], [[0.21514362536681447, -0.21514362536681492]], [[0.21514362536681658, -0.21514362536681697]], [[0.2151436253668187, -0.21514362536681902]], [[0.21514362536682072, -0.21514362536682102]], [[0.2151436253668227, -0.21514362536682302]], [[0.21514362536682458, -0.21514362536682496]], [[0.21514362536682652, -0.2151436253668269]], [[0.21514362536682835, -0.2151436253668288]], [[0.21514362536683018, -0.21514362536683063]], [[0.21514362536683201, -0.21514362536683243]], [[0.2151436253668338, -0.21514362536683415]], [[0.21514362536683554, -0.21514362536683587]], [[0.21514362536683718, -0.21514362536683757]], [[0.21514362536683884, -0.21514362536683923]], [[0.2151436253668405, -0.21514362536684087]], [[0.21514362536684212, -0.21514362536684248]], [[0.21514362536684367, -0.21514362536684406]], [[0.21514362536684523, -0.21514362536684561]], [[0.21514362536684675, -0.2151436253668471]], [[0.21514362536684822, -0.21514362536684856]], [[0.2151436253668497, -0.21514362536684992]], [[0.2151436253668511, -0.21514362536685128]], [[0.21514362536685255, -0.2151436253668527]], [[0.21514362536685394, -0.21514362536685405]], [[0.2151436253668553, -0.21514362536685544]], [[0.2151436253668566, -0.21514362536685672]], [[0.21514362536685788, -0.215143625366858]], [[0.21514362536685916, -0.21514362536685933]], [[0.2151436253668604, -0.21514362536686055]], [[0.21514362536686166, -0.2151436253668617]], [[0.21514362536686282, -0.21514362536686288]], [[0.215143625366864, -0.21514362536686404]], [[0.21514362536686515, -0.2151436253668652]], [[0.21514362536686626, -0.21514362536686632]], [[0.21514362536686732, -0.21514362536686749]], [[0.21514362536686843, -0.21514362536686854]], [[0.21514362536686948, -0.21514362536686965]], [[0.21514362536687054, -0.21514362536687068]], [[0.2151436253668716, -0.21514362536687165]], [[0.2151436253668726, -0.2151436253668727]], [[0.21514362536687354, -0.2151436253668737]], [[0.21514362536687448, -0.21514362536687465]], [[0.21514362536687548, -0.2151436253668756]], [[0.21514362536687637, -0.21514362536687648]], [[0.21514362536687726, -0.21514362536687737]], [[0.21514362536687814, -0.21514362536687823]], [[0.21514362536687892, -0.2151436253668791]], [[0.21514362536687978, -0.21514362536687998]], [[0.2151436253668806, -0.2151436253668808]], [[0.21514362536688136, -0.21514362536688159]], [[0.21514362536688214, -0.21514362536688242]], [[0.21514362536688292, -0.21514362536688325]], [[0.2151436253668837, -0.21514362536688408]], [[0.2151436253668844, -0.21514362536688483]], [[0.21514362536688517, -0.2151436253668856]], [[0.21514362536688592, -0.21514362536688636]], [[0.2151436253668866, -0.21514362536688703]], [[0.21514362536688736, -0.21514362536688775]], [[0.21514362536688802, -0.21514362536688847]], [[0.2151436253668887, -0.21514362536688914]], [[0.21514362536688936, -0.21514362536688977]], [[0.21514362536688997, -0.2151436253668904]], [[0.21514362536689055, -0.21514362536689108]], [[0.2151436253668912, -0.2151436253668917]], [[0.2151436253668918, -0.21514362536689227]], [[0.2151436253668924, -0.21514362536689283]], [[0.215143625366893, -0.2151436253668934]], [[0.2151436253668935, -0.21514362536689396]], [[0.2151436253668941, -0.21514362536689455]], [[0.2151436253668947, -0.2151436253668951]], [[0.21514362536689527, -0.21514362536689563]], [[0.21514362536689582, -0.21514362536689613]], [[0.21514362536689635, -0.21514362536689666]], [[0.21514362536689688, -0.21514362536689718]], [[0.21514362536689735, -0.21514362536689766]], [[0.21514362536689785, -0.21514362536689818]], [[0.21514362536689832, -0.21514362536689866]], [[0.21514362536689882, -0.21514362536689913]], [[0.21514362536689924, -0.21514362536689957]], [[0.21514362536689968, -0.21514362536690007]], [[0.21514362536690013, -0.21514362536690057]], [[0.21514362536690057, -0.21514362536690096]], [[0.21514362536690096, -0.21514362536690135]], [[0.2151436253669014, -0.21514362536690176]], [[0.2151436253669018, -0.21514362536690212]], [[0.21514362536690218, -0.21514362536690257]], [[0.2151436253669026, -0.2151436253669029]], [[0.21514362536690299, -0.2151436253669033]], [[0.2151436253669034, -0.2151436253669037]], [[0.2151436253669038, -0.21514362536690407]], [[0.21514362536690412, -0.2151436253669044]], [[0.21514362536690446, -0.21514362536690473]], [[0.2151436253669048, -0.21514362536690507]], [[0.21514362536690512, -0.21514362536690546]], [[0.21514362536690546, -0.21514362536690573]], [[0.21514362536690573, -0.21514362536690612]], [[0.21514362536690607, -0.21514362536690645]], [[0.21514362536690634, -0.2151436253669068]], [[0.21514362536690665, -0.21514362536690707]], [[0.2151436253669069, -0.21514362536690734]], [[0.21514362536690723, -0.21514362536690762]], [[0.2151436253669075, -0.2151436253669079]], [[0.2151436253669078, -0.21514362536690818]], [[0.21514362536690806, -0.21514362536690845]], [[0.21514362536690834, -0.21514362536690873]], [[0.21514362536690862, -0.215143625366909]], [[0.21514362536690895, -0.21514362536690929]], [[0.21514362536690923, -0.21514362536690954]], [[0.21514362536690948, -0.21514362536690976]], [[0.21514362536690979, -0.21514362536691004]], [[0.21514362536690998, -0.21514362536691028]], [[0.21514362536691017, -0.2151436253669105]], [[0.21514362536691045, -0.21514362536691073]], [[0.21514362536691065, -0.21514362536691095]], [[0.21514362536691084, -0.21514362536691117]], [[0.21514362536691106, -0.21514362536691145]], [[0.21514362536691126, -0.21514362536691164]], [[0.2151436253669115, -0.21514362536691187]], [[0.2151436253669117, -0.215143625366912]], [[0.2151436253669119, -0.21514362536691226]], [[0.21514362536691206, -0.21514362536691245]], [[0.21514362536691223, -0.21514362536691264]], [[0.21514362536691248, -0.21514362536691284]], [[0.2151436253669127, -0.21514362536691306]], [[0.21514362536691287, -0.21514362536691317]], [[0.21514362536691306, -0.21514362536691337]], [[0.21514362536691328, -0.21514362536691356]], [[0.2151436253669135, -0.21514362536691378]], [[0.21514362536691367, -0.2151436253669139]], [[0.21514362536691384, -0.21514362536691406]], [[0.21514362536691395, -0.2151436253669142]], [[0.21514362536691406, -0.2151436253669144]], [[0.21514362536691423, -0.21514362536691456]], [[0.2151436253669144, -0.21514362536691473]], [[0.21514362536691456, -0.2151436253669149]], [[0.21514362536691461, -0.215143625366915]], [[0.21514362536691484, -0.21514362536691517]], [[0.215143625366915, -0.21514362536691528]], [[0.21514362536691511, -0.2151436253669154]], [[0.21514362536691523, -0.2151436253669155]], [[0.21514362536691542, -0.21514362536691561]], [[0.21514362536691553, -0.21514362536691575]], [[0.21514362536691567, -0.2151436253669159]], [[0.21514362536691584, -0.215143625366916]], [[0.21514362536691597, -0.21514362536691606]], [[0.2151436253669161, -0.21514362536691617]], [[0.21514362536691625, -0.21514362536691622]], [[0.21514362536691634, -0.2151436253669164]], [[0.21514362536691647, -0.21514362536691653]], [[0.21514362536691656, -0.2151436253669166]], [[0.2151436253669167, -0.21514362536691672]], [[0.21514362536691684, -0.21514362536691686]], [[0.21514362536691692, -0.2151436253669169]], [[0.215143625366917, -0.21514362536691697]], [[0.21514362536691717, -0.2151436253669171]], [[0.21514362536691728, -0.21514362536691722]], [[0.2151436253669174, -0.21514362536691728]], [[0.21514362536691745, -0.2151436253669174]], [[0.21514362536691756, -0.21514362536691745]], [[0.21514362536691767, -0.2151436253669175]], [[0.21514362536691775, -0.2151436253669176]], [[0.21514362536691778, -0.21514362536691767]], [[0.2151436253669179, -0.21514362536691772]], [[0.215143625366918, -0.21514362536691783]], [[0.21514362536691806, -0.21514362536691795]], [[0.2151436253669181, -0.215143625366918]], [[0.2151436253669182, -0.21514362536691806]], [[0.21514362536691822, -0.2151436253669181]], [[0.21514362536691833, -0.21514362536691822]], [[0.2151436253669184, -0.21514362536691828]], [[0.21514362536691842, -0.21514362536691828]], [[0.21514362536691853, -0.21514362536691833]], [[0.21514362536691867, -0.2151436253669184]], [[0.21514362536691878, -0.21514362536691845]], [[0.2151436253669189, -0.21514362536691856]], [[0.2151436253669189, -0.2151436253669186]], [[0.215143625366919, -0.21514362536691867]], [[0.21514362536691906, -0.21514362536691878]], [[0.2151436253669191, -0.21514362536691878]], [[0.21514362536691917, -0.2151436253669189]], [[0.21514362536691922, -0.21514362536691894]], [[0.21514362536691928, -0.215143625366919]], [[0.21514362536691933, -0.21514362536691906]], [[0.2151436253669194, -0.2151436253669191]], [[0.21514362536691944, -0.21514362536691928]], [[0.2151436253669195, -0.21514362536691933]], [[0.21514362536691956, -0.2151436253669194]], [[0.21514362536691956, -0.21514362536691944]], [[0.2151436253669196, -0.2151436253669195]], [[0.21514362536691967, -0.21514362536691956]], [[0.21514362536691967, -0.2151436253669196]], [[0.21514362536691972, -0.21514362536691967]], [[0.21514362536691978, -0.21514362536691972]], [[0.21514362536691983, -0.21514362536691978]], [[0.2151436253669199, -0.21514362536691983]], [[0.21514362536691994, -0.2151436253669199]], [[0.21514362536692, -0.2151436253669199]], [[0.21514362536692005, -0.21514362536692]], [[0.2151436253669201, -0.21514362536692005]], [[0.21514362536692017, -0.21514362536692003]], [[0.21514362536692022, -0.2151436253669201]], [[0.21514362536692022, -0.21514362536692014]], [[0.21514362536692033, -0.21514362536692017]], [[0.21514362536692044, -0.2151436253669202]], [[0.21514362536692055, -0.21514362536692022]], [[0.21514362536692055, -0.21514362536692025]], [[0.2151436253669206, -0.21514362536692022]], [[0.21514362536692067, -0.21514362536692025]], [[0.2151436253669207, -0.21514362536692028]], [[0.21514362536692078, -0.21514362536692036]], [[0.21514362536692086, -0.2151436253669204]], [[0.2151436253669209, -0.2151436253669204]], [[0.2151436253669209, -0.21514362536692042]], [[0.21514362536692094, -0.21514362536692044]], [[0.215143625366921, -0.2151436253669205]], [[0.215143625366921, -0.21514362536692055]], [[0.21514362536692105, -0.2151436253669206]], [[0.2151436253669211, -0.21514362536692064]], [[0.2151436253669211, -0.21514362536692067]], [[0.21514362536692117, -0.21514362536692075]], [[0.21514362536692117, -0.21514362536692083]], [[0.21514362536692125, -0.21514362536692086]], [[0.21514362536692128, -0.2151436253669209]], [[0.21514362536692128, -0.2151436253669209]], [[0.21514362536692128, -0.21514362536692092]], [[0.2151436253669213, -0.21514362536692094]], [[0.2151436253669213, -0.21514362536692094]], [[0.21514362536692133, -0.21514362536692097]], [[0.21514362536692133, -0.215143625366921]], [[0.21514362536692133, -0.21514362536692105]], [[0.21514362536692133, -0.2151436253669211]], [[0.21514362536692144, -0.21514362536692117]], [[0.21514362536692144, -0.2151436253669212]], [[0.2151436253669215, -0.21514362536692122]], [[0.21514362536692153, -0.21514362536692122]], [[0.21514362536692155, -0.21514362536692128]], [[0.21514362536692155, -0.21514362536692133]], [[0.21514362536692155, -0.21514362536692133]], [[0.21514362536692155, -0.21514362536692133]], [[0.21514362536692155, -0.21514362536692136]], [[0.21514362536692158, -0.21514362536692136]], [[0.2151436253669216, -0.21514362536692144]], [[0.2151436253669216, -0.21514362536692141]], [[0.21514362536692166, -0.21514362536692141]], [[0.21514362536692166, -0.21514362536692144]], [[0.21514362536692166, -0.21514362536692144]], [[0.21514362536692175, -0.21514362536692144]], [[0.21514362536692178, -0.21514362536692144]], [[0.21514362536692178, -0.2151436253669215]], [[0.21514362536692178, -0.2151436253669215]], [[0.2151436253669218, -0.2151436253669215]], [[0.21514362536692183, -0.21514362536692155]], [[0.21514362536692183, -0.2151436253669216]], [[0.21514362536692183, -0.21514362536692164]], [[0.21514362536692183, -0.21514362536692166]], [[0.21514362536692183, -0.2151436253669217]], [[0.21514362536692183, -0.2151436253669217]], [[0.21514362536692183, -0.21514362536692172]], [[0.21514362536692183, -0.21514362536692175]], [[0.21514362536692183, -0.21514362536692172]], [[0.21514362536692186, -0.21514362536692178]], [[0.2151436253669219, -0.2151436253669218]], [[0.2151436253669219, -0.21514362536692183]], [[0.2151436253669219, -0.21514362536692178]], [[0.21514362536692194, -0.21514362536692183]], [[0.21514362536692197, -0.21514362536692183]], [[0.215143625366922, -0.2151436253669219]], [[0.215143625366922, -0.2151436253669219]], [[0.21514362536692205, -0.21514362536692191]], [[0.21514362536692205, -0.21514362536692194]], [[0.21514362536692205, -0.21514362536692194]], [[0.21514362536692205, -0.21514362536692191]], [[0.21514362536692214, -0.21514362536692194]], [[0.21514362536692216, -0.21514362536692194]], [[0.21514362536692216, -0.21514362536692194]], [[0.2151436253669221, -0.21514362536692194]], [[0.21514362536692214, -0.21514362536692197]], [[0.21514362536692216, -0.21514362536692194]], [[0.21514362536692216, -0.21514362536692194]], [[0.21514362536692216, -0.21514362536692194]], [[0.21514362536692216, -0.21514362536692197]], [[0.21514362536692222, -0.215143625366922]], [[0.21514362536692216, -0.215143625366922]], [[0.21514362536692216, -0.215143625366922]], [[0.21514362536692216, -0.215143625366922]], [[0.21514362536692216, -0.215143625366922]], [[0.21514362536692216, -0.215143625366922]], [[0.21514362536692216, -0.21514362536692203]], [[0.21514362536692216, -0.21514362536692197]], [[0.21514362536692216, -0.215143625366922]], [[0.21514362536692216, -0.215143625366922]], [[0.2151436253669222, -0.215143625366922]], [[0.21514362536692216, -0.21514362536692194]], [[0.21514362536692222, -0.215143625366922]], [[0.21514362536692222, -0.21514362536692194]], [[0.21514362536692225, -0.21514362536692197]], [[0.21514362536692228, -0.21514362536692194]], [[0.21514362536692228, -0.21514362536692194]], [[0.21514362536692228, -0.21514362536692197]], [[0.21514362536692233, -0.215143625366922]], [[0.21514362536692228, -0.21514362536692197]], [[0.21514362536692228, -0.215143625366922]], [[0.2151436253669223, -0.215143625366922]], [[0.2151436253669224, -0.21514362536692197]], [[0.21514362536692233, -0.21514362536692194]], [[0.2151436253669224, -0.21514362536692197]], [[0.2151436253669224, -0.215143625366922]], [[0.2151436253669224, -0.21514362536692194]], [[0.21514362536692236, -0.2151436253669219]], [[0.21514362536692244, -0.21514362536692191]], [[0.2151436253669224, -0.21514362536692194]], [[0.2151436253669224, -0.21514362536692194]], [[0.21514362536692244, -0.2151436253669219]], [[0.21514362536692244, -0.21514362536692183]], [[0.21514362536692244, -0.21514362536692183]], [[0.21514362536692244, -0.21514362536692186]], [[0.21514362536692244, -0.2151436253669219]], [[0.2151436253669224, -0.2151436253669219]], [[0.21514362536692233, -0.21514362536692186]], [[0.21514362536692233, -0.2151436253669219]], [[0.21514362536692233, -0.2151436253669219]], [[0.21514362536692236, -0.21514362536692191]], [[0.2151436253669224, -0.21514362536692194]], [[0.2151436253669224, -0.215143625366922]], [[0.21514362536692236, -0.21514362536692197]], [[0.21514362536692236, -0.215143625366922]], [[0.2151436253669224, -0.21514362536692194]], [[0.2151436253669224, -0.21514362536692191]], [[0.2151436253669224, -0.2151436253669219]], [[0.2151436253669224, -0.21514362536692194]], [[0.2151436253669224, -0.21514362536692197]], [[0.21514362536692241, -0.21514362536692194]], [[0.21514362536692241, -0.21514362536692194]], [[0.2151436253669224, -0.21514362536692191]], [[0.2151436253669224, -0.2151436253669219]], [[0.21514362536692241, -0.21514362536692186]], [[0.21514362536692244, -0.21514362536692183]], [[0.21514362536692244, -0.21514362536692186]], [[0.21514362536692244, -0.21514362536692183]], [[0.21514362536692244, -0.21514362536692178]], [[0.21514362536692247, -0.2151436253669219]], [[0.2151436253669225, -0.21514362536692183]], [[0.2151436253669225, -0.21514362536692178]], [[0.2151436253669225, -0.2151436253669218]], [[0.2151436253669225, -0.21514362536692183]], [[0.2151436253669225, -0.21514362536692186]], [[0.2151436253669225, -0.21514362536692183]], [[0.21514362536692255, -0.2151436253669219]], [[0.21514362536692255, -0.21514362536692183]], [[0.21514362536692255, -0.21514362536692194]], [[0.21514362536692255, -0.21514362536692194]], [[0.21514362536692255, -0.21514362536692186]], [[0.21514362536692258, -0.2151436253669219]], [[0.2151436253669226, -0.21514362536692194]], [[0.2151436253669226, -0.2151436253669219]], [[0.2151436253669227, -0.2151436253669219]], [[0.2151436253669227, -0.2151436253669219]], [[0.21514362536692272, -0.2151436253669219]], [[0.21514362536692272, -0.21514362536692183]], [[0.21514362536692272, -0.21514362536692183]], [[0.21514362536692266, -0.21514362536692183]], [[0.2151436253669227, -0.21514362536692183]], [[0.21514362536692272, -0.21514362536692178]], [[0.21514362536692275, -0.21514362536692172]], [[0.21514362536692277, -0.21514362536692166]], [[0.21514362536692277, -0.2151436253669217]], [[0.21514362536692277, -0.21514362536692172]], [[0.21514362536692277, -0.21514362536692166]], [[0.21514362536692277, -0.21514362536692166]], [[0.2151436253669228, -0.2151436253669217]], [[0.21514362536692277, -0.21514362536692172]], [[0.21514362536692277, -0.21514362536692175]], [[0.21514362536692277, -0.21514362536692178]], [[0.21514362536692277, -0.21514362536692172]], [[0.21514362536692277, -0.21514362536692172]], [[0.21514362536692277, -0.21514362536692172]], [[0.21514362536692277, -0.21514362536692166]], [[0.21514362536692277, -0.21514362536692172]], [[0.21514362536692277, -0.21514362536692166]], [[0.21514362536692277, -0.2151436253669216]], [[0.21514362536692277, -0.2151436253669216]], [[0.21514362536692277, -0.21514362536692158]], [[0.2151436253669228, -0.21514362536692155]], [[0.21514362536692283, -0.21514362536692155]], [[0.21514362536692283, -0.21514362536692155]], [[0.21514362536692283, -0.21514362536692155]], [[0.21514362536692283, -0.21514362536692155]], [[0.21514362536692283, -0.2151436253669216]], [[0.21514362536692283, -0.21514362536692155]], [[0.21514362536692283, -0.21514362536692155]], [[0.21514362536692286, -0.2151436253669215]], [[0.21514362536692289, -0.21514362536692153]], [[0.21514362536692289, -0.21514362536692155]], [[0.21514362536692294, -0.21514362536692153]], [[0.21514362536692294, -0.2151436253669215]], [[0.21514362536692294, -0.21514362536692147]], [[0.21514362536692297, -0.2151436253669215]], [[0.21514362536692294, -0.21514362536692147]], [[0.21514362536692289, -0.2151436253669215]], [[0.2151436253669229, -0.21514362536692155]], [[0.21514362536692294, -0.21514362536692155]], [[0.21514362536692294, -0.2151436253669215]], [[0.21514362536692297, -0.21514362536692155]], [[0.215143625366923, -0.2151436253669215]], [[0.215143625366923, -0.2151436253669215]], [[0.21514362536692302, -0.21514362536692153]], [[0.21514362536692305, -0.21514362536692155]], [[0.21514362536692305, -0.2151436253669215]], [[0.21514362536692305, -0.21514362536692144]], [[0.21514362536692308, -0.21514362536692144]], [[0.21514362536692305, -0.2151436253669214]], [[0.21514362536692305, -0.21514362536692147]], [[0.21514362536692305, -0.21514362536692144]], [[0.21514362536692305, -0.21514362536692141]], [[0.21514362536692305, -0.2151436253669214]], [[0.21514362536692305, -0.21514362536692141]], [[0.21514362536692305, -0.21514362536692144]], [[0.21514362536692305, -0.21514362536692144]], [[0.21514362536692305, -0.21514362536692144]], [[0.21514362536692305, -0.2151436253669214]], [[0.21514362536692305, -0.21514362536692136]], [[0.21514362536692305, -0.21514362536692133]], [[0.21514362536692305, -0.2151436253669214]], [[0.21514362536692314, -0.21514362536692144]], [[0.21514362536692316, -0.2151436253669214]], [[0.21514362536692316, -0.21514362536692141]], [[0.2151436253669231, -0.2151436253669214]], [[0.2151436253669231, -0.21514362536692133]], [[0.2151436253669231, -0.21514362536692133]], [[0.2151436253669231, -0.21514362536692136]], [[0.2151436253669231, -0.2151436253669214]], [[0.21514362536692314, -0.2151436253669214]], [[0.21514362536692322, -0.21514362536692141]], [[0.21514362536692322, -0.2151436253669214]], [[0.21514362536692322, -0.2151436253669214]], [[0.21514362536692322, -0.21514362536692133]], [[0.21514362536692322, -0.2151436253669214]], [[0.21514362536692322, -0.21514362536692133]], [[0.21514362536692322, -0.21514362536692133]], [[0.21514362536692322, -0.21514362536692133]], [[0.21514362536692322, -0.21514362536692136]], [[0.21514362536692322, -0.21514362536692136]], [[0.21514362536692325, -0.2151436253669214]], [[0.21514362536692327, -0.2151436253669214]], [[0.21514362536692327, -0.2151436253669214]], [[0.21514362536692327, -0.2151436253669214]], [[0.21514362536692327, -0.21514362536692141]], [[0.21514362536692327, -0.2151436253669214]], [[0.21514362536692327, -0.2151436253669214]], [[0.21514362536692327, -0.21514362536692133]], [[0.21514362536692327, -0.21514362536692133]], [[0.21514362536692327, -0.21514362536692136]], [[0.21514362536692327, -0.21514362536692133]], [[0.2151436253669233, -0.21514362536692128]], [[0.21514362536692333, -0.21514362536692128]], [[0.21514362536692333, -0.21514362536692128]], [[0.21514362536692333, -0.21514362536692122]], [[0.21514362536692333, -0.2151436253669212]], [[0.21514362536692333, -0.21514362536692122]], [[0.21514362536692333, -0.21514362536692128]], [[0.21514362536692333, -0.21514362536692128]], [[0.21514362536692333, -0.21514362536692122]], [[0.21514362536692333, -0.2151436253669212]], [[0.21514362536692333, -0.21514362536692128]], [[0.21514362536692333, -0.2151436253669213]], [[0.21514362536692333, -0.21514362536692133]], [[0.21514362536692333, -0.21514362536692133]], [[0.21514362536692333, -0.2151436253669213]], [[0.21514362536692333, -0.21514362536692133]], [[0.21514362536692336, -0.21514362536692133]], [[0.21514362536692339, -0.21514362536692136]], [[0.21514362536692339, -0.21514362536692133]], [[0.21514362536692339, -0.21514362536692128]], [[0.21514362536692339, -0.21514362536692128]], [[0.21514362536692339, -0.21514362536692128]], [[0.21514362536692339, -0.2151436253669213]], [[0.21514362536692339, -0.21514362536692133]], [[0.21514362536692339, -0.21514362536692133]], [[0.21514362536692339, -0.21514362536692133]], [[0.21514362536692339, -0.21514362536692133]], [[0.21514362536692339, -0.21514362536692136]], [[0.21514362536692336, -0.2151436253669214]], [[0.21514362536692339, -0.2151436253669214]], [[0.21514362536692339, -0.21514362536692133]], [[0.21514362536692339, -0.21514362536692136]], [[0.2151436253669234, -0.2151436253669214]], [[0.21514362536692339, -0.2151436253669214]], [[0.21514362536692339, -0.2151436253669214]], [[0.21514362536692336, -0.21514362536692136]], [[0.21514362536692339, -0.2151436253669214]], [[0.21514362536692339, -0.2151436253669214]], [[0.21514362536692336, -0.21514362536692141]], [[0.21514362536692339, -0.21514362536692144]], [[0.21514362536692339, -0.21514362536692144]], [[0.2151436253669234, -0.21514362536692144]], [[0.21514362536692344, -0.21514362536692141]], [[0.2151436253669234, -0.21514362536692144]], [[0.21514362536692339, -0.21514362536692141]], [[0.21514362536692339, -0.21514362536692144]], [[0.21514362536692339, -0.21514362536692144]], [[0.21514362536692339, -0.21514362536692144]], [[0.21514362536692339, -0.21514362536692144]], [[0.21514362536692339, -0.2151436253669215]], [[0.21514362536692339, -0.2151436253669215]], [[0.21514362536692339, -0.2151436253669215]], [[0.21514362536692339, -0.21514362536692153]], [[0.21514362536692339, -0.2151436253669215]], [[0.21514362536692339, -0.21514362536692153]], [[0.2151436253669234, -0.21514362536692155]], [[0.2151436253669234, -0.21514362536692155]], [[0.21514362536692344, -0.21514362536692155]], [[0.21514362536692344, -0.21514362536692155]], [[0.21514362536692344, -0.21514362536692155]], [[0.21514362536692344, -0.21514362536692155]], [[0.21514362536692344, -0.21514362536692155]], [[0.21514362536692344, -0.21514362536692155]], [[0.21514362536692344, -0.2151436253669215]], [[0.21514362536692344, -0.2151436253669215]], [[0.2151436253669235, -0.2151436253669215]], [[0.2151436253669235, -0.2151436253669215]], [[0.2151436253669235, -0.21514362536692144]], [[0.2151436253669235, -0.21514362536692144]], [[0.2151436253669235, -0.21514362536692144]], [[0.2151436253669235, -0.21514362536692141]], [[0.2151436253669235, -0.21514362536692144]], [[0.2151436253669235, -0.21514362536692144]], [[0.2151436253669235, -0.21514362536692144]], [[0.2151436253669235, -0.21514362536692147]], [[0.2151436253669235, -0.2151436253669215]], [[0.21514362536692347, -0.2151436253669215]], [[0.21514362536692347, -0.21514362536692144]], [[0.21514362536692347, -0.21514362536692147]], [[0.2151436253669235, -0.21514362536692147]], [[0.2151436253669235, -0.2151436253669215]], [[0.2151436253669235, -0.21514362536692153]], [[0.21514362536692347, -0.21514362536692155]], [[0.21514362536692344, -0.21514362536692155]], [[0.21514362536692344, -0.21514362536692155]], [[0.2151436253669234, -0.21514362536692155]], [[0.21514362536692339, -0.21514362536692155]], [[0.21514362536692339, -0.21514362536692155]], [[0.21514362536692339, -0.21514362536692153]], [[0.21514362536692339, -0.2151436253669215]], [[0.21514362536692339, -0.21514362536692144]], [[0.2151436253669234, -0.21514362536692144]], [[0.21514362536692339, -0.21514362536692144]], [[0.21514362536692344, -0.21514362536692144]], [[0.21514362536692344, -0.21514362536692147]], [[0.21514362536692347, -0.21514362536692144]], [[0.2151436253669235, -0.21514362536692144]], [[0.2151436253669235, -0.21514362536692144]], [[0.2151436253669235, -0.21514362536692144]], [[0.2151436253669235, -0.21514362536692144]], [[0.2151436253669235, -0.21514362536692144]], [[0.2151436253669235, -0.21514362536692144]], [[0.2151436253669235, -0.2151436253669214]], [[0.2151436253669235, -0.2151436253669214]], [[0.2151436253669235, -0.21514362536692141]], [[0.2151436253669235, -0.2151436253669214]], [[0.2151436253669235, -0.2151436253669214]], [[0.2151436253669235, -0.2151436253669214]], [[0.2151436253669235, -0.21514362536692133]], [[0.2151436253669235, -0.21514362536692133]], [[0.2151436253669235, -0.21514362536692136]], [[0.2151436253669235, -0.21514362536692133]], [[0.2151436253669235, -0.21514362536692133]], [[0.2151436253669235, -0.21514362536692133]], [[0.21514362536692352, -0.2151436253669213]], [[0.21514362536692355, -0.2151436253669213]], [[0.21514362536692355, -0.21514362536692133]], [[0.21514362536692355, -0.2151436253669213]], [[0.21514362536692355, -0.21514362536692128]], [[0.21514362536692355, -0.2151436253669213]], [[0.21514362536692355, -0.2151436253669213]], [[0.21514362536692355, -0.21514362536692133]], [[0.21514362536692358, -0.21514362536692136]], [[0.2151436253669236, -0.2151436253669214]], [[0.2151436253669236, -0.21514362536692133]], [[0.2151436253669236, -0.21514362536692133]], [[0.2151436253669236, -0.2151436253669213]], [[0.2151436253669236, -0.21514362536692128]], [[0.2151436253669236, -0.21514362536692128]], [[0.2151436253669236, -0.21514362536692128]], [[0.2151436253669236, -0.21514362536692122]], [[0.2151436253669236, -0.21514362536692125]], [[0.2151436253669236, -0.21514362536692122]], [[0.2151436253669236, -0.21514362536692128]], [[0.2151436253669236, -0.21514362536692128]], [[0.2151436253669236, -0.2151436253669213]], [[0.2151436253669236, -0.21514362536692133]], [[0.2151436253669236, -0.21514362536692128]], [[0.2151436253669236, -0.21514362536692128]], [[0.2151436253669236, -0.21514362536692128]], [[0.2151436253669236, -0.21514362536692128]], [[0.2151436253669236, -0.2151436253669213]], [[0.2151436253669236, -0.21514362536692128]], [[0.2151436253669236, -0.2151436253669213]], [[0.2151436253669236, -0.21514362536692133]], [[0.2151436253669236, -0.21514362536692133]], [[0.2151436253669236, -0.2151436253669213]], [[0.2151436253669236, -0.21514362536692128]], [[0.2151436253669236, -0.21514362536692133]], [[0.21514362536692358, -0.21514362536692128]], [[0.21514362536692355, -0.21514362536692128]], [[0.21514362536692358, -0.21514362536692125]], [[0.21514362536692355, -0.21514362536692125]], [[0.21514362536692355, -0.21514362536692125]], [[0.21514362536692355, -0.21514362536692128]], [[0.21514362536692358, -0.2151436253669213]], [[0.21514362536692355, -0.21514362536692128]], [[0.21514362536692355, -0.2151436253669213]], [[0.21514362536692355, -0.21514362536692128]], [[0.21514362536692358, -0.21514362536692128]], [[0.21514362536692355, -0.21514362536692117]], [[0.21514362536692355, -0.2151436253669212]], [[0.2151436253669235, -0.21514362536692117]], [[0.2151436253669235, -0.21514362536692117]], [[0.21514362536692355, -0.21514362536692117]], [[0.21514362536692355, -0.21514362536692114]], [[0.21514362536692355, -0.2151436253669211]], [[0.21514362536692355, -0.21514362536692114]], [[0.21514362536692355, -0.21514362536692117]], [[0.21514362536692355, -0.2151436253669211]], [[0.21514362536692358, -0.21514362536692114]], [[0.21514362536692358, -0.2151436253669211]], [[0.21514362536692358, -0.21514362536692114]], [[0.21514362536692358, -0.21514362536692105]], [[0.2151436253669236, -0.2151436253669211]], [[0.2151436253669236, -0.21514362536692114]], [[0.2151436253669236, -0.2151436253669211]], [[0.2151436253669236, -0.2151436253669211]], [[0.2151436253669236, -0.21514362536692105]], [[0.21514362536692366, -0.21514362536692103]], [[0.21514362536692366, -0.21514362536692105]], [[0.21514362536692366, -0.2151436253669211]], [[0.21514362536692366, -0.21514362536692114]], [[0.21514362536692366, -0.21514362536692117]], [[0.21514362536692366, -0.21514362536692117]], [[0.21514362536692366, -0.21514362536692117]], [[0.21514362536692364, -0.2151436253669211]], [[0.2151436253669236, -0.21514362536692108]], [[0.2151436253669236, -0.2151436253669211]], [[0.2151436253669236, -0.21514362536692114]], [[0.2151436253669236, -0.21514362536692117]], [[0.21514362536692364, -0.21514362536692117]], [[0.21514362536692366, -0.21514362536692117]], [[0.2151436253669237, -0.2151436253669211]], [[0.21514362536692372, -0.21514362536692108]], [[0.21514362536692372, -0.21514362536692103]], [[0.21514362536692372, -0.21514362536692105]], [[0.21514362536692372, -0.21514362536692103]], [[0.21514362536692372, -0.21514362536692105]], [[0.21514362536692372, -0.21514362536692105]], [[0.21514362536692372, -0.21514362536692105]], [[0.21514362536692372, -0.21514362536692105]], [[0.21514362536692372, -0.21514362536692105]], [[0.21514362536692372, -0.21514362536692105]], [[0.21514362536692375, -0.21514362536692105]], [[0.21514362536692377, -0.21514362536692105]], [[0.21514362536692377, -0.21514362536692105]], [[0.21514362536692377, -0.215143625366921]], [[0.21514362536692377, -0.215143625366921]], [[0.21514362536692377, -0.21514362536692097]], [[0.21514362536692377, -0.215143625366921]], [[0.21514362536692377, -0.215143625366921]], [[0.21514362536692377, -0.215143625366921]], [[0.21514362536692377, -0.215143625366921]], [[0.21514362536692377, -0.21514362536692103]], [[0.21514362536692377, -0.21514362536692105]], [[0.21514362536692377, -0.21514362536692105]], [[0.21514362536692375, -0.21514362536692103]], [[0.21514362536692377, -0.2151436253669211]], [[0.2151436253669238, -0.2151436253669211]], [[0.21514362536692383, -0.2151436253669211]], [[0.21514362536692383, -0.21514362536692108]], [[0.21514362536692383, -0.2151436253669211]], [[0.21514362536692383, -0.2151436253669211]], [[0.21514362536692383, -0.2151436253669211]], [[0.21514362536692383, -0.2151436253669211]], [[0.21514362536692383, -0.2151436253669211]], [[0.21514362536692383, -0.2151436253669211]], [[0.21514362536692383, -0.21514362536692114]], [[0.21514362536692383, -0.21514362536692117]], [[0.21514362536692383, -0.21514362536692117]], [[0.21514362536692383, -0.21514362536692117]], [[0.21514362536692383, -0.21514362536692117]], [[0.21514362536692383, -0.21514362536692117]], [[0.21514362536692383, -0.2151436253669212]], [[0.21514362536692383, -0.21514362536692122]], [[0.21514362536692383, -0.21514362536692122]], [[0.21514362536692383, -0.21514362536692125]], [[0.21514362536692383, -0.21514362536692125]], [[0.21514362536692383, -0.21514362536692128]], [[0.21514362536692383, -0.21514362536692128]], [[0.2151436253669238, -0.21514362536692128]], [[0.21514362536692383, -0.21514362536692128]], [[0.21514362536692383, -0.21514362536692128]], [[0.21514362536692383, -0.21514362536692128]], [[0.21514362536692383, -0.21514362536692128]], [[0.21514362536692383, -0.2151436253669213]], [[0.21514362536692383, -0.21514362536692125]], [[0.21514362536692383, -0.21514362536692125]], [[0.21514362536692383, -0.21514362536692128]], [[0.21514362536692383, -0.21514362536692122]], [[0.21514362536692383, -0.21514362536692125]], [[0.21514362536692383, -0.21514362536692122]], [[0.2151436253669238, 