[[[-0.055317371977878185, 0.05531737197787825]], [[-0.08269013286421359, 0.08269013286421362]], [[-0.09626356738339975, 0.09626356738339975]], [[-0.10304724041966151, 0.10304724041966154]], [[-0.10637198594900375, 0.1063719859490038]], [[-0.10800282813030262, 0.10800282813030267]], [[-0.10870471294788064, 0.10870471294788073]], [[-0.10900137751941047, 0.10900137751941052]], [[-0.10899762640609492, 0.108997626406095]], [[-0.10888316586238947, 0.10888316586238952]], [[-0.10861580472611596, 0.10861580472611601]], [[-0.10833457379010784, 0.10833457379010789]], [[-0.10799028016292822, 0.1079902801629282]], [[-0.10729115052756422, 0.10729115052756422]], [[-0.10648624073163826, 0.1064862407316382]], [[-0.10575121772758062, 0.10575121772758062]], [[-0.10479528995860143, 0.10479528995860143]], [[-0.10334776894294392, 0.1033477689429439]], [[-0.10166288929065094, 0.1016628892906509]], [[-0.09955969157020263, 0.09955969157020253]], [[-0.09738121514074885, 0.09738121514074882]], [[-0.09422718036730962, 0.09422718036730973]], [[-0.09044675844696995, 0.09044675844697009]], [[-0.0868436038032995, 0.08684360380329964]], [[-0.08211120374242778, 0.08211120374242799]], [[-0.0769521182779496, 0.07695211827794984]], [[-0.06990523793372719, 0.06990523793372744]], [[-0.06227252411918009, 0.06227252411918029]], [[-0.05419075023822703, 0.054190750238227225]], [[-0.04575805442572862, 0.045758054425728785]], [[-0.0375521039474172, 0.037552103947417335]], [[-0.027855790568049252, 0.02785579056804939]], [[-0.013084803474231223, 0.013084803474231334]], [[-0.01014474981543921, 0.010144749815439308]], [[0.00685003211346067, -0.0068500321134606565]], [[0.012973696391100825, -0.012973696391100818]], [[0.026934847253488423, -0.026934847253488374]], [[0.03228874355350121, -0.03228874355350118]], [[0.040641322587108744, -0.040641322587108654]], [[0.055959444655936774, -0.05595944465593663]], [[0.057622940134848394, -0.057622940134848304]], [[0.0673515689726943, -0.06735156897269415]], [[0.07389838602063778, -0.07389838602063763]], [[0.08453884091992737, -0.08453884091992722]], [[0.09422266005172898, -0.09422266005172879]], [[0.09913566361041086, -0.09913566361041064]], [[0.10630097455906586, -0.10630097455906563]], [[0.10871943988962303, -0.10871943988962278]], [[0.11462932818529313, -0.11462932818529288]], [[0.11751380850808316, -0.11751380850808285]], [[0.12249986762265153, -0.12249986762265123]], [[0.12704880844186145, -0.1270488084418612]], [[0.1310013920137243, -0.13100139201372407]], [[0.13447203888617532, -0.1344720388861751]], [[0.13754658119172045, -0.1375465811917202]], [[0.14026412626520884, -0.14026412626520857]], [[0.1427255084356588, -0.14272550843565857]], [[0.14497242529656262, -0.14497242529656235]], [[0.14702255030618816, -0.147022550306188]], [[0.1488950005147959, -0.1488950005147958]], [[0.15063492821445962, -0.1506349282144595]], [[0.15225815390362973, -0.15225815390362968]], [[0.15371519257913618, -0.15371519257913607]], [[0.15512355796295063, -0.1551235579629505]], [[0.15644084755305632, -0.15644084755305615]], [[0.15768845446959306, -0.15768845446959295]], [[0.1587950101129679, -0.15879501011296776]], [[0.15989759804511477, -0.15989759804511464]], [[0.1609303437707188, -0.16093034377071871]], [[0.16189449142565465, -0.16189449142565457]], [[0.16282177031561698, -0.1628217703156169]], [[0.1636837248516202, -0.16368372485162008]], [[0.16449566107732472, -0.16449566107732455]], [[0.16522693516735731, -0.16522693516735715]], [[0.16602786307496248, -0.1660278630749623]], [[0.16672461490807775, -0.16672461490807755]], [[0.16736381748863827, -0.16736381748863807]], [[0.16864647578477124, -0.16864647578477104]], [[0.16900197807280204, -0.16900197807280182]], [[0.16966022473542852, -0.16966022473542833]], [[0.1701625193956816, -0.17016251939568133]], [[0.17067298420831384, -0.1706729842083135]], [[0.172188171199738, -0.17218817119973767]], [[0.17219982236606834, -0.172199822366068]], [[0.17500752011043277, -0.17500752011043244]], [[0.17633610681636158, -0.17633610681636125]], [[0.19077421036760936, -0.19077421036760903]], [[0.18582106781493007, -0.1858210678149297]], [[0.1996065892284779, -0.19960658922847754]], [[0.1901211739368388, -0.19012117393683842]], [[0.19803320474525066, -0.1980332047452502]], [[0.19065421852356979, -0.19065421852356934]], [[0.20742866135615196, -0.20742866135615148]], [[0.19688565332012556, -0.1968856533201251]], [[0.21394820730133085, -0.21394820730133035]], [[0.20045563430954313, -0.20045563430954266]], [[0.22004761810836673, -0.22004761810836623]], [[0.20577682763125563, -0.2057768276312551]], [[0.2200023978535548, -0.22000239785355427]], [[0.20680777221381186, -0.20680777221381133]], [[0.2255702808582956, -0.2255702808582951]], [[0.21082106524425936, -0.21082106524425887]], [[0.2261452396524034, -0.22614523965240294]], [[0.21282715108462008, -0.2128271510846196]], [[0.23454074367477212, -0.23454074367477162]], [[0.21784394291030268, -0.21784394291030218]], [[0.24167263495261093, -0.24167263495261043]], [[0.22287480505104712, -0.22287480505104668]], [[0.24481198161285025, -0.24481198161284984]], [[0.22733123729359173, -0.22733123729359128]], [[0.24668399566592097, -0.24668399566592053]], [[0.22933956792997193, -0.22933956792997154]], [[0.2533834883446854, -0.253383488344685]], [[0.2343022482318993, -0.23430224823189888]], [[0.26191225247886896, -0.2619122524788685]], [[0.24055846930237273, -0.2405584693023723]], [[0.26299622840517123, -0.2629962284051708]], [[0.24329820027284366, -0.24329820027284316]], [[0.2668919176186167, -0.2668919176186162]], [[0.2468462088997918, -0.2468462088997913]], [[0.27006302430153123, -0.2700630243015308]], [[0.25141652895799904, -0.2514165289579986]], [[0.27183724238711154, -0.2718372423871111]], [[0.2567856196585518, -0.2567856196585514]], [[0.2830655027089823, -0.28306550270898195]], [[0.26331205488153886, -0.2633120548815385]], [[0.29302103344760994, -0.29302103344760955]], [[0.27168560198006975, -0.27168560198006936]], [[0.3001157695175273, -0.3001157695175269]], [[0.276620302655077, -0.2766203026550766]], [[0.3063535703183154, -0.306353570318315]], [[0.2841604517609888, -0.2841604517609885]], [[0.3123475479109399, -0.31234754791093955]], [[0.2900096726745966, -0.2900096726745962]], [[0.3221094786082772, -0.3221094786082769]], [[0.28961168988675906, -0.2896116898867587]], [[0.32128052552440683, -0.32128052552440656]], [[0.29564256195006033, -0.2956425619500601]], [[0.3262658131232289, -0.3262658131232286]], [[0.3003348968645408, -0.3003348968645405]], [[0.33177867807085304, -0.33177867807085276]], [[0.30412216082892424, -0.30412216082892396]], [[0.3369130819972019, -0.3369130819972016]], [[0.3129816952564045, -0.31298169525640424]], [[0.3412799977563358, -0.34127999775633555]], [[0.3203629988610633, -0.3203629988610631]], [[0.3529766864215009, -0.3529766864215007]], [[0.3279803573292372, -0.32798035732923697]], [[0.3585349190980145, -0.35853491909801427]], [[0.33899601320507905, -0.33899601320507877]], [[0.36748702951149353, -0.36748702951149326]], [[0.34731434679545364, -0.3473143467954533]], [[0.37895259772255374, -0.37895259772255335]], [[0.35479955365210036, -0.3547995536520999]], [[0.38588534699615884, -0.38588534699615834]], [[0.36467744509507394, -0.36467744509507344]], [[0.3923641423663623, -0.39236414236636186]], [[0.3720600282320145, -0.372060028232014]], [[0.3963140652000842, -0.3963140652000837]], [[0.3767470914304052, -0.37674709143040475]], [[0.4066903537882582, -0.4066903537882577]], [[0.38144822966428793, -0.38144822966428743]], [[0.41308934786840346, -0.413089347868403]], [[0.3907093793396783, -0.39070937933967786]], [[0.4172348997348471, -0.4172348997348467]], [[0.39500642998131497, -0.3950064299813145]], [[0.4184862263192764, -0.41848622631927596]], [[0.40012462302191937, -0.400124623021919]], [[0.4240528010301162, -0.4240528010301159]], [[0.402228956558107, -0.4022289565581066]], [[0.4284309213040519, -0.4284309213040515]], [[0.401289232009801, -0.4012892320098006]], [[0.43590142466358917, -0.43590142466358883]], [[0.40608388838400644, -0.40608388838400605]], [[0.4380544369815255, -0.43805443698152513]], [[0.409606343157117, -0.40960634315711664]], [[0.44041657144409196, -0.44041657144409163]], [[0.4091603045059512, -0.40916030450595087]], [[0.43876813219695515, -0.43876813219695476]], [[0.4098696214494483, -0.4098696214494479]], [[0.4458509177334077, -0.4458509177334073]], [[0.4043201390951728, -0.4043201390951724]], [[0.4594636832633626, -0.45946368326336223]], [[0.39063320215040503, -0.39063320215040465]], [[0.4777325011783763, -0.47773250117837585]], [[0.380153820057129, -0.3801538200571286]], [[0.498130941882156, -0.4981309418821557]], [[0.368707824340266, -0.36870782434026567]], [[0.5137586332739148, -0.5137586332739146]], [[0.37706215584369596, -0.37706215584369573]], [[0.5170667697433786, -0.5170667697433784]], [[0.3886911447127761, -0.3886911447127759]], [[0.5231911097713011, -0.5231911097713009]], [[0.39169069883751223, -0.391690698837512]], [[0.5314987527887469, -0.5314987527887467]], [[0.39614350454422986, -0.39614350454422964]], [[0.536652756097612, -0.5366527560976118]], [[0.40524920381897345, -0.4052492038189733]], [[0.540911527114413, -0.5409115271144129]], [[0.4093453079489672, -0.40934530794896706]], [[0.5499984408893082, -0.549998440889308]], [[0.4318214377568423, -0.4318214377568422]], [[0.5427229143836418, -0.5427229143836417]], [[0.4461245157392256, -0.44612451573922546]], [[0.5425916127619611, -0.5425916127619609]], [[0.4465563573761776, -0.4465563573761774]], [[0.5510645737787433, -0.551064573778743]], [[0.44694903824145815, -0.4469490382414578]], [[0.5557694870800848, -0.5557694870800844]], [[0.46060800895701204, -0.4606080089570117]], [[0.5498486419563213, -0.549848641956321]], [[0.45959520429392764, -0.4595952042939273]], [[0.5577097865327632, -0.5577097865327628]], [[0.45700500751047846, -0.4570050075104781]], [[0.5652701440264994, -0.5652701440264991]], [[0.475885790718107, -0.4758857907181066]], [[0.5545715382815342, -0.5545715382815338]], [[0.47032090590168557, -0.47032090590168524]], [[0.5662773942678678, -0.5662773942678676]], [[0.47383701212976026, -0.47383701212976004]], [[0.5590214145647678, -0.5590214145647676]], [[0.4724583524466507, -0.47245835244665046]], [[0.5761063948510028, -0.5761063948510026]], [[0.47126320984702563, -0.47126320984702535]], [[0.5795522428973695, -0.5795522428973692]], [[0.46677451160193156, -0.46677451160193123]], [[0.6053356283780094, -0.6053356283780089]], [[0.48952965225117817, -0.4895296522511777]], [[0.5870225359176509, -0.5870225359176504]], [[0.4985604114801423, -0.49856041148014185]], [[0.5797160750614841, -0.5797160750614837]], [[0.49377908377768287, -0.4937790837776825]], [[0.5997211004953659, -0.5997211004953653]], [[0.48357780184081656, -0.483577801840816]], [[0.625069650817502, -0.6250696508175013]], [[0.5093652345103725, -0.5093652345103717]], [[0.588379150698921, -0.5883791506989202]], [[0.5144761836156819, -0.5144761836156811]], [[0.6068335147826633, -0.6068335147826627]], [[0.5014731320113166, -0.5014731320113159]], [[0.6270627001812106, -0.6270627001812099]], [[0.5233009213326294, -0.5233009213326287]], [[0.5919107833671342, -0.5919107833671335]], [[0.5270899153945189, -0.5270899153945182]], [[0.612563367201977, -0.6125633672019763]], [[0.5102990876157166, -0.510299087615716]], [[0.6355677510620201, -0.6355677510620193]], [[0.531494501136715, -0.5314945011367143]], [[0.5990005428923972, -0.5990005428923963]], [[0.5339389704948263, -0.5339389704948254]], [[0.6210168045141885, -0.6210168045141877]], [[0.5146619201930016, -0.5146619201930008]], [[0.6563246752083555, -0.6563246752083547]], [[0.541711985742428, -0.5417119857424272]], [[0.6100288186730438, -0.610028818673043]], [[0.5155137760827476, -0.5155137760827468]], [[0.6493428895729783, -0.6493428895729776]], [[0.5060003092592199, -0.5060003092592192]], [[0.6793484684940481, -0.6793484684940474]], [[0.5393550658062366, -0.539355065806236]], [[0.627539671163732, -0.6275396711637315]], [[0.5197622020773316, -0.5197622020773311]], [[0.6568311425332991, -0.6568311425332987]], [[0.520169155351986, -0.5201691553519856]], [[0.6744314309917316, -0.6744314309917312]], [[0.5583141227269506, -0.5583141227269501]], [[0.6236095353938749, -0.6236095353938744]], [[0.5376072231142655, -0.537607223114265]], [[0.648788518183534, -0.6487885181835336]], [[0.5308350052560321, -0.5308350052560317]], [[0.6769755500470438, -0.6769755500470435]], [[0.5769659425479304, -0.5769659425479301]], [[0.6155915447159973, -0.615591544715997]], [[0.5807170939138911, -0.5807170939138908]], [[0.6222859166207909, -0.6222859166207906]], [[0.5561900221179018, -0.5561900221179015]], [[0.6472283956770686, -0.6472283956770682]], [[0.5413657389192922, -0.5413657389192919]], [[0.6762279681667217, -0.6762279681667214]], [[0.5755529290158705, -0.5755529290158702]], [[0.6298518805012497, -0.6298518805012494]], [[0.5792209319021481, -0.5792209319021479]], [[0.632826943961915, -0.6328269439619147]], [[0.5556822774839257, -0.5556822774839255]], [[0.6605421782156602, -0.66054217821566]], [[0.5429257000819393, -0.5429257000819391]], [[0.6934374585235404, -0.6934374585235402]], [[0.5867399116834077, -0.5867399116834074]], [[0.6299414712975357, -0.6299414712975355]], [[0.5578499756097927, -0.5578499756097924]], [[0.6583053409824976, -0.6583053409824974]], [[0.5415480256831355, -0.5415480256831353]], [[0.7036186440476697, -0.7036186440476695]], [[0.5889072167402273, -0.5889072167402271]], [[0.6327072887982726, -0.6327072887982724]], [[0.5615615571303167, -0.5615615571303165]], [[0.6608062332842423, -0.660806233284242]], [[0.5491998606757629, -0.5491998606757628]], [[0.6926227864901582, -0.692622786490158]], [[0.5544306166996467, -0.5544306166996463]], [[0.7060082719993971, -0.7060082719993968]], [[0.6023758767991202, -0.6023758767991199]], [[0.6421132848055583, -0.642113284805558]], [[0.5793262744348582, -0.5793262744348577]], [[0.6572335676564522, -0.6572335676564517]], [[0.5680736579806213, -0.5680736579806207]], [[0.6766034774503825, -0.676603477450382]], [[0.5658073837203935, -0.565807383720393]], [[0.6925282908126404, -0.69252829081264]], [[0.6157758604461663, -0.6157758604461658]], [[0.6362379777090679, -0.6362379777090673]], [[0.5841546089739535, -0.584154608973953]], [[0.6554363854821199, -0.6554363854821194]], [[0.5684880668178867, -0.568488066817886]], [[0.6776153559765118, -0.6776153559765111]], [[0.5652131899145978, -0.5652131899145971]], [[0.6947439816284668, -0.6947439816284662]], [[0.57347889343562, -0.5734788934356193]], [[0.6993780742224688, -0.6993780742224682]], [[0.6186047445677724, -0.6186047445677718]], [[0.6439586115648063, -0.6439586115648057]], [[0.591871161524418, -0.5918711615244174]], [[0.6563825807860092, -0.6563825807860086]], [[0.577093067454343, -0.5770930674543424]], [[0.6723638166105076, -0.672363816610507]], [[0.5725069713356845, -0.572506971335684]], [[0.6876287251187477, -0.6876287251187472]], [[0.5754967369918655, -0.5754967369918651]], [[0.6980447921066275, -0.6980447921066271]], [[0.6243481666671787, -0.6243481666671783]], [[0.6451714000070639, -0.6451714000070634]], [[0.5963213099282295, -0.5963213099282291]], [[0.6556034567305669, -0.6556034567305664]], [[0.5804665778381433, -0.5804665778381428]], [[0.6692518317531082, -0.6692518317531078]], [[0.572485516250982, -0.5724855162509815]], [[0.6834602420135193, -0.6834602420135188]], [[0.5754731157883776, -0.5754731157883771]], [[0.6915803969405488, -0.6915803969405485]], [[0.588350666248111, -0.5883506662481107]], [[0.6843368421517377, -0.6843368421517373]], [[0.592514304368923, -0.5925143043689226]], [[0.6852754536907107, -0.6852754536907102]], [[0.5968970992372404, -0.59689709923724]], [[0.679226466988704, -0.6792264669887036]], [[0.5972762603965432, -0.5972762603965428]], [[0.6769699903444086, -0.6769699903444082]], [[0.5973904831264025, -0.5973904831264021]], [[0.6731137359279464, -0.673113735927946]], [[0.5971755873093428, -0.5971755873093424]], [[0.658534745559588, -0.6585347455595876]], [[0.5911619028127031, -0.5911619028127026]], [[0.6560122822245686, -0.6560122822245681]], [[0.5821367671224309, -0.5821367671224303]], [[0.666229499031453, -0.6662294990314525]], [[0.5814132467442216, -0.581413246744221]], [[0.6631985845650549, -0.6631985845650543]], [[0.5819847929460429, -0.5819847929460423]], [[0.6558664192463352, -0.6558664192463346]], [[0.581721898495232, -0.5817218984952315]], [[0.6512119717781473, -0.6512119717781468]], [[0.5765569714267283, -0.5765569714267279]], [[0.6555446323599264, -0.6555446323599259]], [[0.5743343843916332, -0.5743343843916326]], [[0.6565800704345117, -0.6565800704345112]], [[0.5756132409262731, -0.5756132409262725]], [[0.6494177130653899, -0.6494177130653893]], [[0.5756748304433382, -0.5756748304433377]], [[0.6431957033513584, -0.6431957033513579]], [[0.5700938905325431, -0.5700938905325426]], [[0.6501392963148833, -0.6501392963148829]], [[0.5702572161574374, -0.570257216157437]], [[0.6444636332263105, -0.6444636332263101]], [[0.5698360920796871, -0.5698360920796867]], [[0.6370644548812235, -0.6370644548812231]], [[0.5644805472478431, -0.5644805472478427]], [[0.6439848023522511, -0.6439848023522506]], [[0.5648631652390459, -0.5648631652390455]], [[0.6380386701936618, -0.6380386701936613]], [[0.564475210502819, -0.5644752105028186]], [[0.6305989058779994, -0.6305989058779989]], [[0.55986977036715, -0.5598697703671496]], [[0.6353174027633266, -0.6353174027633262]], [[0.5592030841988542, -0.5592030841988538]], [[0.6299114365154439, -0.6299114365154435]], [[0.557965818559955, -0.5579658185599546]], [[0.6231243478237652, -0.6231243478237649]], [[0.5527404725315739, -0.5527404725315735]], [[0.6288754637565495, -0.6288754637565491]], [[0.552381436810581, -0.5523814368105808]], [[0.6235932564132143, -0.6235932564132141]], [[0.551529321260688, -0.5515293212606878]], [[0.6166772023209354, -0.6166772023209351]], [[0.546776879704334, -0.5467768797043336]], [[0.6223678307371043, -0.622367830737104]], [[0.5464906375496222, -0.5464906375496219]], [[0.6171279833817829, -0.6171279833817825]], [[0.5457232800042673, -0.545723280004267]], [[0.6103064923357439, -0.6103064923357435]], [[0.5416505041230473, -0.5416505041230469]], [[0.6155468743300907, -0.6155468743300903]], [[0.5409763798411196, -0.5409763798411192]], [[0.610594644641218, -0.6105946446412177]], [[0.5400425648569628, -0.5400425648569624]], [[0.603962998445755, -0.6039629984457546]], [[0.5367251887553687, -0.5367251887553683]], [[0.6041023295352685, -0.6041023295352681]], [[0.534618433608517, -0.5346184336085166]], [[0.6003855061481882, -0.6003855061481876]], [[0.5322716139582251, -0.5322716139582244]], [[0.5962374431851631, -0.5962374431851625]], [[0.5290604873677576, -0.5290604873677569]], [[0.5923949085643176, -0.592394908564317]], [[0.5230033540137699, -0.5230033540137692]], [[0.6012881528414791, -0.6012881528414784]], [[0.5239120904674902, -0.5239120904674895]], [[0.5965096849799798, -0.5965096849799791]], [[0.524564921889513, -0.5245649218895123]], [[0.5897779607646759, -0.5897779607646753]], [[0.5225643321359753, -0.5225643321359746]], [[0.5831566338088231, -0.5831566338088224]], [[0.5194353365805147, -0.519435336580514]], [[0.5804952777478093, -0.5804952777478085]], [[0.5127988507455736, -0.5127988507455729]], [[0.5903751355683184, -0.5903751355683177]], [[0.5138671191815742, -0.5138671191815735]], [[0.5859269819780795, -0.5859269819780787]], [[0.5148230456687707, -0.5148230456687699]], [[0.5793516434397364, -0.5793516434397357]], [[0.5130419250969971, -0.5130419250969963]], [[0.573197892457752, -0.5731978924577512]], [[0.5101014985247021, -0.5101014985247013]], [[0.5703854513704872, -0.5703854513704865]], [[0.5041587242027161, -0.5041587242027152]], [[0.5798851245869612, -0.5798851245869603]], [[0.5051001003130685, -0.5051001003130676]], [[0.5755943029554572, -0.5755943029554563]], [[0.5059452076197334, -0.5059452076197325]], [[0.56929975508369, -0.5692997550836891]], [[0.5041234750419016, -0.5041234750419007]], [[0.5635644881541361, -0.5635644881541352]], [[0.49795088578536617, -0.49795088578536517]], [[0.5719037997033578, -0.5719037997033568]], [[0.49917520431643964, -0.4991752043164387]], [[0.5671032127038665, -0.5671032127038657]], [[0.4995459350770054, -0.49954593507700445]], [[0.560955460892135, -0.560955460892134]], [[0.4972807376552557, -0.4972807376552547]], [[0.5554509669935611, -0.5554509669935601]], [[0.49160547258075515, -0.49160547258075415]], [[0.5632267043014917, -0.5632267043014907]], [[0.49218745014718607, -0.492187450147185]], [[0.5589794766795566, -0.5589794766795556]], [[0.4923140112194719, -0.49231401121947094]], [[0.5531922808079324, -0.5531922808079314]], [[0.49004436875227936, -0.49004436875227836]], [[0.5478886901266965, -0.5478886901266955]], [[0.4854525654687129, -0.4854525654687119]], [[0.5548948351653549, -0.5548948351653539]], [[0.4853714378766034, -0.4853714378766024]], [[0.5511152059847101, -0.5511152059847091]], [[0.4852231234603794, -0.4852231234603783]], [[0.5456765653168921, -0.5456765653168911]], [[0.4829428015407966, -0.48294280154079555]], [[0.5405614266820672, -0.5405614266820661]], [[0.4791001401889469, -0.4791001401889458]], [[0.5359817579220746, -0.5359817579220735]], [[0.47514980485514413, -0.475149804855143]], [[0.5343243442369661, -0.534324344236965]], [[0.4703243977394251, -0.47032439773942397]], [[0.5436874467117501, -0.543687446711749]], [[0.4716870568589742, -0.4716870568589731]], [[0.5401737538932815, -0.5401737538932805]], [[0.47286230174405053, -0.47286230174404953]], [[0.5347420281249089, -0.5347420281249079]], [[0.4714143318005169, -0.47141433180051584]], [[0.5301250896913322, -0.5301250896913312]], [[0.4684969734790907, -0.4684969734790897]], [[0.5257163962994609, -0.5257163962994599]], [[0.4640400167449278, -0.46404001674492673]], [[0.5265844495325163, -0.5265844495325152]], [[0.46112880054179894, -0.46112880054179783]], [[0.5317310749106261, -0.531731074910625]], [[0.46271229903502686, -0.46271229903502575]], [[0.5278446638134933, -0.5278446638134922]], [[0.4629084888163887, -0.4629084888163876]], [[0.5234066270876255, -0.5234066270876244]], [[0.46128376049847303, -0.46128376049847186]], [[0.5219966969116147, -0.5219966969116134]], [[0.45963601751834093, -0.45963601751833977]], [[0.5183100641739379, -0.5183100641739368]], [[0.455374504887626, -0.45537450488762493]], [[0.521941377910594, -0.5219413779105929]], [[0.45610822866471806, -0.45610822866471695]], [[0.5181126202872173, -0.5181126202872162]], [[0.4553584801364744, -0.4553584801364733]], [[0.5140127082825079, -0.5140127082825068]], [[0.4531678319849152, -0.4531678319849141]], [[0.512891577680428, -0.5128915776804269]], [[0.45132694754061986, -0.45132694754061875]], [[0.5095019889247957, -0.5095019889247946]], [[0.44763861633467394, -0.44763861633467283]], [[0.512849423302876, -0.5128494233028749]], [[0.44802240507980606, -0.44802240507980495]], [[0.5094315621105717, -0.5094315621105705]], [[0.4472654714878219, -0.4472654714878207]], [[0.50555090066092, -0.5055509006609189]], [[0.4451960284971137, -0.4451960284971126]], [[0.50131825919702, -0.5013182591970189]], [[0.4422194649888367, -0.4422194649888356]], [[0.49801170175672593, -0.49801170175672477]], [[0.4383264593289109, -0.43832645932890973]], [[0.49764228691317797, -0.4976422869131768]], [[0.43445891539022546, -0.4344589153902243]], [[0.5034827632060672, -0.5034827632060661]], [[0.43638492189933337, -0.43638492189933226]], [[0.5002465164291404, -0.5002465164291392]], [[0.4368206420023094, -0.4368206420023082]], [[0.49634275578387566, -0.49634275578387443]], [[0.4357099425101745, -0.43570994251017325]], [[0.49203712402291977, -0.4920371240229186]], [[0.433031281869899, -0.4330312818698978]], [[0.48805403108400014, -0.488054031083999]], [[0.4297153393388929, -0.4297153393388917]], [[0.48492967419053284, -0.4849296741905316]], [[0.42510945710461256, -0.42510945710461134]], [[0.48762219918769023, -0.487622199187689]], [[0.4248891410124534, -0.4248891410124522]], [[0.49058802069237034, -0.4905880206923691]], [[0.4259331365518388, -0.4259331365518376]], [[0.48845786370033534, -0.48845786370033417]], [[0.4263061331189357, -0.42630613311893456]], [[0.48449507035367595, -0.48449507035367484]], [[0.424924110144258, -0.4249241101442569]], [[0.4804152024793523, -0.48041520247935116]], [[0.4221893066504069, -0.4221893066504057]], [[0.476537421282295, -0.47653742128229376]], [[0.4190570011268511, -0.41905700112684985]], [[0.4738788855945072, -0.4738788855945059]], [[0.415526464297633, -0.41552646429763174]], [[0.47625693835922095, -0.4762569383592197]], [[0.4133038158975151, -0.4133038158975138]], [[0.4799715606300296, -0.4799715606300283]], [[0.41504011439878913, -0.41504011439878785]], [[0.47776758813039516, -0.4777675881303939]], [[0.415879731747254, -0.4158797317472528]], [[0.4737482108974439, -0.4737482108974426]], [[0.41475929372010845, -0.41475929372010717]], [[0.4696746960328855, -0.46967469603288425]], [[0.4121970469839684, -0.41219704698396725]], [[0.4659268988870705, -0.4659268988870693]], [[0.40846685920877623, -0.40846685920877507]], [[0.46770480061552494, -0.4677048006155238]], [[0.40705174150531415, -0.4070517415053129]], [[0.4703309911882947, -0.47033099118829347]], [[0.40809310429977597, -0.40809310429977474]], [[0.468277538824428, -0.4682775388244268]], [[0.4082172899528059, -0.40821728995280465]], [[0.4646124438096397, -0.4646124438096384]], [[0.406755175750462, -0.4067551757504607]], [[0.46078281530729237, -0.46078281530729104]], [[0.4040961414319464, -0.40409614143194506]], [[0.45718346508557656, -0.4571834650855753]], [[0.40075094774417924, -0.40075094774417797]], [[0.45875257984783263, -0.45875257984783135]], [[0.3997065606689596, -0.3997065606689583]], [[0.4569544018087121, -0.4569544018087108]], [[0.39862909488000564, -0.3986290948800043]], [[0.4546043372643437, -0.4546043372643424]], [[0.39570308298247814, -0.39570308298247686]], [[0.45549195908184714, -0.45549195908184587]], [[0.3956619731621681, -0.39566197316216684]], [[0.4530563051527259, -0.45305630515272455]], [[0.39463193223085546, -0.39463193223085413]], [[0.44994855893877966, -0.44994855893877833]], [[0.39250964400374283, -0.3925096440037415]], [[0.4471598030259214, -0.4471598030259201]], [[0.38921062478254287, -0.3892106247825416]], [[0.45025933125421663, -0.45025933125421536]], [[0.3897791280437256, -0.38977912804372433]], [[0.44839945683981836, -0.448399456839817]], [[0.3894618507904514, -0.3894618507904501]], [[0.44524392853738115, -0.4452439285373798]], [[0.3881708824066619, -0.3881708824066606]], [[0.4423471133585896, -0.44234711335858834]], [[0.38553281337031153, -0.3855328133703102]], [[0.4423271594045585, -0.44232715940455725]], [[0.384585340108205, -0.3845853401082037]], [[0.44015886953861066, -0.4401588695386094]], [[0.38292326381270786, -0.3829232638127066]], [[0.4378042746891215, -0.43780427468912025]], [[0.38018072523617025, -0.380180725236169]], [[0.44133013697813706, -0.4413301369781358]], [[0.3812095914039687, -0.3812095914039674]], [[0.43953376045694614, -0.4395337604569448]], [[0.38118014443528364, -0.38118014443528236]], [[0.43638061870242584, -0.43638061870242456]], [[0.3798791527961345, -0.3798791527961332]], [[0.432986211117406, -0.43298621111740476]], [[0.37701649712879287, -0.37701649712879165]], [[0.4327050779551874, -0.43270507795518626]], [[0.37602234455591904, -0.3760223445559178]], [[0.43046134751401094, -0.4304613475140098]], [[0.37428240811573615, -0.374282408115735]], [[0.4281038276679456, -0.4281038276679444]], [[0.3719676943548006, -0.37196769435479937]], [[0.4311101171679172, -0.4311101171679159]], [[0.3725672271771805, -0.3725672271771792]], [[0.4296089641343742, -0.4296089641343729]], [[0.37229366995895286, -0.3722936699589516]], [[0.42671137878559084, -0.4267113787855895]], [[0.3709316317074582, -0.3709316317074568]], [[0.42349549167987527, -0.4234954916798739]], [[0.36838704386690346, -0.3683870438669021]], [[0.4231055868880148, -0.4231055868880134]], [[0.3672984658914633, -0.3672984658914619]], [[0.4210366532513681, -0.4210366532513667]], [[0.36561325977717624, -0.36561325977717485]], [[0.41876559580692707, -0.4187655958069257]], [[0.3636492087407698, -0.3636492087407684]], [[0.4160749889185274, -0.416074988918526]], [[0.36151887187570936, -0.36151887187570797]], [[0.41396096984150776, -0.4139609698415064]], [[0.3588370993839101, -0.35883709938390873]], [[0.4168063768961898, -0.41680637689618844]], [[0.35910789277126365, -0.35910789277126226]], [[0.4158433163443831, -0.4158433163443817]], [[0.358756284548236, -0.3587562845482346]], [[0.41345019686808765, -0.41345019686808626]], [[0.35680249385058016, -0.35680249385057883]], [[0.41403992165062903, -0.4140399216506277]], [[0.3570141392559621, -0.35701413925596076]], [[0.41197752039475005, -0.4119775203947487]], [[0.3560853548363135, -0.35608535483631215]], [[0.40965178220621123, -0.4096517822062099]], [[0.3547631132438743, -0.35476311324387294]], [[0.40682806281046335, -0.406828062810462]], [[0.35273436431319094, -0.3527343643131896]], [[0.40395837838000614, -0.4039583783800048]], [[0.3489792771959894, -0.3489792771959881]], [[0.40681713786372337, -0.406817137863722]], [[0.3496418881058396, -0.34964188810583824]], [[0.4055585179243838, -0.40555851792438247]], [[0.3493806073825544, -0.34938060738255305]], [[0.40307019209349343, -0.4030701920934921]], [[0.34760734639495694, -0.3476073463949556]], [[0.40341907181304576, -0.4034190718130444]], [[0.34771149806511736, -0.347711498065116]], [[0.40144498296134634, -0.40144498296134495]], [[0.34674649425747767, -0.3467464942574763]], [[0.3991999859968295, -0.3991999859968281]], [[0.3454002722576927, -0.3454002722576913]], [[0.3964831703413338, -0.3964831703413324]], [[0.34339899219097536, -0.343398992190974]], [[0.39370192803651277, -0.3937019280365114]], [[0.33992355343932384, -0.33992355343932246]], [[0.39634215490608565, -0.3963421549060842]], [[0.34046793202032966, -0.3404679320203282]], [[0.3952497391604639, -0.3952497391604625]], [[0.3401299568710288, -0.34012995687102743]], [[0.3929209585436379, -0.3929209585436365]], [[0.33868934493724173, -0.33868934493724034]], [[0.3930733112487234, -0.393073311248722]], [[0.33862223694471894, -0.3386222369447176]], [[0.39128702466620346, -0.39128702466620213]], [[0.33763518600102205, -0.3376351860010207]], [[0.38915950626423473, -0.38915950626423346]], [[0.33627046210348904, -0.3362704621034877]], [[0.38657414422019953, -0.38657414422019826]], [[0.33431305864658795, -0.33431305864658667]], [[0.3838894131613264, -0.38388941316132513]], [[0.3312424535511749, -0.33124245355117365]], [[0.38623554035666374, -0.3862355403566625]], [[0.33162811678735726, -0.331628116787356]], [[0.3853170370576129, -0.3853170370576116]], [[0.33118793710002287, -0.3311879371000216]], [[0.3831541385391369, -0.3831541385391356]], [[0.3300241893412028, -0.3300241893412016]], [[0.3804866433064285, -0.3804866433064273]], [[0.328379288984664, -0.3283792889846628]], [[0.37810504776302967, -0.37810504776302845]], [[0.32610383077029365, -0.32610383077029237]], [[0.3780305473671081, -0.3780305473671068]], [[0.32521915842692406, -0.3252191584269227]], [[0.37708669298389036, -0.377086692983889]], [[0.3241982294299882, -0.3241982294299869]], [[0.37520692911423603, -0.3752069291142347]], [[0.32270446449714435, -0.3227044644971431]], [[0.37290187344571823, -0.37290187344571696]], [[0.3210376350078639, -0.32103763500786264]], [[0.3709832995195202, -0.3709832995195189]], [[0.3202781711200471, -0.3202781711200458]], [[0.3731737964496306, -0.37317379644962934]], [[0.32979041509577806, -0.3297904150957768]], [[0.37263268744156713, -0.37263268744156586]], [[0.3385245434096437, -0.33852454340964244]], [[0.3710490874754423, -0.371049087475441]], [[0.3452190487202738, -0.3452190487202726]], [[0.3677058727320366, -0.36770587273203537]], [[0.3497770144043429, -0.34977701440434167]], [[0.3661726637425631, -0.36617266374256185]], [[0.3537454113311401, -0.3537454113311389]], [[0.3650891644878663, -0.3650891644878651]], [[0.35637027476754274, -0.3563702747675415]], [[0.3644490947303459, -0.3644490947303447]], [[0.35827020462307485, -0.3582702046230736]], [[0.3639700002887414, -0.3639700002887401]], [[0.3595391680540423, -0.359539168054041]], [[0.36361188166299624, -0.36361188166299496]], [[0.36037789608035153, -0.36037789608035026]], [[0.3633266927122263, -0.363326692712225]], [[0.36091991244246485, -0.3609199124424636]], [[0.36308279767595836, -0.3630827976759571]], [[0.3612546412320778, -0.3612546412320765]], [[0.36286073991784423, -0.362860739917843]], [[0.36144276374669404, -0.3614427637466928]], [[0.36264919307053417, -0.3626491930705329]], [[0.3615261040355992, -0.36152610403559793]], [[0.36235207717439577, -0.36235207717439444]], [[0.36217143783008876, -0.36217143783008743]], [[0.3628601966614482, -0.3628601966614469]], [[0.3625892724256615, -0.3625892724256603]], [[0.363666708003763, -0.3636667080037618]], [[0.36347957449252916, -0.36347957449252793]], [[0.3643210389568633, -0.3643210389568621]], [[0.36410890795186757, -0.36410890795186635]], [[0.36475760158634846, -0.36475760158634724]], [[0.36453284788118684, -0.3645328478811857]], [[0.36503612054666984, -0.3650361205466687]], [[0.3648053913749449, -0.3648053913749437]], [[0.3651975025913323, -0.3651975025913311]], [[0.36496446750363554, -0.3649644675036343]], [[0.36524621624327, -0.3652462162432688]], [[0.36560484920887965, -0.3656048492088784]], [[0.3659371273459113, -0.36593712734591005]], [[0.3661436416153095, -0.36614364161530827]], [[0.36679405817727095, -0.3667940581772697]], [[0.3670462996463286, -0.3670462996463274]], [[0.3675386416189181, -0.3675386416189169]], [[0.367672237032141, -0.36767223703213986]], [[0.3680378696279756, -0.3680378696279744]], [[0.36808740242724985, -0.3680874024272487]], [[0.3683592729111592, -0.36835927291115805]], [[0.36834759729708555, -0.3683475972970844]], [[0.36854878974438504, -0.3685487897443839]], [[0.3684578052541304, -0.36845780525412924]], [[0.36919892967660556, -0.3691989296766044]], [[0.36917440377911503, -0.36917440377911387]], [[0.36971912322355094, -0.3697191232235498]], [[0.37003421947749565, -0.3700342194774945]], [[0.37059191079080656, -0.3705919107908054]], [[0.37076371910150413, -0.37076371910150296]], [[0.3711828555163136, -0.3711828555163124]], [[0.3712448198131579, -0.37124481981315666]], [[0.3715642168357406, -0.37156421683573937]], [[0.37154552890566406, -0.37154552890566284]], [[0.3717917154698711, -0.37179171546986983]], [[0.3717120463724797, -0.37171204637247834]], [[0.3717143058085705, -0.3717143058085692]], [[0.37247617529196125, -0.3724761752919599]], [[0.3723621081029497, -0.37236210810294834]], [[0.3728322341864344, -0.3728322341864331]], [[0.37326066262308577, -0.37326066262308444]], [[0.3736546048903936, -0.3736546048903922]], [[0.3739240522496975, -0.3739240522496961]], [[0.3741901158297373, -0.3741901158297359]], [[0.37434948852564776, -0.37434948852564637]], [[0.37452355688194733, -0.3745235568819459]], [[0.3746016933952701, -0.37460169339526866]], [[0.3747080810498368, -0.3747080810498354]], [[0.37456693358629956, -0.3745669335862981]], [[0.375434619791386, -0.3754346197913846]], [[0.37518966410036286, -0.3751896641003615]], [[0.37577272764496145, -0.37577272764496006]], [[0.3761508981671999, -0.3761508981671985]], [[0.37654610988839493, -0.37654610988839354]], [[0.3767685501209518, -0.3767685501209504]], [[0.3770408437515155, -0.37704084375151403]], [[0.3771510386635567, -0.3771510386635553]], [[0.37733640006640157, -0.3773364000664001]], [[0.37736229013292283, -0.3773622901329214]], [[0.3774844677275215, -0.37748446772752]], [[0.377909009426324, -0.37790900942632244]], [[0.3781136131071649, -0.37811361310716335]], [[0.37826984524010776, -0.3782698452401062]], [[0.3789388103120951, -0.37893881031209353]], [[0.3790104472286772, -0.3790104472286757]], [[0.3795566561949194, -0.3795566561949179]], [[0.3794647343065612, -0.3794647343065597]], [[0.3799372698674912, -0.3799372698674897]], [[0.3797123505125389, -0.3797123505125374]], [[0.38014747014067307, -0.3801474701406716]], [[0.37979587812594207, -0.3797958781259406]], [[0.38070019999287, -0.3807001999928686]], [[0.3803520282423249, -0.38035202824232345]], [[0.38107391741728297, -0.3810739174172815]], [[0.38107023178072275, -0.3810702317807213]], [[0.38181130876950176, -0.3818113087695003]], [[0.3815883041162997, -0.38158830411629824]], [[0.38227273512625765, -0.38227273512625626]], [[0.381863810621659, -0.3818638106216576]], [[0.38254208554362074, -0.38254208554361935]], [[0.3819601820863144, -0.381960182086313]], [[0.38263026264874983, -0.3826302626487485]], [[0.382393328680035, -0.3823933286800337]], [[0.38319489853073746, -0.3831948985307362]], [[0.3830295023424918, -0.38302950234249045]], [[0.38395903523917274, -0.3839590352391714]], [[0.3835460527950765, -0.38354605279507514]], [[0.38445948413253267, -0.38445948413253134]], [[0.3837984394294773, -0.38379843942947595]], [[0.3847624916432481, -0.3847624916432468]], [[0.38385397404659194, -0.38385397404659066]], [[0.38492931039824047, -0.3849293103982392]], [[0.3835302327874843, -0.38353023278748305]], [[0.38571168474292944, -0.38571168474292816]], [[0.38369577578727765, -0.3836957757872764]], [[0.38662996827800183, -0.38662996827800067]], [[0.36364872870604986, -0.3636487287060487]], [[0.38918279052825305, -0.3891827905282519]], [[0.34307246382427203, -0.3430724638242709]], [[0.40912794292332294, -0.40912794292332183]], [[0.2841282926838815, -0.2841282926838804]], [[0.5155641106117552, -0.5155641106117541]], [[0.26248031948489337, -0.2624803194848922]], [[0.5207983616187766, -0.5207983616187755]], [[0.5026272170767354, -0.5026272170767343]], [[0.3986720930271044, -0.39867209302710327]], [[0.5428076787217857, -0.5428076787217845]], [[0.36992536208686577, -0.36992536208686455]], [[0.5382988923442988, -0.5382988923442977]], [[0.4201125051091842, -0.4201125051091831]], [[0.5570440761850308, -0.5570440761850297]], [[0.42376164027993507, -0.42376164027993396]], [[0.5604310544930028, -0.5604310544930017]], [[0.31292080939429834, -0.31292080939429723]], [[0.5493746158966727, -0.5493746158966716]], [[0.5119983632192016, -0.5119983632192004]], [[0.4902060170885897, -0.4902060170885886]], [[0.47025923359517113, -0.47025923359516997]], [[0.449556015400905, -0.4495560154009038]], [[0.4586851828905746, -0.45868518289057336]], [[0.43250618748587816, -0.43250618748587694]], [[0.44917600735454966, -0.44917600735454843]], [[0.41990324608292806, -0.4199032460829269]], [[0.44123633464336326, -0.44123633464336215]], [[0.40971790829986005, -0.40971790829985894]], [[0.43616533667521346, -0.4361653366752124]], [[0.40220175156582394, -0.40220175156582283]], [[0.43141598696592054, -0.43141598696591943]], [[0.39580720678730863, -0.3958072067873075]], [[0.4270677247641362, -0.42706772476413507]], [[0.3901144344238419, -0.39011443442384086]], [[0.42280840252334356, -0.4228084025233425]], [[0.3985863747604784, -0.39858637476047737]], [[0.41991169037500564, -0.41991169037500453]], [[0.40404097799709465, -0.4040409779970935]], [[0.41665839645008446, -0.4166583964500833]], [[0.4072223570374761, -0.40722235703747495]], [[0.4148429068684082, -0.414842906868407]], [[0.4092101328092775, -0.4092101328092763]], [[0.4139317686726286, -0.4139317686726275]], [[0.41053411527553857, -0.41053411527553746]], [[0.4135446498101795, -0.4135446498101784]], [[0.4114821811744869, -0.4114821811744858]], [[0.41346351041288376, -0.4134635104128827]], [[0.41221272773285067, -0.4122127277328496]], [[0.4135628118829585, -0.41356281188295746]], [[0.41281405713275027, -0.4128140571327492]], [[0.4137693320833812, -0.4137693320833801]], [[0.4133362116659735, -0.41333621166597245]], [[0.4140396860502117, -0.41403968605021063]], [[0.413808037511526, -0.41380803751152495]], [[0.4143477271158041, -0.41434772711580303]], [[0.4142464685198863, -0.4142464685198852]], [[0.4146774833643956, -0.41467748336439453]], [[0.4146616227412465, -0.41466162274124546]], [[0.41501903723491285, -0.4150190372349118]], [[0.4150596552418542, -0.4150596552418531]], [[0.4153661523266115, -0.41536615232661045]], [[0.41544438388593946, -0.4154443838859384]], [[0.41571486323467516, -0.4157148632346741]], [[0.4158182274258255, -0.41581822742582447]], [[0.4160626261613839, -0.41606262616138284]], [[0.4161827546129876, -0.41618275461298654]], [[0.416407799813812, -0.41640779981381093]], [[0.41653901000962607, -0.416539010009625]], [[0.4167493232945198, -0.41674932329451875]], [[0.4168877103528328, -0.41688771035283173]], [[0.41708651313742606, -0.41708651313742495]], [[0.41722936401707855, -0.41722936401707744]], [[0.41741893441175487, -0.41741893441175376]], [[0.4175643447107258, -0.4175643447107247]], [[0.4177463170959858, -0.4177463170959847]], [[0.4178929379001733, -0.4178929379001722]], [[0.4180685090690018, -0.41806850906900067]], [[0.41821535416807915, -0.41821535416807804]], [[0.41838540905695804, -0.418385409056957]], [[0.41853178731095286, -0.4185317873109518]], [[0.4186969775077712, -0.41869697750777013]], [[0.4188424055923815, -0.41884240559238045]], [[0.4190032034417615, -0.41900320344176045]], [[0.41914733035007573, -0.4191473303500747]], [[0.41930412278581847, -0.4193041227858174]], [[0.4194466764737855, -0.4194466764737844]], [[0.4195998156761024, -0.41959981567610133]], [[0.41974051279132146, -0.4197405127913204]], [[0.4198902113732939, -0.41989021137329285]], [[0.420029054441735, -0.42002905444173394]], [[0.4201754775484774, -0.4201754775484763]], [[0.4203094688638733, -0.42030946886387216]], [[0.42045751505905804, -0.42045751505905693]], [[0.42058814363425445, -0.4205881436342534]], [[0.4207326090799588, -0.4207326090799577]], [[0.4208615451848821, -0.420861545184881]], [[0.42100255618277804, -0.42100255618277693]], [[0.42112998648763955, -0.42112998648763844]], [[0.4212676583647411, -0.42126765836474006]], [[0.4213932999446607, -0.42139329994465957]], [[0.42152797717969626, -0.42152797717969515]], [[0.4216517379459446, -0.4216517379459435]], [[0.4217828554259573, -0.42178285542595617]], [[0.4219060303381281, -0.421906030338127]], [[0.422034068902605, -0.42203406890260386]], [[0.42215510218989827, -0.4221551021898971]], [[0.42228043509403584, -0.4222804350940347]], [[0.4223993261134885, -0.42239932611348735]], [[0.4225213763877788, -0.42252137638777765]], [[0.4226398719456363, -0.4226398719456351]], [[0.4227590404914091, -0.4227590404914079]], [[0.42287534353063844, -0.4228753435306372]], [[0.42299218721279724, -0.422992187212796]], [[0.4231063606404377, -0.4231063606404365]], [[0.42322036820113695, -0.42322036820113573]], [[0.4233332026481233, -0.42333320264812213]], [[0.42344486252274915, -0.423444862522748]], [[0.4235556128233617, -0.4235556128233605]], [[0.4236649707783504, -0.42366497077834925]], [[0.423773757799084, -0.42377375779908283]], [[0.42388097550281667, -0.42388097550281545]], [[0.42398798604033167, -0.42398798604033044]], [[0.4240930460665385, -0.4240930460665373]], [[0.42419766962706673, -0.4241976696270655]], [[0.42430095014170316, -0.42430095014170194]], [[0.424403669005838, -0.42440366900583676]], [[0.4245050358826986, -0.4245050358826974]], [[0.4246023631463042, -0.42460236314630295]], [[0.4247073679389831, -0.4247073679389819]], [[0.4248007156167366, -0.42480071561673544]], [[0.4249038699847867, -0.42490386998478546]], [[0.42499490844663135, -0.4249949084466301]], [[0.4250961227080787, -0.4250961227080775]], [[0.4251836371798503, -0.4251836371798491]], [[0.4252861269507276, -0.4252861269507264]], [[0.4253703887110778, -0.4253703887110766]], [[0.42547101198086523, -0.425471011980864]], [[0.4255316894044707, -0.42553168940446945]], [[0.40087653416097985, -0.4008765341609786]], [[0.42609523975062147, -0.42609523975062025]], [[0.384669532970514, -0.38466953297051276]], [[0.439588102958657, -0.4395881029586558]], [[0.36104865231118377, -0.36104865231118255]], [[0.4913841250633989, -0.49138412506339774]], [[0.2755993507418521, -0.27559935074185093]], [[0.5103877870837237, -0.5103877870837225]], [[0.4738121077832612, -0.47381210778326]], [[0.46201665738377096, -0.46201665738376974]], [[0.4447917098478036, -0.44479170984780236]], [[0.4250497490090839, -0.42504974900908266]], [[0.43982261044591986, -0.43982261044591864]], [[0.4110917274647442, -0.41109172746474293]], [[0.4358345512051709, -0.4358345512051697]], [[0.40051757395105375, -0.4005175739510525]], [[0.4328942670586683, -0.43289426705866707]], [[0.3913710938485221, -0.39137109384852087]], [[0.4334334051177261, -0.4334334051177249]], [[0.3825674621718497, -0.38256746217184845]], [[0.4363022074542072, -0.4363022074542059]], [[0.3728239342187198, -0.37282393421871846]], [[0.4431315153767472, -0.4431315153767459]], [[0.3602026021576664, -0.3602026021576651]], [[0.45695613739504837, -0.45695613739504704]], [[0.3382410467434288, -0.3382410467434275]], [[0.4952998955429553, -0.49529989554295395]], [[0.2569095137241508, -0.2569095137241495]], [[0.5065272525740572, -0.5065272525740558]], [[0.47998173747042333, -0.479981737470422]], [[0.45949864251612216, -0.4594986425161208]], [[0.4426166093031934, -0.4426166093031921]], [[0.42170833260018054, -0.42170833260017926]], [[0.4322293410277479, -0.4322293410277466]], [[0.4076038887205363, -0.40760388872053505]], [[0.4239732086429756, -0.4239732086429744]], [[0.3969399831619261, -0.39693998316192486]], [[0.4172163333265058, -0.4172163333265046]], [[0.388256269809929, -0.3882562698099278]], [[0.4128961344595124, -0.4128961344595112]], [[0.3816851293980129, -0.3816851293980117]], [[0.4090681402291224, -0.40906814022912114]], [[0.376250737621365, -0.37625073762136374]], [[0.4057987283325184, -0.4057987283325172]], [[0.3715695796464889, -0.3715695796464876]], [[0.4028951877026109, -0.4028951877026096]], [[0.37895546006423486, -0.3789554600642336]], [[0.4004855567128265, -0.40048555671282526]], [[0.38434934834284723, -0.384349348342846]], [[0.39741562002605213, -0.3974156200260509]], [[0.3877537971231145, -0.38775379712311325]], [[0.39561712469265553, -0.39561712469265436]], [[0.38987060866506934, -0.3898706086650682]], [[0.39463556905869235, -0.39463556905869124]], [[0.3912131688344921, -0.391213168834491]], [[0.39414188874062567, -0.3941418887406245]], [[0.3920982775563537, -0.39209827755635246]], [[0.3939318654954237, -0.3939318654954225]], [[0.39271157624982683, -0.3927115762498256]], [[0.393885138066145, -0.3938851380661437]], [[0.393160913010271, -0.3931609130102698]], [[0.3939318310950755, -0.3939318310950743]], [[0.3934898876879688, -0.39348988768796755]], [[0.3949340550523896, -0.3949340550523884]], [[0.39469977566130177, -0.39469977566130054]], [[0.3964503597264347, -0.3964503597264335]], [[0.396312617001203, -0.3963126170012018]], [[0.3974410716670234, -0.3974410716670222]], [[0.39732455576670145, -0.3973245557667002]], [[0.39807341114906303, -0.3980734111490618]], [[0.3980016782184043, -0.39800167821840304]], [[0.39852653724839715, -0.3985265372483958]], [[0.3985131302113743, -0.39851313021137297]], [[0.39889431039886447, -0.3988943103988631]], [[0.39891564757495485, -0.39891564757495346]], [[0.3992003532613646, -0.3992003532613632]], [[0.39924211462508613, -0.3992421146250848]], [[0.3994612973192827, -0.39946129731928137]], [[0.39951480448598226, -0.3995148044859809]], [[0.39968893750705387, -0.3996889375070526]], [[0.3997489304745796, -0.3997489304745783]], [[0.3998916718297066, -0.3998916718297053]], [[0.39995495713271056, -0.3999549571327093]], [[0.4000754930193166, -0.4000754930193153]], [[0.40014012618975603, -0.40014012618975464]], [[0.40024359406440646, -0.4002435940644051]], [[0.40031010474307777, -0.4003101047430764]], [[0.4004015970909481, -0.4004015970909467]], [[0.40046702270725054, -0.40046702270724915]], [[0.4005500821072501, -0.40055008210724874]], [[0.4006140969028453, -0.4006140969028439]], [[0.40069073618401524, -0.40069073618401385]], [[0.40075319764728373, -0.40075319764728234]], [[0.4008246554211973, -0.4008246554211959]], [[0.400885498117646, -0.4008854981176446]], [[0.40095272784262664, -0.4009527278426253]], [[0.4010102607542342, -0.40101026075423285]], [[0.4010765648128541, -0.40107656481285275]], [[0.40113189854762704, -0.4011318985476257]], [[0.40119444339547516, -0.40119444339547383]], [[0.40124855080762145, -0.4012485508076201]], [[0.4013079017233023, -0.4013079017233009]], [[0.40135777050358606, -0.4013577705035847]], [[0.4014190312327281, -0.4014190312327267]], [[0.40146649644078625, -0.4014664964407849]], [[0.40152408727645206, -0.4015240872764507]], [[0.4015708970320358, -0.4015708970320344]], [[0.4016245494810441, -0.40162454948104265]], [[0.4016718329866285, -0.40167183298662706]], [[0.4017224428887755, -0.40172244288877407]], [[0.4017683637469996, -0.4017683637469981]], [[0.40181673802353596, -0.40181673802353446]], [[0.4018612559945674, -0.4018612559945659]], [[0.40190605470597496, -0.40190605470597346]], [[0.40195163516852994, -0.40195163516852844]], [[0.4019938762512888, -0.4019938762512873]], [[0.4020374643232078, -0.4020374643232063]], [[0.40207823905258167, -0.40207823905258017]], [[0.4021199645850614, -0.4021199645850599]], [[0.40215739053411564, -0.40215739053411415]], [[0.40220051465702616, -0.40220051465702467]], [[0.40223565321681054, -0.40223565321680904]], [[0.4022764499502078, -0.4022764499502063]], [[0.40231058665272484, -0.40231058665272335]], [[0.40234927039017104, -0.40234927039016954]], [[0.4023803466351591, -0.4023803466351576]], [[0.4024204441368311, -0.40242044413682965]], [[0.4024494479388176, -0.40244944793881615]], [[0.402487095920349, -0.40248709592034754]], [[0.4025153632564434, -0.40251536325644194]], [[0.4025508025851362, -0.4025508025851347]], [[0.40257641512567527, -0.40257641512567377]], [[0.40261293596837106, -0.40261293596836956]], [[0.4026367042423847, -0.4026367042423832]], [[0.40267081902742613, -0.40267081902742463]], [[0.4026939650835109, -0.40269396508350935]], [[0.4027258826211038, -0.40272588262110226]], [[0.40072986118848836, -0.4007298611884868]], [[0.38233757840984156, -0.38233757840984]], [[0.39929161689692805, -0.3992916168969265]], [[0.36943963229314664, -0.3694396322931451]], [[0.4025981474358186, -0.40259814743581707]], [[0.3577342470423172, -0.3577342470423156]], [[0.41951519094258, -0.4195151909425784]], [[0.3371093730559328, -0.3371093730559312]], [[0.4653828864313857, -0.46538288643138415]], [[0.2308076850376332, -0.23080768503763166]], [[0.48621123629979957, -0.48621123629979807]], [[0.5275408348324621, -0.5275408348324606]], [[0.5524892568617438, -0.5524892568617423]], [[0.5814028893890041, -0.5814028893890026]], [[0.600340985705525, -0.6003409857055235]], [[0.6216363813755355, -0.621636381375534]], [[0.64403760019005, -0.6440376001900485]], [[0.6656938993507887, -0.6656938993507873]], [[0.686894454376883, -0.6868944543768816]], [[0.7075501211177407, -0.7075501211177393]], [[0.7281978989114157, -0.7281978989114143]], [[0.7415712139893457, -0.7415712139893442]], [[0.7598294943405441, -0.7598294943405427]], [[0.7772239507564905, -0.7772239507564891]], [[0.7946487564418235, -0.7946487564418221]], [[0.8117457405464908, -0.8117457405464894]], [[0.8294008156081, -0.8294008156080986]], [[0.8395869755937069, -0.8395869755937055]], [[0.8556666716800966, -0.8556666716800952]], [[0.8702392841065003, -0.870239284106499]], [[0.8852224823440829, -0.8852224823440815]], [[0.9005473382379444, -0.9005473382379431]], [[0.9098286512461182, -0.9098286512461169]], [[0.9238303982796922, -0.9238303982796908]], [[0.9367163963447127, -0.9367163963447114]], [[0.9500565781661302, -0.9500565781661289]], [[0.964694493943281, -0.9646944939432797]], [[0.9729103132689371, -0.9729103132689357]], [[0.9853157966043161, -0.9853157966043148]], [[0.9967993543457658, -0.9967993543457645]], [[1.0092716673451005, -1.0092716673450994]], [[1.0172061368354837, -1.0172061368354826]], [[1.0284685053278744, -1.0284685053278735]], [[1.039077606325501, -1.0390776063255]], [[1.0510300333442215, -1.0510300333442206]], [[1.058350292014464, -1.0583502920144632]], [[1.0687507277578767, -1.0687507277578758]], [[1.0785637457310866, -1.0785637457310857]], [[1.0901977878572802, -1.0901977878572793]], [[1.0969190017927868, -1.096919001792786]], [[1.1065855006860683, -1.1065855006860674]], [[1.1157226091671, -1.115722609167099]], [[1.1253869252299844, -1.1253869252299833]], [[1.132769802083811, -1.13276980208381]], [[1.141679647488115, -1.141679647488114]], [[1.1513260239174508, -1.1513260239174496]], [[1.1575099769231003, -1.1575099769230992]], [[1.1659539442834705, -1.1659539442834692]], [[1.1745941003617824, -1.174594100361781]], [[1.1806401691171404, -1.180640169117139]], [[1.1886110122214035, -1.1886110122214022]], [[1.1970232512889512, -1.1970232512889498]], [[1.202789873493325, -1.2027898734933236]], [[1.2104130565287186, -1.2104130565287172]], [[1.2186217342820744, -1.218621734282073]], [[1.2241387457689108, -1.2241387457689095]], [[1.2314328702134356, -1.2314328702134343]], [[1.2394838390406808, -1.2394838390406795]], [[1.2447574469282534, -1.244757446928252]], [[1.2517308844577355, -1.2517308844577342]], [[1.2596568090641584, -1.2596568090641571]], [[1.2646789003608556, -1.2646789003608543]], [[1.2713929589315651, -1.2713929589315638]], [[1.2782761159404334, -1.2782761159404321]], [[1.283651528014021, -1.2836515280140197]], [[1.2903309743945126, -1.2903309743945113]], [[1.296779327079597, -1.2967793270795958]], [[1.3023550970000344, -1.302355097000033]], [[1.3091097022540088, -1.3091097022540075]], [[1.313488679318872, -1.3134886793188707]], [[1.3199241476275778, -1.3199241476275765]], [[1.3255254136986243, -1.3255254136986232]], [[1.3309420343937544, -1.3309420343937532]], [[1.33709235493027, -1.337092354930269]], [[1.341532717426338, -1.341532717426337]], [[1.347365481656107, -1.3473654816561058]], [[1.352829689729565, -1.352829689729564]], [[1.3578023719537595, -1.3578023719537584]], [[1.3630099419774608, -1.3630099419774597]], [[1.3675387566027137, -1.3675387566027126]], [[1.3733271616223386, -1.3733271616223375]], [[1.377599652762181, -1.3775996527621799]], [[1.3830590013661943, -1.3830590013661932]], [[1.3880022639155305, -1.3880022639155294]], [[1.3926737672837557, -1.3926737672837546]], [[1.3975765947657308, -1.3975765947657297]], [[1.4019815085042053, -1.4019815085042042]], [[1.406548230560316, -1.406548230560315]], [[1.4107991296732274, -1.4107991296732265]], [[1.415313113373471, -1.4153131133734702]], [[1.4191947828685467, -1.4191947828685458]], [[1.4237937450186082, -1.4237937450186073]], [[1.427897326537414, -1.427897326537413]], [[1.432234649520607, -1.4322346495206062]], [[1.4366487321758021, -1.4366487321758012]], [[1.4406079457084433, -1.4406079457084424]], [[1.4453150701502264, -1.4453150701502255]], [[1.4494520183524726, -1.4494520183524717]], [[1.453787452866981, -1.45378745286698]], [[1.4576022037889733, -1.4576022037889724]], [[1.4617653825292052, -1.461765382529204]], [[1.465405376754475, -1.465405376754474]], [[1.4695069626438098, -1.4695069626438086]], [[1.4730190184673522, -1.473019018467351]], [[1.4771068315401106, -1.4771068315401092]], [[1.4805033047596596, -1.4805033047596583]], [[1.4846079367057645, -1.4846079367057632]], [[1.4878848304821815, -1.4878848304821801]], [[1.4920311819726608, -1.4920311819726595]], [[1.495174734636479, -1.4951747346364777]], [[1.4993922936358748, -1.4993922936358735]], [[1.5023798330799467, -1.5023798330799454]], [[1.5066559651984068, -1.5066559651984055]], [[1.508914465959526, -1.5089144659595246]], [[1.5136990164962025, -1.5136990164962012]], [[1.5155495550219014, -1.5155495550219]], [[1.5208512244566024, -1.520851224456601]], [[1.5218358381155876, -1.5218358381155863]], [[1.5279426785054344, -1.527942678505433]], [[1.5279957589032975, -1.5279957589032962]], [[1.534714609711348, -1.5347146097113467]], [[1.5338096997086161, -1.5338096997086148]], [[1.5412588751581124, -1.541258875158111]], [[1.5392429292868275, -1.5392429292868262]], [[1.548666196266649, -1.5486661962666477]], [[1.5441373014211444, -1.544137301421143]], [[1.5560625869319478, -1.5560625869319464]], [[1.5480504039202052, -1.5480504039202039]], [[1.5643425610280706, -1.5643425610280692]], [[1.5507331577073493, -1.550733157707348]], [[1.5741572752258415, -1.5741572752258404]], [[1.5512068193038928, -1.5512068193038917]], [[1.5855105606666642, -1.585510560666663]], [[1.549367846121675, -1.5493678461216742]], [[1.5987347964237058, -1.5987347964237049]], [[1.5438081916070292, -1.5438081916070283]], [[1.6754082765302831, -1.6754082765302822]], [[1.4831528802375413, -1.4831528802375404]], [[1.539816190892424, -1.539816190892423]], [[1.4197325074853913, -1.4197325074853904]], [[1.5516303056624794, -1.5516303056624787]], [[1.3818884933166204, -1.3818884933166198]], [[1.352898761197988, -1.3528987611979872]], [[1.3732269769067824, -1.3732269769067817]], [[1.3238109032378558, -1.323810903237855]], [[1.3978505071465999, -1.3978505071465992]], [[1.3108733639634373, -1.3108733639634367]], [[1.4463070444711514, -1.4463070444711508]], [[1.3100003678219483, -1.3100003678219476]], [[1.2226502836878645, -1.2226502836878639]], [[1.3016682397895754, -1.3016682397895747]], [[1.2314394964231101, -1.2314394964231095]], [[1.2913907248676857, -1.291390724867685]], [[1.2481250569870816, -1.2481250569870812]], [[1.2926516853137122, -1.2926516853137118]], [[1.2648832486203156, -1.2648832486203152]], [[1.3151959417618961, -1.315195941761896]], [[1.2710020972369205, -1.2710020972369203]], [[1.3177804701419296, -1.3177804701419293]], [[1.2846558046668635, -1.2846558046668632]], [[1.3213487982452945, -1.3213487982452943]], [[1.300256314270685, -1.300256314270685]], [[1.3280291255884615, -1.3280291255884615]], [[1.314591484628605, -1.314591484628605]], [[1.3361662320373373, -1.3361662320373373]], [[1.3281617447627012, -1.3281617447627012]], [[1.3451237768662976, -1.3451237768662974]], [[1.3405059145344054, -1.3405059145344052]], [[1.3548491577794697, -1.3548491577794695]], [[1.3515278769250347, -1.3515278769250345]], [[1.373463686982073, -1.3734636869820729]], [[1.3581038588443475, -1.3581038588443473]], [[1.381952505446771, -1.3819525054467707]], [[1.3668354696905909, -1.3668354696905909]], [[1.389491110102309, -1.389491110102309]], [[1.376408245217693, -1.376408245217693]], [[1.3973576974186648, -1.3973576974186648]], [[1.386318510299844, -1.386318510299844]], [[1.4053351963487777, -1.4053351963487777]], [[1.3957791454703654, -1.3957791454703654]], [[1.413491828680445, -1.413491828680445]], [[1.4051047807479047, -1.4051047807479047]], [[1.4214204432650885, -1.4214204432650885]], [[1.4135344937287362, -1.4135344937287362]], [[1.4401309610322452, -1.4401309610322452]], [[1.4145402063556294, -1.4145402063556296]], [[1.4486003563026781, -1.4486003563026784]], [[1.418983785184129, -1.4189837851841292]], [[1.4550582266606251, -1.4550582266606253]], [[1.4252527858936863, -1.4252527858936865]], [[1.4612940298426371, -1.4612940298426373]], [[1.4326046918751292, -1.4326046918751294]], [[1.4671812365046248, -1.467181236504625]], [[1.439829610285716, -1.4398296102857162]], [[1.4730581492710626, -1.4730581492710628]], [[1.4459310669467618, -1.445931066946762]], [[1.4977420297588497, -1.49774202975885]], [[1.4397514885341804, -1.4397514885341807]], [[1.5002559749219326, -1.5002559749219329]], [[1.4436126801764537, -1.443612680176454]], [[1.4978266107852736, -1.4978266107852738]], [[1.4513311366551558, -1.4513311366551558]], [[1.4974609273673842, -1.4974609273673842]], [[1.4602910580619894, -1.4602910580619894]], [[1.4995068988251967, -1.4995068988251967]], [[1.4678805284309753, -1.4678805284309753]], [[1.5027855355287074, -1.5027855355287074]], [[1.4756663570375352, -1.4756663570375352]], [[1.5072825274874275, -1.5072825274874275]], [[1.4832873881436373, -1.4832873881436373]], [[1.5125424102281824, -1.5125424102281826]], [[1.4900876539398975, -1.4900876539398977]], [[1.532874529351643, -1.5328745293516433]], [[1.4854526872755347, -1.4854526872755351]], [[1.5375104078948545, -1.5375104078948547]], [[1.4877549519950828, -1.487754951995083]], [[1.536973158156177, -1.5369731581561772]], [[1.494027864066805, -1.4940278640668052]], [[1.5377746003197537, -1.5377746003197539]], [[1.500994808628389, -1.5009948086283893]], [[1.5398741933935824, -1.5398741933935824]], [[1.5083891147003867, -1.5083891147003867]], [[1.542239946683978, -1.542239946683978]], [[1.5155974446663871, -1.5155974446663871]], [[1.5454638619847008, -1.5454638619847008]], [[1.521462756107746, -1.521462756107746]], [[1.5499221178940772, -1.5499221178940772]], [[1.5271551218677049, -1.5271551218677049]], [[1.5538760128542368, -1.5538760128542368]], [[1.5322215821640195, -1.5322215821640195]], [[1.5733762107753775, -1.5733762107753775]], [[1.5249466615690541, -1.5249466615690541]], [[1.5779446592398112, -1.5779446592398112]], [[1.525193147264627, -1.525193147264627]], [[1.5766428566528212, -1.5766428566528212]], [[1.5301385923612927, -1.5301385923612927]], [[1.5759845074139538, -1.5759845074139538]], [[1.5365828726281017, -1.5365828726281017]], [[1.5762242579308088, -1.5762242579308088]], [[1.5427121639314005, -1.5427121639314005]], [[1.5781115311370013, -1.5781115311370013]], [[1.5485508378883228, -1.5485508378883228]], [[1.5802325728680207, -1.5802325728680207]], [[1.5538781903959624, -1.5538781903959624]], [[1.583547164159161, -1.583547164159161]], [[1.5589700366113772, -1.5589700366113772]], [[1.5867905227534012, -1.5867905227534012]], [[1.5632788006492182, -1.5632788006492184]], [[1.6078304211579246, -1.6078304211579248]], [[1.5537717308320214, -1.5537717308320216]], [[1.6103913828993552, -1.6103913828993555]], [[1.5539637202355292, -1.5539637202355294]], [[1.6073565265180418, -1.607356526518042]], [[1.5585137349758806, -1.5585137349758809]], [[1.6054663213421223, -1.6054663213421225]], [[1.5645898945261325, -1.5645898945261327]], [[1.605055135565833, -1.6050551355658331]], [[1.570326793759169, -1.5703267937591692]], [[1.6060824022809157, -1.606082402280916]], [[1.5759407582222704, -1.5759407582222709]], [[1.6080385751818125, -1.6080385751818127]], [[1.5810083069846412, -1.5810083069846415]], [[1.610585585127776, -1.6105855851277762]], [[1.585628868277978, -1.585628868277978]], [[1.613214967452467, -1.613214967452467]], [[1.589440887268598, -1.5894408872685981]], [[1.616282217734873, -1.6162822177348732]], [[1.592926140970676, -1.5929261409706763]], [[1.636682209661207, -1.6366822096612073]], [[1.5820837753104222, -1.5820837753104224]], [[1.638750916318495, -1.638750916318495]], [[1.5810441354856002, -1.5810441354856002]], [[1.6346996475927564, -1.6346996475927564]], [[1.5847630736918021, -1.5847630736918021]], [[1.6318235553184262, -1.6318235553184262]], [[1.5899330028634346, -1.5899330028634346]], [[1.6310868483382226, -1.6310868483382226]], [[1.5955687654353667, -1.5955687654353667]], [[1.631399714315191, -1.6313997143151913]], [[1.600385093710413, -1.6003850937104132]], [[1.6323901703716555, -1.6323901703716557]], [[1.6044987127336912, -1.6044987127336914]], [[1.6346309424547925, -1.6346309424547927]], [[1.6089993741166215, -1.6089993741166218]], [[1.6366982111547423, -1.6366982111547426]], [[1.6120848743809497, -1.61208487438095]], [[1.6395303506184815, -1.6395303506184817]], [[1.61545906650351, -1.6154590665035102]], [[1.6602849686548402, -1.6602849686548404]], [[1.6026092797254166, -1.6026092797254168]], [[1.660667952281161, -1.6606679522811612]], [[1.601339722893262, -1.6013397228932622]], [[1.6553421498435061, -1.6553421498435064]], [[1.6051585898238525, -1.6051585898238527]], [[1.652189569070409, -1.652189569070409]], [[1.6107420246846307, -1.6107420246846307]], [[1.6505713917896825, -1.6505713917896825]], [[1.6155014062780761, -1.6155014062780761]], [[1.6505867735723, -1.6505867735723]], [[1.62018580176786, -1.62018580176786]], [[1.651189848996015, -1.6511898489960148]], [[1.6238456423927718, -1.6238456423927716]], [[1.6528592025298712, -1.652859202529871]], [[1.6277626109253207, -1.6277626109253205]], [[1.6550591713506235, -1.655059171350623]], [[1.6310579790896371, -1.6310579790896367]], [[1.6571346687236752, -1.6571346687236748]], [[1.6334880612297396, -1.633488061229739]], [[1.6597990752939418, -1.6597990752939413]], [[1.6356198483306168, -1.6356198483306164]], [[1.6823188410042544, -1.682318841004254]], [[1.6213853116738077, -1.6213853116738073]], [[1.681857271197127, -1.6818572711971265]], [[1.6201928672300545, -1.620192867230054]], [[1.6757395289649282, -1.6757395289649277]], [[1.6243217915736217, -1.6243217915736214]], [[1.67172101292242, -1.6717210129224198]], [[1.6293488489688315, -1.6293488489688313]], [[1.670122161036935, -1.6701221610369348]], [[1.634463079298979, -1.6344630792989787]], [[1.669647578313273, -1.6696475783132727]], [[1.6385270586577205, -1.6385270586577203]], [[1.6699143355086368, -1.6699143355086365]], [[1.6419348577532797, -1.6419348577532795]], [[1.6708240236049263, -1.670824023604926]], [[1.6448733240003182, -1.644873324000318]], [[1.6722156093018536, -1.6722156093018534]], [[1.6473960525775613, -1.647396052577561]], [[1.673996001708548, -1.6739960017085478]], [[1.6494397511101089, -1.6494397511101087]], [[1.6957261952395606, -1.6957261952395601]], [[1.634234902260999, -1.6342349022609985]], [[1.6938932187138844, -1.693893218713884]], [[1.6330792515056618, -1.6330792515056614]], [[1.6875704691636346, -1.6875704691636342]], [[1.637642812007127, -1.6376428120071265]], [[1.6833181614619233, -1.6833181614619228]], [[1.6423428440541485, -1.642342844054148]], [[1.681495343394045, -1.6814953433940445]], [[1.647224755042049, -1.6472247550420485]], [[1.6811158797667392, -1.6811158797667387]], [[1.6513670491782722, -1.6513670491782717]], [[1.6816260877739178, -1.6816260877739173]], [[1.6549398365398145, -1.654939836539814]], [[1.682663476532005, -1.6826634765320045]], [[1.6578925786009975, -1.657892578600997]], [[1.6841163732709994, -1.684116373270999]], [[1.6604215034070842, -1.6604215034070837]], [[1.6858967698739833, -1.6858967698739828]], [[1.6625425193650596, -1.6625425193650591]], [[1.687955218052512, -1.6879552180525115]], [[1.6641035237503803, -1.6641035237503798]], [[1.7106123330404062, -1.710612333040406]], [[1.6476269632747014, -1.6476269632747012]], [[1.708612049697543, -1.7086120496975428]], [[1.6464330609973001, -1.6464330609973]], [[1.7017080963782043, -1.701708096378204]], [[1.6505749310424118, -1.6505749310424116]], [[1.6972210485556891, -1.697221048555689]], [[1.6552504314940064, -1.6552504314940062]], [[1.6950729021813582, -1.695072902181358]], [[1.659762630056953, -1.6597626300569528]], [[1.694368907890759, -1.6943689078907587]], [[1.6635820855879029, -1.6635820855879027]], [[1.6945772346601538, -1.6945772346601535]], [[1.6668334179927686, -1.6668334179927684]], [[1.6954518344177207, -1.6954518344177205]], [[1.6696165470389537, -1.6696165470389535]], [[1.6968039336224192, -1.696803933622419]], [[1.6719983152641371, -1.671998315264137]], [[1.6985222755808862, -1.698522275580886]], [[1.6740018496640927, -1.6740018496640925]], [[1.7005325881806828, -1.7005325881806825]], [[1.6750178689247384, -1.6750178689247381]], [[1.7258172150032105, -1.7258172150032103]], [[1.657029108942421, -1.6570291089424207]], [[1.7200512186528494, -1.7200512186528494]], [[1.6571013862898762, -1.6571013862898762]], [[1.7119010744824887, -1.7119010744824887]], [[1.6614819980483586, -1.6614819980483586]], [[1.7070709414784917, -1.7070709414784917]], [[1.6662464429203099, -1.6662464429203099]], [[1.7047183699680697, -1.7047183699680695]], [[1.670548741450369, -1.6705487414503688]], [[1.7039600749434116, -1.7039600749434114]], [[1.6742737076221272, -1.674273707622127]], [[1.7041971412989447, -1.7041971412989445]], [[1.6774649368194714, -1.6774649368194712]], [[1.7050851807407361, -1.705085180740736]], [[1.680187430250342, -1.6801874302503417]], [[1.7064387856670007, -1.7064387856670005]], [[1.6825024963799995, -1.6825024963799993]], [[1.7081688801822497, -1.7081688801822494]], [[1.6844466005254715, -1.6844466005254712]], [[1.7101594087454481, -1.7101594087454481]], [[1.6856282161616873, -1.6856282161616873]], [[1.7351303730045389, -1.7351303730045389]], [[1.6670113959484805, -1.6670113959484805]], [[1.7302179839844043, -1.7302179839844043]], [[1.665828424696266, -1.665828424696266]], [[1.7214636928950384, -1.7214636928950384]], [[1.67042873014002, -1.67042873014002]], [[1.7164113623204822, -1.7164113623204822]], [[1.6753407877969746, -1.6753407877969746]], [[1.7139230583630836, -1.7139230583630836]], [[1.6797214040875905, -1.6797214040875905]], [[1.7130397033432532, -1.7130397033432532]], [[1.6834777187068994, -1.6834777187068994]], [[1.713196680779312, -1.713196680779312]], [[1.6866755014296277, -1.6866755014296277]], [[1.7140182582737817, -1.7140182582737817]], [[1.6893925274926105, -1.6893925274926105]], [[1.715330092703282, -1.715330092703282]], [[1.6916936906641482, -1.6916936906641482]], [[1.7169781728892177, -1.7169781728892177]], [[1.6936059082818926, -1.6936059082818926]], [[1.7189189323679208, -1.7189189323679206]], [[1.6951651855784964, -1.6951651855784962]], [[1.721112514015544, -1.7211125140155439]], [[1.6955474227238567, -1.6955474227238565]], [[1.7490483248405482, -1.749048324840548]], [[1.674972117149806, -1.6749721171498058]], [[1.7403744858786385, -1.7403744858786383]], [[1.6743863860461694, -1.674386386046169]], [[1.730783214980709, -1.7307832149807085]], [[1.6795040878625953, -1.6795040878625949]], [[1.725600974118529, -1.7256009741185285]], [[1.6846395314277558, -1.6846395314277554]], [[1.7231318521522778, -1.7231318521522774]], [[1.6890859483268863, -1.6890859483268859]], [[1.7222885397027512, -1.7222885397027508]], [[1.6928394214662559, -1.6928394214662554]], [[1.722451310409893, -1.7224513104098926]], [[1.695997560960508, -1.6959975609605076]], [[1.7232725426228566, -1.7232725426228561]], [[1.6986548953103484, -1.698654895310348]], [[1.7245682175055486, -1.7245682175055481]], [[1.7008798824902183, -1.7008798824902178]], [[1.7262046420595463, -1.7262046420595458]], [[1.7027212570643622, -1.7027212570643617]], [[1.7281311682294316, -1.7281311682294311]], [[1.7041918416322275, -1.704191841632227]], [[1.7302993058042764, -1.730299305804276]], [[1.7044488215068097, -1.7044488215068092]], [[1.7594910388997684, -1.7594910388997682]], [[1.6827529872933917, -1.6827529872933915]], [[1.7490543994212648, -1.7490543994212646]], [[1.6834221637745501, -1.68342216377455]], [[1.7393304979727686, -1.7393304979727684]], [[1.6886979000512081, -1.688697900051208]], [[1.7341923820554828, -1.7341923820554825]], [[1.693886922114779, -1.6938869221147788]], [[1.7317991452244268, -1.7317991452244266]], [[1.698324222072337, -1.6983242220723367]], [[1.7309942321886742, -1.730994232188674]], [[1.7020401353480281, -1.702040135348028]], [[1.731161823273922, -1.731161823273922]], [[1.7051439335624723, -1.7051439335624723]], [[1.731992335572665, -1.731992335572665]], [[1.707742378542985, -1.7077423785429853]], [[1.7332595118901692, -1.7332595118901695]], [[1.7099050635848083, -1.7099050635848085]], [[1.7348782788206814, -1.7348782788206816]], [[1.7116822468609634, -1.7116822468609636]], [[1.73676805179796, -1.7367680517979602]], [[1.7130880872906589, -1.713088087290659]], [[1.7389034603352151, -1.7389034603352154]], [[1.7135314001126964, -1.7135314001126967]], [[1.7681144414714367, -1.768114441471437]], [[1.6909901753876764, -1.6909901753876766]], [[1.7569433635649006, -1.756943363564901]], [[1.691331054297119, -1.6913310542971194]], [[1.7470721415022559, -1.7470721415022563]], [[1.6965929129054316, -1.696592912905432]], [[1.7420134944365968, -1.7420134944365973]], [[1.7017876450290816, -1.701787645029082]], [[1.7396172754816337, -1.7396172754816341]], [[1.7062055911737328, -1.7062055911737333]], [[1.7387893242079187, -1.738789324207919]], [[1.7098833696159568, -1.7098833696159572]], [[1.7389564550598842, -1.7389564550598846]], [[1.712944991600151, -1.7129449916001513]], [[1.7397397786783748, -1.7397397786783753]], [[1.7154791771723599, -1.7154791771723603]], [[1.7409804739981865, -1.740980473998187]], [[1.7175885339119803, -1.7175885339119807]], [[1.742551861077631, -1.7425518610776314]], [[1.7193036112386324, -1.7193036112386328]], [[1.744403323143323, -1.7444033231433234]], [[1.720664181705131, -1.7206641817051314]], [[1.7464954836435114, -1.7464954836435118]], [[1.7212762148824312, -1.7212762148824317]], [[1.7759113239468014, -1.7759113239468018]], [[1.6979187098955006, -1.697918709895501]], [[1.7639365429205633, -1.7639365429205638]], [[1.6986494200764073, -1.6986494200764077]], [[1.7541345718953325, -1.754134571895333]], [[1.7041040999785797, -1.7041040999785801]], [[1.749184412693363, -1.7491844126933636]], [[1.7093443363017078, -1.709344336301708]], [[1.7469130014342706, -1.7469130014342709]], [[1.7137607950880136, -1.7137607950880138]], [[1.7460998869452924, -1.7460998869452924]], [[1.7174204107101865, -1.7174204107101865]], [[1.7462327348745383, -1.7462327348745383]], [[1.7204503609836017, -1.7204503609836017]], [[1.747000011016417, -1.747000011016417]], [[1.7229620480889103, -1.7229620480889103]], [[1.7481973734473144, -1.7481973734473144]], [[1.725023510475826, -1.725023510475826]], [[1.7497254672252032, -1.7497254672252032]], [[1.7267062212475925, -1.7267062212475925]], [[1.7515277696700813, -1.7515277696700815]], [[1.7280284189572201, -1.7280284189572204]], [[1.7535691964989022, -1.7535691964989024]], [[1.7290030020045835, -1.729003002004584]], [[1.775827882937769, -1.7758278829377694]], [[1.7063468521714904, -1.7063468521714908]], [[1.7849530038083692, -1.7849530038083696]], [[1.6978999271375517, -1.6978999271375521]], [[1.8456300395916982, -1.8456300395916987]], [[1.636250469902517, -1.6362504699025175]], [[1.685805479293122, -1.6858054792931225]], [[1.5920947930857627, -1.5920947930857632]], [[1.6746303262778166, -1.674630326277817]], [[1.5382429410158316, -1.5382429410158323]], [[1.6811445146998936, -1.6811445146998942]], [[1.5214724434070308, -1.5214724434070315]], [[1.4520968867914994, -1.4520968867915]], [[1.5028231239083976, -1.5028231239083982]], [[1.4144528711619664, -1.414452871161967]], [[1.5159698475580154, -1.5159698475580161]], [[1.4022884400819677, -1.4022884400819684]], [[1.4961297889351008, -1.4961297889351015]], [[1.3956513947595908, -1.3956513947595914]], [[1.463773412595463, -1.4637734125954636]], [[1.3834385807024026, -1.3834385807024032]], [[1.4234988320798627, -1.4234988320798634]], [[1.3748788153749587, -1.3748788153749594]], [[1.4357332498236486, -1.4357332498236492]], [[1.37230557875841, -1.3723055787584109]], [[1.4365395912288137, -1.4365395912288146]], [[1.3738315821017413, -1.3738315821017422]], [[1.4050417031400835, -1.4050417031400846]], [[1.376454866615251, -1.376454866615252]], [[1.4147818225789974, -1.4147818225789983]], [[1.3799037216529753, -1.3799037216529761]], [[1.403338100408193, -1.403338100408194]], [[1.3815420751115601, -1.381542075111561]], [[1.4187809200694192, -1.4187809200694201]], [[1.3876331943530533, -1.3876331943530542]], [[1.4091597138790384, -1.4091597138790395]], [[1.3910058932232612, -1.3910058932232623]], [[1.4230931380576097, -1.4230931380576108]], [[1.3941157831905777, -1.3941157831905788]], [[1.4160842844235864, -1.4160842844235875]], [[1.4013809423474235, -1.4013809423474246]], [[1.4268931914299794, -1.4268931914299805]], [[1.4032558342207802, -1.4032558342207813]], [[1.4223542976164354, -1.4223542976164365]], [[1.4115637490441473, -1.4115637490441484]], [[1.4222675236127924, -1.4222675236127935]], [[1.4211728844083693, -1.4211728844083704]], [[1.423660130580908, -1.4236601305809091]], [[1.4247977030727652, -1.4247977030727663]], [[1.4270353371268862, -1.4270353371268873]], [[1.4284672621875676, -1.4284672621875687]], [[1.4394893770337804, -1.4394893770337815]], [[1.4326563260350833, -1.4326563260350842]], [[1.4355178295720656, -1.4355178295720665]], [[1.436602447942814, -1.436602447942815]], [[1.4390324648329644, -1.4390324648329653]], [[1.439701089048248, -1.439701089048249]], [[1.451642539553758, -1.4516425395537589]], [[1.443003607372792, -1.4430036073727928]], [[1.4530291109309037, -1.4530291109309044]], [[1.4431623095556614, -1.443162309555662]], [[1.454562093255114, -1.4545620932551149]], [[1.447656510567962, -1.4476565105679629]], [[1.465631154590296, -1.465631154590297]], [[1.450215849478478, -1.450215849478479]], [[1.4653934250446699, -1.4653934250446707]], [[1.4506590598449352, -1.450659059844936]], [[1.4660836448269836, -1.4660836448269845]], [[1.4557502709438879, -1.4557502709438888]], [[1.4668933401622142, -1.466893340162215]], [[1.466053164504208, -1.466053164504209]], [[1.468586539113118, -1.468586539113119]], [[1.468645382522755, -1.468645382522756]], [[1.471561561833086, -1.4715615618330868]], [[1.466809134927165, -1.466809134927166]], [[1.4734130305934032, -1.4734130305934041]], [[1.468857211828283, -1.4688572118282839]], [[1.4844921958129311, -1.484492195812932]], [[1.4690228844126347, -1.4690228844126356]], [[1.4732447762670475, -1.4732447762670484]], [[1.4554190551199877, -1.4554190551199886]], [[1.448471357290555, -1.4484713572905559]], [[1.4565205959103988, -1.4565205959103997]], [[1.4336966572944705, -1.4336966572944714]], [[1.4637605282841006, -1.4637605282841015]], [[1.4128371625089775, -1.4128371625089784]], [[1.506983859375721, -1.5069838593757219]], [[1.4003693078452946, -1.4003693078452955]], [[1.4950090225070374, -1.4950090225070383]], [[1.4045765424438135, -1.4045765424438144]], [[1.5232466015464352, -1.523246601546436]], [[1.4136330424574275, -1.4136330424574284]], [[1.4689923056002425, -1.4689923056002434]], [[1.4426025326721705, -1.4426025326721714]], [[1.4583503914643359, -1.4583503914643368]], [[1.4458791915278457, -1.4458791915278466]], [[1.4555114575414496, -1.4555114575414505]], [[1.4503077522415468, -1.4503077522415477]], [[1.457316395084447, -1.4573163950844479]], [[1.4544035072385573, -1.4544035072385582]], [[1.4598396038125951, -1.459839603812596]], [[1.4582566238237866, -1.4582566238237875]], [[1.4624334215446886, -1.4624334215446895]], [[1.4617377280640624, -1.4617377280640633]], [[1.4648796498127503, -1.4648796498127514]], [[1.4647495159393498, -1.4647495159393509]], [[1.4672131067984016, -1.4672131067984027]], [[1.4647790520930006, -1.4647790520930017]], [[1.468261501150626, -1.468261501150627]], [[1.4625221672445945, -1.4625221672445956]], [[1.4693590135892665, -1.4693590135892676]], [[1.4507452625576422, -1.4507452625576434]], [[1.4557301073393811, -1.4557301073393822]], [[1.428955075211495, -1.4289550752114961]], [[1.4615716204096314, -1.4615716204096325]], [[1.4095022223285203, -1.4095022223285214]], [[1.4996155939201785, -1.4996155939201796]], [[1.3969657079710056, -1.3969657079710067]], [[1.492169850913417, -1.492169850913418]], [[1.4007617402444337, -1.4007617402444348]], [[1.4829322871119317, -1.4829322871119328]], [[1.4004704886058812, -1.4004704886058823]], [[1.5098886195232293, -1.5098886195232304]], [[1.4035158700815902, -1.4035158700815913]], [[1.4741302648301045, -1.4741302648301056]], [[1.4433840299315093, -1.4433840299315104]], [[1.4623863347555357, -1.4623863347555368]], [[1.4479132757169322, -1.4479132757169333]], [[1.4493037185700808, -1.449303718570082]], [[1.4507279763521252, -1.4507279763521264]], [[1.4520338948225777, -1.4520338948225788]], [[1.4534133347270322, -1.4534133347270333]], [[1.4546307142447528, -1.4546307142447539]], [[1.4560248379887313, -1.4560248379887324]], [[1.4573091312025288, -1.4573091312025297]], [[1.458667345638569, -1.45866734563857]], [[1.459647932015141, -1.4596479320151419]], [[1.4476890145764392, -1.4476890145764398]], [[1.4459978096309805, -1.4459978096309811]], [[1.4296616349264517, -1.4296616349264524]], [[1.4435118391705142, -1.4435118391705148]], [[1.4153531624801239, -1.4153531624801245]], [[1.4609824218211964, -1.460982421821197]], [[1.3965247490706978, -1.3965247490706985]], [[1.4722620119277707, -1.4722620119277714]], [[1.3897378330808245, -1.3897378330808252]], [[1.4732128085375253, -1.473212808537526]], [[1.386940081039037, -1.3869400810390378]], [[1.5140554041340233, -1.514055404134024]], [[1.3947109041241066, -1.394710904124107]], [[1.4676686383139634, -1.4676686383139639]], [[1.4422266177986764, -1.442226617798677]], [[1.4440200125393015, -1.444020012539302]], [[1.4301107484629338, -1.4301107484629343]], [[1.4188716333781366, -1.418871633378137]], [[1.430700120200667, -1.4307001202006675]], [[1.4205409010094097, -1.42054090100941]], [[1.4324299461705352, -1.4324299461705357]], [[1.4201475571887603, -1.4201475571887607]], [[1.4305930037170331, -1.4305930037170336]], [[1.4011305782321644, -1.4011305782321648]], [[1.4343846445589228, -1.4343846445589232]], [[1.389632572003704, -1.3896325720037044]], [[1.438863614822641, -1.4388636148226415]], [[1.3780699612901064, -1.3780699612901068]], [[1.4728404292951485, -1.472840429295149]], [[1.3731953308747098, -1.3731953308747102]], [[1.4548648189753395, -1.45486481897534]], [[1.3806003717589064, -1.3806003717589068]], [[1.4443805367812814, -1.4443805367812819]], [[1.3822390781810352, -1.3822390781810356]], [[1.437258790432689, -1.4372587904326894]], [[1.3804562473883513, -1.3804562473883517]], [[1.4325167621852402, -1.4325167621852406]], [[1.3767980922745333, -1.3767980922745338]], [[1.4296894432114047, -1.4296894432114051]], [[1.3725685512196852, -1.3725685512196857]], [[1.4278960921629549, -1.4278960921629553]], [[1.3669097735872118, -1.3669097735872122]], [[1.4529217554249478, -1.4529217554249483]], [[1.3633522927522375, -1.363352292752238]], [[1.4379967823236524, -1.4379967823236528]], [[1.3701140379141425, -1.370114037914143]], [[1.4277974685025818, -1.4277974685025823]], [[1.3712961952206637, -1.3712961952206641]], [[1.4208997736742093, -1.4208997736742097]], [[1.3689142761049138, -1.3689142761049142]], [[1.4164026226674862, -1.4164026226674866]], [[1.3648793344277204, -1.3648793344277208]], [[1.413413220939438, -1.4134132209394386]], [[1.3604659524117169, -1.3604659524117173]], [[1.4115046514457297, -1.4115046514457301]], [[1.356239765422315, -1.3562397654223155]], [[1.4101178183162508, -1.4101178183162513]], [[1.3516000564703936, -1.351600056470394]], [[1.4335409123619691, -1.4335409123619696]], [[1.3477304223592632, -1.3477304223592637]], [[1.4205455463580416, -1.420545546358042]], [[1.3543624546388193, -1.3543624546388198]], [[1.4111157923478106, -1.411115792347811]], [[1.355663529007818, -1.3556635290078185]], [[1.4046956687428105, -1.4046956687428112]], [[1.3535197695390204, -1.3535197695390213]], [[1.4004244386175733, -1.4004244386175742]], [[1.3498884591722915, -1.3498884591722922]], [[1.3974807420428643, -1.397480742042865]], [[1.3458005360884844, -1.345800536088485]], [[1.3954632372716922, -1.3954632372716929]], [[1.3499285870120328, -1.3499285870120334]], [[1.3941321866804597, -1.3941321866804604]], [[1.3442120251036567, -1.3442120251036573]], [[1.3932267488921954, -1.393226748892196]], [[1.3467021759470292, -1.34670217594703]], [[1.4079669693040597, -1.4079669693040604]], [[1.3415486615214889, -1.3415486615214895]], [[1.404552903044115, -1.4045529030441157]], [[1.3425740732301932, -1.3425740732301938]], [[1.3990243109227494, -1.39902431092275]], [[1.342389621394864, -1.3423896213948647]], [[1.3941911813792032, -1.3941911813792038]], [[1.3405111582532123, -1.340511158253213]], [[1.3904094557831093, -1.39040945578311]], [[1.3375822973556908, -1.3375822973556915]], [[1.3874733598617317, -1.3874733598617324]], [[1.3343089940047128, -1.3343089940047133]], [[1.3853598379369672, -1.3853598379369676]], [[1.3309728068977427, -1.330972806897743]], [[1.3837301466395129, -1.3837301466395133]], [[1.3278836657363664, -1.3278836657363668]], [[1.3823008008682534, -1.3823008008682538]], [[1.3308347127497808, -1.3308347127497813]], [[1.4002765654673635, -1.400276565467364]], [[1.3274686940844045, -1.3274686940844047]], [[1.3937856962872117, -1.393785696287212]], [[1.3309957908793972, -1.3309957908793975]], [[1.386773866419463, -1.386773866419463]], [[1.3316140529613198, -1.3316140529613198]], [[1.3812884664941605, -1.3812884664941607]], [[1.3297852390908818, -1.329785239090882]], [[1.3772652154004785, -1.3772652154004787]], [[1.3266506713612103, -1.3266506713612105]], [[1.3742731664755556, -1.3742731664755559]], [[1.3232024617563352, -1.3232024617563354]], [[1.3721138575670215, -1.3721138575670218]], [[1.3196621173322785, -1.3196621173322787]], [[1.3703533608547578, -1.370353360854758]], [[1.3239854335621153, -1.3239854335621155]], [[1.368969990655023, -1.3689699906550232]], [[1.3205536940032983, -1.3205536940032985]], [[1.3678363005853282, -1.3678363005853285]], [[1.323557858048297, -1.323557858048297]], [[1.3814142275826737, -1.3814142275826737]], [[1.3268200380256825, -1.3268200380256825]], [[1.3785777825632501, -1.3785777825632501]], [[1.3240235212722575, -1.3240235212722575]], [[1.3721678243706825, -1.3721678243706825]], [[1.3200345296832932, -1.3200345296832932]], [[1.3697608843668656, -1.3697608843668656]], [[1.316453596527078, -1.316453596527078]], [[1.3673896679105455, -1.3673896679105455]], [[1.3131064902322314, -1.3131064902322314]], [[1.3651414400740478, -1.3651414400740478]], [[1.309925987769377, -1.309925987769377]], [[1.3632726016358636, -1.3632726016358636]], [[1.3068951678132148, -1.3068951678132148]], [[1.3617125076704562, -1.3617125076704562]], [[1.304104427958966, -1.3041044279589662]], [[1.3603377460955302, -1.3603377460955304]], [[1.3016044783737448, -1.301604478373745]], [[1.3590547127367698, -1.35905471273677]], [[1.2980920889664658, -1.298092088966466]], [[1.3850546590484911, -1.3850546590484916]], [[1.2967191086548309, -1.2967191086548313]], [[1.373596619110925, -1.3735966191109255]], [[1.3038601246045036, -1.3038601246045038]], [[1.3635296650550002, -1.3635296650550004]], [[1.3067504057590458, -1.306750405759046]], [[1.3557543785638493, -1.3557543785638495]], [[1.3060157294553574, -1.3060157294553576]], [[1.3501746224662587, -1.350174622466259]], [[1.303120616132226, -1.303120616132226]], [[1.3462294257624432, -1.3462294257624432]], [[1.2993904662665758, -1.2993904662665758]], [[1.3433515354695529, -1.3433515354695529]], [[1.2967738294652458, -1.2967738294652458]], [[1.3413290519808019, -1.3413290519808019]], [[1.2932665254988178, -1.2932665254988178]], [[1.3399161134734463, -1.3399161134734463]], [[1.2967116014642472, -1.2967116014642475]], [[1.338646968141367, -1.3386469681413673]], [[1.2935318898909391, -1.2935318898909394]], [[1.3376719215833364, -1.3376719215833366]], [[1.2963142482160506, -1.296314248216051]], [[1.3369827950670012, -1.3369827950670017]], [[1.2918703712583872, -1.2918703712583877]], [[1.3517758248170966, -1.351775824817097]], [[1.29360189970835, -1.2936018997083505]], [[1.349762166394832, -1.3497621663948325]], [[1.293085598490161, -1.2930855984901615]], [[1.3459600579562752, -1.3459600579562756]], [[1.2919775107707265, -1.291977510770727]], [[1.3420731159545467, -1.3420731159545471]], [[1.2900833466405046, -1.290083346640505]], [[1.3386135184102188, -1.3386135184102192]], [[1.2875758932590253, -1.2875758932590258]], [[1.335674311817351, -1.3356743118173515]], [[1.2847447786661124, -1.2847447786661128]], [[1.3334130840620562, -1.3334130840620566]], [[1.2817208857416305, -1.281720885741631]], [[1.331669264306183, -1.3316692643061834]], [[1.2788134709428574, -1.2788134709428578]], [[1.33027884373824, -1.3302788437382405]], [[1.2761395113014404, -1.2761395113014409]], [[1.329112898352074, -1.3291128983520744]], [[1.2733886295146333, -1.2733886295146337]], [[1.3507755103648023, -1.3507755103648027]], [[1.2708109521608324, -1.2708109521608328]], [[1.3442437076096174, -1.3442437076096179]], [[1.2759728443515275, -1.275972844351528]], [[1.3363364179659343, -1.3363364179659347]], [[1.278792031566656, -1.2787920315666566]], [[1.3293298284047563, -1.3293298284047568]], [[1.2789053457739488, -1.2789053457739492]], [[1.323821071020247, -1.3238210710202474]], [[1.2770048126932536, -1.277004812693254]], [[1.3196792387711092, -1.3196792387711096]], [[1.2740194135452192, -1.2740194135452196]], [[1.316556640629739, -1.3165566406297395]], [[1.2705573476601815, -1.270557347660182]], [[1.314320913040755, -1.3143209130407554]], [[1.2683694804717045, -1.268369480471705]], [[1.3125470216477557, -1.312547021647756]], [[1.272641578961224, -1.2726415789612242]], [[1.3110064724909938, -1.311006472490994]], [[1.277513406157673, -1.2775134061576732]], [[1.3096478208179687, -1.309647820817969]], [[1.2819112032551958, -1.281911203255196]], [[1.3085756522800227, -1.308575652280023]], [[1.2857349184037343, -1.2857349184037346]], [[1.3078342786320674, -1.3078342786320676]], [[1.2890467341821723, -1.2890467341821723]], [[1.30741703356175, -1.30741703356175]], [[1.2919252629992624, -1.2919252629992624]], [[1.307289701409927, -1.307289701409927]], [[1.2943635369168536, -1.2943635369168536]], [[1.3106166814104485, -1.3106166814104485]], [[1.2980646662021922, -1.2980646662021922]], [[1.3123283453691976, -1.3123283453691976]], [[1.301262951693714, -1.301262951693714]], [[1.3135279705465943, -1.3135279705465945]], [[1.3037959598734075, -1.3037959598734077]], [[1.3144252214565217, -1.314425221456522]], [[1.3046342330597205, -1.3046342330597207]], [[1.3145827329567359, -1.314582732956736]], [[1.2920688251852641, -1.2920688251852643]], [[1.3146046341811215, -1.3146046341811217]], [[1.2921532415333592, -1.2921532415333594]], [[1.314467804369786, -1.3144678043697862]], [[1.2815033522974009, -1.281503352297401]], [[1.3151017808320764, -1.3151017808320766]], [[1.2726501499465024, -1.2726501499465026]], [[1.316715740154904, -1.3167157401549041]], [[1.2654540278618716, -1.2654540278618718]], [[1.3193455821868358, -1.319345582186836]], [[1.257473232670171, -1.2574732326701712]], [[1.3548695939894733, -1.3548695939894735]], [[1.2536524607336288, -1.253652460733629]], [[1.352448342254575, -1.3524483422545752]], [[1.2492722772235492, -1.2492722772235494]], [[1.3541558608046578, -1.354155860804658]], [[1.2444679083435206, -1.2444679083435206]], [[1.3558837253604716, -1.3558837253604716]], [[1.2400821055554363, -1.2400821055554363]], [[1.3573221557528967, -1.3573221557528967]], [[1.2365016337864376, -1.2365016337864376]], [[1.3584213589240297, -1.3584213589240297]], [[1.236574804308399, -1.236574804308399]], [[1.3528313028253252, -1.3528313028253252]], [[1.247975159965412, -1.247975159965412]], [[1.3317674491330553, -1.3317674491330553]], [[1.2683842973647133, -1.2683842973647135]], [[1.3132839476610922, -1.3132839476610925]], [[1.2753256679252114, -1.2753256679252116]], [[1.3031800654976071, -1.3031800654976073]], [[1.2732896377131036, -1.2732896377131038]], [[1.2971703001345913, -1.2971703001345916]], [[1.2785962555611243, -1.2785962555611246]], [[1.2938240994064378, -1.2938240994064378]], [[1.2834604315895761, -1.2834604315895761]], [[1.292424562446444, -1.2924245624464439]], [[1.2867126264947024, -1.2867126264947022]], [[1.2921411288881834, -1.2921411288881832]], [[1.289042802365274, -1.2890428023652738]], [[1.2924759766750724, -1.2924759766750722]], [[1.2908547494352185, -1.2908547494352183]], [[1.2931497040827726, -1.2931497040827726]], [[1.2923720694448173, -1.2923720694448173]], [[1.294008421145884, -1.294008421145884]], [[1.293718082704765, -1.293718082704765]], [[1.2949175719348216, -1.2949175719348216]], [[1.2949502462864029, -1.2949502462864029]], [[1.295889658383886, -1.295889658383886]], [[1.295807370144978, -1.295807370144978]], [[1.2968263542847904, -1.2968263542847904]], [[1.2966685376001759, -1.2966685376001756]], [[1.2974244349475041, -1.297424434947504]], [[1.2974621866426632, -1.297462186642663]], [[1.2980352984735888, -1.2980352984735886]], [[1.2968106874125913, -1.296810687412591]], [[1.2984114812640084, -1.2984114812640084]], [[1.297765436156049, -1.297765436156049]], [[1.2989100252653494, -1.2989100252653494]], [[1.298549195950772, -1.298549195950772]], [[1.3013086957688595, -1.3013086957688595]], [[1.28490573581253, -1.28490573581253]], [[1.3008503618433815, -1.3008503618433815]], [[1.2863601632982797, -1.2863601632982797]], [[1.299911147774989, -1.299911147774989]], [[1.2779329748372854, -1.2779329748372854]], [[1.2986190623910587, -1.2986190623910587]], [[1.279948214805537, -1.279948214805537]], [[1.2974717397822164, -1.2974717397822164]], [[1.2727764483027122, -1.2727764483027122]], [[1.2962235401882756, -1.2962235401882756]], [[1.2746087364821599, -1.2746087364821599]], [[1.3011937301785461, -1.3011937301785461]], [[1.2694977130817864, -1.2694977130817866]], [[1.3009733122880853, -1.3009733122880855]], [[1.264495253753282, -1.2644952537532823]], [[1.29955903650302, -1.2995590365030203]], [[1.2604363251314077, -1.260436325131408]], [[1.2979224557226683, -1.2979224557226685]], [[1.2567162461644432, -1.2567162461644434]], [[1.2964365976430106, -1.2964365976430108]], [[1.25321829388066, -1.2532182938806602]], [[1.2952098696483854, -1.2952098696483856]], [[1.248410352366921, -1.2484103523669212]], [[1.3149853412994745, -1.314985341299475]], [[1.2446274646371838, -1.2446274646371842]], [[1.3138135316804123, -1.3138135316804127]], [[1.2458308043413189, -1.2458308043413193]], [[1.3092895888237677, -1.3092895888237681]], [[1.2473596979858046, -1.247359697985805]], [[1.303550032170425, -1.3035500321704254]], [[1.2484598035019236, -1.248459803501924]], [[1.2975835110144736, -1.297583511014474]], [[1.2486772816923313, -1.2486772816923317]], [[1.2920411618521634, -1.2920411618521639]], [[1.2477924481545712, -1.2477924481545717]], [[1.2873067684671378, -1.2873067684671382]], [[1.2458940345264267, -1.245894034526427]], [[1.283480556296398, -1.2834805562963985]], [[1.2433140356077799, -1.24331403560778]], [[1.2804789788383872, -1.2804789788383875]], [[1.2403473768482847, -1.2403473768482849]], [[1.2781602139809334, -1.2781602139809336]], [[1.2359294712613926, -1.2359294712613929]], [[1.2926239930503407, -1.292623993050341]], [[1.2329366652954121, -1.2329366652954123]], [[1.2916227079404738, -1.291622707940474]], [[1.2338732525098481, -1.2338732525098484]], [[1.2877279636917107, -1.287727963691711]], [[1.2346821342846017, -1.234682134284602]], [[1.2827972383155928, -1.282797238315593]], [[1.2347888119879769, -1.234788811987977]], [[1.2780161186313586, -1.2780161186313588]], [[1.234003990414597, -1.2340039904145972]], [[1.273795634568748, -1.2737956345687482]], [[1.2323671445963724, -1.2323671445963726]], [[1.270273168367372, -1.2702731683673723]], [[1.230123597060622, -1.2301235970606221]], [[1.2674230583469577, -1.267423058346958]], [[1.2275263891857435, -1.2275263891857437]], [[1.2651530600812562, -1.2651530600812564]], [[1.2245263060871103, -1.2245263060871103]], [[1.2770873577999589, -1.2770873577999589]], [[1.2217015335203059, -1.2217015335203059]], [[1.2765345230978593, -1.2765345230978593]], [[1.2222240617969797, -1.2222240617969797]], [[1.2732930407510747, -1.2732930407510747]], [[1.2226221464097202, -1.2226221464097202]], [[1.2690522249232126, -1.2690522249232126]], [[1.2224868805265503, -1.2224868805265503]], [[1.264814718036407, -1.264814718036407]], [[1.2215999073401536, -1.2215999073401536]], [[1.261003144165524, -1.261003144165524]], [[1.220010988125228, -1.220010988125228]], [[1.2577634755921983, -1.2577634755921983]], [[1.217901075046717, -1.217901075046717]], [[1.2550902447088284, -1.2550902447088284]], [[1.2154749252129957, -1.2154749252129957]], [[1.2529187497040564, -1.2529187497040566]], [[1.212910900560711, -1.2129109005607113]], [[1.2511746677417126, -1.2511746677417128]], [[1.2097510604703379, -1.209751060470338]], [[1.2645009595859813, -1.2645009595859815]], [[1.207199053350177, -1.2071990533501773]], [[1.2646297440791734, -1.2646297440791736]], [[1.207653423413514, -1.2076534234135141]], [[1.2620069828143285, -1.2620069828143288]], [[1.2082139689604339, -1.208213968960434]], [[1.2581235273264304, -1.2581235273264306]], [[1.2085529675127087, -1.208552967512709]], [[1.2539177210739345, -1.2539177210739347]], [[1.2083781910349567, -1.208378191034957]], [[1.2498701516466177, -1.249870151646618]], [[1.2075579961464826, -1.2075579961464828]], [[1.2462505121567518, -1.246250512156752]], [[1.2061028158518035, -1.2061028158518037]], [[1.243161572143668, -1.2431615721436682]], [[1.2041883598629601, -1.2041883598629604]], [[1.2405938884035064, -1.2405938884035066]], [[1.2019576053644254, -1.2019576053644256]], [[1.2384867343224202, -1.2384867343224204]], [[1.1995815197712276, -1.1995815197712278]], [[1.2366822242566449, -1.236682224256645]], [[1.2029528463152201, -1.2029528463152204]], [[1.2442825536070536, -1.2442825536070539]], [[1.209165337870539, -1.2091653378705391]], [[1.2427087166693809, -1.242708716669381]], [[1.2068518967211928, -1.206851896721193]], [[1.240244423732715, -1.2402444237327153]], [[1.2044051328321157, -1.204405132832116]], [[1.2376233184392045, -1.2376233184392047]], [[1.2017413590796209, -1.201741359079621]], [[1.235114499398357, -1.2351144993983572]], [[1.1989455243230844, -1.1989455243230847]], [[1.23296929638684, -1.2329692963868402]], [[1.1960842088087542, -1.1960842088087547]], [[1.2311845538256716, -1.231184553825672]], [[1.1932600231176864, -1.1932600231176869]], [[1.2297285616412024, -1.2297285616412028]], [[1.1905385223795564, -1.1905385223795568]], [[1.2285774308945139, -1.2285774308945143]], [[1.1879279883877347, -1.1879279883877352]], [[1.2277202052885758, -1.2277202052885763]], [[1.1846189963313023, -1.1846189963313027]], [[1.24334042234533, -1.2433404223453304]], [[1.1819198382644873, -1.1819198382644878]], [[1.245838451145557, -1.2458384511455574]], [[1.180485922133819, -1.1804859221338195]], [[1.246359390625457, -1.2463593906254575]], [[1.1792493724845394, -1.1792493724845399]], [[1.2457826990160026, -1.245782699016003]], [[1.1783829826382988, -1.1783829826382992]], [[1.2445338364930403, -1.2445338364930407]], [[1.1781652480286906, -1.1781652480286908]], [[1.2423966494496395, -1.2423966494496397]], [[1.1787045984016093, -1.1787045984016096]], [[1.2391773880300319, -1.239177388030032]], [[1.179957549678531, -1.179957549678531]], [[1.2348679792691393, -1.2348679792691393]], [[1.1816274213231812, -1.1816274213231812]], [[1.2297490294168776, -1.2297490294168776]], [[1.1831770719622725, -1.1831770719622725]], [[1.224394896734113, -1.224394896734113]], [[1.1839842568832248, -1.1839842568832248]], [[1.219453481193209, -1.219453481193209]], [[1.1836869700970596, -1.1836869700970596]], [[1.215323023335519, -1.215323023335519]], [[1.1822408152007218, -1.1822408152007218]], [[1.2118625402723004, -1.2118625402723004]], [[1.1883801712033097, -1.1883801712033097]], [[1.2086961563660168, -1.2086961563660168]], [[1.1932505183322548, -1.1932505183322548]], [[1.2064602649260316, -1.2064602649260316]], [[1.1966966225342661, -1.1966966225342661]], [[1.205176863561829, -1.205176863561829]], [[1.1992815341085037, -1.1992815341085037]], [[1.2045857770125956, -1.2045857770125956]], [[1.2009290956654175, -1.2009290956654175]], [[1.2063874568101687, -1.2063874568101687]], [[1.2037920799166757, -1.2037920799166757]], [[1.207355098917648, -1.207355098917648]], [[1.205892024826579, -1.205892024826579]], [[1.208225301830828, -1.208225301830828]], [[1.2072920122514597, -1.2072920122514597]], [[1.209024100252659, -1.209024100252659]], [[1.2083990512302403, -1.2083990512302403]], [[1.209539141050283, -1.209539141050283]], [[1.2092627602175137, -1.2092627602175137]], [[1.2100423102150897, -1.2100423102150897]], [[1.2099665357895608, -1.209966535789561]], [[1.2105239823461007, -1.210523982346101]], [[1.2105384683525364, -1.2105384683525366]], [[1.2109521046006495, -1.2109521046006497]], [[1.2110340144645928, -1.211034014464593]], [[1.2113568954686293, -1.2113568954686296]], [[1.2114754217827908, -1.211475421782791]], [[1.2117399379914997, -1.2117399379915]], [[1.2118773930407511, -1.2118773930407514]], [[1.2121034420508698, -1.21210344205087]], [[1.2122461887997562, -1.2122461887997564]], [[1.2112522867887592, -1.2112522867887594]], [[1.2123918030186902, -1.2123918030186902]], [[1.211828089945115, -1.211828089945115]], [[1.2126116313830764, -1.2126116313830764]], [[1.212314587151137, -1.212314587151137]], [[1.212872563296526, -1.212872563296526]], 